FANN_FLO_2.1
num_layers=4
learning_rate=0.100000
connection_rate=1.000000
network_type=0
learning_momentum=0.800000
training_algorithm=0
train_error_function=1
train_stop_function=0
cascade_output_change_fraction=0.010000
quickprop_decay=-0.000100
quickprop_mu=1.750000
rprop_increase_factor=1.200000
rprop_decrease_factor=0.500000
rprop_delta_min=0.000000
rprop_delta_max=50.000000
rprop_delta_zero=0.100000
cascade_output_stagnation_epochs=12
cascade_candidate_change_fraction=0.010000
cascade_candidate_stagnation_epochs=12
cascade_max_out_epochs=150
cascade_min_out_epochs=10
cascade_max_cand_epochs=150
cascade_min_cand_epochs=10
cascade_num_candidate_groups=2
bit_fail_limit=3.49999994039535522461e-01
cascade_candidate_limit=1.00000000000000000000e+03
cascade_weight_multiplier=4.00000005960464477539e-01
cascade_activation_functions_count=10
cascade_activation_functions=3 5 7 8 10 11 14 15 16 17 
cascade_activation_steepnesses_count=4
cascade_activation_steepnesses=2.50000000000000000000e-01 5.00000000000000000000e-01 7.50000000000000000000e-01 1.00000000000000000000e+00 
layer_sizes=361 51 26 2 
scale_included=0
neurons (num_inputs, activation_function, activation_steepness)=(0, 0, 0.00000000000000000000e+00) (0, 0, 0.00000000000000000000e+00) (0, 0, 0.00000000000000000000e+00) (0, 0, 0.00000000000000000000e+00) (0, 0, 0.00000000000000000000e+00) (0, 0, 0.00000000000000000000e+00) (0, 0, 0.00000000000000000000e+00) (0, 0, 0.00000000000000000000e+00) (0, 0, 0.00000000000000000000e+00) (0, 0, 0.00000000000000000000e+00) (0, 0, 0.00000000000000000000e+00) (0, 0, 0.00000000000000000000e+00) (0, 0, 0.00000000000000000000e+00) (0, 0, 0.00000000000000000000e+00) (0, 0, 0.00000000000000000000e+00) (0, 0, 0.00000000000000000000e+00) (0, 0, 0.00000000000000000000e+00) (0, 0, 0.00000000000000000000e+00) (0, 0, 0.00000000000000000000e+00) (0, 0, 0.00000000000000000000e+00) (0, 0, 0.00000000000000000000e+00) (0, 0, 0.00000000000000000000e+00) (0, 0, 0.00000000000000000000e+00) (0, 0, 0.00000000000000000000e+00) (0, 0, 0.00000000000000000000e+00) (0, 0, 0.00000000000000000000e+00) (0, 0, 0.00000000000000000000e+00) (0, 0, 0.00000000000000000000e+00) (0, 0, 0.00000000000000000000e+00) (0, 0, 0.00000000000000000000e+00) (0, 0, 0.00000000000000000000e+00) (0, 0, 0.00000000000000000000e+00) (0, 0, 0.00000000000000000000e+00) (0, 0, 0.00000000000000000000e+00) (0, 0, 0.00000000000000000000e+00) (0, 0, 0.00000000000000000000e+00) (0, 0, 0.00000000000000000000e+00) (0, 0, 0.00000000000000000000e+00) (0, 0, 0.00000000000000000000e+00) (0, 0, 0.00000000000000000000e+00) (0, 0, 0.00000000000000000000e+00) (0, 0, 0.00000000000000000000e+00) (0, 0, 0.00000000000000000000e+00) (0, 0, 0.00000000000000000000e+00) (0, 0, 0.00000000000000000000e+00) (0, 0, 0.00000000000000000000e+00) (0, 0, 0.00000000000000000000e+00) (0, 0, 0.00000000000000000000e+00) (0, 0, 0.00000000000000000000e+00) (0, 0, 0.00000000000000000000e+00) (0, 0, 0.00000000000000000000e+00) (0, 0, 0.00000000000000000000e+00) (0, 0, 0.00000000000000000000e+00) (0, 0, 0.00000000000000000000e+00) (0, 0, 0.00000000000000000000e+00) (0, 0, 0.00000000000000000000e+00) (0, 0, 0.00000000000000000000e+00) (0, 0, 0.00000000000000000000e+00) (0, 0, 0.00000000000000000000e+00) (0, 0, 0.00000000000000000000e+00) (0, 0, 0.00000000000000000000e+00) (0, 0, 0.00000000000000000000e+00) (0, 0, 0.00000000000000000000e+00) (0, 0, 0.00000000000000000000e+00) (0, 0, 0.00000000000000000000e+00) (0, 0, 0.00000000000000000000e+00) (0, 0, 0.00000000000000000000e+00) (0, 0, 0.00000000000000000000e+00) (0, 0, 0.00000000000000000000e+00) (0, 0, 0.00000000000000000000e+00) (0, 0, 0.00000000000000000000e+00) (0, 0, 0.00000000000000000000e+00) (0, 0, 0.00000000000000000000e+00) (0, 0, 0.00000000000000000000e+00) (0, 0, 0.00000000000000000000e+00) (0, 0, 0.00000000000000000000e+00) (0, 0, 0.00000000000000000000e+00) (0, 0, 0.00000000000000000000e+00) (0, 0, 0.00000000000000000000e+00) (0, 0, 0.00000000000000000000e+00) (0, 0, 0.00000000000000000000e+00) (0, 0, 0.00000000000000000000e+00) (0, 0, 0.00000000000000000000e+00) (0, 0, 0.00000000000000000000e+00) (0, 0, 0.00000000000000000000e+00) (0, 0, 0.00000000000000000000e+00) (0, 0, 0.00000000000000000000e+00) (0, 0, 0.00000000000000000000e+00) (0, 0, 0.00000000000000000000e+00) (0, 0, 0.00000000000000000000e+00) (0, 0, 0.00000000000000000000e+00) (0, 0, 0.00000000000000000000e+00) (0, 0, 0.00000000000000000000e+00) (0, 0, 0.00000000000000000000e+00) (0, 0, 0.00000000000000000000e+00) (0, 0, 0.00000000000000000000e+00) (0, 0, 0.00000000000000000000e+00) (0, 0, 0.00000000000000000000e+00) (0, 0, 0.00000000000000000000e+00) (0, 0, 0.00000000000000000000e+00) (0, 0, 0.00000000000000000000e+00) (0, 0, 0.00000000000000000000e+00) (0, 0, 0.00000000000000000000e+00) (0, 0, 0.00000000000000000000e+00) (0, 0, 0.00000000000000000000e+00) (0, 0, 0.00000000000000000000e+00) (0, 0, 0.00000000000000000000e+00) (0, 0, 0.00000000000000000000e+00) (0, 0, 0.00000000000000000000e+00) (0, 0, 0.00000000000000000000e+00) (0, 0, 0.00000000000000000000e+00) (0, 0, 0.00000000000000000000e+00) (0, 0, 0.00000000000000000000e+00) (0, 0, 0.00000000000000000000e+00) (0, 0, 0.00000000000000000000e+00) (0, 0, 0.00000000000000000000e+00) (0, 0, 0.00000000000000000000e+00) (0, 0, 0.00000000000000000000e+00) (0, 0, 0.00000000000000000000e+00) (0, 0, 0.00000000000000000000e+00) (0, 0, 0.00000000000000000000e+00) (0, 0, 0.00000000000000000000e+00) (0, 0, 0.00000000000000000000e+00) (0, 0, 0.00000000000000000000e+00) (0, 0, 0.00000000000000000000e+00) (0, 0, 0.00000000000000000000e+00) (0, 0, 0.00000000000000000000e+00) (0, 0, 0.00000000000000000000e+00) (0, 0, 0.00000000000000000000e+00) (0, 0, 0.00000000000000000000e+00) (0, 0, 0.00000000000000000000e+00) (0, 0, 0.00000000000000000000e+00) (0, 0, 0.00000000000000000000e+00) (0, 0, 0.00000000000000000000e+00) (0, 0, 0.00000000000000000000e+00) (0, 0, 0.00000000000000000000e+00) (0, 0, 0.00000000000000000000e+00) (0, 0, 0.00000000000000000000e+00) (0, 0, 0.00000000000000000000e+00) (0, 0, 0.00000000000000000000e+00) (0, 0, 0.00000000000000000000e+00) (0, 0, 0.00000000000000000000e+00) (0, 0, 0.00000000000000000000e+00) (0, 0, 0.00000000000000000000e+00) (0, 0, 0.00000000000000000000e+00) (0, 0, 0.00000000000000000000e+00) (0, 0, 0.00000000000000000000e+00) (0, 0, 0.00000000000000000000e+00) (0, 0, 0.00000000000000000000e+00) (0, 0, 0.00000000000000000000e+00) (0, 0, 0.00000000000000000000e+00) (0, 0, 0.00000000000000000000e+00) (0, 0, 0.00000000000000000000e+00) (0, 0, 0.00000000000000000000e+00) (0, 0, 0.00000000000000000000e+00) (0, 0, 0.00000000000000000000e+00) (0, 0, 0.00000000000000000000e+00) (0, 0, 0.00000000000000000000e+00) (0, 0, 0.00000000000000000000e+00) (0, 0, 0.00000000000000000000e+00) (0, 0, 0.00000000000000000000e+00) (0, 0, 0.00000000000000000000e+00) (0, 0, 0.00000000000000000000e+00) (0, 0, 0.00000000000000000000e+00) (0, 0, 0.00000000000000000000e+00) (0, 0, 0.00000000000000000000e+00) (0, 0, 0.00000000000000000000e+00) (0, 0, 0.00000000000000000000e+00) (0, 0, 0.00000000000000000000e+00) (0, 0, 0.00000000000000000000e+00) (0, 0, 0.00000000000000000000e+00) (0, 0, 0.00000000000000000000e+00) (0, 0, 0.00000000000000000000e+00) (0, 0, 0.00000000000000000000e+00) (0, 0, 0.00000000000000000000e+00) (0, 0, 0.00000000000000000000e+00) (0, 0, 0.00000000000000000000e+00) (0, 0, 0.00000000000000000000e+00) (0, 0, 0.00000000000000000000e+00) (0, 0, 0.00000000000000000000e+00) (0, 0, 0.00000000000000000000e+00) (0, 0, 0.00000000000000000000e+00) (0, 0, 0.00000000000000000000e+00) (0, 0, 0.00000000000000000000e+00) (0, 0, 0.00000000000000000000e+00) (0, 0, 0.00000000000000000000e+00) (0, 0, 0.00000000000000000000e+00) (0, 0, 0.00000000000000000000e+00) (0, 0, 0.00000000000000000000e+00) (0, 0, 0.00000000000000000000e+00) (0, 0, 0.00000000000000000000e+00) (0, 0, 0.00000000000000000000e+00) (0, 0, 0.00000000000000000000e+00) (0, 0, 0.00000000000000000000e+00) (0, 0, 0.00000000000000000000e+00) (0, 0, 0.00000000000000000000e+00) (0, 0, 0.00000000000000000000e+00) (0, 0, 0.00000000000000000000e+00) (0, 0, 0.00000000000000000000e+00) (0, 0, 0.00000000000000000000e+00) (0, 0, 0.00000000000000000000e+00) (0, 0, 0.00000000000000000000e+00) (0, 0, 0.00000000000000000000e+00) (0, 0, 0.00000000000000000000e+00) (0, 0, 0.00000000000000000000e+00) (0, 0, 0.00000000000000000000e+00) (0, 0, 0.00000000000000000000e+00) (0, 0, 0.00000000000000000000e+00) (0, 0, 0.00000000000000000000e+00) (0, 0, 0.00000000000000000000e+00) (0, 0, 0.00000000000000000000e+00) (0, 0, 0.00000000000000000000e+00) (0, 0, 0.00000000000000000000e+00) (0, 0, 0.00000000000000000000e+00) (0, 0, 0.00000000000000000000e+00) (0, 0, 0.00000000000000000000e+00) (0, 0, 0.00000000000000000000e+00) (0, 0, 0.00000000000000000000e+00) (0, 0, 0.00000000000000000000e+00) (0, 0, 0.00000000000000000000e+00) (0, 0, 0.00000000000000000000e+00) (0, 0, 0.00000000000000000000e+00) (0, 0, 0.00000000000000000000e+00) (0, 0, 0.00000000000000000000e+00) (0, 0, 0.00000000000000000000e+00) (0, 0, 0.00000000000000000000e+00) (0, 0, 0.00000000000000000000e+00) (0, 0, 0.00000000000000000000e+00) (0, 0, 0.00000000000000000000e+00) (0, 0, 0.00000000000000000000e+00) (0, 0, 0.00000000000000000000e+00) (0, 0, 0.00000000000000000000e+00) (0, 0, 0.00000000000000000000e+00) (0, 0, 0.00000000000000000000e+00) (0, 0, 0.00000000000000000000e+00) (0, 0, 0.00000000000000000000e+00) (0, 0, 0.00000000000000000000e+00) (0, 0, 0.00000000000000000000e+00) (0, 0, 0.00000000000000000000e+00) (0, 0, 0.00000000000000000000e+00) (0, 0, 0.00000000000000000000e+00) (0, 0, 0.00000000000000000000e+00) (0, 0, 0.00000000000000000000e+00) (0, 0, 0.00000000000000000000e+00) (0, 0, 0.00000000000000000000e+00) (0, 0, 0.00000000000000000000e+00) (0, 0, 0.00000000000000000000e+00) (0, 0, 0.00000000000000000000e+00) (0, 0, 0.00000000000000000000e+00) (0, 0, 0.00000000000000000000e+00) (0, 0, 0.00000000000000000000e+00) (0, 0, 0.00000000000000000000e+00) (0, 0, 0.00000000000000000000e+00) (0, 0, 0.00000000000000000000e+00) (0, 0, 0.00000000000000000000e+00) (0, 0, 0.00000000000000000000e+00) (0, 0, 0.00000000000000000000e+00) (0, 0, 0.00000000000000000000e+00) (0, 0, 0.00000000000000000000e+00) (0, 0, 0.00000000000000000000e+00) (0, 0, 0.00000000000000000000e+00) (0, 0, 0.00000000000000000000e+00) (0, 0, 0.00000000000000000000e+00) (0, 0, 0.00000000000000000000e+00) (0, 0, 0.00000000000000000000e+00) (0, 0, 0.00000000000000000000e+00) (0, 0, 0.00000000000000000000e+00) (0, 0, 0.00000000000000000000e+00) (0, 0, 0.00000000000000000000e+00) (0, 0, 0.00000000000000000000e+00) (0, 0, 0.00000000000000000000e+00) (0, 0, 0.00000000000000000000e+00) (0, 0, 0.00000000000000000000e+00) (0, 0, 0.00000000000000000000e+00) (0, 0, 0.00000000000000000000e+00) (0, 0, 0.00000000000000000000e+00) (0, 0, 0.00000000000000000000e+00) (0, 0, 0.00000000000000000000e+00) (0, 0, 0.00000000000000000000e+00) (0, 0, 0.00000000000000000000e+00) (0, 0, 0.00000000000000000000e+00) (0, 0, 0.00000000000000000000e+00) (0, 0, 0.00000000000000000000e+00) (0, 0, 0.00000000000000000000e+00) (0, 0, 0.00000000000000000000e+00) (0, 0, 0.00000000000000000000e+00) (0, 0, 0.00000000000000000000e+00) (0, 0, 0.00000000000000000000e+00) (0, 0, 0.00000000000000000000e+00) (0, 0, 0.00000000000000000000e+00) (0, 0, 0.00000000000000000000e+00) (0, 0, 0.00000000000000000000e+00) (0, 0, 0.00000000000000000000e+00) (0, 0, 0.00000000000000000000e+00) (0, 0, 0.00000000000000000000e+00) (0, 0, 0.00000000000000000000e+00) (0, 0, 0.00000000000000000000e+00) (0, 0, 0.00000000000000000000e+00) (0, 0, 0.00000000000000000000e+00) (0, 0, 0.00000000000000000000e+00) (0, 0, 0.00000000000000000000e+00) (0, 0, 0.00000000000000000000e+00) (0, 0, 0.00000000000000000000e+00) (0, 0, 0.00000000000000000000e+00) (0, 0, 0.00000000000000000000e+00) (0, 0, 0.00000000000000000000e+00) (0, 0, 0.00000000000000000000e+00) (0, 0, 0.00000000000000000000e+00) (0, 0, 0.00000000000000000000e+00) (0, 0, 0.00000000000000000000e+00) (0, 0, 0.00000000000000000000e+00) (0, 0, 0.00000000000000000000e+00) (0, 0, 0.00000000000000000000e+00) (0, 0, 0.00000000000000000000e+00) (0, 0, 0.00000000000000000000e+00) (0, 0, 0.00000000000000000000e+00) (0, 0, 0.00000000000000000000e+00) (0, 0, 0.00000000000000000000e+00) (0, 0, 0.00000000000000000000e+00) (0, 0, 0.00000000000000000000e+00) (0, 0, 0.00000000000000000000e+00) (0, 0, 0.00000000000000000000e+00) (0, 0, 0.00000000000000000000e+00) (0, 0, 0.00000000000000000000e+00) (0, 0, 0.00000000000000000000e+00) (0, 0, 0.00000000000000000000e+00) (0, 0, 0.00000000000000000000e+00) (0, 0, 0.00000000000000000000e+00) (0, 0, 0.00000000000000000000e+00) (0, 0, 0.00000000000000000000e+00) (0, 0, 0.00000000000000000000e+00) (0, 0, 0.00000000000000000000e+00) (0, 0, 0.00000000000000000000e+00) (0, 0, 0.00000000000000000000e+00) (0, 0, 0.00000000000000000000e+00) (0, 0, 0.00000000000000000000e+00) (0, 0, 0.00000000000000000000e+00) (0, 0, 0.00000000000000000000e+00) (0, 0, 0.00000000000000000000e+00) (0, 0, 0.00000000000000000000e+00) (0, 0, 0.00000000000000000000e+00) (0, 0, 0.00000000000000000000e+00) (0, 0, 0.00000000000000000000e+00) (0, 0, 0.00000000000000000000e+00) (0, 0, 0.00000000000000000000e+00) (0, 0, 0.00000000000000000000e+00) (0, 0, 0.00000000000000000000e+00) (0, 0, 0.00000000000000000000e+00) (0, 0, 0.00000000000000000000e+00) (0, 0, 0.00000000000000000000e+00) (0, 0, 0.00000000000000000000e+00) (0, 0, 0.00000000000000000000e+00) (0, 0, 0.00000000000000000000e+00) (0, 0, 0.00000000000000000000e+00) (0, 0, 0.00000000000000000000e+00) (0, 0, 0.00000000000000000000e+00) (0, 0, 0.00000000000000000000e+00) (0, 0, 0.00000000000000000000e+00) (0, 0, 0.00000000000000000000e+00) (0, 0, 0.00000000000000000000e+00) (0, 0, 0.00000000000000000000e+00) (361, 10, 5.00000000000000000000e-01) (361, 10, 5.00000000000000000000e-01) (361, 10, 5.00000000000000000000e-01) (361, 10, 5.00000000000000000000e-01) (361, 10, 5.00000000000000000000e-01) (361, 10, 5.00000000000000000000e-01) (361, 10, 5.00000000000000000000e-01) (361, 10, 5.00000000000000000000e-01) (361, 10, 5.00000000000000000000e-01) (361, 10, 5.00000000000000000000e-01) (361, 10, 5.00000000000000000000e-01) (361, 10, 5.00000000000000000000e-01) (361, 10, 5.00000000000000000000e-01) (361, 10, 5.00000000000000000000e-01) (361, 10, 5.00000000000000000000e-01) (361, 10, 5.00000000000000000000e-01) (361, 10, 5.00000000000000000000e-01) (361, 10, 5.00000000000000000000e-01) (361, 10, 5.00000000000000000000e-01) (361, 10, 5.00000000000000000000e-01) (361, 10, 5.00000000000000000000e-01) (361, 10, 5.00000000000000000000e-01) (361, 10, 5.00000000000000000000e-01) (361, 10, 5.00000000000000000000e-01) (361, 10, 5.00000000000000000000e-01) (361, 10, 5.00000000000000000000e-01) (361, 10, 5.00000000000000000000e-01) (361, 10, 5.00000000000000000000e-01) (361, 10, 5.00000000000000000000e-01) (361, 10, 5.00000000000000000000e-01) (361, 10, 5.00000000000000000000e-01) (361, 10, 5.00000000000000000000e-01) (361, 10, 5.00000000000000000000e-01) (361, 10, 5.00000000000000000000e-01) (361, 10, 5.00000000000000000000e-01) (361, 10, 5.00000000000000000000e-01) (361, 10, 5.00000000000000000000e-01) (361, 10, 5.00000000000000000000e-01) (361, 10, 5.00000000000000000000e-01) (361, 10, 5.00000000000000000000e-01) (361, 10, 5.00000000000000000000e-01) (361, 10, 5.00000000000000000000e-01) (361, 10, 5.00000000000000000000e-01) (361, 10, 5.00000000000000000000e-01) (361, 10, 5.00000000000000000000e-01) (361, 10, 5.00000000000000000000e-01) (361, 10, 5.00000000000000000000e-01) (361, 10, 5.00000000000000000000e-01) (361, 10, 5.00000000000000000000e-01) (361, 10, 5.00000000000000000000e-01) (0, 10, 0.00000000000000000000e+00) (51, 10, 5.00000000000000000000e-01) (51, 10, 5.00000000000000000000e-01) (51, 10, 5.00000000000000000000e-01) (51, 10, 5.00000000000000000000e-01) (51, 10, 5.00000000000000000000e-01) (51, 10, 5.00000000000000000000e-01) (51, 10, 5.00000000000000000000e-01) (51, 10, 5.00000000000000000000e-01) (51, 10, 5.00000000000000000000e-01) (51, 10, 5.00000000000000000000e-01) (51, 10, 5.00000000000000000000e-01) (51, 10, 5.00000000000000000000e-01) (51, 10, 5.00000000000000000000e-01) (51, 10, 5.00000000000000000000e-01) (51, 10, 5.00000000000000000000e-01) (51, 10, 5.00000000000000000000e-01) (51, 10, 5.00000000000000000000e-01) (51, 10, 5.00000000000000000000e-01) (51, 10, 5.00000000000000000000e-01) (51, 10, 5.00000000000000000000e-01) (51, 10, 5.00000000000000000000e-01) (51, 10, 5.00000000000000000000e-01) (51, 10, 5.00000000000000000000e-01) (51, 10, 5.00000000000000000000e-01) (51, 10, 5.00000000000000000000e-01) (0, 10, 0.00000000000000000000e+00) (26, 0, 5.00000000000000000000e-01) (0, 0, 0.00000000000000000000e+00) 
connections (connected_to_neuron, weight)=(0, -7.76508376002311706543e-02) (1, 1.15995682775974273682e-01) (2, 2.24180042743682861328e-01) (3, -1.30632773041725158691e-01) (4, 2.94621080160140991211e-01) (5, -5.09397052228450775146e-02) (6, 7.35740289092063903809e-02) (7, 1.48721233010292053223e-01) (8, 2.47767083346843719482e-02) (9, 5.93682564795017242432e-02) (10, -1.69646609574556350708e-02) (11, 1.71747393906116485596e-02) (12, -2.95704066753387451172e-01) (13, -5.11162206530570983887e-02) (14, 7.59396255016326904297e-02) (15, 3.97832021117210388184e-02) (16, -2.36892625689506530762e-01) (17, 2.21936106681823730469e-01) (18, -2.82110661268234252930e-01) (19, -3.06603848934173583984e-01) (20, 3.35669182240962982178e-02) (21, -2.20436409115791320801e-01) (22, -2.88020431995391845703e-01) (23, 2.17466443777084350586e-01) (24, -9.76838730275630950928e-03) (25, -2.30732306838035583496e-01) (26, 4.16941903531551361084e-02) (27, 1.46792372688651084900e-02) (28, -3.23278456926345825195e-02) (29, 1.28485456109046936035e-01) (30, 3.07854712009429931641e-02) (31, 7.07056671380996704102e-02) (32, 2.43075683712959289551e-01) (33, -9.76002216339111328125e-02) (34, -5.55844232439994812012e-02) (35, 2.50224262475967407227e-01) (36, -9.92447239696048200130e-05) (37, 6.18097633123397827148e-02) (38, 2.81401425600051879883e-01) (39, -1.99790790677070617676e-01) (40, -2.72360324859619140625e-01) (41, 1.79116249084472656250e-01) (42, 1.05179175734519958496e-01) (43, -9.49758365750312805176e-02) (44, 5.18058165907859802246e-02) (45, 2.08830088376998901367e-01) (46, -4.13047283887863159180e-01) (47, -3.90874966979026794434e-02) (48, 2.49627992510795593262e-01) (49, -3.19565773010253906250e-01) (50, 4.87694181501865386963e-02) (51, 8.33365097641944885254e-02) (52, -3.32648694515228271484e-01) (53, 1.20572382584214210510e-02) (54, 9.93968248367309570312e-02) (55, 1.27632886171340942383e-01) (56, -6.51905452832579612732e-03) (57, 1.02323271334171295166e-01) (58, 1.81450843811035156250e-01) (59, 3.04596751928329467773e-01) (60, -4.20486241579055786133e-01) (61, 1.35436356067657470703e-02) (62, 3.14470797777175903320e-01) (63, -1.37381777167320251465e-01) (64, -2.31585726141929626465e-02) (65, 8.57013389468193054199e-02) (66, -1.03607781231403350830e-01) (67, -1.94865345954895019531e-01) (68, 1.33874878287315368652e-01) (69, -2.02296245843172073364e-02) (70, -8.18264931440353393555e-02) (71, 1.91185489296913146973e-01) (72, 1.11259007826447486877e-03) (73, -1.48616313934326171875e-01) (74, -1.06716528534889221191e-01) (75, -6.19939789175987243652e-02) (76, 1.57356247305870056152e-01) (77, -1.45132079720497131348e-01) (78, 7.97251686453819274902e-02) (79, 1.02542430162429809570e-01) (80, -1.33988320827484130859e-01) (81, 2.44337260723114013672e-01) (82, 2.28671818971633911133e-01) (83, -1.47051498293876647949e-01) (84, 8.10523256659507751465e-02) (85, 2.20084637403488159180e-01) (86, 1.87993317842483520508e-01) (87, -5.32216653227806091309e-02) (88, -7.08248242735862731934e-02) (89, 1.95207729935646057129e-01) (90, -1.54337748885154724121e-01) (91, -1.12912252545356750488e-01) (92, 1.51507854461669921875e-01) (93, 1.39750391244888305664e-01) (94, 1.40296429395675659180e-01) (95, 8.53595063090324401855e-02) (96, -1.07787065207958221436e-01) (97, -6.78519010543823242188e-02) (98, -7.68855735659599304199e-02) (99, 3.42750665731728076935e-03) (100, -1.07816249132156372070e-01) (101, -1.51561364531517028809e-01) (102, 1.60526379942893981934e-01) (103, -2.18413189053535461426e-01) (104, -9.91074591875076293945e-02) (105, 9.18986201286315917969e-02) (106, -1.08862251043319702148e-01) (107, -7.45776295661926269531e-02) (108, 6.32989853620529174805e-02) (109, -8.09253975749015808105e-02) (110, 1.31999447941780090332e-01) (111, 9.22286733984947204590e-02) (112, 1.19736798107624053955e-01) (113, 8.56413319706916809082e-02) (114, -1.37860625982284545898e-01) (115, -2.90806256234645843506e-02) (116, 1.27608492970466613770e-01) (117, -1.13137036561965942383e-01) (118, -6.99730932712554931641e-01) (119, 1.44409649074077606201e-02) (120, 5.10890185832977294922e-02) (121, -2.96974956989288330078e-01) (122, -2.47499439865350723267e-03) (123, 1.10799856483936309814e-01) (124, -2.16348841786384582520e-01) (125, 8.97227302193641662598e-02) (126, -4.40607443451881408691e-02) (127, -1.54022455215454101562e-01) (128, 6.71183317899703979492e-02) (129, -6.37677311897277832031e-02) (130, -8.85768234729766845703e-03) (131, 4.02922146022319793701e-02) (132, -3.21829050779342651367e-01) (133, -5.82047253847122192383e-02) (134, -1.99137121438980102539e-01) (135, -1.69725865125656127930e-01) (136, -2.95509248971939086914e-01) (137, -9.04406234622001647949e-02) (138, -2.51600202172994613647e-02) (139, -5.33739149570465087891e-01) (140, -3.60735237598419189453e-01) (141, -1.21930334717035293579e-02) (142, -3.81019920110702514648e-01) (143, -3.15589874982833862305e-01) (144, 2.37865492701530456543e-01) (145, -1.72299504280090332031e-01) (146, -1.62485197186470031738e-01) (147, 3.48131954669952392578e-01) (148, -2.85615146160125732422e-01) (149, 1.04140356183052062988e-01) (150, 1.84032954275608062744e-02) (151, -2.95206189155578613281e-01) (152, 2.83992383629083633423e-02) (153, 2.90856480598449707031e-01) (154, -1.75654172897338867188e-01) (155, 3.28036308288574218750e-01) (156, -1.71046964824199676514e-02) (157, -3.26118260622024536133e-01) (158, 1.12687483429908752441e-01) (159, -1.00025691092014312744e-01) (160, -1.02442421019077301025e-01) (161, -1.38097954913973808289e-02) (162, 1.54477193951606750488e-01) (163, 1.27592027187347412109e-01) (164, 5.17437569797039031982e-02) (165, 1.38157531619071960449e-01) (166, -6.45398795604705810547e-02) (167, 8.84848907589912414551e-02) (168, 2.81220581382513046265e-02) (169, 4.71629500389099121094e-02) (170, 1.87810674309730529785e-01) (171, 5.80241978168487548828e-02) (172, -1.41095086932182312012e-01) (173, 1.46955689415335655212e-02) (174, 1.54948979616165161133e-02) (175, -5.00478819012641906738e-02) (176, 2.44897022843360900879e-01) (177, -7.82950296998023986816e-02) (178, 8.88096243143081665039e-02) (179, 8.30162167549133300781e-02) (180, -1.02260343730449676514e-01) (181, 1.91634371876716613770e-01) (182, 3.39926667511463165283e-02) (183, 9.47360545396804809570e-02) (184, 1.01270936429500579834e-01) (185, 2.06874087452888488770e-01) (186, 1.58421739935874938965e-01) (187, -1.32202208042144775391e-01) (188, 5.46857193112373352051e-02) (189, 2.65260100364685058594e-01) (190, -6.96813687682151794434e-02) (191, 9.85374078154563903809e-02) (192, 4.85562056303024291992e-01) (193, -7.90634527802467346191e-02) (194, 2.28534430265426635742e-01) (195, 4.72068369388580322266e-01) (196, -1.11340269446372985840e-01) (197, 1.12829715013504028320e-01) (198, 4.06120061874389648438e-01) (199, -6.08109049499034881592e-02) (200, 2.30628237128257751465e-01) (201, 1.87350213527679443359e-02) (202, -2.93834209442138671875e-01) (203, 6.29431679844856262207e-02) (204, 1.29385873675346374512e-01) (205, -1.46766602993011474609e-01) (206, 5.87782880757004022598e-04) (207, 1.25791162252426147461e-01) (208, -4.43737328052520751953e-01) (209, -1.67102947831153869629e-01) (210, 3.62978518009185791016e-01) (211, -1.82217463850975036621e-01) (212, 6.20867535471916198730e-02) (213, -7.35375434160232543945e-02) (214, -2.24144399166107177734e-01) (215, 1.00027978420257568359e-01) (216, 2.73553654551506042480e-02) (217, -1.84593901038169860840e-01) (218, 2.77678947895765304565e-02) (219, 1.22013300657272338867e-01) (220, 1.22704386711120605469e-01) (221, 1.43529102206230163574e-01) (222, 9.02890786528587341309e-02) (223, -2.18151450157165527344e-01) (224, 1.30159491673111915588e-02) (225, 1.91402882337570190430e-01) (226, -2.64549314975738525391e-01) (227, -6.43196851015090942383e-02) (228, 2.54235178232192993164e-01) (229, -2.98840641975402832031e-01) (230, -5.00745773315429687500e-02) (231, 2.63260334730148315430e-01) (232, -1.27561986446380615234e-01) (233, -2.03134734183549880981e-02) (234, 2.63228029012680053711e-01) (235, -1.47376611828804016113e-01) (236, 1.87206834554672241211e-01) (237, 1.03172779083251953125e-01) (238, -3.43701124191284179688e-01) (239, 4.38879787921905517578e-01) (240, 7.63672739267349243164e-02) (241, -3.89435499906539916992e-01) (242, 2.61243373155593872070e-01) (243, 2.49794900417327880859e-01) (244, -2.12595462799072265625e-01) (245, 1.51995897293090820312e-01) (246, 4.42062020301818847656e-02) (247, -2.37549126148223876953e-01) (248, 7.69348815083503723145e-03) (249, 7.89625686593353748322e-04) (250, -1.54211908578872680664e-01) (251, 5.51145523786544799805e-02) (252, 1.32594212889671325684e-01) (253, -2.07041829824447631836e-01) (254, 2.07936793565750122070e-01) (255, 4.10458445549011230469e-02) (256, -1.88566356897354125977e-01) (257, 9.39556956291198730469e-02) (258, -4.08337935805320739746e-02) (259, 1.62435159087181091309e-01) (260, 3.58447358012199401855e-02) (261, -1.81802600622177124023e-01) (262, -3.41096580028533935547e-01) (263, -5.84130845963954925537e-02) (264, -2.77041401714086532593e-02) (265, 1.61545779556035995483e-02) (266, -1.51008069515228271484e-01) (267, -2.45107226073741912842e-02) (268, 1.07874916866421699524e-02) (269, 1.80878177285194396973e-01) (270, -2.05767050385475158691e-01) (271, 2.94249325990676879883e-01) (272, 2.53341525793075561523e-01) (273, -2.86601871252059936523e-01) (274, 1.61060560494661331177e-02) (275, 5.51139116287231445312e-02) (276, -2.45244920253753662109e-01) (277, 6.29588365554809570312e-02) (278, 1.78870931267738342285e-02) (279, -1.52310267090797424316e-01) (280, -2.25315928459167480469e-01) (281, -4.66944798827171325684e-02) (282, -1.52916580438613891602e-01) (283, -2.69152253866195678711e-01) (284, -2.17514093965291976929e-02) (285, 7.31588378548622131348e-02) (286, -3.33982884883880615234e-01) (287, -4.07703854143619537354e-02) (288, 1.48928716778755187988e-01) (289, -3.43196354806423187256e-02) (290, -4.14314009249210357666e-02) (291, 4.04269956052303314209e-02) (292, -3.84881377220153808594e-01) (293, -5.65345622599124908447e-02) (294, 2.42505297064781188965e-01) (295, -1.10067255795001983643e-01) (296, -1.27561151981353759766e-01) (297, -9.21254679560661315918e-02) (298, -4.91222053766250610352e-01) (299, -8.25756862759590148926e-02) (300, -1.36417984962463378906e-01) (301, -8.19444209337234497070e-02) (302, -4.30614463984966278076e-02) (303, -1.03066051378846168518e-02) (304, -1.73196747899055480957e-01) (305, -4.10303436219692230225e-02) (306, -2.14577093720436096191e-01) (307, -3.02780687808990478516e-01) (308, -3.13864797353744506836e-01) (309, 1.31265103816986083984e-01) (310, -1.00579798221588134766e-01) (311, -2.89518415927886962891e-01) (312, 2.14483827352523803711e-01) (313, -6.46432712674140930176e-02) (314, -5.17113357782363891602e-02) (315, 9.41849723458290100098e-02) (316, 4.70183014869689941406e-01) (317, -1.96837201714515686035e-01) (318, 6.62647113204002380371e-02) (319, 1.15753434598445892334e-01) (320, -6.53385445475578308105e-02) (321, -1.96032717823982238770e-01) (322, 2.77195796370506286621e-02) (323, 8.84446576237678527832e-02) (324, -1.60906001925468444824e-01) (325, -2.50964045524597167969e-01) (326, 2.03563839197158813477e-01) (327, -5.71235269308090209961e-02) (328, -4.81129646301269531250e-01) (329, 7.00447931885719299316e-02) (330, 3.06378662586212158203e-01) (331, 1.85473680496215820312e-01) (332, -9.91940125823020935059e-02) (333, 6.14162802696228027344e-01) (334, 1.82894885540008544922e-01) (335, -3.48305463790893554688e-01) (336, 4.90485131740570068359e-01) (337, 1.95340678095817565918e-01) (338, -6.50606215000152587891e-01) (339, 3.18865418434143066406e-01) (340, 1.69269457459449768066e-01) (341, -7.93165564537048339844e-01) (342, -1.01192623376846313477e-01) (343, 1.35701149702072143555e-01) (344, -5.84646403789520263672e-01) (345, -5.28085708618164062500e-01) (346, 4.42207269370555877686e-02) (347, 7.83321559429168701172e-02) (348, -8.33395659923553466797e-01) (349, -1.03240318596363067627e-01) (350, 8.65449488162994384766e-01) (351, -1.22565352916717529297e+00) (352, 2.32884556055068969727e-01) (353, 4.13659125566482543945e-01) (354, -7.70387470722198486328e-01) (355, 1.56804993748664855957e-01) (356, -1.61575448513031005859e+00) (357, 5.05690753459930419922e-01) (358, -5.92556633055210113525e-02) (359, -4.64813041687011718750e+00) (360, 1.90698003768920898438e+00) (0, 1.25109627842903137207e-01) (1, 2.61874869465827941895e-02) (2, 1.58001873642206192017e-02) (3, -6.56668469309806823730e-03) (4, 1.99117660522460937500e-01) (5, -4.92416210472583770752e-02) (6, -4.91688586771488189697e-02) (7, -4.51107025146484375000e-02) (8, -3.69159094989299774170e-02) (9, 1.06953427195549011230e-01) (10, 5.16662476002238690853e-05) (11, -1.08182532712817192078e-02) (12, -2.38840982317924499512e-01) (13, 2.60784756392240524292e-02) (14, 5.25656789541244506836e-02) (15, -1.22324742376804351807e-01) (16, -5.42594529688358306885e-02) (17, 1.45641684532165527344e-01) (18, -2.08627387881278991699e-01) (19, 2.45121717453002929688e-02) (20, 9.51327010989189147949e-02) (21, -1.12717896699905395508e-01) (22, 3.75688355416059494019e-03) (23, 2.74640787392854690552e-02) (24, -3.39524820446968078613e-02) (25, 7.05512613058090209961e-02) (26, 3.90220358967781066895e-02) (27, -3.88746336102485656738e-02) (28, 1.38910740613937377930e-01) (29, 1.59101396799087524414e-01) (30, -8.44062566757202148438e-02) (31, 1.72846481204032897949e-01) (32, 8.93317088484764099121e-02) (33, -2.35700048506259918213e-02) (34, -1.02233119308948516846e-01) (35, 1.04407899081707000732e-01) (36, 6.34111389517784118652e-02) (37, -1.95195304695516824722e-03) (38, 1.67421206831932067871e-01) (39, -1.46716251969337463379e-01) (40, -7.58962929248809814453e-02) (41, 6.38617351651191711426e-02) (42, 8.57262909412384033203e-02) (43, 1.68035365641117095947e-02) (44, -1.45358806475996971130e-02) (45, -3.56435142457485198975e-02) (46, -2.12504845112562179565e-02) (47, -2.58822012692689895630e-02) (48, 1.09501108527183532715e-02) (49, 5.78137785196304321289e-02) (50, 1.04728259146213531494e-01) (51, -1.28597363829612731934e-01) (52, 1.12432323396205902100e-01) (53, 5.48256449401378631592e-02) (54, -5.12898638844490051270e-02) (55, 1.34493457153439521790e-02) (56, 1.11266896128654479980e-02) (57, 1.20005205273628234863e-01) (58, 3.00303511321544647217e-02) (59, 6.28949850797653198242e-02) (60, -8.53222608566284179688e-02) (61, -1.75725035369396209717e-02) (62, 9.24529954791069030762e-02) (63, -1.07336111366748809814e-01) (64, 1.16462884470820426941e-02) (65, 3.90744730830192565918e-02) (66, -8.06700885295867919922e-02) (67, -5.45197427272796630859e-02) (68, 7.55594298243522644043e-02) (69, -1.25351324677467346191e-01) (70, 1.15235529839992523193e-01) (71, 1.66998222470283508301e-01) (72, -1.14277832210063934326e-01) (73, -4.25520911812782287598e-02) (74, -6.14686571061611175537e-02) (75, -1.43111914396286010742e-01) (76, 1.80481761693954467773e-01) (77, -3.57116609811782836914e-02) (78, -3.53706739842891693115e-02) (79, -1.18594340980052947998e-01) (80, -8.77171084284782409668e-02) (81, 2.31166854500770568848e-02) (82, -6.92111477255821228027e-02) (83, -1.17891348898410797119e-01) (84, 2.78287138789892196655e-02) (85, 7.30832666158676147461e-02) (86, 1.00762108340859413147e-02) (87, -3.45507115125656127930e-02) (88, -1.13739013671875000000e-01) (89, 1.45186915993690490723e-01) (90, 1.26447612419724464417e-02) (91, 1.89516827464103698730e-01) (92, 7.10864737629890441895e-03) (93, 1.27308174967765808105e-01) (94, 3.05447075515985488892e-02) (95, 1.37025993317365646362e-02) (96, -1.81567341089248657227e-01) (97, -1.20023172348737716675e-02) (98, 2.60235685855150222778e-02) (99, -2.56456397473812103271e-02) (100, 4.56655845046043395996e-02) (101, -2.03486941754817962646e-02) (102, -5.53674325346946716309e-02) (103, 3.39956805109977722168e-02) (104, 7.31643736362457275391e-02) (105, -8.86615738272666931152e-02) (106, -2.43901118636131286621e-01) (107, 2.02591903507709503174e-02) (108, 1.22532323002815246582e-01) (109, 5.85371293127536773682e-02) (110, 7.98787027597427368164e-02) (111, -4.74081560969352722168e-02) (112, 1.40096500515937805176e-01) (113, 1.16114705801010131836e-01) (114, -1.32686436176300048828e-01) (115, 8.88543128967285156250e-02) (116, -1.80891864001750946045e-02) (117, -5.04025593400001525879e-02) (118, -9.23083350062370300293e-02) (119, -1.15365926176309585571e-02) (120, -7.96988531947135925293e-02) (121, 3.29502485692501068115e-02) (122, -7.01993703842163085938e-02) (123, 9.48169082403182983398e-02) (124, -4.93587516248226165771e-02) (125, -3.12309041619300842285e-02) (126, 9.63398665189743041992e-02) (127, -3.21945617906749248505e-03) (128, 8.28473791480064392090e-02) (129, -7.08017870783805847168e-02) (130, 9.61442198604345321655e-03) (131, -8.91689304262399673462e-03) (132, -7.29760900139808654785e-02) (133, -3.90454456210136413574e-02) (134, -1.01307973265647888184e-01) (135, -1.22830748558044433594e-01) (136, 2.16758653521537780762e-01) (137, -9.37151834368705749512e-02) (138, -9.80460643768310546875e-02) (139, 1.94089829921722412109e-01) (140, -3.09608485549688339233e-02) (141, -1.29697769880294799805e-01) (142, 2.25239470601081848145e-01) (143, -2.13719252496957778931e-02) (144, 1.69157534837722778320e-01) (145, -7.70895257592201232910e-02) (146, -6.49024620652198791504e-02) (147, 1.99428610503673553467e-02) (148, -2.70816478878259658813e-02) (149, 3.79741676151752471924e-02) (150, 1.90702802501618862152e-03) (151, 1.58272907137870788574e-01) (152, -3.44748273491859436035e-02) (153, 1.87725380063056945801e-01) (154, -6.11790120601654052734e-02) (155, 9.03846621513366699219e-02) (156, 1.35457152500748634338e-02) (157, -2.27214902639389038086e-01) (158, 2.41503510624170303345e-02) (159, -1.31713217124342918396e-02) (160, -5.26298955082893371582e-02) (161, -4.93635348975658416748e-02) (162, 1.52331560850143432617e-01) (163, -1.12930633127689361572e-01) (164, -1.19268998503684997559e-01) (165, 4.61126156151294708252e-02) (166, -1.67272299528121948242e-01) (167, -6.32969513535499572754e-02) (168, 2.02378258109092712402e-02) (169, -7.60245844721794128418e-02) (170, 8.74835532158613204956e-03) (171, 7.47088668867945671082e-03) (172, -3.58246676623821258545e-02) (173, -2.51112319529056549072e-03) (174, -5.72569631040096282959e-02) (175, -7.37925767898559570312e-02) (176, 4.74344566464424133301e-02) (177, -1.76178842782974243164e-01) (178, -6.15320866927504539490e-03) (179, 7.89313837885856628418e-02) (180, 2.57173292338848114014e-02) (181, -1.42708579078316688538e-02) (182, -3.08257043361663818359e-02) (183, 1.18301458656787872314e-01) (184, -1.14321514964103698730e-01) (185, 8.78975838422775268555e-02) (186, -1.31030455231666564941e-02) (187, 1.83801259845495223999e-02) (188, 8.38773548603057861328e-02) (189, -4.98482435941696166992e-02) (190, 1.45402491092681884766e-01) (191, -5.10435104370117187500e-02) (192, 1.59029528498649597168e-01) (193, 8.50065499544143676758e-02) (194, 8.35449099540710449219e-02) (195, 1.70934230089187622070e-01) (196, -7.49224349856376647949e-02) (197, 1.07905387878417968750e-01) (198, 1.47228524088859558105e-01) (199, 6.31633996963500976562e-02) (200, 7.20836892724037170410e-02) (201, 1.47005869075655937195e-03) (202, -1.13562047481536865234e-01) (203, 1.40491113066673278809e-01) (204, 7.33730271458625793457e-02) (205, 3.05906049907207489014e-02) (206, 9.00613330304622650146e-03) (207, -1.46197557449340820312e-01) (208, -9.46534201502799987793e-02) (209, -9.48629081249237060547e-02) (210, 6.76787570118904113770e-02) (211, -1.05611803010106086731e-02) (212, -3.67765836417675018311e-02) (213, 3.41104716062545776367e-02) (214, -1.05925254523754119873e-01) (215, 2.24416311830282211304e-02) (216, -7.31301754713058471680e-02) (217, 6.30415901541709899902e-02) (218, 1.35473787784576416016e-01) (219, 2.74847019463777542114e-02) (220, 2.90518198162317276001e-02) (221, 1.12694315612316131592e-01) (222, 6.06409348547458648682e-02) (223, -2.16996639966964721680e-01) (224, 5.71471452713012695312e-02) (225, 4.13347855210304260254e-02) (226, -1.91968306899070739746e-01) (227, 4.57789525389671325684e-02) (228, 1.56576514244079589844e-01) (229, 1.41580188646912574768e-02) (230, -2.31890659779310226440e-02) (231, -4.37286980450153350830e-02) (232, 2.80004311352968215942e-02) (233, -9.42545477300882339478e-03) (234, -8.04040804505348205566e-02) (235, 1.93330720067024230957e-02) (236, 1.50695562362670898438e-01) (237, -1.68172977864742279053e-02) (238, -5.95073625445365905762e-02) (239, 1.53654977679252624512e-01) (240, -4.78655435144901275635e-02) (241, -1.68604347854852676392e-02) (242, 2.35242009162902832031e-01) (243, -1.17907650768756866455e-01) (244, 4.23624888062477111816e-02) (245, 1.54156908392906188965e-02) (246, -1.69979169964790344238e-01) (247, 5.66353686153888702393e-02) (248, 1.41051471233367919922e-01) (249, -2.10724040865898132324e-01) (250, -1.36469164863228797913e-02) (251, 1.00903235375881195068e-01) (252, -1.14547513425350189209e-01) (253, 3.55000630952417850494e-03) (254, 1.98178142309188842773e-01) (255, -7.43521302938461303711e-02) (256, -1.13139428198337554932e-01) (257, 1.13136388361454010010e-01) (258, -4.90527302026748657227e-02) (259, -2.57203597575426101685e-02) (260, 5.26747368276119232178e-02) (261, -6.09676428139209747314e-02) (262, -3.09816718101501464844e-01) (263, -2.08115875720977783203e-02) (264, 7.44545757770538330078e-02) (265, -1.95931807160377502441e-01) (266, -1.59117087721824645996e-01) (267, 9.78210419416427612305e-02) (268, -1.98498904705047607422e-01) (269, 1.03253744542598724365e-01) (270, -2.18371637165546417236e-02) (271, -5.83691708743572235107e-02) (272, -7.07179680466651916504e-03) (273, -1.40496104955673217773e-01) (274, -2.17896953225135803223e-01) (275, 8.71021896600723266602e-02) (276, -1.01699158549308776855e-01) (277, -5.21206445991992950439e-02) (278, 9.28814187645912170410e-02) (279, 4.95975883677601814270e-03) (280, -2.54656702280044555664e-01) (281, 1.36700510978698730469e-01) (282, -1.89251795411109924316e-01) (283, -1.59571245312690734863e-01) (284, 8.86192172765731811523e-02) (285, -3.98519486188888549805e-02) (286, -1.29954174160957336426e-01) (287, 9.69554930925369262695e-02) (288, -4.89932894706726074219e-02) (289, -5.78089654445648193359e-02) (290, 8.23636129498481750488e-02) (291, 3.90604734420776367188e-02) (292, -1.38818413019180297852e-01) (293, 1.50566054508090019226e-02) (294, -1.58587060868740081787e-02) (295, -6.57969862222671508789e-02) (296, 4.79680523276329040527e-02) (297, -1.37084588408470153809e-01) (298, -8.29807296395301818848e-02) (299, -6.89175259321928024292e-03) (300, 5.44038154184818267822e-02) (301, 8.62690731883049011230e-02) (302, -2.60793254710733890533e-03) (303, -9.59850922226905822754e-02) (304, 8.01682472229003906250e-02) (305, -9.98298227787017822266e-02) (306, -3.04818879812955856323e-02) (307, -1.50348171591758728027e-01) (308, -2.53957718610763549805e-01) (309, -1.66717395186424255371e-02) (310, -1.28275558352470397949e-01) (311, -2.20300301909446716309e-01) (312, 4.79506105184555053711e-02) (313, -1.05597779154777526855e-01) (314, -1.11215263605117797852e-01) (315, -1.42165929079055786133e-01) (316, 1.79500862956047058105e-01) (317, 2.95049604028463363647e-02) (318, -2.04371184110641479492e-01) (319, 4.81855832040309906006e-02) (320, -6.42391853034496307373e-03) (321, -2.43591219186782836914e-01) (322, -1.63411960005760192871e-01) (323, -1.59474655985832214355e-01) (324, -1.43680244684219360352e-01) (325, -2.47913971543312072754e-02) (326, -1.34959340095520019531e-01) (327, -4.98489327728748321533e-02) (328, -6.64979293942451477051e-02) (329, -3.84177923202514648438e-01) (330, 2.82149553298950195312e-01) (331, 1.69094383716583251953e-01) (332, -4.26945656538009643555e-01) (333, 4.26889091730117797852e-01) (334, 1.02991476655006408691e-01) (335, -5.47377049922943115234e-01) (336, 3.19437652826309204102e-01) (337, 1.46445214748382568359e-01) (338, -6.99492812156677246094e-01) (339, 2.57717147469520568848e-02) (340, 1.35361328721046447754e-01) (341, -6.38790249824523925781e-01) (342, -1.67042478919029235840e-01) (343, 1.76633581519126892090e-01) (344, -5.14648258686065673828e-01) (345, -3.69786560535430908203e-01) (346, -4.52747493982315063477e-02) (347, -1.44117653369903564453e-01) (348, -4.80602145195007324219e-01) (349, -3.33304435014724731445e-01) (350, -2.45377980172634124756e-03) (351, -5.56824684143066406250e-01) (352, -3.03736060857772827148e-01) (353, -3.16756665706634521484e-01) (354, -3.87659430503845214844e-01) (355, -2.64457404613494873047e-01) (356, -1.29056918621063232422e+00) (357, 5.20324945449829101562e-01) (358, -4.85394001007080078125e-01) (359, -2.72341966629028320312e+00) (360, 6.28124415874481201172e-01) (0, 8.00945833325386047363e-02) (1, 1.13024897873401641846e-01) (2, 2.09366139024496078491e-02) (3, -4.94489781558513641357e-02) (4, 5.39210215210914611816e-02) (5, -1.60778701305389404297e-01) (6, -4.88947108387947082520e-02) (7, 1.40871420502662658691e-01) (8, 1.79585497826337814331e-02) (9, -9.64361522346735000610e-03) (10, 8.07487666606903076172e-02) (11, 4.06755134463310241699e-02) (12, -1.00309386849403381348e-01) (13, 4.81746233999729156494e-02) (14, -8.26892554759979248047e-02) (15, -5.95411797985434532166e-03) (16, 5.47748394310474395752e-02) (17, 7.00419023633003234863e-02) (18, -1.85318842530250549316e-01) (19, 1.37235000729560852051e-01) (20, 7.09792450070381164551e-02) (21, -1.39874547719955444336e-01) (22, 7.28651434183120727539e-02) (23, 1.49434119462966918945e-01) (24, -4.09093871712684631348e-02) (25, 7.14417323470115661621e-02) (26, -8.70113668497651815414e-04) (27, -1.38703603297472000122e-02) (28, 1.01548410952091217041e-01) (29, -4.82951616868376731873e-03) (30, -3.31885404884815216064e-02) (31, 7.17639997601509094238e-02) (32, 1.60123631358146667480e-01) (33, 7.45603665709495544434e-02) (34, -1.49538638070225715637e-02) (35, 2.00595617294311523438e-01) (36, 7.18916431069374084473e-02) (37, 7.16656222939491271973e-02) (38, 1.92449033260345458984e-01) (39, -7.54290446639060974121e-02) (40, 1.03708572685718536377e-01) (41, 1.12179748713970184326e-01) (42, 2.63847876340150833130e-02) (43, 1.59993246197700500488e-01) (44, 3.56556810438632965088e-02) (45, 4.87132463604211807251e-04) (46, 6.58986419439315795898e-02) (47, 7.26271867752075195312e-02) (48, -1.55451451428234577179e-03) (49, 1.76241904497146606445e-01) (50, 3.28214876353740692139e-02) (51, -1.37222051620483398438e-01) (52, -9.90782771259546279907e-03) (53, -1.98110304772853851318e-02) (54, -1.09125889837741851807e-01) (55, 1.76971763372421264648e-01) (56, 6.44632130861282348633e-02) (57, 2.74456236511468887329e-02) (58, -3.88777628540992736816e-02) (59, 4.14015054702758789062e-02) (60, -1.24363660812377929688e-01) (61, 8.90916399657726287842e-03) (62, 1.39614120125770568848e-01) (63, -1.92093383520841598511e-02) (64, -3.95107269287109375000e-02) (65, 1.09119139611721038818e-01) (66, -7.13576748967170715332e-02) (67, -2.58031468838453292847e-02) (68, -2.11504492908716201782e-02) (69, -3.26840169727802276611e-02) (70, -4.08247895538806915283e-02) (71, -6.32649287581443786621e-03) (72, -1.50539174675941467285e-01) (73, -1.76978949457406997681e-03) (74, 6.05142004787921905518e-02) (75, -1.10034383833408355713e-01) (76, 1.17685548961162567139e-01) (77, -9.60473939776420593262e-02) (78, -9.56870838999748229980e-02) (79, 3.89579720795154571533e-02) (80, -7.56360441446304321289e-02) (81, 1.08451649546623229980e-01) (82, 7.99785330891609191895e-02) (83, -4.78083044290542602539e-02) (84, 4.91329915821552276611e-02) (85, 5.21101802587509155273e-03) (86, -4.17363345623016357422e-02) (87, 6.90647512674331665039e-02) (88, -4.36120852828025817871e-02) (89, 2.27332562208175659180e-02) (90, 8.26584547758102416992e-02) (91, 5.90089745819568634033e-02) (92, 6.78735077381134033203e-02) (93, 5.97815029323101043701e-02) (94, -1.51418494060635566711e-02) (95, 1.77381128072738647461e-01) (96, -1.69618085026741027832e-01) (97, 1.79973598569631576538e-02) (98, -7.78634622693061828613e-02) (99, -6.46857991814613342285e-02) (100, 6.16071261465549468994e-02) (101, -7.83356651663780212402e-02) (102, -2.88887955248355865479e-02) (103, 2.58210860192775726318e-02) (104, 4.56253141164779663086e-02) (105, -1.13889440894126892090e-01) (106, -1.04902788996696472168e-01) (107, -9.88449230790138244629e-02) (108, 4.00525331497192382812e-02) (109, 9.94333699345588684082e-02) (110, 1.11730158329010009766e-01) (111, 9.64726433157920837402e-02) (112, 6.49103820323944091797e-02) (113, 1.22489176690578460693e-01) (114, -1.10340669751167297363e-01) (115, 6.43252804875373840332e-02) (116, -7.02563971281051635742e-02) (117, -6.35749176144599914551e-02) (118, -1.66057497262954711914e-01) (119, 2.15700492262840270996e-02) (120, 7.84655194729566574097e-03) (121, 2.69120428711175918579e-02) (122, -1.38384506106376647949e-01) (123, 2.16863192617893218994e-02) (124, 8.07623341679573059082e-02) (125, -9.05700996518135070801e-02) (126, -3.59528721310198307037e-03) (127, 1.29471570253372192383e-01) (128, 5.73413521051406860352e-02) (129, -5.96446581184864044189e-02) (130, -1.21635876595973968506e-01) (131, -1.10559388995170593262e-01) (132, -6.67274296283721923828e-02) (133, -1.16456141695380210876e-02) (134, -1.16774924099445343018e-01) (135, -1.19099117815494537354e-01) (136, -1.14513104781508445740e-02) (137, -1.84408605098724365234e-01) (138, -5.25301648303866386414e-03) (139, 5.33589459955692291260e-02) (140, -2.50576317310333251953e-01) (141, -3.37812234647572040558e-03) (142, 6.90785720944404602051e-02) (143, -1.00544102489948272705e-01) (144, 1.21426306664943695068e-01) (145, -4.66977655887603759766e-02) (146, -1.90465375781059265137e-01) (147, 1.17504723370075225830e-01) (148, 9.84896123409271240234e-02) (149, -4.55427654087543487549e-02) (150, -3.88418212532997131348e-02) (151, 1.80475905537605285645e-01) (152, -2.85419705323874950409e-03) (153, 6.29737377166748046875e-02) (154, 9.49995294213294982910e-02) (155, 1.85023367404937744141e-01) (156, 3.51450741291046142578e-02) (157, -4.50396127998828887939e-02) (158, 6.85263471677899360657e-03) (159, 4.25095483660697937012e-03) (160, -7.78464153409004211426e-02) (161, -9.87101253122091293335e-03) (162, -8.04759562015533447266e-02) (163, -9.76367667317390441895e-02) (164, 1.51495784521102905273e-02) (165, 6.70197233557701110840e-02) (166, -1.19552157819271087646e-01) (167, -7.36019313335418701172e-02) (168, 6.91530061885714530945e-03) (169, -1.01177819073200225830e-01) (170, -5.08135557174682617188e-03) (171, 1.48726934567093849182e-02) (172, -1.03170201182365417480e-01) (173, 1.43016085028648376465e-01) (174, -1.04418724775314331055e-01) (175, 1.99035387486219406128e-02) (176, 1.95252448320388793945e-01) (177, -1.46054044365882873535e-01) (178, 1.06739485636353492737e-02) (179, 2.93821841478347778320e-02) (180, -2.91717126965522766113e-02) (181, 1.62290071602910757065e-03) (182, 8.29099584370851516724e-03) (183, -1.09733916819095611572e-01) (184, 4.91914674639701843262e-02) (185, -1.92932356148958206177e-02) (186, 5.85584016516804695129e-03) (187, 1.14900581538677215576e-01) (188, -4.05291914939880371094e-02) (189, 7.73664843291044235229e-03) (190, 1.43608286976814270020e-01) (191, 4.92995865643024444580e-02) (192, 7.15037509799003601074e-02) (193, 9.04344767332077026367e-02) (194, 1.63798462599515914917e-02) (195, 3.72130498290061950684e-02) (196, 2.00716755352914333344e-03) (197, 6.83739706873893737793e-02) (198, 1.18333837017416954041e-02) (199, -8.30230563879013061523e-02) (200, 1.76657527685165405273e-01) (201, -1.39198005199432373047e-01) (202, 5.12070283293724060059e-02) (203, 1.26194030046463012695e-01) (204, -1.30088359117507934570e-01) (205, -9.08034015446901321411e-03) (206, 6.57400786876678466797e-02) (207, -1.98798432946205139160e-01) (208, -1.24363787472248077393e-02) (209, -3.00914980471134185791e-02) (210, -3.58407534658908843994e-02) (211, 6.70238509774208068848e-02) (212, 2.87060178816318511963e-02) (213, -2.07751438021659851074e-01) (214, -2.32342425733804702759e-02) (215, 4.07718755304813385010e-02) (216, -2.11420446634292602539e-01) (217, 1.91083196550607681274e-02) (218, -4.50571533292531967163e-04) (219, -1.32567137479782104492e-02) (220, 3.53597626090049743652e-02) (221, 1.28430426120758056641e-01) (222, -6.65546283125877380371e-02) (223, -2.34733223915100097656e-01) (224, 6.83358758687973022461e-02) (225, 6.38224557042121887207e-02) (226, -9.85451042652130126953e-02) (227, -9.39778164029121398926e-02) (228, 1.59046486020088195801e-01) (229, 1.77263040095567703247e-02) (230, -7.22232535481452941895e-02) (231, 7.92645215988159179688e-02) (232, 1.46997720003128051758e-02) (233, -1.15412354469299316406e-01) (234, 3.48867215216159820557e-02) (235, -5.95909766852855682373e-02) (236, -2.53898221999406814575e-02) (237, -6.62788599729537963867e-02) (238, -6.90260455012321472168e-02) (239, 1.85471698641777038574e-01) (240, -5.14209568500518798828e-02) (241, -2.49627511948347091675e-02) (242, 7.02516883611679077148e-02) (243, -6.97259381413459777832e-02) (244, 1.05669543147087097168e-01) (245, 7.03930780291557312012e-02) (246, -9.89188402891159057617e-02) (247, 1.52955844998359680176e-01) (248, 1.10624253749847412109e-01) (249, -2.78569132089614868164e-01) (250, 1.67454764246940612793e-01) (251, 8.39044824242591857910e-02) (252, 6.85877427458763122559e-02) (253, -1.06932751834392547607e-01) (254, 1.25924617052078247070e-01) (255, -5.82444854080677032471e-02) (256, 6.23326050117611885071e-03) (257, 8.93103033304214477539e-02) (258, 7.75325149297714233398e-02) (259, -1.35717704892158508301e-01) (260, -1.96014866232872009277e-02) (261, -1.37248530983924865723e-01) (262, -3.35197091102600097656e-01) (263, -3.78722026944160461426e-02) (264, -5.46116977930068969727e-02) (265, -7.81344175338745117188e-02) (266, -3.20107191801071166992e-02) (267, 2.18081213533878326416e-02) (268, -2.13436752557754516602e-01) (269, 5.53569896146655082703e-03) (270, -1.01430468261241912842e-01) (271, 5.62172494828701019287e-02) (272, 4.86022047698497772217e-02) (273, -1.94997206330299377441e-01) (274, -1.50396805256605148315e-02) (275, 1.44833385944366455078e-01) (276, -9.80672016739845275879e-02) (277, -2.16323193162679672241e-02) (278, 4.83573861420154571533e-02) (279, -5.18213724717497825623e-03) (280, -5.92772997915744781494e-02) (281, -1.60916405729949474335e-03) (282, -2.06126019358634948730e-01) (283, -2.52504106611013412476e-02) (284, -4.33471687138080596924e-02) (285, -9.52554121613502502441e-02) (286, -1.43081843852996826172e-01) (287, 2.10409760475158691406e-02) (288, -8.14358964562416076660e-02) (289, -1.42947182059288024902e-01) (290, -1.05250321328639984131e-01) (291, -2.39711236208677291870e-02) (292, -2.35928595066070556641e-01) (293, -1.40461936593055725098e-01) (294, 1.63437396287918090820e-01) (295, -2.33683869242668151855e-01) (296, -1.36978745460510253906e-01) (297, 1.69112626463174819946e-02) (298, -2.28180021047592163086e-01) (299, -2.16841995716094970703e-02) (300, -4.90997768938541412354e-02) (301, -1.70300945639610290527e-01) (302, -2.21167415380477905273e-01) (303, 9.30684208869934082031e-02) (304, -2.36976817250251770020e-01) (305, -3.35661470890045166016e-02) (306, 3.91724593937397003174e-02) (307, -3.93826752901077270508e-01) (308, -2.32935085892677307129e-01) (309, 5.52244037389755249023e-02) (310, -4.03885751962661743164e-01) (311, -2.82531112432479858398e-01) (312, 4.05009947717189788818e-02) (313, -4.46386694908142089844e-01) (314, -7.10911676287651062012e-02) (315, -2.26671397686004638672e-01) (316, -3.54247093200683593750e-02) (317, -1.90149798989295959473e-01) (318, -9.68703553080558776855e-02) (319, -1.91391631960868835449e-01) (320, -1.69185459613800048828e-01) (321, -2.71522909402847290039e-01) (322, -5.02313256263732910156e-01) (323, -1.57250031828880310059e-01) (324, -5.70707842707633972168e-02) (325, -3.45614045858383178711e-01) (326, -1.31428107619285583496e-01) (327, 1.14763282239437103271e-01) (328, -4.15401399135589599609e-01) (329, -3.01222681999206542969e-01) (330, 2.78997778892517089844e-01) (331, -6.55877217650413513184e-02) (332, -5.34263134002685546875e-01) (333, 4.54238086938858032227e-01) (334, -3.73900718986988067627e-02) (335, -4.63552236557006835938e-01) (336, 2.34327599406242370605e-01) (337, -1.47153735160827636719e-01) (338, -7.95551478862762451172e-01) (339, 4.84060449525713920593e-03) (340, -2.88684159517288208008e-01) (341, -7.24069416522979736328e-01) (342, -1.87752440571784973145e-01) (343, -9.70507040619850158691e-02) (344, -3.98366302251815795898e-01) (345, -4.96549546718597412109e-01) (346, -2.08579972386360168457e-01) (347, -1.00432828068733215332e-01) (348, -5.93119919300079345703e-01) (349, -2.69496351480484008789e-01) (350, 3.12784761190414428711e-01) (351, -6.50540411472320556641e-01) (352, -4.09691110253334045410e-02) (353, -4.35691811144351959229e-02) (354, -4.35309618711471557617e-01) (355, -1.80394053459167480469e-01) (356, -1.13165366649627685547e+00) (357, 3.27270567417144775391e-01) (358, -2.80805587768554687500e-01) (359, -2.75721526145935058594e+00) (360, 7.52657771110534667969e-01) (0, 2.74491962045431137085e-02) (1, -1.47158786654472351074e-01) (2, -4.65289689600467681885e-03) (3, -8.04411768913269042969e-02) (4, 1.28218993544578552246e-01) (5, -1.31900534033775329590e-01) (6, 6.34759142994880676270e-02) (7, -6.27561286091804504395e-02) (8, -1.08187675476074218750e-01) (9, 7.72815495729446411133e-02) (10, -7.11726024746894836426e-02) (11, -3.33895757794380187988e-02) (12, -2.15171515941619873047e-01) (13, -1.99731756001710891724e-02) (14, -1.23765774071216583252e-01) (15, -2.43864133954048156738e-02) (16, -2.21109646372497081757e-03) (17, -6.00481033325195312500e-02) (18, -8.53547900915145874023e-02) (19, -5.52524104714393615723e-02) (20, -9.49771404266357421875e-02) (21, -4.51817810535430908203e-02) (22, -5.78101314604282379150e-02) (23, 9.25345644354820251465e-02) (24, 7.61396586894989013672e-02) (25, -1.97846279479563236237e-03) (26, 2.75411247275769710541e-03) (27, 9.12846848368644714355e-02) (28, 5.41228242218494415283e-02) (29, 1.09017238020896911621e-01) (30, 6.31947955116629600525e-03) (31, -5.06178438663482666016e-02) (32, 1.44954115152359008789e-01) (33, 1.41515687108039855957e-01) (34, -1.46173730492591857910e-01) (35, 1.72498196363449096680e-01) (36, 1.09683843329548835754e-02) (37, 4.28050644695758819580e-02) (38, 1.24140150845050811768e-01) (39, 9.01415199041366577148e-03) (40, -1.30894631147384643555e-01) (41, 5.43541694059967994690e-03) (42, 1.10719241201877593994e-01) (43, -3.78256626427173614502e-02) (44, 9.60674732923507690430e-02) (45, 1.10160946846008300781e-01) (46, -1.93465109914541244507e-02) (47, -5.64621575176715850830e-02) (48, 2.27549016475677490234e-01) (49, -2.89431177079677581787e-02) (50, 5.13844490051269531250e-02) (51, 1.26519903540611267090e-01) (52, -1.31131514906883239746e-01) (53, -3.37318331003189086914e-02) (54, 1.03441379964351654053e-01) (55, 9.80256721377372741699e-02) (56, 8.05672481656074523926e-02) (57, 6.51359260082244873047e-02) (58, 5.44119141995906829834e-02) (59, 8.72724503278732299805e-02) (60, -1.24886654317378997803e-01) (61, -9.34269055724143981934e-02) (62, 1.80044189095497131348e-01) (63, 1.26264810562133789062e-01) (64, -1.46183952689170837402e-01) (65, 1.35530054569244384766e-01) (66, 6.68206438422203063965e-02) (67, -2.92064752429723739624e-02) (68, 6.75380304455757141113e-02) (69, -1.83266028761863708496e-03) (70, -3.73373203910887241364e-03) (71, -2.54344381392002105713e-03) (72, -1.22461644932627677917e-02) (73, -1.77998155355453491211e-01) (74, 1.38339214026927947998e-02) (75, -6.28259107470512390137e-02) (76, 1.21174931526184082031e-01) (77, -5.38377501070499420166e-02) (78, 7.19687566161155700684e-02) (79, -2.17113532125949859619e-02) (80, 7.74974003434181213379e-02) (81, 1.05468779802322387695e-01) (82, 9.76259354501962661743e-03) (83, -1.27607658505439758301e-01) (84, 5.22030889987945556641e-02) (85, -2.66275424510240554810e-02) (86, 1.17007471621036529541e-01) (87, 7.67148062586784362793e-02) (88, -1.14126145839691162109e-01) (89, 1.18910610675811767578e-01) (90, 1.57462492585182189941e-01) (91, -2.91543416678905487061e-02) (92, -7.13554471731185913086e-02) (93, 1.58345460891723632812e-01) (94, 8.19672793149948120117e-02) (95, 1.49535853415727615356e-02) (96, -4.53574135899543762207e-02) (97, -1.51009038090705871582e-02) (98, 2.81019601970911026001e-02) (99, -1.04056052863597869873e-01) (100, 5.80725483596324920654e-02) (101, -8.29085633158683776855e-02) (102, -8.14092159271240234375e-02) (103, -4.52331155538558959961e-02) (104, -6.07306100428104400635e-02) (105, -5.03979399800300598145e-02) (106, -1.21898651123046875000e-01) (107, 6.88363760709762573242e-02) (108, 1.04362174868583679199e-01) (109, 1.03658088482916355133e-03) (110, 3.12098003923892974854e-02) (111, 7.30857551097869873047e-02) (112, -6.49661347270011901855e-02) (113, 1.43975868821144104004e-01) (114, -1.70997902750968933105e-02) (115, -2.99033652991056442261e-02) (116, -4.13602218031883239746e-02) (117, -1.11600607633590698242e-02) (118, -1.63492202758789062500e-01) (119, -4.29408438503742218018e-03) (120, -5.67683577537536621094e-02) (121, 9.23702493309974670410e-02) (122, -1.72114953398704528809e-01) (123, 4.46633845567703247070e-02) (124, -2.73006781935691833496e-02) (125, -7.15760365128517150879e-02) (126, 8.61781686544418334961e-02) (127, 8.91773849725723266602e-02) (128, -2.30626352131366729736e-02) (129, -2.15851143002510070801e-02) (130, 4.30863834917545318604e-02) (131, -8.44982415437698364258e-02) (132, -4.63057979941368103027e-02) (133, 5.72672225534915924072e-02) (134, -7.75291100144386291504e-02) (135, -1.92956656217575073242e-01) (136, 2.66436133533716201782e-02) (137, -1.15028649568557739258e-01) (138, -1.34267017245292663574e-01) (139, -1.82662457227706909180e-02) (140, -2.79670096933841705322e-02) (141, -3.21485265158116817474e-03) (142, -3.23018468916416168213e-02) (143, -1.47193282842636108398e-01) (144, 1.00201979279518127441e-01) (145, -1.16847567260265350342e-01) (146, -1.42574131488800048828e-01) (147, 1.78109169006347656250e-01) (148, 8.71813595294952392578e-02) (149, 5.90113028883934020996e-02) (150, -1.64044760167598724365e-02) (151, 9.87589731812477111816e-02) (152, -2.56919823586940765381e-02) (153, 8.24614390730857849121e-02) (154, 4.83859553933143615723e-02) (155, 6.59746825695037841797e-02) (156, 8.91266614198684692383e-02) (157, 3.45748737454414367676e-02) (158, -1.23403482139110565186e-01) (159, -6.14820094779133796692e-03) (160, 8.59814584255218505859e-02) (161, -3.12797687947750091553e-02) (162, 6.87646120786666870117e-02) (163, 5.91670945286750793457e-02) (164, -8.65241233259439468384e-03) (165, -1.66786815971136093140e-02) (166, 1.16876773536205291748e-01) (167, -4.13511432707309722900e-02) (168, -6.43314644694328308105e-02) (169, 9.31951552629470825195e-02) (170, 1.25775620341300964355e-01) (171, -6.22242279350757598877e-02) (172, 4.97396290302276611328e-02) (173, 1.70537769794464111328e-01) (174, -7.38891586661338806152e-02) (175, 8.58412776142358779907e-03) (176, 2.59545780718326568604e-02) (177, -4.34838570654392242432e-02) (178, 1.39447720721364021301e-02) (179, 1.17010116577148437500e-01) (180, -4.34785522520542144775e-03) (181, 2.07339450716972351074e-01) (182, -7.41687491536140441895e-02) (183, 1.30691394209861755371e-01) (184, 1.66006153449416160583e-03) (185, -6.38636648654937744141e-02) (186, -3.95020358264446258545e-02) (187, -9.65177118778228759766e-02) (188, 5.41549250483512878418e-02) (189, -6.92592514678835868835e-03) (190, 3.63560169935226440430e-02) (191, 9.97285544872283935547e-02) (192, 2.10811838507652282715e-01) (193, -2.10805460810661315918e-02) (194, 1.23603758402168750763e-03) (195, 1.02470390498638153076e-01) (196, -2.08795107901096343994e-02) (197, 1.03434145450592041016e-01) (198, 9.70247685909271240234e-02) (199, 6.40760958194732666016e-02) (200, 1.13820917904376983643e-01) (201, -9.61542129516601562500e-02) (202, -5.24101853370666503906e-02) (203, -2.17888150364160537720e-02) (204, -1.62401869893074035645e-02) (205, 1.33251324295997619629e-01) (206, 6.07457803562283515930e-03) (207, -4.82369996607303619385e-02) (208, -1.04863584041595458984e-01) (209, -1.56845718622207641602e-01) (210, 6.72912597656250000000e-02) (211, 8.37992951273918151855e-02) (212, 1.78332049399614334106e-02) (213, -8.72246455401182174683e-03) (214, -3.46347503364086151123e-02) (215, -1.15333072841167449951e-01) (216, -3.97544875741004943848e-02) (217, 9.59355831146240234375e-02) (218, -9.29718241095542907715e-02) (219, 1.69387031346559524536e-02) (220, 1.48847460746765136719e-01) (221, 1.36453686282038688660e-02) (222, -3.91681045293807983398e-02) (223, 8.64377394318580627441e-02) (224, 7.03751221299171447754e-02) (225, 1.19352396577596664429e-02) (226, 1.54270734637975692749e-02) (227, -3.45968157052993774414e-02) (228, 1.44139185547828674316e-01) (229, -1.62167362868785858154e-02) (230, -4.55087088048458099365e-02) (231, 1.91404728684574365616e-03) (232, 1.20500110089778900146e-01) (233, -1.99524667114019393921e-02) (234, 3.10995597392320632935e-02) (235, 8.52469354867935180664e-03) (236, -3.86653430759906768799e-02) (237, -4.99676503241062164307e-02) (238, 3.32476757466793060303e-02) (239, 8.98092687129974365234e-02) (240, -7.10576325654983520508e-02) (241, -8.32379162311553955078e-02) (242, 4.88678589463233947754e-02) (243, -2.72669289261102676392e-02) (244, 1.29406720399856567383e-01) (245, 6.60847872495651245117e-02) (246, -1.28955617547035217285e-01) (247, -8.88665858656167984009e-03) (248, -6.75005977973341941833e-03) (249, -1.52739003300666809082e-01) (250, -1.07940081506967544556e-02) (251, 1.53913527727127075195e-01) (252, 7.05985352396965026855e-02) (253, -5.21559156477451324463e-02) (254, 1.01961202919483184814e-01) (255, -7.05391913652420043945e-02) (256, -1.88328564167022705078e-01) (257, 3.70112620294094085693e-02) (258, 6.10438659787178039551e-02) (259, 2.05904930830001831055e-01) (260, -5.66558865830302238464e-03) (261, 2.80173588544130325317e-02) (262, -4.58137206733226776123e-02) (263, -1.11558549106121063232e-01) (264, -4.47501204907894134521e-02) (265, 2.94334739446640014648e-01) (266, -1.64627581834793090820e-01) (267, 2.00307890772819519043e-02) (268, 6.66212067008018493652e-02) (269, 7.02407211065292358398e-02) (270, 6.45850226283073425293e-02) (271, 1.25826552510261535645e-01) (272, 8.51919800043106079102e-02) (273, -1.43753603100776672363e-01) (274, 2.95581128448247909546e-02) (275, 2.62105651199817657471e-02) (276, 5.01647591590881347656e-02) (277, 1.25375851988792419434e-01) (278, 1.02677799761295318604e-01) (279, -1.08155585825443267822e-01) (280, 1.56781151890754699707e-01) (281, -1.36362696066498756409e-02) (282, 1.69970318675041198730e-02) (283, 1.07574999332427978516e-01) (284, -8.19459408521652221680e-02) (285, -9.35800895094871520996e-02) (286, 6.86848238110542297363e-02) (287, -7.60746821761131286621e-02) (288, 6.17076866328716278076e-02) (289, -1.39704607427120208740e-02) (290, -8.69312286376953125000e-02) (291, -4.05266582965850830078e-02) (292, -1.39569401741027832031e-01) (293, -9.64198634028434753418e-02) (294, 1.14735022187232971191e-01) (295, 3.52473072707653045654e-02) (296, -1.07131823897361755371e-01) (297, 5.50008714199066162109e-02) (298, 6.39054030179977416992e-02) (299, -8.10083895921707153320e-02) (300, 5.17977923154830932617e-02) (301, 3.10096293687820434570e-01) (302, -7.72951617836952209473e-02) (303, 4.18342314660549163818e-02) (304, 3.26089918613433837891e-01) (305, -1.96050971746444702148e-01) (306, -9.01420786976814270020e-02) (307, 2.12431326508522033691e-01) (308, -2.26391941308975219727e-01) (309, 1.81681811809539794922e-01) (310, 2.66202241182327270508e-01) (311, -3.03209096193313598633e-01) (312, -2.22831107676029205322e-02) (313, 1.32415547966957092285e-01) (314, -1.78107738494873046875e-01) (315, -1.07766933739185333252e-01) (316, 3.07632476091384887695e-01) (317, -2.67697535455226898193e-02) (318, -2.80794382095336914062e-01) (319, 1.97102189064025878906e-01) (320, -1.50847613811492919922e-01) (321, -2.28696569800376892090e-01) (322, 2.54757832735776901245e-02) (323, -1.42027214169502258301e-01) (324, 1.63085293024778366089e-02) (325, 8.26723948121070861816e-02) (326, -1.04368366301059722900e-01) (327, 2.14337464421987533569e-02) (328, -4.34303954243659973145e-02) (329, -2.49649554491043090820e-01) (330, 1.45227462053298950195e-01) (331, 8.00090134143829345703e-02) (332, -2.89558708667755126953e-01) (333, 2.75592595338821411133e-01) (334, 1.93400412797927856445e-01) (335, -4.30462598800659179688e-01) (336, 1.82155206799507141113e-01) (337, 1.97293296456336975098e-01) (338, -6.80366158485412597656e-01) (339, 2.24232062697410583496e-01) (340, 1.11212521791458129883e-01) (341, -7.07421481609344482422e-01) (342, -1.64462715387344360352e-01) (343, 1.57156046479940414429e-02) (344, -3.35443109273910522461e-01) (345, -3.75439792871475219727e-01) (346, 1.67319327592849731445e-02) (347, -7.90852960199117660522e-03) (348, -5.39898931980133056641e-01) (349, -1.50449961423873901367e-01) (350, 2.11926415562629699707e-01) (351, -6.14781498908996582031e-01) (352, 1.76956411451101303101e-02) (353, -5.89715503156185150146e-02) (354, -3.17848533391952514648e-01) (355, 5.92181235551834106445e-02) (356, -1.06708061695098876953e+00) (357, 4.79774594306945800781e-01) (358, 1.16629667580127716064e-01) (359, -2.54750800132751464844e+00) (360, 3.56982946395874023438e-01) (0, -4.61420863866806030273e-02) (1, -4.90850768983364105225e-02) (2, 1.55232802033424377441e-01) (3, -9.37420576810836791992e-02) (4, 1.30452916026115417480e-01) (5, 1.49750903248786926270e-01) (6, 1.79052669554948806763e-02) (7, 4.68271709978580474854e-02) (8, 5.44815249741077423096e-02) (9, -9.70708555541932582855e-04) (10, -6.59260973334312438965e-02) (11, 1.39291658997535705566e-01) (12, -1.56205177307128906250e-01) (13, 1.11463936045765876770e-02) (14, 1.03315301239490509033e-01) (15, 1.11304074525833129883e-01) (16, -1.06297275051474571228e-02) (17, 1.29942625761032104492e-01) (18, -2.13635161519050598145e-01) (19, 1.51623282581567764282e-02) (20, 2.61330872774124145508e-01) (21, -7.25375935435295104980e-02) (22, -1.10364317893981933594e-01) (23, 2.88552790880203247070e-01) (24, -1.19828447699546813965e-01) (25, 3.29329967498779296875e-02) (26, 1.65575593709945678711e-01) (27, 1.16363771259784698486e-01) (28, 9.43927243351936340332e-02) (29, 2.70694017410278320312e-01) (30, -6.94181546568870544434e-02) (31, 2.27102756500244140625e-01) (32, 3.00266146659851074219e-01) (33, -5.29324375092983245850e-02) (34, -4.58290241658687591553e-03) (35, 2.86230027675628662109e-01) (36, -9.05559584498405456543e-02) (37, 1.46377995610237121582e-01) (38, 2.24334061145782470703e-01) (39, -1.52095839381217956543e-01) (40, -1.36319652199745178223e-01) (41, 2.58345812559127807617e-01) (42, 7.08325207233428955078e-02) (43, 2.89363842457532882690e-02) (44, 1.78963720798492431641e-01) (45, 7.34266638755798339844e-02) (46, -1.25085577368736267090e-01) (47, 6.88448548316955566406e-02) (48, 1.35459065437316894531e-01) (49, -1.89208257943391799927e-02) (50, 3.68118025362491607666e-02) (51, -2.03661527484655380249e-02) (52, -1.53802871704101562500e-01) (53, 1.11323490738868713379e-01) (54, -1.43685303628444671631e-02) (55, -1.15750012919306755066e-02) (56, 1.99589654803276062012e-01) (57, 1.51514425873756408691e-01) (58, 2.13667727075517177582e-03) (59, 1.90996915102005004883e-01) (60, -1.67312905192375183105e-01) (61, -6.24007955193519592285e-02) (62, 1.83000072836875915527e-01) (63, -1.02101162075996398926e-01) (64, -8.44810456037521362305e-02) (65, 1.64893507957458496094e-01) (66, -1.73102006316184997559e-01) (67, -9.06199291348457336426e-02) (68, 1.11771129071712493896e-01) (69, 5.41433552280068397522e-03) (70, -1.56099900603294372559e-01) (71, 1.84568673372268676758e-01) (72, -7.29685798287391662598e-02) (73, -1.60063773393630981445e-01) (74, -8.82584601640701293945e-03) (75, 7.01663196086883544922e-02) (76, -1.04163335636258125305e-02) (77, 3.28015498816967010498e-02) (78, 3.28727252781391143799e-02) (79, 1.25710982829332351685e-02) (80, -2.36330237239599227905e-02) (81, 1.20415203273296356201e-01) (82, 1.48024293594062328339e-03) (83, -1.67169068008661270142e-02) (84, 5.96788376569747924805e-02) (85, -6.96877092123031616211e-02) (86, 1.38262510299682617188e-01) (87, 8.21342617273330688477e-02) (88, -2.15655222535133361816e-01) (89, 5.27743287384510040283e-02) (90, -7.04123675823211669922e-02) (91, 7.17203691601753234863e-02) (92, 1.01156286895275115967e-01) (93, 7.08449706435203552246e-02) (94, 1.40075564384460449219e-01) (95, 9.42938476800918579102e-02) (96, -1.95045754313468933105e-01) (97, 6.03989809751510620117e-02) (98, -5.35108484327793121338e-02) (99, 8.01370042609050869942e-05) (100, -3.37395519018173217773e-02) (101, -5.24953827261924743652e-02) (102, -4.44451496005058288574e-02) (103, -8.21669623255729675293e-02) (104, 5.50001636147499084473e-02) (105, -2.05141417682170867920e-02) (106, -2.11683019995689392090e-01) (107, 9.15553793311119079590e-02) (108, 4.65750358998775482178e-02) (109, 2.38993894308805465698e-02) (110, 1.22510567307472229004e-01) (111, 1.51634171605110168457e-01) (112, -4.15455512702465057373e-02) (113, 4.81382869184017181396e-02) (114, -5.71692399680614471436e-02) (115, -1.44763916730880737305e-01) (116, 2.43182126432657241821e-02) (117, -7.89858698844909667969e-02) (118, -2.36784666776657104492e-01) (119, -5.30367605388164520264e-02) (120, -6.97480961680412292480e-02) (121, -1.58815264701843261719e-01) (122, 4.13548983633518218994e-02) (123, 1.38440415263175964355e-01) (124, -4.54704202711582183838e-02) (125, 9.25949364900588989258e-02) (126, -2.36844923347234725952e-02) (127, 8.20584893226623535156e-02) (128, 1.16428442299365997314e-01) (129, -1.26904860138893127441e-01) (130, -5.51351234316825866699e-02) (131, -2.50214478000998497009e-04) (132, -1.70210152864456176758e-01) (133, -6.15871101617813110352e-02) (134, -1.53636872768402099609e-01) (135, -2.94261183589696884155e-02) (136, -9.10792574286460876465e-02) (137, -6.46395310759544372559e-02) (138, 2.96605303883552551270e-02) (139, -2.94545769691467285156e-01) (140, -1.61985620856285095215e-01) (141, 5.53848571144044399261e-04) (142, -1.20423570275306701660e-01) (143, -7.12009519338607788086e-02) (144, 2.37739995121955871582e-01) (145, 4.13998821750283241272e-03) (146, -2.53025293350219726562e-01) (147, 1.03913322091102600098e-01) (148, -5.93228405341506004333e-03) (149, 8.17145183682441711426e-02) (150, -8.81503242999315261841e-03) (151, 1.27891749143600463867e-01) (152, -4.29784394800662994385e-02) (153, 5.48614561557769775391e-02) (154, -3.95167954266071319580e-02) (155, 1.70927390456199645996e-01) (156, -7.08757862448692321777e-02) (157, -1.78031489253044128418e-01) (158, -6.31429851055145263672e-02) (159, -9.57725942134857177734e-02) (160, -4.12993840873241424561e-02) (161, -1.19987942278385162354e-01) (162, 1.32402896881103515625e-01) (163, -1.46868303418159484863e-01) (164, -1.77659794688224792480e-01) (165, 1.86169728636741638184e-01) (166, -1.85766682028770446777e-01) (167, 5.52021823823451995850e-02) (168, 2.74247769266366958618e-03) (169, -2.04835254698991775513e-02) (170, 1.31667390465736389160e-01) (171, 1.25944033265113830566e-01) (172, -1.46296307444572448730e-01) (173, 3.56774702668190002441e-02) (174, 6.21902346611022949219e-02) (175, -2.46285274624824523926e-01) (176, 6.25032857060432434082e-02) (177, -1.88085511326789855957e-02) (178, -1.66373506188392639160e-01) (179, 1.60547509789466857910e-01) (180, -2.77395476587116718292e-03) (181, -4.36771325767040252686e-02) (182, 7.77015089988708496094e-02) (183, 7.83082619309425354004e-02) (184, -4.90012168884277343750e-02) (185, 5.62110170722007751465e-02) (186, -1.31778018549084663391e-02) (187, -2.35098764300346374512e-01) (188, -7.03481435775756835938e-02) (189, 1.55296102166175842285e-01) (190, -1.95398271083831787109e-01) (191, 3.39585095643997192383e-02) (192, 2.27110937237739562988e-01) (193, -1.25322714447975158691e-01) (194, -4.89585921168327331543e-02) (195, 2.81046390533447265625e-01) (196, -5.19947037100791931152e-02) (197, -1.75371393561363220215e-02) (198, 1.88600093126296997070e-01) (199, -1.91190704703330993652e-01) (200, 4.41707894206047058105e-02) (201, -6.54977709054946899414e-02) (202, -1.26585647463798522949e-01) (203, 2.33657285571098327637e-02) (204, 8.48108753561973571777e-02) (205, -1.24391421675682067871e-01) (206, -3.14775183796882629395e-02) (207, 3.38280461728572845459e-02) (208, -3.57191205024719238281e-01) (209, -4.07028719782829284668e-02) (210, 1.05869509279727935791e-01) (211, -5.36974668502807617188e-02) (212, -7.09394887089729309082e-02) (213, -7.67015144228935241699e-02) (214, -1.94593280553817749023e-01) (215, 1.82060971856117248535e-01) (216, -3.60225997865200042725e-02) (217, -3.25384736061096191406e-02) (218, 6.47660624235868453979e-03) (219, 1.35586380958557128906e-01) (220, -2.14032027870416641235e-02) (221, 1.16190509870648384094e-02) (222, 1.01253546774387359619e-01) (223, -1.27680212259292602539e-01) (224, 5.68480044603347778320e-02) (225, 2.30943128466606140137e-01) (226, -1.48857206106185913086e-01) (227, 1.11473705619573593140e-02) (228, 2.58995264768600463867e-01) (229, -6.33245706558227539062e-02) (230, 2.45613865554332733154e-02) (231, 2.44824320077896118164e-01) (232, -5.31506948173046112061e-02) (233, -4.02662977576255798340e-02) (234, 7.43639171123504638672e-02) (235, -8.13800916075706481934e-02) (236, 1.26308888196945190430e-01) (237, 9.34219881892204284668e-02) (238, -1.08915373682975769043e-01) (239, 2.51903206110000610352e-01) (240, -4.90429066121578216553e-02) (241, -1.71153903007507324219e-01) (242, 1.83467760682106018066e-01) (243, 7.06164389848709106445e-02) (244, 2.61819288134574890137e-02) (245, -4.30624410510063171387e-02) (246, -4.54178638756275177002e-02) (247, -6.05352930724620819092e-02) (248, 1.06381036341190338135e-01) (249, -7.18672648072242736816e-02) (250, -4.61921989917755126953e-02) (251, 6.31935596466064453125e-02) (252, 1.57523617148399353027e-01) (253, -7.30699226260185241699e-02) (254, 1.05867050588130950928e-01) (255, 2.54774838685989379883e-02) (256, -9.30161327123641967773e-02) (257, 3.88344340026378631592e-02) (258, 4.33888547122478485107e-02) (259, -2.36713767051696777344e-01) (260, -8.56555998325347900391e-02) (261, -8.21375921368598937988e-02) (262, -3.96552890539169311523e-01) (263, 1.86810698360204696655e-02) (264, 1.03516019880771636963e-01) (265, -2.05333441495895385742e-01) (266, -2.18525782227516174316e-01) (267, 1.15150503814220428467e-01) (268, -2.84176886081695556641e-01) (269, -5.78879378736019134521e-02) (270, 3.00585161894559860229e-02) (271, 6.71936646103858947754e-02) (272, 6.24487996101379394531e-02) (273, -1.60890221595764160156e-01) (274, -2.22365975379943847656e-01) (275, 3.03455367684364318848e-02) (276, -1.33391112089157104492e-01) (277, -1.55348315834999084473e-01) (278, 1.25631764531135559082e-01) (279, -1.49977058172225952148e-01) (280, -1.54450684785842895508e-01) (281, -6.18790872395038604736e-02) (282, -9.96230989694595336914e-02) (283, -1.98064833879470825195e-01) (284, -1.42166212201118469238e-01) (285, 8.29613134264945983887e-02) (286, -2.33138412237167358398e-01) (287, -3.36438603699207305908e-02) (288, 1.31845176219940185547e-01) (289, -2.48029287904500961304e-02) (290, 2.68168114125728607178e-02) (291, 1.41948506236076354980e-01) (292, -2.47975602746009826660e-01) (293, -2.03280538320541381836e-01) (294, 1.75197541713714599609e-01) (295, -2.57401615381240844727e-02) (296, -4.70655672252178192139e-02) (297, 1.17796128615736961365e-02) (298, -1.97201281785964965820e-01) (299, -8.82891938090324401855e-02) (300, 5.51497563719749450684e-03) (301, -3.55935618281364440918e-02) (302, -1.50028035044670104980e-01) (303, -1.29421681165695190430e-01) (304, -3.30554127693176269531e-01) (305, 4.99249249696731567383e-02) (306, -8.63757506012916564941e-02) (307, -3.76711279153823852539e-01) (308, -4.40947115421295166016e-02) (309, 9.46997851133346557617e-02) (310, -2.45208308100700378418e-01) (311, -9.06905606389045715332e-02) (312, 9.61414501070976257324e-02) (313, -7.93191120028495788574e-02) (314, -7.95636773109436035156e-02) (315, 4.17392924427986145020e-02) (316, 2.59098351001739501953e-01) (317, -6.48402646183967590332e-02) (318, -5.37987910211086273193e-02) (319, 8.19525569677352905273e-02) (320, -1.85011327266693115234e-01) (321, -1.11574277281761169434e-01) (322, -1.80429920554161071777e-01) (323, -1.67192041873931884766e-01) (324, -1.09868152067065238953e-02) (325, -1.60911753773689270020e-02) (326, -1.96028307080268859863e-01) (327, -3.77896092832088470459e-02) (328, -1.41877874732017517090e-01) (329, -1.34952560067176818848e-01) (330, 1.72821447253227233887e-01) (331, 3.79613757133483886719e-01) (332, -2.83705919981002807617e-01) (333, 3.55165183544158935547e-01) (334, 1.75127878785133361816e-01) (335, -3.44254434108734130859e-01) (336, 1.14364676177501678467e-01) (337, 2.15798571705818176270e-01) (338, -7.53858447074890136719e-01) (339, 1.12585499882698059082e-02) (340, 1.42136469483375549316e-01) (341, -7.53788113594055175781e-01) (342, -5.90836349874734878540e-03) (343, 3.50419700145721435547e-01) (344, -5.66111385822296142578e-01) (345, -3.08368325233459472656e-01) (346, 9.77014005184173583984e-02) (347, -5.48310279846191406250e-02) (348, -4.49778079986572265625e-01) (349, -3.26321482658386230469e-01) (350, 3.18130970001220703125e-01) (351, -4.74109649658203125000e-01) (352, -2.34516054391860961914e-01) (353, -1.04249589145183563232e-01) (354, -3.09651464223861694336e-01) (355, -1.68523386120796203613e-01) (356, -1.32932341098785400391e+00) (357, 4.20182466506958007812e-01) (358, -2.00329348444938659668e-01) (359, -3.12105202674865722656e+00) (360, 1.24257981777191162109e+00) (0, -9.76197123527526855469e-02) (1, -1.70395597815513610840e-01) (2, -7.56589472293853759766e-02) (3, -5.17739504575729370117e-02) (4, 4.00886498391628265381e-02) (5, -2.23576262593269348145e-01) (6, 4.83081303536891937256e-02) (7, -1.43712565302848815918e-01) (8, -1.86820179224014282227e-01) (9, 3.70594821870326995850e-02) (10, -1.92028746008872985840e-01) (11, -2.55019128322601318359e-01) (12, -1.80637449026107788086e-01) (13, -1.50318756699562072754e-01) (14, -1.86017230153083801270e-01) (15, 4.06246222555637359619e-02) (16, -4.29653674364089965820e-02) (17, -1.83392092585563659668e-01) (18, -8.32135528326034545898e-02) (19, -2.52495825290679931641e-01) (20, -4.08161096274852752686e-02) (21, 2.97170262783765792847e-02) (22, -1.40895962715148925781e-01) (23, 1.26006128266453742981e-02) (24, 6.53357952833175659180e-02) (25, -1.26145064830780029297e-01) (26, -2.00592473149299621582e-01) (27, 7.20526352524757385254e-02) (28, -4.84243929386138916016e-02) (29, -4.82069440186023712158e-02) (30, 9.17662829160690307617e-02) (31, 2.49074716120958328247e-02) (32, 5.12059405446052551270e-02) (33, 7.63570219278335571289e-02) (34, -3.21538634598255157471e-02) (35, 2.67538311891257762909e-03) (36, 1.27575248479843139648e-01) (37, -5.13062253594398498535e-02) (38, 6.03799931704998016357e-02) (39, -4.10666093230247497559e-02) (40, -1.28017812967300415039e-01) (41, 2.83966809511184692383e-02) (42, 1.49805858731269836426e-01) (43, -2.73527428507804870605e-02) (44, 3.10797356069087982178e-02) (45, 1.54199883341789245605e-01) (46, -1.49883627891540527344e-01) (47, -8.19125622510910034180e-02) (48, 2.83184915781021118164e-01) (49, -2.29786261916160583496e-01) (50, -4.60247844457626342773e-02) (51, 1.44283413887023925781e-01) (52, -4.99357096850872039795e-03) (53, -8.07992443442344665527e-02) (54, 1.38149589300155639648e-01) (55, -1.76815092563629150391e-02) (56, -3.75800542533397674561e-02) (57, 2.02413246035575866699e-01) (58, 7.63954818248748779297e-02) (59, 8.02450254559516906738e-02) (60, 1.03917330503463745117e-01) (61, -4.07432727515697479248e-02) (62, -1.70883890241384506226e-02) (63, 1.56711772084236145020e-01) (64, 1.92555913235992193222e-03) (65, 2.35097645781934261322e-03) (66, -9.20501444488763809204e-03) (67, -5.80827258527278900146e-02) (68, -5.96520199906080961227e-04) (69, 6.62710443139076232910e-02) (70, 5.29016666114330291748e-02) (71, -3.50174829363822937012e-02) (72, -9.81029123067855834961e-02) (73, -1.74780100584030151367e-01) (74, 4.07312884926795959473e-02) (75, 3.73266520909965038300e-03) (76, -1.06721900403499603271e-01) (77, -1.11252032220363616943e-01) (78, -2.24284641444683074951e-02) (79, -7.04718306660652160645e-02) (80, -6.52637705206871032715e-02) (81, 1.84454750269651412964e-02) (82, -1.04063011705875396729e-01) (83, -1.19809597730636596680e-01) (84, -2.31695780530571937561e-03) (85, 7.53806307911872863770e-02) (86, -4.70942398533225059509e-03) (87, 2.39732220768928527832e-01) (88, -1.18615120649337768555e-01) (89, 2.87500722333788871765e-03) (90, 1.94709613919258117676e-01) (91, -1.00254431366920471191e-01) (92, 6.75576999783515930176e-02) (93, 2.66755282878875732422e-01) (94, 2.13773101568222045898e-01) (95, 9.76953133940696716309e-02) (96, -3.28934416174888610840e-02) (97, -4.89428155124187469482e-02) (98, -8.24427604675292968750e-02) (99, 7.56968557834625244141e-02) (100, 1.02246753871440887451e-01) (101, -7.17446058988571166992e-02) (102, -8.80741328001022338867e-02) (103, 1.47871449589729309082e-01) (104, 5.21458499133586883545e-02) (105, -1.64780840277671813965e-02) (106, 6.63956403732299804688e-02) (107, 5.84574826061725616455e-02) (108, -5.59287481009960174561e-02) (109, 1.15429908037185668945e-01) (110, 8.65268856287002563477e-02) (111, 4.94761439040303230286e-03) (112, 1.77376896142959594727e-01) (113, -1.89846884459257125854e-02) (114, -5.65441325306892395020e-02) (115, 1.02492921054363250732e-01) (116, 9.68156233429908752441e-02) (117, -9.25735384225845336914e-02) (118, 1.51276134420186281204e-03) (119, -1.19248099625110626221e-01) (120, 6.20670765638351440430e-02) (121, 1.71965837478637695312e-01) (122, -1.66722297668457031250e-01) (123, 1.89947396516799926758e-01) (124, 9.24276337027549743652e-02) (125, -1.45738944411277770996e-01) (126, 1.41232356429100036621e-01) (127, 1.63255542516708374023e-01) (128, -1.01417072117328643799e-01) (129, -3.52420695126056671143e-02) (130, 1.28672987222671508789e-01) (131, -1.34747341275215148926e-01) (132, -6.25120550394058227539e-02) (133, 3.53256426751613616943e-02) (134, -1.76538690924644470215e-01) (135, -1.05572372674942016602e-01) (136, 1.83582365512847900391e-01) (137, -1.62237852811813354492e-01) (138, -1.03084832429885864258e-01) (139, 1.36516556143760681152e-01) (140, -1.06756284832954406738e-01) (141, -1.14963911473751068115e-01) (142, 5.56892268359661102295e-02) (143, -1.49332180619239807129e-01) (144, 2.26703491061925888062e-02) (145, -1.09181106090545654297e-01) (146, -1.56587898731231689453e-01) (147, 9.39472243189811706543e-02) (148, -1.39531239867210388184e-01) (149, -8.14602002501487731934e-02) (150, 3.60446535050868988037e-02) (151, -1.10963724553585052490e-01) (152, 7.26753100752830505371e-02) (153, 1.97084873914718627930e-01) (154, -2.41768583655357360840e-01) (155, 5.17566204071044921875e-02) (156, 1.33219689130783081055e-01) (157, -7.50349313020706176758e-02) (158, -8.29461738467216491699e-02) (159, -4.43207137286663055420e-02) (160, 8.60573500394821166992e-02) (161, -1.76880136132240295410e-01) (162, -2.48803813010454177856e-02) (163, -4.41730171442031860352e-02) (164, 4.70066629350185394287e-02) (165, 1.97589565068483352661e-02) (166, 8.31657946109771728516e-02) (167, 6.53063505887985229492e-02) (168, -6.57712668180465698242e-02) (169, -1.17186658084392547607e-01) (170, 1.13780722022056579590e-01) (171, 8.55234935879707336426e-02) (172, -9.12885814905166625977e-02) (173, 1.69304594397544860840e-01) (174, -1.25291734933853149414e-01) (175, -1.02068064734339714050e-02) (176, 2.43719853460788726807e-02) (177, -9.59713980555534362793e-02) (178, 4.57963272929191589355e-02) (179, 2.38150991499423980713e-02) (180, 2.28391867130994796753e-02) (181, 1.87684133648872375488e-01) (182, -1.80357496719807386398e-03) (183, 1.06560893356800079346e-01) (184, 1.58308073878288269043e-01) (185, 4.29796278476715087891e-02) (186, 1.08964852988719940186e-01) (187, 1.16640403866767883301e-02) (188, -1.73038840293884277344e-02) (189, 1.44945621490478515625e-01) (190, 7.53253698348999023438e-02) (191, -5.51681332290172576904e-02) (192, 1.89306318759918212891e-01) (193, 1.20703093707561492920e-01) (194, 6.53133243322372436523e-02) (195, 6.63825944066047668457e-02) (196, -1.04506142437458038330e-01) (197, -2.74338596500456333160e-03) (198, -4.99132014811038970947e-02) (199, -6.36409921571612358093e-03) (200, 3.03520504385232925415e-02) (201, -5.63231818377971649170e-02) (202, 8.88686906546354293823e-03) (203, -3.36702093482017517090e-02) (204, 5.44799603521823883057e-02) (205, 1.06739729642868041992e-01) (206, -4.12396453320980072021e-02) (207, 5.43024465441703796387e-02) (208, -4.29516099393367767334e-02) (209, -1.80734172463417053223e-01) (210, 1.17400586605072021484e-01) (211, 1.15265414118766784668e-01) (212, -3.98339480161666870117e-02) (213, -7.96639844775199890137e-02) (214, 9.84380170702934265137e-02) (215, -2.68625114113092422485e-02) (216, 4.57952544093132019043e-03) (217, 1.04361549019813537598e-01) (218, -8.88844281435012817383e-02) (219, 2.19055563211441040039e-02) (220, 9.52956601977348327637e-02) (221, 2.76341605931520462036e-02) (222, 7.26389419287443161011e-03) (223, 2.53169350326061248779e-02) (224, -6.09652081038802862167e-04) (225, 1.12765349447727203369e-01) (226, 1.83937281370162963867e-01) (227, 1.20487455278635025024e-02) (228, 1.48266226053237915039e-01) (229, 4.53701987862586975098e-02) (230, -8.88322070240974426270e-02) (231, 8.42555537819862365723e-02) (232, 5.98313175141811370850e-02) (233, -5.08348122239112854004e-02) (234, -4.98213805258274078369e-02) (235, 1.83856159448623657227e-01) (236, 4.21701222658157348633e-02) (237, 9.50297191739082336426e-02) (238, 6.40750601887702941895e-02) (239, -8.22250917553901672363e-03) (240, 1.04270741343498229980e-01) (241, -7.94023498892784118652e-02) (242, -4.70863170921802520752e-02) (243, 1.86862617731094360352e-01) (244, 3.41737456619739532471e-02) (245, -1.20500825345516204834e-01) (246, -9.99387912452220916748e-03) (247, 1.43086344003677368164e-01) (248, 3.53467762470245361328e-02) (249, -1.98929179459810256958e-02) (250, -4.33049462735652923584e-02) (251, 1.35626956820487976074e-01) (252, 1.11473955214023590088e-01) (253, -4.00265939533710479736e-02) (254, 2.20619350671768188477e-01) (255, 7.02502280473709106445e-02) (256, -1.12904056906700134277e-01) (257, 9.68672707676887512207e-02) (258, 8.81889238953590393066e-02) (259, 3.08357089757919311523e-01) (260, -1.07143335044384002686e-01) (261, 3.11975851655006408691e-02) (262, 1.30551040172576904297e-01) (263, -9.99750196933746337891e-02) (264, 1.60312518477439880371e-01) (265, 4.71024781465530395508e-01) (266, -2.03687295317649841309e-01) (267, 1.88095986843109130859e-01) (268, 2.89607256650924682617e-01) (269, 5.78817501664161682129e-02) (270, 1.91994860768318176270e-01) (271, 2.38238364458084106445e-01) (272, 5.32030127942562103271e-02) (273, -5.51738180220127105713e-02) (274, 1.90393365919589996338e-02) (275, 8.75890031456947326660e-02) (276, 2.90982332080602645874e-02) (277, 8.81897732615470886230e-02) (278, 1.00891113281250000000e-01) (279, 8.92123728990554809570e-02) (280, 1.96487545967102050781e-01) (281, -1.06687307357788085938e-01) (282, 1.49975428357720375061e-02) (283, 2.80653059482574462891e-01) (284, -3.07509861886501312256e-02) (285, 3.68048958480358123779e-02) (286, 8.30807536840438842773e-02) (287, -1.00856516510248184204e-02) (288, 3.53642217814922332764e-02) (289, -6.36564642190933227539e-02) (290, -1.65938250720500946045e-02) (291, 5.89368678629398345947e-02) (292, 9.24348644912242889404e-03) (293, -1.69721156358718872070e-01) (294, 2.60928988456726074219e-01) (295, 1.68981254100799560547e-01) (296, -1.83014973998069763184e-01) (297, 1.46354228258132934570e-01) (298, 5.36599680781364440918e-02) (299, -4.87878657877445220947e-02) (300, 1.35526806116104125977e-01) (301, 3.98753643035888671875e-01) (302, -2.05292716622352600098e-01) (303, 1.36447772383689880371e-01) (304, 4.05602842569351196289e-01) (305, -1.94016531109809875488e-01) (306, 3.44370156526565551758e-02) (307, 2.59880274534225463867e-01) (308, -2.64970511198043823242e-01) (309, 1.14406645298004150391e-01) (310, 4.32699829339981079102e-01) (311, -2.76052176952362060547e-01) (312, 1.76870767027139663696e-02) (313, 8.64382311701774597168e-02) (314, -1.72191411256790161133e-01) (315, -2.45784983038902282715e-01) (316, 5.55897355079650878906e-01) (317, 3.41682620346546173096e-02) (318, -1.19727239012718200684e-01) (319, 1.25161126255989074707e-01) (320, 1.10528998076915740967e-01) (321, -2.01498478651046752930e-01) (322, 2.14218020439147949219e-01) (323, 1.97380892932415008545e-02) (324, 1.10127106308937072754e-02) (325, 8.67444053292274475098e-02) (326, 7.70746096968650817871e-02) (327, 1.46736174821853637695e-01) (328, -3.55921871960163116455e-02) (329, -2.21634745597839355469e-01) (330, 3.14646899700164794922e-01) (331, 3.97925116121768951416e-02) (332, -3.75821918249130249023e-01) (333, 5.05046248435974121094e-01) (334, 1.59987896680831909180e-01) (335, -4.35791760683059692383e-01) (336, 3.92960667610168457031e-01) (337, 7.89438411593437194824e-02) (338, -5.76365411281585693359e-01) (339, 1.90044909715652465820e-01) (340, 4.02901209890842437744e-02) (341, -5.52101790904998779297e-01) (342, -2.77751814574003219604e-02) (343, 2.81688338145613670349e-03) (344, -4.06359732151031494141e-01) (345, -2.88713842630386352539e-01) (346, -8.25255215167999267578e-02) (347, 1.16615757346153259277e-01) (348, -4.64305132627487182617e-01) (349, -1.30466192960739135742e-01) (350, 4.35356080532073974609e-01) (351, -5.59475183486938476562e-01) (352, 2.56528742611408233643e-02) (353, 9.24198050051927566528e-03) (354, -1.59320279955863952637e-01) (355, 2.57937073707580566406e-01) (356, -9.79483842849731445312e-01) (357, 6.10937118530273437500e-01) (358, 1.81447371840476989746e-01) (359, -2.65110898017883300781e+00) (360, 6.28151297569274902344e-01) (0, -1.08544463291764259338e-02) (1, -8.36304649710655212402e-02) (2, 9.39800143241882324219e-02) (3, 9.71689373254776000977e-02) (4, 2.48184949159622192383e-02) (5, -8.66575017571449279785e-02) (6, 8.48850309848785400391e-02) (7, -3.47012579441070556641e-02) (8, -1.17902345955371856689e-01) (9, -2.83751469105482101440e-02) (10, -6.32998198270797729492e-02) (11, 4.18845191597938537598e-02) (12, -3.71269583702087402344e-02) (13, -9.53184589743614196777e-02) (14, 6.85659199953079223633e-02) (15, 2.77357734739780426025e-02) (16, 3.88075448572635650635e-02) (17, 5.77561482787132263184e-02) (18, -1.33205369114875793457e-01) (19, 1.16527624428272247314e-01) (20, 5.10319918394088745117e-02) (21, -1.41274705529212951660e-01) (22, 7.41474796086549758911e-04) (23, -2.24725864827632904053e-02) (24, 1.12071506679058074951e-01) (25, -4.31240685284137725830e-02) (26, -4.95286472141742706299e-02) (27, 7.53261968493461608887e-02) (28, 8.43979194760322570801e-02) (29, 5.71156814694404602051e-02) (30, 9.05969832092523574829e-03) (31, 7.45065733790397644043e-02) (32, 1.59783735871315002441e-01) (33, 5.72488922625780105591e-03) (34, -6.49346932768821716309e-02) (35, 6.54524341225624084473e-02) (36, 6.98655620217323303223e-02) (37, -6.31789192557334899902e-02) (38, 4.57324348390102386475e-02) (39, -4.20838734135031700134e-03) (40, -4.69429865479469299316e-02) (41, 1.60121306777000427246e-01) (42, 9.18916687369346618652e-02) (43, 3.83681207895278930664e-02) (44, -1.65582168847322463989e-02) (45, 1.33572341874241828918e-02) (46, -2.73482333868741989136e-02) (47, 6.48513585329055786133e-02) (48, 1.90812379121780395508e-01) (49, 9.84157845377922058105e-02) (50, 1.41417132690548896790e-02) (51, 2.97097451984882354736e-02) (52, 5.38454763591289520264e-02) (53, 7.20248594880104064941e-02) (54, 8.24788883328437805176e-02) (55, 1.25134065747261047363e-02) (56, 6.96049183607101440430e-02) (57, 1.60482555627822875977e-01) (58, -6.33510723710060119629e-02) (59, 6.07002638280391693115e-02) (60, -7.41383209824562072754e-02) (61, 1.65785625576972961426e-02) (62, 7.12654590606689453125e-02) (63, -2.57824733853340148926e-02) (64, -1.28019854426383972168e-01) (65, 1.20022036135196685791e-01) (66, -1.76239330321550369263e-02) (67, -1.24809369444847106934e-01) (68, -5.65129742026329040527e-02) (69, 1.64218079298734664917e-02) (70, 1.20183214545249938965e-01) (71, 7.51314088702201843262e-02) (72, -4.23373803496360778809e-02) (73, 6.89896289259195327759e-03) (74, 8.44235494732856750488e-02) (75, -6.05015940964221954346e-02) (76, 4.60968129336833953857e-02) (77, -1.07995249330997467041e-01) (78, -5.72563037276268005371e-02) (79, -1.28176718950271606445e-01) (80, 4.95949126780033111572e-02) (81, -5.70131279528141021729e-02) (82, 6.91177183762192726135e-03) (83, -2.63007953763008117676e-02) (84, 2.43948232382535934448e-02) (85, 7.21249217167496681213e-03) (86, -5.09493499994277954102e-02) (87, 5.77885992825031280518e-02) (88, -1.74702286720275878906e-01) (89, 5.20315617322921752930e-02) (90, -3.79183702170848846436e-02) (91, 2.56608892232179641724e-02) (92, -2.49053281731903553009e-03) (93, 7.01014921069145202637e-02) (94, 1.06250710785388946533e-01) (95, 1.01975224912166595459e-01) (96, -9.91033092141151428223e-02) (97, -5.66022284328937530518e-02) (98, 2.27160770446062088013e-02) (99, -7.68961980938911437988e-02) (100, 1.32560297846794128418e-01) (101, 8.69382265955209732056e-03) (102, 4.23211604356765747070e-02) (103, 4.74521936848759651184e-03) (104, -6.47214204072952270508e-02) (105, -1.49287907406687736511e-02) (106, -1.07693091034889221191e-01) (107, -6.29395321011543273926e-02) (108, 9.70601066946983337402e-02) (109, -8.18836912512779235840e-02) (110, -5.94037724658846855164e-03) (111, 5.60987330973148345947e-02) (112, -8.59836563467979431152e-02) (113, -6.49526193737983703613e-02) (114, -1.13105297088623046875e-01) (115, -6.25607892870903015137e-02) (116, -2.73326449096202850342e-02) (117, -6.36009275913238525391e-02) (118, -9.12354215979576110840e-02) (119, -6.00429028272628784180e-02) (120, 4.92859259247779846191e-02) (121, 1.37252151966094970703e-01) (122, -6.02720081806182861328e-02) (123, 3.47574576735496520996e-02) (124, -2.04941332340240478516e-02) (125, -1.52570560574531555176e-01) (126, -2.17550005763769149780e-02) (127, 4.83670532703399658203e-02) (128, -1.46677136421203613281e-01) (129, -1.31340950727462768555e-01) (130, 1.64038147777318954468e-02) (131, -5.90385729447007179260e-03) (132, -5.25526553392410278320e-02) (133, 3.28040681779384613037e-02) (134, -1.85631424188613891602e-01) (135, -1.92800462245941162109e-01) (136, 7.46907293796539306641e-02) (137, 7.21367402002215385437e-03) (138, -1.72968804836273193359e-02) (139, 4.61563700810074806213e-04) (140, -1.52924254536628723145e-01) (141, -7.96147957444190979004e-02) (142, -3.12638022005558013916e-02) (143, -5.40545918047428131104e-02) (144, 5.75294420123100280762e-02) (145, -5.28598092496395111084e-02) (146, -1.79080609232187271118e-02) (147, 1.31927907466888427734e-01) (148, 1.31947040557861328125e-01) (149, -3.52044776082038879395e-03) (150, -6.33433461189270019531e-02) (151, 2.41567179560661315918e-01) (152, -3.94526161253452301025e-02) (153, 1.79532319307327270508e-01) (154, -6.49373009800910949707e-02) (155, 4.52430136501789093018e-02) (156, -2.27851923555135726929e-02) (157, -3.08692269027233123779e-02) (158, 4.09721843898296356201e-02) (159, -1.34484758600592613220e-02) (160, 6.83485642075538635254e-02) (161, -2.75349095463752746582e-02) (162, -1.85265019536018371582e-02) (163, 5.67145086824893951416e-03) (164, -2.30417083948850631714e-02) (165, 1.33030964061617851257e-02) (166, 6.22973926365375518799e-02) (167, -2.66444515436887741089e-02) (168, -9.69692766666412353516e-02) (169, -1.54759716242551803589e-02) (170, -3.16663347184658050537e-02) (171, -3.00316363573074340820e-02) (172, -1.62232935428619384766e-01) (173, 2.12429463863372802734e-02) (174, -1.25305816531181335449e-01) (175, -4.42456752061843872070e-02) (176, 1.44731625914573669434e-01) (177, -1.83663979172706604004e-01) (178, -8.70995502918958663940e-03) (179, 5.02611882984638214111e-02) (180, 2.49425116926431655884e-02) (181, 1.76512122154235839844e-01) (182, -3.89424189925193786621e-02) (183, 1.38656377792358398438e-01) (184, 8.07930007576942443848e-02) (185, 4.80445548892021179199e-02) (186, 1.87870282679796218872e-02) (187, -8.34993869066238403320e-02) (188, -5.95583505928516387939e-02) (189, 2.73601934313774108887e-02) (190, 1.49562172591686248779e-02) (191, 3.37713472545146942139e-02) (192, 4.30533029139041900635e-02) (193, 1.34893264621496200562e-02) (194, -3.90938781201839447021e-02) (195, -3.87370102107524871826e-02) (196, 5.34259714186191558838e-02) (197, 1.04620866477489471436e-01) (198, 1.21390204876661300659e-02) (199, 6.20218142867088317871e-02) (200, 6.32648020982742309570e-02) (201, -9.82570499181747436523e-02) (202, -8.53947252035140991211e-02) (203, 1.98364295065402984619e-02) (204, 1.89255811274051666260e-02) (205, 6.85512414202094078064e-03) (206, -1.00911021232604980469e-01) (207, -5.11675365269184112549e-02) (208, -1.21824145317077636719e-01) (209, -2.10193283855915069580e-02) (210, -2.29004044085741043091e-02) (211, 1.10378965735435485840e-01) (212, -2.95160412788391113281e-02) (213, -5.92859229072928428650e-03) (214, 6.56372681260108947754e-02) (215, -3.03065609186887741089e-02) (216, -1.03452764451503753662e-01) (217, 5.76336495578289031982e-02) (218, -1.91573314368724822998e-02) (219, 4.30066064000129699707e-02) (220, 1.12638175487518310547e-01) (221, 4.17344048619270324707e-02) (222, -5.43572381138801574707e-02) (223, 5.32461553812026977539e-02) (224, -7.88805484771728515625e-02) (225, -1.64648741483688354492e-02) (226, 1.00021928548812866211e-01) (227, 1.77101362496614456177e-02) (228, 1.25112712383270263672e-01) (229, -1.61932520568370819092e-02) (230, -5.00109195709228515625e-02) (231, -4.08525876700878143311e-02) (232, 1.19281083345413208008e-01) (233, -4.80682291090488433838e-02) (234, 5.01190237700939178467e-02) (235, 1.15503638982772827148e-01) (236, 3.78845483064651489258e-02) (237, 5.80666027963161468506e-02) (238, -3.44193018972873687744e-02) (239, -4.54567484557628631592e-02) (240, -4.17446158826351165771e-02) (241, 3.76113392412662506104e-02) (242, -4.30438630282878875732e-02) (243, -7.95406028628349304199e-02) (244, 3.15353795886039733887e-02) (245, 8.77733901143074035645e-02) (246, -1.05246610939502716064e-01) (247, -2.96777989715337753296e-02) (248, -3.59146520495414733887e-02) (249, -3.91449853777885437012e-02) (250, 7.11162015795707702637e-02) (251, 1.28686100244522094727e-01) (252, 2.29320805519819259644e-02) (253, 1.61097329109907150269e-02) (254, 1.50284960865974426270e-01) (255, -1.43026728183031082153e-02) (256, -1.26889199018478393555e-01) (257, 7.17745050787925720215e-02) (258, 1.07020353898406028748e-02) (259, -9.18712913990020751953e-02) (260, -8.22107866406440734863e-02) (261, 2.50168014317750930786e-02) (262, -1.49138182401657104492e-01) (263, -1.24058380722999572754e-01) (264, -4.34557348489761352539e-02) (265, 