FANN_FLO_2.1
num_layers=4
learning_rate=0.100000
connection_rate=1.000000
network_type=0
learning_momentum=0.800000
training_algorithm=0
train_error_function=1
train_stop_function=0
cascade_output_change_fraction=0.010000
quickprop_decay=-0.000100
quickprop_mu=1.750000
rprop_increase_factor=1.200000
rprop_decrease_factor=0.500000
rprop_delta_min=0.000000
rprop_delta_max=50.000000
rprop_delta_zero=0.100000
cascade_output_stagnation_epochs=12
cascade_candidate_change_fraction=0.010000
cascade_candidate_stagnation_epochs=12
cascade_max_out_epochs=150
cascade_min_out_epochs=10
cascade_max_cand_epochs=150
cascade_min_cand_epochs=10
cascade_num_candidate_groups=2
bit_fail_limit=3.49999994039535522461e-01
cascade_candidate_limit=1.00000000000000000000e+03
cascade_weight_multiplier=4.00000005960464477539e-01
cascade_activation_functions_count=10
cascade_activation_functions=3 5 7 8 10 11 14 15 16 17 
cascade_activation_steepnesses_count=4
cascade_activation_steepnesses=2.50000000000000000000e-01 5.00000000000000000000e-01 7.50000000000000000000e-01 1.00000000000000000000e+00 
layer_sizes=361 51 26 2 
scale_included=0
neurons (num_inputs, activation_function, activation_steepness)=(0, 0, 0.00000000000000000000e+00) (0, 0, 0.00000000000000000000e+00) (0, 0, 0.00000000000000000000e+00) (0, 0, 0.00000000000000000000e+00) (0, 0, 0.00000000000000000000e+00) (0, 0, 0.00000000000000000000e+00) (0, 0, 0.00000000000000000000e+00) (0, 0, 0.00000000000000000000e+00) (0, 0, 0.00000000000000000000e+00) (0, 0, 0.00000000000000000000e+00) (0, 0, 0.00000000000000000000e+00) (0, 0, 0.00000000000000000000e+00) (0, 0, 0.00000000000000000000e+00) (0, 0, 0.00000000000000000000e+00) (0, 0, 0.00000000000000000000e+00) (0, 0, 0.00000000000000000000e+00) (0, 0, 0.00000000000000000000e+00) (0, 0, 0.00000000000000000000e+00) (0, 0, 0.00000000000000000000e+00) (0, 0, 0.00000000000000000000e+00) (0, 0, 0.00000000000000000000e+00) (0, 0, 0.00000000000000000000e+00) (0, 0, 0.00000000000000000000e+00) (0, 0, 0.00000000000000000000e+00) (0, 0, 0.00000000000000000000e+00) (0, 0, 0.00000000000000000000e+00) (0, 0, 0.00000000000000000000e+00) (0, 0, 0.00000000000000000000e+00) (0, 0, 0.00000000000000000000e+00) (0, 0, 0.00000000000000000000e+00) (0, 0, 0.00000000000000000000e+00) (0, 0, 0.00000000000000000000e+00) (0, 0, 0.00000000000000000000e+00) (0, 0, 0.00000000000000000000e+00) (0, 0, 0.00000000000000000000e+00) (0, 0, 0.00000000000000000000e+00) (0, 0, 0.00000000000000000000e+00) (0, 0, 0.00000000000000000000e+00) (0, 0, 0.00000000000000000000e+00) (0, 0, 0.00000000000000000000e+00) (0, 0, 0.00000000000000000000e+00) (0, 0, 0.00000000000000000000e+00) (0, 0, 0.00000000000000000000e+00) (0, 0, 0.00000000000000000000e+00) (0, 0, 0.00000000000000000000e+00) (0, 0, 0.00000000000000000000e+00) (0, 0, 0.00000000000000000000e+00) (0, 0, 0.00000000000000000000e+00) (0, 0, 0.00000000000000000000e+00) (0, 0, 0.00000000000000000000e+00) (0, 0, 0.00000000000000000000e+00) (0, 0, 0.00000000000000000000e+00) (0, 0, 0.00000000000000000000e+00) (0, 0, 0.00000000000000000000e+00) (0, 0, 0.00000000000000000000e+00) (0, 0, 0.00000000000000000000e+00) (0, 0, 0.00000000000000000000e+00) (0, 0, 0.00000000000000000000e+00) (0, 0, 0.00000000000000000000e+00) (0, 0, 0.00000000000000000000e+00) (0, 0, 0.00000000000000000000e+00) (0, 0, 0.00000000000000000000e+00) (0, 0, 0.00000000000000000000e+00) (0, 0, 0.00000000000000000000e+00) (0, 0, 0.00000000000000000000e+00) (0, 0, 0.00000000000000000000e+00) (0, 0, 0.00000000000000000000e+00) (0, 0, 0.00000000000000000000e+00) (0, 0, 0.00000000000000000000e+00) (0, 0, 0.00000000000000000000e+00) (0, 0, 0.00000000000000000000e+00) (0, 0, 0.00000000000000000000e+00) (0, 0, 0.00000000000000000000e+00) (0, 0, 0.00000000000000000000e+00) (0, 0, 0.00000000000000000000e+00) (0, 0, 0.00000000000000000000e+00) (0, 0, 0.00000000000000000000e+00) (0, 0, 0.00000000000000000000e+00) (0, 0, 0.00000000000000000000e+00) (0, 0, 0.00000000000000000000e+00) (0, 0, 0.00000000000000000000e+00) (0, 0, 0.00000000000000000000e+00) (0, 0, 0.00000000000000000000e+00) (0, 0, 0.00000000000000000000e+00) (0, 0, 0.00000000000000000000e+00) (0, 0, 0.00000000000000000000e+00) (0, 0, 0.00000000000000000000e+00) (0, 0, 0.00000000000000000000e+00) (0, 0, 0.00000000000000000000e+00) (0, 0, 0.00000000000000000000e+00) (0, 0, 0.00000000000000000000e+00) (0, 0, 0.00000000000000000000e+00) (0, 0, 0.00000000000000000000e+00) (0, 0, 0.00000000000000000000e+00) (0, 0, 0.00000000000000000000e+00) (0, 0, 0.00000000000000000000e+00) (0, 0, 0.00000000000000000000e+00) (0, 0, 0.00000000000000000000e+00) (0, 0, 0.00000000000000000000e+00) (0, 0, 0.00000000000000000000e+00) (0, 0, 0.00000000000000000000e+00) (0, 0, 0.00000000000000000000e+00) (0, 0, 0.00000000000000000000e+00) (0, 0, 0.00000000000000000000e+00) (0, 0, 0.00000000000000000000e+00) (0, 0, 0.00000000000000000000e+00) (0, 0, 0.00000000000000000000e+00) (0, 0, 0.00000000000000000000e+00) (0, 0, 0.00000000000000000000e+00) (0, 0, 0.00000000000000000000e+00) (0, 0, 0.00000000000000000000e+00) (0, 0, 0.00000000000000000000e+00) (0, 0, 0.00000000000000000000e+00) (0, 0, 0.00000000000000000000e+00) (0, 0, 0.00000000000000000000e+00) (0, 0, 0.00000000000000000000e+00) (0, 0, 0.00000000000000000000e+00) (0, 0, 0.00000000000000000000e+00) (0, 0, 0.00000000000000000000e+00) (0, 0, 0.00000000000000000000e+00) (0, 0, 0.00000000000000000000e+00) (0, 0, 0.00000000000000000000e+00) (0, 0, 0.00000000000000000000e+00) (0, 0, 0.00000000000000000000e+00) (0, 0, 0.00000000000000000000e+00) (0, 0, 0.00000000000000000000e+00) (0, 0, 0.00000000000000000000e+00) (0, 0, 0.00000000000000000000e+00) (0, 0, 0.00000000000000000000e+00) (0, 0, 0.00000000000000000000e+00) (0, 0, 0.00000000000000000000e+00) (0, 0, 0.00000000000000000000e+00) (0, 0, 0.00000000000000000000e+00) (0, 0, 0.00000000000000000000e+00) (0, 0, 0.00000000000000000000e+00) (0, 0, 0.00000000000000000000e+00) (0, 0, 0.00000000000000000000e+00) (0, 0, 0.00000000000000000000e+00) (0, 0, 0.00000000000000000000e+00) (0, 0, 0.00000000000000000000e+00) (0, 0, 0.00000000000000000000e+00) (0, 0, 0.00000000000000000000e+00) (0, 0, 0.00000000000000000000e+00) (0, 0, 0.00000000000000000000e+00) (0, 0, 0.00000000000000000000e+00) (0, 0, 0.00000000000000000000e+00) (0, 0, 0.00000000000000000000e+00) (0, 0, 0.00000000000000000000e+00) (0, 0, 0.00000000000000000000e+00) (0, 0, 0.00000000000000000000e+00) (0, 0, 0.00000000000000000000e+00) (0, 0, 0.00000000000000000000e+00) (0, 0, 0.00000000000000000000e+00) (0, 0, 0.00000000000000000000e+00) (0, 0, 0.00000000000000000000e+00) (0, 0, 0.00000000000000000000e+00) (0, 0, 0.00000000000000000000e+00) (0, 0, 0.00000000000000000000e+00) (0, 0, 0.00000000000000000000e+00) (0, 0, 0.00000000000000000000e+00) (0, 0, 0.00000000000000000000e+00) (0, 0, 0.00000000000000000000e+00) (0, 0, 0.00000000000000000000e+00) (0, 0, 0.00000000000000000000e+00) (0, 0, 0.00000000000000000000e+00) (0, 0, 0.00000000000000000000e+00) (0, 0, 0.00000000000000000000e+00) (0, 0, 0.00000000000000000000e+00) (0, 0, 0.00000000000000000000e+00) (0, 0, 0.00000000000000000000e+00) (0, 0, 0.00000000000000000000e+00) (0, 0, 0.00000000000000000000e+00) (0, 0, 0.00000000000000000000e+00) (0, 0, 0.00000000000000000000e+00) (0, 0, 0.00000000000000000000e+00) (0, 0, 0.00000000000000000000e+00) (0, 0, 0.00000000000000000000e+00) (0, 0, 0.00000000000000000000e+00) (0, 0, 0.00000000000000000000e+00) (0, 0, 0.00000000000000000000e+00) (0, 0, 0.00000000000000000000e+00) (0, 0, 0.00000000000000000000e+00) (0, 0, 0.00000000000000000000e+00) (0, 0, 0.00000000000000000000e+00) (0, 0, 0.00000000000000000000e+00) (0, 0, 0.00000000000000000000e+00) (0, 0, 0.00000000000000000000e+00) (0, 0, 0.00000000000000000000e+00) (0, 0, 0.00000000000000000000e+00) (0, 0, 0.00000000000000000000e+00) (0, 0, 0.00000000000000000000e+00) (0, 0, 0.00000000000000000000e+00) (0, 0, 0.00000000000000000000e+00) (0, 0, 0.00000000000000000000e+00) (0, 0, 0.00000000000000000000e+00) (0, 0, 0.00000000000000000000e+00) (0, 0, 0.00000000000000000000e+00) (0, 0, 0.00000000000000000000e+00) (0, 0, 0.00000000000000000000e+00) (0, 0, 0.00000000000000000000e+00) (0, 0, 0.00000000000000000000e+00) (0, 0, 0.00000000000000000000e+00) (0, 0, 0.00000000000000000000e+00) (0, 0, 0.00000000000000000000e+00) (0, 0, 0.00000000000000000000e+00) (0, 0, 0.00000000000000000000e+00) (0, 0, 0.00000000000000000000e+00) (0, 0, 0.00000000000000000000e+00) (0, 0, 0.00000000000000000000e+00) (0, 0, 0.00000000000000000000e+00) (0, 0, 0.00000000000000000000e+00) (0, 0, 0.00000000000000000000e+00) (0, 0, 0.00000000000000000000e+00) (0, 0, 0.00000000000000000000e+00) (0, 0, 0.00000000000000000000e+00) (0, 0, 0.00000000000000000000e+00) (0, 0, 0.00000000000000000000e+00) (0, 0, 0.00000000000000000000e+00) (0, 0, 0.00000000000000000000e+00) (0, 0, 0.00000000000000000000e+00) (0, 0, 0.00000000000000000000e+00) (0, 0, 0.00000000000000000000e+00) (0, 0, 0.00000000000000000000e+00) (0, 0, 0.00000000000000000000e+00) (0, 0, 0.00000000000000000000e+00) (0, 0, 0.00000000000000000000e+00) (0, 0, 0.00000000000000000000e+00) (0, 0, 0.00000000000000000000e+00) (0, 0, 0.00000000000000000000e+00) (0, 0, 0.00000000000000000000e+00) (0, 0, 0.00000000000000000000e+00) (0, 0, 0.00000000000000000000e+00) (0, 0, 0.00000000000000000000e+00) (0, 0, 0.00000000000000000000e+00) (0, 0, 0.00000000000000000000e+00) (0, 0, 0.00000000000000000000e+00) (0, 0, 0.00000000000000000000e+00) (0, 0, 0.00000000000000000000e+00) (0, 0, 0.00000000000000000000e+00) (0, 0, 0.00000000000000000000e+00) (0, 0, 0.00000000000000000000e+00) (0, 0, 0.00000000000000000000e+00) (0, 0, 0.00000000000000000000e+00) (0, 0, 0.00000000000000000000e+00) (0, 0, 0.00000000000000000000e+00) (0, 0, 0.00000000000000000000e+00) (0, 0, 0.00000000000000000000e+00) (0, 0, 0.00000000000000000000e+00) (0, 0, 0.00000000000000000000e+00) (0, 0, 0.00000000000000000000e+00) (0, 0, 0.00000000000000000000e+00) (0, 0, 0.00000000000000000000e+00) (0, 0, 0.00000000000000000000e+00) (0, 0, 0.00000000000000000000e+00) (0, 0, 0.00000000000000000000e+00) (0, 0, 0.00000000000000000000e+00) (0, 0, 0.00000000000000000000e+00) (0, 0, 0.00000000000000000000e+00) (0, 0, 0.00000000000000000000e+00) (0, 0, 0.00000000000000000000e+00) (0, 0, 0.00000000000000000000e+00) (0, 0, 0.00000000000000000000e+00) (0, 0, 0.00000000000000000000e+00) (0, 0, 0.00000000000000000000e+00) (0, 0, 0.00000000000000000000e+00) (0, 0, 0.00000000000000000000e+00) (0, 0, 0.00000000000000000000e+00) (0, 0, 0.00000000000000000000e+00) (0, 0, 0.00000000000000000000e+00) (0, 0, 0.00000000000000000000e+00) (0, 0, 0.00000000000000000000e+00) (0, 0, 0.00000000000000000000e+00) (0, 0, 0.00000000000000000000e+00) (0, 0, 0.00000000000000000000e+00) (0, 0, 0.00000000000000000000e+00) (0, 0, 0.00000000000000000000e+00) (0, 0, 0.00000000000000000000e+00) (0, 0, 0.00000000000000000000e+00) (0, 0, 0.00000000000000000000e+00) (0, 0, 0.00000000000000000000e+00) (0, 0, 0.00000000000000000000e+00) (0, 0, 0.00000000000000000000e+00) (0, 0, 0.00000000000000000000e+00) (0, 0, 0.00000000000000000000e+00) (0, 0, 0.00000000000000000000e+00) (0, 0, 0.00000000000000000000e+00) (0, 0, 0.00000000000000000000e+00) (0, 0, 0.00000000000000000000e+00) (0, 0, 0.00000000000000000000e+00) (0, 0, 0.00000000000000000000e+00) (0, 0, 0.00000000000000000000e+00) (0, 0, 0.00000000000000000000e+00) (0, 0, 0.00000000000000000000e+00) (0, 0, 0.00000000000000000000e+00) (0, 0, 0.00000000000000000000e+00) (0, 0, 0.00000000000000000000e+00) (0, 0, 0.00000000000000000000e+00) (0, 0, 0.00000000000000000000e+00) (0, 0, 0.00000000000000000000e+00) (0, 0, 0.00000000000000000000e+00) (0, 0, 0.00000000000000000000e+00) (0, 0, 0.00000000000000000000e+00) (0, 0, 0.00000000000000000000e+00) (0, 0, 0.00000000000000000000e+00) (0, 0, 0.00000000000000000000e+00) (0, 0, 0.00000000000000000000e+00) (0, 0, 0.00000000000000000000e+00) (0, 0, 0.00000000000000000000e+00) (0, 0, 0.00000000000000000000e+00) (0, 0, 0.00000000000000000000e+00) (0, 0, 0.00000000000000000000e+00) (0, 0, 0.00000000000000000000e+00) (0, 0, 0.00000000000000000000e+00) (0, 0, 0.00000000000000000000e+00) (0, 0, 0.00000000000000000000e+00) (0, 0, 0.00000000000000000000e+00) (0, 0, 0.00000000000000000000e+00) (0, 0, 0.00000000000000000000e+00) (0, 0, 0.00000000000000000000e+00) (0, 0, 0.00000000000000000000e+00) (0, 0, 0.00000000000000000000e+00) (0, 0, 0.00000000000000000000e+00) (0, 0, 0.00000000000000000000e+00) (0, 0, 0.00000000000000000000e+00) (0, 0, 0.00000000000000000000e+00) (0, 0, 0.00000000000000000000e+00) (0, 0, 0.00000000000000000000e+00) (0, 0, 0.00000000000000000000e+00) (0, 0, 0.00000000000000000000e+00) (0, 0, 0.00000000000000000000e+00) (0, 0, 0.00000000000000000000e+00) (0, 0, 0.00000000000000000000e+00) (0, 0, 0.00000000000000000000e+00) (0, 0, 0.00000000000000000000e+00) (0, 0, 0.00000000000000000000e+00) (0, 0, 0.00000000000000000000e+00) (0, 0, 0.00000000000000000000e+00) (0, 0, 0.00000000000000000000e+00) (0, 0, 0.00000000000000000000e+00) (0, 0, 0.00000000000000000000e+00) (0, 0, 0.00000000000000000000e+00) (0, 0, 0.00000000000000000000e+00) (0, 0, 0.00000000000000000000e+00) (0, 0, 0.00000000000000000000e+00) (0, 0, 0.00000000000000000000e+00) (0, 0, 0.00000000000000000000e+00) (0, 0, 0.00000000000000000000e+00) (0, 0, 0.00000000000000000000e+00) (0, 0, 0.00000000000000000000e+00) (0, 0, 0.00000000000000000000e+00) (0, 0, 0.00000000000000000000e+00) (0, 0, 0.00000000000000000000e+00) (0, 0, 0.00000000000000000000e+00) (0, 0, 0.00000000000000000000e+00) (0, 0, 0.00000000000000000000e+00) (0, 0, 0.00000000000000000000e+00) (0, 0, 0.00000000000000000000e+00) (0, 0, 0.00000000000000000000e+00) (0, 0, 0.00000000000000000000e+00) (0, 0, 0.00000000000000000000e+00) (0, 0, 0.00000000000000000000e+00) (361, 10, 5.00000000000000000000e-01) (361, 10, 5.00000000000000000000e-01) (361, 10, 5.00000000000000000000e-01) (361, 10, 5.00000000000000000000e-01) (361, 10, 5.00000000000000000000e-01) (361, 10, 5.00000000000000000000e-01) (361, 10, 5.00000000000000000000e-01) (361, 10, 5.00000000000000000000e-01) (361, 10, 5.00000000000000000000e-01) (361, 10, 5.00000000000000000000e-01) (361, 10, 5.00000000000000000000e-01) (361, 10, 5.00000000000000000000e-01) (361, 10, 5.00000000000000000000e-01) (361, 10, 5.00000000000000000000e-01) (361, 10, 5.00000000000000000000e-01) (361, 10, 5.00000000000000000000e-01) (361, 10, 5.00000000000000000000e-01) (361, 10, 5.00000000000000000000e-01) (361, 10, 5.00000000000000000000e-01) (361, 10, 5.00000000000000000000e-01) (361, 10, 5.00000000000000000000e-01) (361, 10, 5.00000000000000000000e-01) (361, 10, 5.00000000000000000000e-01) (361, 10, 5.00000000000000000000e-01) (361, 10, 5.00000000000000000000e-01) (361, 10, 5.00000000000000000000e-01) (361, 10, 5.00000000000000000000e-01) (361, 10, 5.00000000000000000000e-01) (361, 10, 5.00000000000000000000e-01) (361, 10, 5.00000000000000000000e-01) (361, 10, 5.00000000000000000000e-01) (361, 10, 5.00000000000000000000e-01) (361, 10, 5.00000000000000000000e-01) (361, 10, 5.00000000000000000000e-01) (361, 10, 5.00000000000000000000e-01) (361, 10, 5.00000000000000000000e-01) (361, 10, 5.00000000000000000000e-01) (361, 10, 5.00000000000000000000e-01) (361, 10, 5.00000000000000000000e-01) (361, 10, 5.00000000000000000000e-01) (361, 10, 5.00000000000000000000e-01) (361, 10, 5.00000000000000000000e-01) (361, 10, 5.00000000000000000000e-01) (361, 10, 5.00000000000000000000e-01) (361, 10, 5.00000000000000000000e-01) (361, 10, 5.00000000000000000000e-01) (361, 10, 5.00000000000000000000e-01) (361, 10, 5.00000000000000000000e-01) (361, 10, 5.00000000000000000000e-01) (361, 10, 5.00000000000000000000e-01) (0, 10, 0.00000000000000000000e+00) (51, 10, 5.00000000000000000000e-01) (51, 10, 5.00000000000000000000e-01) (51, 10, 5.00000000000000000000e-01) (51, 10, 5.00000000000000000000e-01) (51, 10, 5.00000000000000000000e-01) (51, 10, 5.00000000000000000000e-01) (51, 10, 5.00000000000000000000e-01) (51, 10, 5.00000000000000000000e-01) (51, 10, 5.00000000000000000000e-01) (51, 10, 5.00000000000000000000e-01) (51, 10, 5.00000000000000000000e-01) (51, 10, 5.00000000000000000000e-01) (51, 10, 5.00000000000000000000e-01) (51, 10, 5.00000000000000000000e-01) (51, 10, 5.00000000000000000000e-01) (51, 10, 5.00000000000000000000e-01) (51, 10, 5.00000000000000000000e-01) (51, 10, 5.00000000000000000000e-01) (51, 10, 5.00000000000000000000e-01) (51, 10, 5.00000000000000000000e-01) (51, 10, 5.00000000000000000000e-01) (51, 10, 5.00000000000000000000e-01) (51, 10, 5.00000000000000000000e-01) (51, 10, 5.00000000000000000000e-01) (51, 10, 5.00000000000000000000e-01) (0, 10, 0.00000000000000000000e+00) (26, 0, 5.00000000000000000000e-01) (0, 0, 0.00000000000000000000e+00) 
connections (connected_to_neuron, weight)=(0, 5.41831105947494506836e-02) (1, -1.01622194051742553711e-01) (2, -6.66965842247009277344e-02) (3, -4.59930114448070526123e-02) (4, 7.73760899901390075684e-02) (5, -3.44005487859249114990e-02) (6, 3.89330610632896423340e-02) (7, -1.93269208073616027832e-01) (8, 1.28954220563173294067e-02) (9, 4.74314242601394653320e-02) (10, -2.15228766202926635742e-01) (11, -9.47099402546882629395e-02) (12, -1.43495649099349975586e-01) (13, -9.73253771662712097168e-02) (14, -9.16909147053956985474e-03) (15, 1.92425735294818878174e-02) (16, -7.99686741083860397339e-03) (17, -3.21146249771118164062e-02) (18, -3.96713726222515106201e-02) (19, -4.92390431463718414307e-02) (20, 1.54332928359508514404e-02) (21, -1.18688024580478668213e-01) (22, 1.81207656860351562500e-02) (23, -3.24805229902267456055e-02) (24, 4.91317883133888244629e-02) (25, -2.79295537620782852173e-02) (26, -3.17570865154266357422e-02) (27, -1.37984454631805419922e-02) (28, -8.82691890001296997070e-02) (29, 7.79468789696693420410e-02) (30, 1.28072068095207214355e-01) (31, 6.91173179075121879578e-03) (32, -1.49481082335114479065e-02) (33, -4.63937558233737945557e-02) (34, -4.69948574900627136230e-02) (35, 1.40857368707656860352e-01) (36, 5.39084859192371368408e-02) (37, -2.33260728418827056885e-02) (38, 2.04763367772102355957e-01) (39, -8.36021602153778076172e-02) (40, -1.02268271148204803467e-01) (41, 1.55286341905593872070e-01) (42, 9.69987511634826660156e-02) (43, 8.57667997479438781738e-02) (44, -1.77828278392553329468e-02) (45, -4.33725044131278991699e-02) (46, -3.73244285583496093750e-02) (47, 3.98512482643127441406e-02) (48, 8.06920602917671203613e-02) (49, 1.15046929568052291870e-02) (50, -5.74284903705120086670e-02) (51, 8.71988460421562194824e-02) (52, -3.22366207838058471680e-02) (53, 1.26931175589561462402e-01) (54, 1.20495811104774475098e-01) (55, -7.89338797330856323242e-02) (56, 6.49335086345672607422e-02) (57, 1.10207227990031242371e-02) (58, -5.44020980596542358398e-02) (59, 1.34615376591682434082e-01) (60, 6.57062837854027748108e-03) (61, -8.82209613919258117676e-02) (62, 1.09682142734527587891e-01) (63, 8.65607038140296936035e-02) (64, -1.34812623262405395508e-01) (65, 1.61079745739698410034e-02) (66, -2.84741371870040893555e-02) (67, -1.33612349629402160645e-01) (68, 7.40470886230468750000e-02) (69, -5.90984709560871124268e-02) (70, 2.84531340003013610840e-02) (71, 1.27786219120025634766e-01) (72, -1.35390907526016235352e-01) (73, -9.72013697028160095215e-02) (74, -1.60912349820137023926e-02) (75, -1.42750725150108337402e-01) (76, 6.00698888301849365234e-02) (77, 3.38136591017246246338e-02) (78, 3.90612557530403137207e-02) (79, -6.25118017196655273438e-02) (80, -7.34554678201675415039e-02) (81, -3.88635285198688507080e-02) (82, -1.33326957002282142639e-02) (83, 6.76923478022217750549e-03) (84, 9.06364917755126953125e-02) (85, -2.17737667262554168701e-02) (86, 6.98348507285118103027e-02) (87, 9.60477069020271301270e-02) (88, -1.37635245919227600098e-01) (89, -3.70678864419460296631e-02) (90, 4.72654253244400024414e-02) (91, 7.90588259696960449219e-02) (92, 3.66713572293519973755e-03) (93, 1.61532148718833923340e-01) (94, 1.01286642253398895264e-01) (95, 1.36493146419525146484e-01) (96, -1.16990193724632263184e-01) (97, 1.03780604898929595947e-01) (98, -1.09570667147636413574e-01) (99, 1.20242964476346969604e-02) (100, -1.69251803308725357056e-02) (101, -1.59498840570449829102e-01) (102, -1.28249041736125946045e-02) (103, -5.23793101310729980469e-02) (104, -5.01576289534568786621e-02) (105, -1.83350920677185058594e-01) (106, -1.55236974358558654785e-01) (107, 5.35659603774547576904e-02) (108, 6.10462725162506103516e-02) (109, -7.18489289283752441406e-02) (110, 6.90709874033927917480e-02) (111, -1.09948918223381042480e-01) (112, -1.04147404432296752930e-01) (113, -2.48108021914958953857e-02) (114, -4.14084568619728088379e-02) (115, -2.91651990264654159546e-02) (116, -1.35075836442410945892e-03) (117, -6.91114366054534912109e-02) (118, -7.73567408323287963867e-02) (119, 9.84728708863258361816e-03) (120, -3.55672575533390045166e-02) (121, 2.08256885409355163574e-01) (122, -6.89850896596908569336e-02) (123, -5.18804416060447692871e-02) (124, 8.34253430366516113281e-02) (125, -1.43112868070602416992e-01) (126, -5.81623055040836334229e-02) (127, 6.12846314907073974609e-02) (128, -1.55580475926399230957e-01) (129, -7.48150125145912170410e-02) (130, -7.97454791609197854996e-04) (131, -1.27134084701538085938e-01) (132, -1.55664235353469848633e-01) (133, -8.43598321080207824707e-02) (134, -1.32187694311141967773e-01) (135, -9.54866185784339904785e-02) (136, -5.26039786636829376221e-02) (137, -6.98809325695037841797e-02) (138, -5.44869154691696166992e-02) (139, -1.37291386723518371582e-01) (140, -9.37864705920219421387e-02) (141, -6.59769997000694274902e-02) (142, -1.30153805017471313477e-01) (143, -5.99243938922882080078e-02) (144, 7.09193721413612365723e-02) (145, -5.10331578552722930908e-02) (146, -5.23351393640041351318e-02) (147, -4.90672420710325241089e-03) (148, -5.92478625476360321045e-02) (149, -5.73184639215469360352e-02) (150, 6.18805028498172760010e-02) (151, 1.76038071513175964355e-01) (152, -4.42343838512897491455e-02) (153, 8.75788554549217224121e-02) (154, 2.22797356545925140381e-02) (155, 1.39095082879066467285e-01) (156, 7.11614117026329040527e-02) (157, 5.37818968296051025391e-02) (158, -7.10984691977500915527e-03) (159, 6.53328076004981994629e-02) (160, 1.73699036240577697754e-01) (161, -1.45109519362449645996e-01) (162, 1.14535458385944366455e-01) (163, 1.14544704556465148926e-02) (164, -8.26209858059883117676e-02) (165, -2.04869806766510009766e-02) (166, 1.62564709782600402832e-01) (167, 1.59953050315380096436e-02) (168, -3.20727787911891937256e-02) (169, 3.00902668386697769165e-02) (170, 8.61978828907012939453e-02) (171, -1.04180924594402313232e-01) (172, -9.58524346351623535156e-02) (173, 8.73801857233047485352e-02) (174, -3.54682020843029022217e-02) (175, 4.86181937158107757568e-02) (176, 4.15483191609382629395e-02) (177, -9.76401045918464660645e-02) (178, 9.67343002557754516602e-02) (179, -1.92102808505296707153e-02) (180, 4.43511195480823516846e-02) (181, 1.53211414813995361328e-01) (182, 4.11118380725383758545e-02) (183, 1.62579238414764404297e-01) (184, 1.30594238638877868652e-01) (185, -1.18511039763689041138e-02) (186, 1.38177797198295593262e-01) (187, -1.59625541418790817261e-02) (188, -8.60788747668266296387e-02) (189, 1.06163837015628814697e-01) (190, 1.51542633771896362305e-01) (191, 9.37874466180801391602e-02) (192, 1.92127853631973266602e-01) (193, 8.63436013460159301758e-02) (194, -3.09985075145959854126e-02) (195, 3.62963117659091949463e-02) (196, 7.02602788805961608887e-02) (197, 1.28657490015029907227e-01) (198, 1.19797796010971069336e-01) (199, -4.93259876966476440430e-02) (200, 7.29623362421989440918e-02) (201, -4.12460193037986755371e-02) (202, -2.54303645342588424683e-02) (203, 3.11604756861925125122e-02) (204, -4.73687499761581420898e-02) (205, 1.65986403822898864746e-01) (206, -6.82000592350959777832e-02) (207, -1.45977251231670379639e-02) (208, -9.62166041135787963867e-02) (209, -1.38398855924606323242e-01) (210, 1.85972586274147033691e-01) (211, 9.37334150075912475586e-02) (212, -2.66886409372091293335e-02) (213, 8.94378498196601867676e-02) (214, 2.88534294813871383667e-02) (215, -4.69621568918228149414e-02) (216, -3.42688709497451782227e-02) (217, 1.06731243431568145752e-01) (218, 2.83526629209518432617e-02) (219, 1.00852020084857940674e-01) (220, 2.34661638736724853516e-01) (221, 1.08364010229706764221e-02) (222, 6.62682652473449707031e-02) (223, 1.50115355849266052246e-01) (224, -4.44980785250663757324e-02) (225, 1.02910384535789489746e-01) (226, -6.69742759782820940018e-04) (227, -1.09830617904663085938e-01) (228, 8.54705423116683959961e-02) (229, -3.69001552462577819824e-02) (230, -4.85527962446212768555e-02) (231, -3.85447219014167785645e-02) (232, 1.03716932237148284912e-01) (233, -1.83191359974443912506e-03) (234, 8.56128931045532226562e-02) (235, 1.53130769729614257812e-01) (236, 1.55802853405475616455e-02) (237, -1.37877371162176132202e-02) (238, 3.86916659772396087646e-02) (239, 1.00618124008178710938e-01) (240, 2.46050138957798480988e-03) (241, 3.63521054387092590332e-02) (242, 5.79977780580520629883e-02) (243, 1.94245297461748123169e-02) (244, 6.52231127023696899414e-02) (245, -6.12748898565769195557e-02) (246, 1.52156678959727287292e-02) (247, 7.92862623929977416992e-02) (248, 3.67192663252353668213e-02) (249, -4.81400825083255767822e-02) (250, -3.85187566280364990234e-02) (251, 4.28043380379676818848e-02) (252, 1.46776984911412000656e-03) (253, 1.07582211494445800781e-02) (254, 1.69069580733776092529e-02) (255, 2.55488062975928187370e-04) (256, -4.28315512835979461670e-02) (257, -5.09876087307929992676e-02) (258, 9.85187366604804992676e-02) (259, 1.12433187663555145264e-01) (260, -1.02547660470008850098e-01) (261, -6.46296367049217224121e-02) (262, 2.95740123838186264038e-02) (263, -2.10228264331817626953e-01) (264, 1.08884364366531372070e-01) (265, 2.24801853299140930176e-01) (266, -1.02920539677143096924e-01) (267, 1.04469396173954010010e-01) (268, 2.11225211620330810547e-01) (269, -1.38168960809707641602e-01) (270, 4.41914983093738555908e-02) (271, 1.19893550872802734375e-01) (272, -6.33438006043434143066e-02) (273, -6.61185532808303833008e-02) (274, 1.15648478269577026367e-01) (275, 1.18520371615886688232e-02) (276, 2.54568792879581451416e-02) (277, 1.18477672338485717773e-01) (278, -2.49095950275659561157e-02) (279, -7.61967375874519348145e-02) (280, 2.98874408006668090820e-01) (281, 1.31263742223381996155e-02) (282, -6.34816195815801620483e-03) (283, 1.66687175631523132324e-01) (284, -2.66969148069620132446e-02) (285, -1.49765923619270324707e-01) (286, 2.02243268489837646484e-01) (287, -1.26897290349006652832e-01) (288, -3.52195836603641510010e-02) (289, 1.52961313724517822266e-01) (290, -9.31558459997177124023e-02) (291, 4.78913560509681701660e-02) (292, -9.74321812391281127930e-02) (293, -7.90833607316017150879e-02) (294, 1.91228419542312622070e-01) (295, 1.68004687875509262085e-02) (296, -2.20496639609336853027e-01) (297, 1.15377090871334075928e-01) (298, 1.37025088071823120117e-01) (299, -1.07991583645343780518e-01) (300, 6.89099496230483055115e-03) (301, 2.83367782831192016602e-01) (302, -3.40795546770095825195e-01) (303, 1.53598666191101074219e-01) (304, 3.54214757680892944336e-01) (305, -2.70958989858627319336e-01) (306, 8.67952182888984680176e-02) (307, 2.62502670288085937500e-01) (308, -3.11474680900573730469e-01) (309, 4.27082851529121398926e-02) (310, 3.63549500703811645508e-01) (311, -2.91014939546585083008e-01) (312, -8.18397477269172668457e-02) (313, 2.68365383148193359375e-01) (314, -1.39982908964157104492e-01) (315, -2.95806258916854858398e-01) (316, 5.93929052352905273438e-01) (317, -1.01701669394969940186e-01) (318, -2.45376557111740112305e-01) (319, 1.79637312889099121094e-01) (320, -1.12667001783847808838e-01) (321, -3.16106945276260375977e-01) (322, 7.55627378821372985840e-02) (323, -1.38554438948631286621e-01) (324, 3.67462635040283203125e-02) (325, 9.16030779480934143066e-02) (326, -2.12439835071563720703e-01) (327, 4.92880046367645263672e-02) (328, 3.75438714399933815002e-04) (329, -3.94809216260910034180e-01) (330, 2.46410906314849853516e-01) (331, 2.44415432214736938477e-01) (332, -4.87647682428359985352e-01) (333, 3.96832138299942016602e-01) (334, 2.15481713414192199707e-01) (335, -6.27341985702514648438e-01) (336, 1.43551439046859741211e-01) (337, 1.71316638588905334473e-01) (338, -6.50021076202392578125e-01) (339, 1.41068443655967712402e-01) (340, 1.86146661639213562012e-01) (341, -6.25560700893402099609e-01) (342, -1.71522542834281921387e-01) (343, 6.36576935648918151855e-02) (344, -4.50168728828430175781e-01) (345, -4.70308005809783935547e-01) (346, -3.31004858016967773438e-02) (347, -1.93908020853996276855e-01) (348, -6.10587060451507568359e-01) (349, 5.45730777084827423096e-02) (350, -1.29021897912025451660e-01) (351, -4.64741647243499755859e-01) (352, 1.28614097833633422852e-01) (353, -3.54989439249038696289e-01) (354, -2.18747168779373168945e-01) (355, 1.10194794833660125732e-01) (356, -1.07431256771087646484e+00) (357, 3.86023104190826416016e-01) (358, -4.81348708271980285645e-02) (359, -2.30148506164550781250e+00) (360, 9.49812531471252441406e-02) (0, 3.82491797208786010742e-02) (1, 7.44295120239257812500e-02) (2, 1.59435302019119262695e-01) (3, 9.55489054322242736816e-02) (4, 5.30229546129703521729e-02) (5, -3.08018662035465240479e-02) (6, 1.36978566646575927734e-01) (7, 1.55613254755735397339e-02) (8, -1.54501777142286300659e-02) (9, 9.75930020213127136230e-02) (10, -1.85571331530809402466e-02) (11, -2.75217834860086441040e-02) (12, -2.03322127461433410645e-01) (13, 9.52349156141281127930e-02) (14, 6.62894025444984436035e-02) (15, 6.66819838806986808777e-03) (16, -3.47402202896773815155e-03) (17, -2.53252368420362472534e-02) (18, -9.67330411076545715332e-02) (19, -4.27563227713108062744e-02) (20, -2.23053880035877227783e-02) (21, -5.58529421687126159668e-02) (22, -6.63694515824317932129e-02) (23, 1.20936170220375061035e-01) (24, -8.28723311424255371094e-02) (25, -9.32072699069976806641e-02) (26, 8.56257230043411254883e-02) (27, 3.34111489355564117432e-02) (28, 4.95492070913314819336e-02) (29, 2.29488626122474670410e-01) (30, 3.80550064146518707275e-02) (31, 2.28146225214004516602e-01) (32, 2.00346976518630981445e-01) (33, 2.68412176519632339478e-02) (34, -1.23838149011135101318e-02) (35, 1.02313742041587829590e-01) (36, 1.12376950681209564209e-01) (37, 4.87980432808399200439e-02) (38, 6.97873309254646301270e-02) (39, -1.19796037673950195312e-01) (40, -1.14898078143596649170e-01) (41, 1.52917295694351196289e-01) (42, 4.74114045500755310059e-02) (43, -1.12896179780364036560e-03) (44, 1.15993082523345947266e-01) (45, 1.30973428487777709961e-01) (46, -1.42775580286979675293e-01) (47, -5.57466596364974975586e-02) (48, 1.75286814570426940918e-01) (49, 8.09323266148567199707e-02) (50, 1.68577544391155242920e-02) (51, 7.58942961692810058594e-02) (52, 1.36062810197472572327e-02) (53, 9.55372676253318786621e-02) (54, 6.41705701127648353577e-03) (55, 1.51489540934562683105e-01) (56, 9.94222462177276611328e-02) (57, 1.47369071841239929199e-01) (58, 6.59801810979843139648e-02) (59, 2.21937000751495361328e-01) (60, -2.92196683585643768311e-02) (61, -5.52645809948444366455e-02) (62, 2.35189646482467651367e-01) (63, 3.58923412859439849854e-02) (64, 1.28036001697182655334e-02) (65, 6.17525801062583923340e-02) (66, -1.34352415800094604492e-01) (67, -4.18894328176975250244e-02) (68, -4.38283048570156097412e-02) (69, -4.11567762494087219238e-02) (70, 1.03954389691352844238e-01) (71, 7.10006281733512878418e-02) (72, -1.18564710021018981934e-01) (73, -1.20272345840930938721e-01) (74, -9.85568985342979431152e-02) (75, 9.62946657091379165649e-03) (76, 2.33456809073686599731e-02) (77, -1.21751323342323303223e-01) (78, 1.01378053426742553711e-01) (79, -7.74207338690757751465e-02) (80, 5.22208288311958312988e-02) (81, 5.38050048053264617920e-02) (82, -3.87985445559024810791e-02) (83, -1.00037857890129089355e-01) (84, 8.27895104885101318359e-02) (85, 1.40499055385589599609e-01) (86, 8.76314193010330200195e-02) (87, 4.59632463753223419189e-02) (88, -1.79881174117326736450e-02) (89, -4.11461293697357177734e-03) (90, 6.34539173915982246399e-03) (91, 1.09106585383415222168e-01) (92, -1.76516138017177581787e-02) (93, 1.13372821360826492310e-02) (94, 3.05038131773471832275e-02) (95, 1.59515678882598876953e-01) (96, -8.11932086944580078125e-02) (97, -2.61747408658266067505e-02) (98, -5.87126589380204677582e-04) (99, -3.42432893812656402588e-02) (100, 4.28157225251197814941e-02) (101, -3.30520272254943847656e-02) (102, -1.29414260387420654297e-01) (103, 1.45555697381496429443e-02) (104, 2.60229147970676422119e-02) (105, -1.62664830684661865234e-01) (106, -2.32914239168167114258e-01) (107, 6.94868788123130798340e-02) (108, -3.69954183697700500488e-02) (109, -9.25328359007835388184e-02) (110, -4.20803651213645935059e-02) (111, -5.27906864881515502930e-02) (112, -2.75694355368614196777e-02) (113, -4.35173092409968376160e-03) (114, -1.03566296398639678955e-01) (115, 3.07315830141305923462e-02) (116, 9.63176414370536804199e-02) (117, -1.35836482048034667969e-01) (118, -2.19591289758682250977e-01) (119, -3.14983129501342773438e-02) (120, -1.43086552619934082031e-01) (121, 1.32146775722503662109e-01) (122, 2.87075284868478775024e-02) (123, -3.38472127914428710938e-02) (124, 1.64457038044929504395e-01) (125, 8.75721573829650878906e-02) (126, -8.04174914956092834473e-02) (127, 1.11132949590682983398e-01) (128, -7.29172006249427795410e-02) (129, -8.34800750017166137695e-02) (130, 1.70715287327766418457e-01) (131, 3.97913856431841850281e-03) (132, -7.13790729641914367676e-02) (133, 2.50894367694854736328e-01) (134, 2.39976160228252410889e-02) (135, -1.62361010909080505371e-01) (136, 2.39072054624557495117e-01) (137, -1.43619194626808166504e-01) (138, -1.02803178131580352783e-01) (139, 8.03595185279846191406e-02) (140, -1.55476540327072143555e-01) (141, -6.26310780644416809082e-02) (142, 1.16604596376419067383e-01) (143, -9.49905626475811004639e-03) (144, 1.17363482713699340820e-01) (145, 1.10927529633045196533e-01) (146, -9.27489101886749267578e-02) (147, 8.34363251924514770508e-02) (148, 7.79236853122711181641e-02) (149, 4.22153472900390625000e-02) (150, 6.37562498450279235840e-02) (151, 2.32251629233360290527e-01) (152, -1.14132082089781761169e-02) (153, 1.11855849623680114746e-01) (154, 1.68900147080421447754e-01) (155, 1.88758596777915954590e-01) (156, 6.22169300913810729980e-02) (157, 8.96924585103988647461e-02) (158, -9.95326191186904907227e-02) (159, 9.12087187170982360840e-02) (160, 6.18252456188201904297e-02) (161, -2.11217477917671203613e-02) (162, 8.27604904770851135254e-02) (163, 3.25441174209117889404e-02) (164, -1.30211180076003074646e-02) (165, 9.73495692014694213867e-02) (166, 1.05530679225921630859e-01) (167, 3.60368750989437103271e-02) (168, 2.90526300668716430664e-02) (169, 2.75753866881132125854e-02) (170, 1.34774789214134216309e-01) (171, 1.03539220988750457764e-01) (172, 1.46459817886352539062e-01) (173, 1.72756180167198181152e-01) (174, 5.54728321731090545654e-02) (175, 6.07222579419612884521e-02) (176, 1.07238322496414184570e-01) (177, -8.68281871080398559570e-02) (178, -1.96984037756919860840e-02) (179, 1.35567173361778259277e-01) (180, -9.84587892889976501465e-02) (181, 1.84424463659524917603e-02) (182, -3.82686289958655834198e-03) (183, -3.92709225416183471680e-02) (184, 6.48016855120658874512e-02) (185, 8.53357464075088500977e-03) (186, 1.16233773529529571533e-01) (187, 7.91041459888219833374e-03) (188, -3.59879098832607269287e-02) (189, -4.32923212647438049316e-02) (190, 6.40370622277259826660e-02) (191, -2.83133680932223796844e-03) (192, 2.03585401177406311035e-01) (193, 1.28344416618347167969e-01) (194, 8.17841216921806335449e-02) (195, 1.43792867660522460938e-01) (196, -1.24561451375484466553e-02) (197, 1.22442818246781826019e-03) (198, 2.01323200017213821411e-02) (199, 6.01369701325893402100e-02) (200, 7.71193727850914001465e-02) (201, 3.67330722510814666748e-02) (202, -4.44763600826263427734e-02) (203, -3.89266386628150939941e-02) (204, 8.26133862137794494629e-02) (205, 2.86718327552080154419e-02) (206, 2.97610480338335037231e-02) (207, -8.22528153657913208008e-02) (208, -1.79705098271369934082e-01) (209, 2.22481954842805862427e-02) (210, -6.57174736261367797852e-03) (211, -7.72966071963310241699e-02) (212, 4.73157465457916259766e-02) (213, 3.07996533811092376709e-02) (214, -1.09253577888011932373e-01) (215, 3.20169590413570404053e-02) (216, -1.35646224021911621094e-01) (217, -5.51817566156387329102e-02) (218, -6.37759119272232055664e-02) (219, 4.30422611534595489502e-02) (220, -2.70375926047563552856e-02) (221, 1.27156451344490051270e-02) (222, 9.97837781906127929688e-02) (223, -1.73819154500961303711e-01) (224, -2.02322006225585937500e-02) (225, 8.58356356620788574219e-02) (226, 1.13508477807044982910e-02) (227, 1.84718668460845947266e-02) (228, 9.88618209958076477051e-02) (229, 1.12034771591424942017e-02) (230, -3.44890402629971504211e-03) (231, -5.73070570826530456543e-02) (232, -8.77530127763748168945e-03) (233, -7.15543329715728759766e-02) (234, -6.04211539030075073242e-02) (235, -8.10594707727432250977e-02) (236, 9.97508317232131958008e-02) (237, 7.99072086811065673828e-02) (238, -9.93348583579063415527e-02) (239, 1.76507860422134399414e-01) (240, 4.17788047343492507935e-03) (241, -2.09414571523666381836e-01) (242, 1.84020966291427612305e-01) (243, 6.73714727163314819336e-02) (244, 6.92960172891616821289e-02) (245, -3.66501212120056152344e-02) (246, -1.37020453810691833496e-01) (247, -1.30612149834632873535e-01) (248, 1.70451514422893524170e-02) (249, -1.59931212663650512695e-01) (250, -3.55257876217365264893e-02) (251, 9.93487089872360229492e-02) (252, 8.93057808279991149902e-02) (253, -1.51130512356758117676e-01) (254, 1.48043751716613769531e-01) (255, -1.06642484664916992188e-01) (256, -5.66373541951179504395e-02) (257, -3.11479475349187850952e-02) (258, 1.04283154010772705078e-01) (259, -1.56111806631088256836e-01) (260, 7.20296725630760192871e-02) (261, -3.97581048309803009033e-02) (262, -2.85955309867858886719e-01) (263, -3.23191285133361816406e-02) (264, 7.06445798277854919434e-02) (265, -1.25631347298622131348e-01) (266, -2.02839404344558715820e-01) (267, 1.05553917586803436279e-01) (268, -2.20210477709770202637e-01) (269, 7.84683972597122192383e-02) (270, 4.08245548605918884277e-02) (271, -6.76461458206176757812e-02) (272, -8.02554637193679809570e-02) (273, -5.41675798594951629639e-02) (274, -1.20226144790649414062e-01) (275, -6.07880353927612304688e-02) (276, 2.03625820577144622803e-02) (277, -1.79461285471916198730e-01) (278, -2.04444695264101028442e-02) (279, -1.35275274515151977539e-01) (280, -1.50447964668273925781e-01) (281, 6.19641691446304321289e-02) (282, -3.61756011843681335449e-02) (283, -9.93032902479171752930e-02) (284, -1.15048334002494812012e-01) (285, -5.45726902782917022705e-02) (286, -1.34181529283523559570e-01) (287, -5.22407284006476402283e-03) (288, 5.75930438935756683350e-02) (289, -1.24233290553092956543e-01) (290, 2.21699681133031845093e-02) (291, 5.06595335900783538818e-02) (292, -1.20776511728763580322e-01) (293, -1.97759699076414108276e-02) (294, 7.29464292526245117188e-02) (295, -1.41005322337150573730e-01) (296, -1.41337871551513671875e-01) (297, -6.43010204657912254333e-03) (298, -2.19140157103538513184e-01) (299, -6.43110349774360656738e-02) (300, 1.46221276372671127319e-02) (301, -7.87954330444335937500e-02) (302, -1.05966664850711822510e-01) (303, 3.82487960159778594971e-02) (304, -2.41835057735443115234e-01) (305, -1.29554361104965209961e-01) (306, 1.31309647113084793091e-02) (307, -3.46865296363830566406e-01) (308, -2.28326842188835144043e-01) (309, 1.42851844429969787598e-01) (310, -2.95762389898300170898e-01) (311, -1.38845235109329223633e-01) (312, 1.66039951145648956299e-02) (313, -3.93780291080474853516e-01) (314, -2.20713391900062561035e-01) (315, -1.28996431827545166016e-01) (316, 3.45131717622280120850e-02) (317, -1.36907860636711120605e-01) (318, -2.42031469941139221191e-01) (319, -1.67496472597122192383e-01) (320, -1.03297330439090728760e-01) (321, -1.05704866349697113037e-01) (322, -1.92932501435279846191e-01) (323, -1.87540471553802490234e-01) (324, 3.83598147891461849213e-03) (325, -1.49913147091865539551e-01) (326, -1.49509012699127197266e-01) (327, 1.56065478920936584473e-01) (328, -7.96725824475288391113e-02) (329, -2.17902228236198425293e-01) (330, 2.83131569623947143555e-01) (331, 2.76677519083023071289e-01) (332, -4.38626527786254882812e-01) (333, 3.80831539630889892578e-01) (334, 1.56697466969490051270e-01) (335, -4.62487906217575073242e-01) (336, 2.93615639209747314453e-01) (337, 1.53036862611770629883e-01) (338, -6.09104335308074951172e-01) (339, 7.07920193672180175781e-02) (340, 1.47366911172866821289e-01) (341, -7.43181347846984863281e-01) (342, -1.79843977093696594238e-01) (343, 8.66907387971878051758e-02) (344, -4.98270064592361450195e-01) (345, -4.40168529748916625977e-01) (346, -6.67188921943306922913e-03) (347, -8.05486664175987243652e-02) (348, -4.83219116926193237305e-01) (349, -1.14762552082538604736e-01) (350, 1.92603394389152526855e-01) (351, -6.29909932613372802734e-01) (352, -1.22361958026885986328e-01) (353, -1.88432693481445312500e-01) (354, -2.91442662477493286133e-01) (355, -2.46776968240737915039e-01) (356, -1.15161633491516113281e+00) (357, 4.05558049678802490234e-01) (358, -3.15295875072479248047e-01) (359, -2.66984748840332031250e+00) (360, 7.42247760295867919922e-01) (0, 2.24126167595386505127e-02) (1, -2.57750481367111206055e-01) (2, 1.68384262360632419586e-03) (3, 3.20234745740890502930e-02) (4, 1.58223658800125122070e-02) (5, -1.22391045093536376953e-01) (6, 5.24246282875537872314e-02) (7, -1.79547652602195739746e-01) (8, -1.10374510288238525391e-01) (9, 1.05812236666679382324e-01) (10, -4.89769093692302703857e-02) (11, -1.17092207074165344238e-02) (12, -6.66987299919128417969e-02) (13, -7.75950178503990173340e-02) (14, -1.42250046133995056152e-01) (15, -6.54202252626419067383e-02) (16, 3.68931819684803485870e-03) (17, 2.61999014765024185181e-02) (18, -1.19723059237003326416e-01) (19, -9.03995037078857421875e-02) (20, -1.47766303271055221558e-02) (21, 1.66474282741546630859e-02) (22, -1.48199185729026794434e-01) (23, -7.38765597343444824219e-02) (24, 3.54608078487217426300e-03) (25, -1.07328310608863830566e-01) (26, 3.32795158028602600098e-02) (27, 3.60188372433185577393e-02) (28, 3.27749811112880706787e-02) (29, -5.44247850775718688965e-02) (30, 9.65708643198013305664e-02) (31, -2.81926896423101425171e-02) (32, -3.05641572922468185425e-02) (33, 7.38531649112701416016e-02) (34, -2.92896255850791931152e-02) (35, 9.55557897686958312988e-02) (36, -3.90794165432453155518e-02) (37, -5.22502064704895019531e-02) (38, 1.80856734514236450195e-01) (39, -3.71706932783126831055e-02) (40, -2.14752322062849998474e-03) (41, 7.28771612048149108887e-02) (42, 1.33313909173011779785e-01) (43, 4.00921851396560668945e-02) (44, 5.58106563985347747803e-02) (45, 1.13800399005413055420e-01) (46, -1.70613005757331848145e-01) (47, -8.03769230842590332031e-02) (48, 1.83764189481735229492e-01) (49, -5.94290671870112419128e-03) (50, 5.29218614101409912109e-02) (51, 1.89387813210487365723e-01) (52, -3.77367995679378509521e-02) (53, -5.57610355317592620850e-02) (54, 2.33227219432592391968e-02) (55, 9.68437269330024719238e-02) (56, 5.95709262415766716003e-03) (57, 2.45063886046409606934e-01) (58, -4.09894362092018127441e-02) (59, -1.72088984400033950806e-02) (60, -9.93587225675582885742e-02) (61, -1.66491672396659851074e-01) (62, 4.49771247804164886475e-02) (63, 3.05761229246854782104e-02) (64, -1.31511345505714416504e-01) (65, 8.65545049309730529785e-02) (66, 1.01865172386169433594e-01) (67, -9.73226502537727355957e-02) (68, -9.53819751739501953125e-02) (69, 5.94356022775173187256e-02) (70, -1.14357486367225646973e-01) (71, -4.34046015143394470215e-02) (72, -1.04103267192840576172e-01) (73, -1.16282708942890167236e-01) (74, 5.17348088324069976807e-02) (75, -1.33628994226455688477e-02) (76, -4.13961373269557952881e-02) (77, 2.28443462401628494263e-02) (78, -8.44998210668563842773e-02) (79, -1.17542117834091186523e-01) (80, -1.79614536464214324951e-02) (81, 5.97002077847719192505e-03) (82, -3.66491195745766162872e-03) (83, -1.52160078287124633789e-01) (84, -3.28086093068122863770e-02) (85, 5.10004200041294097900e-02) (86, 6.55709058046340942383e-02) (87, 1.84029012918472290039e-01) (88, -7.22905397415161132812e-02) (89, -4.78133223950862884521e-02) (90, 2.15588495135307312012e-01) (91, 2.94156074523925781250e-02) (92, -9.20194014906883239746e-02) (93, 3.10671329498291015625e-01) (94, 1.70392483472824096680e-01) (95, 3.60340327024459838867e-02) (96, 7.60423690080642700195e-02) (97, 4.97713200747966766357e-02) (98, -1.82183966040611267090e-01) (99, 7.15949982404708862305e-02) (100, 2.23961714655160903931e-02) (101, -1.58958598971366882324e-01) (102, 7.22690671682357788086e-02) (103, 6.01275004446506500244e-02) (104, 1.27151673659682273865e-02) (105, -5.94742558896541595459e-02) (106, -7.23049268126487731934e-02) (107, -1.30652949213981628418e-01) (108, 2.79902797192335128784e-02) (109, 1.02455601096153259277e-01) (110, 8.35761725902557373047e-02) (111, -7.45438709855079650879e-02) (112, 1.33630126714706420898e-01) (113, 3.02718058228492736816e-02) (114, -1.68783470988273620605e-01) (115, 7.09278658032417297363e-02) (116, 1.37900158762931823730e-01) (117, 4.34246137738227844238e-02) (118, -2.19147324562072753906e-01) (119, 5.90106332674622535706e-03) (120, -8.44374671578407287598e-02) (121, 2.39154905080795288086e-01) (122, -1.23738564550876617432e-01) (123, 6.05911016464233398438e-02) (124, 1.92634984850883483887e-01) (125, -1.20503418147563934326e-01) (126, 1.69214427471160888672e-01) (127, 1.03272385895252227783e-01) (128, -1.62379607558250427246e-01) (129, 9.28899943828582763672e-02) (130, 2.46125236153602600098e-02) (131, -7.99813419580459594727e-02) (132, -2.92157661169767379761e-03) (133, -2.79941968619823455811e-02) (134, -1.41008803620934486389e-02) (135, -9.39633399248123168945e-02) (136, -3.48671525716781616211e-02) (137, -1.14734418690204620361e-01) (138, -6.69198110699653625488e-02) (139, 3.52346450090408325195e-02) (140, -2.71126925945281982422e-02) (141, -8.37826505303382873535e-02) (142, 6.18512704968452453613e-02) (143, -2.74208057671785354614e-02) (144, 1.06565915048122406006e-01) (145, -2.00202777981758117676e-01) (146, 6.58881152048707008362e-03) (147, 1.89825892448425292969e-01) (148, -1.74505770206451416016e-01) (149, -9.83404591679573059082e-02) (150, 4.60783205926418304443e-02) (151, -2.35020555555820465088e-02) (152, 1.06539972126483917236e-01) (153, 2.44040712714195251465e-01) (154, -1.17297708988189697266e-01) (155, 1.46906182169914245605e-01) (156, 3.98947484791278839111e-02) (157, -9.11061093211174011230e-02) (158, -4.59329485893249511719e-02) (159, 3.08755170553922653198e-02) (160, 1.78238570690155029297e-01) (161, -1.10067231580615043640e-02) (162, 1.34732007980346679688e-01) (163, 1.26264318823814392090e-01) (164, -9.89026725292205810547e-02) (165, 1.47552073001861572266e-01) (166, 6.59840628504753112793e-02) (167, -9.22096427530050277710e-03) (168, -1.06542266905307769775e-01) (169, -5.92404268682003021240e-02) (170, 1.10055748373270034790e-02) (171, -6.03005886077880859375e-02) (172, 2.01065596193075180054e-02) (173, 1.76698714494705200195e-01) (174, 5.47235868871212005615e-02) (175, -3.87145504355430603027e-02) (176, 2.33022999018430709839e-02) (177, 6.99371919035911560059e-02) (178, 1.18024140596389770508e-01) (179, -5.21898865699768066406e-02) (180, 1.75252363085746765137e-01) (181, 9.69076752662658691406e-02) (182, -7.84541592001914978027e-02) (183, 2.39869698882102966309e-01) (184, 1.22607640922069549561e-01) (185, 5.58685436844825744629e-02) (186, 1.39613106846809387207e-01) (187, 5.76288290321826934814e-02) (188, -8.79066884517669677734e-02) (189, 3.76744307577610015869e-02) (190, -1.68906375765800476074e-02) (191, -6.81543201208114624023e-02) (192, 2.67243564128875732422e-01) (193, 1.19532562792301177979e-01) (194, 1.84595182538032531738e-01) (195, 4.09538559615612030029e-02) (196, 8.74286424368619918823e-03) (197, 8.96734595298767089844e-02) (198, 3.81274707615375518799e-02) (199, 1.42041267827153205872e-02) (200, 1.80273935198783874512e-01) (201, -5.60687854886054992676e-02) (202, 7.61618092656135559082e-02) (203, 2.68596094101667404175e-02) (204, 2.96258181333541870117e-02) (205, 1.52990177273750305176e-01) (206, 1.14544192329049110413e-02) (207, -8.26529506593942642212e-03) (208, -2.81595252454280853271e-02) (209, -5.39488196372985839844e-02) (210, 1.68515056371688842773e-01) (211, 2.46414728462696075439e-02) (212, -2.54710353910923004150e-02) (213, 1.25680387020111083984e-01) (214, -5.17816469073295593262e-02) (215, -5.48793300986289978027e-02) (216, 2.78136711567640304565e-02) (217, 1.76143184304237365723e-01) (218, -6.33471533656120300293e-02) (219, 1.83257758617401123047e-01) (220, 2.28891536593437194824e-01) (221, -2.51914691179990768433e-02) (222, 1.29527583718299865723e-01) (223, 1.73080101609230041504e-01) (224, -2.41149589419364929199e-02) (225, 1.49181261658668518066e-01) (226, 4.70616631209850311279e-02) (227, 9.67526733875274658203e-02) (228, 4.81399483978748321533e-02) (229, 1.18275955319404602051e-01) (230, 5.60965165495872497559e-02) (231, -4.23363000154495239258e-02) (232, 2.18709409236907958984e-02) (233, -4.03606751933693885803e-03) (234, 5.83129264414310455322e-02) (235, 6.99497610330581665039e-02) (236, -3.23897302150726318359e-02) (237, 5.13415411114692687988e-02) (238, -8.90733972191810607910e-02) (239, 1.34004473686218261719e-01) (240, -4.99314107000827789307e-02) (241, 2.42050457745790481567e-02) (242, 1.79159231483936309814e-02) (243, 2.29617729783058166504e-01) (244, 1.06781482696533203125e-01) (245, 6.96185231208801269531e-03) (246, -1.52055472135543823242e-02) (247, 1.43167972564697265625e-02) (248, 1.80725306272506713867e-02) (249, -4.33060619980096817017e-03) (250, -7.25285634398460388184e-02) (251, 3.00603192299604415894e-02) (252, 2.28131607174873352051e-01) (253, -1.78096517920494079590e-01) (254, 4.87951636314392089844e-02) (255, -5.00108525156974792480e-02) (256, -3.49975898861885070801e-02) (257, -4.59308773279190063477e-02) (258, 3.71072776615619659424e-02) (259, 3.40925782918930053711e-01) (260, 7.28681823238730430603e-03) (261, 1.30752325057983398438e-01) (262, -1.72924138605594635010e-02) (263, 1.09102474525570869446e-02) (264, 7.40248411893844604492e-02) (265, 3.83507132530212402344e-01) (266, -1.44862145185470581055e-01) (267, 2.04330831766128540039e-01) (268, 1.36296287178993225098e-01) (269, -7.17436475679278373718e-03) (270, 1.07938461005687713623e-01) (271, 1.50679722428321838379e-01) (272, -5.98010122776031494141e-02) (273, 8.37773457169532775879e-02) (274, -2.97489520162343978882e-02) (275, 1.05446144938468933105e-01) (276, 4.14088144898414611816e-02) (277, 8.92534404993057250977e-02) (278, 2.68411543220281600952e-02) (279, 5.50763420760631561279e-02) (280, 2.49162137508392333984e-01) (281, 4.29195575416088104248e-02) (282, 6.60336911678314208984e-02) (283, 2.77698755264282226562e-01) (284, 2.78291273862123489380e-02) (285, 8.97241309285163879395e-02) (286, -5.04789762198925018311e-02) (287, -4.49937172234058380127e-02) (288, -4.88261803984642028809e-02) (289, -5.45238815248012542725e-02) (290, -5.49495071172714233398e-02) (291, 9.84134823083877563477e-02) (292, -1.25857651233673095703e-01) (293, -1.51454880833625793457e-01) (294, 2.38471746444702148438e-01) (295, 1.25840961933135986328e-01) (296, -2.14025706052780151367e-01) (297, 3.78558039665222167969e-02) (298, 3.31864468753337860107e-02) (299, -1.90624415874481201172e-01) (300, 1.89379706978797912598e-01) (301, 4.36456799507141113281e-01) (302, -2.05228596925735473633e-01) (303, 6.26155883073806762695e-02) (304, 4.24782246351242065430e-01) (305, -1.97071000933647155762e-01) (306, -4.03987094759941101074e-02) (307, 1.51270493865013122559e-01) (308, -2.33499705791473388672e-01) (309, 1.03655897080898284912e-01) (310, 3.47670018672943115234e-01) (311, -1.83407723903656005859e-01) (312, -7.75009319186210632324e-02) (313, 1.24637119472026824951e-01) (314, -6.71396553516387939453e-02) (315, -1.55588060617446899414e-01) (316, 5.11533021926879882812e-01) (317, 2.90860235691070556641e-02) (318, -2.96777874231338500977e-01) (319, 1.84495300054550170898e-01) (320, -5.93950450420379638672e-02) (321, -2.17731729149818420410e-01) (322, 8.08121189475059509277e-02) (323, -4.55824956297874450684e-02) (324, 4.59516569972038269043e-02) (325, 8.55415873229503631592e-03) (326, 9.85119584947824478149e-03) (327, 2.03949436545372009277e-01) (328, -5.06476424634456634521e-02) (329, -2.67540127038955688477e-01) (330, 3.05638730525970458984e-01) (331, 1.08895100653171539307e-01) (332, -4.87933129072189331055e-01) (333, 5.57719051837921142578e-01) (334, 1.27278447151184082031e-01) (335, -4.38487887382507324219e-01) (336, 2.67377942800521850586e-01) (337, 8.92096757888793945312e-02) (338, -7.74615228176116943359e-01) (339, 9.35815647244453430176e-02) (340, 7.36406296491622924805e-02) (341, -5.39219141006469726562e-01) (342, -4.41903062164783477783e-02) (343, 6.65694028139114379883e-02) (344, -2.86933064460754394531e-01) (345, -4.35770422220230102539e-01) (346, -9.80253368616104125977e-02) (347, 3.36681008338928222656e-02) (348, -6.33281588554382324219e-01) (349, -6.70810565352439880371e-02) (350, 2.58901208639144897461e-01) (351, -6.52224302291870117188e-01) (352, -2.80887782573699951172e-02) (353, -2.21159756183624267578e-02) (354, -2.51868724822998046875e-01) (355, 1.52396723628044128418e-01) (356, -1.27712428569793701172e+00) (357, 5.75798392295837402344e-01) (358, 7.47548937797546386719e-02) (359, -2.73102426528930664062e+00) (360, 6.31130814552307128906e-01) (0, 3.76578085124492645264e-02) (1, -8.31103548407554626465e-02) (2, -9.18836891651153564453e-02) (3, -7.85868763923645019531e-02) (4, -2.05551111139357089996e-03) (5, -3.68339382112026214600e-02) (6, 4.47978451848030090332e-02) (7, -8.02743434906005859375e-02) (8, -2.11076065897941589355e-01) (9, 5.52932992577552795410e-02) (10, -1.69620335102081298828e-01) (11, -1.68172255158424377441e-01) (12, -1.93835467100143432617e-01) (13, -6.15778863430023193359e-02) (14, -9.05339233577251434326e-03) (15, 1.01858556270599365234e-01) (16, -2.08241462707519531250e-01) (17, -6.73729479312896728516e-02) (18, -2.33689859509468078613e-01) (19, -1.33450716733932495117e-01) (20, -7.59228086099028587341e-03) (21, -3.11946235597133636475e-02) (22, -2.77455389499664306641e-01) (23, 4.21401159837841987610e-03) (24, -8.63122660666704177856e-03) (25, -3.67884375154972076416e-02) (26, -8.11938568949699401855e-03) (27, 9.32152941823005676270e-02) (28, 5.32350167632102966309e-02) (29, -2.94691626913845539093e-03) (30, 1.07420489192008972168e-01) (31, 1.16303697228431701660e-01) (32, -1.58325657248497009277e-02) (33, 1.45811930298805236816e-01) (34, -5.37077300250530242920e-02) (35, 8.39133560657501220703e-02) (36, 1.00347496569156646729e-01) (37, 9.96056869626045227051e-02) (38, 6.69049397110939025879e-02) (39, -1.90586205571889877319e-02) (40, -1.96334585547447204590e-01) (41, 9.12410318851470947266e-02) (42, 2.00838372111320495605e-01) (43, -8.62479507923126220703e-02) (44, -3.71201597154140472412e-02) (45, 1.19041167199611663818e-01) (46, -2.07487225532531738281e-01) (47, -9.83658656477928161621e-02) (48, 2.95227766036987304688e-01) (49, -1.59893319010734558105e-01) (50, -8.17440450191497802734e-02) (51, 8.40688943862915039062e-02) (52, 9.32582747191190719604e-03) (53, -9.31586977094411849976e-03) (54, 1.79322823882102966309e-01) (55, -3.19285923615097999573e-03) (56, -4.33048382401466369629e-02) (57, 1.40044078230857849121e-01) (58, -7.00086429715156555176e-02) (59, 1.81868553161621093750e-01) (60, -1.73668228089809417725e-02) (61, 2.29686386883258819580e-02) (62, 1.27035751938819885254e-01) (63, 1.10647201538085937500e-01) (64, -6.61349743604660034180e-02) (65, 1.27505138516426086426e-01) (66, -5.07660098373889923096e-02) (67, -1.27389147877693176270e-01) (68, 1.00388310849666595459e-01) (69, -3.10307424515485763550e-02) (70, 6.85219317674636840820e-02) (71, 2.00657714158296585083e-02) (72, -8.80350451916456222534e-03) (73, -1.26188144087791442871e-01) (74, 2.31148973107337951660e-02) (75, -2.93739978224039077759e-02) (76, -5.95175847411155700684e-02) (77, 3.70680727064609527588e-02) (78, 7.78331533074378967285e-02) (79, -1.90813049674034118652e-01) (80, -6.21567368507385253906e-02) (81, 1.97356805205345153809e-01) (82, -5.34351058304309844971e-02) (83, -1.02861613035202026367e-01) (84, -4.11282628774642944336e-02) (85, -3.30978035926818847656e-02) (86, 1.02731473743915557861e-02) (87, 8.31189081072807312012e-02) (88, -9.26652103662490844727e-02) (89, 5.54422959685325622559e-02) (90, 4.56370413303375244141e-02) (91, -1.20502397418022155762e-01) (92, -2.81477272510528564453e-02) (93, 1.68376848101615905762e-01) (94, 1.21699243783950805664e-01) (95, 1.37874409556388854980e-01) (96, 8.19683149456977844238e-02) (97, 6.34973049163818359375e-02) (98, -1.18810586631298065186e-01) (99, 2.74904463440179824829e-02) (100, 1.25190809369087219238e-01) (101, -1.23034097254276275635e-01) (102, 4.41748797893524169922e-02) (103, 4.49805185198783874512e-02) (104, 5.96297308802604675293e-02) (105, -1.55067205429077148438e-01) (106, -1.07816956937313079834e-01) (107, 1.01049795746803283691e-01) (108, -7.02709779143333435059e-02) (109, 5.99718019366264343262e-02) (110, -1.20340799912810325623e-02) (111, -3.29230353236198425293e-02) (112, 4.95005548000335693359e-02) (113, 9.53504443168640136719e-02) (114, -1.37088045477867126465e-01) (115, 1.46206334233283996582e-01) (116, 1.01853296160697937012e-01) (117, -1.74276232719421386719e-02) (118, -1.02910570800304412842e-01) (119, -4.92298305034637451172e-02) (120, -7.78116732835769653320e-02) (121, 1.65899991989135742188e-01) (122, -8.90351459383964538574e-02) (123, 7.05875232815742492676e-02) (124, 1.55639901757240295410e-01) (125, -9.58724394440650939941e-02) (126, 2.89943534880876541138e-02) (127, 1.40175327658653259277e-01) (128, -1.02579332888126373291e-01) (129, -5.14983721077442169189e-02) (130, 9.12798941135406494141e-02) (131, -8.26950445771217346191e-02) (132, -1.70059263706207275391e-01) (133, -8.28903447836637496948e-03) (134, -7.04912561923265457153e-03) (135, -4.42652218043804168701e-02) (136, 6.95172995328903198242e-02) (137, -1.23081646859645843506e-01) (138, -3.06193213909864425659e-02) (139, 8.97986590862274169922e-02) (140, -1.27294391393661499023e-01) (141, 1.90517641603946685791e-02) (142, 1.39906615018844604492e-01) (143, -5.21274171769618988037e-02) (144, 6.23059011995792388916e-02) (145, -7.17652514576911926270e-02) (146, -1.87291622161865234375e-01) (147, 9.66533347964286804199e-02) (148, 5.33017590641975402832e-02) (149, 4.63385023176670074463e-02) (150, 6.08738884329795837402e-02) (151, 1.19681246578693389893e-02) (152, 1.23539532069116830826e-03) (153, 2.77289837598800659180e-01) (154, -1.46944187581539154053e-02) (155, 3.37945222854614257812e-02) (156, 4.03591729700565338135e-02) (157, 4.81332875788211822510e-02) (158, 2.94766277074813842773e-02) (159, 4.29554395377635955811e-02) (160, 2.11592137813568115234e-01) (161, -1.83140531182289123535e-01) (162, 1.03058516979217529297e-01) (163, 2.08947867155075073242e-01) (164, -1.22377261519432067871e-01) (165, 1.06478989124298095703e-01) (166, 1.75352469086647033691e-01) (167, 1.91734097898006439209e-02) (168, 3.30471023917198181152e-02) (169, 1.02866895496845245361e-01) (170, 1.91090270876884460449e-01) (171, -6.35644048452377319336e-03) (172, 1.32497146725654602051e-01) (173, 1.29119247198104858398e-01) (174, 8.52521881461143493652e-02) (175, 1.46273560822010040283e-02) (176, 2.11094886064529418945e-01) (177, 8.70741605758666992188e-02) (178, 4.93182465434074401855e-02) (179, 9.77545306086540222168e-02) (180, 1.03741832077503204346e-01) (181, 2.01258987188339233398e-01) (182, 3.51014509797096252441e-02) (183, 2.48961418867111206055e-01) (184, 4.86563034355640411377e-02) (185, -4.40785922110080718994e-02) (186, 1.79968729615211486816e-01) (187, -3.17354388535022735596e-02) (188, 5.80335184931755065918e-02) (189, 1.24861158430576324463e-01) (190, 1.31698280572891235352e-01) (191, -3.13209230080246925354e-03) (192, 2.02070727944374084473e-01) (193, 6.62615075707435607910e-02) (194, 3.50481793284416198730e-02) (195, 1.45075201988220214844e-01) (196, -1.16630822420120239258e-01) (197, -2.84420344978570938110e-02) (198, -5.18767870962619781494e-02) (199, -1.64778292179107666016e-01) (200, 1.45687863230705261230e-01) (201, 6.93320343270897865295e-03) (202, -7.75741860270500183105e-02) (203, -3.09971552342176437378e-02) (204, 5.75274154543876647949e-02) (205, 2.60717719793319702148e-02) (206, -1.03243470191955566406e-01) (207, -2.79021114110946655273e-02) (208, -1.24702937901020050049e-01) (209, -1.13790139555931091309e-01) (210, 8.93936157226562500000e-02) (211, 9.94302034378051757812e-02) (212, -1.36313447728753089905e-03) (213, -5.45333251357078552246e-02) (214, 4.36080247163772583008e-03) (215, -1.15519538521766662598e-01) (216, -5.79251796007156372070e-02) (217, 5.43293021619319915771e-02) (218, 6.08803611248731613159e-03) (219, 7.49852806329727172852e-02) (220, 3.38602252304553985596e-02) (221, 8.74553108587861061096e-04) (222, 9.93944853544235229492e-02) (223, 9.18845161795616149902e-02) (224, -4.44111712276935577393e-02) (225, 1.95102170109748840332e-01) (226, 7.24542513489723205566e-02) (227, -6.22300058603286743164e-03) (228, 1.76689594984054565430e-01) (229, 7.63988792896270751953e-02) (230, 1.36508876457810401917e-02) (231, 3.93471494317054748535e-02) (232, 7.97266438603401184082e-02) (233, 4.27463091909885406494e-02) (234, 9.40264612436294555664e-02) (235, -5.46972751617431640625e-02) (236, 1.22191235423088073730e-01) (237, -5.74130471795797348022e-03) (238, -2.40690633654594421387e-02) (239, 2.03929357230663299561e-02) (240, 6.47090002894401550293e-02) (241, 7.90897756814956665039e-03) (242, 1.66587397456169128418e-01) (243, 2.20340326428413391113e-01) (244, -4.83234301209449768066e-02) (245, 2.29699108749628067017e-02) (246, 1.22868254780769348145e-01) (247, 1.25627405941486358643e-02) (248, -2.58712638169527053833e-02) (249, 8.68509151041507720947e-03) (250, 4.18724538758397102356e-03) (251, 3.75086553394794464111e-02) (252, 9.86999943852424621582e-02) (253, -1.47367894649505615234e-01) (254, 2.33941018581390380859e-01) (255, 1.79260596632957458496e-02) (256, -1.83821499347686767578e-01) (257, -6.41061598435044288635e-03) (258, 1.86640530824661254883e-01) (259, 1.02111749351024627686e-01) (260, 3.05429380387067794800e-02) (261, 7.75194261223077774048e-04) (262, 2.23945416510105133057e-02) (263, -8.44010412693023681641e-02) (264, -8.44182353466749191284e-03) (265, 3.83583337068557739258e-01) (266, -1.36582568287849426270e-01) (267, 7.14490637183189392090e-02) (268, 3.06100457906723022461e-01) (269, -6.60393983125686645508e-02) (270, 3.25207114219665527344e-02) (271, 2.78198391199111938477e-01) (272, -7.79380127787590026855e-02) (273, -4.88712824881076812744e-02) (274, -3.82300280034542083740e-02) (275, -4.16193045675754547119e-02) (276, 1.73639073967933654785e-01) (277, -3.97149473428726196289e-02) (278, 8.96590650081634521484e-02) (279, -4.95473779737949371338e-02) (280, 7.52859562635421752930e-02) (281, 3.73628153465688228607e-03) (282, -1.25944511964917182922e-02) (283, 1.50321900844573974609e-01) (284, 6.63914233446121215820e-02) (285, 2.03508697450160980225e-02) (286, -1.47061809897422790527e-01) (287, -8.64770188927650451660e-02) (288, 1.13870114088058471680e-01) (289, 2.00368706136941909790e-02) (290, -4.14901152253150939941e-02) (291, 8.25632289052009582520e-02) (292, -1.57226055860519409180e-01) (293, -1.99590787291526794434e-01) (294, 3.02692294120788574219e-01) (295, 4.02817279100418090820e-02) (296, -5.32785616815090179443e-02) (297, 6.36711716651916503906e-02) (298, -1.96421006694436073303e-03) (299, -6.02621249854564666748e-02) (300, 1.20962657034397125244e-01) (301, 3.34832787513732910156e-01) (302, -1.99876055121421813965e-01) (303, 1.43817514181137084961e-01) (304, 3.67651671171188354492e-01) (305, -1.53101086616516113281e-01) (306, 9.18463468551635742188e-02) (307, 1.95117577910423278809e-01) (308, -2.78136938810348510742e-01) (309, 1.41447588801383972168e-01) (310, 2.96822279691696166992e-01) (311, -3.15562546253204345703e-01) (312, 1.49441033601760864258e-01) (313, -9.72814336419105529785e-02) (314, -3.92019487917423248291e-02) (315, -8.67201536893844604492e-02) (316, 4.03151810169219970703e-01) (317, 5.11642806231975555420e-02) (318, -8.56090709567070007324e-02) (319, 4.29634563624858856201e-02) (320, 9.94048044085502624512e-02) (321, -2.41221010684967041016e-01) (322, 1.49482727050781250000e-01) (323, 1.59047544002532958984e-01) (324, -6.41325488686561584473e-02) (325, 1.09996311366558074951e-01) (326, -6.41041900962591171265e-03) (327, 1.77615240216255187988e-01) (328, -8.29524844884872436523e-02) (329, -5.50840571522712707520e-02) (330, 3.60219836235046386719e-01) (331, 2.29129895567893981934e-01) (332, -3.36682975292205810547e-01) (333, 5.88034272193908691406e-01) (334, 1.60874620079994201660e-01) (335, -4.79163765907287597656e-01) (336, 2.85280019044876098633e-01) (337, 4.99304907862097024918e-04) (338, -7.30172693729400634766e-01) (339, 2.73390471935272216797e-01) (340, -2.97744944691658020020e-02) (341, -5.21681308746337890625e-01) (342, -1.13660348579287528992e-02) (343, -2.56370902061462402344e-02) (344, -3.67207944393157958984e-01) (345, -4.31983739137649536133e-01) (346, -1.70592144131660461426e-01) (347, 1.54817238450050354004e-01) (348, -6.86333477497100830078e-01) (349, -1.94123819470405578613e-01) (350, 5.33685147762298583984e-01) (351, -6.77036702632904052734e-01) (352, 7.45322108268737792969e-02) (353, 8.07796195149421691895e-02) (354, -3.83859455585479736328e-01) (355, 1.87644645571708679199e-01) (356, -1.20871651172637939453e+00) (357, 5.65845072269439697266e-01) (358, 1.26712769269943237305e-01) (359, -2.94141745567321777344e+00) (360, 7.31181085109710693359e-01) (0, 1.34118020534515380859e-01) (1, -1.59686475992202758789e-01) (2, -8.85448232293128967285e-03) (3, 5.79181239008903503418e-02) (4, 7.85657241940498352051e-02) (5, -2.31324024498462677002e-02) (6, 8.89592617750167846680e-02) (7, -7.47893080115318298340e-02) (8, 2.65294406563043594360e-03) (9, 1.72075629234313964844e-02) (10, -1.68111637234687805176e-01) (11, 1.35753396898508071899e-02) (12, -1.92171066999435424805e-01) (13, 1.01917178835719823837e-03) (14, 6.38347789645195007324e-02) (15, -2.80996635556221008301e-02) (16, 7.56086185574531555176e-02) (17, -5.31451310962438583374e-04) (18, -7.97158777713775634766e-02) (19, -6.64872452616691589355e-02) (20, -4.59471531212329864502e-02) (21, -5.17097562551498413086e-02) (22, 1.20804300531744956970e-02) (23, 6.21088482439517974854e-02) (24, -7.11845159530639648438e-02) (25, 4.27456684410572052002e-02) (26, 7.69179835915565490723e-02) (27, 5.87288737297058105469e-02) (28, -9.33746993541717529297e-03) (29, -2.90565239265561103821e-03) (30, 6.86282292008399963379e-02) (31, -1.04483619332313537598e-01) (32, 4.17078360915184020996e-02) (33, -6.56137466430664062500e-02) (34, -5.46241998672485351562e-02) (35, 1.97194531559944152832e-01) (36, 2.67310161143541336060e-02) (37, 2.08933390676975250244e-02) (38, 1.74228698015213012695e-01) (39, -1.38516709208488464355e-01) (40, -3.01198717206716537476e-02) (41, 4.89917350932955741882e-03) (42, 1.20218947529792785645e-01) (43, 1.06109842658042907715e-01) (44, 1.44140958786010742188e-01) (45, 3.10918968170881271362e-02) (46, -3.60197536647319793701e-02) (47, 8.94801467657089233398e-02) (48, 1.61924839019775390625e-01) (49, 1.79107159376144409180e-01) (50, 9.61641892790794372559e-02) (51, 1.01314134895801544189e-01) (52, -7.50880548730492591858e-03) (53, -4.37497766688466072083e-03) (54, 3.24595645070075988770e-02) (55, -1.28544326871633529663e-02) (56, -4.43081632256507873535e-02) (57, 2.76052784174680709839e-02) (58, -1.02236390113830566406e-01) (59, 5.77389821410179138184e-02) (60, -4.29150722920894622803e-02) (61, -1.33515283465385437012e-01) (62, 1.36770263314247131348e-01) (63, 9.26346257328987121582e-02) (64, -1.63259655237197875977e-01) (65, 4.77258116006851196289e-02) (66, 2.84882243722677230835e-02) (67, 5.46680390834808349609e-02) (68, -4.39410544931888580322e-02) (69, -2.89414916187524795532e-02) (70, -9.98281966894865036011e-03) (71, 3.72923612594604492188e-02) (72, -4.73467372357845306396e-02) (73, -7.56558924913406372070e-02) (74, 7.22852870821952819824e-02) (75, -1.01315587759017944336e-01) (76, 1.91678464412689208984e-01) (77, -1.27887427806854248047e-01) (78, -8.27493667602539062500e-02) (79, -3.61439622938632965088e-02) (80, 8.58384519815444946289e-02) (81, 9.45402309298515319824e-04) (82, 1.19565706700086593628e-02) (83, -3.48105505108833312988e-02) (84, 2.18047387897968292236e-02) (85, -2.84672956913709640503e-02) (86, -9.20912846922874450684e-02) (87, 1.33685573935508728027e-01) (88, -1.00584752857685089111e-01) (89, -4.05042394995689392090e-02) (90, 4.30658161640167236328e-02) (91, 1.30997017025947570801e-01) (92, -7.15302824974060058594e-02) (93, 1.01614994928240776062e-02) (94, 1.24647304415702819824e-01) (95, 3.61052970401942729950e-03) (96, -7.73218739777803421021e-03) (97, 1.07258567586541175842e-02) (98, -9.51243489980697631836e-02) (99, 1.19774648919701576233e-02) (100, 9.05359443277120590210e-03) (101, -4.09953035414218902588e-02) (102, -9.62038189172744750977e-02) (103, 8.54224786162376403809e-02) (104, 1.33707420900464057922e-02) (105, -1.54957935214042663574e-01) (106, -2.17488929629325866699e-01) (107, -2.12933178991079330444e-02) (108, -6.73546269536018371582e-02) (109, -2.48521007597446441650e-02) (110, -1.98314096778631210327e-02) (111, -6.26915097236633300781e-02) (112, 6.46068155765533447266e-03) (113, -6.27470612525939941406e-02) (114, -2.33133174479007720947e-02) (115, 3.52661423385143280029e-02) (116, -3.51010933518409729004e-02) (117, 2.94470355584053322673e-05) (118, -9.97438579797744750977e-02) (119, 2.67212279140949249268e-02) (120, 4.49475012719631195068e-02) (121, 1.65854513645172119141e-01) (122, -4.28014546632766723633e-02) (123, -2.26843785494565963745e-02) (124, -7.74718225002288818359e-02) (125, -9.00476500391960144043e-02) (126, 5.75513839721679687500e-02) (127, 6.01016683503985404968e-03) (128, -1.89646258950233459473e-01) (129, 7.10810646414756774902e-02) (130, -8.64567235112190246582e-02) (131, -1.81109368801116943359e-01) (132, -7.78783708810806274414e-02) (133, 1.06314094737172126770e-02) (134, -7.41100832819938659668e-02) (135, -1.36276409029960632324e-01) (136, -8.59733000397682189941e-02) (137, -3.37306149303913116455e-02) (138, -1.27238959074020385742e-01) (139, -8.44598338007926940918e-02) (140, -1.60540655255317687988e-01) (141, -1.44479295704513788223e-03) (142, -2.15732920914888381958e-02) (143, -1.69996485114097595215e-01) (144, -6.65520504117012023926e-02) (145, -1.52912914752960205078e-01) (146, -4.74581271409988403320e-02) (147, 8.65705497562885284424e-03) (148, 1.55743762850761413574e-01) (149, -8.84112268686294555664e-02) (150, -7.09626898169517517090e-02) (151, 2.61949270963668823242e-01) (152, -8.91964510083198547363e-02) (153, 3.84948938153684139252e-03) (154, -9.54899266362190246582e-02) (155, -4.10505123436450958252e-02) (156, 9.05964747071266174316e-02) (157, 5.43814226984977722168e-02) (158, 1.94957870990037918091e-02) (159, 8.14880505204200744629e-02) (160, 1.09532274305820465088e-01) (161, -9.44396033883094787598e-02) (162, 1.18092849850654602051e-01) (163, 1.33206378668546676636e-02) (164, -7.42402151226997375488e-02) (165, 7.15590566396713256836e-02) (166, 1.16896048188209533691e-01) (167, 1.30625981837511062622e-02) (168, -7.61566981673240661621e-02) (169, -8.46078842878341674805e-02) (170, -4.51266691088676452637e-02) (171, -1.00314384326338768005e-02) (172, -1.56235650181770324707e-01) (173, 7.37419426441192626953e-02) (174, -2.84423567354679107666e-02) (175, -1.42013311386108398438e-01) (176, 1.46348372101783752441e-01) (177, -9.27556753158569335938e-02) (178, -7.89073202759027481079e-03) (179, 7.58179351687431335449e-02) (180, 4.55784797668457031250e-02) (181, 1.47840097546577453613e-01) (182, 4.48889518156647682190e-03) (183, 1.22605927288532257080e-01) (184, 7.86048993468284606934e-02) (185, 4.31091077625751495361e-02) (186, -4.05462235212326049805e-02) (187, 6.98040565475821495056e-03) (188, -1.84566751122474670410e-02) (189, 1.62230670452117919922e-01) (190, -4.56145778298377990723e-03) (191, -8.44516530632972717285e-02) (192, 1.01583175361156463623e-01) (193, 1.13739468157291412354e-01) (194, 2.92834639549255371094e-02) (195, -1.95999313145875930786e-02) (196, 8.04921425879001617432e-03) (197, 7.69694242626428604126e-03) (198, 8.14689993858337402344e-02) (199, 4.49723303318023681641e-02) (200, 9.51286926865577697754e-02) (201, 1.45355239510536193848e-02) (202, -6.02099411189556121826e-02) (203, 7.83895999193191528320e-02) (204, -1.06549693737179040909e-03) (205, 1.24802485108375549316e-01) (206, -1.26318380236625671387e-01) (207, -4.15197797119617462158e-02) (208, -9.43991541862487792969e-02) (209, -4.58083152770996093750e-02) (210, 3.89530248939990997314e-02) (211, -6.44740313291549682617e-02) (212, -8.07075649499893188477e-02) (213, -6.17571435868740081787e-02) (214, 8.52573439478874206543e-02) (215, -9.48518514633178710938e-02) (216, -1.21960304677486419678e-01) (217, 2.09441468119621276855e-01) (218, 1.15726049989461898804e-02) (219, 7.84326419234275817871e-02) (220, 1.86595544219017028809e-01) (221, 4.94789481163024902344e-02) (222, 7.68746659159660339355e-02) (223, 2.05213520675897598267e-02) (224, 4.06425707042217254639e-02) (225, -1.33648673072457313538e-02) (226, 7.03767016530036926270e-02) (227, -9.64445397257804870605e-02) (228, 5.23563697934150695801e-02) (229, 1.64081733673810958862e-02) (230, 4.08242419362068176270e-02) (231, -3.95851843059062957764e-02) (232, 3.25001478195190429688e-02) (233, -1.27860993146896362305e-01) (234, -6.38434439897537231445e-02) (235, -1.52254421263933181763e-02) (236, -1.15272305905818939209e-01) (237, -4.25840504467487335205e-02) (238, 6.99524953961372375488e-02) (239, 1.27608433831483125687e-03) (240, 4.30687665939331054688e-02) (241, 2.08666607737541198730e-01) (242, 1.97975803166627883911e-02) (243, -2.42442656308412551880e-02) (244, 8.99185240268707275391e-02) (245, -3.25725637376308441162e-02) (246, -9.39541533589363098145e-02) (247, 4.52784914523363113403e-03) (248, -3.86638045310974121094e-02) (249, -1.79643899202346801758e-01) (250, 1.12439818680286407471e-01) (251, -4.71844114363193511963e-02) (252, -1.03162258863449096680e-01) (253, -7.55300605669617652893e-03) (254, 5.86898624897003173828e-02) (255, -6.07405137270689010620e-03) (256, 4.98050041496753692627e-02) (257, -9.17201489210128784180e-02) (258, -9.11490097641944885254e-02) (259, 7.25012719631195068359e-02) (260, -4.84030954539775848389e-02) (261, 3.89272384345531463623e-02) (262, 1.73104722052812576294e-02) (263, -2.02245503664016723633e-01) (264, 7.50881135463714599609e-02) (265, 1.75837092101573944092e-02) (266, -2.63375073671340942383e-01) (267, 1.27603337168693542480e-01) (268, 3.54326628148555755615e-02) (269, -9.65614020824432373047e-02) (270, -9.35589987784624099731e-03) (271, 9.88459810614585876465e-02) (272, -1.04420311748981475830e-01) (273, 3.51910144090652465820e-02) (274, 1.31720438599586486816e-01) (275, -4.17704358696937561035e-02) (276, -8.67111906409263610840e-02) (277, 1.29064321517944335938e-01) (278, 3.48926186561584472656e-02) (279, -8.34870710968971252441e-02) (280, 2.51267641782760620117e-01) (281, -4.22560609877109527588e-03) (282, -1.29521980881690979004e-01) (283, 2.96756803989410400391e-01) (284, -9.93927568197250366211e-02) (285, -2.37486705183982849121e-01) (286, 1.37738525867462158203e-01) (287, -1.46783441305160522461e-01) (288, -1.59199118614196777344e-01) (289, 1.38391688466072082520e-01) (290, -6.74064531922340393066e-02) (291, -3.05366236716508865356e-02) (292, 5.54353147745132446289e-02) (293, -1.76231965422630310059e-01) (294, 9.11925360560417175293e-02) (295, 1.21180675923824310303e-01) (296, -1.76338821649551391602e-01) (297, 5.78142516314983367920e-02) (298, 1.37190937995910644531e-01) (299, -1.18880167603492736816e-01) (300, 7.14852148666977882385e-03) (301, 3.66437971591949462891e-01) (302, -3.21696370840072631836e-01) (303, 1.26492813229560852051e-01) (304, 3.22643071413040161133e-01) (305, -3.97317409515380859375e-01) (306, 1.35409962385892868042e-02) (307, 2.71721094846725463867e-01) (308, -4.13321852684020996094e-01) (309, 1.18060093373060226440e-02) (310, 1.72687366604804992676e-01) (311, -2.48709693551063537598e-01) (312, -1.47252202033996582031e-01) (313, 2.60023832321166992188e-01) (314, -2.19740614295005798340e-01) (315, -2.32887148857116699219e-01) (316, 5.24360656738281250000e-01) (317, -2.77943968772888183594e-01) (318, -2.07519233226776123047e-01) (319, 2.90446251630783081055e-01) (320, -1.57384544610977172852e-01) (321, -2.57154405117034912109e-01) (322, 9.91068556904792785645e-02) (323, -3.33464145660400390625e-01) (324, -8.40368121862411499023e-03) (325, 1.25747874379158020020e-01) (326, -3.64068567752838134766e-01) (327, 5.33100515604019165039e-02) (328, 3.98468188941478729248e-02) (329, -4.36595827341079711914e-01) (330, 2.37142235040664672852e-01) (331, 3.02889615297317504883e-01) (332, -6.54969751834869384766e-01) (333, 4.14204776287078857422e-01) (334, 2.55612641572952270508e-01) (335, -6.22934877872467041016e-01) (336, 2.55881071090698242188e-01) (337, 2.74631053209304809570e-01) (338, -7.53496885299682617188e-01) (339, 1.43537372350692749023e-01) (340, 1.07494197785854339600e-01) (341, -6.30948305130004882812e-01) (342, -1.16944387555122375488e-01) (343, 1.97605460882186889648e-01) (344, -4.65823978185653686523e-01) (345, -4.60370212793350219727e-01) (346, -1.53151433914899826050e-02) (347, -2.71936237812042236328e-01) (348, -5.11722385883331298828e-01) (349, 2.25462708622217178345e-02) (350, -1.71676039695739746094e-01) (351, -5.17547547817230224609e-01) (352, -8.11402052640914916992e-02) (353, -5.66083252429962158203e-01) (354, -1.86040341854095458984e-01) (355, -1.46622925996780395508e-01) (356, -1.23897612094879150391e+00) (357, 3.13583493232727050781e-01) (358, -7.44849368929862976074e-02) (359, -2.20603084564208984375e+00) (360, -2.28086635470390319824e-02) (0, -2.40300759673118591309e-01) (1, 4.96221810579299926758e-01) (2, 8.72482284903526306152e-02) (3, -3.79008054733276367188e-01) (4, 2.61695593595504760742e-01) (5, -5.24714682251214981079e-03) (6, -2.12227821350097656250e-01) (7, 4.44188445806503295898e-01) (8, -5.59777878224849700928e-02) (9, -1.17397621273994445801e-01) (10, 2.06249102950096130371e-01) (11, 2.62248236685991287231e-02) (12, -1.60821884870529174805e-01) (13, 3.22212040424346923828e-01) (14, 1.70460566878318786621e-01) (15, -1.79002389311790466309e-01) (16, 2.85847157239913940430e-01) (17, 1.83701872825622558594e-01) (18, -4.46653127670288085938e-01) (19, 2.56012737751007080078e-01) (20, 1.93777546286582946777e-01) (21, -2.56841391324996948242e-01) (22, 8.23017731308937072754e-02) (23, 1.18101350963115692139e-01) (24, -1.92411571741104125977e-01) (25, 1.81876450777053833008e-01) (26, -1.47659525275230407715e-01) (27, 4.97272145003080368042e-03) (28, 2.71535098552703857422e-01) (29, 3.80967147648334503174e-02) (30, -3.66049110889434814453e-02) (31, 2.86359995603561401367e-01) (32, 3.46602424979209899902e-02) (33, -7.58676081895828247070e-02) (34, 1.58458769321441650391e-01) (35, 9.25322696566581726074e-02) (36, -2.04448208212852478027e-01) (37, 2.44515433907508850098e-01) (38, 1.91086649894714355469e-01) (39, -2.17292413115501403809e-01) (40, 3.01748245954513549805e-01) (41, 2.63586193323135375977e-01) (42, -3.06536387652158737183e-02) (43, 3.61035615205764770508e-01) (44, 2.04863250255584716797e-01) (45, 1.89563073217868804932e-02) (46, 3.45091044902801513672e-01) (47, 1.30430966615676879883e-01) (48, -5.33568337559700012207e-02) (49, 2.86867111921310424805e-01) (50, 7.63090848922729492188e-02) (51, -1.96313932538032531738e-01) (52, 1.89104542136192321777e-01) (53, 8.41933861374855041504e-02) (54, 3.21349166333675384521e-02) (55, 3.73645186424255371094e-01) (56, -1.34095162153244018555e-01) (57, -5.66506236791610717773e-02) (58, 4.54148441553115844727e-01) (59, 2.04854980111122131348e-01) (60, -3.20822656154632568359e-01) (61, 3.14545601606369018555e-01) (62, 1.88494846224784851074e-01) (63, -1.72140374779701232910e-01) (64, 2.09794715046882629395e-01) (65, 9.28679630160331726074e-02) (66, -1.52754575014114379883e-01) (67, 3.13316017389297485352e-01) (68, -7.32115209102630615234e-02) (69, -1.56070247292518615723e-01) (70, 2.47868061065673828125e-01) (71, 8.59655290842056274414e-02) (72, -3.26803416013717651367e-01) (73, 2.25978955626487731934e-01) (74, 4.29074168205261230469e-02) (75, -3.19221913814544677734e-01) (76, 2.72977679967880249023e-01) (77, -5.40044754743576049805e-02) (78, -4.45375293493270874023e-02) (79, 3.14203232526779174805e-01) (80, 1.97643670253455638885e-03) (81, -9.71204712986946105957e-02) (82, 3.42359572649002075195e-01) (83, -1.17780424654483795166e-01) (84, -2.12162494659423828125e-01) (85, 2.90593415498733520508e-01) (86, 4.96615394949913024902e-02) (87, -2.18779131770133972168e-01) (88, 3.38695883750915527344e-01) (89, 3.54772731661796569824e-02) (90, -6.60328269004821777344e-02) (91, 3.58236253261566162109e-01) (92, -2.18377858400344848633e-01) (93, 7.16005563735961914062e-02) (94, 3.22284221649169921875e-01) (95, -2.15676769614219665527e-01) (96, 9.13642160594463348389e-03) (97, 2.74718552827835083008e-01) (98, -3.19294810295104980469e-01) (99, 1.89179524779319763184e-01) (100, 1.76697015762329101562e-01) (101, -2.76324480772018432617e-01) (102, -3.82061451673507690430e-02) (103, 3.31271886825561523438e-01) (104, 4.50666397809982299805e-02) (105, -2.57964074611663818359e-01) (106, 4.58821117877960205078e-01) (107, 2.56060570478439331055e-01) (108, -2.12380826473236083984e-01) (109, 4.64964896440505981445e-01) (110, 3.77737164497375488281e-01) (111, -2.27346003055572509766e-01) (112, 3.04441571235656738281e-01) (113, 1.61670327186584472656e-01) (114, -1.95226311683654785156e-01) (115, 1.59485056996345520020e-01) (116, 3.87312322854995727539e-02) (117, -5.61696989461779594421e-03) (118, 2.06006746739149093628e-02) (119, -2.47644320130348205566e-01) (120, 3.60368818044662475586e-01) (121, 2.41334900259971618652e-01) (122, -3.72748851776123046875e-01) (123, 2.19117954373359680176e-01) (124, 4.00571376085281372070e-01) (125, -1.62692546844482421875e-01) (126, 2.98764288425445556641e-01) (127, 5.10852932929992675781e-01) (128, -2.71786838769912719727e-01) (129, 4.57502342760562896729e-02) (130, 6.17451786994934082031e-01) (131, -2.21102029085159301758e-01) (132, -1.31397992372512817383e-01) (133, 3.48626166582107543945e-01) (134, -3.81069093942642211914e-01) (135, -8.92609953880310058594e-02) (136, -1.98287531733512878418e-01) (137, -3.09196949005126953125e-01) (138, -3.17663997411727905273e-01) (139, -1.87631279230117797852e-01) (140, -6.40411600470542907715e-02) (141, -3.47777962684631347656e-01) (142, 1.84265285730361938477e-01) (143, 8.06310698390007019043e-02) (144, 2.61313114315271377563e-02) (145, 5.73447704315185546875e-01) (146, -1.25545397400856018066e-01) (147, 9.74210537970066070557e-03) (148, 3.93404036760330200195e-01) (149, -1.59666454419493675232e-03) (150, 9.72588881850242614746e-02) (151, 3.29923838376998901367e-01) (152, 4.15449999272823333740e-02) (153, 1.06994710862636566162e-01) (154, 2.88640588521957397461e-01) (155, 5.69924600422382354736e-02) (156, -2.31894612312316894531e-01) (157, 2.38024622201919555664e-01) (158, -3.99237833917140960693e-02) (159, -2.71193712949752807617e-01) (160, 3.58739048242568969727e-01) (161, -1.62379577755928039551e-01) (162, -1.48358885198831558228e-02) (163, 5.25533378124237060547e-01) (164, -4.30472716689109802246e-02) (165, 1.11658848822116851807e-01) (166, 2.53409892320632934570e-01) (167, -1.95932313799858093262e-01) (168, 9.13969352841377258301e-02) (169, 1.95359617471694946289e-01) (170, -1.38209149241447448730e-01) (171, -4.31826375424861907959e-02) (172, -1.53585914522409439087e-02) (173, -1.58634111285209655762e-01) (174, -2.01210677623748779297e-01) (175, 4.94709983468055725098e-02) (176, 1.10885664820671081543e-01) (177, -1.75502941012382507324e-01) (178, 1.57514259219169616699e-01) (179, 5.72797954082489013672e-02) (180, -1.78500279784202575684e-01) (181, 3.66458237171173095703e-01) (182, 1.02350458502769470215e-01) (183, -8.85754525661468505859e-02) (184, 2.11906582117080688477e-01) (185, -2.30710413306951522827e-02) (186, -1.38546779751777648926e-01) (187, -2.00697466731071472168e-01) (188, -2.53916382789611816406e-01) (189, 2.49224886298179626465e-01) (190, -1.80313497781753540039e-01) (191, -1.57081931829452514648e-01) (192, 2.00146332383155822754e-01) (193, 1.08936794102191925049e-01) (194, 4.21755053102970123291e-02) (195, 1.81224480271339416504e-01) (196, 1.88448578119277954102e-01) (197, -1.85889918357133865356e-02) (198, -2.05059722065925598145e-01) (199, 5.78927360475063323975e-02) (200, -4.31087147444486618042e-03) (201, -4.97281879186630249023e-01) (202, -8.47184192389249801636e-03) (203, -1.19905427098274230957e-01) (204, -4.56926345825195312500e-01) (205, -1.65394276380538940430e-01) (206, -2.55828678607940673828e-01) (207, -4.20043349266052246094e-01) (208, -2.11176350712776184082e-01) (209, -2.12893202900886535645e-01) (210, -2.70795375108718872070e-01) (211, 3.33942249417304992676e-02) (212, -1.09221331775188446045e-01) (213, -3.19542467594146728516e-01) (214, 1.45019650459289550781e-01) (215, -1.93559914827346801758e-01) (216, -3.50950449705123901367e-01) (217, 9.89650487899780273438e-02) (218, -9.40413475036621093750e-02) (219, -1.27069160342216491699e-01) (220, 2.33356818556785583496e-01) (221, -1.17224469780921936035e-01) (222, -9.29474085569381713867e-02) (223, 6.11532814800739288330e-02) (224, -1.62414759397506713867e-01) (225, -3.15866209566593170166e-02) (226, 4.25470620393753051758e-02) (227, -3.07932108640670776367e-01) (228, -1.92948073148727416992e-01) (229, -3.22577476501464843750e-01) (230, -2.25539147853851318359e-01) (231, -2.63137847185134887695e-01) (232, -3.29978555440902709961e-01) (233, -3.18167746067047119141e-01) (234, -4.64051038026809692383e-01) (235, -2.49128490686416625977e-02) (236, -2.17950925230979919434e-01) (237, -3.01215946674346923828e-01) (238, 1.51080846786499023438e-01) (239, -5.82969002425670623779e-03) (240, -2.56469368934631347656e-01) (241, 4.08296100795269012451e-02) (242, 8.15961789339780807495e-03) (243, -1.25449020415544509888e-02) (244, -2.94376146048307418823e-02) (245, 3.70435938239097595215e-02) (246, -2.24311910569667816162e-02) (247, 4.90761399269104003906e-01) (248, 4.39843609929084777832e-02) (249, -1.40375941991806030273e-01) (250, 4.19662028551101684570e-01) (251, -1.26121314242482185364e-02) (252, 1.91895831376314163208e-02) (253, 5.38226187229156494141e-01) (254, -8.56439024209976196289e-03) (255, -1.97494864463806152344e-01) (256, 3.83655339479446411133e-01) (257, -8.93250182271003723145e-02) (258, -2.49001204967498779297e-01) (259, 4.05060261487960815430e-01) (260, -7.80636966228485107422e-02) (261, -2.23279073834419250488e-01) (262, -1.36143803596496582031e-01) (263, -2.76445597410202026367e-01) (264, -5.71528337895870208740e-02) (265, -1.14086151123046875000e-01) (266, -5.42232334613800048828e-01) (267, 3.01957607269287109375e-01) (268, 1.55221670866012573242e-01) (269, -3.64548921585083007812e-01) (270, 3.14210712909698486328e-01) (271, 5.64142644405364990234e-01) (272, -3.32126349210739135742e-01) (273, 1.21753320097923278809e-01) (274, 5.95542462542653083801e-03) (275, -3.28629106283187866211e-01) (276, -2.82597750425338745117e-01) (277, -4.13090363144874572754e-02) (278, -1.58032119274139404297e-01) (279, -4.49586391448974609375e-01) (280, 6.57790973782539367676e-02) (281, -5.02665676176548004150e-02) (282, -5.90802907943725585938e-01) (283, 1.30593165755271911621e-01) (284, -4.43218871951103210449e-02) (285, -4.00615483522415161133e-01) (286, 1.82682797312736511230e-01) (287, 5.20845092833042144775e-02) (288, -1.33090987801551818848e-01) (289, 6.98683381080627441406e-01) (290, -1.00918702781200408936e-01) (291, -1.26912862062454223633e-01) (292, 5.72375804185867309570e-02) (293, -3.22787165641784667969e-01) (294, -1.14270895719528198242e-01) (295, -1.47383078932762145996e-01) (296, -3.45915794372558593750e-01) (297, -6.12170808017253875732e-02) (298, -3.44631463289260864258e-01) (299, -1.06853388249874114990e-01) (300, -1.91436037421226501465e-01) (301, -9.37204528599977493286e-03) (302, -1.09318159520626068115e-01) (303, -1.44751593470573425293e-01) (304, 8.48812833428382873535e-02) (305, 1.99571959674358367920e-02) (306, -2.91585236787796020508e-01) (307, -4.32883262634277343750e-01) (308, -1.60920515656471252441e-01) (309, -1.42149582505226135254e-01) (310, -1.58838763833045959473e-01) (311, -8.95698219537734985352e-02) (312, 8.65735113620758056641e-02) (313, -1.37553408741950988770e-01) (314, -3.12672734260559082031e-01) (315, 2.95438617467880249023e-01) (316, -1.93442195653915405273e-01) (317, -5.71640610694885253906e-01) (318, 2.89261966943740844727e-01) (319, -3.61304044723510742188e-01) (320, -6.48651957511901855469e-01) (321, 2.33412936329841613770e-01) (322, -3.59621018171310424805e-01) (323, -4.69240069389343261719e-01) (324, 2.77204453945159912109e-01) (325, -4.90220010280609130859e-01) (326, -2.91559636592864990234e-01) (327, 1.78731918334960937500e-01) (328, -7.43042454123497009277e-02) (329, -1.22576855123043060303e-01) (330, 1.61803737282752990723e-01) (331, 5.72258830070495605469e-01) (332, 5.46451918780803680420e-02) (333, 2.08412393927574157715e-01) (334, 8.31571936607360839844e-01) (335, 1.72636240720748901367e-01) (336, -1.43200205639004707336e-02) (337, 8.06777536869049072266e-01) (338, 6.86997324228286743164e-02) (339, -3.79403293132781982422e-01) (340, 5.69131314754486083984e-01) (341, 2.54514187574386596680e-01) (342, -3.32284718751907348633e-01) (343, 8.53720664978027343750e-01) (344, 4.75029677152633666992e-01) (345, -4.82752948999404907227e-01) (346, 6.87869668006896972656e-01) (347, 6.34086608886718750000e-01) (348, -7.81415641307830810547e-01) (349, 5.97106337547302246094e-01) (350, 1.02391791343688964844e+00) (351, -1.01295328140258789062e+00) (352, 8.42117905616760253906e-01) (353, 6.98562800884246826172e-01) (354, -8.06943595409393310547e-01) (355, 7.55923986434936523438e-01) (356, -6.68165624141693115234e-01) (357, 9.32711213827133178711e-02) (358, 1.07508189976215362549e-02) (359, -2.64074420928955078125e+00) (360, 2.48090720176696777344e+00) (0, -1.21975198388099670410e-01) (1, 5.31614720821380615234e-01) (2, -2.72939711809158325195e-01) (3, -1.91460743546485900879e-01) (4, 4.47425127029418945312e-01) (5, -4.75768387317657470703e-01) (6, 1.62808567285537719727e-01) (7, 4.73101705312728881836e-01) (8, -5.77990710735321044922e-01) (9, 6.13656034693121910095e-03) (10, 2.05130115151405334473e-01) (11, -2.50874251127243041992e-01) (12, -1.81892335414886474609e-01) (13, 1.87495917081832885742e-01) (14, -2.76835352182388305664e-01) (15, -1.32273778319358825684e-01) (16, 1.42571046948432922363e-01) (17, -1.21198289096355438232e-01) (18, -2.53780394792556762695e-01) (19, 6.81396350264549255371e-02) (20, -2.34074726700782775879e-01) (21, -1.53878241777420043945e-01) (22, 1.68334208428859710693e-02) (23, -2.13267117738723754883e-01) (24, -3.28584730625152587891e-01) (25, 3.63289088010787963867e-01) (26, -3.18598896265029907227e-01) (27, -7.18214511871337890625e-02) (28, 3.85327756404876708984e-01) (29, -2.14765548706054687500e-01) (30, -9.81195643544197082520e-02) (31, 3.87590497732162475586e-01) (32, -2.68065512180328369141e-01) (33, -1.32656857371330261230e-01) (34, 3.19696664810180664062e-01) (35, -3.30451995134353637695e-01) (36, -6.04866705834865570068e-02) (37, 3.07838737964630126953e-01) (38, -2.91701972484588623047e-01) (39, 1.88411064445972442627e-02) (40, 2.94294804334640502930e-01) (41, -3.77329021692276000977e-01) (42, 5.61920478940010070801e-02) (43, 5.44170081615447998047e-01) (44, -2.28012993931770324707e-01) (45, -9.57890078425407409668e-02) (46, 3.68321597576141357422e-01) (47, -1.65765807032585144043e-01) (48, -2.62294858694076538086e-01) (49, 4.21499371528625488281e-01) (50, -1.62908941507339477539e-01) (51, -3.25483024120330810547e-01) (52, 3.68586897850036621094e-01) (53, -4.02227073907852172852e-01) (54, -1.97682678699493408203e-01) (55, 5.96676945686340332031e-01) (56, -5.18004119396209716797e-01) (57, -2.19424396753311157227e-01) (58, 5.25740563869476318359e-01) (59, -1.93466618657112121582e-01) (60, -3.34565132856369018555e-01) (61, 4.06955540180206298828e-01) (62, -3.29857230186462402344e-01) (63, -9.63726118206977844238e-02) (64, 1.72877430915832519531e-01) (65, -5.19458889961242675781e-01) (66, -8.05170182138681411743e-03) (67, 2.27153435349464416504e-01) (68, -6.00361108779907226562e-01) (69, 8.81775245070457458496e-02) (70, 1.70032411813735961914e-01) (71, -5.49223363399505615234e-01) (72, -3.78604345023632049561e-02) (73, 2.51680701971054077148e-01) (74, -4.59733873605728149414e-01) (75, -6.86122253537178039551e-02) (76, 4.65732216835021972656e-01) (77, -3.68728935718536376953e-01) (78, -1.18403472006320953369e-01) (79, 3.86132776737213134766e-01) (80, -2.86807864904403686523e-01) (81, -1.13430023193359375000e-01) (82, 5.38651049137115478516e-01) (83, -3.72932463884353637695e-01) (84, -1.41328796744346618652e-01) (85, 3.69763582944869995117e-01) (86, -2.89805829524993896484e-01) (87, -1.07291050255298614502e-01) (88, 2.83606618642807006836e-01) (89, -1.79189518094062805176e-01) (90, -2.20064356923103332520e-01) (91, 3.46006125211715698242e-01) (92, -5.41337013244628906250e-01) (93, 1.61542311310768127441e-01) (94, 2.92946487665176391602e-01) (95, -5.72495281696319580078e-01) (96, 1.28218472003936767578e-01) (97, 2.22897171974182128906e-01) (98, -4.94586795568466186523e-01) (99, 2.52226352691650390625e-01) (100, 5.14095760881900787354e-02) (101, -5.23073017597198486328e-01) (102, 8.95249471068382263184e-02) (103, 2.63287603855133056641e-01) (104, -1.68252468109130859375e-01) (105, -6.50861188769340515137e-02) (106, 4.23072367906570434570e-01) (107, -3.99764813482761383057e-02) (108, -8.86165574193000793457e-02) (109, 6.16273283958435058594e-01) (110, 8.33513122051954269409e-03) (111, 6.78483545780181884766e-02) (112, 6.14373326301574707031e-01) (113, -1.96775555610656738281e-01) (114, 1.87186405062675476074e-01) (115, 4.65669929981231689453e-02) (116, -3.54306846857070922852e-01) (117, 1.97047337889671325684e-01) (118, -3.11427831649780273438e-01) (119, -4.82433378696441650391e-01) (120, 3.13454777002334594727e-01) (121, -2.07807980477809906006e-02) (122, -4.39227163791656494141e-01) (123, 3.70383471250534057617e-01) (124, 1.46469444036483764648e-01) (125, -3.32935750484466552734e-01) (126, 3.68791937828063964844e-01) (127, 6.03189468383789062500e-01) (128, -2.40242823958396911621e-01) (129, 1.85137405991554260254e-01) (130, 6.95323348045349121094e-01) (131, -2.23825395107269287109e-01) (132, 1.04088731110095977783e-01) (133, 4.62765127420425415039e-01) (134, -4.41414892673492431641e-01) (135, 8.99538248777389526367e-02) (136, -2.71364003419876098633e-01) (137, -4.63127493858337402344e-01) (138, -4.93803760036826133728e-03) (139, -4.23143714666366577148e-01) (140, -4.64581519365310668945e-01) (141, 8.67036543786525726318e-03) (142, 2.08885334432125091553e-02) (143, -3.05296659469604492188e-01) (144, 2.68646270036697387695e-01) (145, 6.98047637939453125000e-01) (146, -1.49388551712036132812e-01) (147, 2.09352225065231323242e-01) (148, 5.88570773601531982422e-01) (149, 1.01182132959365844727e-01) (150, -2.49249059706926345825e-02) (151, 6.88638508319854736328e-01) (152, -2.75651961565017700195e-02) (153, 1.46110743284225463867e-01) (154, 5.05734324455261230469e-01) (155, -5.48015795648097991943e-02) (156, -1.36703625321388244629e-01) (157, 2.16379940509796142578e-01) (158, -3.31413626670837402344e-01) (159, 2.17252492904663085938e-01) (160, 3.91694456338882446289e-01) (161, -6.37944161891937255859e-01) (162, 4.88759279251098632812e-01) (163, 7.48739600181579589844e-01) (164, -4.29375976324081420898e-01) (165, 3.87898057699203491211e-01) (166, 3.13350617885589599609e-01) (167, -4.21035975217819213867e-01) (168, -7.35722063109278678894e-03) (169, 3.86288240551948547363e-02) (170, -2.47575372457504272461e-01) (171, -1.71317100524902343750e-01) (172, 4.75865453481674194336e-02) (173, -6.89963996410369873047e-02) (174, -3.27694088220596313477e-01) (175, -4.66701202094554901123e-02) (176, -3.05566266179084777832e-02) (177, -1.15439981222152709961e-01) (178, 2.97004669904708862305e-01) (179, -7.01126875355839729309e-03) (180, -3.21521982550621032715e-02) (181, 1.93690985441207885742e-01) (182, -2.15502530336380004883e-01) (183, 5.29085248708724975586e-02) (184, 1.22808232903480529785e-01) (185, -4.05367434024810791016e-01) (186, 2.11719498038291931152e-01) (187, -3.88174578547477722168e-02) (188, -4.01206642389297485352e-01) (189, 5.79652965068817138672e-01) (190, 9.90571603178977966309e-02) (191, -2.92199879884719848633e-01) (192, 6.14860296249389648438e-01) (193, 4.43246245384216308594e-01) (194, 5.62469027936458587646e-02) (195, 4.46535915136337280273e-01) (196, 5.53766965866088867188e-01) (197, 6.97288811206817626953e-02) (198, 1.64821177721023559570e-01) (199, 3.89027416706085205078e-01) (200, 2.15385869145393371582e-01) (201, -1.68175116181373596191e-01) (202, -7.60918483138084411621e-02) (203, 5.73498941957950592041e-02) (204, 6.82379901409149169922e-02) (205, -3.27613055706024169922e-01) (206, -2.56123036146163940430e-01) (207, 2.23864265717566013336e-03) (208, -3.56692254543304443359e-01) (209, -4.32620346546173095703e-01) (210, 1.98162242770195007324e-01) (211, 5.45616820454597473145e-02) (212, -3.58517199754714965820e-01) (213, 3.24769198894500732422e-01) (214, -8.78207664936780929565e-03) (215, -2.81640470027923583984e-01) (216, 1.49615198373794555664e-01) (217, 1.13545745611190795898e-01) (218, 8.10127854347229003906e-02) (219, 2.08394616842269897461e-01) (220, 5.53536154329776763916e-02) (221, 7.73431733250617980957e-02) (222, -2.97742132097482681274e-02) (223, -2.47090533375740051270e-01) (224, 9.22367870807647705078e-02) (225, 1.12530671060085296631e-01) (226, -9.46494489908218383789e-02) (227, -6.63009807467460632324e-02) (228, 8.32788869738578796387e-02) (229, -8.78902673721313476562e-02) (230, 2.04818293452262878418e-01) (231, 2.32133388519287109375e-01) (232, 7.88179878145456314087e-03) (233, 1.13348662853240966797e-01) (234, 1.39961257576942443848e-01) (235, 1.83149456977844238281e-01) (236, 2.01060548424720764160e-01) (237, 6.92898035049438476562e-02) (238, 2.65177965164184570312e-01) (239, 3.61712038516998291016e-01) (240, 1.22811496257781982422e-01) (241, 2.89723753929138183594e-01) (242, 2.27746233344078063965e-01) (243, 3.22946272790431976318e-02) (244, -8.17013159394264221191e-02) (245, 2.09563508629798889160e-01) (246, -2.90128495544195175171e-02) (247, 3.88211935758590698242e-01) (248, 1.58808454871177673340e-01) (249, -9.29450988769531250000e-02) (250, 4.83013838529586791992e-02) (251, -4.56213504076004028320e-02) (252, -5.73511756956577301025e-02) (253, -5.67167736589908599854e-02) (254, -1.78458709269762039185e-02) (255, 1.15436978638172149658e-01) (256, -1.03854224085807800293e-01) (257, 5.48743642866611480713e-02) (258, 1.24205656349658966064e-01) (259, -1.40351653099060058594e-01) (260, 4.52219471335411071777e-02) (261, 1.55443008989095687866e-02) (262, -5.10181248188018798828e-01) (263, 5.02008497714996337891e-02) (264, -1.31075441837310791016e-01) (265, -3.02428752183914184570e-01) (266, -1.02448515594005584717e-01) (267, 