FANN_FLO_2.1
num_layers=4
learning_rate=0.100000
connection_rate=1.000000
network_type=0
learning_momentum=0.800000
training_algorithm=0
train_error_function=1
train_stop_function=0
cascade_output_change_fraction=0.010000
quickprop_decay=-0.000100
quickprop_mu=1.750000
rprop_increase_factor=1.200000
rprop_decrease_factor=0.500000
rprop_delta_min=0.000000
rprop_delta_max=50.000000
rprop_delta_zero=0.100000
cascade_output_stagnation_epochs=12
cascade_candidate_change_fraction=0.010000
cascade_candidate_stagnation_epochs=12
cascade_max_out_epochs=150
cascade_min_out_epochs=10
cascade_max_cand_epochs=150
cascade_min_cand_epochs=10
cascade_num_candidate_groups=2
bit_fail_limit=3.49999994039535522461e-01
cascade_candidate_limit=1.00000000000000000000e+03
cascade_weight_multiplier=4.00000005960464477539e-01
cascade_activation_functions_count=10
cascade_activation_functions=3 5 7 8 10 11 14 15 16 17 
cascade_activation_steepnesses_count=4
cascade_activation_steepnesses=2.50000000000000000000e-01 5.00000000000000000000e-01 7.50000000000000000000e-01 1.00000000000000000000e+00 
layer_sizes=361 51 26 2 
scale_included=0
neurons (num_inputs, activation_function, activation_steepness)=(0, 0, 0.00000000000000000000e+00) (0, 0, 0.00000000000000000000e+00) (0, 0, 0.00000000000000000000e+00) (0, 0, 0.00000000000000000000e+00) (0, 0, 0.00000000000000000000e+00) (0, 0, 0.00000000000000000000e+00) (0, 0, 0.00000000000000000000e+00) (0, 0, 0.00000000000000000000e+00) (0, 0, 0.00000000000000000000e+00) (0, 0, 0.00000000000000000000e+00) (0, 0, 0.00000000000000000000e+00) (0, 0, 0.00000000000000000000e+00) (0, 0, 0.00000000000000000000e+00) (0, 0, 0.00000000000000000000e+00) (0, 0, 0.00000000000000000000e+00) (0, 0, 0.00000000000000000000e+00) (0, 0, 0.00000000000000000000e+00) (0, 0, 0.00000000000000000000e+00) (0, 0, 0.00000000000000000000e+00) (0, 0, 0.00000000000000000000e+00) (0, 0, 0.00000000000000000000e+00) (0, 0, 0.00000000000000000000e+00) (0, 0, 0.00000000000000000000e+00) (0, 0, 0.00000000000000000000e+00) (0, 0, 0.00000000000000000000e+00) (0, 0, 0.00000000000000000000e+00) (0, 0, 0.00000000000000000000e+00) (0, 0, 0.00000000000000000000e+00) (0, 0, 0.00000000000000000000e+00) (0, 0, 0.00000000000000000000e+00) (0, 0, 0.00000000000000000000e+00) (0, 0, 0.00000000000000000000e+00) (0, 0, 0.00000000000000000000e+00) (0, 0, 0.00000000000000000000e+00) (0, 0, 0.00000000000000000000e+00) (0, 0, 0.00000000000000000000e+00) (0, 0, 0.00000000000000000000e+00) (0, 0, 0.00000000000000000000e+00) (0, 0, 0.00000000000000000000e+00) (0, 0, 0.00000000000000000000e+00) (0, 0, 0.00000000000000000000e+00) (0, 0, 0.00000000000000000000e+00) (0, 0, 0.00000000000000000000e+00) (0, 0, 0.00000000000000000000e+00) (0, 0, 0.00000000000000000000e+00) (0, 0, 0.00000000000000000000e+00) (0, 0, 0.00000000000000000000e+00) (0, 0, 0.00000000000000000000e+00) (0, 0, 0.00000000000000000000e+00) (0, 0, 0.00000000000000000000e+00) (0, 0, 0.00000000000000000000e+00) (0, 0, 0.00000000000000000000e+00) (0, 0, 0.00000000000000000000e+00) (0, 0, 0.00000000000000000000e+00) (0, 0, 0.00000000000000000000e+00) (0, 0, 0.00000000000000000000e+00) (0, 0, 0.00000000000000000000e+00) (0, 0, 0.00000000000000000000e+00) (0, 0, 0.00000000000000000000e+00) (0, 0, 0.00000000000000000000e+00) (0, 0, 0.00000000000000000000e+00) (0, 0, 0.00000000000000000000e+00) (0, 0, 0.00000000000000000000e+00) (0, 0, 0.00000000000000000000e+00) (0, 0, 0.00000000000000000000e+00) (0, 0, 0.00000000000000000000e+00) (0, 0, 0.00000000000000000000e+00) (0, 0, 0.00000000000000000000e+00) (0, 0, 0.00000000000000000000e+00) (0, 0, 0.00000000000000000000e+00) (0, 0, 0.00000000000000000000e+00) (0, 0, 0.00000000000000000000e+00) (0, 0, 0.00000000000000000000e+00) (0, 0, 0.00000000000000000000e+00) (0, 0, 0.00000000000000000000e+00) (0, 0, 0.00000000000000000000e+00) (0, 0, 0.00000000000000000000e+00) (0, 0, 0.00000000000000000000e+00) (0, 0, 0.00000000000000000000e+00) (0, 0, 0.00000000000000000000e+00) (0, 0, 0.00000000000000000000e+00) (0, 0, 0.00000000000000000000e+00) (0, 0, 0.00000000000000000000e+00) (0, 0, 0.00000000000000000000e+00) (0, 0, 0.00000000000000000000e+00) (0, 0, 0.00000000000000000000e+00) (0, 0, 0.00000000000000000000e+00) (0, 0, 0.00000000000000000000e+00) (0, 0, 0.00000000000000000000e+00) (0, 0, 0.00000000000000000000e+00) (0, 0, 0.00000000000000000000e+00) (0, 0, 0.00000000000000000000e+00) (0, 0, 0.00000000000000000000e+00) (0, 0, 0.00000000000000000000e+00) (0, 0, 0.00000000000000000000e+00) (0, 0, 0.00000000000000000000e+00) (0, 0, 0.00000000000000000000e+00) (0, 0, 0.00000000000000000000e+00) (0, 0, 0.00000000000000000000e+00) (0, 0, 0.00000000000000000000e+00) (0, 0, 0.00000000000000000000e+00) (0, 0, 0.00000000000000000000e+00) (0, 0, 0.00000000000000000000e+00) (0, 0, 0.00000000000000000000e+00) (0, 0, 0.00000000000000000000e+00) (0, 0, 0.00000000000000000000e+00) (0, 0, 0.00000000000000000000e+00) (0, 0, 0.00000000000000000000e+00) (0, 0, 0.00000000000000000000e+00) (0, 0, 0.00000000000000000000e+00) (0, 0, 0.00000000000000000000e+00) (0, 0, 0.00000000000000000000e+00) (0, 0, 0.00000000000000000000e+00) (0, 0, 0.00000000000000000000e+00) (0, 0, 0.00000000000000000000e+00) (0, 0, 0.00000000000000000000e+00) (0, 0, 0.00000000000000000000e+00) (0, 0, 0.00000000000000000000e+00) (0, 0, 0.00000000000000000000e+00) (0, 0, 0.00000000000000000000e+00) (0, 0, 0.00000000000000000000e+00) (0, 0, 0.00000000000000000000e+00) (0, 0, 0.00000000000000000000e+00) (0, 0, 0.00000000000000000000e+00) (0, 0, 0.00000000000000000000e+00) (0, 0, 0.00000000000000000000e+00) (0, 0, 0.00000000000000000000e+00) (0, 0, 0.00000000000000000000e+00) (0, 0, 0.00000000000000000000e+00) (0, 0, 0.00000000000000000000e+00) (0, 0, 0.00000000000000000000e+00) (0, 0, 0.00000000000000000000e+00) (0, 0, 0.00000000000000000000e+00) (0, 0, 0.00000000000000000000e+00) (0, 0, 0.00000000000000000000e+00) (0, 0, 0.00000000000000000000e+00) (0, 0, 0.00000000000000000000e+00) (0, 0, 0.00000000000000000000e+00) (0, 0, 0.00000000000000000000e+00) (0, 0, 0.00000000000000000000e+00) (0, 0, 0.00000000000000000000e+00) (0, 0, 0.00000000000000000000e+00) (0, 0, 0.00000000000000000000e+00) (0, 0, 0.00000000000000000000e+00) (0, 0, 0.00000000000000000000e+00) (0, 0, 0.00000000000000000000e+00) (0, 0, 0.00000000000000000000e+00) (0, 0, 0.00000000000000000000e+00) (0, 0, 0.00000000000000000000e+00) (0, 0, 0.00000000000000000000e+00) (0, 0, 0.00000000000000000000e+00) (0, 0, 0.00000000000000000000e+00) (0, 0, 0.00000000000000000000e+00) (0, 0, 0.00000000000000000000e+00) (0, 0, 0.00000000000000000000e+00) (0, 0, 0.00000000000000000000e+00) (0, 0, 0.00000000000000000000e+00) (0, 0, 0.00000000000000000000e+00) (0, 0, 0.00000000000000000000e+00) (0, 0, 0.00000000000000000000e+00) (0, 0, 0.00000000000000000000e+00) (0, 0, 0.00000000000000000000e+00) (0, 0, 0.00000000000000000000e+00) (0, 0, 0.00000000000000000000e+00) (0, 0, 0.00000000000000000000e+00) (0, 0, 0.00000000000000000000e+00) (0, 0, 0.00000000000000000000e+00) (0, 0, 0.00000000000000000000e+00) (0, 0, 0.00000000000000000000e+00) (0, 0, 0.00000000000000000000e+00) (0, 0, 0.00000000000000000000e+00) (0, 0, 0.00000000000000000000e+00) (0, 0, 0.00000000000000000000e+00) (0, 0, 0.00000000000000000000e+00) (0, 0, 0.00000000000000000000e+00) (0, 0, 0.00000000000000000000e+00) (0, 0, 0.00000000000000000000e+00) (0, 0, 0.00000000000000000000e+00) (0, 0, 0.00000000000000000000e+00) (0, 0, 0.00000000000000000000e+00) (0, 0, 0.00000000000000000000e+00) (0, 0, 0.00000000000000000000e+00) (0, 0, 0.00000000000000000000e+00) (0, 0, 0.00000000000000000000e+00) (0, 0, 0.00000000000000000000e+00) (0, 0, 0.00000000000000000000e+00) (0, 0, 0.00000000000000000000e+00) (0, 0, 0.00000000000000000000e+00) (0, 0, 0.00000000000000000000e+00) (0, 0, 0.00000000000000000000e+00) (0, 0, 0.00000000000000000000e+00) (0, 0, 0.00000000000000000000e+00) (0, 0, 0.00000000000000000000e+00) (0, 0, 0.00000000000000000000e+00) (0, 0, 0.00000000000000000000e+00) (0, 0, 0.00000000000000000000e+00) (0, 0, 0.00000000000000000000e+00) (0, 0, 0.00000000000000000000e+00) (0, 0, 0.00000000000000000000e+00) (0, 0, 0.00000000000000000000e+00) (0, 0, 0.00000000000000000000e+00) (0, 0, 0.00000000000000000000e+00) (0, 0, 0.00000000000000000000e+00) (0, 0, 0.00000000000000000000e+00) (0, 0, 0.00000000000000000000e+00) (0, 0, 0.00000000000000000000e+00) (0, 0, 0.00000000000000000000e+00) (0, 0, 0.00000000000000000000e+00) (0, 0, 0.00000000000000000000e+00) (0, 0, 0.00000000000000000000e+00) (0, 0, 0.00000000000000000000e+00) (0, 0, 0.00000000000000000000e+00) (0, 0, 0.00000000000000000000e+00) (0, 0, 0.00000000000000000000e+00) (0, 0, 0.00000000000000000000e+00) (0, 0, 0.00000000000000000000e+00) (0, 0, 0.00000000000000000000e+00) (0, 0, 0.00000000000000000000e+00) (0, 0, 0.00000000000000000000e+00) (0, 0, 0.00000000000000000000e+00) (0, 0, 0.00000000000000000000e+00) (0, 0, 0.00000000000000000000e+00) (0, 0, 0.00000000000000000000e+00) (0, 0, 0.00000000000000000000e+00) (0, 0, 0.00000000000000000000e+00) (0, 0, 0.00000000000000000000e+00) (0, 0, 0.00000000000000000000e+00) (0, 0, 0.00000000000000000000e+00) (0, 0, 0.00000000000000000000e+00) (0, 0, 0.00000000000000000000e+00) (0, 0, 0.00000000000000000000e+00) (0, 0, 0.00000000000000000000e+00) (0, 0, 0.00000000000000000000e+00) (0, 0, 0.00000000000000000000e+00) (0, 0, 0.00000000000000000000e+00) (0, 0, 0.00000000000000000000e+00) (0, 0, 0.00000000000000000000e+00) (0, 0, 0.00000000000000000000e+00) (0, 0, 0.00000000000000000000e+00) (0, 0, 0.00000000000000000000e+00) (0, 0, 0.00000000000000000000e+00) (0, 0, 0.00000000000000000000e+00) (0, 0, 0.00000000000000000000e+00) (0, 0, 0.00000000000000000000e+00) (0, 0, 0.00000000000000000000e+00) (0, 0, 0.00000000000000000000e+00) (0, 0, 0.00000000000000000000e+00) (0, 0, 0.00000000000000000000e+00) (0, 0, 0.00000000000000000000e+00) (0, 0, 0.00000000000000000000e+00) (0, 0, 0.00000000000000000000e+00) (0, 0, 0.00000000000000000000e+00) (0, 0, 0.00000000000000000000e+00) (0, 0, 0.00000000000000000000e+00) (0, 0, 0.00000000000000000000e+00) (0, 0, 0.00000000000000000000e+00) (0, 0, 0.00000000000000000000e+00) (0, 0, 0.00000000000000000000e+00) (0, 0, 0.00000000000000000000e+00) (0, 0, 0.00000000000000000000e+00) (0, 0, 0.00000000000000000000e+00) (0, 0, 0.00000000000000000000e+00) (0, 0, 0.00000000000000000000e+00) (0, 0, 0.00000000000000000000e+00) (0, 0, 0.00000000000000000000e+00) (0, 0, 0.00000000000000000000e+00) (0, 0, 0.00000000000000000000e+00) (0, 0, 0.00000000000000000000e+00) (0, 0, 0.00000000000000000000e+00) (0, 0, 0.00000000000000000000e+00) (0, 0, 0.00000000000000000000e+00) (0, 0, 0.00000000000000000000e+00) (0, 0, 0.00000000000000000000e+00) (0, 0, 0.00000000000000000000e+00) (0, 0, 0.00000000000000000000e+00) (0, 0, 0.00000000000000000000e+00) (0, 0, 0.00000000000000000000e+00) (0, 0, 0.00000000000000000000e+00) (0, 0, 0.00000000000000000000e+00) (0, 0, 0.00000000000000000000e+00) (0, 0, 0.00000000000000000000e+00) (0, 0, 0.00000000000000000000e+00) (0, 0, 0.00000000000000000000e+00) (0, 0, 0.00000000000000000000e+00) (0, 0, 0.00000000000000000000e+00) (0, 0, 0.00000000000000000000e+00) (0, 0, 0.00000000000000000000e+00) (0, 0, 0.00000000000000000000e+00) (0, 0, 0.00000000000000000000e+00) (0, 0, 0.00000000000000000000e+00) (0, 0, 0.00000000000000000000e+00) (0, 0, 0.00000000000000000000e+00) (0, 0, 0.00000000000000000000e+00) (0, 0, 0.00000000000000000000e+00) (0, 0, 0.00000000000000000000e+00) (0, 0, 0.00000000000000000000e+00) (0, 0, 0.00000000000000000000e+00) (0, 0, 0.00000000000000000000e+00) (0, 0, 0.00000000000000000000e+00) (0, 0, 0.00000000000000000000e+00) (0, 0, 0.00000000000000000000e+00) (0, 0, 0.00000000000000000000e+00) (0, 0, 0.00000000000000000000e+00) (0, 0, 0.00000000000000000000e+00) (0, 0, 0.00000000000000000000e+00) (0, 0, 0.00000000000000000000e+00) (0, 0, 0.00000000000000000000e+00) (0, 0, 0.00000000000000000000e+00) (0, 0, 0.00000000000000000000e+00) (0, 0, 0.00000000000000000000e+00) (0, 0, 0.00000000000000000000e+00) (0, 0, 0.00000000000000000000e+00) (0, 0, 0.00000000000000000000e+00) (0, 0, 0.00000000000000000000e+00) (0, 0, 0.00000000000000000000e+00) (0, 0, 0.00000000000000000000e+00) (0, 0, 0.00000000000000000000e+00) (0, 0, 0.00000000000000000000e+00) (0, 0, 0.00000000000000000000e+00) (0, 0, 0.00000000000000000000e+00) (0, 0, 0.00000000000000000000e+00) (0, 0, 0.00000000000000000000e+00) (0, 0, 0.00000000000000000000e+00) (0, 0, 0.00000000000000000000e+00) (0, 0, 0.00000000000000000000e+00) (0, 0, 0.00000000000000000000e+00) (0, 0, 0.00000000000000000000e+00) (0, 0, 0.00000000000000000000e+00) (0, 0, 0.00000000000000000000e+00) (0, 0, 0.00000000000000000000e+00) (0, 0, 0.00000000000000000000e+00) (0, 0, 0.00000000000000000000e+00) (0, 0, 0.00000000000000000000e+00) (0, 0, 0.00000000000000000000e+00) (0, 0, 0.00000000000000000000e+00) (0, 0, 0.00000000000000000000e+00) (0, 0, 0.00000000000000000000e+00) (0, 0, 0.00000000000000000000e+00) (0, 0, 0.00000000000000000000e+00) (0, 0, 0.00000000000000000000e+00) (0, 0, 0.00000000000000000000e+00) (0, 0, 0.00000000000000000000e+00) (0, 0, 0.00000000000000000000e+00) (0, 0, 0.00000000000000000000e+00) (0, 0, 0.00000000000000000000e+00) (0, 0, 0.00000000000000000000e+00) (0, 0, 0.00000000000000000000e+00) (0, 0, 0.00000000000000000000e+00) (0, 0, 0.00000000000000000000e+00) (0, 0, 0.00000000000000000000e+00) (0, 0, 0.00000000000000000000e+00) (0, 0, 0.00000000000000000000e+00) (0, 0, 0.00000000000000000000e+00) (0, 0, 0.00000000000000000000e+00) (0, 0, 0.00000000000000000000e+00) (0, 0, 0.00000000000000000000e+00) (0, 0, 0.00000000000000000000e+00) (0, 0, 0.00000000000000000000e+00) (0, 0, 0.00000000000000000000e+00) (0, 0, 0.00000000000000000000e+00) (0, 0, 0.00000000000000000000e+00) (361, 10, 5.00000000000000000000e-01) (361, 10, 5.00000000000000000000e-01) (361, 10, 5.00000000000000000000e-01) (361, 10, 5.00000000000000000000e-01) (361, 10, 5.00000000000000000000e-01) (361, 10, 5.00000000000000000000e-01) (361, 10, 5.00000000000000000000e-01) (361, 10, 5.00000000000000000000e-01) (361, 10, 5.00000000000000000000e-01) (361, 10, 5.00000000000000000000e-01) (361, 10, 5.00000000000000000000e-01) (361, 10, 5.00000000000000000000e-01) (361, 10, 5.00000000000000000000e-01) (361, 10, 5.00000000000000000000e-01) (361, 10, 5.00000000000000000000e-01) (361, 10, 5.00000000000000000000e-01) (361, 10, 5.00000000000000000000e-01) (361, 10, 5.00000000000000000000e-01) (361, 10, 5.00000000000000000000e-01) (361, 10, 5.00000000000000000000e-01) (361, 10, 5.00000000000000000000e-01) (361, 10, 5.00000000000000000000e-01) (361, 10, 5.00000000000000000000e-01) (361, 10, 5.00000000000000000000e-01) (361, 10, 5.00000000000000000000e-01) (361, 10, 5.00000000000000000000e-01) (361, 10, 5.00000000000000000000e-01) (361, 10, 5.00000000000000000000e-01) (361, 10, 5.00000000000000000000e-01) (361, 10, 5.00000000000000000000e-01) (361, 10, 5.00000000000000000000e-01) (361, 10, 5.00000000000000000000e-01) (361, 10, 5.00000000000000000000e-01) (361, 10, 5.00000000000000000000e-01) (361, 10, 5.00000000000000000000e-01) (361, 10, 5.00000000000000000000e-01) (361, 10, 5.00000000000000000000e-01) (361, 10, 5.00000000000000000000e-01) (361, 10, 5.00000000000000000000e-01) (361, 10, 5.00000000000000000000e-01) (361, 10, 5.00000000000000000000e-01) (361, 10, 5.00000000000000000000e-01) (361, 10, 5.00000000000000000000e-01) (361, 10, 5.00000000000000000000e-01) (361, 10, 5.00000000000000000000e-01) (361, 10, 5.00000000000000000000e-01) (361, 10, 5.00000000000000000000e-01) (361, 10, 5.00000000000000000000e-01) (361, 10, 5.00000000000000000000e-01) (361, 10, 5.00000000000000000000e-01) (0, 10, 0.00000000000000000000e+00) (51, 10, 5.00000000000000000000e-01) (51, 10, 5.00000000000000000000e-01) (51, 10, 5.00000000000000000000e-01) (51, 10, 5.00000000000000000000e-01) (51, 10, 5.00000000000000000000e-01) (51, 10, 5.00000000000000000000e-01) (51, 10, 5.00000000000000000000e-01) (51, 10, 5.00000000000000000000e-01) (51, 10, 5.00000000000000000000e-01) (51, 10, 5.00000000000000000000e-01) (51, 10, 5.00000000000000000000e-01) (51, 10, 5.00000000000000000000e-01) (51, 10, 5.00000000000000000000e-01) (51, 10, 5.00000000000000000000e-01) (51, 10, 5.00000000000000000000e-01) (51, 10, 5.00000000000000000000e-01) (51, 10, 5.00000000000000000000e-01) (51, 10, 5.00000000000000000000e-01) (51, 10, 5.00000000000000000000e-01) (51, 10, 5.00000000000000000000e-01) (51, 10, 5.00000000000000000000e-01) (51, 10, 5.00000000000000000000e-01) (51, 10, 5.00000000000000000000e-01) (51, 10, 5.00000000000000000000e-01) (51, 10, 5.00000000000000000000e-01) (0, 10, 0.00000000000000000000e+00) (26, 0, 5.00000000000000000000e-01) (0, 0, 0.00000000000000000000e+00) 
connections (connected_to_neuron, weight)=(0, -1.23825892806053161621e-01) (1, 2.46451750397682189941e-01) (2, -1.35155722498893737793e-01) (3, -1.62677302956581115723e-01) (4, 1.45916774868965148926e-01) (5, -2.30134040117263793945e-01) (6, 4.17822562158107757568e-02) (7, 1.25032812356948852539e-01) (8, -2.54683881998062133789e-01) (9, -1.54439909383654594421e-02) (10, 1.80601868778467178345e-02) (11, -1.68337132781744003296e-02) (12, -4.35761585831642150879e-02) (13, 8.61939638853073120117e-02) (14, 2.85838749259710311890e-02) (15, -1.18266567587852478027e-01) (16, -2.96197999268770217896e-02) (17, -7.93669149279594421387e-02) (18, -1.20405301451683044434e-01) (19, 1.00776523351669311523e-01) (20, -6.16928786039352416992e-02) (21, 1.45798204466700553894e-02) (22, 2.66688074916601181030e-02) (23, -1.17041632533073425293e-01) (24, -4.89933080971240997314e-02) (25, 1.06885790824890136719e-01) (26, -2.98230707645416259766e-01) (27, 5.34322373569011688232e-02) (28, 8.35000574588775634766e-02) (29, -7.44576603174209594727e-02) (30, 1.01465441286563873291e-01) (31, -4.51367609202861785889e-02) (32, -7.08240196108818054199e-02) (33, -8.53415802121162414551e-02) (34, 3.68111841380596160889e-02) (35, -7.53586068749427795410e-02) (36, -7.98798426985740661621e-02) (37, 4.02447618544101715088e-02) (38, 9.53017622232437133789e-02) (39, -1.07971481978893280029e-01) (40, 1.23535245656967163086e-01) (41, 1.22121395543217658997e-03) (42, -7.81268030405044555664e-02) (43, 1.55420482158660888672e-01) (44, 9.36804711818695068359e-02) (45, -1.49869443848729133606e-02) (46, 7.84930288791656494141e-02) (47, -9.87668856978416442871e-02) (48, 7.13094472885131835938e-02) (49, -7.21811503171920776367e-02) (50, -1.41853213310241699219e-01) (51, -2.66537405550479888916e-02) (52, 8.48841369152069091797e-02) (53, 2.15743132866919040680e-03) (54, 1.05014726519584655762e-01) (55, 5.63628450036048889160e-02) (56, -4.54152114689350128174e-02) (57, 5.99605552852153778076e-02) (58, 1.62361681461334228516e-01) (59, 7.37589299678802490234e-02) (60, -1.83436930179595947266e-01) (61, 2.80122339725494384766e-01) (62, 1.33646562695503234863e-01) (63, -2.55164295434951782227e-01) (64, 5.41386008262634277344e-02) (65, -5.78525513410568237305e-02) (66, -1.23452372848987579346e-01) (67, 1.86904147267341613770e-01) (68, -2.45354957878589630127e-02) (69, -1.09847471117973327637e-01) (70, 8.64868313074111938477e-02) (71, 1.15004509687423706055e-01) (72, -1.73417553305625915527e-01) (73, 1.79036095738410949707e-01) (74, -8.97808745503425598145e-02) (75, -1.14855363965034484863e-01) (76, 1.77414953708648681641e-01) (77, -8.60253274440765380859e-02) (78, 7.99853354692459106445e-03) (79, 3.25642824172973632812e-01) (80, -5.18662035465240478516e-02) (81, 8.48388150334358215332e-02) (82, 3.50523412227630615234e-01) (83, -1.35402187705039978027e-01) (84, 6.97110369801521301270e-02) (85, 1.98012709617614746094e-01) (86, -8.02786275744438171387e-02) (87, 4.27102390676736831665e-03) (88, 2.76557236909866333008e-01) (89, 1.00872563198208808899e-02) (90, -1.14259295165538787842e-01) (91, 1.05433985590934753418e-01) (92, -2.91918721050024032593e-02) (93, -9.17898789048194885254e-02) (94, 1.23473249375820159912e-01) (95, -2.24554166197776794434e-03) (96, -1.18386663496494293213e-01) (97, 8.89384523034095764160e-02) (98, -9.62526053190231323242e-02) (99, 2.80445124953985214233e-02) (100, 1.97466269135475158691e-01) (101, 3.48073430359363555908e-03) (102, 2.36887894570827484131e-02) (103, 2.06882297992706298828e-01) (104, 8.84834527969360351562e-02) (105, -2.47768685221672058105e-02) (106, 3.52912306785583496094e-01) (107, 2.22427964210510253906e-01) (108, -1.54446288943290710449e-01) (109, 2.96430677175521850586e-01) (110, 2.27939277887344360352e-01) (111, 3.57531681656837463379e-02) (112, 1.90030246973037719727e-01) (113, 1.64180055260658264160e-01) (114, -1.27030566334724426270e-01) (115, 1.94935724139213562012e-01) (116, -1.08998335897922515869e-01) (117, 1.29388079047203063965e-01) (118, -3.08400988578796386719e-02) (119, -5.93732111155986785889e-02) (120, 1.73982977867126464844e-01) (121, 1.78162500262260437012e-01) (122, -2.37143322825431823730e-01) (123, 1.01220823824405670166e-01) (124, 2.45873630046844482422e-01) (125, -4.92109879851341247559e-02) (126, -1.88453756272792816162e-02) (127, 4.94339644908905029297e-01) (128, -2.13234126567840576172e-02) (129, -4.52338084578514099121e-02) (130, 4.47915345430374145508e-01) (131, -9.32437554001808166504e-02) (132, -1.15192890167236328125e-01) (133, 3.08631002902984619141e-01) (134, -1.02321252226829528809e-01) (135, -1.40806853771209716797e-01) (136, -3.04425694048404693604e-02) (137, -1.13384634256362915039e-01) (138, -2.10681527853012084961e-01) (139, -2.07122992724180221558e-02) (140, 9.79586225003004074097e-03) (141, -4.46518883109092712402e-02) (142, 1.42255932092666625977e-01) (143, -1.30045175552368164062e-01) (144, 8.02862867712974548340e-02) (145, 4.70737367868423461914e-01) (146, -1.74524448812007904053e-02) (147, 1.13898590207099914551e-01) (148, 3.16858857870101928711e-01) (149, 8.44136700034141540527e-02) (150, 7.11009278893470764160e-02) (151, 1.97846874594688415527e-01) (152, -2.05279011279344558716e-02) (153, -1.63310453295707702637e-01) (154, 2.11590632796287536621e-01) (155, 1.72384560108184814453e-01) (156, -2.61904418468475341797e-01) (157, 2.53878474235534667969e-01) (158, 3.45691181719303131104e-02) (159, -2.89103239774703979492e-01) (160, 3.05048704147338867188e-01) (161, -1.45844325423240661621e-01) (162, -9.62820425629615783691e-02) (163, 4.45536255836486816406e-01) (164, -4.32643182575702667236e-02) (165, 1.64217516779899597168e-01) (166, 4.22301381826400756836e-01) (167, -1.07117202132940292358e-02) (168, 2.19956822693347930908e-02) (169, 3.30745518207550048828e-01) (170, 1.18280574679374694824e-01) (171, -7.03951120376586914062e-02) (172, 2.43006691336631774902e-01) (173, 1.14004798233509063721e-02) (174, -1.07681430876255035400e-01) (175, 1.66837766766548156738e-01) (176, 4.18756529688835144043e-02) (177, -1.79501727223396301270e-01) (178, 1.86260938644409179688e-01) (179, 1.67683988809585571289e-01) (180, -8.50332975387573242188e-02) (181, 1.51052325963973999023e-01) (182, -6.64855390787124633789e-02) (183, -6.99414536356925964355e-02) (184, 7.28044286370277404785e-02) (185, -5.54753467440605163574e-03) (186, -1.16007275879383087158e-01) (187, 4.69634905457496643066e-02) (188, -1.54408752918243408203e-01) (189, 1.33708208799362182617e-01) (190, 1.42458796501159667969e-01) (191, -1.51233747601509094238e-01) (192, 2.63063967227935791016e-01) (193, 7.99324735999107360840e-02) (194, -1.00074760615825653076e-01) (195, 6.17346018552780151367e-02) (196, 2.89024472236633300781e-01) (197, -9.84458625316619873047e-02) (198, -8.12917649745941162109e-02) (199, 1.53000026941299438477e-01) (200, 1.39172971248626708984e-01) (201, -2.14219048619270324707e-01) (202, 1.65986433625221252441e-01) (203, 5.39963832125067710876e-03) (204, -3.46085757017135620117e-01) (205, 2.29635447263717651367e-01) (206, -1.74903184175491333008e-01) (207, -2.97519803047180175781e-01) (208, 3.31561975181102752686e-02) (209, -7.65614807605743408203e-02) (210, -2.53492653369903564453e-01) (211, 3.44711571931838989258e-01) (212, 7.65834599733352661133e-02) (213, -3.26236516237258911133e-01) (214, 3.65727424621582031250e-01) (215, -5.44161759316921234131e-02) (216, -1.86530381441116333008e-01) (217, 2.03346297144889831543e-01) (218, 9.80003029108047485352e-02) (219, -1.74549400806427001953e-01) (220, 1.80682763457298278809e-01) (221, 4.52133099315688014030e-04) (222, -2.15956177562475204468e-02) (223, 2.71130483597517013550e-02) (224, 8.12691869214177131653e-04) (225, -4.85837720334529876709e-02) (226, 9.88104939460754394531e-02) (227, -9.90258231759071350098e-02) (228, -9.58495438098907470703e-02) (229, -1.49709030985832214355e-01) (230, -2.62716412544250488281e-01) (231, -2.54783350974321365356e-02) (232, 1.27127980813384056091e-02) (233, -2.07544445991516113281e-01) (234, -1.25159069895744323730e-01) (235, 1.36031866073608398438e-01) (236, -1.86976343393325805664e-01) (237, -8.51499512791633605957e-02) (238, 1.35256871581077575684e-01) (239, -6.05006478726863861084e-02) (240, -1.56596511602401733398e-01) (241, 2.38930284976959228516e-01) (242, -2.11499761790037155151e-02) (243, -1.20289713144302368164e-01) (244, 2.52731084823608398438e-01) (245, 4.47286218404769897461e-02) (246, -1.81227073073387145996e-01) (247, 6.36587977409362792969e-01) (248, 1.20347209274768829346e-01) (249, -2.27850019931793212891e-01) (250, 7.73675680160522460938e-01) (251, 1.49116292595863342285e-01) (252, 3.78683283925056457520e-02) (253, 7.42452383041381835938e-01) (254, -3.29999346286058425903e-03) (255, -1.20553471148014068604e-01) (256, 6.00443005561828613281e-01) (257, 7.27952495217323303223e-02) (258, -1.52673915028572082520e-01) (259, 5.29958665370941162109e-01) (260, 3.71239297091960906982e-02) (261, -2.05069452524185180664e-01) (262, 2.06601426005363464355e-01) (263, -9.55775827169418334961e-02) (264, -1.55445024371147155762e-01) (265, 1.07891671359539031982e-01) (266, -2.95249998569488525391e-01) (267, 1.34431213140487670898e-01) (268, 9.57092270255088806152e-02) (269, -2.15823397040367126465e-01) (270, 1.01637735962867736816e-01) (271, 3.88343296945095062256e-02) (272, -3.66132318973541259766e-01) (273, -8.34889709949493408203e-02) (274, -1.49783357977867126465e-01) (275, -4.23742264509201049805e-01) (276, -1.61352306604385375977e-01) (277, 2.52375435084104537964e-02) (278, -2.43778362870216369629e-01) (279, -3.41203987598419189453e-01) (280, 1.06357028707861900330e-02) (281, -1.47922873497009277344e-01) (282, -4.11303013563156127930e-01) (283, 1.50586813688278198242e-01) (284, -1.11252255737781524658e-01) (285, -3.54298889636993408203e-01) (286, 3.70697855949401855469e-01) (287, -4.15847972035408020020e-02) (288, -1.53386473655700683594e-01) (289, 7.24647641181945800781e-01) (290, -3.13475504517555236816e-02) (291, -2.14146032929420471191e-01) (292, 3.33314985036849975586e-01) (293, 1.70725751668214797974e-02) (294, -2.32069849967956542969e-01) (295, 1.40005171298980712891e-01) (296, -1.43908798694610595703e-01) (297, -1.08649283647537231445e-01) (298, -6.49126246571540832520e-03) (299, 3.14807295799255371094e-02) (300, -1.83799862861633300781e-01) (301, 6.56100735068321228027e-02) (302, 1.39439962804317474365e-02) (303, -3.46608787775039672852e-01) (304, -1.24710932374000549316e-01) (305, -1.22423574794083833694e-03) (306, -3.55103343725204467773e-01) (307, -3.51344078779220581055e-01) (308, -1.26880645751953125000e-01) (309, -8.17597657442092895508e-02) (310, -2.80573874711990356445e-01) (311, -1.91584333777427673340e-01) (312, 4.17259633541107177734e-02) (313, -2.39802137017250061035e-01) (314, -3.05419474840164184570e-01) (315, -1.88760925084352493286e-02) (316, -1.12732894718647003174e-01) (317, -4.95281934738159179688e-01) (318, 8.19707289338111877441e-02) (319, -3.79705935716629028320e-01) (320, -6.41246497631072998047e-01) (321, 2.30511985719203948975e-02) (322, -4.54537004232406616211e-01) (323, -4.64783698320388793945e-01) (324, -1.92145388573408126831e-02) (325, -4.21244174242019653320e-01) (326, -4.03532683849334716797e-01) (327, -5.43559230864048004150e-02) (328, -1.33189946413040161133e-01) (329, -1.98093920946121215820e-01) (330, -5.61584979295730590820e-02) (331, 4.76165324449539184570e-01) (332, -1.39324024319648742676e-01) (333, 2.62198656797409057617e-01) (334, 7.76614725589752197266e-01) (335, 8.92799720168113708496e-03) (336, -3.40164005756378173828e-02) (337, 6.66550397872924804688e-01) (338, 1.84182096272706985474e-02) (339, -3.29455733299255371094e-01) (340, 5.19053816795349121094e-01) (341, 5.75621649622917175293e-02) (342, -4.49420928955078125000e-01) (343, 8.67673695087432861328e-01) (344, 4.46853607892990112305e-01) (345, -5.55248379707336425781e-01) (346, 8.32987904548645019531e-01) (347, 6.30230665206909179688e-01) (348, -6.16384685039520263672e-01) (349, 7.71341562271118164062e-01) (350, 7.52047717571258544922e-01) (351, -5.95989763736724853516e-01) (352, 6.87186717987060546875e-01) (353, 4.08797800540924072266e-01) (354, -4.65901762247085571289e-01) (355, 5.70574343204498291016e-01) (356, -7.09299623966217041016e-01) (357, 1.42319545149803161621e-01) (358, -3.56056541204452514648e-02) (359, -2.13322067260742187500e+00) (360, 1.40578687191009521484e+00) (0, 8.72712880373001098633e-02) (1, -4.83607724308967590332e-02) (2, 1.24559983611106872559e-01) (3, 6.77073448896408081055e-02) (4, 1.25703170895576477051e-01) (5, 2.00184807181358337402e-02) (6, -6.57053962349891662598e-02) (7, -2.11487397551536560059e-01) (8, 1.05276323854923248291e-01) (9, 5.71811832487583160400e-02) (10, -2.09134966135025024414e-01) (11, -5.51709756255149841309e-02) (12, -2.46444866061210632324e-01) (13, 1.52621269226074218750e-02) (14, 1.55664160847663879395e-01) (15, -1.58557713031768798828e-01) (16, -2.49788779765367507935e-02) (17, 1.39773622155189514160e-01) (18, -8.69115293025970458984e-02) (19, 2.52073332667350769043e-02) (20, 5.20007759332656860352e-02) (21, -5.78876165673136711121e-03) (22, 1.20501831173896789551e-01) (23, 3.05887293070554733276e-02) (24, -5.08602969348430633545e-02) (25, -6.04555159807205200195e-02) (26, 4.06570248305797576904e-02) (27, 6.56514689326286315918e-02) (28, -4.26815897226333618164e-02) (29, 1.93158313632011413574e-01) (30, 6.46894201636314392090e-02) (31, -3.18459905683994293213e-02) (32, 1.22703276574611663818e-01) (33, 6.64584478363394737244e-03) (34, 3.69716957211494445801e-02) (35, 1.05328284204006195068e-01) (36, -9.60609242320060729980e-02) (37, -1.10617047175765037537e-02) (38, 1.32494121789932250977e-01) (39, -2.07870259881019592285e-01) (40, -1.06786504387855529785e-01) (41, 1.34126856923103332520e-01) (42, -5.51314055919647216797e-02) (43, 6.09312541782855987549e-02) (44, 9.30332988500595092773e-02) (45, -8.84826555848121643066e-02) (46, 4.61423471570014953613e-02) (47, -1.72581654042005538940e-02) (48, 1.63107722997665405273e-01) (49, 3.87672968208789825439e-02) (50, -8.50883349776268005371e-02) (51, 4.71943989396095275879e-04) (52, -2.99341175705194473267e-02) (53, -5.09558953344821929932e-02) (54, 6.73794224858283996582e-02) (55, 4.32828031480312347412e-02) (56, 1.48459207266569137573e-02) (57, -5.52765699103474617004e-03) (58, -8.25024489313364028931e-03) (59, 8.13588127493858337402e-02) (60, 6.35533258318901062012e-02) (61, -4.24289219081401824951e-02) (62, 1.31943702697753906250e-01) (63, 2.00594663619995117188e-02) (64, 9.42369084805250167847e-03) (65, 5.50124645233154296875e-02) (66, 2.50475183129310607910e-02) (67, 5.60062639415264129639e-02) (68, 6.45779296755790710449e-02) (69, -1.03866294026374816895e-01) (70, -6.12066239118576049805e-02) (71, 1.18551291525363922119e-01) (72, -3.02621871232986450195e-02) (73, -1.12694784998893737793e-01) (74, 1.14579312503337860107e-01) (75, -1.39339640736579895020e-01) (76, 7.44024440646171569824e-02) (77, -3.03425844758749008179e-02) (78, -2.03759577125310897827e-02) (79, -1.12507700920104980469e-01) (80, 5.54366596043109893799e-02) (81, 6.02685809135437011719e-02) (82, -3.27622406184673309326e-02) (83, -1.28346771001815795898e-01) (84, 6.14730548113584518433e-03) (85, -1.18854464963078498840e-02) (86, 3.20628099143505096436e-02) (87, 1.20834477245807647705e-01) (88, -1.56296446919441223145e-01) (89, 1.31191477179527282715e-01) (90, 1.47052658721804618835e-02) (91, 1.70463863760232925415e-02) (92, -4.43355888128280639648e-02) (93, 1.44880443811416625977e-01) (94, 1.30780249834060668945e-01) (95, -3.09794321656227111816e-02) (96, -1.06543779373168945312e-01) (97, 3.17221209406852722168e-02) (98, -1.30592614412307739258e-01) (99, -2.39585596136748790741e-03) (100, 1.15383438766002655029e-01) (101, -1.56322300434112548828e-01) (102, -2.98512540757656097412e-02) (103, -7.52239599823951721191e-02) (104, -1.31336495280265808105e-01) (105, -8.76083821058273315430e-02) (106, -2.62892574071884155273e-01) (107, -8.03639292716979980469e-02) (108, 7.76141583919525146484e-02) (109, 1.30173505749553442001e-03) (110, 1.76659300923347473145e-02) (111, 5.77045641839504241943e-02) (112, -1.47902190685272216797e-01) (113, -6.20394460856914520264e-02) (114, 1.23927909880876541138e-02) (115, 9.07021611928939819336e-02) (116, -5.48118948936462402344e-02) (117, -4.50069569051265716553e-02) (118, -1.02873519062995910645e-01) (119, -5.81270344555377960205e-02) (120, -4.65123765170574188232e-02) (121, 3.09518091380596160889e-02) (122, -8.38734358549118041992e-02) (123, 8.21355506777763366699e-02) (124, -4.33494821190834045410e-02) (125, -1.52046918869018554688e-01) (126, 7.85328447818756103516e-02) (127, 1.82652305811643600464e-02) (128, -7.94031322002410888672e-02) (129, 5.36515290150418877602e-05) (130, 9.05592739582061767578e-02) (131, 1.94479431957006454468e-02) (132, -6.96869939565658569336e-02) (133, 3.93305346369743347168e-02) (134, -1.82485267519950866699e-01) (135, -7.56225213408470153809e-02) (136, 1.37967810034751892090e-01) (137, -1.01235389709472656250e-01) (138, -1.42251014709472656250e-01) (139, 5.31631335616111755371e-02) (140, -1.46077424287796020508e-01) (141, -1.16490780783351510763e-04) (142, 3.35309393703937530518e-02) (143, -3.47121208906173706055e-02) (144, 1.23232752084732055664e-01) (145, -3.32698747515678405762e-02) (146, -2.53397431224584579468e-02) (147, -2.23585050553083419800e-02) (148, 1.30905225872993469238e-01) (149, 1.70383267104625701904e-02) (150, -2.64173317700624465942e-02) (151, 1.45033597946166992188e-01) (152, 7.01756775379180908203e-02) (153, 1.58774510025978088379e-01) (154, 3.86059433221817016602e-02) (155, 1.16141825914382934570e-01) (156, 1.40164285898208618164e-01) (157, 1.61782167851924896240e-02) (158, 6.03452771902084350586e-02) (159, 8.24637897312641143799e-03) (160, 2.17952609062194824219e-01) (161, 1.38258030638098716736e-02) (162, 1.36584378778934478760e-02) (163, 1.06941364705562591553e-01) (164, -7.82872438430786132812e-02) (165, 2.36283894628286361694e-02) (166, 3.78039218485355377197e-02) (167, -4.45284619927406311035e-02) (168, -1.22362980619072914124e-02) (169, -1.58038064837455749512e-02) (170, 1.86359480023384094238e-01) (171, 1.93270035088062286377e-02) (172, -5.20002804696559906006e-02) (173, 9.31973531842231750488e-02) (174, -8.57487693428993225098e-02) (175, -7.41036906838417053223e-02) (176, 1.72560498118400573730e-01) (177, 2.81195472925901412964e-02) (178, -1.99574022553861141205e-03) (179, 4.46662269532680511475e-02) (180, 6.98265805840492248535e-03) (181, 1.76658645272254943848e-01) (182, 1.54440221376717090607e-03) (183, 1.85192123055458068848e-01) (184, 2.82617751508951187134e-02) (185, -3.17661315202713012695e-02) (186, 1.04172900319099426270e-01) (187, -2.97289974987506866455e-02) (188, 4.51518259942531585693e-02) (189, 9.44094583392143249512e-02) (190, 6.48333504796028137207e-02) (191, 5.32080158591270446777e-02) (192, 1.05996623635292053223e-01) (193, 8.43808278441429138184e-02) (194, 4.50670234858989715576e-02) (195, 1.30312204360961914062e-01) (196, -7.81990960240364074707e-02) (197, 1.47877007722854614258e-01) (198, 1.25447377562522888184e-01) (199, 4.36236523091793060303e-03) (200, 1.55997887253761291504e-01) (201, 1.88505798578262329102e-02) (202, -1.01221948862075805664e-01) (203, 4.11853007972240447998e-02) (204, -2.68948599696159362793e-02) (205, 2.92692258954048156738e-02) (206, -8.73372480273246765137e-02) (207, -8.81833508610725402832e-02) (208, -1.37991532683372497559e-01) (209, 8.11127611086703836918e-05) (210, 1.04172840714454650879e-01) (211, 5.09117767214775085449e-02) (212, -9.35118063353002071381e-04) (213, -1.87545567750930786133e-02) (214, 5.34445270895957946777e-02) (215, -4.00181077420711517334e-02) (216, 5.34623221028596162796e-04) (217, 7.26297646760940551758e-02) (218, 7.32114836573600769043e-02) (219, 3.83813530206680297852e-02) (220, 1.61255642771720886230e-01) (221, 3.47374826669692993164e-02) (222, -6.84380009770393371582e-02) (223, -3.77480834722518920898e-02) (224, 2.70654577761888504028e-02) (225, 2.88276672363281250000e-02) (226, -3.14854197204113006592e-02) (227, 2.15934365987777709961e-02) (228, 1.71798579394817352295e-02) (229, -5.63131347298622131348e-02) (230, -5.92847242951393127441e-02) (231, -7.10559040307998657227e-02) (232, 1.31272748112678527832e-01) (233, -3.02582923322916030884e-02) (234, 2.31239534914493560791e-02) (235, 6.26784190535545349121e-02) (236, 1.05354160070419311523e-01) (237, 3.03225964307785034180e-02) (238, 3.61739918589591979980e-02) (239, 3.20733897387981414795e-02) (240, -9.71521586179733276367e-02) (241, 2.56263799965381622314e-02) (242, -1.24885747209191322327e-02) (243, 7.54959061741828918457e-02) (244, 1.42204165458679199219e-01) (245, 1.07088491320610046387e-01) (246, -1.69796183705329895020e-01) (247, -2.40484345704317092896e-02) (248, -4.48927923571318387985e-04) (249, -4.69482466578483581543e-02) (250, 1.94782447069883346558e-02) (251, 3.93546232953667640686e-03) (252, -2.40542534738779067993e-02) (253, -5.65786659717559814453e-02) (254, 9.39169898629188537598e-02) (255, -1.96224093437194824219e-01) (256, -1.34355038404464721680e-01) (257, 2.79013048857450485229e-02) (258, 2.04970082268118858337e-03) (259, 6.48749992251396179199e-02) (260, -2.53411866724491119385e-02) (261, 2.35926173627376556396e-03) (262, -6.31686300039291381836e-02) (263, -6.97792321443557739258e-02) (264, -7.93824344873428344727e-02) (265, 3.07016093283891677856e-02) (266, -6.39657676219940185547e-02) (267, -3.91275025904178619385e-02) (268, 1.03744626045227050781e-01) (269, -8.25231745839118957520e-02) (270, 5.93326427042484283447e-03) (271, -1.86660122126340866089e-02) (272, -3.02396807819604873657e-02) (273, -1.33582325652241706848e-02) (274, -1.56082779169082641602e-01) (275, -7.76384174823760986328e-02) (276, -1.20613547042012214661e-02) (277, 1.38954883441329002380e-02) (278, 4.53673489391803741455e-03) (279, 1.33375553414225578308e-02) (280, 4.40721139311790466309e-02) (281, -5.48323616385459899902e-02) (282, -2.00641587376594543457e-01) (283, 1.68696656823158264160e-01) (284, -1.14628911018371582031e-01) (285, -1.10668823122978210449e-01) (286, 4.11396101117134094238e-02) (287, -7.83626735210418701172e-02) (288, -1.22715845704078674316e-01) (289, -3.02658230066299438477e-02) (290, -1.69101268053054809570e-01) (291, 5.77567471191287040710e-03) (292, -1.28665015101432800293e-01) (293, -1.00139528512954711914e-01) (294, 3.87093089520931243896e-02) (295, -2.14792694896459579468e-02) (296, -2.71272957324981689453e-01) (297, 1.12041141837835311890e-02) (298, 3.42033393681049346924e-02) (299, -3.11165928840637207031e-01) (300, 1.66407018899917602539e-01) (301, 3.13446998596191406250e-01) (302, -3.44973742961883544922e-01) (303, 1.54952526092529296875e-01) (304, 2.37861305475234985352e-01) (305, -3.29049199819564819336e-01) (306, -3.16858217120170593262e-02) (307, 4.94796857237815856934e-02) (308, -3.41311007738113403320e-01) (309, -5.94028495252132415771e-02) (310, 7.03402459621429443359e-02) (311, -2.38499224185943603516e-01) (312, -8.83807614445686340332e-02) (313, 1.12289495766162872314e-01) (314, -1.94502055644989013672e-01) (315, -1.76963776350021362305e-01) (316, 3.31532984972000122070e-01) (317, -1.99625417590141296387e-01) (318, -3.12400341033935546875e-01) (319, 1.40797317028045654297e-01) (320, -1.13783620297908782959e-01) (321, -2.69615948200225830078e-01) (322, -2.99845151603221893311e-02) (323, -3.56540143489837646484e-01) (324, -1.38315856456756591797e-01) (325, 1.59150391817092895508e-01) (326, -4.08797472715377807617e-01) (327, 4.40263710916042327881e-02) (328, 4.81108352541923522949e-02) (329, -4.77535218000411987305e-01) (330, 2.94088661670684814453e-01) (331, 2.78129577636718750000e-01) (332, -6.60454571247100830078e-01) (333, 4.89718675613403320312e-01) (334, 2.39908516407012939453e-01) (335, -8.10256361961364746094e-01) (336, 3.80272358655929565430e-01) (337, 2.24210873246192932129e-01) (338, -8.36085498332977294922e-01) (339, 1.07520334422588348389e-01) (340, 1.69866979122161865234e-01) (341, -6.84992849826812744141e-01) (342, -2.15372502803802490234e-01) (343, 1.13408908247947692871e-01) (344, -5.50193369388580322266e-01) (345, -5.68698525428771972656e-01) (346, -8.36501866579055786133e-02) (347, -2.49860599637031555176e-01) (348, -5.72339653968811035156e-01) (349, -2.24294602870941162109e-01) (350, -2.17807114124298095703e-01) (351, -5.54869115352630615234e-01) (352, -9.98675823211669921875e-02) (353, -4.94485139846801757812e-01) (354, -2.09434300661087036133e-01) (355, -3.03545147180557250977e-01) (356, -1.33605241775512695312e+00) (357, 3.58431398868560791016e-01) (358, -3.09224694967269897461e-01) (359, -2.35050439834594726562e+00) (360, 5.71759402751922607422e-01) (0, -9.90717187523841857910e-02) (1, -1.04426249861717224121e-01) (2, 2.30188354849815368652e-01) (3, -1.88956171274185180664e-01) (4, 5.97166605293750762939e-02) (5, -1.31582021713256835938e-01) (6, -1.74156669527292251587e-02) (7, 6.45074481144547462463e-03) (8, -1.55237782746553421021e-02) (9, 1.49224773049354553223e-01) (10, -1.48405149579048156738e-01) (11, 8.15503001213073730469e-02) (12, -2.66211390495300292969e-01) (13, -5.72225004434585571289e-02) (14, -4.73138950765132904053e-02) (15, 5.61103709042072296143e-02) (16, -1.59310042858123779297e-01) (17, 1.37689933180809020996e-01) (18, -3.57920855283737182617e-01) (19, -3.29961031675338745117e-01) (20, 9.36038866639137268066e-02) (21, -8.08824896812438964844e-02) (22, -3.53405147790908813477e-01) (23, 5.06388656795024871826e-02) (24, -1.74025446176528930664e-02) (25, -2.09332868456840515137e-01) (26, 3.15724662505090236664e-03) (27, 8.39010477066040039062e-02) (28, 9.99702420085668563843e-03) (29, 9.02779996395111083984e-02) (30, 1.84942334890365600586e-01) (31, 1.71791717410087585449e-01) (32, 1.71946600079536437988e-01) (33, 1.20769016444683074951e-01) (34, -7.61330351233482360840e-02) (35, 9.14441645145416259766e-02) (36, 1.17871902883052825928e-01) (37, 1.34237512946128845215e-01) (38, 3.52077782154083251953e-01) (39, -1.43828541040420532227e-01) (40, -1.76604494452476501465e-01) (41, 1.25277251005172729492e-01) (42, 9.35348272323608398438e-02) (43, 7.76119232177734375000e-02) (44, 1.43687173724174499512e-01) (45, 1.22684694826602935791e-01) (46, -2.89536863565444946289e-01) (47, -5.78823918476700782776e-03) (48, 2.40093663334846496582e-01) (49, -2.20962956547737121582e-01) (50, 8.86877775192260742188e-02) (51, 1.15403672680258750916e-02) (52, -2.06386461853981018066e-01) (53, 1.22614298015832901001e-02) (54, 1.97816669940948486328e-01) (55, 2.23875179886817932129e-01) (56, 2.31147315353155136108e-02) (57, 2.26200491189956665039e-01) (58, 2.23240926861763000488e-01) (59, 1.32038354873657226562e-01) (60, -2.53909766674041748047e-01) (61, -2.66735721379518508911e-02) (62, 3.45094382762908935547e-01) (63, 1.13176042214035987854e-02) (64, -1.08306363224983215332e-01) (65, 1.85007259249687194824e-01) (66, 2.75801345705986022949e-02) (67, -1.53265222907066345215e-01) (68, 2.63177752494812011719e-02) (69, 1.48984625935554504395e-01) (70, -4.83327582478523254395e-02) (71, 1.19914881885051727295e-01) (72, -1.92288190126419067383e-01) (73, -2.24072068929672241211e-01) (74, 3.87805439531803131104e-02) (75, 8.95694196224212646484e-02) (76, -5.15116378664970397949e-02) (77, 2.00507678091526031494e-02) (78, 1.40314489603042602539e-01) (79, -4.58190254867076873779e-02) (80, -4.21390607953071594238e-02) (81, 2.49122634530067443848e-01) (82, 1.60811781883239746094e-01) (83, -4.15313206613063812256e-02) (84, 1.56293019652366638184e-01) (85, 8.42434391379356384277e-02) (86, 1.35416880249977111816e-01) (87, 2.60219633579254150391e-01) (88, -7.81193226575851440430e-02) (89, 1.66927188634872436523e-01) (90, 2.80052497982978820801e-02) (91, -3.90282459557056427002e-02) (92, 1.40877589583396911621e-01) (93, 3.07065695524215698242e-01) (94, 2.42665093392133712769e-02) (95, 1.28114059567451477051e-01) (96, 5.74038513004779815674e-02) (97, -1.41163587570190429688e-01) (98, 2.35563283786177635193e-03) (99, 1.91181972622871398926e-01) (100, -2.53177314996719360352e-01) (101, -5.85944466292858123779e-02) (102, 9.19869616627693176270e-02) (103, -3.24023336172103881836e-01) (104, -5.49055729061365127563e-03) (105, 4.89713475108146667480e-02) (106, -2.65570044517517089844e-01) (107, 1.31521165370941162109e-01) (108, 1.74814194440841674805e-01) (109, 7.98457339406013488770e-02) (110, 1.67737767100334167480e-01) (111, 1.21266439557075500488e-01) (112, 1.67033508419990539551e-01) (113, 1.49616807699203491211e-01) (114, -2.01254174113273620605e-01) (115, -6.13608919084072113037e-02) (116, 1.20299033820629119873e-01) (117, 6.88821002840995788574e-02) (118, -7.12203323841094970703e-01) (119, -7.32063055038452148438e-02) (120, 7.26879015564918518066e-02) (121, -2.93865710496902465820e-01) (122, -1.77171185612678527832e-01) (123, 3.30991327762603759766e-01) (124, -3.05858194828033447266e-01) (125, 2.78099160641431808472e-02) (126, 2.04080894589424133301e-01) (127, -1.90854281187057495117e-01) (128, -3.86415384709835052490e-02) (129, -8.28299447894096374512e-02) (130, -1.18720211088657379150e-01) (131, 1.37754548341035842896e-02) (132, -9.82761979103088378906e-02) (133, -2.46977493166923522949e-01) (134, -2.61061102151870727539e-01) (135, -1.49667412042617797852e-01) (136, -4.11226868629455566406e-01) (137, -2.09836110472679138184e-01) (138, -1.32638230919837951660e-01) (139, -4.85161393880844116211e-01) (140, -1.11522033810615539551e-01) (141, -2.04185321927070617676e-02) (142, -2.96148896217346191406e-01) (143, -3.99999096989631652832e-02) (144, 3.01309883594512939453e-01) (145, 7.20969513058662414551e-02) (146, -1.90566271543502807617e-01) (147, 4.08743351697921752930e-01) (148, -1.64483815431594848633e-01) (149, 1.09806396067142486572e-01) (150, 1.90557047724723815918e-01) (151, -1.53318848460912704468e-02) (152, 5.85127919912338256836e-02) (153, 2.68151730298995971680e-01) (154, -1.82469606399536132812e-01) (155, 3.95665585994720458984e-01) (156, -4.40731495618820190430e-02) (157, -2.58669644594192504883e-01) (158, 3.23108211159706115723e-02) (159, -1.37398426886647939682e-03) (160, 6.95358682423830032349e-03) (161, -2.81168483197689056396e-02) (162, 8.16072821617126464844e-02) (163, 2.77499724179506301880e-02) (164, -6.39855042099952697754e-02) (165, 2.29238495230674743652e-01) (166, -2.35651656985282897949e-01) (167, 9.57528948783874511719e-02) (168, 1.48936435580253601074e-01) (169, -2.21546486020088195801e-01) (170, 1.02936230599880218506e-01) (171, 1.91469550132751464844e-01) (172, -1.89964145421981811523e-01) (173, 2.06499814987182617188e-01) (174, 1.38609632849693298340e-01) (175, 9.35848336666822433472e-03) (176, 2.81587958335876464844e-01) (177, 1.27470150589942932129e-01) (178, -4.35134163126349449158e-03) (179, 2.41316780447959899902e-01) (180, 1.35526508092880249023e-01) (181, 2.25430335849523544312e-02) (182, 5.01827709376811981201e-02) (183, 2.97580003738403320312e-01) (184, 4.14906106889247894287e-02) (185, 1.85574233531951904297e-01) (186, 1.23926289379596710205e-01) (187, -2.04720228910446166992e-01) (188, 7.48928934335708618164e-02) (189, 2.76576697826385498047e-01) (190, -1.51520043611526489258e-01) (191, -1.27960061654448509216e-02) (192, 5.40060281753540039062e-01) (193, -4.44228611886501312256e-02) (194, 4.34629879891872406006e-02) (195, 5.97478628158569335938e-01) (196, -1.10029578208923339844e-01) (197, 1.92393101751804351807e-02) (198, 3.22731405496597290039e-01) (199, -7.93520137667655944824e-02) (200, 2.48951688408851623535e-01) (201, 1.74578800797462463379e-02) (202, -2.57752209901809692383e-01) (203, 8.34791436791419982910e-02) (204, 1.01945340633392333984e-01) (205, -2.01095223426818847656e-01) (206, -4.50912751257419586182e-02) (207, 4.09911572933197021484e-02) (208, -3.39152395725250244141e-01) (209, -5.74349835515022277832e-02) (210, 2.54980862140655517578e-01) (211, -8.67052450776100158691e-02) (212, 3.69488596916198730469e-02) (213, 1.25931710004806518555e-01) (214, -1.99591830372810363770e-01) (215, 8.44478160142898559570e-02) (216, 2.47489120811223983765e-02) (217, -8.10365006327629089355e-02) (218, 1.48769408464431762695e-01) (219, 2.25612610578536987305e-01) (220, -4.63138744235038757324e-02) (221, 1.20708994567394256592e-01) (222, 2.09165424108505249023e-01) (223, -2.90408223867416381836e-01) (224, -9.39774326980113983154e-03) (225, 3.64678561687469482422e-01) (226, -2.71879822015762329102e-01) (227, -8.20366144180297851562e-02) (228, 4.06298041343688964844e-01) (229, -9.51110348105430603027e-02) (230, -7.72764831781387329102e-02) (231, 1.79543018341064453125e-01) (232, -5.63733913004398345947e-02) (233, 3.64465378224849700928e-02) (234, 2.32440605759620666504e-01) (235, -8.71208384633064270020e-02) (236, 1.89690545201301574707e-01) (237, 3.37770543992519378662e-02) (238, -1.47394374012947082520e-01) (239, 3.51704925298690795898e-01) (240, 1.95905417203903198242e-02) (241, -2.82875478267669677734e-01) (242, 2.09443777799606323242e-01) (243, 3.12760710716247558594e-01) (244, -1.34798422455787658691e-01) (245, 8.04534628987312316895e-02) (246, 1.20301112532615661621e-01) (247, 1.31981804966926574707e-01) (248, 5.09395711123943328857e-02) (249, 5.64690157771110534668e-02) (250, -5.39319217205047607422e-02) (251, 8.82256999611854553223e-02) (252, 2.75688529014587402344e-01) (253, -1.11203171312808990479e-01) (254, 3.15691947937011718750e-01) (255, 7.79960528016090393066e-02) (256, -1.44884273409843444824e-01) (257, -3.27887013554573059082e-02) (258, 4.26962934434413909912e-02) (259, -2.12718155235052108765e-02) (260, -1.50529935956001281738e-01) (261, -3.23525965213775634766e-02) (262, -4.57367122173309326172e-01) (263, -1.10910357907414436340e-02) (264, 1.38859331607818603516e-01) (265, 6.85428306460380554199e-02) (266, -9.98010933399200439453e-02) (267, 1.83300748467445373535e-01) (268, -1.21898977085947990417e-02) (269, 1.55390262603759765625e-01) (270, -1.09555393457412719727e-01) (271, 2.61885225772857666016e-01) (272, 2.41928532719612121582e-01) (273, -1.97104901075363159180e-01) (274, -1.24044887721538543701e-01) (275, 2.52160616219043731689e-02) (276, 6.75970911979675292969e-02) (277, -6.90668076276779174805e-02) (278, 1.27078756690025329590e-01) (279, -8.53105820715427398682e-03) (280, -1.53336882591247558594e-01) (281, -1.34983360767364501953e-01) (282, -1.08068041503429412842e-01) (283, -1.05314426124095916748e-01) (284, -3.53038199245929718018e-02) (285, 1.81001052260398864746e-01) (286, -4.62373673915863037109e-01) (287, -5.71801885962486267090e-02) (288, 1.17151685059070587158e-01) (289, -1.57249450683593750000e-01) (290, 7.13751092553138732910e-02) (291, 6.97902664542198181152e-02) (292, -2.40032240748405456543e-01) (293, -1.31708264350891113281e-01) (294, 1.75115749239921569824e-01) (295, -8.40441808104515075684e-02) (296, -6.22851774096488952637e-02) (297, 1.03624723851680755615e-01) (298, -3.66869837045669555664e-01) (299, -1.05928950011730194092e-01) (300, 1.70884691178798675537e-02) (301, 7.09740072488784790039e-02) (302, -1.62026420235633850098e-01) (303, -5.28145208954811096191e-03) (304, 1.48492967709898948669e-02) (305, -1.27607837319374084473e-01) (306, -1.07319079339504241943e-01) (307, -3.32611203193664550781e-01) (308, -3.71545761823654174805e-01) (309, 2.27010235190391540527e-01) (310, -9.41522940993309020996e-02) (311, -2.96199887990951538086e-01) (312, 2.45989054441452026367e-01) (313, -2.68640518188476562500e-01) (314, -6.91893473267555236816e-02) (315, 6.58020526170730590820e-02) (316, 3.99846136569976806641e-01) (317, -1.68703749775886535645e-01) (318, 1.10060246661305427551e-02) (319, -7.45321884751319885254e-02) (320, -9.16651077568531036377e-03) (321, -1.29118159413337707520e-01) (322, -2.07734227180480957031e-01) (323, 6.01843334734439849854e-02) (324, -2.96847820281982421875e-02) (325, -3.00676047801971435547e-01) (326, 2.80041873455047607422e-01) (327, 1.79724558256566524506e-03) (328, -4.83058214187622070312e-01) (329, 3.65062728524208068848e-02) (330, 5.03844618797302246094e-01) (331, 1.34536534547805786133e-01) (332, -2.60787278413772583008e-01) (333, 9.60374534130096435547e-01) (334, 3.51362496614456176758e-01) (335, -3.80985349416732788086e-01) (336, 6.97596371173858642578e-01) (337, 1.51756241917610168457e-01) (338, -9.44261312484741210938e-01) (339, 5.20096421241760253906e-01) (340, 1.28544628620147705078e-01) (341, -9.81319785118103027344e-01) (342, -8.93782228231430053711e-02) (343, 3.37680369615554809570e-01) (344, -4.51390326023101806641e-01) (345, -6.83265030384063720703e-01) (346, -6.78293406963348388672e-02) (347, 3.53644073009490966797e-01) (348, -1.05103039741516113281e+00) (349, -2.62073516845703125000e-01) (350, 1.13635945320129394531e+00) (351, -1.24953520298004150391e+00) (352, 3.96142564713954925537e-02) (353, 3.97379100322723388672e-01) (354, -8.15624773502349853516e-01) (355, 2.73698240518569946289e-01) (356, -1.84122633934020996094e+00) (357, 8.57862293720245361328e-01) (358, 9.94607433676719665527e-02) (359, -5.26009798049926757812e+00) (360, 2.51600909233093261719e+00) (0, -5.08462637662887573242e-03) (1, -1.90222844481468200684e-01) (2, 6.61526527255773544312e-03) (3, -4.01581451296806335449e-02) (4, 1.19474917650222778320e-01) (5, -7.10235014557838439941e-02) (6, -3.08117140084505081177e-02) (7, -1.82234764099121093750e-01) (8, 3.32333706319332122803e-02) (9, -5.22455349564552307129e-02) (10, -6.30280375480651855469e-02) (11, -3.07812895625829696655e-02) (12, -1.31501048803329467773e-01) (13, 2.01949961483478546143e-02) (14, -5.89761622250080108643e-02) (15, -1.70258488506078720093e-02) (16, -1.46840974688529968262e-01) (17, 9.50496792793273925781e-02) (18, -6.20880536735057830811e-02) (19, -6.62712678313255310059e-02) (20, 4.77689094841480255127e-02) (21, -5.37733286619186401367e-02) (22, -1.16521241143345832825e-02) (23, 8.00667554140090942383e-02) (24, -2.14382875710725784302e-02) (25, -9.36904922127723693848e-02) (26, 1.21799118816852569580e-01) (27, -6.26358613371849060059e-02) (28, -1.41762653365731239319e-02) (29, 7.13783055543899536133e-02) (30, -7.49033913016319274902e-02) (31, 1.39211162924766540527e-01) (32, 1.08045212924480438232e-01) (33, -6.06122799217700958252e-03) (34, -8.76848101615905761719e-02) (35, 1.29656359553337097168e-01) (36, 3.44928652048110961914e-02) (37, 3.53626981377601623535e-02) (38, 1.78014278411865234375e-01) (39, -1.02847479283809661865e-01) (40, -3.74771170318126678467e-02) (41, 6.08155801892280578613e-02) (42, 1.02732144296169281006e-01) (43, -1.02066695690155029297e-02) (44, -3.42848002910614013672e-02) (45, 8.94665345549583435059e-02) (46, -9.10690948367118835449e-02) (47, -7.77936354279518127441e-02) (48, 1.35631069540977478027e-01) (49, -1.02215334773063659668e-01) (50, 6.62503810599446296692e-03) (51, 4.96045406907796859741e-03) (52, 2.11181677877902984619e-02) (53, -3.93921174108982086182e-02) (54, 1.36626139283180236816e-01) (55, -3.57909016311168670654e-02) (56, -9.26921144127845764160e-03) (57, 1.59306392073631286621e-01) (58, -3.23837399482727050781e-02) (59, 6.30279481410980224609e-02) (60, -6.95239454507827758789e-02) (61, -5.78689575195312500000e-02) (62, 3.77964414656162261963e-02) (63, 8.78046378493309020996e-02) (64, -1.86062119901180267334e-02) (65, -1.36675813701003789902e-03) (66, -5.86052089929580688477e-02) (67, -8.45816135406494140625e-02) (68, 7.89174363017082214355e-02) (69, 7.37090334296226501465e-02) (70, 4.85690906643867492676e-02) (71, 8.45877006649971008301e-02) (72, -1.04120224714279174805e-01) (73, -9.89483073353767395020e-02) (74, -6.62242099642753601074e-02) (75, -1.11716359853744506836e-01) (76, 1.34780141524970531464e-03) (77, -3.63951250910758972168e-02) (78, -3.37182097136974334717e-02) (79, -3.48013751208782196045e-02) (80, 1.58454198390245437622e-02) (81, -4.43570576608180999756e-02) (82, -1.33055239915847778320e-01) (83, -7.06297159194946289062e-02) (84, -6.19439966976642608643e-02) (85, 8.12803357839584350586e-02) (86, 6.25551864504814147949e-03) (87, 4.73568737506866455078e-02) (88, -6.53661936521530151367e-02) (89, 9.09246802330017089844e-02) (90, 1.34587511420249938965e-01) (91, -1.23872645199298858643e-01) (92, -5.22042699158191680908e-02) (93, 1.92815899848937988281e-01) (94, 1.58190146088600158691e-01) (95, -4.86905910074710845947e-02) (96, -9.59870740771293640137e-02) (97, -5.64097836613655090332e-02) (98, -4.50727231800556182861e-02) (99, 4.15649190545082092285e-02) (100, 1.71509101986885070801e-01) (101, -9.47069674730300903320e-02) (102, -6.10261363908648490906e-03) (103, -3.89009639620780944824e-02) (104, 3.61757315695285797119e-02) (105, -5.10370470583438873291e-02) (106, -8.74286890029907226562e-02) (107, -7.49537646770477294922e-02) (108, -1.05452530086040496826e-01) (109, 1.63056269288063049316e-01) (110, -8.53632297366857528687e-03) (111, 2.14814431965351104736e-02) (112, 1.70522049069404602051e-01) (113, 4.00723069906234741211e-02) (114, -1.68806388974189758301e-01) (115, 9.25346016883850097656e-02) (116, 1.52608864009380340576e-02) (117, -4.11174111068248748779e-02) (118, -3.02920620888471603394e-02) (119, -6.31488934159278869629e-02) (120, -5.80621659755706787109e-02) (121, 1.25764861702919006348e-01) (122, -1.09240591526031494141e-01) (123, 7.74063616991043090820e-02) (124, 4.36279363930225372314e-02) (125, -1.38787388801574707031e-01) (126, 7.82397165894508361816e-02) (127, 6.62484169006347656250e-02) (128, -1.32371321320533752441e-01) (129, -8.67185592651367187500e-02) (130, -1.29617825150489807129e-02) (131, -1.36560440063476562500e-01) (132, -8.76632258296012878418e-02) (133, 8.35999399423599243164e-02) (134, -1.29495352506637573242e-01) (135, -1.33111476898193359375e-01) (136, 4.88170385360717773438e-02) (137, -2.36400254070758819580e-02) (138, -4.74196374416351318359e-02) (139, -1.59952044486999511719e-02) (140, -6.03618957102298736572e-02) (141, 4.51654158532619476318e-02) (142, -5.27442023158073425293e-02) (143, -5.02331666648387908936e-02) (144, 3.07702273130416870117e-02) (145, -8.99835452437400817871e-02) (146, -3.06080542504787445068e-02) (147, 1.70726314187049865723e-01) (148, 3.30948159098625183105e-02) (149, -6.86741769313812255859e-02) (150, -5.28299920260906219482e-02) (151, 1.92356780171394348145e-02) (152, 8.14466457813978195190e-03) (153, 8.48184227943420410156e-02) (154, -2.06797588616609573364e-02) (155, 1.08088158071041107178e-01) (156, 4.69037666916847229004e-02) (157, -4.43964004516601562500e-02) (158, -9.79742854833602905273e-02) (159, 5.08383512496948242188e-02) (160, 4.94494251906871795654e-02) (161, -7.30828791856765747070e-02) (162, 8.09136852622032165527e-02) (163, 1.06402084231376647949e-01) (164, -8.65440219640731811523e-02) (165, 1.36047095060348510742e-01) (166, -1.77616477012634277344e-02) (167, 7.01210573315620422363e-02) (168, -2.40054782480001449585e-02) (169, 1.18778869509696960449e-02) (170, 5.79716414213180541992e-02) (171, -1.10866144299507141113e-01) (172, 3.11636198312044143677e-02) (173, 1.25554800033569335938e-01) (174, -4.10920791327953338623e-02) (175, -7.18720629811286926270e-02) (176, 1.74175761640071868896e-02) (177, -1.24852865934371948242e-01) (178, -3.31373214721679687500e-02) (179, 1.27264231443405151367e-01) (180, -3.61235998570919036865e-02) (181, 8.58502313494682312012e-02) (182, -9.29869785904884338379e-02) (183, 1.11522994935512542725e-01) (184, 6.07651397585868835449e-02) (185, 7.53893107175827026367e-02) (186, 2.77742706239223480225e-02) (187, 8.42227637767791748047e-02) (188, -5.95852993428707122803e-02) (189, 6.68045729398727416992e-02) (190, 1.87989212572574615479e-02) (191, 2.65036784112453460693e-02) (192, 1.93712636828422546387e-01) (193, 1.31316989660263061523e-01) (194, 3.85853536427021026611e-02) (195, 1.20641756802797317505e-03) (196, 8.41192603111267089844e-02) (197, 6.59462735056877136230e-02) (198, 1.16140179336071014404e-01) (199, -3.27293835580348968506e-02) (200, 7.71628692746162414551e-02) (201, -1.03019393980503082275e-01) (202, -3.04858665913343429565e-02) (203, 9.59544442594051361084e-04) (204, 9.90232229232788085938e-02) (205, 1.49713411927223205566e-01) (206, 1.93294193595647811890e-02) (207, -1.11074954271316528320e-01) (208, 1.47592714056372642517e-02) (209, 2.35744379460811614990e-02) (210, 1.83590874075889587402e-01) (211, -5.46818412840366363525e-02) (212, -1.18797607719898223877e-01) (213, -7.01144561171531677246e-02) (214, 4.73097749054431915283e-02) (215, 1.28927896730601787567e-03) (216, -1.39385849237442016602e-01) (217, 1.77746593952178955078e-01) (218, -1.51577452197670936584e-02) (219, -4.09959862008690834045e-03) (220, 4.63124662637710571289e-02) (221, 6.12802840769290924072e-02) (222, 7.47428312897682189941e-02) (223, 1.54096990823745727539e-01) (224, 6.24382942914962768555e-02) (225, -2.23562531173229217529e-02) (226, 1.72829791903495788574e-01) (227, 4.64891409501433372498e-03) (228, 1.04020267724990844727e-01) (229, 1.41702428460121154785e-01) (230, 7.57985785603523254395e-02) (231, -5.15292696654796600342e-02) (232, 9.98668652027845382690e-03) (233, -6.99148476123809814453e-02) (234, 1.33767370134592056274e-02) (235, 3.53379920125007629395e-02) (236, -6.29800930619239807129e-02) (237, -5.22253811359405517578e-02) (238, -1.63179598748683929443e-02) (239, -3.17320600152015686035e-02) (240, 6.86017125844955444336e-02) (241, -4.86771715804934501648e-03) (242, -1.88409630209207534790e-02) (243, -4.84637096524238586426e-02) (244, 7.46344178915023803711e-02) (245, 6.37211725115776062012e-02) (246, -1.69153120368719100952e-02) (247, 1.24437995254993438721e-02) (248, 3.78205515444278717041e-02) (249, -1.56129047274589538574e-01) (250, 1.91664928570389747620e-03) (251, 7.76747018098831176758e-02) (252, -8.53774249553680419922e-02) (253, -1.26429438591003417969e-01) (254, 8.00768062472343444824e-02) (255, -8.95400065928697586060e-03) (256, -9.73749756813049316406e-02) (257, -8.02033115178346633911e-03) (258, -1.19193652644753456116e-02) (259, 2.52683609724044799805e-01) (260, -9.18447896838188171387e-02) (261, -5.99458105862140655518e-02) (262, -6.91717937588691711426e-02) (263, -8.86117219924926757812e-02) (264, 3.05199921131134033203e-02) (265, 2.36242935061454772949e-01) (266, -1.20666474103927612305e-01) (267, 1.18225887417793273926e-01) (268, 2.03063115477561950684e-01) (269, -9.34970006346702575684e-03) (270, 8.70920047163963317871e-02) (271, 1.91254228353500366211e-01) (272, -1.77065744996070861816e-01) (273, -1.20512254536151885986e-01) (274, 1.46761775016784667969e-01) (275, -9.95470508933067321777e-02) (276, -1.32461205124855041504e-01) (277, 1.74543917179107666016e-01) (278, -2.75477580726146697998e-02) (279, -3.75262983143329620361e-02) (280, 2.46309891343116760254e-01) (281, -1.43581405282020568848e-01) (282, -1.45772248506546020508e-01) (283, 2.28014767169952392578e-01) (284, -1.17968000471591949463e-01) (285, -5.04870377480983734131e-02) (286, 7.94776529073715209961e-02) (287, -6.58918023109436035156e-02) (288, -9.14780199527740478516e-02) (289, 1.56810134649276733398e-01) (290, -8.00362601876258850098e-02) (291, -1.48326763883233070374e-02) (292, -8.00216123461723327637e-02) (293, -1.36772111058235168457e-01) (294, 1.78599059581756591797e-02) (295, 1.38437211513519287109e-01) (296, -2.59130835533142089844e-01) (297, 1.22277252376079559326e-01) (298, 9.37482342123985290527e-02) (299, -1.53450682759284973145e-01) (300, 1.27264827489852905273e-01) (301, 3.29742372035980224609e-01) (302, -2.97286450862884521484e-01) (303, 1.51271849870681762695e-01) (304, 3.61612141132354736328e-01) (305, -3.65607559680938720703e-01) (306, -6.07290044426918029785e-02) (307, 3.19918572902679443359e-01) (308, -3.64103674888610839844e-01) (309, 8.93240049481391906738e-02) (310, 2.78803229331970214844e-01) (311, -2.07318544387817382812e-01) (312, -1.23626813292503356934e-02) (313, 2.80396729707717895508e-01) (314, -2.11383268237113952637e-01) (315, -2.89883315563201904297e-01) (316, 5.15519857406616210938e-01) (317, -9.87784788012504577637e-02) (318, -2.04880088567733764648e-01) (319, 2.23517179489135742188e-01) (320, -1.28047302365303039551e-01) (321, -2.67920583486557006836e-01) (322, 3.71492281556129455566e-02) (323, -1.66808575391769409180e-01) (324, 1.59132499247789382935e-02) (325, 1.05198375880718231201e-01) (326, -3.23907881975173950195e-01) (327, -1.42056355252861976624e-02) (328, 5.48192039132118225098e-02) (329, -3.69305551052093505859e-01) (330, 3.64697724580764770508e-01) (331, 2.32511311769485473633e-01) (332, -6.48166596889495849609e-01) (333, 3.72414559125900268555e-01) (334, 2.17676147818565368652e-01) (335, -5.98331987857818603516e-01) (336, 2.09218740463256835938e-01) (337, 2.50243782997131347656e-01) (338, -7.54167258739471435547e-01) (339, 1.10363714396953582764e-01) (340, 1.22346155345439910889e-01) (341, -6.06449484825134277344e-01) (342, -1.89915657043457031250e-01) (343, 1.04577697813510894775e-01) (344, -4.50120538473129272461e-01) (345, -5.71161150932312011719e-01) (346, -4.93106292560696601868e-03) (347, -1.00917838513851165771e-01) (348, -5.21880030632019042969e-01) (349, -1.06316156685352325439e-01) (350, 1.66220613755285739899e-03) (351, -6.00582420825958251953e-01) (352, 3.66969369351863861084e-02) (353, -4.42434281110763549805e-01) (354, -3.69077235460281372070e-01) (355, 1.07754422351717948914e-02) (356, -1.10585248470306396484e+00) (357, 3.59160274267196655273e-01) (358, -3.30200530588626861572e-02) (359, -2.24391698837280273438e+00) (360, 4.26989972591400146484e-01) (0, 2.02761031687259674072e-02) (1, 5.49304410815238952637e-02) (2, 1.27969523891806602478e-02) (3, 3.50172668695449829102e-02) (4, 6.62279203534126281738e-02) (5, -7.05798268318176269531e-02) (6, 7.38548561930656433105e-02) (7, -1.81264162063598632812e-01) (8, 4.49545308947563171387e-02) (9, -2.96926964074373245239e-03) (10, -1.22816167771816253662e-01) (11, 2.47765146195888519287e-02) (12, -2.15165913105010986328e-01) (13, 3.74961085617542266846e-02) (14, -6.06714710593223571777e-02) (15, -1.26384645700454711914e-01) (16, -2.47044116258621215820e-02) (17, 1.18701644241809844971e-01) (18, -2.15569838881492614746e-01) (19, 1.05525784194469451904e-01) (20, 3.99991124868392944336e-02) (21, -4.86545488238334655762e-02) (22, 9.91374105215072631836e-02) (23, 7.35752657055854797363e-02) (24, 2.27053351700305938721e-02) (25, -2.65015866607427597046e-02) (26, 4.54021058976650238037e-03) (27, -8.20091143250465393066e-02) (28, -2.24328711628913879395e-02) (29, 1.45864337682723999023e-01) (30, -6.41556307673454284668e-02) (31, 9.64292362332344055176e-02) (32, 1.61365881562232971191e-01) (33, 9.52711701393127441406e-03) (34, -7.16362893581390380859e-02) (35, 7.39113539457321166992e-02) (36, 5.62906973063945770264e-02) (37, -1.61538757383823394775e-02) (38, 9.54110398888587951660e-02) (39, -7.02704265713691711426e-02) (40, -1.55315920710563659668e-01) (41, 1.54939919710159301758e-01) (42, -1.46216843277215957642e-02) (43, 2.38563194870948791504e-02) (44, 1.04645565152168273926e-01) (45, -2.39349734038114547729e-02) (46, 7.59898126125335693359e-02) (47, -4.01674807071685791016e-02) (48, 3.83368693292140960693e-02) (49, 1.36985987424850463867e-01) (50, -5.19974790513515472412e-02) (51, 1.04601323604583740234e-01) (52, 2.44409646838903427124e-02) (53, -6.07537478208541870117e-02) (54, 4.73819300532341003418e-02) (55, -1.08803836628794670105e-02) (56, 4.17397283017635345459e-02) (57, -3.14596816897392272949e-02) (58, -3.37963551282882690430e-02) (59, 1.40069648623466491699e-01) (60, 4.78469021618366241455e-02) (61, 1.15899201482534408569e-02) (62, 1.49341866374015808105e-01) (63, 7.42800459265708923340e-02) (64, -1.29167422652244567871e-01) (65, 5.91174559667706489563e-03) (66, -1.04719087481498718262e-01) (67, -1.30594819784164428711e-01) (68, 7.84791857004165649414e-02) (69, -2.93975174427032470703e-02) (70, 7.30198174715042114258e-02) (71, 1.27266079187393188477e-01) (72, -1.04932419955730438232e-01) (73, -1.17730386555194854736e-01) (74, -5.89094534516334533691e-02) (75, -1.84473276138305664062e-01) (76, 1.27663493156433105469e-01) (77, 4.24668416380882263184e-02) (78, -7.80839174985885620117e-02) (79, 4.38125357031822204590e-02) (80, 3.58841978013515472412e-02) (81, 4.51290309429168701172e-02) (82, 1.33516546338796615601e-02) (83, -7.98770114779472351074e-02) (84, 4.41490113735198974609e-03) (85, 2.91466116905212402344e-02) (86, 1.41276288777589797974e-02) (87, -4.17352095246315002441e-02) (88, -1.18273533880710601807e-01) (89, 9.99109596014022827148e-02) (90, 1.31959348917007446289e-01) (91, 3.22269238531589508057e-02) (92, -1.61936804652214050293e-02) (93, 1.01921364665031433105e-01) (94, 8.41306243091821670532e-03) (95, 5.62861971557140350342e-02) (96, 2.99675837159156799316e-02) (97, -2.34266370534896850586e-02) (98, -1.86630822718143463135e-02) (99, -4.19532097876071929932e-02) (100, 1.53144612908363342285e-01) (101, -9.53490212559700012207e-02) (102, -5.31349815428256988525e-02) (103, -7.72051140666007995605e-02) (104, -7.92616531252861022949e-02) (105, -7.97997787594795227051e-02) (106, -2.98186421394348144531e-01) (107, 3.29889543354511260986e-02) (108, -5.33457063138484954834e-02) (109, -1.15484528243541717529e-01) (110, 7.42057859897613525391e-02) (111, 1.07731096446514129639e-01) (112, -4.02920618653297424316e-02) (113, 5.88113702833652496338e-02) (114, -9.91059616208076477051e-02) (115, -4.95499512180685997009e-03) (116, -7.09418803453445434570e-02) (117, 2.73708775639533996582e-02) (118, -1.41913756728172302246e-01) (119, -1.72341112047433853149e-02) (120, 7.09944218397140502930e-03) (121, 9.59548279643058776855e-02) (122, 1.31056513055227696896e-04) (123, -3.67060601711273193359e-02) (124, -2.35805716365575790405e-02) (125, -1.58986061811447143555e-01) (126, 6.56333267688751220703e-02) (127, 1.46546527743339538574e-01) (128, -1.04641184210777282715e-01) (129, -9.11504104733467102051e-02) (130, -2.46661957353353500366e-02) (131, -1.46234229207038879395e-01) (132, -9.75027903914451599121e-02) (133, 1.25624254345893859863e-01) (134, -1.59366324543952941895e-01) (135, -4.74278554320335388184e-02) (136, 3.51099744439125061035e-02) (137, -1.35291546583175659180e-01) (138, -2.12812330573797225952e-03) (139, 1.26262549310922622681e-02) (140, -8.16839486360549926758e-02) (141, -3.94902704283595085144e-03) (142, 4.11508083343505859375e-02) (143, -8.39882716536521911621e-02) (144, 4.05316352844238281250e-02) (145, 5.07434085011482238770e-02) (146, 1.28542734310030937195e-02) (147, 8.01428258419036865234e-02) (148, 4.79582250118255615234e-02) (149, -2.03162878751754760742e-02) (150, -6.58599287271499633789e-02) (151, 1.02344371378421783447e-01) (152, 8.24863836169242858887e-02) (153, 1.31711014546453952789e-04) (154, -7.31330141425132751465e-02) (155, 1.40956565737724304199e-01) (156, -1.52017204090952873230e-02) (157, 1.00171796977519989014e-01) (158, 4.00317646563053131104e-02) (159, 3.52516472339630126953e-02) (160, -3.39027773588895797729e-03) (161, -9.95597839355468750000e-02) (162, 7.76018500328063964844e-02) (163, 6.28878027200698852539e-02) (164, -1.13345339894294738770e-01) (165, 1.04293756186962127686e-01) (166, 3.69063355028629302979e-02) (167, 4.77190595120191574097e-04) (168, 4.31750454008579254150e-02) (169, -6.41732960939407348633e-02) (170, -1.78026948124170303345e-02) (171, -6.41167983412742614746e-02) (172, -1.00795373320579528809e-01) (173, 9.66646149754524230957e-02) (174, -1.09748421236872673035e-02) (175, 4.61546611040830612183e-03) (176, 7.40127488970756530762e-02) (177, -6.02859370410442352295e-02) (178, -8.37397016584873199463e-03) (179, 1.27821519970893859863e-01) (180, 8.98144915699958801270e-02) (181, 1.30210176110267639160e-01) (182, -8.51527377963066101074e-02) (183, 9.21045392751693725586e-02) (184, 5.02211824059486389160e-02) (185, -1.61979831755161285400e-02) (186, 6.21295645833015441895e-02) (187, 5.53968213498592376709e-02) (188, -4.62856926023960113525e-02) (189, 4.22970801591873168945e-02) (190, -1.77695900201797485352e-02) (191, -3.94904650747776031494e-02) (192, 1.48820877075195312500e-01) (193, 7.15299397706985473633e-02) (194, 1.21469594538211822510e-01) (195, 1.48102656006813049316e-01) (196, 2.69346535205841064453e-02) (197, 2.57794186472892761230e-02) (198, -5.55682880803942680359e-03) (199, -2.07140482962131500244e-02) (200, 1.71760693192481994629e-01) (201, -9.87375602126121520996e-02) (202, 2.45363414287567138672e-02) (203, -3.80526034859940409660e-04) (204, 6.69416189193725585938e-02) (205, 4.11118268966674804688e-02) (206, -6.12782575190067291260e-02) (207, -8.29247906804084777832e-02) (208, -1.79921001195907592773e-01) (209, 8.77502467483282089233e-03) (210, -1.11670065671205520630e-02) (211, 1.18196420371532440186e-01) (212, -4.37353365123271942139e-02) (213, -2.12437938898801803589e-02) (214, 5.95057085156440734863e-02) (215, -7.53996968269348144531e-02) (216, 1.95969976484775543213e-02) (217, 5.53462356328964233398e-02) (218, -9.42505523562431335449e-02) (219, -4.28387634456157684326e-02) (220, 1.00099176168441772461e-01) (221, -2.53941435366868972778e-02) (222, -2.65905857086181640625e-02) (223, -4.57533262670040130615e-02) (224, -4.90978769958019256592e-02) (225, -4.00043204426765441895e-02) (226, -1.55774746090173721313e-02) (227, 3.12842093408107757568e-02) (228, 4.65561263263225555420e-02) (229, 4.43966798484325408936e-02) (230, -9.24124494194984436035e-02) (231, -9.40048776101320981979e-04) (232, 1.31152570247650146484e-01) (233, 3.22089493274688720703e-02) (234, 6.32537379860877990723e-02) (235, 1.68843343853950500488e-01) (236, -5.13110458850860595703e-02) (237, -9.66326594352722167969e-02) (238, -1.29068456590175628662e-02) (239, -1.38949640095233917236e-02) (240, -1.07246674597263336182e-02) (241, 8.77115055918693542480e-02) (242, -3.78399565815925598145e-02) (243, -7.99585133790969848633e-02) (244, 2.11059689521789550781e-01) (245, 4.31013703346252441406e-02) (246, -1.42650172114372253418e-01) (247, 9.58906188607215881348e-02) (248, 7.16732069849967956543e-02) (249, -1.75939232110977172852e-01) (250, 9.13454964756965637207e-02) (251, -1.55030274763703346252e-02) (252, -1.44227510318160057068e-02) (253, -1.12779088318347930908e-01) (254, 4.97713498771190643311e-02) (255, -3.70440706610679626465e-02) (256, -4.51979599893093109131e-02) (257, 1.03961667045950889587e-02) (258, -2.63084862381219863892e-02) (259, -1.96362938731908798218e-02) (260, -1.28580376505851745605e-01) (261, -4.20696921646595001221e-02) (262, -5.61843290925025939941e-02) (263, -1.64187416434288024902e-01) (264, -5.17023466527462005615e-02) (265, 7.17235505580902099609e-02) (266, -2.34575033187866210938e-01) (267, 4.26602251827716827393e-02) (268, 4.85896393656730651855e-02) (269, -1.18297919631004333496e-01) (270, 6.51566609740257263184e-02) (271, 5.13214245438575744629e-02) (272, -1.29313180223107337952e-02) (273, -1.56540855765342712402e-01) (274, -4.99034905806183815002e-03) (275, 7.71199725568294525146e-03) (276, -1.63108743727207183838e-02) (277, 1.78572669625282287598e-01) (278, -1.04592852294445037842e-02) (279, -1.00015677511692047119e-01) (280, 9.56036671996116638184e-02) (281, -2.73676887154579162598e-02) (282, -1.16382643580436706543e-01) (283, 2.52212464809417724609e-01) (284, 1.76819972693920135498e-02) (285, -2.48908087611198425293e-01) (286, 9.13482904434204101562e-02) (287, -8.98326560854911804199e-02) (288, -6.69998973608016967773e-02) (289, 1.82177275419235229492e-02) (290, -7.57416412234306335449e-02) (291, -3.28483097255229949951e-02) (292, 8.19520205259323120117e-02) (293, -2.11994171142578125000e-01) (294, 9.57552120089530944824e-02) (295, 1.90555695444345474243e-02) (296, -1.39901235699653625488e-01) (297, -1.00305974483489990234e-01) (298, 1.73547357320785522461e-01) (299, -2.53643333911895751953e-01) (300, 2.44711227715015411377e-02) (301, 3.11931431293487548828e-01) (302, -2.58977204561233520508e-01) (303, 3.77168282866477966309e-02) (304, 2.98520416021347045898e-01) (305, -3.59444171190261840820e-01) (306, -4.44108247756958007812e-02) (307, 1.14260010421276092529e-01) (308, -4.45258468389511108398e-01) (309, -7.93004482984542846680e-02) (310, 2.31661155819892883301e-01) (311, -3.47419232130050659180e-01) (312, -6.13222084939479827881e-02) (313, 1.76070779561996459961e-01) (314, -2.84706234931945800781e-01) (315, -1.95750415325164794922e-01) (316, 4.40464615821838378906e-01) (317, -1.02921865880489349365e-01) (318, -3.30338478088378906250e-01) (319, 1.55954971909523010254e-01) (320, -2.40299865603446960449e-01) (321, -1.86024531722068786621e-01) (322, -2.33415141701698303223e-02) (323, -3.31802129745483398438e-01) (324, -1.76512002944946289062e-01) (325, 3.69870550930500030518e-02) (326, -3.83555740118026733398e-01) (327, 1.22284024953842163086e-01) (328, 3.61218862235546112061e-02) (329, -5.46670079231262207031e-01) (330, 2.04313889145851135254e-01) (331, 3.28650325536727905273e-01) (332, -7.51666128635406494141e-01) (333, 4.68278110027313232422e-01) (334, 4.10582721233367919922e-01) (335, -6.68948352336883544922e-01) (336, 1.40445590019226074219e-01) (337, 2.01133176684379577637e-01) (338, -8.47680449485778808594e-01) (339, -3.24925817549228668213e-02) (340, 1.59432783722877502441e-01) (341, -7.70536482334136962891e-01) (342, -2.42325633764266967773e-01) (343, 1.51140183210372924805e-01) (344, -4.28611367940902709961e-01) (345, -4.58999931812286376953e-01) (346, -4.16999496519565582275e-02) (347, -2.50779837369918823242e-01) (348, -5.47473847866058349609e-01) (349, -1.84113427996635437012e-01) (350, -5.93842379748821258545e-02) (351, -4.50957179069519042969e-01) (352, -1.89800977706909179688e-01) (353, -5.53192436695098876953e-01) (354, -3.03757399320602416992e-01) (355, -2.18373060226440429688e-01) (356, -1.27799069881439208984e+00) (357, 4.11285936832427978516e-01) (358, -1.14472076296806335449e-01) (359, -2.23432898521423339844e+00) (360, 2.80402153730392456055e-01) (0, 3.71091742999851703644e-03) (1, -2.15048808604478836060e-02) (2, -3.95050570368766784668e-02) (3, -4.72767949104309082031e-02) (4, 2.40086928009986877441e-01) (5, -1.71617835760116577148e-01) (6, 5.36855077371001243591e-03) (7, 1.11143387854099273682e-01) (8, -1.15076042711734771729e-01) (9, 1.15809962153434753418e-02) (10, -6.53480887413024902344e-02) (11, -4.05024141073226928711e-02) (12, -2.85178631544113159180e-01) (13, 5.32822906970977783203e-02) (14, -3.68873476982116699219e-02) (15, -2.33698282390832901001e-02) (16, -9.03763994574546813965e-03) (17, -1.06330439448356628418e-01) (18, -2.31792017817497253418e-01) (19, -1.22755416668951511383e-03) (20, -1.24545462429523468018e-01) (21, -1.21238023042678833008e-01) (22, 3.84896025061607360840e-02) (23, -7.98903405666351318359e-02) (24, 3.92336864024400711060e-03) (25, 8.57526063919067382812e-02) (26, -8.55758264660835266113e-02) (27, -5.83847872912883758545e-02) (28, 1.25131472945213317871e-01) (29, 2.98012997955083847046e-02) (30, 1.75787750631570816040e-02) (31, -1.86050701886415481567e-02) (32, 1.55756333842873573303e-02) (33, 9.04895439743995666504e-02) (34, -2.20504313707351684570e-01) (35, -2.46751867234706878662e-03) (36, 5.26513569056987762451e-02) (37, 7.12494924664497375488e-02) (38, 2.16449946165084838867e-01) (39, -1.85365766286849975586e-01) (40, -1.74964055418968200684e-01) (41, -1.94241665303707122803e-02) (42, 1.16395898163318634033e-01) (43, -1.06016555801033973694e-02) (44, 2.04502064734697341919e-02) (45, -4.92086708545684814453e-02) (46, -8.85399281978607177734e-02) (47, 4.32018842548131942749e-03) (48, 1.23230122029781341553e-01) (49, -2.14681163430213928223e-01) (50, -5.30380196869373321533e-02) (51, 7.21712410449981689453e-02) (52, -1.15969255566596984863e-01) (53, -3.51261235773563385010e-02) (54, 1.20986908674240112305e-01) (55, 1.08455531299114227295e-01) (56, -7.10248500108718872070e-02) (57, 5.62818944454193115234e-02) (58, -4.48583476245403289795e-02) (59, 1.45077437162399291992e-01) (60, 7.43076903745532035828e-04) (61, 6.77165994420647621155e-03) (62, 1.29921376705169677734e-01) (63, -3.26291248202323913574e-02) (64, -8.36113691329956054688e-02) (65, 8.92196819186210632324e-02) (66, -6.26210793852806091309e-02) (67, 5.70820681750774383545e-02) (68, 5.52538521587848663330e-02) (69, -7.54283964633941650391e-02) (70, 1.12068273127079010010e-01) (71, 2.91004907339811325073e-02) (72, -1.22308164834976196289e-01) (73, -6.52026310563087463379e-02) (74, -7.27695748209953308105e-02) (75, -4.03547473251819610596e-02) (76, 1.49125695228576660156e-01) (77, 3.40589806437492370605e-02) (78, -6.59100012853741645813e-03) (79, -8.38292613625526428223e-02) (80, 7.13286623358726501465e-02) (81, 1.85292791575193405151e-02) (82, 1.04458808898925781250e-01) (83, -8.43152031302452087402e-02) (84, 5.49892559647560119629e-02) (85, 8.21633562445640563965e-02) (86, -2.85199936479330062866e-02) (87, 1.89041439443826675415e-03) (88, -2.92063672095537185669e-02) (89, 3.72593104839324951172e-02) (90, 1.68748609721660614014e-02) (91, 2.32527381740510463715e-03) (92, -8.50311666727066040039e-02) (93, 2.25556850433349609375e-01) (94, 8.97501185536384582520e-02) (95, -8.04065354168415069580e-03) (96, -1.57906638924032449722e-03) (97, 2.73138172924518585205e-02) (98, -1.54821977019309997559e-01) (99, -7.24475979804992675781e-02) (100, 1.99213232845067977905e-02) (101, -8.28504795208573341370e-04) (102, 3.51640656590461730957e-02) (103, 1.93179231137037277222e-02) (104, -5.46880885958671569824e-02) (105, -4.99487407505512237549e-02) (106, -3.89993488788604736328e-02) (107, -7.93991610407829284668e-02) (108, 1.24258548021316528320e-02) (109, 1.33430957794189453125e-01) (110, 6.00510574877262115479e-02) (111, 1.35125247761607170105e-02) (112, 2.51168966293334960938e-01) (113, 3.63520868122577667236e-02) (114, -2.03565865755081176758e-01) (115, 2.85977125167846679688e-01) (116, 9.34752225875854492188e-02) (117, -6.82754069566726684570e-02) (118, -2.10446249693632125854e-02) (119, -4.29405570030212402344e-02) (120, -6.75312727689743041992e-02) (121, 2.52640902996063232422e-01) (122, -5.75680136680603027344e-02) (123, 9.56685394048690795898e-02) (124, 1.05472251772880554199e-01) (125, -1.45397439599037170410e-01) (126, 1.52741223573684692383e-01) (127, -5.75466006994247436523e-02) (128, -1.80284306406974792480e-01) (129, 9.72393229603767395020e-02) (130, -1.47419106215238571167e-02) (131, -1.51839807629585266113e-01) (132, -2.92223263531923294067e-02) (133, 5.55169954895973205566e-02) (134, -8.17055106163024902344e-02) (135, -1.58461004495620727539e-01) (136, 1.16902559995651245117e-01) (137, -1.47993087768554687500e-01) (138, -1.11714944243431091309e-01) (139, -4.82087135314941406250e-02) (140, -8.21895822882652282715e-02) (141, 2.75592096149921417236e-02) (142, -7.86551907658576965332e-02) (143, -5.80359734594821929932e-02) (144, -6.40640826895833015442e-03) (145, -5.14141544699668884277e-02) (146, -1.05027958750724792480e-01) (147, 2.62512147426605224609e-01) (148, -1.46217480301856994629e-01) (149, -5.47989867627620697021e-02) (150, 5.26063404977321624756e-02) (151, 4.77275252342224121094e-02) (152, -5.70221878588199615479e-02) (153, 3.16262006759643554688e-01) (154, -2.26273313164710998535e-01) (155, 1.30874052643775939941e-01) (156, 8.29223543405532836914e-02) (157, -2.87801772356033325195e-02) (158, 3.13856378197669982910e-02) (159, 5.58872520923614501953e-02) (160, 5.01192454248666763306e-03) (161, -1.46893948316574096680e-01) (162, 7.87016898393630981445e-02) (163, -1.27338349819183349609e-01) (164, -1.11034266650676727295e-01) (165, 4.45426329970359802246e-02) (166, -7.68212378025054931641e-02) (167, -5.56889809668064117432e-02) (168, -2.75998041033744812012e-02) (169, -7.73063600063323974609e-02) (170, 1.77795648574829101562e-01) (171, -6.34150803089141845703e-02) (172, -2.22108196467161178589e-02) (173, 8.55526253581047058105e-02) (174, 1.97035465389490127563e-02) (175, 1.97521187365055084229e-02) (176, 6.56775087118148803711e-02) (177, -9.51281487941741943359e-02) (178, 7.91233479976654052734e-02) (179, 6.02511726319789886475e-02) (180, 2.43377257138490676880e-02) (181, 3.81560176610946655273e-02) (182, -9.72077921032905578613e-02) (183, 1.89660236239433288574e-01) (184, -6.47399201989173889160e-02) (185, -5.85645548999309539795e-02) (186, 9.54113379120826721191e-02) (187, -7.56317824125289916992e-02) (188, -9.85029935836791992188e-02) (189, 7.62549713253974914551e-02) (190, 4.58474978804588317871e-02) (191, 2.89382059127092361450e-02) (192, 1.85796573758125305176e-01) (193, -3.04099954664707183838e-02) (194, 1.41801550984382629395e-01) (195, 1.55690565705299377441e-01) (196, -4.48655150830745697021e-02) (197, 7.93307088315486907959e-03) (198, 1.38691008090972900391e-01) (199, -1.10597267746925354004e-01) (200, 1.53533825650811195374e-02) (201, 7.11893895640969276428e-03) (202, -4.09394726157188415527e-02) (203, 9.63958501815795898438e-02) (204, 1.55996233224868774414e-02) (205, 2.10242606699466705322e-02) (206, 3.47717180848121643066e-02) (207, 4.85027283430099487305e-02) (208, -1.41244068741798400879e-01) (209, -3.45986057072877883911e-03) (210, 1.12022593617439270020e-01) (211, 1.06259971857070922852e-01) (212, 6.30283206701278686523e-02) (213, 6.07241429388523101807e-02) (214, -2.72272434085607528687e-02) (215, -7.59220942854881286621e-02) (216, -1.18093810975551605225e-01) (217, 1.02432206273078918457e-01) (218, 2.02737972140312194824e-02) (219, 5.50638176500797271729e-02) (220, 1.26493141055107116699e-01) (221, -1.92587990313768386841e-02) (222, 1.46759107708930969238e-01) (223, -3.78606170415878295898e-02) (224, 8.35626721382141113281e-02) (225, 1.60932064056396484375e-01) (226, -6.36015981435775756836e-02) (227, 1.42572242766618728638e-02) (228, 6.23397268354892730713e-02) (229, -7.31394961476325988770e-02) (230, 1.18029557168483734131e-01) (231, 1.14096887409687042236e-02) (232, 1.15270599722862243652e-01) (233, 4.04725335538387298584e-02) (234, 1.16156716831028461456e-03) (235, -2.74693612009286880493e-02) (236, -8.11894237995147705078e-03) (237, 1.73269718885421752930e-01) (238, 4.22028973698616027832e-02) (239, -1.49109959602355957031e-02) (240, 5.50101511180400848389e-02) (241, -3.50869148969650268555e-02) (242, -1.13674942404031753540e-02) (243, 1.72064408659934997559e-01) (244, 1.86826437711715698242e-01) (245, 3.79402935504913330078e-02) (246, 9.18221250176429748535e-02) (247, -5.46925980597734451294e-03) (248, 2.26022992283105850220e-02) (249, -4.06203530728816986084e-02) (250, -1.63988117128610610962e-02) (251, 2.31729522347450256348e-01) (252, 1.84779658913612365723e-01) (253, -1.27475142478942871094e-01) (254, 1.37960091233253479004e-01) (255, -1.54278380796313285828e-03) (256, -1.76509112119674682617e-01) (257, 2.38881614059209823608e-02) (258, 1.19459778070449829102e-02) (259, 1.96059927344322204590e-01) (260, -6.04337602853775024414e-02) (261, -4.61039021611213684082e-02) (262, 3.54603976011276245117e-02) (263, -1.17731228470802307129e-01) (264, 1.47906586527824401855e-01) (265, 5.10105073451995849609e-01) (266, -1.40360787510871887207e-01) (267, 8.16553011536598205566e-02) (268, 3.82791727781295776367e-01) (269, -4.36163283884525299072e-02) (270, -1.49358985945582389832e-02) (271, 3.00422132015228271484e-01) (272, 1.34636228904128074646e-02) (273, -1.00798413157463073730e-01) (274, 9.56224650144577026367e-02) (275, 4.04954701662063598633e-02) (276, 3.79775986075401306152e-02) (277, 7.50990137457847595215e-02) (278, 8.50934833288192749023e-02) (279, 1.50425676256418228149e-02) (280, 2.06961959600448608398e-01) (281, -4.90925572812557220459e-02) (282, -1.39963207766413688660e-02) (283, 1.87381908297538757324e-01) (284, 3.04142804816365242004e-03) (285, -1.29849329590797424316e-01) (286, -4.80005741119384765625e-02) (287, 3.37359234690666198730e-02) (288, 6.03712769225239753723e-03) (289, -2.41120085120201110840e-02) (290, -7.92868435382843017578e-02) (291, 9.02457162737846374512e-02) (292, -5.61863556504249572754e-02) (293, -4.27399985492229461670e-02) (294, 8.59134793281555175781e-02) (295, 8.29099193215370178223e-02) (296, -9.55252647399902343750e-02) (297, 8.93197506666183471680e-02) (298, 8.69305506348609924316e-02) (299, -1.47471621632575988770e-01) (300, 1.77496880292892456055e-01) (301, 5.08643090724945068359e-01) (302, -3.02654802799224853516e-01) (303, 1.19370497763156890869e-01) (304, 3.79868626594543457031e-01) (305, -2.46854946017265319824e-01) (306, -9.15070623159408569336e-02) (307, 4.17685240507125854492e-01) (308, -3.06549191474914550781e-01) (309, 1.24927565455436706543e-01) (310, 4.66122269630432128906e-01) (311, -2.83415108919143676758e-01) (312, -1.88564941287040710449e-01) (313, 2.21650898456573486328e-01) (314, -4.14549522101879119873e-02) (315, -2.36963406205177307129e-01) (316, 6.59790217876434326172e-01) (317, -1.23499870300292968750e-01) (318, -2.85549104213714599609e-01) (319, 1.20783470571041107178e-01) (320, 7.82127026468515396118e-03) (321, -1.84561997652053833008e-01) (322, 1.73606295138597488403e-02) (323, 6.62771165370941162109e-02) (324, 2.24808230996131896973e-02) (325, 1.79974623024463653564e-02) (326, -1.41206070780754089355e-01) (327, 1.24388583004474639893e-01) (328, -1.23383812606334686279e-01) (329, -1.91309660673141479492e-01) (330, 5.17930686473846435547e-01) (331, 7.75046721100807189941e-02) (332, -4.40015882253646850586e-01) (333, 4.88694429397583007812e-01) (334, 1.92791372537612915039e-01) (335, -5.21636009216308593750e-01) (336, 3.34886282682418823242e-01) (337, 2.69520998001098632812e-01) (338, -6.98065459728240966797e-01) (339, 2.50596672296524047852e-01) (340, 6.87031596899032592773e-02) (341, -6.48698687553405761719e-01) (342, -2.71899193525314331055e-01) (343, 9.82833877205848693848e-02) (344, -4.07372176647186279297e-01) (345, -6.33546352386474609375e-01) (346, -1.23653240501880645752e-01) (347, -7.44177401065826416016e-02) (348, -7.80266106128692626953e-01) (349, -6.29649981856346130371e-02) (350, 2.48315259814262390137e-01) (351, -7.04464912414550781250e-01) (352, 5.24925254285335540771e-02) (353, -1.20264738798141479492e-01) (354, -3.46512466669082641602e-01) (355, 5.99741488695144653320e-02) (356, -1.35480070114135742188e+00) (357, 6.17378652095794677734e-01) (358, 1.14127233624458312988e-01) (359, -2.87032580375671386719e+00) (360, 6.31499588489532470703e-01) (0, -3.17629069089889526367e-01) (1, 6.23939514160156250000e-01) (2, -2.36505135893821716309e-01) (3, -2.34813332557678222656e-01) (4, 4.01672571897506713867e-01) (5, -4.96676832437515258789e-01) (6, 6.74811899662017822266e-02) (7, 4.15267318487167358398e-01) (8, -5.39301156997680664062e-01) (9, 6.68164789676666259766e-02) (10, 2.41617098450660705566e-01) (11, -2.72132694721221923828e-01) (12, -1.64067119359970092773e-01) (13, 1.22453160583972930908e-01) (14, -2.97746479511260986328e-01) (15, -2.14645579457283020020e-01) (16, -5.47853335738182067871e-02) (17, -3.33007387816905975342e-02) (18, -4.62144941091537475586e-01) (19, -5.41745859663933515549e-04) (20, 1.04004740715026855469e-01) (21, -6.02760374546051025391e-01) (22, -1.95598170161247253418e-01) (23, 2.44687929749488830566e-01) (24, -5.97356915473937988281e-01) (25, 2.67451554536819458008e-01) (26, -4.24841754138469696045e-02) (27, -2.93502926826477050781e-01) (28, 3.73797565698623657227e-01) (29, -2.97688990831375122070e-02) (30, -1.72196015715599060059e-01) (31, 4.39881324768066406250e-01) (32, -3.76859843730926513672e-01) (33, -4.29975539445877075195e-02) (34, 1.84781014919281005859e-01) (35, -5.07196605205535888672e-01) (36, 1.94495722651481628418e-01) (37, 4.77238669991493225098e-02) (38, -3.21342706680297851562e-01) (39, 3.77880744636058807373e-02) (40, 2.64338076114654541016e-01) (41, -2.35998556017875671387e-01) (42, 8.32101330161094665527e-02) (43, 3.54699611663818359375e-01) (44, -5.19789904356002807617e-02) (45, -1.57884731888771057129e-01) (46, 3.70833307504653930664e-01) (47, -9.62541177868843078613e-02) (48, -5.02612590789794921875e-01) (49, 1.71238258481025695801e-01) (50, -9.49907898902893066406e-02) (51, -7.16107785701751708984e-01) (52, 7.71268177777528762817e-03) (53, -1.52008518576622009277e-01) (54, -3.57794642448425292969e-01) (55, 5.20876407623291015625e-01) (56, -3.60489010810852050781e-01) (57, -2.98072695732116699219e-01) (58, 4.41494464874267578125e-01) (59, -2.00447574257850646973e-01) (60, -5.85752725601196289062e-01) (61, 3.93602252006530761719e-01) (62, -3.23599994182586669922e-01) (63, -1.63341656327247619629e-01) (64, 1.13362103700637817383e-01) (65, -4.74718064069747924805e-01) (66, -9.26186740398406982422e-02) (67, 3.61950546503067016602e-02) (68, -5.36900162696838378906e-01) (69, -1.17717809975147247314e-01) (70, 6.83383643627166748047e-02) (71, -5.16191840171813964844e-01) (72, -2.24849820137023925781e-01) (73, -1.00396193563938140869e-01) (74, -5.31423807144165039062e-01) (75, -6.67002499103546142578e-02) (76, 1.40757292509078979492e-01) (77, -3.88657808303833007812e-01) (78, -2.60990023612976074219e-01) (79, 3.51359546184539794922e-01) (80, -2.74431407451629638672e-01) (81, -2.30211853981018066406e-01) (82, 5.77571511268615722656e-01) (83, -3.52934092283248901367e-01) (84, -4.44452047348022460938e-01) (85, 4.49654847383499145508e-01) (86, -1.86233118176460266113e-01) (87, -5.21796166896820068359e-01) (88, 1.93198502063751220703e-01) (89, -1.12674549221992492676e-01) (90, -4.90844994783401489258e-01) (91, 6.05099312961101531982e-02) (92, -4.71696317195892333984e-01) (93, 1.00062759593129158020e-02) (94, -3.61113878898322582245e-03) (95, -5.21990001201629638672e-01) (96, 1.33526995778083801270e-01) (97, -2.15270832180976867676e-01) (98, -5.62442004680633544922e-01) (99, 1.80541247129440307617e-01) (100, -3.07233065366744995117e-01) (101, -5.59619784355163574219e-01) (102, 1.09447479248046875000e-01) (103, -5.72272390127182006836e-02) (104, -2.87985920906066894531e-01) (105, -2.86075081676244735718e-02) (106, 9.65093001723289489746e-02) (107, 6.77283108234405517578e-02) (108, -3.25562089681625366211e-01) (109, 4.92079585790634155273e-01) (110, 3.60065400600433349609e-02) (111, -4.67516407370567321777e-02) (112, 4.51045095920562744141e-01) (113, -2.93881986290216445923e-02) (114, -7.16352462768554687500e-02) (115, -1.69674217700958251953e-01) (116, -6.05119355022907257080e-02) (117, 1.68002590537071228027e-01) (118, -6.92384123802185058594e-01) (119, -4.50727850198745727539e-01) (120, 2.80360698699951171875e-01) (121, -7.92147219181060791016e-02) (122, -3.16097974777221679688e-01) (123, 4.27013874053955078125e-01) (124, 1.78275451064109802246e-01) (125, -1.82994067668914794922e-01) (126, 2.54041045904159545898e-01) (127, 9.25817608833312988281e-01) (128, -2.28393897414207458496e-01) (129, 1.61831423640251159668e-01) (130, 6.52856349945068359375e-01) (131, -2.77856111526489257812e-01) (132, 2.85863550379872322083e-03) (133, 4.21996623277664184570e-01) (134, -6.61329329013824462891e-01) (135, -7.95401558279991149902e-02) (136, -2.95604199171066284180e-01) (137, -5.84998488426208496094e-01) (138, -2.39090710878372192383e-01) (139, -3.26620131731033325195e-01) (140, -5.69977521896362304688e-01) (141, -1.89790621399879455566e-01) (142, -1.06025356799364089966e-02) (143, -3.60056340694427490234e-01) (144, -9.40739586949348449707e-02) (145, 7.54682004451751708984e-01) (146, -1.78610444068908691406e-01) (147, 1.62616372108459472656e-02) (148, 3.99001538753509521484e-01) (149, 2.99756433814764022827e-02) (150, -7.91474878787994384766e-02) (151, 7.08173632621765136719e-01) (152, 4.12378944456577301025e-02) (153, 5.32142966985702514648e-02) (154, 5.67250311374664306641e-01) (155, 1.00306514650583267212e-02) (156, -4.10574823617935180664e-02) (157, 1.51578679680824279785e-01) (158, -3.80441159009933471680e-01) (159, 7.44377151131629943848e-02) (160, 3.91486972570419311523e-01) (161, -5.48766434192657470703e-01) (162, 1.50256037712097167969e-01) (163, 8.89827489852905273438e-01) (164, -5.18261373043060302734e-01) (165, 1.68149143457412719727e-01) (166, 3.65739554166793823242e-01) (167, -3.78511935472488403320e-01) (168, -1.22036643326282501221e-01) (169, 2.06856295466423034668e-01) (170, -3.58521848917007446289e-01) (171, -4.42847102880477905273e-01) (172, -5.69813214242458343506e-02) (173, -1.38872683048248291016e-01) (174, -5.84030151367187500000e-01) (175, -4.67167794704437255859e-02) (176, 1.54114738106727600098e-01) (177, -5.21345019340515136719e-01) (178, 1.24092608690261840820e-01) (179, -1.83457568287849426270e-01) (180, -2.85701185464859008789e-01) (181, 1.86295077204704284668e-01) (182, -3.08669269084930419922e-01) (183, 1.42506778240203857422e-01) (184, 9.37694162130355834961e-02) (185, -5.53673923015594482422e-01) (186, 1.40617638826370239258e-01) (187, -6.07752352952957153320e-02) (188, -5.84198713302612304688e-01) (189, 6.05528533458709716797e-01) (190, 1.75667539238929748535e-01) (191, -4.86623764038085937500e-01) (192, 5.04953324794769287109e-01) (193, 4.22379761934280395508e-01) (194, -4.23896573483943939209e-02) (195, 4.86305415630340576172e-01) (196, 5.75126826763153076172e-01) (197, 8.40393155813217163086e-02) (198, 2.83649355173110961914e-01) (199, 4.28126722574234008789e-01) (200, 1.28431126475334167480e-01) (201, -1.56023293733596801758e-01) (202, -3.11948984861373901367e-01) (203, -6.46979585289955139160e-02) (204, -6.02265149354934692383e-02) (205, -3.78355175256729125977e-01) (206, -3.70817363262176513672e-01) (207, -3.65574359893798828125e-02) (208, -6.25810205936431884766e-01) (209, -6.00670039653778076172e-01) (210, 2.82093852758407592773e-01) (211, 9.72782894968986511230e-02) (212, -4.66854631900787353516e-01) (213, 1.93563714623451232910e-01) (214, 1.46416753530502319336e-01) (215, -2.36587628722190856934e-01) (216, 1.81564614176750183105e-01) (217, 2.23589137196540832520e-01) (218, -7.66873285174369812012e-02) (219, 1.77880421280860900879e-01) (220, 8.14879313111305236816e-02) (221, -2.95936521142721176147e-02) (222, -2.04390615224838256836e-01) (223, -2.01777666807174682617e-01) (224, -1.84432286769151687622e-02) (225, 2.62517612427473068237e-02) (226, -2.05564461648464202881e-02) (227, -1.04470111429691314697e-01) (228, 1.11982099711894989014e-01) (229, -2.42455184459686279297e-01) (230, -6.10481761395931243896e-02) (231, 1.01755164563655853271e-01) (232, -1.39343351125717163086e-01) (233, -8.98869633674621582031e-02) (234, 1.76833838224411010742e-01) (235, 1.51022046804428100586e-01) (236, 1.44594296813011169434e-01) (237, 4.32871393859386444092e-02) (238, 4.97728645801544189453e-01) (239, 5.17883479595184326172e-01) (240, 1.21043540537357330322e-01) (241, 5.09506523609161376953e-01) (242, 3.38537782430648803711e-01) (243, 2.70816802978515625000e-01) (244, 1.14178530871868133545e-01) (245, 3.99789571762084960938e-01) (246, 8.22578370571136474609e-02) (247, 7.08423972129821777344e-01) (248, 1.51648342609405517578e-01) (249, -1.39141082763671875000e-01) (250, 3.49450469017028808594e-01) (251, 9.03933495283126831055e-02) (252, -2.80829500406980514526e-02) (253, 1.50909200310707092285e-01) (254, 4.45702392607927322388e-03) (255, -7.54042267799377441406e-02) (256, -2.23678871989250183105e-01) (257, 8.10202956199645996094e-02) (258, -2.81144559383392333984e-01) (259, -2.67296999692916870117e-01) (260, 9.66970920562744140625e-02) (261, -3.53798061609268188477e-01) (262, -6.38185977935791015625e-01) (263, 9.66317802667617797852e-02) (264, -1.36014491319656372070e-01) (265, -4.78473693132400512695e-01) (266, 