FANN_FLO_2.1
num_layers=3
learning_rate=0.600000
connection_rate=1.000000
network_type=0
learning_momentum=0.100000
training_algorithm=0
train_error_function=1
train_stop_function=0
cascade_output_change_fraction=0.010000
quickprop_decay=-0.000100
quickprop_mu=1.750000
rprop_increase_factor=1.200000
rprop_decrease_factor=0.500000
rprop_delta_min=0.000000
rprop_delta_max=50.000000
rprop_delta_zero=0.100000
cascade_output_stagnation_epochs=12
cascade_candidate_change_fraction=0.010000
cascade_candidate_stagnation_epochs=12
cascade_max_out_epochs=150
cascade_min_out_epochs=10
cascade_max_cand_epochs=150
cascade_min_cand_epochs=10
cascade_num_candidate_groups=2
bit_fail_limit=3.49999994039535522461e-01
cascade_candidate_limit=1.00000000000000000000e+03
cascade_weight_multiplier=4.00000005960464477539e-01
cascade_activation_functions_count=10
cascade_activation_functions=3 5 7 8 10 11 14 15 16 17 
cascade_activation_steepnesses_count=4
cascade_activation_steepnesses=2.50000000000000000000e-01 5.00000000000000000000e-01 7.50000000000000000000e-01 1.00000000000000000000e+00 
layer_sizes=81 51 2 
scale_included=0
neurons (num_inputs, activation_function, activation_steepness)=(0, 0, 0.00000000000000000000e+00) (0, 0, 0.00000000000000000000e+00) (0, 0, 0.00000000000000000000e+00) (0, 0, 0.00000000000000000000e+00) (0, 0, 0.00000000000000000000e+00) (0, 0, 0.00000000000000000000e+00) (0, 0, 0.00000000000000000000e+00) (0, 0, 0.00000000000000000000e+00) (0, 0, 0.00000000000000000000e+00) (0, 0, 0.00000000000000000000e+00) (0, 0, 0.00000000000000000000e+00) (0, 0, 0.00000000000000000000e+00) (0, 0, 0.00000000000000000000e+00) (0, 0, 0.00000000000000000000e+00) (0, 0, 0.00000000000000000000e+00) (0, 0, 0.00000000000000000000e+00) (0, 0, 0.00000000000000000000e+00) (0, 0, 0.00000000000000000000e+00) (0, 0, 0.00000000000000000000e+00) (0, 0, 0.00000000000000000000e+00) (0, 0, 0.00000000000000000000e+00) (0, 0, 0.00000000000000000000e+00) (0, 0, 0.00000000000000000000e+00) (0, 0, 0.00000000000000000000e+00) (0, 0, 0.00000000000000000000e+00) (0, 0, 0.00000000000000000000e+00) (0, 0, 0.00000000000000000000e+00) (0, 0, 0.00000000000000000000e+00) (0, 0, 0.00000000000000000000e+00) (0, 0, 0.00000000000000000000e+00) (0, 0, 0.00000000000000000000e+00) (0, 0, 0.00000000000000000000e+00) (0, 0, 0.00000000000000000000e+00) (0, 0, 0.00000000000000000000e+00) (0, 0, 0.00000000000000000000e+00) (0, 0, 0.00000000000000000000e+00) (0, 0, 0.00000000000000000000e+00) (0, 0, 0.00000000000000000000e+00) (0, 0, 0.00000000000000000000e+00) (0, 0, 0.00000000000000000000e+00) (0, 0, 0.00000000000000000000e+00) (0, 0, 0.00000000000000000000e+00) (0, 0, 0.00000000000000000000e+00) (0, 0, 0.00000000000000000000e+00) (0, 0, 0.00000000000000000000e+00) (0, 0, 0.00000000000000000000e+00) (0, 0, 0.00000000000000000000e+00) (0, 0, 0.00000000000000000000e+00) (0, 0, 0.00000000000000000000e+00) (0, 0, 0.00000000000000000000e+00) (0, 0, 0.00000000000000000000e+00) (0, 0, 0.00000000000000000000e+00) (0, 0, 0.00000000000000000000e+00) (0, 0, 0.00000000000000000000e+00) (0, 0, 0.00000000000000000000e+00) (0, 0, 0.00000000000000000000e+00) (0, 0, 0.00000000000000000000e+00) (0, 0, 0.00000000000000000000e+00) (0, 0, 0.00000000000000000000e+00) (0, 0, 0.00000000000000000000e+00) (0, 0, 0.00000000000000000000e+00) (0, 0, 0.00000000000000000000e+00) (0, 0, 0.00000000000000000000e+00) (0, 0, 0.00000000000000000000e+00) (0, 0, 0.00000000000000000000e+00) (0, 0, 0.00000000000000000000e+00) (0, 0, 0.00000000000000000000e+00) (0, 0, 0.00000000000000000000e+00) (0, 0, 0.00000000000000000000e+00) (0, 0, 0.00000000000000000000e+00) (0, 0, 0.00000000000000000000e+00) (0, 0, 0.00000000000000000000e+00) (0, 0, 0.00000000000000000000e+00) (0, 0, 0.00000000000000000000e+00) (0, 0, 0.00000000000000000000e+00) (0, 0, 0.00000000000000000000e+00) (0, 0, 0.00000000000000000000e+00) (0, 0, 0.00000000000000000000e+00) (0, 0, 0.00000000000000000000e+00) (0, 0, 0.00000000000000000000e+00) (0, 0, 0.00000000000000000000e+00) (81, 5, 5.00000000000000000000e-01) (81, 5, 5.00000000000000000000e-01) (81, 5, 5.00000000000000000000e-01) (81, 5, 5.00000000000000000000e-01) (81, 5, 5.00000000000000000000e-01) (81, 5, 5.00000000000000000000e-01) (81, 5, 5.00000000000000000000e-01) (81, 5, 5.00000000000000000000e-01) (81, 5, 5.00000000000000000000e-01) (81, 5, 5.00000000000000000000e-01) (81, 5, 5.00000000000000000000e-01) (81, 5, 5.00000000000000000000e-01) (81, 5, 5.00000000000000000000e-01) (81, 5, 5.00000000000000000000e-01) (81, 5, 5.00000000000000000000e-01) (81, 5, 5.00000000000000000000e-01) (81, 5, 5.00000000000000000000e-01) (81, 5, 5.00000000000000000000e-01) (81, 5, 5.00000000000000000000e-01) (81, 5, 5.00000000000000000000e-01) (81, 5, 5.00000000000000000000e-01) (81, 5, 5.00000000000000000000e-01) (81, 5, 5.00000000000000000000e-01) (81, 5, 5.00000000000000000000e-01) (81, 5, 5.00000000000000000000e-01) (81, 5, 5.00000000000000000000e-01) (81, 5, 5.00000000000000000000e-01) (81, 5, 5.00000000000000000000e-01) (81, 5, 5.00000000000000000000e-01) (81, 5, 5.00000000000000000000e-01) (81, 5, 5.00000000000000000000e-01) (81, 5, 5.00000000000000000000e-01) (81, 5, 5.00000000000000000000e-01) (81, 5, 5.00000000000000000000e-01) (81, 5, 5.00000000000000000000e-01) (81, 5, 5.00000000000000000000e-01) (81, 5, 5.00000000000000000000e-01) (81, 5, 5.00000000000000000000e-01) (81, 5, 5.00000000000000000000e-01) (81, 5, 5.00000000000000000000e-01) (81, 5, 5.00000000000000000000e-01) (81, 5, 5.00000000000000000000e-01) (81, 5, 5.00000000000000000000e-01) (81, 5, 5.00000000000000000000e-01) (81, 5, 5.00000000000000000000e-01) (81, 5, 5.00000000000000000000e-01) (81, 5, 5.00000000000000000000e-01) (81, 5, 5.00000000000000000000e-01) (81, 5, 5.00000000000000000000e-01) (81, 5, 5.00000000000000000000e-01) (0, 5, 0.00000000000000000000e+00) (51, 14, 5.00000000000000000000e-01) (0, 14, 0.00000000000000000000e+00) 
connections (connected_to_neuron, weight)=(0, 4.75907437503337860107e-02) (1, -2.13585346937179565430e-02) (2, -8.92871990799903869629e-03) (3, -7.58256763219833374023e-02) (4, 2.62846685945987701416e-02) (5, -3.32349501550197601318e-02) (6, -2.05639563500881195068e-02) (7, -4.15762560442090034485e-03) (8, 9.07904952764511108398e-02) (9, 1.01907551288604736328e-01) (10, 9.45516303181648254395e-02) (11, 7.79544562101364135742e-02) (12, -4.96319197118282318115e-02) (13, 5.38663379848003387451e-02) (14, 7.88511186838150024414e-02) (15, 8.68517607450485229492e-02) (16, -8.76460000872611999512e-02) (17, 8.59073102474212646484e-02) (18, -3.50103457458317279816e-03) (19, 3.56375268893316388130e-04) (20, 1.23011730611324310303e-02) (21, -6.06876686215400695801e-02) (22, 9.74048301577568054199e-02) (23, 5.05837649106979370117e-02) (24, -2.82893702387809753418e-02) (25, -3.34971100091934204102e-02) (26, -6.74816817045211791992e-02) (27, 7.14401379227638244629e-02) (28, 4.71751987934112548828e-02) (29, 4.55205924808979034424e-02) (30, -6.62159919738769531250e-02) (31, 1.87109373509883880615e-02) (32, -9.30914953351020812988e-02) (33, 3.67684513330459594727e-02) (34, 2.44782585650682449341e-02) (35, 5.00661805272102355957e-02) (36, 8.68039131164550781250e-02) (37, -8.02099555730819702148e-02) (38, -6.08628354966640472412e-02) (39, 8.85366722941398620605e-02) (40, -8.74791890382766723633e-02) (41, -6.37769103050231933594e-02) (42, 5.57341240346431732178e-02) (43, -3.53985019028186798096e-02) (44, 7.97247812151908874512e-02) (45, 4.17939648032188415527e-02) (46, -6.55140653252601623535e-02) (47, 9.70719456672668457031e-02) (48, 1.26826474443078041077e-02) (49, 4.43588569760322570801e-02) (50, -2.04971041530370712280e-02) (51, -6.58293068408966064453e-02) (52, 6.69550076127052307129e-02) (53, -1.06644481420516967773e-02) (54, 6.88680261373519897461e-02) (55, -4.81118969619274139404e-02) (56, 4.07409705221652984619e-02) (57, -8.54752659797668457031e-02) (58, -9.20315831899642944336e-02) (59, 3.25855868868529796600e-03) (60, 5.05429953336715698242e-02) (61, -4.89697456359863281250e-02) (62, -8.99482369422912597656e-02) (63, 6.21281564235687255859e-02) (64, 7.89110958576202392578e-02) (65, 4.27709780633449554443e-02) (66, 3.36316297762095928192e-04) (67, 6.92880153656005859375e-02) (68, 4.87504936754703521729e-02) (69, 3.61361578106880187988e-02) (70, 3.44896465539932250977e-02) (71, 6.23735263943672180176e-02) (72, 5.27133010327816009521e-02) (73, 2.51553393900394439697e-03) (74, -8.86086449027061462402e-02) (75, 4.06872220337390899658e-02) (76, -8.42212364077568054199e-02) (77, -4.33848537504673004150e-02) (78, 2.21368279308080673218e-02) (79, 5.00774830579757690430e-02) (80, 8.44119042158126831055e-02) (0, -1.14235617220401763916e-01) (1, 8.19915607571601867676e-02) (2, 4.73505817353725433350e-02) (3, -9.61704718065448105335e-05) (4, 2.40014903247356414795e-02) (5, 1.11448660492897033691e-01) (6, -8.23544412851333618164e-02) (7, 5.79506196081638336182e-02) (8, -9.67312455177307128906e-02) (9, 3.54752950370311737061e-02) (10, -1.52774723246693611145e-02) (11, -3.79299707710742950439e-02) (12, 3.00845950841903686523e-02) (13, -4.38058637082576751709e-02) (14, -8.50221663713455200195e-02) (15, -2.38868985325098037720e-02) (16, 3.76415476202964782715e-02) (17, 9.49651896953582763672e-02) (18, -9.53134894371032714844e-02) (19, -1.97604056447744369507e-02) (20, 2.33700964599847793579e-02) (21, 7.66128674149513244629e-02) (22, -7.76419937610626220703e-02) (23, -6.92285597324371337891e-02) (24, 6.97237402200698852539e-02) (25, 6.86421841382980346680e-02) (26, -6.13326951861381530762e-02) (27, -6.46224543452262878418e-02) (28, -3.64412292838096618652e-02) (29, 1.00153677165508270264e-01) (30, -9.35274884104728698730e-02) (31, -5.71857858449220657349e-03) (32, 5.02957850694656372070e-02) (33, 7.32893049716949462891e-02) (34, 6.08551241457462310791e-02) (35, 5.25944586843252182007e-03) (36, 5.41122779250144958496e-02) (37, 1.06375984847545623779e-01) (38, -4.71856519579887390137e-02) (39, 7.60746076703071594238e-02) (40, 2.62525826692581176758e-02) (41, 3.79569642245769500732e-02) (42, -8.02415162324905395508e-02) (43, -4.38030399382114410400e-02) (44, 7.59520158171653747559e-02) (45, -5.48131316900253295898e-02) (46, 2.02808552421629428864e-03) (47, 1.99991147965192794800e-02) (48, -8.68958011269569396973e-02) (49, 2.86101903766393661499e-02) (50, 6.75706043839454650879e-02) (51, 5.06601743400096893311e-02) (52, -2.50099711120128631592e-02) (53, 1.10509775578975677490e-01) (54, 5.28742447495460510254e-02) (55, -3.36950607597827911377e-02) (56, 5.15896715223789215088e-02) (57, 1.13693714141845703125e-01) (58, -2.59722061455249786377e-02) (59, -5.76051659882068634033e-02) (60, 9.79061499238014221191e-02) (61, -5.49640133976936340332e-03) (62, 1.52723323553800582886e-02) (63, 5.43608739972114562988e-02) (64, -4.74382564425468444824e-02) (65, -1.08585422858595848083e-02) (66, -6.14557415246963500977e-02) (67, 1.10813878476619720459e-01) (68, -2.93762963265180587769e-02) (69, -1.88126936554908752441e-02) (70, 4.28270697593688964844e-02) (71, 9.58105400204658508301e-02) (72, 8.20888206362724304199e-02) (73, 8.35632383823394775391e-02) (74, -7.66701251268386840820e-02) (75, 7.18347057700157165527e-02) (76, 7.36135989427566528320e-02) (77, 4.26815599203109741211e-02) (78, -3.67457494139671325684e-02) (79, -7.30473846197128295898e-02) (80, -5.89697994291782379150e-02) (0, -7.68865421414375305176e-02) (1, 5.42569458484649658203e-02) (2, 1.39016862958669662476e-02) (3, -6.35176524519920349121e-02) (4, -8.39775521308183670044e-03) (5, 7.58702382445335388184e-02) (6, 7.38416910171508789062e-02) (7, 4.92311595007777214050e-03) (8, -6.08353391289710998535e-02) (9, -8.68913009762763977051e-02) (10, -2.01976839452981948853e-02) (11, 2.66905147582292556763e-02) (12, 1.35754691436886787415e-02) (13, -7.27144926786422729492e-02) (14, 5.39169907569885253906e-02) (15, 9.25963148474693298340e-02) (16, -5.14197722077369689941e-02) (17, 5.85769116878509521484e-02) (18, -5.24240434169769287109e-02) (19, 2.09687035530805587769e-02) (20, 7.58088286966085433960e-03) (21, -6.37093484401702880859e-02) (22, 1.64048327133059501648e-03) (23, -1.90548431128263473511e-02) (24, -5.24005852639675140381e-02) (25, -3.65792959928512573242e-02) (26, -3.27342115342617034912e-02) (27, 8.19349586963653564453e-02) (28, 8.92723072320222854614e-03) (29, -1.28638595342636108398e-02) (30, -8.62812325358390808105e-02) (31, 5.49473538994789123535e-02) (32, -7.78859257698059082031e-02) (33, 3.64188291132450103760e-02) (34, 7.18320086598396301270e-02) (35, 2.95461546629667282104e-02) (36, -5.82035537809133529663e-03) (37, 5.93684352934360504150e-02) (38, -7.23415613174438476562e-02) (39, 4.19960096478462219238e-02) (40, 6.30502924323081970215e-02) (41, 5.27043966576457023621e-03) (42, -4.25390899181365966797e-02) (43, -2.58495509624481201172e-02) (44, 2.18338444828987121582e-02) (45, -8.49669575691223144531e-02) (46, -5.04559203982353210449e-02) (47, 7.13083297014236450195e-02) (48, 5.83069995045661926270e-02) (49, 6.60107191652059555054e-03) (50, -2.61274334043264389038e-02) (51, -2.93247122317552566528e-02) (52, 2.59818937629461288452e-02) (53, 8.37591364979743957520e-02) (54, 3.53835225105285644531e-02) (55, 8.21945145726203918457e-02) (56, -6.84978589415550231934e-02) (57, -8.81249308586120605469e-02) (58, 4.83578965067863464355e-02) (59, 5.25132752954959869385e-02) (60, -1.01161599159240722656e-02) (61, 6.69479221105575561523e-02) (62, -4.92405937984585762024e-03) (63, 1.29165928810834884644e-02) (64, -5.54683059453964233398e-03) (65, -2.86445468664169311523e-02) (66, -6.97021260857582092285e-02) (67, 8.81233587861061096191e-02) (68, -8.36384147405624389648e-02) (69, -5.05607761442661285400e-02) (70, 4.61438298225402832031e-03) (71, 7.57586881518363952637e-02) (72, 3.28830704092979431152e-02) (73, 7.14172944426536560059e-02) (74, -6.72709792852401733398e-02) (75, -4.01025712490081787109e-02) (76, 5.44097051024436950684e-02) (77, -1.07996007427573204041e-02) (78, -8.55703651905059814453e-02) (79, 3.24385017156600952148e-02) (80, 7.38575160503387451172e-02) (0, -1.73735395073890686035e-02) (1, 8.78661349415779113770e-02) (2, -4.79505542898550629616e-04) (3, -3.60667482018470764160e-02) (4, 1.38534186407923698425e-02) (5, -2.28918083012104034424e-02) (6, -1.43652362748980522156e-02) (7, 2.23553851246833801270e-02) (8, -8.33228304982185363770e-02) (9, -6.56356886029243469238e-02) (10, 9.64828506112098693848e-02) (11, 7.86759927868843078613e-02) (12, 1.77305396646261215210e-02) (13, 4.49643563479185104370e-03) (14, -4.35661636292934417725e-02) (15, 8.31099003553390502930e-02) (16, 2.21044626086950302124e-02) (17, -6.01426474750041961670e-02) (18, 8.81127938628196716309e-02) (19, 6.58443272113800048828e-02) (20, 4.54996898770332336426e-02) (21, 5.87357319891452789307e-02) (22, -3.80587810650467872620e-03) (23, 1.02664958685636520386e-02) (24, 8.31286683678627014160e-02) (25, 4.90678809583187103271e-02) (26, -2.90500055998563766479e-02) (27, -3.38297747075557708740e-02) (28, 5.30787147581577301025e-02) (29, 9.72263291478157043457e-02) (30, -6.37215673923492431641e-02) (31, -5.62944635748863220215e-02) (32, 7.37549811601638793945e-02) (33, 4.01036180555820465088e-02) (34, -3.83047130890190601349e-03) (35, -5.97460661083459854126e-03) (36, -9.32383462786674499512e-02) (37, 8.81340354681015014648e-02) (38, -9.10930410027503967285e-02) (39, -7.22365006804466247559e-02) (40, -8.49441215395927429199e-02) (41, -9.30086821317672729492e-02) (42, 9.80446264147758483887e-02) (43, 3.35009880363941192627e-02) (44, 3.97538021206855773926e-03) (45, -4.23513390123844146729e-02) (46, 7.16248573735356330872e-03) (47, -7.23894163966178894043e-02) (48, -1.08324717730283737183e-02) (49, -4.23425575718283653259e-04) (50, 8.43094810843467712402e-02) (51, -6.34247809648513793945e-02) (52, -5.01065887510776519775e-02) (53, -1.69563069939613342285e-02) (54, 3.82775738835334777832e-02) (55, -6.41308203339576721191e-02) (56, -7.57714733481407165527e-02) (57, -8.76796916127204895020e-02) (58, -6.11417414620518684387e-03) (59, 8.09798240661621093750e-02) (60, 1.03433854877948760986e-01) (61, 3.24306301772594451904e-02) (62, -8.23972299695014953613e-02) (63, 7.81644433736801147461e-02) (64, -3.34963463246822357178e-02) (65, 1.59163028001785278320e-02) (66, -3.51970531046390533447e-02) (67, -2.65861395746469497681e-02) (68, -3.97045444697141647339e-03) (69, -2.76739094406366348267e-02) (70, -1.08146900311112403870e-02) (71, 1.04010449722409248352e-02) (72, -3.15333232283592224121e-02) (73, -8.43246467411518096924e-03) (74, -6.56688511371612548828e-02) (75, 7.48574137687683105469e-02) (76, 3.49985510110855102539e-02) (77, 4.46252264082431793213e-02) (78, 9.34941917657852172852e-02) (79, -6.91280737519264221191e-02) (80, -6.50939792394638061523e-02) (0, 8.23796465992927551270e-02) (1, -4.97922189533710479736e-02) (2, -1.77110210061073303223e-02) (3, -5.40672093629837036133e-02) (4, 9.78748276829719543457e-02) (5, 5.38512459024786949158e-03) (6, -2.37449370324611663818e-02) (7, -1.06332898139953613281e-01) (8, -9.75010395050048828125e-02) (9, -5.66763430833816528320e-02) (10, 9.82708707451820373535e-02) (11, 2.41625942289829254150e-02) (12, -3.94321642816066741943e-02) (13, 6.56575709581375122070e-02) (14, 9.29592549800872802734e-02) (15, 6.81464001536369323730e-02) (16, -6.82195201516151428223e-02) (17, -4.57395352423191070557e-02) (18, -3.22083458304405212402e-02) (19, -5.75347011908888816833e-03) (20, 4.85011488199234008789e-02) (21, 6.65826946496963500977e-02) (22, 6.71730116009712219238e-02) (23, -6.91031217575073242188e-02) (24, -9.44428220391273498535e-02) (25, 3.22381928563117980957e-02) (26, 7.70760849118232727051e-02) (27, 3.88680845499038696289e-02) (28, 3.48786488175392150879e-02) (29, -1.05280108749866485596e-01) (30, 7.59515091776847839355e-02) (31, -1.49498635437339544296e-03) (32, -4.16118167340755462646e-02) (33, -4.65466938912868499756e-02) (34, 5.80776445567607879639e-02) (35, -5.56300729513168334961e-02) (36, 7.15416446328163146973e-02) (37, -7.51543864607810974121e-02) (38, -5.94146102666854858398e-02) (39, 6.85728564858436584473e-02) (40, -2.62417756021022796631e-02) (41, -5.65448515117168426514e-02) (42, -6.80251512676477432251e-04) (43, 3.82926613092422485352e-02) (44, -8.40589553117752075195e-02) (45, -8.57477914541959762573e-03) (46, 1.84180587530136108398e-02) (47, -5.11804223060607910156e-02) (48, 5.66735863685607910156e-02) (49, 8.04194509983062744141e-02) (50, 5.68992197513580322266e-02) (51, 2.87071871571242809296e-03) (52, 5.96536919474601745605e-02) (53, 1.84058286249637603760e-02) (54, 4.57283854484558105469e-02) (55, 5.93177117407321929932e-02) (56, -3.76421548426151275635e-02) (57, 1.58362947404384613037e-02) (58, 9.62442811578512191772e-03) (59, 8.74375179409980773926e-02) (60, 1.59435607492923736572e-02) (61, -1.65011491626501083374e-02) (62, -5.14019979164004325867e-03) (63, 7.51416832208633422852e-02) (64, 4.25881445407867431641e-02) (65, -4.98312190175056457520e-02) (66, -7.19980597496032714844e-02) (67, 1.56628657132387161255e-02) (68, -1.43296327441930770874e-02) (69, -2.25265994668006896973e-02) (70, 4.59029572084546089172e-03) (71, 6.31527528166770935059e-02) (72, 3.82816605269908905029e-02) (73, -1.03014662861824035645e-01) (74, 1.42524773254990577698e-02) (75, 5.01324683427810668945e-02) (76, 1.47100407630205154419e-02) (77, -7.18521401286125183105e-02) (78, -8.84544551372528076172e-02) (79, -4.54039573669433593750e-02) (80, -7.34511241316795349121e-02) (0, 7.44685530662536621094e-02) (1, 7.02309533953666687012e-02) (2, 8.51824060082435607910e-02) (3, -5.81363122910261154175e-03) (4, 2.30117272585630416870e-02) (5, 4.91667240858078002930e-02) (6, 6.29848018288612365723e-02) (7, -5.81290721893310546875e-02) (8, -3.55903171002864837646e-02) (9, 5.46040274202823638916e-02) (10, 6.91773071885108947754e-02) (11, 5.34785017371177673340e-02) (12, -4.32731844484806060791e-02) (13, 5.05114458501338958740e-02) (14, 8.46233312040567398071e-03) (15, 1.39711052179336547852e-02) (16, 8.70549976825714111328e-02) (17, -7.03790187835693359375e-02) (18, -9.29540917277336120605e-02) (19, -2.86952704191207885742e-02) (20, 3.07068787515163421631e-02) (21, 7.62831717729568481445e-02) (22, -9.06272083520889282227e-02) (23, 3.52921932935714721680e-02) (24, -4.26327669993042945862e-03) (25, 6.71134069561958312988e-02) (26, -5.70425987243652343750e-02) (27, 3.09589672833681106567e-02) (28, 8.70959982275962829590e-02) (29, 3.68079473264515399933e-03) (30, 5.75014203786849975586e-02) (31, 5.45654073357582092285e-02) (32, -1.84719543904066085815e-02) (33, 4.21849414706230163574e-02) (34, -4.39481399953365325928e-02) (35, -9.99439507722854614258e-02) (36, -1.73920555971562862396e-03) (37, -8.41061398386955261230e-02) (38, -5.55378533899784088135e-02) (39, 6.11837953329086303711e-02) (40, 7.40723237395286560059e-02) (41, -8.30060094594955444336e-02) (42, 1.86967588961124420166e-02) (43, -6.61532431840896606445e-02) (44, 7.15130791068077087402e-02) (45, -7.19909220933914184570e-02) (46, 5.34850172698497772217e-02) (47, 6.05544187128543853760e-02) (48, -3.70349436998367309570e-02) (49, 5.99831789731979370117e-02) (50, -6.16177245974540710449e-02) (51, 9.48313400149345397949e-02) (52, 4.20772545039653778076e-02) (53, -5.23696765303611755371e-02) (54, 3.59815210103988647461e-02) (55, -6.22106790542602539062e-02) (56, -7.96543210744857788086e-02) (57, 7.79063850641250610352e-02) (58, 7.41999149322509765625e-02) (59, -9.48078706860542297363e-02) (60, -1.57068707048892974854e-02) (61, 3.29621918499469757080e-02) (62, 6.44116550683975219727e-02) (63, 6.76933974027633666992e-02) (64, -2.16921195387840270996e-02) (65, -7.92385786771774291992e-02) (66, 7.23169073462486267090e-02) (67, 7.87904858589172363281e-02) (68, -5.77625073492527008057e-02) (69, -7.80035853385925292969e-02) (70, 5.00891245901584625244e-02) (71, -8.05074423551559448242e-02) (72, -5.18976636230945587158e-02) (73, -3.30023951828479766846e-02) (74, -3.97508889436721801758e-02) (75, -8.11208412051200866699e-02) (76, 8.06769728660583496094e-03) (77, -8.63881260156631469727e-02) (78, 8.58515277504920959473e-02) (79, 6.51888176798820495605e-02) (80, 8.27333256602287292480e-02) (0, -5.64595907926559448242e-02) (1, 5.75597584247589111328e-02) (2, 3.22836078703403472900e-02) (3, -3.06902490556240081787e-02) (4, 1.87644530087709426880e-02) (5, 5.83505295217037200928e-02) (6, 1.13813625648617744446e-02) (7, -2.09196768701076507568e-02) (8, 4.91860359907150268555e-02) (9, 2.87494319491088390350e-03) (10, 8.42120796442031860352e-02) (11, -2.61603463441133499146e-02) (12, -1.85427293181419372559e-02) (13, 4.22695800662040710449e-02) (14, 7.39705786108970642090e-02) (15, -2.58572865277528762817e-03) (16, 3.14739309251308441162e-02) (17, 4.18541394174098968506e-02) (18, 5.82894720137119293213e-02) (19, 4.61493693292140960693e-02) (20, 2.08069826476275920868e-03) (21, 6.77838772535324096680e-02) (22, -9.40088480710983276367e-02) (23, 6.30971118807792663574e-02) (24, -5.48739545047283172607e-02) (25, -8.16590934991836547852e-02) (26, -1.57224889844655990601e-02) (27, -5.08367344737052917480e-02) (28, -7.08422511816024780273e-02) (29, -6.21792115271091461182e-02) (30, -5.65353445708751678467e-02) (31, -6.36289045214653015137e-02) (32, -7.79098123311996459961e-02) (33, 6.01676143705844879150e-02) (34, 3.36054377257823944092e-02) (35, 1.58032663166522979736e-02) (36, 4.41264733672142028809e-02) (37, -7.76004567742347717285e-02) (38, -9.56454202532768249512e-02) (39, -2.18149218708276748657e-02) (40, 3.88523228466510772705e-02) (41, -1.12045980989933013916e-01) (42, 6.77045732736587524414e-02) (43, -7.98221006989479064941e-02) (44, 4.55827042460441589355e-02) (45, 3.30650471150875091553e-02) (46, 4.26016971468925476074e-02) (47, -2.79319304972887039185e-02) (48, -2.58251442573964595795e-03) (49, -1.66502427309751510620e-02) (50, -5.46113699674606323242e-02) (51, -1.11641362309455871582e-01) (52, -2.37444788217544555664e-02) (53, -6.50146231055259704590e-02) (54, 7.54286274313926696777e-02) (55, 4.00047842413187026978e-03) (56, -2.37920358777046203613e-02) (57, -5.84822855889797210693e-02) (58, 7.61628225445747375488e-02) (59, -1.67082380503416061401e-02) (60, -7.25096650421619415283e-03) (61, -9.16221514344215393066e-02) (62, 3.77785973250865936279e-02) (63, 9.88976098597049713135e-03) (64, 8.15232992172241210938e-02) (65, -3.94133962690830230713e-02) (66, -5.64539693295955657959e-02) (67, 2.23054066300392150879e-02) (68, 4.12580370903015136719e-03) (69, -4.42400500178337097168e-02) (70, -6.27576336264610290527e-02) (71, -5.66256009042263031006e-02) (72, -2.51589491963386535645e-02) (73, -1.12443007528781890869e-01) (74, -1.21875768527388572693e-02) (75, -9.10296365618705749512e-02) (76, 6.61792308092117309570e-02) (77, -8.36794152855873107910e-02) (78, 4.98005375266075134277e-03) (79, -6.90325200557708740234e-02) (80, 2.51886285841464996338e-02) (0, 5.47025203704833984375e-02) (1, -5.86260333657264709473e-02) (2, -9.67607051134109497070e-02) (3, 9.23402458429336547852e-02) (4, -7.41588175296783447266e-02) (5, 1.35735422372817993164e-02) (6, -2.23149564117193222046e-02) (7, -2.82549634575843811035e-02) (8, -2.92142783291637897491e-03) (9, 6.67242407798767089844e-02) (10, 8.24367403984069824219e-02) (11, 1.32353147491812705994e-02) (12, 1.61341354250907897949e-02) (13, -5.14035054948180913925e-04) (14, 1.39467911794781684875e-02) (15, 8.58895257115364074707e-02) (16, 5.62713146209716796875e-02) (17, -5.66640160977840423584e-02) (18, 1.18927017319947481155e-03) (19, -7.94608443975448608398e-02) (20, -2.53361370414495468140e-02) (21, 5.22841215133666992188e-02) (22, -4.56481054425239562988e-03) (23, -2.81911585479974746704e-02) (24, -5.13153672218322753906e-02) (25, 1.40259955078363418579e-02) (26, -7.38783553242683410645e-02) (27, -2.66101695597171783447e-02) (28, -6.89417794346809387207e-02) (29, -3.49881649017333984375e-02) (30, -9.44357141852378845215e-02) (31, 7.20991566777229309082e-02) (32, 1.81938800960779190063e-02) (33, -9.75998416543006896973e-02) (34, 7.69805833697319030762e-02) (35, 3.43851372599601745605e-02) (36, 2.73831207305192947388e-02) (37, -5.45825511217117309570e-02) (38, -8.81552398204803466797e-02) (39, -8.18350687623023986816e-02) (40, -8.09455364942550659180e-02) (41, 9.28028374910354614258e-02) (42, 3.91282401978969573975e-02) (43, 3.42643223702907562256e-02) (44, -2.68219038844108581543e-04) (45, -5.10136447846889495850e-02) (46, 3.09233460575342178345e-02) (47, -4.66616451740264892578e-02) (48, 2.12143571116030216217e-03) (49, -7.49827921390533447266e-02) (50, -1.46979512646794319153e-02) (51, 7.22704827785491943359e-02) (52, 8.78779068589210510254e-02) (53, 7.44304955005645751953e-02) (54, -4.55697067081928253174e-02) (55, -7.02877119183540344238e-02) (56, -1.98098598048090934753e-03) (57, -2.66017429530620574951e-02) (58, 1.29031427204608917236e-02) (59, 2.07470897585153579712e-02) (60, 4.47384454309940338135e-02) (61, 1.37249212712049484253e-02) (62, 9.88431274890899658203e-04) (63, -3.94006371498107910156e-02) (64, 2.24896278232336044312e-02) (65, -2.69163753837347030640e-02) (66, -9.67726930975914001465e-02) (67, -5.21324872970581054688e-02) (68, 2.80016679316759109497e-02) (69, -8.31665769219398498535e-02) (70, -1.86573490500450134277e-02) (71, 4.63053323328495025635e-02) (72, -7.70822837948799133301e-02) (73, -8.69614258408546447754e-02) (74, -8.72776657342910766602e-03) (75, 1.74932368099689483643e-02) (76, -1.95913799107074737549e-02) (77, -8.36885422468185424805e-02) (78, 8.12085121870040893555e-02) (79, 6.99915215373039245605e-02) (80, -4.72781211137771606445e-02) (0, -1.64289772510528564453e-02) (1, 3.55515033006668090820e-02) (2, -5.51968812942504882812e-02) (3, -7.16363936662673950195e-02) (4, -7.95439705252647399902e-02) (5, -4.21141982078552246094e-02) (6, 5.31560480594635009766e-02) (7, -3.03701851516962051392e-02) (8, 9.05591323971748352051e-02) (9, -4.57122214138507843018e-02) (10, -6.05450272560119628906e-02) (11, -8.42982903122901916504e-03) (12, 7.23422542214393615723e-02) (13, -1.43954418599605560303e-02) (14, -5.91439381241798400879e-02) (15, -6.27338364720344543457e-02) (16, 9.09653864800930023193e-03) (17, -2.73791979998350143433e-02) (18, 8.78384783864021301270e-02) (19, 1.44906267523765563965e-02) (20, 6.51480406522750854492e-02) (21, 1.91853065043687820435e-02) (22, 5.11238463222980499268e-02) (23, 6.87981918454170227051e-02) (24, -6.89228326082229614258e-02) (25, -4.12760451436042785645e-02) (26, -3.54257598519325256348e-02) (27, -6.67672604322433471680e-02) (28, -2.99387760460376739502e-02) (29, -8.19535553455352783203e-02) (30, 1.63459556642919778824e-03) (31, 7.29765184223651885986e-03) (32, 9.17836353182792663574e-02) (33, 2.64107082039117813110e-02) (34, 7.56379365921020507812e-02) (35, 8.01054537296295166016e-02) (36, -7.91808590292930603027e-02) (37, -8.14617378637194633484e-04) (38, -3.42390090227127075195e-02) (39, -1.08212575316429138184e-01) (40, 7.42247700691223144531e-02) (41, 3.99041781201958656311e-03) (42, 7.20485625788569450378e-03) (43, 4.65711876749992370605e-02) (44, -8.74508172273635864258e-02) (45, 3.66517230868339538574e-02) (46, -8.08812826871871948242e-02) (47, 1.53928063809871673584e-02) (48, -5.90353608131408691406e-02) (49, -1.15462370216846466064e-01) (50, -3.26170213520526885986e-02) (51, -1.07341572642326354980e-01) (52, 3.84034067392349243164e-02) (53, -1.01333700120449066162e-01) (54, 9.49116423726081848145e-02) (55, 4.81805764138698577881e-02) (56, -1.09190372750163078308e-02) (57, -6.28358721733093261719e-02) (58, -8.65232795476913452148e-02) (59, 3.20362336933612823486e-02) (60, -2.51731798052787780762e-02) (61, 1.32175837643444538116e-03) (62, -3.48819606006145477295e-02) (63, -3.88817042112350463867e-02) (64, -5.30389808118343353271e-02) (65, -7.26566985249519348145e-02) (66, -3.31206768751144409180e-02) (67, -3.56737338006496429443e-02) (68, 5.64685873687267303467e-02) (69, 4.31328713893890380859e-02) (70, 6.73695467412471771240e-03) (71, 3.20319049060344696045e-02) (72, -9.42856818437576293945e-03) (73, -1.08645923435688018799e-01) (74, 1.32030714303255081177e-02) (75, -1.14767290651798248291e-02) (76, 9.02684777975082397461e-02) (77, 1.43701378256082534790e-02) (78, -6.21700957417488098145e-02) (79, -1.10530957579612731934e-01) (80, 3.55819277465343475342e-02) (0, 1.84981208294630050659e-02) (1, -8.98229554295539855957e-02) (2, -1.94662287831306457520e-02) (3, 1.34454686194658279419e-02) (4, -7.33926519751548767090e-02) (5, -6.73982203006744384766e-02) (6, -7.66719803214073181152e-02) (7, -3.66395600140094757080e-02) (8, -3.74201312661170959473e-02) (9, 5.78613951802253723145e-02) (10, 6.84980079531669616699e-02) (11, 7.07447528839111328125e-02) (12, -5.65210282802581787109e-02) (13, -6.44455105066299438477e-02) (14, -5.01317158341407775879e-02) (15, -1.91293526440858840942e-02) (16, 2.54776794463396072388e-02) (17, 1.95015501230955123901e-02) (18, -4.12878170609474182129e-02) (19, -2.30078492313623428345e-02) (20, -7.64094889163970947266e-02) (21, -1.02997183799743652344e-01) (22, 7.26110562682151794434e-02) (23, -7.50360861420631408691e-02) (24, 2.70209349691867828369e-02) (25, -2.89608687162399291992e-02) (26, -9.40334126353263854980e-02) (27, -5.11361807584762573242e-02) (28, 3.23131754994392395020e-02) (29, -9.82513576745986938477e-02) (30, 9.75142270326614379883e-02) (31, -7.89254680275917053223e-02) (32, -6.37854337692260742188e-02) (33, -3.64228412508964538574e-02) (34, 5.98033182322978973389e-02) (35, -5.85384666919708251953e-02) (36, 1.92027837038040161133e-02) (37, 6.33342415094375610352e-02) (38, 1.54166426509618759155e-02) (39, 6.82461485266685485840e-02) (40, 3.44608873128890991211e-02) (41, -1.85144450515508651733e-02) (42, 5.43442443013191223145e-02) (43, 7.65491873025894165039e-02) (44, 3.14407125115394592285e-02) (45, -1.04431256651878356934e-01) (46, -2.01438032090663909912e-02) (47, -4.81465607881546020508e-02) (48, 3.49539257586002349854e-02) (49, 2.28790882974863052368e-02) (50, 5.24616576731204986572e-02) (51, 4.88102398812770843506e-02) (52, 4.16794270277023315430e-02) (53, 1.12405559048056602478e-02) (54, 9.50079411268234252930e-02) (55, -4.59250472486019134521e-02) (56, -9.76491943001747131348e-02) (57, 8.57179239392280578613e-02) (58, 2.33787856996059417725e-02) (59, 1.66320186108350753784e-02) (60, -9.97699350118637084961e-02) (61, 1.05438781902194023132e-02) (62, 5.40503598749637603760e-02) (63, -6.84470310807228088379e-02) (64, 8.62429440021514892578e-02) (65, 4.38403384760022163391e-03) (66, -1.08979707583785057068e-02) (67, 2.40069022402167320251e-03) (68, -1.36297103017568588257e-02) (69, -9.01654660701751708984e-02) (70, 1.94557872600853443146e-03) (71, -7.92030841112136840820e-02) (72, 1.79935321211814880371e-02) (73, -5.85991479456424713135e-02) (74, -8.10501575469970703125e-02) (75, -5.99499307572841644287e-02) (76, -2.48671192675828933716e-02) (77, -1.34932128712534904480e-02) (78, 1.29333492368459701538e-02) (79, 8.39172229170799255371e-02) (80, -6.73364177346229553223e-02) (0, -2.33466960489749908447e-02) (1, 4.47446517646312713623e-02) (2, 7.70781859755516052246e-02) (3, 7.63447061181068420410e-02) (4, 5.98225779831409454346e-02) (5, -7.17960223555564880371e-02) (6, 9.69641134142875671387e-02) (7, 3.76023165881633758545e-02) (8, 6.50960281491279602051e-02) (9, 8.86903423815965652466e-03) (10, 6.08974881470203399658e-02) (11, -2.44536362588405609131e-02) (12, -2.18818783760070800781e-02) (13, -1.09262771904468536377e-01) (14, -1.35582769289612770081e-02) (15, 8.53266716003417968750e-02) (16, -2.25274427793920040131e-03) (17, 8.66094231605529785156e-02) (18, -1.06645282357931137085e-02) (19, 8.31056851893663406372e-03) (20, -9.79715958237648010254e-03) (21, 8.81701242178678512573e-03) (22, -6.68695196509361267090e-02) (23, 3.38326841592788696289e-02) (24, 4.27168682217597961426e-02) (25, -2.49477215111255645752e-02) (26, -9.10384804010391235352e-02) (27, -7.16975405812263488770e-02) (28, -9.02217924594879150391e-02) (29, -1.09414406120777130127e-01) (30, -2.81229242682456970215e-02) (31, -4.40913811326026916504e-02) (32, 5.99879771471023559570e-02) (33, -6.43511116504669189453e-02) (34, -4.14530970156192779541e-02) (35, -9.99680487439036369324e-04) (36, -1.22161768376827239990e-02) (37, -6.39883428812026977539e-02) (38, -5.31545765697956085205e-02) (39, -5.99029511213302612305e-02) (40, 5.83595000207424163818e-02) (41, -9.33047533035278320312e-02) (42, 3.12109980732202529907e-02) (43, -6.35699629783630371094e-02) (44, -8.74101519584655761719e-02) (45, -8.98677483201026916504e-02) (46, -5.47579824924468994141e-02) (47, 5.84079837426543235779e-03) (48, -8.21877270936965942383e-02) (49, 1.93784628063440322876e-02) (50, -6.09333850443363189697e-02) (51, -1.45833764690905809402e-03) (52, -4.86601293087005615234e-02) (53, -4.16163243353366851807e-02) (54, -4.54796254634857177734e-02) (55, 7.91380405426025390625e-02) (56, 5.42858280241489410400e-02) (57, -5.17744012176990509033e-02) (58, -7.13895857334136962891e-02) (59, 4.57365699112415313721e-02) (60, -4.80999797582626342773e-02) (61, -9.20862983912229537964e-03) (62, -8.15329849720001220703e-02) (63, -9.19288918375968933105e-02) (64, 3.92053052783012390137e-02) (65, -3.21481004357337951660e-02) (66, 2.40330640226602554321e-02) (67, -7.57924839854240417480e-02) (68, 2.36766152083873748779e-02) (69, 7.75002092123031616211e-02) (70, -2.28847609832882881165e-03) (71, -1.75294950604438781738e-02) (72, -8.73031169176101684570e-02) (73, -8.64286124706268310547e-02) (74, 4.14584167301654815674e-02) (75, -8.47989469766616821289e-02) (76, -3.54317314922809600830e-02) (77, 7.43093118071556091309e-02) (78, 4.34164330363273620605e-02) (79, -4.57326807081699371338e-02) (80, 1.75402499735355377197e-02) (0, 6.58535137772560119629e-02) (1, 9.59186479449272155762e-02) (2, 6.56451955437660217285e-02) (3, -2.92083062231540679932e-02) (4, -7.83764719963073730469e-02) (5, 7.85552337765693664551e-02) (6, -9.77839305996894836426e-02) (7, 1.12310051918029785156e-02) (8, 9.08770114183425903320e-02) (9, 8.49320814013481140137e-02) (10, 5.33979460597038269043e-02) (11, 1.19770914316177368164e-02) (12, 9.63784605264663696289e-02) (13, 9.36143845319747924805e-02) (14, -5.94039186835289001465e-02) (15, -9.70485061407089233398e-03) (16, 7.59889278560876846313e-03) (17, -1.13724463153630495071e-03) (18, -1.02111466228961944580e-01) (19, 1.48152923211455345154e-02) (20, 7.26152732968330383301e-02) (21, 1.37130171060562133789e-02) (22, 8.07514693588018417358e-03) (23, 1.14280842244625091553e-01) (24, -6.22238628566265106201e-02) (25, 5.21847829222679138184e-02) (26, -5.91113716363906860352e-02) (27, -5.46923577785491943359e-02) (28, -3.02906688302755355835e-02) (29, 3.09671182185411453247e-02) (30, 4.92369830608367919922e-02) (31, -1.84540115296840667725e-02) (32, -1.01262284442782402039e-02) (33, 3.45864407718181610107e-02) (34, 1.36048244312405586243e-02) (35, 4.31404002010822296143e-02) (36, -2.22428645938634872437e-02) (37, 4.48942743241786956787e-02) (38, -6.04318827390670776367e-02) (39, -1.21175674721598625183e-02) (40, 1.01440437138080596924e-02) (41, 9.36825722455978393555e-02) (42, 7.70491659641265869141e-02) (43, 6.16643298417329788208e-03) (44, 6.54064938426017761230e-02) (45, -7.14140534400939941406e-02) (46, 6.22045621275901794434e-02) (47, -2.11327727884054183960e-02) (48, -3.22367995977401733398e-03) (49, 8.19915011525154113770e-02) (50, 5.71099445223808288574e-02) (51, -1.76091324537992477417e-02) (52, -3.82075048983097076416e-02) (53, -1.52372187003493309021e-02) (54, -3.58549468219280242920e-02) (55, 2.06434577703475952148e-02) (56, -9.39382165670394897461e-02) (57, 2.70984303206205368042e-02) (58, 3.47950048744678497314e-02) (59, 2.72984732873737812042e-03) (60, -6.06945194303989410400e-02) (61, -2.45548365637660026550e-03) (62, 5.93265965580940246582e-02) (63, 3.44258248805999755859e-02) (64, 1.13736487925052642822e-01) (65, -1.39719499275088310242e-02) (66, -4.71215918660163879395e-02) (67, -5.27992891147732734680e-03) (68, 1.01885698735713958740e-01) (69, -1.85086373239755630493e-02) (70, 3.29973995685577392578e-02) (71, 1.04265948757529258728e-02) (72, -6.72167465090751647949e-02) (73, 3.22685427963733673096e-02) (74, 8.29811021685600280762e-02) (75, 1.12335257232189178467e-01) (76, -3.15674638841301202774e-04) (77, 6.27745315432548522949e-02) (78, -4.17784042656421661377e-02) (79, -6.22555911540985107422e-02) (80, 8.25188960880041122437e-03) (0, -9.28667113184928894043e-02) (1, -1.73384845256805419922e-02) (2, 6.54001310467720031738e-02) (3, -1.90700385719537734985e-02) (4, 3.93184497952461242676e-02) (5, -2.83547379076480865479e-02) (6, -2.05842200666666030884e-02) (7, -4.63142730295658111572e-02) (8, -9.91373732686042785645e-02) (9, 6.74271136522293090820e-02) (10, -2.55278889089822769165e-02) (11, -1.84533763676881790161e-02) (12, 1.56647097319364547729e-02) (13, 9.21168178319931030273e-02) (14, -2.43523269891738891602e-02) (15, 8.31806659698486328125e-02) (16, -6.76711872220039367676e-02) (17, 5.34399077296257019043e-02) (18, 7.56534039974212646484e-02) (19, -4.20871283859014511108e-03) (20, -1.97522621601819992065e-03) (21, -3.13878767192363739014e-02) (22, 3.22486162185668945312e-02) (23, -8.80884304642677307129e-02) (24, -5.42968995869159698486e-02) (25, 2.64324247837066650391e-02) (26, 3.21583226323127746582e-02) (27, 9.05786901712417602539e-02) (28, 7.50555917620658874512e-02) (29, 5.26506975293159484863e-02) (30, -3.89317888766527175903e-03) (31, 9.32254269719123840332e-02) (32, -6.78162872791290283203e-02) (33, -3.43801639974117279053e-02) (34, -2.89506297558546066284e-02) (35, 7.85505697131156921387e-02) (36, 3.42380553483963012695e-02) (37, 5.57016320526599884033e-02) (38, -6.47598579525947570801e-02) (39, 3.82896475493907928467e-02) (40, 2.40651909261941909790e-02) (41, 7.17750517651438713074e-03) (42, -7.97238126397132873535e-02) (43, -6.22427798807621002197e-02) (44, -7.42124626412987709045e-04) (45, -3.73582169413566589355e-03) (46, -8.28449204564094543457e-02) (47, 3.15393060445785522461e-02) (48, -5.34113682806491851807e-02) (49, 9.73550379276275634766e-02) (50, -7.76002481579780578613e-02) (51, 4.77972328662872314453e-02) (52, -3.85295078158378601074e-02) (53, 6.00211657583713531494e-02) (54, 5.60223460197448730469e-02) (55, 1.24568762257695198059e-02) (56, -1.77029669284820556641e-02) (57, -6.71033607795834541321e-03) (58, -9.26441804040223360062e-04) (59, -3.55960242450237274170e-02) (60, -5.48945963382720947266e-02) (61, 9.82205346226692199707e-02) (62, -4.44106981158256530762e-02) (63, -2.18442734330892562866e-02) (64, -3.64232771098613739014e-02) (65, 2.85930912941694259644e-02) (66, -4.48885522782802581787e-02) (67, 9.78511050343513488770e-02) (68, -1.81260071694850921631e-02) (69, -1.43560012802481651306e-02) (70, 2.91314180940389633179e-02) (71, -9.59226936101913452148e-02) (72, 8.78168940544128417969e-02) (73, 5.25862127542495727539e-02) (74, -6.09992593526840209961e-02) (75, -1.13573875278234481812e-02) (76, -6.09317794442176818848e-02) (77, -4.08209599554538726807e-02) (78, -8.32213461399078369141e-02) (79, -5.20603638142347335815e-03) (80, -4.82213683426380157471e-02) (0, -4.68720942735671997070e-02) (1, -7.15386942028999328613e-02) (2, 1.93502604961395263672e-02) (3, 8.93815606832504272461e-02) (4, 1.03908136487007141113e-01) (5, -8.34474712610244750977e-02) (6, -1.18123851716518402100e-02) (7, -2.30594724416732788086e-02) (8, 2.73282956331968307495e-02) (9, 3.55356261134147644043e-02) (10, 3.15870903432369232178e-02) (11, 1.29495859146118164062e-02) (12, 9.77237746119499206543e-02) (13, -1.04023046791553497314e-01) (14, 8.62081944942474365234e-02) (15, 1.64791960269212722778e-02) (16, -4.08078059554100036621e-02) (17, 6.91243335604667663574e-02) (18, -9.07572060823440551758e-02) (19, 3.25637497007846832275e-02) (20, 1.05097508057951927185e-02) (21, -1.01177997887134552002e-01) (22, 3.10040693730115890503e-02) (23, -4.84628006815910339355e-02) (24, -5.14931492507457733154e-02) (25, -9.25625413656234741211e-02) (26, 9.75722447037696838379e-03) (27, -7.00838910415768623352e-03) (28, -5.88758289813995361328e-02) (29, 8.81084874272346496582e-02) (30, 5.38933090865612030029e-02) (31, -3.61452959477901458740e-02) (32, -6.22351802885532379150e-02) (33, -3.96733060479164123535e-02) (34, -2.45704259723424911499e-02) (35, -7.90794417262077331543e-02) (36, -2.70949467085301876068e-03) (37, 4.50026988983154296875e-02) (38, 4.55918256193399429321e-03) (39, -8.78691151738166809082e-02) (40, -9.12728160619735717773e-03) (41, -6.39297068119049072266e-02) (42, 3.71613614261150360107e-02) (43, -1.12669477239251136780e-02) (44, -5.58502003550529479980e-02) (45, 1.65569670498371124268e-02) (46, -7.46425390243530273438e-02) (47, -9.35769930947571992874e-04) (48, 3.74717591330409049988e-03) (49, -7.99682214856147766113e-02) (50, -4.64586801826953887939e-02) (51, -9.52441319823265075684e-02) (52, -6.08878880739212036133e-02) (53, 7.06591829657554626465e-02) (54, -2.46024280786514282227e-02) (55, -2.69634481519460678101e-02) (56, 9.64564830064773559570e-02) (57, 7.01664537191390991211e-02) (58, 8.43824297189712524414e-02) (59, -8.08367729187011718750e-02) (60, 6.87346532940864562988e-02) (61, 2.89973914623260498047e-02) (62, -2.70207133144140243530e-03) (63, -9.75662469863891601562e-02) (64, -1.00559659302234649658e-01) (65, 6.39131069183349609375e-02) (66, -6.26272186636924743652e-02) (67, -6.13195821642875671387e-03) (68, 2.55854763090610504150e-02) (69, 4.88388016819953918457e-02) (70, 3.55909876525402069092e-02) (71, -8.29700082540512084961e-02) (72, -9.02041569352149963379e-02) (73, -4.13953885436058044434e-02) (74, 2.49267444014549255371e-02) (75, -5.55139146745204925537e-02) (76, 1.12183392047882080078e-01) (77, 3.86335812509059906006e-02) (78, 6.26701638102531433105e-02) (79, -1.12768290564417839050e-02) (80, 7.82675445079803466797e-02) (0, -9.09742042422294616699e-02) (1, 1.79643779993057250977e-02) (2, -8.48968774080276489258e-02) (3, 9.86805707216262817383e-02) (4, 8.57317671179771423340e-02) (5, 3.90587979927659034729e-03) (6, 9.00139734148979187012e-02) (7, 7.37902373075485229492e-02) (8, -1.46189806982874870300e-02) (9, -7.43802189826965332031e-02) (10, 4.65684011578559875488e-02) (11, -7.10980296134948730469e-02) (12, 2.54279412329196929932e-02) (13, 6.48167878389358520508e-02) (14, -6.68556988239288330078e-02) (15, 3.23710404336452484131e-03) (16, -9.56798419356346130371e-02) (17, 4.31196875870227813721e-02) (18, -7.23216831684112548828e-02) (19, 6.83877244591712951660e-02) (20, -3.41695919632911682129e-02) (21, -3.90182174742221832275e-02) (22, 6.98457732796669006348e-02) (23, 3.99215742945671081543e-02) (24, 8.24486762285232543945e-02) (25, -6.96360096335411071777e-02) (26, 3.04924510419368743896e-02) (27, 3.83581817150115966797e-02) (28, 8.78059417009353637695e-02) (29, -6.28675445914268493652e-02) (30, 1.50795895606279373169e-02) (31, -8.90416577458381652832e-02) (32, 4.83322814106941223145e-02) (33, 3.70692349970340728760e-02) (34, -9.79702025651931762695e-02) (35, 4.35179769992828369141e-02) (36, -6.59384652972221374512e-02) (37, 1.00810043513774871826e-01) (38, 1.63548253476619720459e-02) (39, 2.55527775734663009644e-02) (40, -7.63683617115020751953e-02) (41, -3.56903336942195892334e-02) (42, 5.10422512888908386230e-02) (43, 5.02781458199024200439e-02) (44, -7.46103897690773010254e-02) (45, 8.81479606032371520996e-02) (46, -5.42054399847984313965e-02) (47, -6.69787600636482238770e-02) (48, 2.43428200483322143555e-02) (49, -1.83582529425621032715e-02) (50, 9.25879105925559997559e-02) (51, 9.65798124670982360840e-02) (52, 3.43974344432353973389e-02) (53, 7.10922479629516601562e-02) (54, 2.89379749447107315063e-02) (55, 2.59759221225976943970e-02) (56, 9.41507592797279357910e-02) (57, -3.16179208457469940186e-02) (58, -4.29729409515857696533e-02) (59, 9.23709198832511901855e-02) (60, 1.52793771121650934219e-03) (61, 7.85400718450546264648e-02) (62, 9.79866161942481994629e-02) (63, -4.65536154806613922119e-02) (64, 1.20843807235360145569e-02) (65, -9.42424684762954711914e-02) (66, 9.17798802256584167480e-02) (67, 4.93601709604263305664e-02) (68, -9.96537134051322937012e-02) (69, 7.05550238490104675293e-03) (70, -3.63392420113086700439e-02) (71, -7.42141604423522949219e-02) (72, 6.23950920999050140381e-02) (73, -7.78362974524497985840e-02) (74, 6.96252286434173583984e-02) (75, 9.32548493146896362305e-02) (76, -1.03491261601448059082e-01) (77, -7.77339711785316467285e-02) (78, -8.06127265095710754395e-02) (79, 3.41494753956794738770e-02) (80, -1.91491830628365278244e-03) (0, -8.69758948683738708496e-02) (1, 1.88499074429273605347e-02) (2, -6.85708746314048767090e-02) (3, 7.92388841509819030762e-02) (4, -4.78815212845802307129e-02) (5, 5.27308396995067596436e-02) (6, 7.80825167894363403320e-02) (7, 1.55955981463193893433e-02) (8, -8.53949710726737976074e-02) (9, 6.47863596677780151367e-02) (10, -8.24031457304954528809e-02) (11, 8.71997922658920288086e-02) (12, 6.50293901562690734863e-02) (13, -3.39865386486053466797e-02) (14, -1.52702603372745215893e-04) (15, 6.51837438344955444336e-02) (16, -4.04432676732540130615e-02) (17, -5.66483736038208007812e-02) (18, 6.85155242681503295898e-02) (19, 6.10775798559188842773e-02) (20, 1.38378115370869636536e-02) (21, 8.84156674146652221680e-02) (22, 2.74240821599960327148e-02) (23, 3.11421900987625122070e-02) (24, 5.97048290073871612549e-02) (25, 1.62404477596282958984e-02) (26, 3.65512892603874206543e-02) (27, 7.71047100424766540527e-02) (28, 3.77027504146099090576e-02) (29, -3.42083424329757690430e-02) (30, -2.35429704189300537109e-02) (31, 5.26310801506042480469e-02) (32, 9.29881408810615539551e-02) (33, 9.64286644011735916138e-03) (34, 3.96471358835697174072e-02) (35, -5.44704347848892211914e-02) (36, -3.04189622402191162109e-02) (37, 1.79602075368165969849e-02) (38, 6.89979419112205505371e-02) (39, -1.52980266138911247253e-02) (40, -1.06480978429317474365e-02) (41, 8.73661041259765625000e-02) (42, -2.09110174328088760376e-02) (43, -4.41562049090862274170e-02) (44, -4.05410304665565490723e-02) (45, 7.95589163899421691895e-02) (46, -7.40477368235588073730e-02) (47, 2.10503470152616500854e-02) (48, -7.25166648626327514648e-02) (49, -1.02691084146499633789e-01) (50, -1.37212807312607765198e-02) (51, 4.55389656126499176025e-02) (52, 8.93709808588027954102e-02) (53, -8.12617689371109008789e-02) (54, -1.88291519880294799805e-02) (55, 5.41577227413654327393e-02) (56, 3.87946106493473052979e-02) (57, -7.81230255961418151855e-02) (58, 3.53215299546718597412e-02) (59, -1.89793910831212997437e-02) (60, -8.47223121672868728638e-03) (61, -8.43864977359771728516e-02) (62, -6.17763735353946685791e-02) (63, -1.26460175961256027222e-02) (64, 2.97839436680078506470e-02) (65, 8.04855301976203918457e-02) (66, 3.78030166029930114746e-02) (67, -9.74737703800201416016e-02) (68, 3.55626386590301990509e-03) (69, 8.84081609547138214111e-03) (70, -6.38062926009297370911e-03) (71, -1.04054726660251617432e-01) (72, 3.11664864420890808105e-03) (73, 7.38052278757095336914e-02) (74, -4.12983521819114685059e-02) (75, 6.41441345214843750000e-02) (76, 6.06344155967235565186e-02) (77, -1.27215478569269180298e-02) (78, -9.18155908584594726562e-03) (79, 9.06348749995231628418e-02) (80, -6.47640880197286605835e-03) (0, 7.92729631066322326660e-02) (1, 5.81375285983085632324e-02) (2, -1.16865057498216629028e-02) (3, -7.78857767581939697266e-02) (4, -7.33150243759155273438e-02) (5, -3.97300794720649719238e-02) (6, 5.05214408040046691895e-02) (7, -2.97489278018474578857e-02) (8, 8.82088989019393920898e-02) (9, -4.84230853617191314697e-02) (10, 5.40362633764743804932e-02) (11, -7.94857144355773925781e-02) (12, -1.57949328422546386719e-02) (13, -4.14233431220054626465e-02) (14, 4.07124683260917663574e-02) (15, -2.10150294005870819092e-02) (16, 8.88223648071289062500e-02) (17, 6.15653358399868011475e-02) (18, 7.28476122021675109863e-02) (19, 1.35647030547261238098e-02) (20, -5.23551441729068756104e-02) (21, 8.66400152444839477539e-02) (22, -9.11589935421943664551e-02) (23, -6.41250982880592346191e-02) (24, -6.49714171886444091797e-02) (25, 8.71865600347518920898e-02) (26, 8.51017460227012634277e-02) (27, 3.89531813561916351318e-02) (28, -3.52283567190170288086e-02) (29, 9.30566564202308654785e-02) (30, -7.81467184424400329590e-02) (31, -3.29235047101974487305e-02) (32, 2.51099616289138793945e-02) (33, 2.10602302104234695435e-02) (34, -3.74969877302646636963e-02) (35, 6.90624341368675231934e-02) (36, 5.68665713071823120117e-02) (37, -7.05595687031745910645e-02) (38, -7.54684060811996459961e-02) (39, 5.61532638967037200928e-02) (40, -3.48831824958324432373e-02) (41, 8.07036012411117553711e-02) (42, 5.85636086761951446533e-02) (43, 4.99050244688987731934e-02) (44, -7.73116126656532287598e-02) (45, 6.34367391467094421387e-03) (46, -9.33903306722640991211e-02) (47, -8.50817263126373291016e-02) (48, -5.20123988389968872070e-02) (49, 9.07236784696578979492e-02) (50, 5.99624402821063995361e-03) (51, 1.29297235980629920959e-03) (52, 5.65955154597759246826e-02) (53, 2.29636635631322860718e-02) (54, 1.64885129779577255249e-02) (55, 1.00581407546997070312e-01) (56, -9.11760702729225158691e-03) (57, 1.11914351582527160645e-02) (58, 1.97760500013828277588e-02) (59, 6.73036649823188781738e-02) (60, -9.38453432172536849976e-03) (61, 4.77932728826999664307e-02) (62, -8.23157578706741333008e-02) (63, -8.18836465477943420410e-02) (64, -4.47219572961330413818e-02) (65, -1.36720910668373107910e-02) (66, 7.00394511222839355469e-02) (67, -8.69427546858787536621e-02) (68, -3.39837279170751571655e-03) (69, 8.95176157355308532715e-02) (70, 3.89701090753078460693e-02) (71, 5.99819757044315338135e-02) (72, 4.33402508497238159180e-02) (73, 9.24811512231826782227e-03) (74, -1.27975447103381156921e-02) (75, 7.30354785919189453125e-02) (76, 7.91510790586471557617e-02) (77, 2.36148177646100521088e-03) (78, 6.64339959621429443359e-02) (79, -5.29297813773155212402e-02) (80, -3.08933611959218978882e-02) (0, -4.15929928421974182129e-02) (1, 2.71573327481746673584e-02) (2, -8.19398984313011169434e-02) (3, 8.15979167819023132324e-02) (4, -7.02288672327995300293e-02) (5, -8.69890153408050537109e-02) (6, -4.03722375631332397461e-02) (7, 3.84835302829742431641e-02) (8, 2.32482943683862686157e-02) (9, -7.80985951423645019531e-02) (10, -8.72436463832855224609e-02) (11, -3.69327701628208160400e-02) (12, -7.11720809340476989746e-02) (13, -7.65594542026519775391e-02) (14, 1.04695896152406930923e-03) (15, 5.05459075793623924255e-03) (16, 8.16045850515365600586e-02) (17, 7.33033847063779830933e-03) (18, 9.03724133968353271484e-02) (19, 6.23946897685527801514e-02) (20, -5.20462282001972198486e-02) (21, 4.29075472056865692139e-02) (22, 3.31172998994588851929e-03) (23, 4.77795377373695373535e-02) (24, -7.79558345675468444824e-02) (25, -3.24594378471374511719e-02) (26, 3.08756120502948760986e-02) (27, 1.68962366878986358643e-02) (28, -7.98991173505783081055e-02) (29, 7.20724239945411682129e-02) (30, 8.10502320528030395508e-02) (31, -3.06058977730572223663e-03) (32, -1.09013719484210014343e-02) (33, -9.47855189442634582520e-02) (34, -3.22170853614807128906e-02) (35, 3.05491890758275985718e-02) (36, -9.17341709136962890625e-02) (37, 3.72714102268218994141e-02) (38, -3.16880419850349426270e-02) (39, 3.77452112734317779541e-02) (40, 5.54179474711418151855e-02) (41, -2.12452095001935958862e-02) (42, 9.62376818060874938965e-02) (43, 8.24229866266250610352e-02) (44, -2.85710464231669902802e-03) (45, -2.56973406067118048668e-04) (46, -2.26839184761047363281e-02) (47, -2.01328713446855545044e-02) (48, 9.77435410022735595703e-02) (49, -2.46730167418718338013e-02) (50, -6.97672590613365173340e-02) (51, -4.94129322469234466553e-02) (52, -9.28887873888015747070e-02) (53, 4.17428910732269287109e-02) (54, 8.80182608962059020996e-02) (55, -6.23041987419128417969e-02) (56, 9.91924181580543518066e-02) (57, 2.81569212675094604492e-02) (58, 4.46771048009395599365e-02) (59, -6.90745785832405090332e-02) (60, -4.23648906871676445007e-03) (61, 3.04476320743560791016e-02) (62, 2.04949658364057540894e-02) (63, 8.63062441349029541016e-02) (64, 3.12049686908721923828e-02) (65, 9.31233167648315429688e-02) (66, 9.95850283652544021606e-03) (67, 4.05298396944999694824e-02) (68, 2.16157380491495132446e-02) (69, 7.24810734391212463379e-02) (70, -3.87204624712467193604e-02) (71, -2.38864850252866744995e-02) (72, -6.27712830901145935059e-02) (73, -3.44137549400329589844e-02) (74, -5.13177700340747833252e-02) (75, 3.98380570113658905029e-02) (76, 4.35630232095718383789e-02) (77, 3.22518050670623779297e-02) (78, -9.03545171022415161133e-02) (79, 5.84137663245201110840e-02) (80, 9.44238528609275817871e-02) (0, -6.31171315908432006836e-02) (1, 1.02463677525520324707e-01) (2, -9.64685603976249694824e-02) (3, 8.26812461018562316895e-02) (4, 8.26701223850250244141e-02) (5, -5.80353178083896636963e-02) (6, 7.45805054903030395508e-02) (7, 1.34548014029860496521e-02) (8, 8.06818231940269470215e-02) (9, -9.29215475916862487793e-02) (10, 9.71928313374519348145e-02) (11, 1.09220314770936965942e-02) (12, 1.98765043169260025024e-02) (13, 8.36209654808044433594e-02) (14, -7.06105902791023254395e-02) (15, 1.14150764420628547668e-02) (16, -1.57305430620908737183e-02) (17, 7.02242329716682434082e-02) (18, -7.54478946328163146973e-02) (19, -4.41833734512329101562e-02) (20, -6.73525407910346984863e-02) (21, 4.86200035084038972855e-04) (22, -8.97148158401250839233e-03) (23, -3.62150836735963821411e-03) (24, 4.15672399103641510010e-02) (25, -7.10822865366935729980e-02) (26, -5.63534758985042572021e-02) (27, -2.70001478493213653564e-02) (28, -7.13350698351860046387e-02) (29, 1.01567730307579040527e-01) (30, -3.64038869738578796387e-02) (31, -2.25163232535123825073e-02) (32, 9.22715514898300170898e-02) (33, -2.72815339267253875732e-02) (34, -5.20384572446346282959e-02) (35, 8.36991220712661743164e-02) (36, 3.49511415697634220123e-03) (37, -6.91328272223472595215e-02) (38, -9.02148801833391189575e-03) (39, -1.01156048476696014404e-02) (40, -6.91017732024192810059e-02) (41, -1.05960480868816375732e-02) (42, 9.27545726299285888672e-02) (43, 5.13744466006755828857e-02) (44, -3.45651544630527496338e-02) (45, -7.41470456123352050781e-02) (46, -4.77955192327499389648e-02) (47, 5.19441589713096618652e-02) (48, 8.65541920065879821777e-02) (49, -1.70154888182878494263e-02) (50, 9.68659147620201110840e-02) (51, -7.71118029952049255371e-02) (52, 7.33756795525550842285e-02) (53, -6.98816590011119842529e-03) (54, 9.32520721107721328735e-03) (55, 2.05177441239356994629e-02) (56, 1.26487901434302330017e-02) (57, 5.87888024747371673584e-02) (58, 8.40312615036964416504e-02) (59, 4.81439977884292602539e-02) (60, 5.39666377007961273193e-02) (61, -4.85412701964378356934e-02) (62, -8.22337642312049865723e-02) (63, 4.80790063738822937012e-02) (64, 1.78724303841590881348e-02) (65, -3.04947458207607269287e-02) (66, 2.37865820527076721191e-02) (67, -7.73860961198806762695e-02) (68, -8.67417827248573303223e-03) (69, -8.72541591525077819824e-02) (70, -1.89083779696375131607e-03) (71, 2.21977084875106811523e-02) (72, -1.04981120675802230835e-02) (73, -2.74739484302699565887e-03) (74, -3.68837974965572357178e-02) (75, 5.91781698167324066162e-02) (76, 5.71846030652523040771e-03) (77, 2.03675553202629089355e-02) (78, 1.03435164783149957657e-03) (79, 3.15883499570190906525e-03) (80, 9.13941338658332824707e-02) (0, 3.50125436671078205109e-03) (1, 1.15928379818797111511e-02) (2, 6.77546039223670959473e-02) (3, 8.13431665301322937012e-02) (4, -7.16056153178215026855e-02) (5, -2.33022477477788925171e-02) (6, -9.59362369030714035034e-04) (7, 7.33788013458251953125e-02) (8, -3.61829660832881927490e-02) (9, -6.49253129959106445312e-02) (10, 2.80853305011987686157e-02) (11, 5.26632787659764289856e-03) (12, -4.70659732818603515625e-02) (13, -3.46922278404235839844e-02) (14, -7.60766491293907165527e-02) (15, 1.35839805006980895996e-02) (16, 9.02028381824493408203e-02) (17, -6.46822303533554077148e-02) (18, -9.20210257172584533691e-02) (19, 9.29723083972930908203e-02) (20, 4.05824482440948486328e-02) (21, 1.91477630287408828735e-02) (22, -1.18019049987196922302e-02) (23, -7.20772445201873779297e-02) (24, 8.67229700088500976562e-02) (25, -6.29710555076599121094e-02) (26, 4.57230880856513977051e-02) (27, -4.30476944893598556519e-03) (28, 4.46484535932540893555e-02) (29, -6.32957369089126586914e-02) (30, -8.72956309467554092407e-03) (31, -6.66270926594734191895e-02) (32, 5.57739101350307464600e-02) (33, -4.79465574026107788086e-02) (34, -7.71726071834564208984e-02) (35, 7.41319730877876281738e-02) (36, 3.61308082938194274902e-02) (37, 1.28815425559878349304e-02) (38, 4.85261492431163787842e-02) (39, 9.37547981739044189453e-02) (40, 5.08811697363853454590e-02) (41, -2.41068582981824874878e-02) (42, 2.69020348787307739258e-03) (43, -9.68221500515937805176e-02) (44, 4.49358895421028137207e-02) (45, 2.28437948971986770630e-02) (46, 2.48505976051092147827e-02) (47, 3.25263775885105133057e-02) (48, 6.52635544538497924805e-02) (49, 2.48419400304555892944e-02) (50, 3.45738306641578674316e-02) (51, 1.50709220179123803973e-05) (52, -4.75353971123695373535e-02) (53, -8.53864327073097229004e-02) (54, 3.56874093413352966309e-02) (55, -6.93342983722686767578e-02) (56, -4.07675132155418395996e-02) (57, -2.70756855607032775879e-02) (58, 3.39352414011955261230e-02) (59, 9.37525779008865356445e-02) (60, 1.35169653221964836121e-02) (61, -8.06188136339187622070e-02) (62, -6.75027891993522644043e-02) (63, -3.36101092398166656494e-02) (64, -2.51969341188669204712e-02) (65, -4.96452823281288146973e-02) (66, -5.43197542428970336914e-02) (67, -9.12840738892555236816e-02) (68, 6.95159137248992919922e-02) (69, -1.03443376719951629639e-01) (70, -8.56183320283889770508e-02) (71, 1.97107065469026565552e-02) (72, -1.80790834128856658936e-02) (73, 1.00022628903388977051e-02) (74, 2.98031717538833618164e-02) (75, -7.78089985251426696777e-02) (76, -5.21941296756267547607e-02) (77, -5.17263039946556091309e-02) (78, 6.19642771780490875244e-02) (79, -1.00243322551250457764e-01) (80, 7.92254135012626647949e-02) (0, 5.24819735437631607056e-03) (1, -9.71044786274433135986e-03) (2, -6.79592043161392211914e-02) (3, -5.50278788432478904724e-03) (4, -5.06630875170230865479e-02) (5, -5.21432720124721527100e-02) (6, 7.39660263061523437500e-02) (7, 1.16419803816825151443e-03) (8, 9.67567712068557739258e-02) (9, 5.00834435224533081055e-02) (10, -6.51437118649482727051e-02) (11, -9.60259363055229187012e-02) (12, -1.03671357035636901855e-01) (13, -1.22771952301263809204e-02) (14, 8.59289430081844329834e-04) (15, -6.17569386959075927734e-02) (16, 5.00081181526184082031e-02) (17, -5.12330420315265655518e-03) (18, -7.39012733101844787598e-02) (19, 3.56301777064800262451e-02) (20, 1.71955339610576629639e-02) (21, 3.21293659508228302002e-02) (22, -7.17781782150268554688e-02) (23, -8.16414654254913330078e-02) (24, -2.10430100560188293457e-02) (25, -5.86432106792926788330e-02) (26, -2.30919104069471359253e-02) (27, 1.45075451582670211792e-02) (28, -7.25431516766548156738e-02) (29, -3.76802049577236175537e-02) (30, 8.63436423242092132568e-03) (31, -3.28857102431356906891e-03) (32, 8.66299420595169067383e-02) (33, 2.54805386066436767578e-02) (34, -7.32475370168685913086e-02) (35, -8.90676379203796386719e-02) (36, -9.43685919046401977539e-02) (37, 7.73419588804244995117e-02) (38, 2.80317850410938262939e-02) (39, -1.12584196031093597412e-01) (40, 4.65858913958072662354e-02) (41, 6.25495389103889465332e-02) (42, -8.65976586937904357910e-02) (43, 4.41112592816352844238e-02) (44, -2.90167927742004394531e-02) (45, 5.98920229822397232056e-03) (46, -8.70544686913490295410e-02) (47, -8.26054736971855163574e-02) (48, -7.17982128262519836426e-02) (49, -7.75126591324806213379e-02) (50, 8.48948881030082702637e-02) (51, 3.67022417485713958740e-02) (52, 8.41409489512443542480e-02) (53, -1.00466474890708923340e-01) (54, 8.37761536240577697754e-02) (55, -5.18952570855617523193e-02) (56, -3.21559570729732513428e-02) (57, -5.51017411053180694580e-02) (58, 9.00355204939842224121e-02) (59, -2.42177676409482955933e-02) (60, 2.47129742056131362915e-02) (61, -1.07156364247202873230e-02) (62, -1.05102665722370147705e-01) (63, 8.58785584568977355957e-03) (64, -6.79089128971099853516e-02) (65, -8.75508338212966918945e-02) (66, 4.22442145645618438721e-02) (67, -6.32330179214477539062e-02) (68, -8.39621871709823608398e-02) (69, -1.98626853525638580322e-02) (70, -3.23727950453758239746e-02) (71, 6.55724406242370605469e-02) (72, -1.96929294615983963013e-02) (73, -3.62399779260158538818e-02) (74, 4.03782203793525695801e-02) (75, 4.10226657986640930176e-02) (76, -7.71053731441497802734e-02) (77, 4.01462092995643615723e-02) (78, 8.82041379809379577637e-02) (79, -8.11236873269081115723e-02) (80, 9.54611226916313171387e-02) (0, 6.69479593634605407715e-02) (1, 9.60369706153869628906e-02) (2, 7.92346447706222534180e-02) (3, 1.00061632692813873291e-01) (4, 6.90607279539108276367e-02) (5, -4.51357215642929077148e-02) (6, -3.78443561494350433350e-02) (7, -5.45494817197322845459e-02) (8, -5.71525171399116516113e-02) (9, 6.64777681231498718262e-02) (10, 7.56644308567047119141e-02) (11, 5.67771345376968383789e-02) (12, 6.64906874299049377441e-02) (13, 1.16271805018186569214e-02) (14, -1.04706734418869018555e-01) (15, 1.02184377610683441162e-01) (16, -4.29610982537269592285e-02) (17, -4.05589006841182708740e-02) (18, -8.35030898451805114746e-02) (19, 6.27962276339530944824e-02) (20, 1.03353727608919143677e-02) (21, -9.04751047492027282715e-02) (22, -6.84041231870651245117e-02) (23, 9.97931063175201416016e-02) (24, 4.33060750365257263184e-02) (25, 9.93127226829528808594e-02) (26, 9.28335040807723999023e-02) (27, 1.25705217942595481873e-02) (28, 7.79331773519515991211e-02) (29, -5.80445863306522369385e-02) (30, 2.93527171015739440918e-03) (31, 7.15496987104415893555e-02) (32, -7.47950896620750427246e-02) (33, -4.57583647221326828003e-03) (34, 5.66789694130420684814e-02) (35, -8.83578956127166748047e-02) (36, 3.71079929172992706299e-02) (37, -6.46466687321662902832e-02) (38, -4.46071103215217590332e-02) (39, 9.08476039767265319824e-02) (40, 9.65526327490806579590e-02) (41, -6.67892768979072570801e-02) (42, 4.10063117742538452148e-02) (43, 6.45928159356117248535e-02) (44, 3.79462689161300659180e-02) (45, 4.32981736958026885986e-02) (46, 5.14917075634002685547e-02) (47, 1.00453160703182220459e-01) (48, 8.93595591187477111816e-02) (49, 8.35341736674308776855e-02) (50, 4.62354719638824462891e-02) (51, 1.13989580422639846802e-02) (52, 7.70284235477447509766e-02) (53, 9.39470455050468444824e-02) (54, -3.25899082235991954803e-03) (55, 3.76851372420787811279e-02) (56, 7.93976038694381713867e-02) (57, 6.28096563741564750671e-03) (58, -6.37954100966453552246e-02) (59, 7.66786560416221618652e-02) (60, 4.05729636549949645996e-02) (61, 5.12630306184291839600e-02) (62, 3.84265780448913574219e-02) (63, 7.16235116124153137207e-02) (64, -5.97037114202976226807e-02) (65, 5.16283651813864707947e-03) (66, 7.35909789800643920898e-02) (67, 8.22890400886535644531e-02) (68, 2.86990050226449966431e-02) (69, -7.42907151579856872559e-02) (70, 5.12982346117496490479e-02) (71, 2.77338027954101562500e-02) (72, -5.81140108406543731689e-02) (73, 6.18866272270679473877e-03) (74, -2.02044285833835601807e-02) (75, 8.91428142786026000977e-02) (76, -7.73830935359001159668e-02) (77, -5.56390285491943359375e-02) (78, 7.59977102279663085938e-02) (79, -6.27220645546913146973e-02) (80, -8.27193111181259155273e-02) (0, 4.04896065592765808105e-02) (1, 2.17022392898797988892e-02) (2, 9.97124239802360534668e-02) (3, 4.51619410887360572815e-03) (4, -5.64257577061653137207e-02) (5, 1.59930624067783355713e-02) (6, 5.50043769180774688721e-03) (7, 2.31448691338300704956e-02) (8, 6.94006085395812988281e-02) (9, -4.18341346085071563721e-02) (10, -2.44594346731901168823e-02) (11, 9.99928102828562259674e-04) (12, -9.37290042638778686523e-02) (13, -7.37852603197097778320e-02) (14, 5.27419336140155792236e-02) (15, -5.53809385746717453003e-03) (16, -8.88151302933692932129e-02) (17, 1.25771341845393180847e-02) (18, -6.11003674566745758057e-02) (19, -8.25302898883819580078e-02) (20, -1.45961064845323562622e-02) (21, 4.46219034492969512939e-02) (22, -2.39938534796237945557e-02) (23, 7.34331458806991577148e-02) (24, -6.05970993638038635254e-02) (25, -5.33131621778011322021e-02) (26, -7.34904408454895019531e-02) (27, -3.79003956913948059082e-02) (28, -5.58047965168952941895e-02) (29, -5.93385882675647735596e-02) (30, -1.10737169161438941956e-02) (31, 5.40335141122341156006e-02) (32, 9.10449400544166564941e-02) (33, -2.47481204569339752197e-02) (34, -1.15172071382403373718e-02) (35, -8.70393812656402587891e-02) (36, -8.14574062824249267578e-02) (37, 7.36853703856468200684e-02) (38, 4.99006286263465881348e-02) (39, 7.44912847876548767090e-02) (40, -5.16362898051738739014e-02) (41, -7.59467557072639465332e-02) (42, -5.75343938544392585754e-03) (43, -4.55955937504768371582e-02) (44, -3.19466888904571533203e-02) (45, -6.11006133258342742920e-02) (46, 7.45468810200691223145e-02) (47, -2.49898806214332580566e-02) (48, 7.45620205998420715332e-02) (49, -1.01299680769443511963e-01) (50, 1.93197242915630340576e-02) (51, -4.83074486255645751953e-02) (52, 6.81824311614036560059e-02) (53, 8.30632895231246948242e-02) (54, -5.05600981414318084717e-02) (55, -1.05817899107933044434e-01) (56, -4.75000776350498199463e-02) (57, -3.82422432303428649902e-02) (58, -2.05707084387540817261e-02) (59, -2.04542446881532669067e-02) (60, 1.72988958656787872314e-02) (61, 5.96474483609199523926e-02) (62, -4.72897812724113464355e-02) (63, 5.01787755638360977173e-03) (64, -5.02407178282737731934e-02) (65, 3.23515236377716064453e-02) (66, 3.72317396104335784912e-02) (67, -3.37017923593521118164e-02) (68, 2.82621625810861587524e-02) (69, -5.87885174900293350220e-03) (70, -2.28969845920801162720e-02) (71, 7.77925550937652587891e-02) (72, 4.98731955885887145996e-02) (73, 5.60485795140266418457e-02) (74, -4.20149490237236022949e-02) (75, -9.18896570801734924316e-02) (76, -6.07407204806804656982e-02) (77, -7.92284160852432250977e-02) (78, 8.07386543601751327515e-03) (79, -1.13738298416137695312e-01) (80, -5.20470701158046722412e-02) (0, -7.09159821271896362305e-02) (1, -2.61886492371559143066e-02) (2, -8.04706364870071411133e-02) (3, -6.53306022286415100098e-02) (4, 1.81864425539970397949e-02) (5, -6.66552037000656127930e-02) (6, -1.54637461528182029724e-02) (7, 1.01553395390510559082e-01) (8, 1.12493606284260749817e-02) (9, 8.50596651434898376465e-02) (10, 2.61815991252660751343e-02) (11, -9.41263232380151748657e-03) (12, -5.80544508993625640869e-02) (13, -4.94205951690673828125e-02) (14, 4.70818020403385162354e-02) (15, 9.28907841444015502930e-02) (16, 9.15405675768852233887e-02) (17, -6.60364180803298950195e-02) (18, 2.10538543760776519775e-02) (19, 5.15190977603197097778e-03) (20, -1.13971345126628875732e-03) (21, 1.95570997893810272217e-02) (22, -5.22217750549316406250e-02) (23, -2.60220970958471298218e-02) (24, 7.53943175077438354492e-02) (25, -2.50704288482666015625e-02) (26, -7.73839140310883522034e-03) (27, -8.36404561996459960938e-02) (28, 8.00461843609809875488e-02) (29, -7.07862142007797956467e-04) (30, -3.92031483352184295654e-02) (31, -8.19202736020088195801e-02) (32, 6.06225878000259399414e-02) (33, -1.64410360157489776611e-02) (34, -5.94573542475700378418e-02) (35, -1.43079124391078948975e-02) (36, 5.54275792092084884644e-03) (37, 3.10202389955520629883e-02) (38, -1.99104063212871551514e-02) (39, -7.93975219130516052246e-02) (40, 8.62449500709772109985e-03) (41, 1.05547554790973663330e-01) (42, 2.79308506287634372711e-03) (43, 4.93167452514171600342e-02) (44, -5.15488944947719573975e-02) (45, -4.84739542007446289062e-02) (46, 3.24986428022384643555e-02) (47, -6.01941160857677459717e-02) (48, -2.32996214181184768677e-02) (49, -4.34765480458736419678e-02) (50, 3.50880064070224761963e-02) (51, 7.58750438690185546875e-02) (52, 6.71091079711914062500e-02) (53, 8.41428115963935852051e-02) (54, -5.92757314443588256836e-02) (55, 4.39624972641468048096e-02) (56, -4.94602322578430175781e-02) (57, 3.51340398192405700684e-02) (58, 5.16675077378749847412e-02) (59, -6.62839040160179138184e-02) (60, -7.14055597782135009766e-02) (61, -8.70525687932968139648e-02) (62, -5.57510666549205780029e-02) (63, 8.86120796203613281250e-02) (64, -9.52086504548788070679e-03) (65, -1.43453571945428848267e-02) (66, -3.33569273352622985840e-02) (67, 9.45606008172035217285e-02) (68, -9.19086486101150512695e-02) (69, 4.27547208964824676514e-02) (70, -9.86215174198150634766e-02) (71, 1.40267014503479003906e-02) (72, 3.57820242643356323242e-02) (73, 7.69251585006713867188e-03) (74, -4.72125075757503509521e-02) (75, 8.58420059084892272949e-02) (76, 4.23990339040756225586e-02) (77, 8.69817808270454406738e-02) (78, -8.40571671724319458008e-02) (79, -7.38727152347564697266e-02) (80, -6.87287524342536926270e-02) (0, 4.15792390704154968262e-02) (1, 8.80398899316787719727e-02) (2, 9.17527228593826293945e-02) (3, 2.21349690109491348267e-02) (4, -7.66682475805282592773e-02) (5, 3.08405961841344833374e-02) (6, 6.74463436007499694824e-02) (7, 5.41923493146896362305e-02) (8, -2.18205992132425308228e-02) (9, 9.60333719849586486816e-02) (10, 7.48272612690925598145e-02) (11, -1.48360524326562881470e-02) (12, -6.49722442030906677246e-02) (13, 5.82163743674755096436e-02) (14, 6.80319517850875854492e-02) (15, 1.43890101462602615356e-02) (16, -8.07418525218963623047e-02) (17, 5.70746399462223052979e-02) (18, 1.74965113401412963867e-02) (19, 5.60546927154064178467e-02) (20, 5.87472654879093170166e-02) (21, -7.42217823863029479980e-02) (22, -9.54547245055437088013e-03) (23, -3.94594036042690277100e-02) (24, -2.51412037760019302368e-02) (25, -2.92586740106344223022e-02) (26, -9.49499160051345825195e-02) (27, -4.34418171644210815430e-02) (28, -1.90432257950305938721e-02) (29, -7.37201049923896789551e-02) (30, -1.36045794934034347534e-02) (31, -7.12972134351730346680e-02) (32, -8.53403434157371520996e-02) (33, -1.87595915049314498901e-02) (34, 5.05416393280029296875e-02) (35, -5.83652481436729431152e-02) (36, -8.80378708243370056152e-02) (37, 2.14390736073255538940e-02) (38, 9.82420742511749267578e-02) (39, -7.39482743665575981140e-03) (40, 1.86090208590030670166e-02) (41, 7.37810879945755004883e-02) (42, 7.88786038756370544434e-02) (43, 5.45899681746959686279e-02) (44, 3.27234677970409393311e-02) (45, 4.86995279788970947266e-02) (46, -3.22621762752532958984e-02) (47, 5.37407957017421722412e-02) (48, 4.69903508201241493225e-03) (49, 8.92086848616600036621e-02) (50, 7.78798898681998252869e-03) (51, -3.28867807984352111816e-02) (52, -8.69450345635414123535e-02) (53, -9.68242809176445007324e-02) (54, 2.62114293873310089111e-02) (55, -6.98173744603991508484e-03) (56, -2.75755487382411956787e-02) (57, 3.62043604254722595215e-02) (58, 4.81542646884918212891e-02) (59, 5.89690431952476501465e-02) (60, 6.24463818967342376709e-02) (61, -6.18157014250755310059e-02) (62, 8.71236249804496765137e-02) (63, 7.92158842086791992188e-02) (64, 1.96850039064884185791e-02) (65, 4.08642180263996124268e-02) (66, -7.93704539537429809570e-02) (67, 3.38195860385894775391e-02) (68, -3.84191088378429412842e-02) (69, -8.10392349958419799805e-02) (70, -7.59462863206863403320e-02) (71, 8.20222347974777221680e-02) (72, 9.14228335022926330566e-02) (73, -9.35956984758377075195e-02) (74, 3.63459996879100799561e-02) (75, 2.68840249627828598022e-02) (76, 5.19749037921428680420e-02) (77, -9.23407152295112609863e-02) (78, -2.01835427433252334595e-02) (79, -3.71464416384696960449e-02) (80, 9.64550003409385681152e-02) (0, 8.72808694839477539062e-02) (1, 3.30977328121662139893e-02) (2, -8.88059437274932861328e-02) (3, 9.84961539506912231445e-02) (4, -4.48680296540260314941e-02) (5, 9.56807099282741546631e-03) (6, -3.21256369352340698242e-02) (7, 9.83046069741249084473e-02) (8, -4.38370294868946075439e-02) (9, -6.73676729202270507812e-02) (10, 5.72131685912609100342e-02) (11, -1.51572958566248416901e-03) (12, -8.18493440747261047363e-02) (13, 4.10725101828575134277e-02) (14, -8.58908668160438537598e-02) (15, 6.21579326689243316650e-02) (16, 5.88707029819488525391e-02) (17, 5.26592247188091278076e-02) (18, -7.93557614088058471680e-02) (19, 8.17512422800064086914e-02) (20, 7.60465264320373535156e-02) (21, -9.27226841449737548828e-02) (22, 7.12453499436378479004e-02) (23, 8.62155854701995849609e-02) (24, 3.98427955806255340576e-02) (25, 2.02693929895758628845e-03) (26, 3.69610339403152465820e-02) (27, 5.21066188812255859375e-02) (28, 7.68996924161911010742e-02) (29, -9.53685790300369262695e-02) (30, 4.58320081233978271484e-02) (31, 7.52976015210151672363e-02) (32, 3.09499427676200866699e-02) (33, 6.28471001982688903809e-02) (34, 6.66901096701622009277e-02) (35, 9.40110608935356140137e-02) (36, -3.41010838747024536133e-02) (37, -5.82775175571441650391e-02) (38, 9.05446931719779968262e-02) (39, 2.70765274763107299805e-02) (40, -2.86105610430240631104e-02) (41, 4.86425459384918212891e-02) (42, -7.81162828207015991211e-02) (43, -9.78742819279432296753e-03) (44, -1.38791110366582870483e-02) (45, -6.09291531145572662354e-02) (46, -5.44350296258926391602e-02) (47, -5.27147762477397918701e-02) (48, 8.58529433608055114746e-02) (49, -2.74986345320940017700e-02) (50, -7.81613886356353759766e-02) (51, 6.64882287383079528809e-02) (52, -2.69328225404024124146e-02) (53, 9.91605445742607116699e-02) (54, 4.65373732149600982666e-02) (55, -8.07684957981109619141e-02) (56, -4.91219479590654373169e-03) (57, -1.05141140520572662354e-02) (58, 6.51658996939659118652e-02) (59, -2.08024550229310989380e-02) (60, -9.52854007482528686523e-03) (61, 1.55638707801699638367e-02) (62, -4.99463453888893127441e-02) (63, -7.61462002992630004883e-02) (64, -2.47100759297609329224e-02) (65, -7.97074735164642333984e-02) (66, -8.64699557423591613770e-02) (67, 4.28477451205253601074e-02) (68, -4.30397205054759979248e-02) (69, 1.02237381041049957275e-01) (70, -3.92834655940532684326e-02) (71, 2.84617282450199127197e-02) (72, 4.34449017047882080078e-02) (73, -1.23850200325250625610e-02) (74, -8.71115848422050476074e-02) (75, -6.72619566321372985840e-02) (76, 1.51150748133659362793e-02) (77, -3.68361696600914001465e-02) (78, -2.59109530597925186157e-02) (79, 1.04743000119924545288e-02) (80, 2.93782483786344528198e-02) (0, -1.56384073197841644287e-02) (1, -1.71981360763311386108e-02) (2, -1.00290834903717041016e-01) (3, 5.86159573867917060852e-03) (4, -9.17831286787986755371e-02) (5, -6.79550170898437500000e-02) (6, 8.32625105977058410645e-02) (7, 1.62239503115415573120e-02) (8, 8.45028907060623168945e-02) (9, -2.26248446851968765259e-02) (10, 8.94035473465919494629e-02) (11, 9.96754504740238189697e-03) (12, 1.58973298966884613037e-02) (13, -7.48681575059890747070e-02) (14, 6.65207207202911376953e-02) (15, 4.30335663259029388428e-02) (16, -7.54969716072082519531e-02) (17, 2.20858305692672729492e-02) (18, 8.39637666940689086914e-02) (19, -6.39172941446304321289e-02) (20, 7.48870894312858581543e-02) (21, 2.43233442306518554688e-02) (22, 6.93102926015853881836e-02) (23, -2.95706279575824737549e-02) (24, 2.19518952071666717529e-02) (25, 1.10489606857299804688e-01) (26, 7.43529126048088073730e-02) (27, 9.68871116638183593750e-02) (28, -3.72264534235000610352e-02) (29, -1.76165648736059665680e-03) (30, 1.47813800722360610962e-02) (31, 8.21045339107513427734e-02) (32, 5.48229590058326721191e-02) (33, 3.03331706672906875610e-02) (34, -4.00697141885757446289e-02) (35, 8.69639441370964050293e-02) (36, 3.69944199919700622559e-02) (37, -3.44670303165912628174e-02) (38, -7.12221860885620117188e-03) (39, 3.64100784063339233398e-02) (40, 2.88630165159702301025e-02) (41, -1.56251154839992523193e-02) (42, -6.96557760238647460938e-02) (43, -5.42095080018043518066e-02) (44, -6.01395172998309135437e-03) (45, 1.06016017496585845947e-01) (46, 6.35778903961181640625e-02) (47, 2.40285415202379226685e-02) (48, 5.55037148296833038330e-03) (49, 6.55807331204414367676e-02) (50, 3.29529382288455963135e-02) (51, -8.05688556283712387085e-03) (52, -3.53112556040287017822e-02) (53, 1.89299471676349639893e-02) (54, 3.82092185318470001221e-02) (55, 1.04694314301013946533e-01) (56, 6.63598859682679176331e-03) (57, 3.11113689094781875610e-02) (58, 7.84949660301208496094e-02) (59, 9.13648530840873718262e-02) (60, -8.44941511750221252441e-02) (61, 5.34311635419726371765e-03) (62, 5.51596619188785552979e-02) (63, 7.55389332771301269531e-02) (64, -7.76513665914535522461e-02) (65, -7.34627991914749145508e-02) (66, 4.43139672279357910156e-02) (67, 6.31799623370170593262e-02) (68, -2.93097794055938720703e-02) (69, -6.91027119755744934082e-02) (70, -3.67104820907115936279e-02) (71, 1.00276589393615722656e-01) (72, -1.54027696698904037476e-02) (73, 1.13606592640280723572e-02) (74, -7.79852271080017089844e-02) (75, 9.01987701654434204102e-02) (76, -2.68839653581380844116e-02) (77, 1.00195005536079406738e-01) (78, -9.68746375292539596558e-03) (79, 1.10569402575492858887e-01) (80, 3.99411469697952270508e-02) (0, -6.53049647808074951172e-02) (1, -3.63495685160160064697e-02) (2, -9.17652919888496398926e-02) (3, 1.90827045589685440063e-02) (4, -7.82870501279830932617e-02) (5, 8.57347324490547180176e-02) (6, -5.86120523512363433838e-02) (7, 2.09217686206102371216e-02) (8, 7.58369192481040954590e-02) (9, -9.66600477695465087891e-02) (10, 4.02160286903381347656e-02) (11, -4.41533625125885009766e-02) (12, 6.23591430485248565674e-02) (13, -1.13639989867806434631e-02) (14, -1.82001814246177673340e-02) (15, 6.57742917537689208984e-02) (16, -6.16362877190113067627e-02) (17, -8.32505524158477783203e-02) (18, -5.29387444257736206055e-02) (19, -5.63186891376972198486e-02) (20, 1.81255768984556198120e-03) (21, -8.07091146707534790039e-02) (22, 4.43656556308269500732e-02) (23, 8.84072631597518920898e-02) (24, -4.66150194406509399414e-02) (25, 9.41545516252517700195e-03) (26, -5.40967751294374465942e-03) (27, -7.46316984295845031738e-02) (28, -8.37584435939788818359e-02) (29, -2.42067724466323852539e-02) (30, 7.55509287118911743164e-02) (31, -7.81771093606948852539e-02) (32, 6.44838362932205200195e-02) (33, 6.99740648269653320312e-02) (34, 6.75227567553520202637e-02) (35, 6.57336413860321044922e-02) (36, 7.97965899109840393066e-02) (37, -1.10674537718296051025e-01) (38, -1.59866665489971637726e-03) (39, 4.25581112504005432129e-02) (40, -9.30045619606971740723e-02) (41, -6.39971792697906494141e-02) (42, -8.51995050907135009766e-02) (43, 6.81109502911567687988e-02) (44, 4.02170009911060333252e-02) (45, -1.18900556117296218872e-02) (46, 5.73174618184566497803e-02) (47, 7.34855681657791137695e-02) (48, 2.58554611355066299438e-02) (49, -1.10997855663299560547e-01) (50, -5.82257620990276336670e-02) (51, -8.19093808531761169434e-02) (52, -6.88873752951622009277e-02) (53, 7.26860091090202331543e-02) (54, -7.12782591581344604492e-02) (55, -3.01153585314750671387e-02) (56, 2.84113804809749126434e-03) (57, 8.26993398368358612061e-03) (58, 1.64726804941892623901e-02) (59, 1.47956633009016513824e-03) (60, -1.02281428873538970947e-01) (61, -1.80669873952865600586e-02) (62, 4.05013449490070343018e-02) (63, 5.77614754438400268555e-02) (64, -3.48558612167835235596e-02) (65, -1.55444361735135316849e-03) (66, 4.08480130136013031006e-02) (67, -5.82177564501762390137e-02) (68, 7.74643942713737487793e-03) (69, -5.57998754084110260010e-02) (70, -8.30038189888000488281e-02) (71, 1.43570546060800552368e-02) (72, 8.27957410365343093872e-03) (73, -8.34664106369018554688e-02) (74, 5.23213390260934829712e-03) (75, -6.14576824009418487549e-02) (76, 4.41038571298122406006e-02) (77, -4.99096587300300598145e-02) (78, -6.56263381242752075195e-02) (79, -5.66429384052753448486e-02) (80, -3.68349179625511169434e-02) (0, -2.95738317072391510010e-02) (1, -5.48694003373384475708e-03) (2, -5.76567323878407478333e-03) (3, -3.09270154684782028198e-02) (4, 1.17254536598920822144e-02) (5, 8.47756490111351013184e-02) (6, 6.38633668422698974609e-02) (7, -5.59816211462020874023e-02) (8, -4.48963697999715805054e-03) (9, -1.23985465615987777710e-02) (10, -5.62372505664825439453e-02) (11, 9.70987379550933837891e-02) (12, -7.11195617914199829102e-02) (13, -7.87708610296249389648e-02) (14, -3.61318327486515045166e-02) (15, 4.50202375650405883789e-02) (16, 6.17301352322101593018e-02) (17, 2.67235822975635528564e-02) (18, -5.16033284366130828857e-02) (19, -7.48588740825653076172e-02) (20, 2.92456410825252532959e-02) (21, 8.37055444717407226562e-02) (22, 2.35187858343124389648e-02) (23, 6.44822865724563598633e-02) (24, -1.69336870312690734863e-02) (25, 8.10777693986892700195e-02) (26, -1.49940149858593940735e-02) (27, 5.37709891796112060547e-02) (28, -9.34100225567817687988e-02) (29, 5.02419658005237579346e-02) (30, -8.79663676023483276367e-02) (31, -5.63084846362471580505e-03) (32, -7.14548155665397644043e-02) (33, 1.27796838060021400452e-02) (34, 4.70912382006645202637e-02) (35, 5.25600872933864593506e-02) (36, -1.75729300826787948608e-02) (37, 2.16175988316535949707e-02) (38, 8.95773470401763916016e-02) (39, 8.48154574632644653320e-02) (40, 1.00528337061405181885e-01) (41, -6.78244605660438537598e-02) (42, 7.19145685434341430664e-02) (43, -7.20817744731903076172e-02) (44, -5.60375899076461791992e-02) (45, -6.10030852258205413818e-02) (46, 5.90273514389991760254e-02) (47, 1.06504976749420166016e-01) (48, 5.31631596386432647705e-02) (49, -8.56247022747993469238e-02) (50, -8.30993279814720153809e-02) (51, -1.43357422202825546265e-02) (52, 8.45591872930526733398e-02) (53, 4.60649020969867706299e-02) (54, -6.30787089467048645020e-02) (55, -2.64588668942451477051e-02) (56, 1.45827252417802810669e-02) (57, 2.87088342010974884033e-02) (58, -8.53398814797401428223e-02) (59, 2.98431478440761566162e-02) (60, -2.86130625754594802856e-02) (61, -7.01126679778099060059e-02) (62, -8.60163792967796325684e-02) (63, 4.22995159169659018517e-04) (64, 3.50689888000488281250e-02) (65, 6.43524229526519775391e-02) (66, -5.71788884699344635010e-02) (67, -8.30664932727813720703e-02) (68, -2.59460844099521636963e-02) (69, -7.36856907606124877930e-02) (70, 8.12278315424919128418e-02) (71, -2.80052144080400466919e-02) (72, -5.94091229140758514404e-02) (73, 6.05235211551189422607e-02) (74, -1.44862048327922821045e-02) (75, -1.12083805724978446960e-02) (76, 7.39722996950149536133e-02) (77, -5.03021702170372009277e-02) (78, -1.83886438608169555664e-02) (79, 4.19830568134784698486e-02) (80, -5.23455068469047546387e-02) (0, -1.45279727876186370850e-02) (1, -8.03708434104919433594e-02) (2, -7.22393393516540527344e-02) (3, -5.85947409272193908691e-02) (4, -6.10921904444694519043e-02) (5, 3.73629666864871978760e-03) (6, 4.01505641639232635498e-02) (7, 7.41781219840049743652e-02) (8, 6.18621287867426872253e-03) (9, -2.60954238474369049072e-02) (10, -7.22131058573722839355e-02) (11, 3.62655967473983764648e-02) (12, -2.43233107030391693115e-02) (13, 2.86954566836357116699e-02) (14, -4.78496775031089782715e-02) (15, -6.25665113329887390137e-02) (16, 5.73465079069137573242e-02) (17, -2.92941685765981674194e-02) (18, -2.87154433317482471466e-03) (19, 8.27051326632499694824e-02) (20, -5.09317703545093536377e-02) (21, 6.99318572878837585449e-02) (22, -8.26174691319465637207e-02) (23, 1.07375055551528930664e-01) (24, -5.61400130391120910645e-02) (25, 4.24922723323106765747e-03) (26, 7.91760757565498352051e-02) (27, -6.37851608917117118835e-03) (28, 6.79597854614257812500e-02) (29, 2.27961521595716476440e-02) (30, 3.36034260690212249756e-02) (31, -2.31758467853069305420e-02) (32, 2.30655707418918609619e-02) (33, 6.98392093181610107422e-02) (34, -1.60683353897184133530e-03) (35, 7.78835490345954895020e-02) (36, -4.48077134788036346436e-02) (37, -4.75378409028053283691e-02) (38, 4.51002679765224456787e-02) (39, 7.03176483511924743652e-02) (40, 1.66472047567367553711e-02) (41, 7.09336251020431518555e-02) (42, -4.70743514597415924072e-03) (43, 9.02540460228919982910e-02) (44, -1.14124547690153121948e-02) (45, 5.13889901340007781982e-02) (46, -8.93504098057746887207e-02) (47, -5.27056828141212463379e-02) (48, -9.33836027979850769043e-02) (49, 1.71156730502843856812e-02) (50, -8.86025577783584594727e-02) (51, -3.94236110150814056396e-02) (52, -3.00725530833005905151e-02) (53, -6.28433749079704284668e-02) (54, -4.85497154295444488525e-02) (55, 2.26990152150392532349e-02) (56, 2.55988352000713348389e-02) (57, -5.95755353569984436035e-02) (58, 1.00497499108314514160e-01) (59, 6.27844315022230148315e-03) (60, 5.41217811405658721924e-02) (61, 3.90696972608566284180e-02) (62, 7.03518465161323547363e-02) (63, -2.15272810310125350952e-02) (64, -3.23617772664874792099e-04) (65, -2.59061101824045181274e-02) (66, -5.61910793185234069824e-02) (67, 5.52304089069366455078e-02) (68, 1.16692986339330673218e-02) (69, 8.11848565936088562012e-02) (70, -5.28011238202452659607e-04) (71, -7.42780044674873352051e-02) (72, 2.96187661588191986084e-02) (73, 1.04963712394237518311e-01) (74, 9.84414219856262207031e-02) (75, -7.54175707697868347168e-02) (76, 2.37002540379762649536e-02) (77, -8.36095362901687622070e-02) (78, -4.51319962739944458008e-02) (79, 5.09925410151481628418e-02) (80, 1.27139445394277572632e-02) (0, -2.62705031782388687134e-02) (1, 7.13483020663261413574e-02) (2, 8.13226103782653808594e-02) (3, -2.89250742644071578979e-02) (4, -5.32029122114181518555e-02) (5, -2.50077974051237106323e-02) (6, -8.37370902299880981445e-02) (7, -4.85907010734081268311e-02) (8, -1.08015993610024452209e-02) (9, -9.80180315673351287842e-03) (10, -8.60429853200912475586e-02) (11, -9.83917564153671264648e-02) (12, -3.29189449548721313477e-02) (13, -3.59633192420005798340e-02) (14, 1.06897121295332908630e-02) (15, 1.79930757731199264526e-02) (16, 1.64911895990371704102e-02) (17, -6.40028268098831176758e-02) (18, -5.66490367054939270020e-02) (19, -2.85360440611839294434e-02) (20, 5.48799559473991394043e-02) (21, -6.02623634040355682373e-02) (22, -8.31639170646667480469e-02) (23, 3.55480834841728210449e-02) (24, -4.72534969449043273926e-02) (25, -8.32014009356498718262e-02) (26, -9.68130305409431457520e-03) (27, -5.96536360681056976318e-02) (28, -7.18253431841731071472e-03) (29, -8.91812443733215332031e-02) (30, 6.69031813740730285645e-02) (31, 3.04485913366079330444e-02) (32, -8.12852606177330017090e-02) (33, 3.37403826415538787842e-02) (34, -6.01895935833454132080e-02) (35, -5.92203289270401000977e-02) (36, -5.66249378025531768799e-02) (37, -6.70526027679443359375e-02) (38, 9.54932998865842819214e-03) (39, 1.85767821967601776123e-02) (40, 4.37785498797893524170e-02) (41, 2.48469281941652297974e-02) (42, 4.38918620347976684570e-02) (43, -8.60111340880393981934e-02) (44, -8.88581946492195129395e-02) (45, -5.22973760962486267090e-02) (46, 6.46008551120758056641e-02) (47, 2.57007181644439697266e-02) (48, 1.28937149420380592346e-02) (49, -1.07557244598865509033e-01) (50, -6.88965171575546264648e-02) (51, -3.92876751720905303955e-02) (52, -3.63335572183132171631e-02) (53, -6.41363859176635742188e-02) (54, -7.30988755822181701660e-02) (55, 2.69167055375874042511e-03) (56, -1.87093000859022140503e-02) (57, 2.76888580992817878723e-03) (58, 7.22722262144088745117e-02) (59, 5.57559281587600708008e-02) (60, 3.24219614267349243164e-02) (61, 3.11934333294630050659e-02) (62, 1.02015547454357147217e-02) (63, 5.02171628177165985107e-02) (64, -1.63188911974430084229e-02) (65, 4.21727895736694335938e-02) (66, -8.43592435121536254883e-02) (67, 2.80203651636838912964e-02) (68, -9.64314714074134826660e-02) (69, 3.73844057321548461914e-02) (70, -6.56251376494765281677e-03) (71, 5.22851981222629547119e-02) (72, 2.99786077812314033508e-03) (73, -7.93826431035995483398e-02) (74, -1.00351169705390930176e-01) (75, 4.80941310524940490723e-03) (76, 2.55630668252706527710e-02) (77, 5.19884079694747924805e-02) (78, -3.70117388665676116943e-02) (79, -9.40948575735092163086e-02) (80, 8.20214822888374328613e-02) (0, -1.10488901555072516203e-04) (1, 2.01928499154746532440e-03) (2, -5.01342602074146270752e-02) (3, 5.32814003527164459229e-02) (4, 3.62650193274021148682e-02) (5, 6.95725157856941223145e-02) (6, -5.49901612102985382080e-02) (7, -4.35662046074867248535e-02) (8, 5.22050671279430389404e-02) (9, -8.26092362403869628906e-02) (10, -8.98560062050819396973e-02) (11, -2.07397606573067605495e-04) (12, 4.40232940018177032471e-02) (13, 7.65874534845352172852e-02) (14, -9.48059186339378356934e-02) (15, 2.50861747190356254578e-03) (16, -9.17707011103630065918e-02) (17, 4.98197749257087707520e-02) (18, 1.84326209127902984619e-02) (19, 6.23892955482006072998e-02) (20, -6.31572157144546508789e-02) (21, -1.22324293479323387146e-02) (22, -3.53088043630123138428e-02) (23, -2.47287675738334655762e-02) (24, -5.05987554788589477539e-03) (25, 8.80147814750671386719e-02) (26, 8.40856209397315979004e-02) (27, -3.50006744265556335449e-02) (28, -4.07116971909999847412e-02) (29, -9.12311673164367675781e-02) (30, -4.83926869928836822510e-02) (31, 5.99245466291904449463e-02) (32, 1.73066277056932449341e-02) (33, 3.60177771653980016708e-04) (34, 2.00617779046297073364e-02) (35, -4.68873828649520874023e-02) (36, -2.40061525255441665649e-02) (37, 6.32936134934425354004e-02) (38, 1.72028820961713790894e-02) (39, -7.31853693723678588867e-02) (40, 8.69380682706832885742e-02) (41, 2.39973831921815872192e-02) (42, 3.31943370401859283447e-02) (43, 2.88634411990642547607e-02) (44, 6.31105853244662284851e-03) (45, 3.60187292098999023438e-02) (46, -6.36194497346878051758e-02) (47, 1.29458159208297729492e-02) (48, -9.59249306470155715942e-03) (49, 5.38809299468994140625e-02) (50, -2.05978080630302429199e-02) (51, 2.72239185869693756104e-02) (52, -5.45497797429561614990e-02) (53, 4.49962690472602844238e-02) (54, -9.31193381547927856445e-02) (55, 4.08799313008785247803e-02) (56, 3.65667380392551422119e-02) (57, 9.14154723286628723145e-02) (58, -9.01728421449661254883e-02) (59, 9.70222577452659606934e-02) (60, -9.54043939709663391113e-02) (61, -3.90500240027904510498e-02) (62, 6.12390860915184020996e-02) (63, 2.13027801364660263062e-02) (64, 6.58831223845481872559e-02) (65, -1.96342580020427703857e-02) (66, 7.92958140373229980469e-02) (67, -5.86475916206836700439e-02) (68, -5.15552349388599395752e-02) (69, -6.02983916178345680237e-03) (70, -2.70565450191497802734e-02) (71, -6.57579153776168823242e-02) (72, -7.69309774041175842285e-02) (73, -9.54350456595420837402e-02) (74, 6.85249492526054382324e-02) (75, 2.82107386738061904907e-02) (76, 4.50871475040912628174e-02) (77, -9.59911346435546875000e-02) (78, -5.40418438613414764404e-02) (79, -6.41854107379913330078e-02) (80, 6.13436438143253326416e-02) (0, 1.39232175424695014954e-02) (1, 7.95656815171241760254e-02) (2, -9.41112115979194641113e-02) (3, -1.29311066120862960815e-02) (4, 6.61321878433227539062e-02) (5, 6.56721070408821105957e-02) (6, -9.23992469906806945801e-02) (7, 8.18484947085380554199e-02) (8, 6.40539303421974182129e-02) (9, -7.46602788567543029785e-02) (10, 7.27105289697647094727e-02) (11, -5.93965910375118255615e-02) (12, 7.78061151504516601562e-02) (13, 1.13383373245596885681e-02) (14, 9.16340649127960205078e-02) (15, -2.94127799570560455322e-02) (16, -2.13586632162332534790e-02) (17, -4.88241389393806457520e-02) (18, 4.58110356703400611877e-03) (19, 8.76073092222213745117e-02) (20, 1.33661832660436630249e-02) (21, 5.63391186296939849854e-02) (22, -1.00957036018371582031e-01) (23, 3.17416489124298095703e-02) (24, 9.86524950712919235229e-03) (25, 4.15842197835445404053e-02) (26, -3.89416180551052093506e-02) (27, 3.11760548502206802368e-02) (28, 6.66162967681884765625e-02) (29, 1.57554186880588531494e-02) (30, -1.72105971723794937134e-02) (31, 1.59834921360015869141e-02) (32, -3.01724914461374282837e-02) (33, 5.09325601160526275635e-03) (34, 7.60531798005104064941e-02) (35, -3.95060107111930847168e-02) (36, -5.39152100682258605957e-02) (37, 1.06306888163089752197e-01) (38, -6.69299364089965820312e-02) (39, -7.44035392999649047852e-02) (40, -8.14954563975334167480e-02) (41, 1.07830017805099487305e-01) (42, -4.91480194032192230225e-02) (43, 9.75400656461715698242e-02) (44, 4.26921620965003967285e-03) (45, -4.80506084859371185303e-02) (46, -5.65126128494739532471e-02) (47, 8.89977961778640747070e-02) (48, -1.88208315521478652954e-02) (49, 6.66094645857810974121e-02) (50, 5.01234978437423706055e-02) (51, 1.06802828609943389893e-01) (52, -1.61412730813026428223e-03) (53, 6.65082558989524841309e-02) (54, 1.51623934507369995117e-02) (55, -7.33552128076553344727e-02) (56, -1.41858598217368125916e-02) (57, 9.49389040470123291016e-02) (58, 3.52959670126438140869e-02) (59, -2.52940095961093902588e-02) (60, -2.70432722754776477814e-03) (61, -6.94682076573371887207e-02) (62, 7.31011033058166503906e-02) (63, 7.28897079825401306152e-02) (64, 2.28462219238281250000e-02) (65, 6.05700202286243438721e-02) (66, -8.39629098773002624512e-02) (67, 7.32435435056686401367e-02) (68, 4.64585907757282257080e-02) (69, -5.73404915630817413330e-02) (70, 6.36575743556022644043e-02) (71, 6.55445009469985961914e-02) (72, -7.91353136301040649414e-02) (73, -6.78473040461540222168e-02) (74, 3.99696044623851776123e-02) (75, 3.67949008941650390625e-02) (76, -5.91743849217891693115e-02) (77, 9.82321053743362426758e-02) (78, 2.64978059567511081696e-03) (79, 5.40276542305946350098e-02) (80, 4.03950326144695281982e-02) (0, -4.58512492477893829346e-02) (1, 4.19210791587829589844e-02) (2, -5.80398887395858764648e-02) (3, -8.37685093283653259277e-02) (4, -4.86249551177024841309e-02) (5, -3.88442836701869964600e-02) (6, -4.53362939879298210144e-03) (7, -5.95785938203334808350e-02) (8, 9.10210385918617248535e-02) (9, 6.37107267975807189941e-02) (10, 2.33799312263727188110e-02) (11, -8.61340984702110290527e-02) (12, 2.71759610623121261597e-02) (13, -1.20000392198562622070e-02) (14, 2.05083619803190231323e-02) (15, -2.14035939425230026245e-02) (16, -6.65359944105148315430e-03) (17, -1.39467213302850723267e-02) (18, -8.35539177060127258301e-02) (19, 2.70411949604749679565e-02) (20, -4.26061637699604034424e-02) (21, 7.36173167824745178223e-02) (22, 4.99939173460006713867e-02) (23, -2.07099933177232742310e-02) (24, 7.94950220733880996704e-03) (25, -2.37734485417604446411e-02) (26, 3.38168554008007049561e-02) (27, -3.55202681384980678558e-03) (28, 7.07382410764694213867e-02) (29, -2.14106068015098571777e-02) (30, -6.77345693111419677734e-02) (31, -6.82811737060546875000e-02) (32, -9.17353779077529907227e-02) (33, -2.43018995970487594604e-02) (34, -6.41374588012695312500e-02) (35, -3.52460332214832305908e-02) (36, 2.55696363747119903564e-02) (37, 3.59261855483055114746e-02) (38, -2.43579223752021789551e-03) (39, 1.93473454564809799194e-02) (40, -8.17868951708078384399e-03) (41, -8.03298205137252807617e-02) (42, 2.44538374245166778564e-02) (43, -8.27175751328468322754e-02) (44, -3.51455440977588295937e-04) (45, -5.41164986789226531982e-02) (46, -1.34153105318546295166e-02) (47, 9.21824127435684204102e-02) (48, 2.33727451413869857788e-02) (49, 4.38485480844974517822e-03) (50, 9.86849423497915267944e-03) (51, 7.97624439001083374023e-02) (52, -3.05513199418783187866e-02) (53, -4.04418595135211944580e-02) (54, -4.97700236737728118896e-02) (55, 7.72963613271713256836e-02) (56, 2.76601258665323257446e-02) (57, 8.47897827625274658203e-02) (58, -3.45271453261375427246e-02) (59, -1.19858872494660317898e-04) (60, -4.24546003341674804688e-02) (61, -3.16692702472209930420e-03) (62, 2.40639187395572662354e-02) (63, -3.56363542377948760986e-02) (64, 6.60850107669830322266e-02) (65, 6.00521340966224670410e-02) (66, 2.13336031883955001831e-02) (67, -1.00746415555477142334e-02) (68, -1.28063913434743881226e-02) (69, -8.51187184453010559082e-02) (70, 9.57378894090652465820e-02) (71, 7.62649998068809509277e-02) (72, -7.81600996851921081543e-02) (73, 2.31956504285335540771e-02) (74, 8.27064812183380126953e-02) (75, 2.30070278048515319824e-02) (76, 5.26350885629653930664e-02) (77, -2.97656022012233734131e-02) (78, 5.33069204539060592651e-03) (79, -1.81749388575553894043e-02) (80, 6.10797815024852752686e-02) (0, -8.34524706006050109863e-02) (1, -6.67679458856582641602e-02) (2, -7.30832070112228393555e-02) (3, -5.34974560141563415527e-02) (4, -7.12375185685232281685e-05) (5, 8.25073495507240295410e-02) (6, 8.75715464353561401367e-02) (7, -4.18948233127593994141e-02) (8, -4.27178218960762023926e-02) (9, -3.68288457393646240234e-02) (10, 2.36898716539144515991e-02) (11, 3.40742841362953186035e-02) (12, 9.29744020104408264160e-02) (13, 6.67773857712745666504e-02) (14, 9.71208792179822921753e-03) (15, 3.56530137360095977783e-02) (16, -3.98943154141306877136e-03) (17, 7.72399082779884338379e-02) (18, -6.61311000585556030273e-02) (19, -8.63989163190126419067e-03) (20, 8.46337676048278808594e-02) (21, -1.11668653786182403564e-01) (22, 2.39992681890726089478e-02) (23, -1.00141558796167373657e-02) (24, 8.30172002315521240234e-02) (25, -7.09419623017311096191e-02) (26, -3.87543253600597381592e-02) (27, -6.78680837154388427734e-02) (28, 5.07626645267009735107e-02) (29, 2.08403840661048889160e-02) (30, -9.45336669683456420898e-02) (31, 3.93329448997974395752e-02) (32, 8.36133360862731933594e-02) (33, -8.00404250621795654297e-02) (34, -8.32415297627449035645e-02) (35, -3.63531894981861114502e-02) (36, -6.94187805056571960449e-02) (37, 8.52178931236267089844e-02) (38, 3.75064611434936523438e-02) (39, -2.44140345603227615356e-02) (40, -3.38813476264476776123e-02) (41, -4.01855260133743286133e-02) (42, -7.01413527131080627441e-02) (43, -4.05515134334564208984e-02) (44, -5.45233264565467834473e-02) (45, 3.22107411921024322510e-02) (46, -7.86618739366531372070e-02) (47, 3.80583442747592926025e-02) (48, 3.30468975007534027100e-02) (49, -5.80160990357398986816e-02) (50, -4.36652265489101409912e-02) (51, 1.09439482912421226501e-02) (52, -4.47376705706119537354e-02) (53, 7.01174288988113403320e-02) (54, -7.45026841759681701660e-02) (55, -7.31748417019844055176e-02) (56, -7.80165866017341613770e-02) (57, -2.54298839718103408813e-02) (58, -1.76982153207063674927e-02) (59, 5.79478815197944641113e-02) (60, -8.89052599668502807617e-02) (61, -1.97639726102352142334e-02) (62, 1.67384762316942214966e-02) (63, 