FANN_FLO_2.1
num_layers=4
learning_rate=0.500000
connection_rate=1.000000
network_type=0
learning_momentum=0.100000
training_algorithm=0
train_error_function=1
train_stop_function=0
cascade_output_change_fraction=0.010000
quickprop_decay=-0.000100
quickprop_mu=1.750000
rprop_increase_factor=1.200000
rprop_decrease_factor=0.500000
rprop_delta_min=0.000000
rprop_delta_max=50.000000
rprop_delta_zero=0.100000
cascade_output_stagnation_epochs=12
cascade_candidate_change_fraction=0.010000
cascade_candidate_stagnation_epochs=12
cascade_max_out_epochs=150
cascade_min_out_epochs=10
cascade_max_cand_epochs=150
cascade_min_cand_epochs=10
cascade_num_candidate_groups=2
bit_fail_limit=3.49999994039535522461e-01
cascade_candidate_limit=1.00000000000000000000e+03
cascade_weight_multiplier=4.00000005960464477539e-01
cascade_activation_functions_count=10
cascade_activation_functions=3 5 7 8 10 11 14 15 16 17 
cascade_activation_steepnesses_count=4
cascade_activation_steepnesses=2.50000000000000000000e-01 5.00000000000000000000e-01 7.50000000000000000000e-01 1.00000000000000000000e+00 
layer_sizes=81 19 10 2 
scale_included=0
neurons (num_inputs, activation_function, activation_steepness)=(0, 0, 0.00000000000000000000e+00) (0, 0, 0.00000000000000000000e+00) (0, 0, 0.00000000000000000000e+00) (0, 0, 0.00000000000000000000e+00) (0, 0, 0.00000000000000000000e+00) (0, 0, 0.00000000000000000000e+00) (0, 0, 0.00000000000000000000e+00) (0, 0, 0.00000000000000000000e+00) (0, 0, 0.00000000000000000000e+00) (0, 0, 0.00000000000000000000e+00) (0, 0, 0.00000000000000000000e+00) (0, 0, 0.00000000000000000000e+00) (0, 0, 0.00000000000000000000e+00) (0, 0, 0.00000000000000000000e+00) (0, 0, 0.00000000000000000000e+00) (0, 0, 0.00000000000000000000e+00) (0, 0, 0.00000000000000000000e+00) (0, 0, 0.00000000000000000000e+00) (0, 0, 0.00000000000000000000e+00) (0, 0, 0.00000000000000000000e+00) (0, 0, 0.00000000000000000000e+00) (0, 0, 0.00000000000000000000e+00) (0, 0, 0.00000000000000000000e+00) (0, 0, 0.00000000000000000000e+00) (0, 0, 0.00000000000000000000e+00) (0, 0, 0.00000000000000000000e+00) (0, 0, 0.00000000000000000000e+00) (0, 0, 0.00000000000000000000e+00) (0, 0, 0.00000000000000000000e+00) (0, 0, 0.00000000000000000000e+00) (0, 0, 0.00000000000000000000e+00) (0, 0, 0.00000000000000000000e+00) (0, 0, 0.00000000000000000000e+00) (0, 0, 0.00000000000000000000e+00) (0, 0, 0.00000000000000000000e+00) (0, 0, 0.00000000000000000000e+00) (0, 0, 0.00000000000000000000e+00) (0, 0, 0.00000000000000000000e+00) (0, 0, 0.00000000000000000000e+00) (0, 0, 0.00000000000000000000e+00) (0, 0, 0.00000000000000000000e+00) (0, 0, 0.00000000000000000000e+00) (0, 0, 0.00000000000000000000e+00) (0, 0, 0.00000000000000000000e+00) (0, 0, 0.00000000000000000000e+00) (0, 0, 0.00000000000000000000e+00) (0, 0, 0.00000000000000000000e+00) (0, 0, 0.00000000000000000000e+00) (0, 0, 0.00000000000000000000e+00) (0, 0, 0.00000000000000000000e+00) (0, 0, 0.00000000000000000000e+00) (0, 0, 0.00000000000000000000e+00) (0, 0, 0.00000000000000000000e+00) (0, 0, 0.00000000000000000000e+00) (0, 0, 0.00000000000000000000e+00) (0, 0, 0.00000000000000000000e+00) (0, 0, 0.00000000000000000000e+00) (0, 0, 0.00000000000000000000e+00) (0, 0, 0.00000000000000000000e+00) (0, 0, 0.00000000000000000000e+00) (0, 0, 0.00000000000000000000e+00) (0, 0, 0.00000000000000000000e+00) (0, 0, 0.00000000000000000000e+00) (0, 0, 0.00000000000000000000e+00) (0, 0, 0.00000000000000000000e+00) (0, 0, 0.00000000000000000000e+00) (0, 0, 0.00000000000000000000e+00) (0, 0, 0.00000000000000000000e+00) (0, 0, 0.00000000000000000000e+00) (0, 0, 0.00000000000000000000e+00) (0, 0, 0.00000000000000000000e+00) (0, 0, 0.00000000000000000000e+00) (0, 0, 0.00000000000000000000e+00) (0, 0, 0.00000000000000000000e+00) (0, 0, 0.00000000000000000000e+00) (0, 0, 0.00000000000000000000e+00) (0, 0, 0.00000000000000000000e+00) (0, 0, 0.00000000000000000000e+00) (0, 0, 0.00000000000000000000e+00) (0, 0, 0.00000000000000000000e+00) (0, 0, 0.00000000000000000000e+00) (81, 5, 5.00000000000000000000e-01) (81, 5, 5.00000000000000000000e-01) (81, 5, 5.00000000000000000000e-01) (81, 5, 5.00000000000000000000e-01) (81, 5, 5.00000000000000000000e-01) (81, 5, 5.00000000000000000000e-01) (81, 5, 5.00000000000000000000e-01) (81, 5, 5.00000000000000000000e-01) (81, 5, 5.00000000000000000000e-01) (81, 5, 5.00000000000000000000e-01) (81, 5, 5.00000000000000000000e-01) (81, 5, 5.00000000000000000000e-01) (81, 5, 5.00000000000000000000e-01) (81, 5, 5.00000000000000000000e-01) (81, 5, 5.00000000000000000000e-01) (81, 5, 5.00000000000000000000e-01) (81, 5, 5.00000000000000000000e-01) (81, 5, 5.00000000000000000000e-01) (0, 5, 0.00000000000000000000e+00) (19, 5, 5.00000000000000000000e-01) (19, 5, 5.00000000000000000000e-01) (19, 5, 5.00000000000000000000e-01) (19, 5, 5.00000000000000000000e-01) (19, 5, 5.00000000000000000000e-01) (19, 5, 5.00000000000000000000e-01) (19, 5, 5.00000000000000000000e-01) (19, 5, 5.00000000000000000000e-01) (19, 5, 5.00000000000000000000e-01) (0, 5, 0.00000000000000000000e+00) (10, 13, 5.00000000000000000000e-01) (0, 13, 0.00000000000000000000e+00) 
connections (connected_to_neuron, weight)=(0, 9.27576571702957153320e-02) (1, 2.21136268228292465210e-02) (2, -7.07434788346290588379e-02) (3, -3.49670951254665851593e-03) (4, -7.02519193291664123535e-02) (5, 9.31104645133018493652e-02) (6, -7.63812139630317687988e-02) (7, 5.28208073228597640991e-03) (8, -7.06117376685142517090e-02) (9, 3.91519293189048767090e-02) (10, -4.89198490977287292480e-02) (11, -2.90562249720096588135e-02) (12, -1.01575680077075958252e-01) (13, -4.21623550355434417725e-02) (14, 4.32942323386669158936e-02) (15, -2.86857504397630691528e-02) (16, 5.40918335318565368652e-02) (17, -9.09784361720085144043e-02) (18, 3.82996760308742523193e-02) (19, 6.88447654247283935547e-02) (20, 1.24065773561596870422e-02) (21, 1.85789708048105239868e-02) (22, 1.88728142529726028442e-02) (23, -2.69887838512659072876e-02) (24, -4.21683937311172485352e-02) (25, -5.61908371746540069580e-02) (26, -7.33809843659400939941e-02) (27, -8.35934653878211975098e-02) (28, 3.36579643189907073975e-02) (29, 4.68007922172546386719e-02) (30, -1.96615494787693023682e-02) (31, 3.25592234730720520020e-02) (32, -3.36896181106567382812e-02) (33, 1.41916591674089431763e-02) (34, -7.45261684060096740723e-02) (35, 1.34243839420378208160e-03) (36, 4.81219775974750518799e-03) (37, -4.54637110233306884766e-02) (38, -9.66478884220123291016e-02) (39, 3.79887036979198455811e-02) (40, 8.91097187995910644531e-02) (41, -4.15358804166316986084e-02) (42, -9.49879884719848632812e-02) (43, 9.28083285689353942871e-02) (44, 1.19026098400354385376e-02) (45, 5.32267317175865173340e-02) (46, -3.79146188497543334961e-02) (47, -2.80427020043134689331e-02) (48, 5.80520853400230407715e-02) (49, -9.58134755492210388184e-02) (50, -6.23321570456027984619e-02) (51, -2.45009548962116241455e-02) (52, 1.75990983843803405762e-02) (53, 6.01407065987586975098e-02) (54, 4.37639653682708740234e-02) (55, 8.31046998500823974609e-02) (56, -9.87710654735565185547e-02) (57, 7.59794935584068298340e-02) (58, 9.56659764051437377930e-02) (59, 3.94102819263935089111e-02) (60, 1.99034195393323898315e-02) (61, -1.96271222084760665894e-02) (62, -3.02082151174545288086e-02) (63, 8.81004408001899719238e-02) (64, 9.23685431480407714844e-02) (65, -2.54739844240248203278e-03) (66, -1.15610621869564056396e-02) (67, -1.70056556817144155502e-03) (68, 4.93732094764709472656e-02) (69, -7.48167978599667549133e-03) (70, -6.67757019400596618652e-02) (71, 4.21439781785011291504e-02) (72, 4.69760298728942871094e-02) (73, -5.83092458546161651611e-02) (74, 3.01386751234531402588e-02) (75, -3.62521857023239135742e-02) (76, 9.01746600866317749023e-02) (77, 9.55108851194381713867e-02) (78, 3.01390346139669418335e-02) (79, 5.35606928169727325439e-02) (80, 9.63896885514259338379e-02) (0, 8.61832723021507263184e-02) (1, -4.81723062694072723389e-02) (2, 3.20024639368057250977e-02) (3, 5.56534640491008758545e-02) (4, 7.93190822005271911621e-02) (5, 2.43946406990289688110e-02) (6, 3.98539416491985321045e-02) (7, 7.21821412444114685059e-02) (8, 3.55727341957390308380e-03) (9, -5.21485041826963424683e-03) (10, -2.50017959624528884888e-02) (11, 9.99508574604988098145e-02) (12, 4.68428358435630798340e-02) (13, -2.13672518730163574219e-02) (14, 7.06928074359893798828e-02) (15, -4.03185971081256866455e-02) (16, 4.33884151279926300049e-02) (17, -1.17993634194135665894e-02) (18, 8.59566926956176757812e-02) (19, -4.40950319170951843262e-02) (20, 2.28499658987857401371e-04) (21, 4.90407980978488922119e-02) (22, 8.35657790303230285645e-02) (23, 6.13212622702121734619e-02) (24, -4.51832711696624755859e-02) (25, -3.43120545148849487305e-02) (26, 3.08537855744361877441e-02) (27, -2.55389064550399780273e-02) (28, 7.29544758796691894531e-02) (29, 4.67017013579607009888e-03) (30, -4.85208816826343536377e-02) (31, 6.90375044941902160645e-02) (32, 1.57085601240396499634e-02) (33, 8.76401662826538085938e-02) (34, -1.84189118444919586182e-02) (35, 2.22293636761605739594e-03) (36, -2.91725490242242813110e-02) (37, -7.01994523406028747559e-02) (38, -6.96799829602241516113e-02) (39, 8.16535577178001403809e-02) (40, -2.21505537629127502441e-02) (41, 1.53392264619469642639e-02) (42, 3.87846231460571289062e-02) (43, -6.24001584947109222412e-02) (44, 5.07377497851848602295e-02) (45, 2.27077081799507141113e-02) (46, -3.79294045269489288330e-02) (47, 9.00252163410186767578e-03) (48, 6.90155327320098876953e-02) (49, -4.37500700354576110840e-02) (50, 2.53129955381155014038e-02) (51, -1.69438980519771575928e-02) (52, 6.05838932096958160400e-02) (53, 1.98165029287338256836e-02) (54, 1.02663889527320861816e-01) (55, -6.23180530965328216553e-02) (56, 4.85975220799446105957e-02) (57, 4.93972972035408020020e-02) (58, -2.63048969209194183350e-02) (59, 3.60413081943988800049e-02) (60, -8.03974494338035583496e-02) (61, 3.58119606971740722656e-02) (62, -2.64039672911167144775e-02) (63, 3.77011597156524658203e-02) (64, -7.55333527922630310059e-03) (65, 5.74290156364440917969e-02) (66, 1.11036673188209533691e-01) (67, 6.37054294347763061523e-02) (68, 5.56986145675182342529e-02) (69, -5.68849854171276092529e-02) (70, 1.26237589865922927856e-02) (71, -5.88235072791576385498e-02) (72, 2.23778970539569854736e-02) (73, -4.31385301053524017334e-02) (74, -5.88500015437602996826e-02) (75, -1.71660333871841430664e-02) (76, 3.79007495939731597900e-02) (77, 6.91596651449799537659e-03) (78, 5.17210476100444793701e-02) (79, 2.17351913452148437500e-02) (80, 2.11740713566541671753e-02) (0, -1.01333111524581909180e-02) (1, 1.03033326566219329834e-01) (2, 3.22223082184791564941e-03) (3, 1.06515228748321533203e-01) (4, 6.74787163734436035156e-02) (5, 3.65316756069660186768e-02) (6, 1.69566292315721511841e-02) (7, 2.93891187757253646851e-02) (8, 7.46492892503738403320e-02) (9, -3.89874167740345001221e-02) (10, 1.24355936422944068909e-02) (11, 1.77646353840827941895e-02) (12, -4.72116330638527870178e-03) (13, -4.52520623803138732910e-02) (14, 6.49679079651832580566e-02) (15, -4.25684824585914611816e-02) (16, -8.37662070989608764648e-02) (17, 3.91370542347431182861e-02) (18, 6.45580813288688659668e-02) (19, -2.76969727128744125366e-02) (20, -9.08239260315895080566e-02) (21, 1.20614826679229736328e-01) (22, 5.80074265599250793457e-02) (23, -2.36653871834278106689e-02) (24, -8.69982540607452392578e-02) (25, -5.12614697217941284180e-02) (26, 7.97757059335708618164e-02) (27, 4.15984503924846649170e-02) (28, 5.75813576579093933105e-02) (29, 1.30664566531777381897e-02) (30, -6.67551383376121520996e-02) (31, -3.54550927877426147461e-02) (32, -4.30790707468986511230e-02) (33, 4.10330481827259063721e-02) (34, 1.06101818382740020752e-01) (35, 1.35467275977134704590e-01) (36, 1.18050783872604370117e-01) (37, 3.55501547455787658691e-02) (38, -1.61034893244504928589e-03) (39, 9.93358194828033447266e-02) (40, 2.27997153997421264648e-02) (41, 1.22127354145050048828e-01) (42, -4.96756359934806823730e-02) (43, -6.27675950527191162109e-02) (44, -9.16384384036064147949e-02) (45, 1.33690506219863891602e-01) (46, -5.59940077364444732666e-02) (47, -5.22458106279373168945e-02) (48, 6.64106430485844612122e-03) (49, 1.16281174123287200928e-01) (50, -3.95375639200210571289e-02) (51, 3.49946059286594390869e-02) (52, 6.41255155205726623535e-02) (53, 1.29163295030593872070e-01) (54, 4.39041703939437866211e-02) (55, 1.15312397480010986328e-01) (56, -7.73660913109779357910e-02) (57, 4.69002760946750640869e-02) (58, -3.83281684480607509613e-03) (59, 9.87425148487091064453e-02) (60, 1.07387229800224304199e-01) (61, 4.25462014973163604736e-02) (62, 1.15914568305015563965e-01) (63, -4.06491309404373168945e-02) (64, -6.34350404143333435059e-02) (65, 1.18271626532077789307e-01) (66, -4.62461188435554504395e-02) (67, -5.42479045689105987549e-02) (68, 4.12087934091687202454e-03) (69, 4.49900329113006591797e-02) (70, 9.23394113779067993164e-02) (71, -6.35867863893508911133e-02) (72, 6.90818019211292266846e-03) (73, -5.11626228690147399902e-02) (74, -9.09724682569503784180e-02) (75, 3.12030743807554244995e-02) (76, -8.78393054008483886719e-02) (77, -4.40572090446949005127e-02) (78, 8.27635359019041061401e-03) (79, 4.33125905692577362061e-02) (80, 9.95383262634277343750e-02) (0, 5.32424300909042358398e-02) (1, -5.51274903118610382080e-02) (2, 6.44826814532279968262e-02) (3, 8.28587189316749572754e-02) (4, 2.38869823515415191650e-02) (5, 7.92950242757797241211e-02) (6, 3.44427414238452911377e-02) (7, -8.40413756668567657471e-03) (8, -8.78347530961036682129e-02) (9, 4.83319759368896484375e-02) (10, -6.89597353339195251465e-02) (11, 6.78470060229301452637e-02) (12, -8.05564317852258682251e-03) (13, 2.39042172324843704700e-04) (14, 2.53945812582969665527e-02) (15, 1.94690302014350891113e-02) (16, -3.46454717218875885010e-02) (17, 8.69721174240112304688e-02) (18, 4.17645536363124847412e-02) (19, 1.30030035972595214844e-01) (20, 7.49558722600340843201e-03) (21, 9.97984334826469421387e-02) (22, -2.41847615689039230347e-02) (23, 7.09854438900947570801e-02) (24, 3.40994633734226226807e-02) (25, 1.18375688791275024414e-01) (26, 2.74429097771644592285e-02) (27, 1.19301535189151763916e-01) (28, -3.75426709651947021484e-02) (29, -1.33712412789463996887e-02) (30, 7.13342279195785522461e-02) (31, -2.56892479956150054932e-02) (32, -4.14129048585891723633e-02) (33, 7.89249166846275329590e-02) (34, 7.63240829110145568848e-02) (35, 1.33266612887382507324e-01) (36, -1.47384544834494590759e-02) (37, 6.41914606094360351562e-02) (38, -5.55837452411651611328e-02) (39, 4.14819382131099700928e-02) (40, -7.78073221445083618164e-02) (41, 2.44024060666561126709e-02) (42, -7.21339508891105651855e-02) (43, 7.31174498796463012695e-02) (44, 4.03434745967388153076e-02) (45, 1.10739201307296752930e-01) (46, -6.90839812159538269043e-02) (47, -2.92627345770597457886e-02) (48, 1.65346115827560424805e-02) (49, 1.17847792804241180420e-01) (50, -7.21682384610176086426e-02) (51, -1.74183268100023269653e-02) (52, 2.79582757502794265747e-02) (53, 5.14950379729270935059e-02) (54, 7.04723522067070007324e-02) (55, 4.53856699168682098389e-02) (56, 3.13622341491281986237e-03) (57, 6.20383284986019134521e-02) (58, -9.23937000334262847900e-03) (59, 1.22778028249740600586e-01) (60, 8.49188119173049926758e-02) (61, 1.24184722080826759338e-02) (62, -5.88204003870487213135e-02) (63, -2.94694881886243820190e-02) (64, -6.36741444468498229980e-02) (65, -5.44656366109848022461e-02) (66, -4.24659661948680877686e-02) (67, 4.17870432138442993164e-02) (68, 5.26515431702136993408e-02) (69, 2.18706633895635604858e-02) (70, -7.73084759712219238281e-02) (71, 1.16447269916534423828e-01) (72, 7.65607431530952453613e-02) (73, -1.23336296528577804565e-02) (74, 1.41352703794836997986e-02) (75, 6.67690262198448181152e-02) (76, -8.18698778748512268066e-02) (77, 7.86005333065986633301e-02) (78, 5.56167922914028167725e-02) (79, 9.30349826812744140625e-02) (80, 3.29946987330913543701e-02) (0, -9.58291962742805480957e-02) (1, -6.82558864355087280273e-02) (2, -1.93155873566865921021e-02) (3, 4.31389659643173217773e-02) (4, 8.50070044398307800293e-02) (5, 1.13204486668109893799e-01) (6, -8.41419324278831481934e-02) (7, 4.53531667590141296387e-02) (8, -1.79890133440494537354e-02) (9, -6.57055974006652832031e-02) (10, 7.03938421793282032013e-05) (11, 8.92444029450416564941e-02) (12, -6.19336664676666259766e-02) (13, 6.38830810785293579102e-02) (14, 8.39863494038581848145e-02) (15, -2.33467873185873031616e-02) (16, 6.94656446576118469238e-02) (17, 2.24538501352071762085e-02) (18, 8.73398184776306152344e-02) (19, -1.00965145975351333618e-02) (20, 1.03143919259309768677e-02) (21, 1.03335566818714141846e-01) (22, -5.75580112636089324951e-02) (23, 9.38971787691116333008e-02) (24, -1.01217580959200859070e-02) (25, 1.03371456265449523926e-01) (26, -1.03963397443294525146e-01) (27, -2.82386597245931625366e-02) (28, 4.00290675461292266846e-02) (29, 8.54161530733108520508e-02) (30, 7.51313269138336181641e-02) (31, 7.63910189270973205566e-02) (32, 7.51786753535270690918e-02) (33, -2.00943574309349060059e-02) (34, -2.65574548393487930298e-02) (35, 8.82970541715621948242e-02) (36, -4.89734038710594177246e-02) (37, 1.90199445933103561401e-02) (38, -1.22354850172996520996e-02) (39, 5.81670589745044708252e-02) (40, 2.48408922925591468811e-03) (41, 1.15598171949386596680e-01) (42, 1.29264045972377061844e-03) (43, 7.34425410628318786621e-02) (44, 3.20127494633197784424e-02) (45, 1.75572857260704040527e-02) (46, -8.56072679162025451660e-02) (47, 3.75343933701515197754e-02) (48, -1.05771139264106750488e-01) (49, -7.24374279379844665527e-02) (50, 8.59444513916969299316e-02) (51, 3.74234318733215332031e-02) (52, 8.08511003851890563965e-02) (53, -4.41844873130321502686e-02) (54, -1.51801668107509613037e-02) (55, 1.64119191467761993408e-02) (56, -7.88524001836776733398e-02) (57, 1.65824890136718750000e-02) (58, 4.66661378741264343262e-02) (59, 9.33320745825767517090e-02) (60, -3.41681130230426788330e-02) (61, 4.99974712729454040527e-02) (62, 3.78554873168468475342e-02) (63, -4.29320223629474639893e-02) (64, 9.85785424709320068359e-02) (65, -7.22969993948936462402e-02) (66, -8.16731005907058715820e-02) (67, -3.79740409553050994873e-02) (68, 1.44980605691671371460e-02) (69, 1.86099372804164886475e-02) (70, 8.61611962318420410156e-02) (71, -5.97859546542167663574e-02) (72, -4.61704982444643974304e-03) (73, 8.30250140279531478882e-03) (74, 7.20155835151672363281e-02) (75, -4.51337434351444244385e-02) (76, 8.13711434602737426758e-02) (77, 1.05306677520275115967e-01) (78, 4.74659055471420288086e-02) (79, 1.07737839221954345703e-01) (80, 9.69175025820732116699e-02) (0, 2.22840085625648498535e-02) (1, -5.67828342318534851074e-02) (2, 6.56949877738952636719e-02) (3, 1.60747505724430084229e-02) (4, -8.97663384675979614258e-02) (5, -7.88268595933914184570e-02) (6, -9.72604006528854370117e-02) (7, -6.52570128440856933594e-02) (8, -6.49111941456794738770e-02) (9, 1.27181848511099815369e-02) (10, 5.78437931835651397705e-02) (11, 3.95498611032962799072e-03) (12, 3.45570733770728111267e-03) (13, -1.61094442009925842285e-01) (14, 6.54795318841934204102e-02) (15, -4.43062819540500640869e-02) (16, -7.84297436475753784180e-02) (17, -1.58193662762641906738e-01) (18, -5.69728910923004150391e-02) (19, -5.09601719677448272705e-02) (20, 9.32856351137161254883e-02) (21, -1.11051410436630249023e-01) (22, -8.99450108408927917480e-02) (23, -8.33358317613601684570e-02) (24, -4.43813614547252655029e-02) (25, -1.15521006286144256592e-01) (26, -2.33520586043596267700e-02) (27, -1.45775839686393737793e-01) (28, -7.63298496603965759277e-02) (29, -1.03507176041603088379e-01) (30, -8.81249606609344482422e-02) (31, -1.49829778820276260376e-02) (32, 4.67421412467956542969e-02) (33, 3.94386015832424163818e-02) (34, 1.95138044655323028564e-02) (35, 7.04310927540063858032e-03) (36, -3.17531637847423553467e-02) (37, -3.09852194041013717651e-02) (38, -3.92858497798442840576e-02) (39, -3.77528294920921325684e-02) (40, 1.50616150349378585815e-02) (41, -1.29726603627204895020e-01) (42, -1.36140920221805572510e-02) (43, -1.44697859883308410645e-01) (44, -6.71301856637001037598e-02) (45, -1.09509259462356567383e-01) (46, 1.43539009150117635727e-03) (47, -1.16983033716678619385e-01) (48, -4.86685633659362792969e-02) (49, 2.19763605855405330658e-03) (50, 3.93795743584632873535e-02) (51, -1.17793411016464233398e-01) (52, -7.68771767616271972656e-02) (53, 2.29565869085490703583e-03) (54, 2.11234744638204574585e-02) (55, -1.20284505188465118408e-01) (56, -1.14578828215599060059e-01) (57, 2.62914411723613739014e-02) (58, -5.70792965590953826904e-02) (59, -1.52453526854515075684e-01) (60, -8.30068439245223999023e-02) (61, -9.59960222244262695312e-02) (62, 1.48088280111551284790e-02) (63, -1.53562024235725402832e-01) (64, -7.50441625714302062988e-02) (65, -8.36794078350067138672e-02) (66, 2.33070012181997299194e-02) (67, -1.46215548738837242126e-02) (68, 7.10356533527374267578e-02) (69, -1.24809004366397857666e-01) (70, -6.10452480614185333252e-02) (71, -5.44210411608219146729e-02) (72, -4.97362650930881500244e-02) (73, -8.90681892633438110352e-03) (74, 1.43054155632853507996e-02) (75, -6.92175179719924926758e-02) (76, 1.03791415691375732422e-01) (77, -1.12833693623542785645e-01) (78, 3.72065342962741851807e-02) (79, -1.11497074365615844727e-01) (80, -9.72403511404991149902e-02) (0, -2.02627610415220260620e-02) (1, -8.28049145638942718506e-03) (2, -8.59465748071670532227e-02) (3, -5.68735077977180480957e-02) (4, 9.84019264578819274902e-02) (5, -4.55310419201850891113e-02) (6, -6.17585927248001098633e-02) (7, 8.92547816038131713867e-02) (8, -3.57537320815026760101e-03) (9, -5.10177686810493469238e-02) (10, -7.98708572983741760254e-02) (11, 6.32041618227958679199e-02) (12, 8.90307053923606872559e-02) (13, -7.14390948414802551270e-02) (14, -8.78114476799964904785e-02) (15, -3.27489189803600311279e-02) (16, 8.63621607422828674316e-02) (17, 6.08262047171592712402e-02) (18, -4.40430566668510437012e-02) (19, -7.43920430541038513184e-02) (20, -8.72484147548675537109e-02) (21, 6.62891864776611328125e-02) (22, -2.41827741265296936035e-02) (23, 6.76737427711486816406e-02) (24, -3.14802862703800201416e-02) (25, 7.00992271304130554199e-02) (26, 5.32363802194595336914e-02) (27, 2.28125825524330139160e-02) (28, -1.36808631941676139832e-02) (29, 1.06500387191772460938e-01) (30, 1.73476412892341613770e-02) (31, 7.27582797408103942871e-02) (32, -1.50470705702900886536e-02) (33, 3.51394377648830413818e-02) (34, 1.01061299443244934082e-01) (35, -1.14840026944875717163e-02) (36, 7.61597752571105957031e-02) (37, -5.51068224012851715088e-02) (38, -3.72224226593971252441e-02) (39, -2.33841706067323684692e-02) (40, -2.29140724986791610718e-02) (41, -1.21023654937744140625e-02) (42, -7.53653272986412048340e-02) (43, -2.70386971533298492432e-02) (44, 7.78308836743235588074e-04) (45, -5.64875453710556030273e-02) (46, 2.87679731845855712891e-02) (47, -4.86166169866919517517e-03) (48, 8.91299322247505187988e-02) (49, 8.90885740518569946289e-02) (50, 7.17341713607311248779e-03) (51, -9.10788327455520629883e-02) (52, 3.85546684265136718750e-02) (53, 8.79194736480712890625e-02) (54, 6.09993971884250640869e-02) (55, -8.12135338783264160156e-02) (56, 4.54636327922344207764e-02) (57, 2.23337356001138687134e-02) (58, 2.76759900152683258057e-02) (59, -6.13601803779602050781e-02) (60, 1.67266763746738433838e-02) (61, -4.93466332554817199707e-02) (62, 1.00714966654777526855e-01) (63, 1.03003770112991333008e-01) (64, 7.51590430736541748047e-02) (65, 1.03379324078559875488e-01) (66, -1.75693389028310775757e-02) (67, 5.16506209969520568848e-02) (68, -6.28913417458534240723e-02) (69, 4.56986725330352783203e-02) (70, -8.35866108536720275879e-02) (71, 1.87165793031454086304e-02) (72, -8.00231769680976867676e-02) (73, -5.52067421376705169678e-02) (74, 7.70798325538635253906e-02) (75, 2.68845930695533752441e-02) (76, -2.74885930120944976807e-02) (77, 8.80775693804025650024e-03) (78, -9.39363837242126464844e-02) (79, -3.03745772689580917358e-02) (80, -1.67008284479379653931e-02) (0, 2.86580976098775863647e-02) (1, -6.27144752070307731628e-03) (2, -5.98957985639572143555e-02) (3, 2.28452347218990325928e-02) (4, -7.05793276429176330566e-02) (5, -3.58021482825279235840e-02) (6, -5.64554259181022644043e-02) (7, 6.95826411247253417969e-02) (8, 6.90590068697929382324e-02) (9, -3.54170054197311401367e-03) (10, -3.62414009869098663330e-02) (11, -6.65855854749679565430e-02) (12, -2.68009752035140991211e-02) (13, -2.16153115034103393555e-02) (14, 8.02895426750183105469e-02) (15, -1.17878122255206108093e-02) (16, 2.92282439768314361572e-02) (17, 4.78470213711261749268e-02) (18, -5.68165862932801246643e-03) (19, -7.38179683685302734375e-03) (20, 3.73907610774040222168e-02) (21, -6.77775666117668151855e-02) (22, -1.07085714116692543030e-02) (23, 9.79163497686386108398e-02) (24, 7.66557008028030395508e-02) (25, -6.99173286557197570801e-02) (26, -5.35228848457336425781e-02) (27, 9.65048372745513916016e-03) (28, -9.28302183747291564941e-02) (29, 3.27545814216136932373e-02) (30, 7.10689947009086608887e-02) (31, 4.87886220216751098633e-02) (32, 8.26073214411735534668e-02) (33, 1.14784568548202514648e-01) (34, -7.66560882329940795898e-02) (35, 1.20482027530670166016e-01) (36, -6.52981549501419067383e-02) (37, -2.36212182790040969849e-02) (38, 4.07292060554027557373e-02) (39, 1.08954809606075286865e-01) (40, 1.80672835558652877808e-02) (41, 1.13016620278358459473e-01) (42, 9.27953720092773437500e-02) (43, 1.05621166527271270752e-01) (44, -5.94561062753200531006e-02) (45, 8.69246721267700195312e-02) (46, -4.38844077289104461670e-02) (47, 8.71122330427169799805e-02) (48, -1.44649073481559753418e-02) (49, 5.65224587917327880859e-02) (50, -6.45776242017745971680e-02) (51, -6.25183731317520141602e-02) (52, 3.46136949956417083740e-02) (53, 3.29133160412311553955e-02) (54, 8.52254033088684082031e-02) (55, 3.99933047592639923096e-02) (56, 2.19502672553062438965e-02) (57, -5.06626628339290618896e-02) (58, 1.04488447308540344238e-01) (59, 4.31542694568634033203e-02) (60, 4.28750142455101013184e-02) (61, 8.55814218521118164062e-02) (62, -4.33554761111736297607e-02) (63, 2.21583880484104156494e-02) (64, 6.53285607695579528809e-02) (65, -2.23688464611768722534e-02) (66, 1.20499730110168457031e-02) (67, 9.39059779047966003418e-02) (68, 1.69958081096410751343e-02) (69, -5.22169210016727447510e-02) (70, 6.35684877634048461914e-02) (71, -5.75504712760448455811e-02) (72, -8.40189307928085327148e-02) (73, 6.12888783216476440430e-02) (74, 1.00055024027824401855e-01) (75, -3.13294269144535064697e-02) (76, -4.08550072461366653442e-03) (77, -4.13184501230716705322e-02) (78, -9.67064127326011657715e-02) (79, 9.99980047345161437988e-02) (80, 6.11361749470233917236e-02) (0, -7.80761018395423889160e-02) (1, 8.36672335863113403320e-02) (2, -9.39944945275783538818e-03) (3, 3.18418219685554504395e-02) (4, 5.84418252110481262207e-02) (5, -9.23897251486778259277e-02) (6, -6.51361942291259765625e-02) (7, 8.61809030175209045410e-02) (8, -1.02101564407348632812e-01) (9, 5.60760274529457092285e-02) (10, 9.37525276094675064087e-03) (11, 6.11841566860675811768e-02) (12, 8.95023792982101440430e-02) (13, -9.09757241606712341309e-02) (14, 3.03769228048622608185e-03) (15, -5.55099323391914367676e-02) (16, -7.04287365078926086426e-03) (17, -2.55005918443202972412e-02) (18, 3.98963056504726409912e-02) (19, 1.86379700899124145508e-02) (20, -8.05198997259140014648e-02) (21, 6.02254495024681091309e-02) (22, 2.18584872782230377197e-02) (23, 5.79118542373180389404e-02) (24, 4.94402199983596801758e-02) (25, 6.73175975680351257324e-02) (26, -5.17748296260833740234e-02) (27, 8.60965400934219360352e-02) (28, 6.45596161484718322754e-02) (29, -7.48579353094100952148e-02) (30, 4.36362996697425842285e-02) (31, 9.47674661874771118164e-02) (32, -9.40336734056472778320e-02) (33, -5.83819523453712463379e-02) (34, 2.31294631958007812500e-02) (35, 7.21541717648506164551e-02) (36, -5.35078532993793487549e-02) (37, 6.60018548369407653809e-02) (38, 5.52952550351619720459e-02) (39, -4.87108714878559112549e-02) (40, 1.82556062936782836914e-02) (41, -2.83187553286552429199e-02) (42, -9.08646956086158752441e-02) (43, 1.54576711356639862061e-02) (44, -2.29772124439477920532e-02) (45, 1.96514595299959182739e-02) (46, 5.77304549515247344971e-02) (47, 7.82395377755165100098e-02) (48, 9.06506627798080444336e-02) (49, 4.52481769025325775146e-03) (50, -6.05302397161722183228e-03) (51, -8.22835788130760192871e-02) (52, -3.93272936344146728516e-02) (53, -7.74006620049476623535e-02) (54, 7.18268379569053649902e-02) (55, -8.06504413485527038574e-02) (56, 8.74115154147148132324e-02) (57, -7.19667673110961914062e-02) (58, -9.76603478193283081055e-02) (59, 5.92714957892894744873e-02) (60, -4.93169091641902923584e-02) (61, 5.30077181756496429443e-02) (62, 5.21970055997371673584e-02) (63, -3.78973521292209625244e-02) (64, 9.28348749876022338867e-02) (65, -1.91880110651254653931e-02) (66, -6.67197480797767639160e-02) (67, -5.59389293193817138672e-02) (68, -5.49786053597927093506e-02) (69, 9.28473994135856628418e-02) (70, -6.64955377578735351562e-03) (71, 6.91928192973136901855e-02) (72, -3.79992537200450897217e-02) (73, 8.16462747752666473389e-03) (74, -1.83558035641908645630e-02) (75, 4.56074513494968414307e-02) (76, -7.50088989734649658203e-02) (77, -5.50112091004848480225e-02) (78, 2.05445308238267898560e-02) (79, -7.76327252388000488281e-02) (80, 4.93702478706836700439e-02) (0, -7.66971185803413391113e-02) (1, -5.29971905052661895752e-02) (2, -8.28657299280166625977e-02) (3, -4.93896901607513427734e-02) (4, -8.51316079497337341309e-02) (5, -5.91365955770015716553e-02) (6, -6.60187005996704101562e-02) (7, -4.90425452589988708496e-02) (8, -5.99075481295585632324e-02) (9, 1.00089006125926971436e-01) (10, -1.34044175501912832260e-03) (11, 9.95991900563240051270e-02) (12, 4.87184561789035797119e-02) (13, 6.65077194571495056152e-02) (14, 8.76618847250938415527e-02) (15, -6.47945702075958251953e-02) (16, 9.35305058956146240234e-02) (17, -6.14540241658687591553e-02) (18, -2.56422720849514007568e-02) (19, 9.38712954521179199219e-02) (20, 2.74365805089473724365e-02) (21, -4.85397838056087493896e-02) (22, -4.74929548799991607666e-02) (23, -5.77080436050891876221e-02) (24, 2.69381012767553329468e-02) (25, 1.04213289916515350342e-01) (26, -3.67252901196479797363e-02) (27, 8.12711864709854125977e-02) (28, 1.96450743824243545532e-02) (29, -7.38759990781545639038e-03) (30, 2.48229280114173889160e-02) (31, 4.92892004549503326416e-02) (32, 2.91481968015432357788e-02) (33, 4.55223396420478820801e-02) (34, 8.79017412662506103516e-02) (35, 4.88554425537586212158e-02) (36, 7.58030116558074951172e-02) (37, -7.29138851165771484375e-02) (38, 8.77368226647377014160e-02) (39, -8.05783197283744812012e-02) (40, -8.66544842720031738281e-02) (41, -9.23998840153217315674e-03) (42, -9.33656990528106689453e-02) (43, 6.82129412889480590820e-02) (44, -5.57080954313278198242e-02) (45, 1.00252345204353332520e-01) (46, 9.44003909826278686523e-02) (47, -5.48518225550651550293e-02) (48, -7.37588629126548767090e-02) (49, -2.73609925061464309692e-02) (50, -7.19776600599288940430e-02) (51, 5.99753260612487792969e-02) (52, 9.93500836193561553955e-03) (53, -1.52292856946587562561e-02) (54, 8.91693755984306335449e-02) (55, -5.23731224238872528076e-02) (56, -2.11564544588327407837e-02) (57, -4.01465147733688354492e-02) (58, -8.26679393649101257324e-02) (59, 1.04572825133800506592e-01) (60, 4.26015108823776245117e-02) (61, 4.72603365778923034668e-02) (62, 4.52705398201942443848e-02) (63, -2.72017233073711395264e-02) (64, -1.57768242061138153076e-02) (65, 3.45851816236972808838e-02) (66, -8.53258967399597167969e-02) (67, -3.98959480226039886475e-02) (68, 5.25478348135948181152e-02) (69, 1.02521061897277832031e-01) (70, -3.02554275840520858765e-02) (71, 7.00206160545349121094e-02) (72, -1.81255135685205459595e-02) (73, -2.01818831264972686768e-02) (74, 2.58179344236850738525e-02) (75, 3.19029390811920166016e-02) (76, -3.32247987389564514160e-02) (77, 2.30547059327363967896e-02) (78, 6.32978156208992004395e-02) (79, 2.99481267575174570084e-04) (80, 8.33067670464515686035e-02) (0, 5.52206262946128845215e-02) (1, -1.33605122566223144531e-01) (2, -4.29607369005680084229e-02) (3, -1.11445978283882141113e-01) (4, -5.99970035254955291748e-02) (5, -4.46271300315856933594e-02) (6, 3.75080928206443786621e-02) (7, -8.93166363239288330078e-02) (8, 4.15977351367473602295e-02) (9, -3.54984328150749206543e-02) (10, -8.69185775518417358398e-02) (11, -8.58417525887489318848e-02) (12, -3.13585549592971801758e-02) (13, -8.11760202050209045410e-02) (14, 6.94508105516433715820e-02) (15, -1.63955628871917724609e-01) (16, 9.93378367274999618530e-03) (17, -1.49701684713363647461e-01) (18, 7.08379969000816345215e-02) (19, -7.37101212143898010254e-02) (20, -9.05019044876098632812e-03) (21, -4.89694140851497650146e-02) (22, 7.47806727886199951172e-02) (23, -7.11769517511129379272e-03) (24, -2.20610145479440689087e-02) (25, -6.53481855988502502441e-02) (26, -6.24616369605064392090e-02) (27, -4.58807265385985374451e-03) (28, -7.54032935947179794312e-03) (29, -4.37575131654739379883e-02) (30, 4.47392947971820831299e-02) (31, -1.07886731624603271484e-01) (32, 4.54125255346298217773e-02) (33, -1.24803416430950164795e-01) (34, 1.73834059387445449829e-02) (35, -1.56667813658714294434e-01) (36, 5.35727739334106445312e-02) (37, -9.01048481464385986328e-02) (38, -7.89926666766405105591e-03) (39, -3.40925976634025573730e-02) (40, -6.92756697535514831543e-02) (41, -3.25969196856021881104e-02) (42, -7.97914788126945495605e-02) (43, -5.79287409782409667969e-02) (44, -6.98078423738479614258e-02) (45, -1.64687573909759521484e-01) (46, -1.99879780411720275879e-02) (47, -2.61681806296110153198e-02) (48, -7.57220908999443054199e-02) (49, -7.80908167362213134766e-02) (50, -7.64158889651298522949e-02) (51, -3.95853631198406219482e-02) (52, -7.18872025609016418457e-02) (53, -1.36424094438552856445e-01) (54, -3.42036294750869274139e-03) (55, -9.50963273644447326660e-02) (56, 1.13252457231283187866e-02) (57, -3.22375781834125518799e-02) (58, -7.25993663072586059570e-02) (59, -1.49645492434501647949e-01) (60, -6.73414990305900573730e-02) (61, -1.69163510203361511230e-01) (62, -6.32925257086753845215e-02) (63, -1.21152400970458984375e-01) (64, -1.00242286920547485352e-01) (65, -1.46015271544456481934e-01) (66, -9.92163568735122680664e-02) (67, -1.33977562189102172852e-01) (68, -3.63046601414680480957e-02) (69, 4.10660868510603904724e-03) (70, 3.96271347999572753906e-02) (71, -3.53440046310424804688e-02) (72, -3.51508567109704017639e-03) (73, -1.62938177585601806641e-01) (74, -5.67830614745616912842e-02) (75, -1.83663107454776763916e-02) (76, -7.97089859843254089355e-02) (77, 7.91016966104507446289e-03) (78, 5.26629900559782981873e-03) (79, -1.19546703994274139404e-01) (80, -2.93955802917480468750e-02) (0, 6.40129670500755310059e-02) (1, 1.32393345236778259277e-01) (2, 1.16146439686417579651e-02) (3, 1.32562190294265747070e-01) (4, -2.00231224298477172852e-02) (5, 1.20341226458549499512e-01) (6, 3.04028838872909545898e-02) (7, -2.63191014528274536133e-02) (8, -7.88369029760360717773e-02) (9, 1.00471302866935729980e-01) (10, 1.01469235960394144058e-03) (11, -2.99747716635465621948e-02) (12, -5.40491119027137756348e-02) (13, 9.43083390593528747559e-02) (14, -2.89326440542936325073e-02) (15, 1.39608588069677352905e-02) (16, -9.29384157061576843262e-02) (17, 5.85366897284984588623e-02) (18, 6.58013597130775451660e-02) (19, 1.36706769466400146484e-01) (20, -1.51588292792439460754e-02) (21, 5.84843792021274566650e-02) (22, 5.83866471424698829651e-03) (23, 4.37157265841960906982e-02) (24, 4.43839430809020996094e-02) (25, 6.36938400566577911377e-03) (26, 9.08244773745536804199e-03) (27, 9.01150032877922058105e-02) (28, 4.59847263991832733154e-02) (29, 1.14046618342399597168e-01) (30, -8.04007351398468017578e-02) (31, 5.73628395795822143555e-02) (32, 6.89858794212341308594e-02) (33, 6.23383410274982452393e-02) (34, 4.31562401354312896729e-03) (35, -1.17939598858356475830e-02) (36, 4.90236701443791389465e-03) (37, -2.35347170382738113403e-02) (38, -2.39100400358438491821e-02) (39, 5.89914619922637939453e-02) (40, 8.10537412762641906738e-02) (41, 1.15232259035110473633e-01) (42, 4.25064228475093841553e-02) (43, -2.44677923619747161865e-02) (44, 2.02675145119428634644e-02) (45, -3.91727350652217864990e-02) (46, 2.38035209476947784424e-02) (47, 8.20549577474594116211e-02) (48, 3.32835316658020019531e-02) (49, 2.36421842128038406372e-02) (50, 4.11086343228816986084e-02) (51, -3.33312116563320159912e-02) (52, 8.71187075972557067871e-02) (53, -1.55012235045433044434e-02) (54, 2.22298968583345413208e-02) (55, 1.05772539973258972168e-01) (56, 1.94373447448015213013e-02) (57, -1.40495719388127326965e-02) (58, 1.71411186456680297852e-02) (59, 1.31771834567189216614e-02) (60, -6.82017654180526733398e-02) (61, 7.71502256393432617188e-02) (62, 1.10564932227134704590e-01) (63, 1.17038019001483917236e-01) (64, -1.98551863431930541992e-02) (65, 3.19966785609722137451e-02) (66, -4.53349091112613677979e-02) (67, 9.46740061044692993164e-02) (68, 4.66326251626014709473e-02) (69, 4.06519994139671325684e-02) (70, -1.19416425004601478577e-02) (71, 5.99415451288223266602e-02) (72, -1.93001255393028259277e-02) (73, -4.18741703033447265625e-02) (74, 5.43943047523498535156e-02) (75, -5.83164431154727935791e-02) (76, -6.82437941431999206543e-02) (77, 1.84570171404629945755e-03) (78, 3.55290845036506652832e-02) (79, 1.15683831274509429932e-01) (80, 4.77205626666545867920e-02) (0, -5.65591752529144287109e-02) (1, -1.54101938009262084961e-01) (2, 8.34411941468715667725e-03) (3, -3.15390005707740783691e-02) (4, 1.57774984836578369141e-02) (5, -4.44975085556507110596e-02) (6, -8.65682661533355712891e-02) (7, 2.15884167701005935669e-02) (8, -9.41110327839851379395e-02) (9, -4.74282726645469665527e-02) (10, 7.32565149664878845215e-02) (11, 9.25774406641721725464e-03) (12, -2.45835520327091217041e-02) (13, 1.99716947972774505615e-02) (14, -9.03796404600143432617e-02) (15, 3.70700024068355560303e-02) (16, -1.10495433211326599121e-01) (17, 2.58884131908416748047e-02) (18, 1.27034317702054977417e-02) (19, -5.13188801705837249756e-02) (20, -5.85847049951553344727e-02) (21, -1.11496239900588989258e-01) (22, 6.35708868503570556641e-02) (23, -7.92728736996650695801e-02) (24, -9.98633876442909240723e-02) (25, 2.92335618287324905396e-02) (26, 3.62240965478122234344e-03) (27, -9.13435369729995727539e-02) (28, 2.54425480961799621582e-02) (29, -6.19934797286987304688e-02) (30, -1.08560971915721893311e-01) (31, -1.44261389970779418945e-01) (32, -3.51800136268138885498e-02) (33, 2.42662942036986351013e-03) (34, 1.22048193588852882385e-02) (35, -1.25726550817489624023e-01) (36, -6.03451430797576904297e-02) (37, 1.78817324340343475342e-02) (38, -1.14031061530113220215e-01) (39, -5.62933795154094696045e-02) (40, -3.03259659558534622192e-02) (41, -1.48235484957695007324e-01) (42, -5.70982433855533599854e-02) (43, 2.77830548584461212158e-02) (44, 6.34435191750526428223e-02) (45, -6.42723888158798217773e-02) (46, 3.40577811002731323242e-02) (47, 3.06215416640043258667e-02) (48, -4.96815219521522521973e-02) (49, -5.62795437872409820557e-02) (50, -3.98015379905700683594e-02) (51, -2.59980652481317520142e-02) (52, 2.95912157744169235229e-02) (53, -8.38960111141204833984e-02) (54, -1.15089587867259979248e-01) (55, -1.23273991048336029053e-02) (56, -7.95803442597389221191e-02) (57, -3.49675677716732025146e-02) (58, -1.22122339904308319092e-01) (59, 2.81324181705713272095e-02) (60, -1.25662386417388916016e-01) (61, -1.40420943498611450195e-01) (62, 4.77466620504856109619e-02) (63, -4.82126362621784210205e-02) (64, 2.54686437547206878662e-02) (65, -2.79771853238344192505e-02) (66, -1.74947492778301239014e-02) (67, -1.17070481181144714355e-01) (68, -4.32176291942596435547e-02) (69, -1.60702727735042572021e-02) (70, -2.37005227245390415192e-03) (71, 2.13591400533914566040e-02) (72, 1.61940567195415496826e-02) (73, 3.97078394889831542969e-02) (74, 3.53239513933658599854e-02) (75, -3.32833901047706604004e-02) (76, -2.98629868775606155396e-02) (77, -2.73633357137441635132e-02) (78, -8.81749950349330902100e-03) (79, -4.82197524979710578918e-03) (80, -7.82534033060073852539e-02) (0, 7.53179267048835754395e-02) (1, -5.83636127412319183350e-02) (2, 4.57533821463584899902e-02) (3, -7.71744549274444580078e-02) (4, -2.49327644705772399902e-02) (5, -3.42045500874519348145e-02) (6, 2.25478084757924079895e-03) (7, 5.78888244926929473877e-02) (8, -5.45250810682773590088e-03) (9, -4.78125102818012237549e-02) (10, 9.04537439346313476562e-02) (11, -2.29208655655384063721e-02) (12, -3.50469835102558135986e-02) (13, -3.23907248675823211670e-02) (14, -2.79851965606212615967e-02) (15, 6.24797977507114410400e-02) (16, -7.14566409587860107422e-02) (17, -2.40153875201940536499e-02) (18, -1.15400962531566619873e-02) (19, 3.12131140381097793579e-02) (20, -6.59552514553070068359e-02) (21, -7.28933513164520263672e-02) (22, -3.98692116141319274902e-03) (23, -1.04388162493705749512e-01) (24, -8.25694352388381958008e-02) (25, -1.13103553652763366699e-01) (26, 3.24291293509304523468e-03) (27, 2.21562501974403858185e-03) (28, 2.24459897726774215698e-02) (29, -8.03755000233650207520e-02) (30, 4.70635257661342620850e-02) (31, -2.80402656644582748413e-02) (32, 8.02191533148288726807e-03) (33, -2.23510656505823135376e-02) (34, 4.68195676803588867188e-02) (35, 6.24925196170806884766e-02) (36, 9.03123244643211364746e-02) (37, -7.28747695684432983398e-02) (38, 7.28774815797805786133e-02) (39, -3.09920273721218109131e-02) (40, 3.84404100477695465088e-02) (41, 4.39223796129226684570e-02) (42, -1.00676447153091430664e-01) (43, -1.22907206416130065918e-01) (44, -3.34642864763736724854e-02) (45, -5.39911575615406036377e-02) (46, 7.93020948767662048340e-02) (47, -3.48450802266597747803e-02) (48, 7.50983804464340209961e-02) (49, -4.88632395863533020020e-02) (50, -5.63413091003894805908e-02) (51, -1.16856306791305541992e-01) (52, 3.70964594185352325439e-02) (53, 2.12461519986391067505e-02) (54, -6.67821541428565979004e-02) (55, 1.19844423606991767883e-02) (56, 5.16490079462528228760e-02) (57, 6.89405482262372970581e-03) (58, -3.72250378131866455078e-02) (59, -5.08999601006507873535e-02) (60, 6.82284384965896606445e-02) (61, -1.10917635262012481689e-01) (62, 5.80842234194278717041e-02) (63, -2.88666822016239166260e-02) (64, 3.35742463357746601105e-03) (65, -1.32472801487892866135e-03) (66, -3.54331582784652709961e-02) (67, -7.54526630043983459473e-03) (68, 6.44671320915222167969e-02) (69, -6.42886385321617126465e-02) (70, -9.72884595394134521484e-02) (71, -1.37593140825629234314e-02) (72, -7.28077664971351623535e-02) (73, -1.11818671226501464844e-01) (74, 1.48261282593011856079e-02) (75, -2.86465995013713836670e-02) (76, -1.05162067338824272156e-02) (77, -1.72228366136550903320e-02) (78, 9.29338037967681884766e-02) (79, -6.41808584332466125488e-02) (80, 8.35346877574920654297e-02) (0, -5.21948896348476409912e-02) (1, -5.54205290973186492920e-03) (2, 2.70476415753364562988e-02) (3, 1.08997941017150878906e-01) (4, 3.22527415119111537933e-03) (5, -2.12986301630735397339e-02) (6, 4.88932617008686065674e-02) (7, -4.12191227078437805176e-02) (8, 2.45358534157276153564e-02) (9, -5.54425455629825592041e-02) (10, -8.23643058538436889648e-02) (11, 5.99805712699890136719e-02) (12, 9.79279875755310058594e-02) (13, 3.41293811798095703125e-02) (14, -4.49943318963050842285e-02) (15, 4.16963063180446624756e-02) (16, 9.45898666977882385254e-02) (17, 9.63352397084236145020e-02) (18, -6.95248320698738098145e-03) (19, -1.95091832429170608521e-02) (20, 8.56471210718154907227e-02) (21, -6.93047791719436645508e-02) (22, -1.07888868078589439392e-02) (23, -7.70109146833419799805e-02) (24, 1.58294737339019775391e-02) (25, 1.08590267598628997803e-01) (26, -1.57637502998113632202e-02) (27, -4.59278635680675506592e-02) (28, 6.85569718480110168457e-02) (29, 7.04358220100402832031e-02) (30, -8.19115191698074340820e-02) (31, -6.49860426783561706543e-02) (32, -7.46717378497123718262e-02) (33, 5.70449531078338623047e-02) (34, 1.01353801786899566650e-01) (35, 4.38105873763561248779e-02) (36, 9.59825590252876281738e-02) (37, 6.67691528797149658203e-02) (38, 5.94967380166053771973e-02) (39, 3.42823006212711334229e-02) (40, 6.44988119602203369141e-02) (41, 9.35947299003601074219e-02) (42, -4.83833849430084228516e-02) (43, 8.27241316437721252441e-02) (44, -1.58645790070295333862e-02) (45, 2.68809702247381210327e-02) (46, -9.51531063765287399292e-03) (47, 1.58755364827811717987e-03) (48, -1.88570208847522735596e-02) (49, 9.82298254966735839844e-02) (50, 4.31393720209598541260e-02) (51, -1.23671954497694969177e-02) (52, 8.33096802234649658203e-02) (53, -5.08135594427585601807e-02) (54, -3.18471081554889678955e-02) (55, 3.03933192044496536255e-02) (56, -7.83002749085426330566e-02) (57, 7.57476612925529479980e-02) (58, 4.59474809467792510986e-02) (59, 1.11312195658683776855e-01) (60, 1.22142471373081207275e-02) (61, 8.13276171684265136719e-02) (62, -8.42302143573760986328e-02) (63, 4.48826476931571960449e-02) (64, 8.28139670193195343018e-03) (65, -7.53544196486473083496e-02) (66, -3.82448360323905944824e-02) (67, 8.95525887608528137207e-03) (68, 6.05581402778625488281e-02) (69, -7.33361467719078063965e-02) (70, -8.90754163265228271484e-02) (71, 3.86685132980346679688e-02) (72, 8.40386897325515747070e-02) (73, -2.60724481195211410522e-02) (74, -1.69769693166017532349e-02) (75, -1.51251424103975296021e-02) (76, 5.90502582490444183350e-02) (77, 8.30926746129989624023e-02) (78, 4.52104918658733367920e-02) (79, -3.83636355400085449219e-02) (80, 4.26187813282012939453e-02) (0, -2.94280461966991424561e-02) (1, -3.00469491630792617798e-02) (2, 1.18264136835932731628e-02) (3, -2.34778281301259994507e-02) (4, 7.98611044883728027344e-02) (5, -1.00011974573135375977e-01) (6, 2.90624517947435379028e-02) (7, -4.38975263386964797974e-03) (8, 7.86484777927398681641e-02) (9, -1.46392080932855606079e-02) (10, -6.65052160620689392090e-02) (11, 5.97149645909667015076e-03) (12, 2.35754605382680892944e-02) (13, 2.73000448942184448242e-02) (14, -5.73219805955886840820e-02) (15, -2.62764072977006435394e-03) (16, -8.24827253818511962891e-02) (17, -5.30450232326984405518e-03) (18, -7.52821844071149826050e-03) (19, -1.15684367716312408447e-01) (20, 3.66635397076606750488e-02) (21, -1.30679175257682800293e-01) (22, -9.91650298237800598145e-02) (23, 5.38353286683559417725e-02) (24, 1.84770883060991764069e-03) (25, -6.84989467263221740723e-02) (26, 5.52433803677558898926e-02) (27, -8.41011628508567810059e-02) (28, -7.41616636514663696289e-02) (29, 5.83877861499786376953e-02) (30, 9.27597507834434509277e-02) (31, -3.34430895745754241943e-02) (32, -8.07518791407346725464e-03) (33, -1.20816063135862350464e-02) (34, -8.69317129254341125488e-02) (35, -5.15636913478374481201e-02) (36, 5.18198087811470031738e-02) (37, 1.69517435133457183838e-02) (38, -8.52557569742202758789e-02) (39, 1.18352659046649932861e-02) (40, -1.90424658358097076416e-02) (41, -7.48756229877471923828e-02) (42, -1.11272595822811126709e-02) (43, -1.26939654350280761719e-01) (44, -7.45934173464775085449e-02) (45, 9.30103647988289594650e-04) (46, 2.45836656540632247925e-02) (47, -9.31843668222427368164e-02) (48, -3.38587909936904907227e-02) (49, -1.02720774710178375244e-01) (50, -4.50223051011562347412e-02) (51, -1.28798738121986389160e-01) (52, -5.56578859686851501465e-02) (53, -6.71036317944526672363e-02) (54, 9.71708372235298156738e-02) (55, -6.02877652272582054138e-03) (56, 2.32655163854360580444e-02) (57, 1.57663449645042419434e-02) (58, 7.45298415422439575195e-02) (59, 1.79143063724040985107e-02) (60, 3.02818249911069869995e-02) (61, 4.21592444181442260742e-02) (62, -6.57159611582756042480e-02) (63, -8.36261287331581115723e-02) (64, -2.06282734870910644531e-02) (65, -5.93125447630882263184e-02) (66, 7.36796343699097633362e-03) (67, -6.96618631482124328613e-02) (68, -9.09479483962059020996e-02) (69, 2.03996282070875167847e-02) (70, -1.03238925337791442871e-01) (71, -2.93256063014268875122e-02) (72, -9.21781584620475769043e-02) (73, -3.00193279981613159180e-02) (74, 1.07608381658792495728e-02) (75, -9.27062034606933593750e-02) (76, -5.65025955438613891602e-02) (77, -7.69899412989616394043e-02) (78, -1.29066854715347290039e-02) (79, -2.50157397240400314331e-02) (80, -1.12449172884225845337e-02) (0, 4.38509881496429443359e-02) (1, -2.09315791726112365723e-02) (2, 2.37152948975563049316e-02) (3, -1.20796114206314086914e-01) (4, 2.91549041867256164551e-02) (5, -7.83580914139747619629e-02) (6, 6.19817487895488739014e-02) (7, -7.25397020578384399414e-02) (8, -5.28751015663146972656e-02) (9, -3.13123464584350585938e-02) (10, -8.68995115160942077637e-02) (11, -1.19500577449798583984e-01) (12, 6.38495311141014099121e-02) (13, -7.54947364330291748047e-02) (14, 2.71537490189075469971e-02) (15, -9.99686792492866516113e-02) (16, 1.09506294131278991699e-01) (17, 4.68095801770687103271e-02) (18, -2.02322266995906829834e-02) (19, 1.53505979105830192566e-02) (20, 1.03850536048412322998e-01) (21, 3.38121205568313598633e-02) (22, 7.24006146192550659180e-02) (23, -3.56046110391616821289e-02) (24, 7.48163228854537010193e-03) (25, -1.26369461417198181152e-01) (26, 5.15321977436542510986e-02) (27, 6.11337041482329368591e-03) (28, 1.29567198455333709717e-02) (29, -8.40495228767395019531e-02) (30, -6.26495629549026489258e-02) (31, -9.31810364127159118652e-02) (32, 5.90461418032646179199e-02) (33, 2.67508067190647125244e-02) (34, -4.15739938616752624512e-02) (35, -5.36561869084835052490e-02) (36, -8.75220075249671936035e-02) (37, -1.23841352760791778564e-01) (38, 4.58902530372142791748e-02) (39, -7.43260681629180908203e-02) (40, 2.72277612239122390747e-02) (41, 2.03008577227592468262e-02) (42, -1.99506394565105438232e-02) (43, -5.80708086490631103516e-02) (44, -7.82003328204154968262e-02) (45, 5.97189739346504211426e-02) (46, -3.88206425122916698456e-03) (47, -1.23903170228004455566e-01) (48, 8.06861296296119689941e-02) (49, 4.07515950500965118408e-02) (50, 5.69377280771732330322e-02) (51, 3.58849093317985534668e-02) (52, 5.74746951460838317871e-02) (53, -7.96557310968637466431e-03) (54, -2.29130443185567855835e-02) (55, -1.08770705759525299072e-01) (56, 2.55003217607736587524e-02) (57, -1.25823527574539184570e-01) (58, 6.50729313492774963379e-02) (59, -1.08480960130691528320e-01) (60, -5.21776452660560607910e-02) (61, 6.13662563264369964600e-02) (62, -5.13253435492515563965e-02) (63, -1.10694944858551025391e-01) (64, 3.78167368471622467041e-02) (65, -1.22182080522179603577e-02) (66, -2.37819831818342208862e-02) (67, 3.91653925180435180664e-02) (68, 1.63886155933141708374e-02) (69, -8.86975228786468505859e-02) (70, -7.90127813816070556641e-02) (71, -9.01693701744079589844e-02) (72, 9.69012454152107238770e-02) (73, -2.86268293857574462891e-02) (74, 2.30615604668855667114e-02) (75, -1.23831309378147125244e-01) (76, 6.93004252389073371887e-03) (77, -1.06926165521144866943e-01) (78, -6.94153904914855957031e-02) (79, -6.33090659976005554199e-02) (80, 9.29247885942459106445e-02) (0, 6.63204044103622436523e-02) (1, -7.27453753352165222168e-02) (2, 3.02398577332496643066e-02) (3, -1.06511209160089492798e-02) (4, -1.50959554594010114670e-03) (5, 5.30260950326919555664e-02) (6, -7.56656602025032043457e-02) (7, 1.75300039700232446194e-04) (8, 1.92318707704544067383e-02) (9, -5.53627200424671173096e-02) (10, 5.80577291548252105713e-02) (11, 9.53976809978485107422e-03) (12, 1.05604501441121101379e-02) (13, 7.71426409482955932617e-02) (14, -3.38042974472045898438e-02) (15, -7.19815194606781005859e-02) (16, -1.84778440743684768677e-02) (17, -6.61272183060646057129e-02) (18, 6.10313750803470611572e-02) (19, 2.10145264863967895508e-02) (20, -3.32965031266212463379e-02) (21, -1.01299203932285308838e-01) (22, 2.00278684496879577637e-02) (23, 6.71380311250686645508e-02) (24, 2.12105810642242431641e-02) (25, 2.60572452098131179810e-02) (26, -3.32832522690296173096e-02) (27, 4.11050133407115936279e-02) (28, 4.87127713859081268311e-02) (29, 3.28049995005130767822e-02) (30, 4.29610647261142730713e-02) (31, 1.90688483417034149170e-02) (32, 7.11332708597183227539e-02) (33, -1.97050273418426513672e-02) (34, -7.91373625397682189941e-02) (35, -2.49608606100082397461e-02) (36, -5.54748438298702239990e-02) (37, -4.94442097842693328857e-02) (38, 8.83327797055244445801e-02) (39, 7.05010071396827697754e-02) (40, 1.00805396214127540588e-02) (41, 5.19892945885658264160e-02) (42, -6.62043876945972442627e-03) (43, -7.57331773638725280762e-02) (44, 4.28214035928249359131e-02) (45, 6.34390190243721008301e-02) (46, -3.81777025759220123291e-02) (47, -7.26610869169235229492e-02) (48, -8.93834531307220458984e-02) (49, -7.05943182110786437988e-02) (50, 5.99777996540069580078e-02) (51, -1.89566630870103836060e-02) (52, -5.70221357047557830811e-02) (53, -1.40615664422512054443e-02) (54, -3.80740463733673095703e-02) (55, 6.35800287127494812012e-02) (56, -7.71330073475837707520e-02) (57, 3.15360650420188903809e-02) (58, 1.70758031308650970459e-02) (59, 7.55787342786788940430e-02) (60, -2.51435954123735427856e-02) (61, -3.50478328764438629150e-02) (62, 4.32328786700963973999e-03) (63, -4.49254624545574188232e-02) (64, 5.49600869417190551758e-02) (65, 3.36626432836055755615e-02) (66, 3.84790860116481781006e-02) (67, -9.09219309687614440918e-02) (68, -1.04995645582675933838e-01) (69, 3.57477031648159027100e-02) (70, 9.12120938301086425781e-02) (71, 9.73757542669773101807e-03) (72, 1.20123603846877813339e-03) (73, -1.01241478696465492249e-02) (74, 4.85918968915939331055e-02) (75, -5.29344230890274047852e-02) (76, -3.05657181888818740845e-02) (77, -8.35416764020919799805e-02) (78, -9.23658628016710281372e-03) (79, -1.92104503512382507324e-02) (80, -3.36820334196090698242e-02) (81, -2.65357103198766708374e-02) (82, 9.35102552175521850586e-02) (83, 5.24703077971935272217e-02) (84, 1.53892621397972106934e-01) (85, 6.70301914215087890625e-03) (86, -1.45773887634277343750e-01) (87, 1.06235355138778686523e-01) (88, 1.22690901160240173340e-01) (89, -7.40393996238708496094e-02) (90, 9.12221297621726989746e-02) (91, -1.72066792845726013184e-01) (92, 7.07825124263763427734e-02) (93, -6.33709877729415893555e-02) (94, -2.24452558904886245728e-03) (95, -1.77451744675636291504e-02) (96, -1.29871860146522521973e-01) (97, -9.41586643457412719727e-02) (98, -2.33601089566946029663e-02) (99, -5.35249933600425720215e-02) (81, -7.16570764780044555664e-02) (82, -3.38821448385715484619e-02) (83, 2.76393387466669082642e-02) (84, -2.89791636168956756592e-02) (85, 2.95995920896530151367e-02) (86, 1.15871027112007141113e-01) (87, -1.09302401542663574219e-01) (88, -7.99154192209243774414e-02) (89, 2.96079274266958236694e-02) (90, -1.51356868445873260498e-02) (91, 1.53581798076629638672e-01) (92, -1.58420249819755554199e-01) (93, 1.01409882307052612305e-01) (94, 5.48253431916236877441e-02) (95, -4.63670963654294610023e-04) (96, 6.94485381245613098145e-02) (97, 1.39456838369369506836e-01) (98, -9.32349786162376403809e-02) (99, 6.42949203029274940491e-03) (81, 6.04797452688217163086e-02) (82, -6.96309953927993774414e-02) (83, -1.10923312604427337646e-02) (84, -4.14979532361030578613e-02) (85, 2.62201223522424697876e-02) (86, 4.39848862588405609131e-02) (87, 8.19638967514038085938e-02) (88, 6.47946819663047790527e-02) (89, -8.28290209174156188965e-02) (90, -2.86566633731126785278e-02) (91, -9.48043391108512878418e-02) (92, -2.73175854235887527466e-02) (93, -6.28454284742474555969e-03) (94, 2.48962012119591236115e-03) (95, -7.68119320273399353027e-02) (96, -6.31565675139427185059e-02) (97, -3.33336181938648223877e-02) (98, 3.29730622470378875732e-02) (99, -4.48972992599010467529e-02) (81, 3.12012545764446258545e-02) (82, -2.06175688654184341431e-02) (83, 8.34843218326568603516e-02) (84, 5.24624772369861602783e-02) (85, 2.97989398241043090820e-02) (86, -1.21911697089672088623e-01) (87, 9.17564556002616882324e-02) (88, 1.19245909154415130615e-01) (89, -5.54103478789329528809e-02) (90, 5.83846457302570343018e-02) (91, -2.42111161351203918457e-01) (92, 1.23465813696384429932e-01) (93, -4.64165993034839630127e-02) (94, -1.17434382438659667969e-01) (95, -4.09805849194526672363e-02) (96, -2.13575139641761779785e-02) (97, -5.01840300858020782471e-02) (98, -8.37299972772598266602e-02) (99, 1.75914000719785690308e-02) (81, 4.82943095266819000244e-03) (82, -5.75173236429691314697e-02) (83, 1.39426767826080322266e-01) (84, 1.58879652619361877441e-01) (85, 5.66612780094146728516e-02) (86, -1.91901475191116333008e-01) (87, -4.69263941049575805664e-02) (88, 2.78949104249477386475e-02) (89, 6.91245347261428833008e-02) (90, 2.76233050972223281860e-02) (91, -2.91295856237411499023e-01) (92, 2.22088992595672607422e-02) (93, -1.46516487002372741699e-01) (94, -7.74663984775543212891e-02) (95, 1.01059399545192718506e-01) (96, -1.02032072842121124268e-01) (97, -6.28994628787040710449e-02) (98, -2.02635135501623153687e-02) (99, -3.08258552104234695435e-02) (81, 3.72890755534172058105e-02) (82, -9.04273521155118942261e-03) (83, -1.11106313765048980713e-01) (84, -1.93478148430585861206e-02) (85, -9.71350744366645812988e-02) (86, 1.08218081295490264893e-01) (87, 5.59937879443168640137e-02) (88, -4.81784790754318237305e-02) (89, -4.86973896622657775879e-02) (90, -1.23307080939412117004e-02) (91, 7.58545100688934326172e-02) (92, 2.57804542779922485352e-02) (93, 1.25521257519721984863e-01) (94, 2.70793158560991287231e-02) (95, 5.17002716660499572754e-02) (96, 5.88201694190502166748e-02) (97, 1.29620775580406188965e-01) (98, -3.44791971147060394287e-02) (99, 4.36225831508636474609e-02) (81, -4.66073639690876007080e-02) (82, -8.65378752350807189941e-02) (83, -7.53812566399574279785e-02) (84, -1.02706715464591979980e-01) (85, -1.19333587586879730225e-01) (86, 9.75432321429252624512e-02) (87, 4.26778905093669891357e-02) (88, 5.86431138217449188232e-02) (89, 6.61997348070144653320e-02) (90, -6.08080346137285232544e-03) (91, 7.62036442756652832031e-02) (92, -1.24618887901306152344e-01) (93, -6.07303157448768615723e-03) (94, 9.02427956461906433105e-02) (95, -6.76925405859947204590e-02) (96, 1.47417381405830383301e-01) (97, 1.67826876044273376465e-01) (98, 6.98452070355415344238e-02) (99, 5.23626618087291717529e-02) (81, -2.39394698292016983032e-02) (82, -5.31877614557743072510e-02) (83, -7.26661412045359611511e-03) (84, 1.41951099038124084473e-01) (85, -2.63011269271373748779e-02) (86, -1.92081525921821594238e-01) (87, -3.95104475319385528564e-02) (88, 1.17089614272117614746e-01) (89, 7.46972113847732543945e-02) (90, -6.60898759961128234863e-02) (91, -1.92283764481544494629e-01) (92, 9.32086929678916931152e-02) (93, -7.32304528355598449707e-02) (94, -6.36348798871040344238e-02) (95, 9.53000783920288085938e-02) (96, -8.40264745056629180908e-03) (97, -7.95302987098693847656e-02) (98, -4.11872826516628265381e-02) (99, 1.31105603650212287903e-02) (81, -2.43929978460073471069e-02) (82, -9.41681116819381713867e-02) (83, -1.37375459074974060059e-01) (84, -1.07131548225879669189e-01) (85, -1.19019374251365661621e-01) (86, 1.85176566243171691895e-01) (87, -2.72025447338819503784e-02) (88, -1.83520708233118057251e-02) (89, -5.72047233581542968750e-02) (90, -2.88927964866161346436e-02) (91, 2.36039698123931884766e-01) (92, -2.09248483180999755859e-01) (93, 1.48660317063331604004e-01) (94, 1.01253613829612731934e-01) (95, -6.91750347614288330078e-02) (96, 1.08813829720020294189e-01) (97, 1.81305572390556335449e-01) (98, 1.55371902510523796082e-02) (99, 4.32198680937290191650e-02) (100, 3.23896378278732299805e-01) (101, -2.76154816150665283203e-01) (102, 4.54438254237174987793e-02) (103, 3.16787838935852050781e-01) (104, 4.28194016218185424805e-01) (105, -2.04821884632110595703e-01) (106, -2.79356956481933593750e-01) (107, 3.24191063642501831055e-01) (108, -4.89587903022766113281e-01) (109, -5.94273814931511878967e-03) 
