FANN_FLO_2.1
num_layers=3
learning_rate=0.700000
connection_rate=1.000000
network_type=0
learning_momentum=0.600000
training_algorithm=0
train_error_function=1
train_stop_function=0
cascade_output_change_fraction=0.010000
quickprop_decay=-0.000100
quickprop_mu=1.750000
rprop_increase_factor=1.200000
rprop_decrease_factor=0.500000
rprop_delta_min=0.000000
rprop_delta_max=50.000000
rprop_delta_zero=0.100000
cascade_output_stagnation_epochs=12
cascade_candidate_change_fraction=0.010000
cascade_candidate_stagnation_epochs=12
cascade_max_out_epochs=150
cascade_min_out_epochs=10
cascade_max_cand_epochs=150
cascade_min_cand_epochs=10
cascade_num_candidate_groups=2
bit_fail_limit=3.49999994039535522461e-01
cascade_candidate_limit=1.00000000000000000000e+03
cascade_weight_multiplier=4.00000005960464477539e-01
cascade_activation_functions_count=10
cascade_activation_functions=3 5 7 8 10 11 14 15 16 17 
cascade_activation_steepnesses_count=4
cascade_activation_steepnesses=2.50000000000000000000e-01 5.00000000000000000000e-01 7.50000000000000000000e-01 1.00000000000000000000e+00 
layer_sizes=81 19 2 
scale_included=0
neurons (num_inputs, activation_function, activation_steepness)=(0, 0, 0.00000000000000000000e+00) (0, 0, 0.00000000000000000000e+00) (0, 0, 0.00000000000000000000e+00) (0, 0, 0.00000000000000000000e+00) (0, 0, 0.00000000000000000000e+00) (0, 0, 0.00000000000000000000e+00) (0, 0, 0.00000000000000000000e+00) (0, 0, 0.00000000000000000000e+00) (0, 0, 0.00000000000000000000e+00) (0, 0, 0.00000000000000000000e+00) (0, 0, 0.00000000000000000000e+00) (0, 0, 0.00000000000000000000e+00) (0, 0, 0.00000000000000000000e+00) (0, 0, 0.00000000000000000000e+00) (0, 0, 0.00000000000000000000e+00) (0, 0, 0.00000000000000000000e+00) (0, 0, 0.00000000000000000000e+00) (0, 0, 0.00000000000000000000e+00) (0, 0, 0.00000000000000000000e+00) (0, 0, 0.00000000000000000000e+00) (0, 0, 0.00000000000000000000e+00) (0, 0, 0.00000000000000000000e+00) (0, 0, 0.00000000000000000000e+00) (0, 0, 0.00000000000000000000e+00) (0, 0, 0.00000000000000000000e+00) (0, 0, 0.00000000000000000000e+00) (0, 0, 0.00000000000000000000e+00) (0, 0, 0.00000000000000000000e+00) (0, 0, 0.00000000000000000000e+00) (0, 0, 0.00000000000000000000e+00) (0, 0, 0.00000000000000000000e+00) (0, 0, 0.00000000000000000000e+00) (0, 0, 0.00000000000000000000e+00) (0, 0, 0.00000000000000000000e+00) (0, 0, 0.00000000000000000000e+00) (0, 0, 0.00000000000000000000e+00) (0, 0, 0.00000000000000000000e+00) (0, 0, 0.00000000000000000000e+00) (0, 0, 0.00000000000000000000e+00) (0, 0, 0.00000000000000000000e+00) (0, 0, 0.00000000000000000000e+00) (0, 0, 0.00000000000000000000e+00) (0, 0, 0.00000000000000000000e+00) (0, 0, 0.00000000000000000000e+00) (0, 0, 0.00000000000000000000e+00) (0, 0, 0.00000000000000000000e+00) (0, 0, 0.00000000000000000000e+00) (0, 0, 0.00000000000000000000e+00) (0, 0, 0.00000000000000000000e+00) (0, 0, 0.00000000000000000000e+00) (0, 0, 0.00000000000000000000e+00) (0, 0, 0.00000000000000000000e+00) (0, 0, 0.00000000000000000000e+00) (0, 0, 0.00000000000000000000e+00) (0, 0, 0.00000000000000000000e+00) (0, 0, 0.00000000000000000000e+00) (0, 0, 0.00000000000000000000e+00) (0, 0, 0.00000000000000000000e+00) (0, 0, 0.00000000000000000000e+00) (0, 0, 0.00000000000000000000e+00) (0, 0, 0.00000000000000000000e+00) (0, 0, 0.00000000000000000000e+00) (0, 0, 0.00000000000000000000e+00) (0, 0, 0.00000000000000000000e+00) (0, 0, 0.00000000000000000000e+00) (0, 0, 0.00000000000000000000e+00) (0, 0, 0.00000000000000000000e+00) (0, 0, 0.00000000000000000000e+00) (0, 0, 0.00000000000000000000e+00) (0, 0, 0.00000000000000000000e+00) (0, 0, 0.00000000000000000000e+00) (0, 0, 0.00000000000000000000e+00) (0, 0, 0.00000000000000000000e+00) (0, 0, 0.00000000000000000000e+00) (0, 0, 0.00000000000000000000e+00) (0, 0, 0.00000000000000000000e+00) (0, 0, 0.00000000000000000000e+00) (0, 0, 0.00000000000000000000e+00) (0, 0, 0.00000000000000000000e+00) (0, 0, 0.00000000000000000000e+00) (0, 0, 0.00000000000000000000e+00) (81, 5, 5.00000000000000000000e-01) (81, 5, 5.00000000000000000000e-01) (81, 5, 5.00000000000000000000e-01) (81, 5, 5.00000000000000000000e-01) (81, 5, 5.00000000000000000000e-01) (81, 5, 5.00000000000000000000e-01) (81, 5, 5.00000000000000000000e-01) (81, 5, 5.00000000000000000000e-01) (81, 5, 5.00000000000000000000e-01) (81, 5, 5.00000000000000000000e-01) (81, 5, 5.00000000000000000000e-01) (81, 5, 5.00000000000000000000e-01) (81, 5, 5.00000000000000000000e-01) (81, 5, 5.00000000000000000000e-01) (81, 5, 5.00000000000000000000e-01) (81, 5, 5.00000000000000000000e-01) (81, 5, 5.00000000000000000000e-01) (81, 5, 5.00000000000000000000e-01) (0, 5, 0.00000000000000000000e+00) (19, 15, 5.00000000000000000000e-01) (0, 15, 0.00000000000000000000e+00) 
connections (connected_to_neuron, weight)=(0, 5.15175200998783111572e-02) (1, -3.65975759923458099365e-02) (2, 2.16477271169424057007e-03) (3, -8.20083990693092346191e-02) (4, 8.86908248066902160645e-02) (5, -4.36011813580989837646e-02) (6, -8.98404642939567565918e-02) (7, -4.24703806638717651367e-02) (8, -7.12051093578338623047e-02) (9, -7.86472856998443603516e-02) (10, -1.20387105271220207214e-02) (11, 5.91284371912479400635e-02) (12, -7.81954154372215270996e-02) (13, 8.01988169550895690918e-02) (14, -8.78402739763259887695e-02) (15, -1.67824104428291320801e-02) (16, -2.39645820111036300659e-02) (17, 4.42376136779785156250e-02) (18, -4.17208112776279449463e-02) (19, 9.15536209940910339355e-02) (20, -8.44117428641766309738e-04) (21, 2.19254679977893829346e-02) (22, 3.21630649268627166748e-02) (23, 5.10121025145053863525e-02) (24, 7.16271474957466125488e-02) (25, 3.71563388034701347351e-03) (26, -5.67908063530921936035e-02) (27, 1.31508391350507736206e-02) (28, -9.15427431464195251465e-02) (29, -1.20934518054127693176e-02) (30, 5.38954660296440124512e-02) (31, 6.59841448068618774414e-02) (32, 3.75052466988563537598e-02) (33, -4.30210381746292114258e-02) (34, 6.79814815521240234375e-02) (35, 3.64376828074455261230e-02) (36, -3.08373011648654937744e-03) (37, 9.00497287511825561523e-02) (38, 7.58530870079994201660e-02) (39, 3.42608913779258728027e-02) (40, 8.97496119141578674316e-02) (41, -2.24386621266603469849e-02) (42, -2.42493450641632080078e-02) (43, -7.59064778685569763184e-02) (44, -5.98255172371864318848e-02) (45, 1.13479210995137691498e-03) (46, -2.65973061323165893555e-03) (47, 2.67691649496555328369e-02) (48, -6.44215494394302368164e-02) (49, 5.13541772961616516113e-02) (50, 2.98597244545817375183e-03) (51, 3.43877971172332763672e-02) (52, -3.64823564887046813965e-02) (53, -6.03304132819175720215e-02) (54, -2.98303272575139999390e-02) (55, -6.23420365154743194580e-02) (56, 3.08836232870817184448e-02) (57, 2.26964838802814483643e-02) (58, 4.07406389713287353516e-02) (59, 3.95898222923278808594e-02) (60, 9.85701531171798706055e-02) (61, -4.91539714857935905457e-03) (62, -1.25114368274807929993e-02) (63, 3.92621792852878570557e-02) (64, 3.58164086937904357910e-02) (65, -3.35270650684833526611e-02) (66, -4.16110530495643615723e-02) (67, -5.80842159688472747803e-02) (68, -6.27454966306686401367e-02) (69, -5.44137470424175262451e-02) (70, 5.11311329901218414307e-02) (71, -5.66770993173122406006e-02) (72, -2.34833685681223869324e-03) (73, -5.56268170475959777832e-02) (74, -5.58080896735191345215e-02) (75, 5.51608614623546600342e-02) (76, 2.84506771713495254517e-02) (77, 4.84334044158458709717e-02) (78, -4.15340960025787353516e-02) (79, 6.39883652329444885254e-02) (80, -8.85528847575187683105e-02) (0, 5.89023940265178680420e-02) (1, -3.15728560090065002441e-02) (2, 2.67869923263788223267e-02) (3, 8.21562632918357849121e-02) (4, 4.15056385099887847900e-02) (5, 5.20389601588249206543e-02) (6, 1.22729847207665443420e-02) (7, -5.32202348113059997559e-02) (8, -1.27133866772055625916e-02) (9, -6.53052106499671936035e-02) (10, -5.57494349777698516846e-02) (11, 6.67155608534812927246e-02) (12, 2.37160157412290573120e-02) (13, 6.45414069294929504395e-02) (14, 4.68423776328563690186e-03) (15, 7.37734511494636535645e-02) (16, -7.53735974431037902832e-02) (17, 2.68414951860904693604e-02) (18, -8.96541774272918701172e-02) (19, -4.89386729896068572998e-02) (20, -1.50028318166732788086e-02) (21, -6.20210245251655578613e-02) (22, 5.54469563066959381104e-02) (23, 1.08469389379024505615e-02) (24, -1.17218624800443649292e-02) (25, -7.96172395348548889160e-03) (26, -5.98950572311878204346e-02) (27, -8.42702761292457580566e-02) (28, 5.25359436869621276855e-02) (29, 8.15424323081970214844e-02) (30, -4.50165383517742156982e-03) (31, 7.33684282749891281128e-03) (32, -4.04714196920394897461e-02) (33, -7.93608576059341430664e-02) (34, 8.42977140564471483231e-04) (35, -1.05321995913982391357e-01) (36, 8.40284526348114013672e-02) (37, -9.44589823484420776367e-02) (38, -4.65295575559139251709e-02) (39, -3.43908593058586120605e-02) (40, -4.53821159899234771729e-02) (41, -1.15209398791193962097e-02) (42, -5.57681098580360412598e-02) (43, 6.97347447276115417480e-02) (44, -3.48660424351692199707e-02) (45, 3.99445816874504089355e-02) (46, 5.02820014953613281250e-02) (47, -1.83700900524854660034e-02) (48, -2.57445536553859710693e-02) (49, 6.17787949740886688232e-02) (50, 4.24562394618988037109e-02) (51, 5.73543161153793334961e-02) (52, -9.31251868605613708496e-02) (53, -5.90740283951163291931e-03) (54, -2.28477325290441513062e-02) (55, -8.03287606686353683472e-03) (56, 9.26775336265563964844e-02) (57, 1.10180573537945747375e-02) (58, 1.26822125166654586792e-02) (59, 4.62734252214431762695e-02) (60, -1.57010415568947792053e-03) (61, -9.07927304506301879883e-02) (62, -3.69074232876300811768e-02) (63, 5.82898221909999847412e-02) (64, -6.13161735236644744873e-02) (65, 5.90416491031646728516e-02) (66, 6.24501891434192657471e-02) (67, -8.13451409339904785156e-02) (68, 7.50893950462341308594e-02) (69, -8.91861394047737121582e-02) (70, -1.24332332052290439606e-03) (71, -7.85502344369888305664e-02) (72, 1.48208895698189735413e-02) (73, 3.35040725767612457275e-02) (74, -9.55894887447357177734e-02) (75, 6.95111230015754699707e-02) (76, -1.67831834405660629272e-02) (77, 5.21729625761508941650e-02) (78, -3.47918719053268432617e-02) (79, 5.80209009349346160889e-02) (80, 6.40144422650337219238e-02) (0, -7.92808607220649719238e-02) (1, 1.45987533032894134521e-02) (2, 1.30450977012515068054e-02) (3, -4.80936747044324874878e-03) (4, -7.59700238704681396484e-02) (5, -7.69354701042175292969e-02) (6, 1.47414682433009147644e-02) (7, 1.20404157787561416626e-02) (8, 5.65847791731357574463e-02) (9, -5.41897416114807128906e-02) (10, -6.23832009732723236084e-02) (11, 5.82275055348873138428e-02) (12, 2.68119852989912033081e-02) (13, -1.18618577718734741211e-01) (14, -6.63893967866897583008e-02) (15, -2.28502117097377777100e-02) (16, 6.95168375968933105469e-02) (17, -7.42970556020736694336e-02) (18, -5.18767423927783966064e-02) (19, 6.44764825701713562012e-02) (20, 3.25315035879611968994e-02) (21, -1.71048026531934738159e-02) (22, -6.96148164570331573486e-03) (23, -3.64983305335044860840e-02) (24, 1.67525801807641983032e-02) (25, -4.65158410370349884033e-02) (26, 8.99256616830825805664e-02) (27, -5.33429384231567382812e-02) (28, 4.17407900094985961914e-02) (29, 1.56782642006874084473e-02) (30, -9.40113738179206848145e-02) (31, 2.75701452046632766724e-02) (32, -2.68987920135259628296e-02) (33, 1.40548776835203170776e-02) (34, -2.82413791865110397339e-02) (35, -4.49300110340118408203e-02) (36, 8.39152783155441284180e-02) (37, 4.68974187970161437988e-02) (38, -7.50968158245086669922e-02) (39, 1.17437522858381271362e-02) (40, -3.53887863457202911377e-02) (41, -8.31627324223518371582e-02) (42, 1.63343995809555053711e-02) (43, 3.88489365577697753906e-02) (44, -5.18584325909614562988e-02) (45, 6.58833701163530349731e-03) (46, -6.59786462783813476562e-02) (47, -1.17253556847572326660e-01) (48, 5.78930489718914031982e-02) (49, 9.93427354842424392700e-03) (50, -9.00155082345008850098e-02) (51, -3.43786901794373989105e-03) (52, -7.10249394178390502930e-02) (53, -3.26404608786106109619e-02) (54, -8.91732871532440185547e-02) (55, 2.50862669199705123901e-02) (56, 5.61324805021286010742e-02) (57, -1.42758786678314208984e-01) (58, -1.06333971023559570312e-01) (59, -1.21430093422532081604e-02) (60, 1.13923114258795976639e-03) (61, -1.02828316390514373779e-01) (62, -2.29411516338586807251e-02) (63, -1.28935620188713073730e-01) (64, 5.87933100759983062744e-02) (65, 8.36686138063669204712e-03) (66, -2.20684073865413665771e-02) (67, 2.08765398710966110229e-02) (68, 1.67323686182498931885e-02) (69, -3.15200798213481903076e-02) (70, 2.26539634168148040771e-02) (71, 2.58937049657106399536e-02) (72, 7.62816518545150756836e-02) (73, -1.16503119468688964844e-01) (74, 4.39569354057312011719e-02) (75, -1.32528021931648254395e-01) (76, 4.06687669456005096436e-02) (77, -1.32133588194847106934e-01) (78, -5.66460266709327697754e-02) (79, 1.28519134595990180969e-02) (80, 2.18681037425994873047e-01) (0, -5.01245446503162384033e-02) (1, 1.71481389552354812622e-02) (2, -5.93392886221408843994e-02) (3, 6.87658116221427917480e-02) (4, 3.02252881228923797607e-02) (5, 1.05370879173278808594e-01) (6, 4.60530966520309448242e-02) (7, 4.24184203147888183594e-02) (8, -5.78143745660781860352e-02) (9, -1.07523445039987564087e-02) (10, -2.08707638084888458252e-02) (11, -9.77260153740644454956e-03) (12, 7.58514404296875000000e-02) (13, 6.90070772543549537659e-03) (14, -3.25227230787277221680e-02) (15, 3.80690768361091613770e-02) (16, -9.44522395730018615723e-02) (17, -4.81002815067768096924e-02) (18, -1.96426957845687866211e-02) (19, 3.57624329626560211182e-02) (20, 6.71576708555221557617e-02) (21, -4.18212451040744781494e-02) (22, 6.33536372333765029907e-03) (23, -8.82860422134399414062e-02) (24, -9.45534184575080871582e-02) (25, 3.65677885711193084717e-02) (26, 8.31712633371353149414e-02) (27, -5.69940656423568725586e-02) (28, 8.27612280845642089844e-02) (29, 7.09011927247047424316e-02) (30, -8.48539546132087707520e-02) (31, -6.18725456297397613525e-02) (32, -2.57400516420602798462e-02) (33, -4.81753647327423095703e-02) (34, 9.06560719013214111328e-02) (35, -8.31492990255355834961e-02) (36, -6.16764463484287261963e-02) (37, 5.01003898680210113525e-02) (38, 3.74319627881050109863e-02) (39, -9.88580565899610519409e-03) (40, -8.92815664410591125488e-02) (41, -6.73349797725677490234e-02) (42, 5.75774349272251129150e-02) (43, 1.04208402335643768311e-01) (44, 1.61251574754714965820e-02) (45, -5.60016669332981109619e-02) (46, 3.20167616009712219238e-02) (47, 3.70989888906478881836e-02) (48, -1.53702478855848312378e-02) (49, 1.02209642529487609863e-01) (50, -4.71911169588565826416e-02) (51, -5.07931597530841827393e-02) (52, -5.17929457128047943115e-02) (53, 6.47430419921875000000e-02) (54, -5.98371848464012145996e-02) (55, -4.37964834272861480713e-02) (56, -1.58044099807739257812e-02) (57, -6.23871088027954101562e-02) (58, -1.32912993431091308594e-02) (59, -3.51687930524349212646e-02) (60, 9.39371287822723388672e-02) (61, -1.84898497536778450012e-03) (62, -2.38080956041812896729e-02) (63, -3.16173471510410308838e-02) (64, 2.75297556072473526001e-02) (65, -1.92891694605350494385e-02) (66, -3.93219180405139923096e-02) (67, 7.70274251699447631836e-02) (68, 1.03063024580478668213e-01) (69, 1.13159976899623870850e-01) (70, -7.10188001394271850586e-02) (71, -6.23404793441295623779e-02) (72, -9.39835980534553527832e-02) (73, 1.13679789006710052490e-01) (74, -9.38214883208274841309e-02) (75, 5.03004118800163269043e-02) (76, -6.80735111236572265625e-02) (77, 4.77471910417079925537e-02) (78, -5.11788651347160339355e-02) (79, 1.58067401498556137085e-02) (80, -1.00935146212577819824e-01) (0, -4.00291901314631104469e-04) (1, 1.74560248851776123047e-02) (2, 2.86476407200098037720e-02) (3, -6.26742988824844360352e-02) (4, 6.50558769702911376953e-02) (5, 7.65473991632461547852e-02) (6, 1.82551313191652297974e-02) (7, 7.10276141762733459473e-02) (8, -4.47552576661109924316e-02) (9, 5.68739101290702819824e-02) (10, 5.73264062404632568359e-02) (11, 2.55473162978887557983e-02) (12, -6.30504935979843139648e-02) (13, -1.02311983704566955566e-01) (14, -3.88496071100234985352e-02) (15, -1.15612503141164779663e-02) (16, -3.87583225965499877930e-02) (17, -1.01470455527305603027e-01) (18, -1.59701704978942871094e-02) (19, -5.98792806267738342285e-02) (20, -6.52030929923057556152e-02) (21, -9.07522742636501789093e-04) (22, -3.95059250295162200928e-02) (23, -8.03850740194320678711e-02) (24, 2.01978627592325210571e-02) (25, 7.47145116329193115234e-02) (26, -3.97685095667839050293e-02) (27, -7.45255947113037109375e-02) (28, -5.56992441415786743164e-02) (29, 2.83298064023256301880e-02) (30, 5.64203634858131408691e-02) (31, 1.70336570590734481812e-02) (32, -3.04250326007604598999e-02) (33, -2.20303013920783996582e-02) (34, 8.07570368051528930664e-02) (35, -9.09582674503326416016e-02) (36, -2.35007330775260925293e-02) (37, -2.25696917623281478882e-02) (38, -9.05020162463188171387e-02) (39, 1.41947325319051742554e-02) (40, -3.10544203966856002808e-02) (41, 4.30299118161201477051e-02) (42, -4.25227954983711242676e-02) (43, -2.27473750710487365723e-02) (44, 6.18724562227725982666e-02) (45, -1.84035068377852439880e-03) (46, 7.27489367127418518066e-02) (47, -9.39715951681137084961e-02) (48, 7.61443469673395156860e-03) (49, -3.28741557896137237549e-02) (50, -1.94499902427196502686e-02) (51, 4.43693026900291442871e-02) (52, 8.57467204332351684570e-02) (53, 1.39628276228904724121e-02) (54, 8.95264968276023864746e-02) (55, -1.11911538988351821899e-02) (56, 6.03584619238972663879e-03) (57, -7.71574825048446655273e-02) (58, 2.42707673460245132446e-02) (59, 3.24374251067638397217e-02) (60, 6.43943697214126586914e-02) (61, -2.83374302089214324951e-02) (62, -2.05992553383111953735e-02) (63, -7.33043253421783447266e-02) (64, 7.24437162280082702637e-02) (65, -6.51799961924552917480e-02) (66, -4.02156226336956024170e-02) (67, -6.36328458786010742188e-02) (68, 4.16031479835510253906e-02) (69, -5.06290905177593231201e-02) (70, 9.30613800883293151855e-02) (71, -1.18499390780925750732e-01) (72, -6.52940571308135986328e-02) (73, -7.32003301382064819336e-02) (74, -5.69985900074243545532e-03) (75, -1.28793358802795410156e-01) (76, 4.55584563314914703369e-02) (77, -3.57298851013183593750e-02) (78, -7.75189176201820373535e-02) (79, -3.67074385285377502441e-02) (80, 8.56253802776336669922e-02) (0, -5.40364580228924751282e-03) (1, -3.85992340743541717529e-02) (2, 7.65841603279113769531e-02) (3, -6.40832707285881042480e-02) (4, -5.23550324141979217529e-02) (5, -1.18090128526091575623e-02) (6, 4.84533086419105529785e-02) (7, -3.51905182469636201859e-04) (8, -6.94880634546279907227e-02) (9, 1.05795171111822128296e-02) (10, -2.25899741053581237793e-02) (11, 2.99823302775621414185e-02) (12, 8.96421596407890319824e-02) (13, 3.58279272913932800293e-02) (14, 7.60262645781040191650e-03) (15, -4.43395450711250305176e-02) (16, -9.74355340003967285156e-02) (17, 7.92213305830955505371e-02) (18, -9.45730581879615783691e-02) (19, -1.33345024660229682922e-02) (20, 6.56991600990295410156e-02) (21, -8.23142156004905700684e-02) (22, 1.69214680790901184082e-02) (23, -7.26219713687896728516e-02) (24, 1.32341226562857627869e-02) (25, 2.34059337526559829712e-02) (26, 8.84715542197227478027e-02) (27, -8.38684737682342529297e-02) (28, 4.46935668587684631348e-02) (29, -6.72638276591897010803e-03) (30, 9.02194529771804809570e-02) (31, -5.26990666985511779785e-02) (32, 4.48957867920398712158e-02) (33, 7.21090212464332580566e-02) (34, -2.78448872268199920654e-02) (35, 1.03393770754337310791e-01) (36, -5.11786527931690216064e-02) (37, -6.76116868853569030762e-02) (38, -9.46932751685380935669e-03) (39, -1.13149648532271385193e-02) (40, 2.73661948740482330322e-02) (41, 8.11210647225379943848e-02) (42, -9.42990109324455261230e-02) (43, 3.15788388252258300781e-02) (44, 3.87732172384858131409e-03) (45, 2.80698947608470916748e-02) (46, 8.09236615896224975586e-02) (47, 1.96253210306167602539e-02) (48, -7.53729604184627532959e-04) (49, 8.75432342290878295898e-02) (50, 9.47393104434013366699e-02) (51, -2.92274802923202514648e-02) (52, 9.65840145945549011230e-02) (53, 2.02935840934514999390e-02) (54, -1.19563508778810501099e-02) (55, 1.79045163094997406006e-02) (56, -6.39237463474273681641e-02) (57, -1.20219411328434944153e-02) (58, 2.87654213607311248779e-02) (59, 8.30246210098266601562e-02) (60, 7.50271901488304138184e-02) (61, 2.12444029748439788818e-02) (62, -8.13155248761177062988e-02) (63, 2.29062400758266448975e-02) (64, -1.61923188716173171997e-02) (65, 2.44118142290972173214e-04) (66, 1.55301652848720550537e-02) (67, 4.00477573275566101074e-02) (68, 2.05723196268081665039e-02) (69, -8.46528187394142150879e-02) (70, -8.82889628410339355469e-02) (71, -3.87761518359184265137e-02) (72, 7.86300599575042724609e-02) (73, -6.74074664711952209473e-02) (74, 7.68991261720657348633e-02) (75, -1.84156280010938644409e-03) (76, 4.86992225050926208496e-02) (77, 6.43162131309509277344e-02) (78, -9.96048673987388610840e-02) (79, -4.82615083456039428711e-02) (80, -1.47028779610991477966e-02) (0, 8.84764194488525390625e-02) (1, 9.12714377045631408691e-03) (2, 3.66090424358844757080e-02) (3, 1.40364971011877059937e-02) (4, 8.23027044534683227539e-02) (5, -5.59888966381549835205e-02) (6, 3.69009114801883697510e-02) (7, -2.29782816022634506226e-02) (8, 5.74617311358451843262e-02) (9, 2.21634861081838607788e-02) (10, -6.22739344835281372070e-02) (11, -1.97272598743438720703e-02) (12, 2.92484369128942489624e-02) (13, 6.15919269621372222900e-02) (14, 4.33970466256141662598e-02) (15, -6.74011260271072387695e-02) (16, -3.74356508255004882812e-02) (17, -7.03367590904235839844e-03) (18, 4.98752705752849578857e-02) (19, -1.81078538298606872559e-02) (20, 8.96656012628227472305e-04) (21, 1.04420013725757598877e-01) (22, -4.80343028903007507324e-02) (23, 3.15702855587005615234e-02) (24, 6.65592402219772338867e-02) (25, 5.32354451715946197510e-02) (26, -4.24511879682540893555e-02) (27, 3.76708060503005981445e-02) (28, 3.92122939229011535645e-02) (29, 1.94943118840456008911e-02) (30, -4.38912324607372283936e-02) (31, 5.33302538096904754639e-02) (32, -8.74641165137290954590e-02) (33, 1.03896021842956542969e-01) (34, -4.97689507901668548584e-02) (35, -8.10626745223999023438e-02) (36, -6.77620545029640197754e-02) (37, 1.07592210173606872559e-01) (38, -2.45685018599033355713e-02) (39, 1.07796289026737213135e-01) (40, 4.00902330875396728516e-03) (41, 3.53358983993530273438e-02) (42, -2.45737936347723007202e-02) (43, -3.75509336590766906738e-02) (44, -1.74610707908868789673e-02) (45, -5.90922608971595764160e-02) (46, -8.38889367878437042236e-03) (47, 6.30840435624122619629e-02) (48, 2.59175859391689300537e-02) (49, -6.25805109739303588867e-02) (50, -8.11545178294181823730e-02) (51, -6.84952735900878906250e-02) (52, -7.34365209937095642090e-02) (53, -1.90048431977629661560e-03) (54, 4.43259291350841522217e-02) (55, 1.12754113972187042236e-01) (56, -6.03137761354446411133e-02) (57, -7.21775293350219726562e-02) (58, 4.44680415093898773193e-02) (59, 9.36507880687713623047e-02) (60, 3.90490964055061340332e-02) (61, 1.10026843845844268799e-01) (62, 2.38455757498741149902e-02) (63, 5.82397356629371643066e-02) (64, 9.79174301028251647949e-02) (65, 9.57462340593338012695e-02) (66, 5.99885620176792144775e-02) (67, -5.76843209564685821533e-02) (68, 8.17567259073257446289e-02) (69, -4.73981276154518127441e-02) (70, -8.28403383493423461914e-02) (71, 1.14993499591946601868e-02) (72, 5.58374635875225067139e-02) (73, 1.54131054878234863281e-02) (74, 4.62698042392730712891e-02) (75, -3.91668081283569335938e-02) (76, 4.06100675463676452637e-02) (77, -5.64180985093116760254e-02) (78, 8.79685729742050170898e-02) (79, -3.66550870239734649658e-02) (80, -6.51946514844894409180e-02) (0, -8.58299657702445983887e-02) (1, -3.59237343072891235352e-02) (2, -2.81853862106800079346e-02) (3, 6.87604537233710289001e-03) (4, -9.98718068003654479980e-02) (5, -2.69184708595275878906e-02) (6, 2.83892638981342315674e-02) (7, -7.93075487017631530762e-02) (8, 1.01036638021469116211e-01) (9, 1.60278845578432083130e-02) (10, 3.82744595408439636230e-02) (11, 9.60346162319183349609e-02) (12, -6.18031509220600128174e-02) (13, -1.30347376689314842224e-02) (14, 7.97306299209594726562e-02) (15, -8.23431536555290222168e-02) (16, -6.66842088103294372559e-02) (17, -9.06800180673599243164e-02) (18, 9.67173576354980468750e-02) (19, -2.80921049416065216064e-02) (20, -7.12004378437995910645e-02) (21, -1.42617700621485710144e-02) (22, -6.82413503527641296387e-02) (23, 2.62253042310476303101e-02) (24, -7.35128968954086303711e-02) (25, -2.97227092087268829346e-02) (26, -5.44860772788524627686e-02) (27, -4.88164722919464111328e-02) (28, -2.81939189881086349487e-02) (29, -7.86681659519672393799e-03) (30, 3.64353181794285774231e-03) (31, -2.06686910241842269897e-02) (32, 5.19213676452636718750e-02) (33, 6.84019252657890319824e-02) (34, 8.00268203020095825195e-02) (35, 5.52908703684806823730e-02) (36, -7.03404471278190612793e-02) (37, 1.53300389647483825684e-02) (38, 6.43382370471954345703e-02) (39, -6.53126016259193420410e-02) (40, -8.56888666749000549316e-02) (41, 1.23894792050123214722e-02) (42, -8.84275957942008972168e-02) (43, -3.85814607143402099609e-02) (44, 8.05823057889938354492e-02) (45, 1.06293253600597381592e-01) (46, -2.96435393393039703369e-02) (47, -7.24218785762786865234e-02) (48, -9.33295637369155883789e-02) (49, -3.74508574604988098145e-02) (50, -6.76343170925974845886e-03) (51, -6.40373602509498596191e-02) (52, 4.27872277796268463135e-02) (53, 1.86415687203407287598e-02) (54, 4.99768033623695373535e-02) (55, 6.57299906015396118164e-02) (56, 7.71428868174552917480e-02) (57, 1.00962549448013305664e-01) (58, -9.30225178599357604980e-02) (59, -6.21528252959251403809e-02) (60, -1.73100586980581283569e-02) (61, 2.33091623522341251373e-03) (62, 3.27427696902304887772e-04) (63, -6.82250037789344787598e-02) (64, -4.43689152598381042480e-02) (65, -1.46586541086435317993e-02) (66, 6.92858994007110595703e-02) (67, -6.41646236181259155273e-03) (68, 8.21386873722076416016e-02) (69, 4.36446480453014373779e-02) (70, 3.50166042335331439972e-03) (71, 1.11921317875385284424e-01) (72, -7.11778104305267333984e-02) (73, 3.80854941904544830322e-02) (74, -5.20204380154609680176e-02) (75, -6.62828087806701660156e-02) (76, 2.26210262626409530640e-02) (77, 3.00217028707265853882e-02) (78, -6.28281459212303161621e-02) (79, 3.68513204157352447510e-02) (80, -6.90486654639244079590e-02) (0, 3.11312563717365264893e-02) (1, 4.46547716856002807617e-02) (2, -4.40821005031466484070e-03) (3, -7.30263739824295043945e-02) (4, 4.33503370732069015503e-03) (5, -4.69502992928028106689e-02) (6, -8.95239934325218200684e-02) (7, -1.87478139996528625488e-02) (8, -3.92323508858680725098e-02) (9, -7.36227482557296752930e-02) (10, 6.68201372027397155762e-02) (11, 4.40484210848808288574e-02) (12, 3.45023944973945617676e-02) (13, 7.68713578581809997559e-02) (14, -8.81498381495475769043e-02) (15, -1.01315759122371673584e-01) (16, 5.55626899003982543945e-02) (17, -2.28588618338108062744e-02) (18, 7.93410092592239379883e-02) (19, -2.47041750699281692505e-02) (20, 9.05335396528244018555e-02) (21, 7.80066847801208496094e-02) (22, 1.85566749423742294312e-02) (23, 9.14984382688999176025e-03) (24, -5.72213679552078247070e-02) (25, 2.97339614480733871460e-02) (26, -5.22043667733669281006e-02) (27, 4.51318584382534027100e-02) (28, 7.82259032130241394043e-02) (29, 5.33370263874530792236e-02) (30, 2.74809896945953369141e-02) (31, -9.78835858404636383057e-03) (32, 1.42519343644380569458e-02) (33, -8.42117965221405029297e-02) (34, 3.52447442710399627686e-02) (35, -1.02682486176490783691e-01) (36, -1.29873799160122871399e-02) (37, 2.53755841404199600220e-02) (38, 1.00371032021939754486e-03) (39, 3.09070236980915069580e-02) (40, 7.94831588864326477051e-02) (41, -5.51720485091209411621e-02) (42, -6.56315870583057403564e-03) (43, -1.28295831382274627686e-02) (44, -5.86879849433898925781e-02) (45, -1.83920878916978836060e-02) (46, -6.17577647790312767029e-03) (47, 7.73238018155097961426e-02) (48, 6.97443708777427673340e-02) (49, -2.30652280151844024658e-02) (50, -2.21275351941585540771e-02) (51, 5.58923445641994476318e-02) (52, -2.95856259763240814209e-02) (53, 7.57670029997825622559e-02) (54, -1.35287409648299217224e-02) (55, -1.87491648830473423004e-03) (56, 2.14540306478738784790e-02) (57, 1.05203678831458091736e-02) (58, -4.54909987747669219971e-02) (59, -1.12830977886915206909e-02) (60, -2.28674244135618209839e-02) (61, 7.35669434070587158203e-02) (62, -9.41517353057861328125e-02) (63, -1.16943970322608947754e-01) (64, -8.99745672941207885742e-02) (65, 1.82016156613826751709e-02) (66, -9.75157022476196289062e-02) (67, -1.88125800341367721558e-02) (68, -3.06569598615169525146e-02) (69, -1.70171931385993957520e-02) (70, -5.13290539383888244629e-02) (71, -7.95800685882568359375e-02) (72, 6.37728571891784667969e-02) (73, 1.33069176226854324341e-02) (74, 3.96419949829578399658e-02) (75, 7.69599825143814086914e-02) (76, -8.39697793126106262207e-02) (77, -7.78417289257049560547e-02) (78, 9.15839970111846923828e-02) (79, -1.16298675537109375000e-01) (80, 8.95576998591423034668e-02) (0, -5.75162284076213836670e-02) (1, 8.43250378966331481934e-02) (2, -6.80697113275527954102e-02) (3, -4.00553382933139801025e-02) (4, -6.02661781013011932373e-02) (5, 3.20022813975811004639e-02) (6, 6.72190859913825988770e-02) (7, 9.78199318051338195801e-02) (8, 8.13871696591377258301e-02) (9, -6.07031909748911857605e-03) (10, -3.18646058440208435059e-02) (11, 9.05423611402511596680e-02) (12, -2.12117545306682586670e-02) (13, -1.15900766104459762573e-02) (14, 6.88081085681915283203e-02) (15, -6.32668808102607727051e-02) (16, -2.85926125943660736084e-02) (17, 8.72334744781255722046e-03) (18, 1.19613092392683029175e-02) (19, 1.01367324590682983398e-01) (20, 3.95723767578601837158e-02) (21, 5.22134602069854736328e-02) (22, 3.80085818469524383545e-02) (23, -1.24494154006242752075e-02) (24, -4.19474616646766662598e-02) (25, 6.14635050296783447266e-02) (26, -2.80840005725622177124e-02) (27, 3.90365496277809143066e-02) (28, 1.52495997026562690735e-02) (29, 2.48208325356245040894e-02) (30, -6.48472681641578674316e-02) (31, 1.14160917699337005615e-01) (32, -3.11495736241340637207e-02) (33, -1.38523364439606666565e-02) (34, -7.00297430157661437988e-02) (35, 6.54770210385322570801e-02) (36, 7.71507248282432556152e-02) (37, -5.33538497984409332275e-02) (38, 9.35716088861227035522e-03) (39, 1.00583493709564208984e-01) (40, -2.65617575496435165405e-02) (41, -6.78954496979713439941e-02) (42, 5.49326241016387939453e-02) (43, 1.20126657187938690186e-01) (44, -2.05643884837627410889e-02) (45, 7.70357027649879455566e-02) (46, -5.42577467858791351318e-02) (47, 9.49872881174087524414e-02) (48, -3.52283269166946411133e-02) (49, 4.20397482812404632568e-02) (50, 3.07946670800447463989e-02) (51, 1.10520288348197937012e-01) (52, -4.29945103824138641357e-02) (53, 2.85384580492973327637e-02) (54, -5.19743524491786956787e-02) (55, 5.63580989837646484375e-02) (56, -4.37049157917499542236e-02) (57, 8.18538144230842590332e-02) (58, -2.40343064069747924805e-02) (59, 1.05882532894611358643e-01) (60, -1.88564173877239227295e-02) (61, 3.21368128061294555664e-02) (62, 5.78876249492168426514e-02) (63, 6.83362111449241638184e-02) (64, 7.31471255421638488770e-02) (65, 1.44138738512992858887e-01) (66, -1.48633690550923347473e-02) (67, 8.38756710290908813477e-02) (68, -6.83433935046195983887e-02) (69, 1.41697615385055541992e-01) (70, -3.34273790940642356873e-03) (71, 7.30327144265174865723e-02) (72, 8.66611599922180175781e-02) (73, 1.40146929770708084106e-02) (74, 1.87694821506738662720e-02) (75, 2.93741505593061447144e-02) (76, -5.30010461807250976562e-02) (77, 8.14382806420326232910e-02) (78, -6.91732391715049743652e-02) (79, 4.44699963554739952087e-03) (80, -1.37226760387420654297e-01) (0, 6.60638585686683654785e-02) (1, -6.93793594837188720703e-02) (2, -5.03405882045626640320e-03) (3, -1.37242265045642852783e-02) (4, -5.38715831935405731201e-02) (5, 1.05111666023731231689e-01) (6, -1.35517248418182134628e-03) (7, -8.03502872586250305176e-02) (8, -7.12597742676734924316e-02) (9, -1.25580700114369392395e-02) (10, -5.24925775825977325439e-02) (11, 3.37854772806167602539e-02) (12, -7.20278546214103698730e-02) (13, 9.11587700247764587402e-02) (14, -4.80239987373352050781e-02) (15, -5.64996153116226196289e-02) (16, -6.76428526639938354492e-02) (17, -7.68786221742630004883e-02) (18, -3.41969504952430725098e-02) (19, -5.09961023926734924316e-02) (20, 2.10195425897836685181e-02) (21, 8.46326127648353576660e-02) (22, -7.33137279748916625977e-02) (23, 9.39982235431671142578e-02) (24, -3.35238538682460784912e-02) (25, 2.00999043881893157959e-02) (26, 6.08571581542491912842e-02) (27, -7.72536247968673706055e-02) (28, 3.68233732879161834717e-02) (29, -5.14051839709281921387e-02) (30, -6.95436671376228332520e-02) (31, 4.37381565570831298828e-02) (32, -5.42464628815650939941e-02) (33, 3.50018665194511413574e-02) (34, 9.21703279018402099609e-02) (35, 3.97542491555213928223e-02) (36, -6.42333412542939186096e-04) (37, 3.49443927407264709473e-02) (38, 8.59533715993165969849e-03) (39, 6.56192824244499206543e-02) (40, 5.65800592303276062012e-02) (41, 1.06778137385845184326e-01) (42, -4.36495803296566009521e-02) (43, -5.33773824572563171387e-02) (44, 5.14273010194301605225e-02) (45, 6.36601448059082031250e-02) (46, -2.61242389678955078125e-02) (47, 1.30532622337341308594e-01) (48, 6.29212185740470886230e-02) (49, 2.70197484642267227173e-02) (50, -7.76969343423843383789e-02) (51, -8.17594956606626510620e-03) (52, -2.26647779345512390137e-02) (53, -5.26219327002763748169e-03) (54, -6.33194744586944580078e-02) (55, 7.69986137747764587402e-02) (56, 7.76454731822013854980e-02) (57, -4.65763881802558898926e-02) (58, 7.58400410413742065430e-02) (59, 3.68374735116958618164e-02) (60, -2.66280416399240493774e-02) (61, 1.18554726243019104004e-01) (62, -8.23328793048858642578e-02) (63, 3.32959480583667755127e-02) (64, 5.60858752578496932983e-03) (65, -3.97930666804313659668e-02) (66, -7.92627558112144470215e-02) (67, 1.40770837664604187012e-01) (68, 3.36630456149578094482e-02) (69, 7.66555666923522949219e-02) (70, 1.75775121897459030151e-02) (71, 5.88350035250186920166e-02) (72, -6.22826209291815757751e-03) (73, 1.43837749958038330078e-01) (74, 2.71000303328037261963e-02) (75, 1.60735622048377990723e-02) (76, 5.57773299515247344971e-02) (77, 1.26754552125930786133e-01) (78, -4.60121072828769683838e-02) (79, 2.17911209911108016968e-02) (80, -1.88601568341255187988e-01) (0, -1.99044332839548587799e-03) (1, 1.72212403267621994019e-02) (2, -1.91234779777005314827e-04) (3, 4.55089211463928222656e-02) (4, 6.63390308618545532227e-02) (5, -3.93372587859630584717e-02) (6, 1.14065269008278846741e-02) (7, 6.42823874950408935547e-02) (8, -9.36141684651374816895e-02) (9, -9.92395728826522827148e-02) (10, -8.99199470877647399902e-02) (11, 7.79912844300270080566e-02) (12, -7.46863856911659240723e-02) (13, -6.21919659897685050964e-03) (14, -1.45766334608197212219e-02) (15, -6.91139400005340576172e-02) (16, 8.07010196149349212646e-03) (17, -4.32061143219470977783e-02) (18, 4.11168634891510009766e-02) (19, -7.70133361220359802246e-02) (20, 8.47831666469573974609e-02) (21, -4.05751280486583709717e-02) (22, 3.47842164337635040283e-02) (23, 7.65537098050117492676e-02) (24, 1.00378759205341339111e-01) (25, -1.12688459455966949463e-01) (26, 2.58700642734766006470e-02) (27, 5.19357472658157348633e-02) (28, -3.16163077950477600098e-02) (29, 6.18726424872875213623e-02) (30, -5.94700574874877929688e-02) (31, 3.58221344649791717529e-02) (32, 2.19761836342513561249e-03) (33, 3.99335101246833801270e-02) (34, 7.71415745839476585388e-03) (35, -6.33306875824928283691e-02) (36, -7.66994580626487731934e-02) (37, -1.05341099202632904053e-01) (38, -6.43402859568595886230e-02) (39, -8.77143815159797668457e-02) (40, -5.95664344727993011475e-02) (41, -8.31628590822219848633e-02) (42, -8.97265970706939697266e-02) (43, -7.50135257840156555176e-02) (44, 3.49820256233215332031e-02) (45, -3.11050247400999069214e-02) (46, -4.42017242312431335449e-02) (47, -7.71297737956047058105e-02) (48, 3.47634851932525634766e-02) (49, -7.38914906978607177734e-02) (50, -6.03139773011207580566e-03) (51, 3.18628996610641479492e-02) (52, 1.07370903715491294861e-02) (53, -1.05838552117347717285e-01) (54, 4.38940078020095825195e-02) (55, -8.99860449135303497314e-03) (56, -9.60306972265243530273e-02) (57, -6.79794251918792724609e-02) (58, -4.65004108846187591553e-02) (59, -4.58201803267002105713e-02) (60, -9.09662619233131408691e-02) (61, -1.28339752554893493652e-02) (62, -6.31878301501274108887e-02) (63, 7.50025454908609390259e-03) (64, -4.15166765451431274414e-02) (65, 8.22410359978675842285e-03) (66, -1.20932489633560180664e-01) (67, -3.30429300665855407715e-02) (68, 4.65133748948574066162e-02) (69, -1.13015145063400268555e-01) (70, 4.70057390630245208740e-02) (71, 4.28187660872936248779e-02) (72, -2.95464657247066497803e-02) (73, 1.69506184756755828857e-02) (74, -7.54136368632316589355e-02) (75, -1.35124400258064270020e-01) (76, -8.19109231233596801758e-02) (77, -2.26506069302558898926e-02) (78, -3.86317856609821319580e-02) (79, -1.31455451250076293945e-01) (80, 1.24623298645019531250e-01) (0, 3.54049764573574066162e-02) (1, 8.74660313129425048828e-02) (2, 1.92227233201265335083e-02) (3, 7.76618570089340209961e-02) (4, 1.77019052207469940186e-02) (5, -6.43198043107986450195e-02) (6, 8.84729325771331787109e-02) (7, 1.02669477462768554688e-01) (8, 1.57756414264440536499e-02) (9, -8.05655680596828460693e-03) (10, -6.79145753383636474609e-02) (11, -5.14803752303123474121e-02) (12, 2.20512803643941879272e-02) (13, 9.11640226840972900391e-02) (14, 6.84962281957268714905e-03) (15, -1.83551758527755737305e-02) (16, 7.61775225400924682617e-02) (17, -6.16299621760845184326e-02) (18, -5.31656630337238311768e-02) (19, -7.74991139769554138184e-02) (20, 7.17394500970840454102e-02) (21, -6.80238604545593261719e-02) (22, -2.06423681229352951050e-02) (23, 4.36419211328029632568e-02) (24, -5.25042600929737091064e-02) (25, 4.45691542699933052063e-03) (26, 7.27970600128173828125e-02) (27, 9.44284424185752868652e-02) (28, 5.29841408133506774902e-02) (29, -8.07833522558212280273e-02) (30, 5.48903755843639373779e-02) (31, 1.11035816371440887451e-02) (32, 8.11785608530044555664e-02) (33, -2.13366132229566574097e-02) (34, -3.97941470146179199219e-02) (35, 2.69008725881576538086e-02) (36, -1.49707589298486709595e-02) (37, -2.58586909621953964233e-02) (38, -5.43998740613460540771e-03) (39, -7.88094475865364074707e-02) (40, 2.08248887211084365845e-02) (41, 5.63319362699985504150e-02) (42, -6.00050240755081176758e-02) (43, -2.00466606765985488892e-02) (44, 1.63940545171499252319e-02) (45, 7.87738785147666931152e-02) (46, 5.22673018276691436768e-02) (47, 1.80648975074291229248e-02) (48, 1.01164788007736206055e-01) (49, 8.29223170876502990723e-02) (50, 3.06552625261247158051e-03) (51, 7.31027945876121520996e-02) (52, 9.25252214074134826660e-02) (53, 1.06684856116771697998e-01) (54, -1.29106594249606132507e-02) (55, -4.38902527093887329102e-02) (56, -8.61227791756391525269e-03) (57, -1.08762327581644058228e-02) (58, -6.01063780486583709717e-02) (59, -5.24783805012702941895e-02) (60, -6.60828687250614166260e-03) (61, 9.34433490037918090820e-02) (62, 2.15651039034128189087e-02) (63, -2.60573141276836395264e-02) (64, -5.55062033236026763916e-02) (65, 1.04885824024677276611e-01) (66, 6.96055516600608825684e-02) (67, 4.24604415893554687500e-02) (68, -5.82052618265151977539e-02) (69, -1.53133943676948547363e-02) (70, 7.32965953648090362549e-03) (71, 9.76452305912971496582e-02) (72, 8.35562795400619506836e-02) (73, 8.39639604091644287109e-02) (74, -7.23753869533538818359e-02) (75, 3.70927341282367706299e-02) (76, 3.04405353963375091553e-02) (77, 8.56421142816543579102e-02) (78, 9.50838401913642883301e-02) (79, 2.41068229079246520996e-02) (80, -1.00065939128398895264e-01) (0, 1.85763072222471237183e-02) (1, -7.84016326069831848145e-02) (2, -3.94730642437934875488e-02) (3, -3.30363698303699493408e-02) (4, 3.42412777245044708252e-02) (5, 4.66372475784737616777e-05) (6, 6.26673176884651184082e-02) (7, 5.91556541621685028076e-02) (8, 2.53400318324565887451e-02) (9, 5.44816590845584869385e-02) (10, -5.50206340849399566650e-02) (11, -3.01588047295808792114e-02) (12, -1.18064768612384796143e-02) (13, -3.59395407140254974365e-02) (14, 3.44142317771911621094e-02) (15, -6.25882372260093688965e-02) (16, -5.74350021779537200928e-02) (17, -9.93544161319732666016e-02) (18, -3.92303951084613800049e-02) (19, -3.74281704425811767578e-02) (20, 2.40094736218452453613e-02) (21, -7.61481001973152160645e-02) (22, -3.00218872725963592529e-02) (23, -4.52582910656929016113e-02) (24, -2.11640838533639907837e-02) (25, 4.40433509647846221924e-02) (26, 1.04161709547042846680e-01) (27, -1.12498998641967773438e-01) (28, 6.44407719373703002930e-02) (29, -6.07701875269412994385e-02) (30, 2.75572184473276138306e-02) (31, -6.80397897958755493164e-02) (32, 9.82797355391085147858e-04) (33, 7.22799152135848999023e-02) (34, 4.31488119065761566162e-02) (35, -1.21172562241554260254e-01) (36, 1.72399748116731643677e-02) (37, -4.41091284155845642090e-02) (38, 9.46931317448616027832e-02) (39, -9.90114957094192504883e-02) (40, -1.66279114782810211182e-02) (41, -1.17119349539279937744e-01) (42, 1.50128081440925598145e-02) (43, 6.35612930636852979660e-04) (44, -5.53295714780688285828e-03) (45, -1.10053606331348419189e-01) (46, 5.10467588901519775391e-02) (47, -1.13680018112063407898e-02) (48, -8.56060758233070373535e-02) (49, -6.86166435480117797852e-02) (50, -8.30006897449493408203e-02) (51, 3.19565385580062866211e-02) (52, -6.62359409034252166748e-03) (53, -6.78838193416595458984e-02) (54, -6.15817755460739135742e-02) (55, 3.39944250881671905518e-02) (56, -8.91435891389846801758e-02) (57, -1.18258349597454071045e-01) (58, 4.12119254469871520996e-02) (59, 5.34258969128131866455e-02) (60, -5.31841106712818145752e-02) (61, -4.33942340314388275146e-02) (62, -4.92662042379379272461e-02) (63, 3.72833833098411560059e-02) (64, -2.36487239599227905273e-02) (65, 4.23817560076713562012e-02) (66, 6.86658322811126708984e-02) (67, -1.38055041432380676270e-01) (68, -3.82714644074440002441e-02) (69, 1.78824886679649353027e-02) (70, -4.15121577680110931396e-02) (71, -2.44775190949440002441e-02) (72, 9.64939147233963012695e-02) (73, 4.07046545296907424927e-03) (74, -4.13055159151554107666e-02) (75, -7.84033387899398803711e-02) (76, 4.47991117835044860840e-02) (77, -1.08084201812744140625e-01) (78, -8.86282995343208312988e-02) (79, -1.33717432618141174316e-01) (80, 1.59784197807312011719e-01) (0, -7.49553591012954711914e-02) (1, -1.07880555093288421631e-01) (2, -7.54100158810615539551e-02) (3, -2.42267139256000518799e-02) (4, -4.01541218161582946777e-02) (5, -9.88652110099792480469e-02) (6, 3.13833542168140411377e-02) (7, -3.80281358957290649414e-02) (8, 9.88902524113655090332e-02) (9, 1.08632119372487068176e-02) (10, 6.58002942800521850586e-02) (11, -1.08329420909285545349e-02) (12, 8.06830674409866333008e-02) (13, 3.51007618010044097900e-02) (14, -8.34816843271255493164e-02) (15, 5.84285594522953033447e-02) (16, 4.60253879427909851074e-02) (17, -9.52019542455673217773e-02) (18, -6.23722337186336517334e-02) (19, -9.20562946703284978867e-04) (20, -3.73899601399898529053e-02) (21, 6.75208270549774169922e-02) (22, 1.33059953805059194565e-03) (23, -8.76213908195495605469e-02) (24, -4.45964336395263671875e-02) (25, 6.68413043022155761719e-02) (26, -7.26382210850715637207e-02) (27, -1.43092833459377288818e-02) (28, 8.55076909065246582031e-02) (29, -7.25868195295333862305e-02) (30, -7.42124468088150024414e-02) (31, 8.34605023264884948730e-02) (32, -5.61327673494815826416e-02) (33, -5.97925223410129547119e-02) (34, -1.40133919194340705872e-02) (35, -2.87050679326057434082e-02) (36, -2.94543430209159851074e-02) (37, -1.13002501428127288818e-01) (38, 6.72964230179786682129e-02) (39, -5.68967461585998535156e-02) (40, 4.19204682111740112305e-02) (41, -1.11003080382943153381e-03) (42, 6.22483491897583007812e-02) (43, -1.94561984390020370483e-02) (44, -3.52648980915546417236e-02) (45, 4.06861267983913421631e-02) (46, -5.04138134419918060303e-02) (47, -1.20344012975692749023e-01) (48, 6.19301870465278625488e-02) (49, -5.55997155606746673584e-03) (50, 1.43938986584544181824e-02) (51, -8.35725143551826477051e-02) (52, -1.61665733903646469116e-02) (53, -1.13859318196773529053e-01) (54, -4.15807627141475677490e-02) (55, 1.73871815204620361328e-02) (56, 7.36218988895416259766e-02) (57, -4.87929098308086395264e-02) (58, -8.43173712491989135742e-02) (59, 5.02766855061054229736e-02) (60, -5.07442234084010124207e-03) (61, -6.36917427182197570801e-02) (62, 7.10350945591926574707e-02) (63, 3.24704684317111968994e-02) (64, 4.69082593917846679688e-03) (65, -7.14214518666267395020e-02) (66, -6.49914741516113281250e-02) (67, 5.48303909599781036377e-02) (68, -4.76415790617465972900e-02) (69, -1.24377466738224029541e-01) (70, -4.75708842277526855469e-02) (71, 5.36466576159000396729e-02) (72, 2.97355018556118011475e-02) (73, -1.27778127789497375488e-01) (74, -1.74159966409206390381e-02) (75, 5.24220503866672515869e-02) (76, 4.48352620005607604980e-02) (77, 1.90829224884510040283e-02) (78, 8.89131426811218261719e-02) (79, 6.39899726957082748413e-03) (80, 8.01427140831947326660e-02) (0, 3.85113852098584175110e-03) (1, 7.27629363536834716797e-02) (2, 5.07145635783672332764e-02) (3, -1.68402609415352344513e-03) (4, -4.85406070947647094727e-02) (5, -2.54713674075901508331e-03) (6, -2.03080195933580398560e-03) (7, 1.07743944972753524780e-02) (8, 4.60785254836082458496e-02) (9, -3.83649170398712158203e-02) (10, -6.09203018248081207275e-02) (11, -1.00846424698829650879e-01) (12, -5.43529354035854339600e-02) (13, 8.67805480957031250000e-02) (14, 3.63513715565204620361e-02) (15, -8.57868790626525878906e-03) (16, -5.30737787485122680664e-02) (17, 5.98723709117621183395e-04) (18, 5.06857484579086303711e-02) (19, -6.09795041382312774658e-02) (20, 5.09256795048713684082e-02) (21, 3.63368727266788482666e-02) (22, 7.24459886550903320312e-02) (23, 4.92530614137649536133e-02) (24, -6.21397234499454498291e-02) (25, 4.69706207513809204102e-02) (26, 3.57055477797985076904e-02) (27, 7.30845406651496887207e-02) (28, 4.98192124068737030029e-02) (29, -4.55012358725070953369e-02) (30, -3.83293516933917999268e-02) (31, -7.17149674892425537109e-02) (32, -4.96191270649433135986e-02) (33, -9.54533070325851440430e-02) (34, 5.26571832597255706787e-02) (35, -2.43807174265384674072e-02) (36, 2.55810655653476715088e-02) (37, -7.36172050237655639648e-02) (38, -8.34564790129661560059e-02) (39, -4.70462813973426818848e-02) (40, 2.44517754763364791870e-02) (41, -7.16591179370880126953e-02) (42, -2.61388905346393585205e-02) (43, 3.82270887494087219238e-02) (44, -6.06490373611450195312e-02) (45, -1.14974729716777801514e-01) (46, -6.12726286053657531738e-02) (47, -3.46502959728240966797e-02) (48, -1.01900356821715831757e-03) (49, -1.01028449833393096924e-01) (50, 3.95026914775371551514e-02) (51, -5.07819913327693939209e-02) (52, 5.58789782226085662842e-02) (53, -1.43880723044276237488e-02) (54, -7.40588232874870300293e-02) (55, 7.60654434561729431152e-02) (56, -4.81489077210426330566e-02) (57, 3.35013866424560546875e-02) (58, 6.14315755665302276611e-02) (59, -1.12863823771476745605e-01) (60, -9.63307768106460571289e-02) (61, -8.61845836043357849121e-02) (62, -5.10205514729022979736e-02) (63, -5.41284941136837005615e-02) (64, -5.62474951148033142090e-02) (65, 7.38326013088226318359e-02) (66, 4.86902482807636260986e-02) (67, 5.33775873482227325439e-02) (68, -6.74638822674751281738e-02) (69, 4.22598943114280700684e-02) (70, -4.71450872719287872314e-02) (71, 2.39855311810970306396e-02) (72, -8.35737287998199462891e-02) (73, -4.28405776619911193848e-03) (74, 2.09196563810110092163e-03) (75, -7.54429176449775695801e-02) (76, 5.52803697064518928528e-03) (77, 3.23640257120132446289e-02) (78, 3.81448902189731597900e-02) (79, -9.13792252540588378906e-02) (80, 1.22980013489723205566e-01) (0, -4.81112115085124969482e-02) (1, 4.67438250780105590820e-03) (2, 5.41618280112743377686e-02) (3, 7.22255259752273559570e-02) (4, 1.59142874181270599365e-02) (5, 3.83338294923305511475e-02) (6, -7.28305056691169738770e-02) (7, -1.10064279288053512573e-02) (8, 1.34125789627432823181e-02) (9, -5.34633472561836242676e-02) (10, 8.30602180212736129761e-03) (11, 5.83026781678199768066e-02) (12, -1.35318217799067497253e-02) (13, 8.23782160878181457520e-02) (14, -1.07963800430297851562e-01) (15, -2.15994124300777912140e-03) (16, 2.93550081551074981689e-02) (17, 9.46199297904968261719e-02) (18, 4.28239665925502777100e-02) (19, 1.32485330104827880859e-02) (20, -6.18441179394721984863e-02) (21, -8.34172498434782028198e-03) (22, 1.34807266294956207275e-02) (23, 6.87691643834114074707e-02) (24, 7.89436921477317810059e-02) (25, 8.28520953655242919922e-02) (26, -3.15305925905704498291e-02) (27, 6.28708600997924804688e-02) (28, 1.06508773751556873322e-03) (29, 3.68344187736511230469e-02) (30, 2.29574888944625854492e-02) (31, 9.17283296585083007812e-02) (32, -7.10212588310241699219e-02) (33, -1.10701117664575576782e-02) (34, 5.18772788345813751221e-02) (35, 8.25054422020912170410e-02) (36, -8.74036699533462524414e-02) (37, 1.07181854546070098877e-01) (38, -5.12237884104251861572e-02) (39, 5.37775270640850067139e-02) (40, -7.92111083865165710449e-02) (41, 8.80890041589736938477e-02) (42, -4.00035030907019972801e-04) (43, 5.55199868977069854736e-02) (44, 5.48484772443771362305e-02) (45, 2.86132767796516418457e-02) (46, -4.32708039879798889160e-02) (47, 1.44755356013774871826e-02) (48, 1.69195253401994705200e-02) (49, 9.14609730243682861328e-02) (50, -1.09552159905433654785e-01) (51, 6.40197992324829101562e-02) (52, -3.69506031274795532227e-02) (53, 5.11298961937427520752e-02) (54, 6.17989758029580116272e-03) (55, -2.35629882663488388062e-02) (56, 1.71019304543733596802e-02) (57, 1.21464125812053680420e-01) (58, -6.72233924269676208496e-02) (59, -5.45304715633392333984e-02) (60, 4.90422695875167846680e-02) (61, 7.15811029076576232910e-02) (62, -9.98769104480743408203e-02) (63, 9.04893204569816589355e-02) (64, -6.22122660279273986816e-02) (65, 8.98765772581100463867e-02) (66, 4.78505976498126983643e-02) (67, -2.54942029714584350586e-02) (68, 6.49534016847610473633e-02) (69, 1.29010498523712158203e-01) (70, 7.60645046830177307129e-02) (71, -6.70041888952255249023e-02) (72, 6.59566670656204223633e-02) (73, 2.00422257184982299805e-02) (74, 4.52989451587200164795e-02) (75, 6.45222663879394531250e-02) (76, -7.50254988670349121094e-02) (77, 1.15865863859653472900e-01) (78, -8.05894583463668823242e-02) (79, 4.28563058376312255859e-02) (80, 1.38682899996638298035e-02) (0, -6.35994300246238708496e-02) (1, -3.75481024384498596191e-02) (2, -3.04771978408098220825e-02) (3, 7.97209963202476501465e-02) (4, 5.40682598948478698730e-02) (5, -1.55796678736805915833e-02) (6, -1.28088304772973060608e-02) (7, 7.42674469947814941406e-02) (8, -6.84794504195451736450e-04) (9, 1.40360668301582336426e-02) (10, 4.63510211557149887085e-03) (11, -5.26889488101005554199e-02) (12, 1.94624811410903930664e-02) (13, -2.82923690974712371826e-02) (14, -4.69728186726570129395e-02) (15, -1.35440183803439140320e-02) (16, 1.01733490824699401855e-01) (17, 2.43309922516345977783e-02) (18, -2.41965483874082565308e-02) (19, 1.12232923507690429688e-01) (20, 2.44070328772068023682e-02) (21, -4.87358532845973968506e-02) (22, 8.28756242990493774414e-02) (23, 1.03755854070186614990e-01) (24, 7.50609263777732849121e-02) (25, 2.16631125658750534058e-02) (26, 7.09669068455696105957e-02) (27, 8.01639780402183532715e-02) (28, 2.77273319661617279053e-02) (29, 1.63263715803623199463e-02) (30, 7.25712301209568977356e-03) (31, 9.28418487310409545898e-02) (32, 4.75654490292072296143e-02) (33, 5.73653690516948699951e-02) (34, 3.65123040974140167236e-02) (35, 3.59000563621520996094e-02) (36, 1.11156836152076721191e-01) (37, -5.52712939679622650146e-02) (38, -3.71474586427211761475e-02) (39, 2.02438235282897949219e-02) (40, -6.08229218050837516785e-03) (41, 9.34123247861862182617e-02) (42, 4.22203838825225830078e-02) (43, -4.38518673181533813477e-02) (44, -6.71351999044418334961e-02) (45, 1.16702087223529815674e-01) (46, 5.03408573567867279053e-02) (47, -5.34228272736072540283e-02) (48, 3.55150960385799407959e-02) (49, 5.76707385480403900146e-02) (50, 9.29901972413063049316e-02) (51, 1.19781963527202606201e-01) (52, 8.07541683316230773926e-02) (53, 1.08924761414527893066e-01) (54, 7.78912827372550964355e-02) (55, 6.44522383809089660645e-02) (56, 6.25143572688102722168e-03) (57, 8.63044336438179016113e-02) (58, 3.95783968269824981689e-02) (59, 1.36035144329071044922e-01) (60, -1.12755307927727699280e-02) (61, 1.31292581558227539062e-01) (62, 6.63234964013099670410e-02) (63, 1.19620025157928466797e-01) (64, 4.85805645585060119629e-02) (65, 3.58363948762416839600e-02) (66, 8.45761038362979888916e-03) (67, 6.10330626368522644043e-02) (68, 1.97508558630943298340e-02) (69, 9.20821502804756164551e-02) (70, 8.06526914238929748535e-02) (71, 1.61484763026237487793e-01) (72, -1.52609581127762794495e-02) (73, 6.63321167230606079102e-02) (74, -6.66100233793258666992e-02) (75, 6.33276551961898803711e-02) (76, 3.72979305684566497803e-02) (77, 6.78455829620361328125e-02) (78, -1.25614285934716463089e-03) (79, 1.26374781131744384766e-01) (80, -1.84616759419441223145e-01) (81, -4.36133146286010742188e-02) (82, 1.52614638209342956543e-02) (83, 2.23022133111953735352e-01) (84, -9.65019986033439636230e-02) (85, 1.33010804653167724609e-01) (86, -4.12153005599975585938e-02) (87, -8.37307497859001159668e-02) (88, -5.91203272342681884766e-02) (89, 8.59840437769889831543e-02) (90, -2.52449572086334228516e-01) (91, -2.57526159286499023438e-01) (92, 2.27073863148689270020e-01) (93, -1.46784588694572448730e-01) (94, 2.47320741415023803711e-01) (95, 1.30523517727851867676e-01) (96, 1.14674635231494903564e-01) (97, -1.93757697939872741699e-01) (98, -3.55889439582824707031e-01) (99, 2.98169279098510742188e+00) 
