FANN_FLO_2.1
num_layers=4
learning_rate=0.400000
connection_rate=1.000000
network_type=0
learning_momentum=0.600000
training_algorithm=0
train_error_function=1
train_stop_function=0
cascade_output_change_fraction=0.010000
quickprop_decay=-0.000100
quickprop_mu=1.750000
rprop_increase_factor=1.200000
rprop_decrease_factor=0.500000
rprop_delta_min=0.000000
rprop_delta_max=50.000000
rprop_delta_zero=0.100000
cascade_output_stagnation_epochs=12
cascade_candidate_change_fraction=0.010000
cascade_candidate_stagnation_epochs=12
cascade_max_out_epochs=150
cascade_min_out_epochs=10
cascade_max_cand_epochs=150
cascade_min_cand_epochs=10
cascade_num_candidate_groups=2
bit_fail_limit=3.49999994039535522461e-01
cascade_candidate_limit=1.00000000000000000000e+03
cascade_weight_multiplier=4.00000005960464477539e-01
cascade_activation_functions_count=10
cascade_activation_functions=3 5 7 8 10 11 14 15 16 17 
cascade_activation_steepnesses_count=4
cascade_activation_steepnesses=2.50000000000000000000e-01 5.00000000000000000000e-01 7.50000000000000000000e-01 1.00000000000000000000e+00 
layer_sizes=81 16 8 2 
scale_included=0
neurons (num_inputs, activation_function, activation_steepness)=(0, 0, 0.00000000000000000000e+00) (0, 0, 0.00000000000000000000e+00) (0, 0, 0.00000000000000000000e+00) (0, 0, 0.00000000000000000000e+00) (0, 0, 0.00000000000000000000e+00) (0, 0, 0.00000000000000000000e+00) (0, 0, 0.00000000000000000000e+00) (0, 0, 0.00000000000000000000e+00) (0, 0, 0.00000000000000000000e+00) (0, 0, 0.00000000000000000000e+00) (0, 0, 0.00000000000000000000e+00) (0, 0, 0.00000000000000000000e+00) (0, 0, 0.00000000000000000000e+00) (0, 0, 0.00000000000000000000e+00) (0, 0, 0.00000000000000000000e+00) (0, 0, 0.00000000000000000000e+00) (0, 0, 0.00000000000000000000e+00) (0, 0, 0.00000000000000000000e+00) (0, 0, 0.00000000000000000000e+00) (0, 0, 0.00000000000000000000e+00) (0, 0, 0.00000000000000000000e+00) (0, 0, 0.00000000000000000000e+00) (0, 0, 0.00000000000000000000e+00) (0, 0, 0.00000000000000000000e+00) (0, 0, 0.00000000000000000000e+00) (0, 0, 0.00000000000000000000e+00) (0, 0, 0.00000000000000000000e+00) (0, 0, 0.00000000000000000000e+00) (0, 0, 0.00000000000000000000e+00) (0, 0, 0.00000000000000000000e+00) (0, 0, 0.00000000000000000000e+00) (0, 0, 0.00000000000000000000e+00) (0, 0, 0.00000000000000000000e+00) (0, 0, 0.00000000000000000000e+00) (0, 0, 0.00000000000000000000e+00) (0, 0, 0.00000000000000000000e+00) (0, 0, 0.00000000000000000000e+00) (0, 0, 0.00000000000000000000e+00) (0, 0, 0.00000000000000000000e+00) (0, 0, 0.00000000000000000000e+00) (0, 0, 0.00000000000000000000e+00) (0, 0, 0.00000000000000000000e+00) (0, 0, 0.00000000000000000000e+00) (0, 0, 0.00000000000000000000e+00) (0, 0, 0.00000000000000000000e+00) (0, 0, 0.00000000000000000000e+00) (0, 0, 0.00000000000000000000e+00) (0, 0, 0.00000000000000000000e+00) (0, 0, 0.00000000000000000000e+00) (0, 0, 0.00000000000000000000e+00) (0, 0, 0.00000000000000000000e+00) (0, 0, 0.00000000000000000000e+00) (0, 0, 0.00000000000000000000e+00) (0, 0, 0.00000000000000000000e+00) (0, 0, 0.00000000000000000000e+00) (0, 0, 0.00000000000000000000e+00) (0, 0, 0.00000000000000000000e+00) (0, 0, 0.00000000000000000000e+00) (0, 0, 0.00000000000000000000e+00) (0, 0, 0.00000000000000000000e+00) (0, 0, 0.00000000000000000000e+00) (0, 0, 0.00000000000000000000e+00) (0, 0, 0.00000000000000000000e+00) (0, 0, 0.00000000000000000000e+00) (0, 0, 0.00000000000000000000e+00) (0, 0, 0.00000000000000000000e+00) (0, 0, 0.00000000000000000000e+00) (0, 0, 0.00000000000000000000e+00) (0, 0, 0.00000000000000000000e+00) (0, 0, 0.00000000000000000000e+00) (0, 0, 0.00000000000000000000e+00) (0, 0, 0.00000000000000000000e+00) (0, 0, 0.00000000000000000000e+00) (0, 0, 0.00000000000000000000e+00) (0, 0, 0.00000000000000000000e+00) (0, 0, 0.00000000000000000000e+00) (0, 0, 0.00000000000000000000e+00) (0, 0, 0.00000000000000000000e+00) (0, 0, 0.00000000000000000000e+00) (0, 0, 0.00000000000000000000e+00) (0, 0, 0.00000000000000000000e+00) (81, 4, 5.00000000000000000000e-01) (81, 4, 5.00000000000000000000e-01) (81, 4, 5.00000000000000000000e-01) (81, 4, 5.00000000000000000000e-01) (81, 4, 5.00000000000000000000e-01) (81, 4, 5.00000000000000000000e-01) (81, 4, 5.00000000000000000000e-01) (81, 4, 5.00000000000000000000e-01) (81, 4, 5.00000000000000000000e-01) (81, 4, 5.00000000000000000000e-01) (81, 4, 5.00000000000000000000e-01) (81, 4, 5.00000000000000000000e-01) (81, 4, 5.00000000000000000000e-01) (81, 4, 5.00000000000000000000e-01) (81, 4, 5.00000000000000000000e-01) (0, 4, 0.00000000000000000000e+00) (16, 4, 5.00000000000000000000e-01) (16, 4, 5.00000000000000000000e-01) (16, 4, 5.00000000000000000000e-01) (16, 4, 5.00000000000000000000e-01) (16, 4, 5.00000000000000000000e-01) (16, 4, 5.00000000000000000000e-01) (16, 4, 5.00000000000000000000e-01) (0, 4, 0.00000000000000000000e+00) (8, 0, 5.00000000000000000000e-01) (0, 0, 0.00000000000000000000e+00) 
connections (connected_to_neuron, weight)=(0, -4.63657639920711517334e-02) (1, 1.33076503872871398926e-01) (2, 3.92414741218090057373e-02) (3, 2.71076187491416931152e-02) (4, 9.98379364609718322754e-02) (5, 1.05176076292991638184e-01) (6, 6.07443749904632568359e-02) (7, 1.38319522142410278320e-01) (8, -1.87082700431346893311e-02) (9, 6.71902149915695190430e-02) (10, 7.01301246881484985352e-02) (11, 1.86738535761833190918e-01) (12, 1.03465996682643890381e-01) (13, 9.88988652825355529785e-02) (14, 6.41732215881347656250e-02) (15, 2.73451786488294601440e-02) (16, 1.76447629928588867188e-02) (17, 1.78591161966323852539e-01) (18, 4.36254404485225677490e-02) (19, 1.75741717219352722168e-01) (20, 6.46577328443527221680e-02) (21, 4.79547344148159027100e-02) (22, 8.36769044399261474609e-02) (23, 1.00404560565948486328e-01) (24, 1.11634798347949981689e-01) (25, 1.30084827542304992676e-01) (26, 4.89566139876842498779e-02) (27, 1.74017086625099182129e-01) (28, -7.37067591398954391479e-03) (29, 1.19961239397525787354e-01) (30, 2.17188671231269836426e-02) (31, 1.29437461495399475098e-01) (32, -4.69869635999202728271e-02) (33, 1.03459849953651428223e-01) (34, 5.46922683715820312500e-02) (35, 2.21841618418693542480e-01) (36, 1.44297331571578979492e-01) (37, 1.38271868228912353516e-01) (38, 6.45524710416793823242e-02) (39, 5.82692548632621765137e-02) (40, 7.58877396583557128906e-02) (41, 1.15391276776790618896e-01) (42, -3.61358225345611572266e-02) (43, 1.56552582979202270508e-01) (44, 1.05742074549198150635e-01) (45, 1.65895730257034301758e-01) (46, 5.82815408706665039062e-02) (47, 1.12469524145126342773e-01) (48, 1.05868550017476081848e-02) (49, 1.05590268969535827637e-01) (50, 2.33483873307704925537e-02) (51, 5.77864870429039001465e-02) (52, 5.50649538636207580566e-02) (53, 2.40027040243148803711e-01) (54, 8.43755751848220825195e-02) (55, 1.29864513874053955078e-01) (56, 7.36694633960723876953e-02) (57, 8.28853696584701538086e-02) (58, 5.27703128755092620850e-02) (59, 2.18179911375045776367e-01) (60, 1.82804122567176818848e-01) (61, 2.31332525610923767090e-01) (62, 2.76603903621435165405e-02) (63, 2.28258565068244934082e-01) (64, 2.21201442182064056396e-02) (65, 7.29821324348449707031e-02) (66, 1.16126470267772674561e-01) (67, 1.08771122992038726807e-01) (68, 7.67543166875839233398e-02) (69, 1.72462016344070434570e-01) (70, 5.47620169818401336670e-02) (71, 1.75215169787406921387e-01) (72, 1.22676402330398559570e-01) (73, 1.66141465306282043457e-01) (74, -3.21677140891551971436e-02) (75, 2.51519143581390380859e-01) (76, -5.16916699707508087158e-02) (77, 2.59165555238723754883e-01) (78, -4.56966012716293334961e-02) (79, 2.14111581444740295410e-01) (80, -6.55871033668518066406e-01) (0, -2.68019624054431915283e-02) (1, 1.00475840270519256592e-01) (2, 2.89516281336545944214e-02) (3, 4.73875775933265686035e-02) (4, -3.81263718008995056152e-02) (5, -7.40908971056342124939e-03) (6, -1.18937805294990539551e-01) (7, 4.70754429697990417480e-02) (8, -1.05263246223330497742e-02) (9, 1.35353311896324157715e-01) (10, -7.28015378117561340332e-02) (11, 2.11162734776735305786e-02) (12, -2.42597628384828567505e-02) (13, -3.53476889431476593018e-02) (14, 3.36866751313209533691e-02) (15, 3.51482145488262176514e-02) (16, 7.44393095374107360840e-02) (17, 1.36171832680702209473e-01) (18, -9.81289297342300415039e-02) (19, 5.07061220705509185791e-02) (20, -3.49012650549411773682e-02) (21, 7.66111016273498535156e-02) (22, -1.54938613995909690857e-02) (23, 1.15755446255207061768e-01) (24, 4.66857105493545532227e-02) (25, 2.81361360102891921997e-02) (26, 7.39641487598419189453e-02) (27, 9.69219580292701721191e-02) (28, 2.60759536176919937134e-02) (29, 8.29712077975273132324e-02) (30, 5.98760806024074554443e-02) (31, -1.14116510376334190369e-02) (32, -3.09310127049684524536e-02) (33, 1.10608682036399841309e-01) (34, 2.20820978283882141113e-02) (35, 1.02601662278175354004e-01) (36, -9.32302847504615783691e-02) (37, 1.10037155449390411377e-01) (38, -6.13347403705120086670e-02) (39, 5.20298108458518981934e-02) (40, 1.95455700159072875977e-02) (41, 4.80741932988166809082e-02) (42, 7.25172609090805053711e-02) (43, -2.74943001568317413330e-02) (44, -3.77876032143831253052e-03) (45, 6.83713108301162719727e-02) (46, -1.85422692447900772095e-02) (47, 6.20709359645843505859e-02) (48, -2.96325124800205230713e-02) (49, 8.27589258551597595215e-02) (50, -8.67192298173904418945e-02) (51, 1.30112335085868835449e-01) (52, -5.74083775281906127930e-02) (53, 6.69718235731124877930e-02) (54, 4.21952866017818450928e-02) (55, -2.39832885563373565674e-02) (56, 7.21990317106246948242e-02) (57, 9.49325710535049438477e-02) (58, 7.75662660598754882812e-02) (59, 8.14782530069351196289e-02) (60, -1.48485763929784297943e-03) (61, 1.22292622923851013184e-01) (62, 4.31531257927417755127e-02) (63, 1.14463090896606445312e-01) (64, 6.58266479149460792542e-03) (65, 5.76510801911354064941e-02) (66, -1.61443501710891723633e-02) (67, 8.62716063857078552246e-02) (68, -6.39997646212577819824e-02) (69, 1.15631885826587677002e-01) (70, -8.07062759995460510254e-02) (71, 1.60313859581947326660e-01) (72, -7.85547420382499694824e-02) (73, 1.56662359833717346191e-01) (74, 9.24104303121566772461e-02) (75, 1.19439713656902313232e-01) (76, -1.99623629450798034668e-02) (77, 8.05737078189849853516e-02) (78, -7.65434429049491882324e-02) (79, 1.66827499866485595703e-01) (80, -1.27186685800552368164e-01) (0, -3.43975611031055450439e-02) (1, 1.29803139716386795044e-02) (2, -8.67901183664798736572e-03) (3, 8.76746885478496551514e-03) (4, -2.19957232475280761719e-02) (5, -5.94598427414894104004e-02) (6, 5.47911413013935089111e-02) (7, -1.25807866454124450684e-01) (8, -6.99992999434471130371e-02) (9, -9.73640680313110351562e-02) (10, -2.26357858628034591675e-02) (11, 4.96101044118404388428e-02) (12, 7.68634229898452758789e-02) (13, -1.23339757323265075684e-01) (14, -6.77463226020336151123e-03) (15, -6.35602027177810668945e-02) (16, 1.69314444065093994141e-02) (17, -1.29126653075218200684e-01) (18, 2.27625519037246704102e-02) (19, -9.28996056318283081055e-02) (20, -8.64159613847732543945e-02) (21, -4.24255989491939544678e-02) (22, -1.68536137789487838745e-02) (23, 5.44899068772792816162e-02) (24, 2.03176843933761119843e-03) (25, -1.25439286231994628906e-01) (26, -3.02261020988225936890e-03) (27, 5.10875470936298370361e-02) (28, -4.42049168050289154053e-02) (29, -7.76350572705268859863e-02) (30, -5.68626411259174346924e-02) (31, -4.37691956758499145508e-02) (32, -7.30810090899467468262e-02) (33, -6.36943727731704711914e-02) (34, -4.47564795613288879395e-02) (35, -4.49100099503993988037e-02) (36, 4.76001054048538208008e-02) (37, 2.84903421998023986816e-02) (38, 1.67534928768873214722e-02) (39, -1.51500225067138671875e-01) (40, -6.51479810476303100586e-02) (41, 3.78542691469192504883e-02) (42, 7.59753212332725524902e-02) (43, -1.41286522150039672852e-01) (44, -9.06312689185142517090e-02) (45, -6.57895728945732116699e-02) (46, 2.60020466521382331848e-03) (47, -3.99754084646701812744e-02) (48, 2.06258669495582580566e-02) (49, -1.50137498974800109863e-01) (50, 4.52122911810874938965e-02) (51, -3.61850075423717498779e-02) (52, 5.32999588176608085632e-03) (53, -1.13361686468124389648e-01) (54, 5.33397914841771125793e-03) (55, -1.54247105121612548828e-01) (56, -3.43476273119449615479e-02) (57, -1.55069157481193542480e-01) (58, -1.26725733280181884766e-01) (59, -3.63517329096794128418e-02) (60, -7.23149403929710388184e-02) (61, -1.42691716551780700684e-01) (62, -6.96400627493858337402e-02) (63, -6.79114311933517456055e-02) (64, 3.29750799573957920074e-03) (65, -8.35708379745483398438e-02) (66, -9.73624214529991149902e-02) (67, -9.59387123584747314453e-02) (68, -3.84905599057674407959e-02) (69, -4.80602346360683441162e-02) (70, -4.45320568978786468506e-02) (71, -8.62255021929740905762e-02) (72, 1.65986977517604827881e-02) (73, -1.08971729874610900879e-01) (74, 2.27237556828185915947e-04) (75, -5.24878315627574920654e-02) (76, 5.55393956601619720459e-02) (77, 1.44056370481848716736e-02) (78, -4.49689812958240509033e-02) (79, -1.19424730539321899414e-01) (80, 4.13938472047448158264e-03) (0, -1.06708556413650512695e-01) (1, 1.23839475214481353760e-01) (2, -4.79155359789729118347e-03) (3, -2.39424523897469043732e-03) (4, 9.83977224677801132202e-03) (5, 6.02437257766723632812e-02) (6, 4.83477022498846054077e-03) (7, 5.65409809350967407227e-02) (8, 2.85532828420400619507e-02) (9, -4.39905049279332160950e-03) (10, -1.10747963190078735352e-01) (11, 9.15013402700424194336e-02) (12, -2.94106430374085903168e-03) (13, 3.73071692883968353271e-02) (14, -3.82737442851066589355e-02) (15, 1.17825262248516082764e-01) (16, -4.79560531675815582275e-03) (17, 7.95901343226432800293e-02) (18, -6.36149197816848754883e-02) (19, -2.83168666064739227295e-02) (20, -8.34472402930259704590e-02) (21, 7.68780410289764404297e-02) (22, 4.12664748728275299072e-02) (23, 2.85397469997406005859e-02) (24, -6.82557895779609680176e-02) (25, 1.92129835486412048340e-02) (26, -6.51139840483665466309e-02) (27, -2.12105829268693923950e-02) (28, 1.93652622401714324951e-02) (29, 5.40658049285411834717e-02) (30, -8.16045701503753662109e-02) (31, 8.00082609057426452637e-02) (32, -8.45355354249477386475e-03) (33, 1.01315014064311981201e-01) (34, -1.08211398124694824219e-01) (35, -4.47983220219612121582e-02) (36, -1.32654020562767982483e-02) (37, 7.38476291298866271973e-02) (38, 2.75708697736263275146e-02) (39, -4.14932072162628173828e-02) (40, 7.58277028799057006836e-02) (41, 7.80635029077529907227e-02) (42, 7.32890740036964416504e-02) (43, 3.00128832459449768066e-02) (44, -7.16697648167610168457e-02) (45, -1.73726640641689300537e-02) (46, -4.46542650461196899414e-02) (47, 9.01732444763183593750e-02) (48, 6.49390518665313720703e-02) (49, 6.33763447403907775879e-02) (50, 8.65144804120063781738e-02) (51, -5.04071898758411407471e-02) (52, -4.54956926405429840088e-02) (53, 8.08931216597557067871e-02) (54, 1.43872655462473630905e-03) (55, 4.95466366410255432129e-02) (56, -8.90691652894020080566e-02) (57, 9.41769629716873168945e-02) (58, 5.73897063732147216797e-02) (59, 9.14301276206970214844e-02) (60, -1.15695428103208541870e-02) (61, 1.37924402952194213867e-01) (62, -1.94879584014415740967e-02) (63, 1.15247793495655059814e-01) (64, 4.91465516388416290283e-02) (65, 3.73840630054473876953e-02) (66, 7.49743655323982238770e-02) (67, -1.15786092355847358704e-02) (68, -8.23502317070960998535e-02) (69, 6.92103952169418334961e-02) (70, -3.85348275303840637207e-02) (71, -3.31546664237976074219e-02) (72, -5.36093600094318389893e-02) (73, -1.79892163723707199097e-02) (74, -2.10314593277871608734e-03) (75, 4.65086065232753753662e-02) (76, -3.84340062737464904785e-02) (77, 1.26892834901809692383e-01) (78, -7.36740678548812866211e-02) (79, 7.41531420499086380005e-03) (80, -3.10266930609941482544e-02) (0, -1.02551162242889404297e-01) (1, 3.17734219133853912354e-02) (2, 2.39037275314331054688e-02) (3, 1.31736531853675842285e-01) (4, 6.65105059742927551270e-02) (5, 2.94931028038263320923e-02) (6, 3.73966768383979797363e-02) (7, 7.58776590228080749512e-02) (8, 1.10242456197738647461e-01) (9, 9.34074446558952331543e-02) (10, 5.95786683261394500732e-02) (11, 1.64169281721115112305e-01) (12, -7.40689709782600402832e-02) (13, 1.05916783213615417480e-01) (14, 5.12629263103008270264e-02) (15, 6.68833032250404357910e-02) (16, 2.71320971660315990448e-03) (17, 1.54482424259185791016e-01) (18, 4.47193859145045280457e-03) (19, 6.25635311007499694824e-03) (20, -5.32673187553882598877e-02) (21, 1.03586122393608093262e-01) (22, -1.90078336745500564575e-02) (23, 3.99137102067470550537e-02) (24, -7.48878866434097290039e-02) (25, 1.54434978961944580078e-01) (26, 1.68968066573143005371e-02) (27, 1.79310262203216552734e-01) (28, -7.93382748961448669434e-02) (29, 1.61622896790504455566e-01) (30, -4.63568046689033508301e-02) (31, 1.57757941633462905884e-02) (32, -6.90726563334465026855e-02) (33, 2.22676489502191543579e-02) (34, 8.50658118724822998047e-02) (35, 1.71996518969535827637e-01) (36, 1.81817375123500823975e-02) (37, 1.46233320236206054688e-01) (38, -1.01817594841122627258e-02) (39, 7.47080966830253601074e-02) (40, -4.21256199479103088379e-02) (41, 3.57991121709346771240e-02) (42, -4.28281165659427642822e-03) (43, 6.65970221161842346191e-02) (44, 7.63553828001022338867e-02) (45, 2.32924963347613811493e-03) (46, 5.44532574713230133057e-02) (47, 7.65105336904525756836e-02) (48, 6.76660016179084777832e-02) (49, 6.72128051519393920898e-02) (50, 4.62800785899162292480e-02) (51, 1.06750186532735824585e-02) (52, 1.08116164803504943848e-01) (53, 1.85159385204315185547e-01) (54, 7.59962759912014007568e-03) (55, 1.60436592996120452881e-02) (56, 7.12455287575721740723e-02) (57, 1.96138769388198852539e-01) (58, -3.39641459286212921143e-02) (59, 1.67689919471740722656e-01) (60, 1.53271690011024475098e-01) (61, 9.79771316051483154297e-02) (62, 1.03306733071804046631e-01) (63, 2.05999687314033508301e-01) (64, 4.34521548449993133545e-02) (65, 1.83296114206314086914e-01) (66, 8.70484411716461181641e-02) (67, 2.18969415873289108276e-02) (68, 4.04942147433757781982e-02) (69, 7.35778510570526123047e-02) (70, 2.58173681795597076416e-02) (71, 2.14173316955566406250e-01) (72, 1.02950536529533565044e-04) (73, 1.77214637398719787598e-01) (74, -2.76720076799392700195e-02) (75, 8.92786681652069091797e-02) (76, 6.03617280721664428711e-02) (77, 4.78883534669876098633e-02) (78, 2.73360013961791992188e-02) (79, 1.65484338998794555664e-01) (80, -2.30331093072891235352e-01) (0, -1.15215018391609191895e-01) (1, 9.91630107164382934570e-02) (2, -8.70189592242240905762e-02) (3, -2.27111689746379852295e-02) (4, -1.07645653188228607178e-01) (5, 3.73038649559020996094e-02) (6, 3.60555970109999179840e-03) (7, 1.50287225842475891113e-01) (8, -3.47271114587783813477e-02) (9, 8.44890028238296508789e-02) (10, 2.19320897012948989868e-02) (11, 1.25752493739128112793e-01) (12, 7.63484183698892593384e-03) (13, 1.04016289114952087402e-01) (14, -3.41629087924957275391e-02) (15, 3.58640551567077636719e-02) (16, -2.19595860689878463745e-02) (17, 4.69109490513801574707e-02) (18, 5.93710318207740783691e-02) (19, 1.28823027014732360840e-01) (20, 5.13518825173377990723e-02) (21, 1.46713674068450927734e-01) (22, -7.40718469023704528809e-02) (23, 8.17057937383651733398e-02) (24, -9.26091447472572326660e-02) (25, 8.24125707149505615234e-02) (26, -7.34275430440902709961e-02) (27, 2.38548610359430313110e-02) (28, -7.01772272586822509766e-02) (29, 1.69011771678924560547e-01) (30, -2.92570702731609344482e-02) (31, 5.71274273097515106201e-02) (32, 4.22921404242515563965e-03) (33, 1.74764961004257202148e-01) (34, -2.87088621407747268677e-02) (35, 1.11709006130695343018e-01) (36, -2.33607869595289230347e-02) (37, 4.17918041348457336426e-02) (38, 3.46117233857512474060e-03) (39, 1.31730243563652038574e-01) (40, 4.54626567661762237549e-02) (41, 5.40098436176776885986e-02) (42, 1.47906634956598281860e-02) (43, 7.46491253376007080078e-02) (44, -1.09370045363903045654e-01) (45, 1.79838225245475769043e-01) (46, 2.77881119400262832642e-02) (47, 1.12650372087955474854e-01) (48, -6.80952295660972595215e-02) (49, 1.43297538161277770996e-01) (50, 3.72390408301725983620e-04) (51, 3.19704711437225341797e-02) (52, 2.15569511055946350098e-02) (53, 1.35187402367591857910e-01) (54, 6.44248127937316894531e-02) (55, 1.66119560599327087402e-01) (56, -6.05140551924705505371e-02) (57, 1.70484501868486404419e-02) (58, -4.67669926583766937256e-02) (59, 1.01228110492229461670e-01) (60, -2.69445814192295074463e-02) (61, 1.58020362257957458496e-01) (62, 7.40097761154174804688e-02) (63, 1.54613971710205078125e-01) (64, 4.93986345827579498291e-02) (65, 9.07008126378059387207e-02) (66, -2.69077066332101821899e-02) (67, 4.04324941337108612061e-02) (68, 4.12945039570331573486e-02) (69, 2.17933058738708496094e-02) (70, 1.00433468818664550781e-01) (71, 1.49580344557762145996e-01) (72, -3.10689378529787063599e-02) (73, 1.17236413061618804932e-01) (74, -8.09345617890357971191e-02) (75, 1.17903411388397216797e-01) (76, -1.38281444087624549866e-02) (77, 2.14225515723228454590e-01) (78, -1.01365819573402404785e-01) (79, 1.98799043893814086914e-01) (80, -3.53182777762413024902e-02) (0, 4.53461296856403350830e-02) (1, -9.45170670747756958008e-02) (2, 1.55743164941668510437e-02) (3, -5.20336702466011047363e-02) (4, 8.35671350359916687012e-02) (5, -5.43454922735691070557e-02) (6, 5.09090088307857513428e-02) (7, -1.14832080900669097900e-01) (8, -5.19565446302294731140e-03) (9, -8.91139209270477294922e-02) (10, -6.62896111607551574707e-02) (11, -6.75374865531921386719e-02) (12, -8.51591825485229492188e-02) (13, 5.89504539966583251953e-02) (14, -8.63606706261634826660e-02) (15, -1.30009399726986885071e-02) (16, -1.82579290121793746948e-02) (17, -7.33260884881019592285e-02) (18, -3.03874090313911437988e-02) (19, -3.84368933737277984619e-02) (20, -6.26826956868171691895e-02) (21, 7.67065957188606262207e-02) (22, 7.86044076085090637207e-02) (23, 1.69923454523086547852e-02) (24, -5.99517710506916046143e-02) (25, -5.03428056836128234863e-02) (26, -4.42479215562343597412e-02) (27, -9.69343185424804687500e-02) (28, 5.48376468941569328308e-03) (29, -1.05565071105957031250e-01) (30, 1.05870679020881652832e-01) (31, -1.02689437568187713623e-01) (32, -4.59416434168815612793e-02) (33, -5.73157481849193572998e-02) (34, -2.18018074519932270050e-03) (35, -1.05681337416172027588e-01) (36, 2.52257529646158218384e-02) (37, -1.16432540118694305420e-01) (38, -7.20798745751380920410e-02) (39, -1.06007896363735198975e-01) (40, -4.47359457612037658691e-02) (41, -8.21180790662765502930e-02) (42, -3.15849184989929199219e-02) (43, -7.20131620764732360840e-02) (44, -6.70833736658096313477e-02) (45, -4.66579161584377288818e-02) (46, 8.16212594509124755859e-02) (47, -3.93640622496604919434e-02) (48, 5.31806387007236480713e-02) (49, -1.09793417155742645264e-01) (50, 6.71873763203620910645e-02) (51, 3.18886414170265197754e-02) (52, -7.34275579452514648438e-02) (53, 9.97037254273891448975e-03) (54, 2.56701908074319362640e-03) (55, -8.44694375991821289062e-02) (56, -7.47330263257026672363e-02) (57, 7.96847790479660034180e-03) (58, -3.60160209238529205322e-02) (59, -1.77778284996747970581e-02) (60, 3.67362424731254577637e-02) (61, -8.05161297321319580078e-02) (62, 4.96728345751762390137e-02) (63, -1.34280547499656677246e-01) (64, 3.20663973689079284668e-02) (65, -1.10089235007762908936e-01) (66, -6.80186226963996887207e-02) (67, -8.27225819230079650879e-02) (68, -5.20314611494541168213e-02) (69, -9.21617448329925537109e-02) (70, -2.49968674033880233765e-02) (71, -6.19454421103000640869e-02) (72, 6.04295870289206504822e-03) (73, 9.92141291499137878418e-03) (74, 4.76607754826545715332e-02) (75, -2.29925531893968582153e-02) (76, -5.56887947022914886475e-02) (77, -4.17327322065830230713e-02) (78, -6.67094886302947998047e-02) (79, 2.32502724975347518921e-02) (80, 8.73047113418579101562e-02) (0, 7.84193500876426696777e-02) (1, 1.60588398575782775879e-01) (2, 3.26093062758445739746e-02) (3, 1.61277934908866882324e-01) (4, -2.64155305922031402588e-02) (5, 2.82010361552238464355e-02) (6, 2.53783836960792541504e-02) (7, 2.14681625366210937500e-01) (8, 1.25204361975193023682e-02) (9, 1.03161826729774475098e-01) (10, 6.32810592651367187500e-02) (11, 1.69452250003814697266e-01) (12, -2.90838386863470077515e-02) (13, 1.89293161034584045410e-01) (14, 1.27331661060452461243e-02) (15, 8.26124995946884155273e-02) (16, 1.04761578142642974854e-01) (17, 1.62465944886207580566e-01) (18, 1.39097720384597778320e-02) (19, 7.47925117611885070801e-02) (20, -3.30589748919010162354e-02) (21, 2.16126486659049987793e-01) (22, 7.16947764158248901367e-02) (23, 2.09788620471954345703e-01) (24, 5.74183277785778045654e-02) (25, 1.07790753245353698730e-01) (26, -6.39012381434440612793e-02) (27, 7.45809674263000488281e-02) (28, 2.80736852437257766724e-02) (29, 2.34251067042350769043e-01) (30, 4.63160462677478790283e-02) (31, 1.30104407668113708496e-01) (32, 5.16921766102313995361e-02) (33, 1.69589370489120483398e-01) (34, -5.45525886118412017822e-02) (35, 2.30277657508850097656e-01) (36, 9.91215035319328308105e-02) (37, 2.38068863749504089355e-01) (38, 1.07502982020378112793e-01) (39, 7.06660151481628417969e-02) (40, -3.58636900782585144043e-02) (41, 1.89071550965309143066e-01) (42, 1.17946714162826538086e-01) (43, 1.51675790548324584961e-01) (44, 2.65661086887121200562e-02) (45, 9.99145507812500000000e-02) (46, 6.22562170028686523438e-02) (47, 1.57226368784904479980e-01) (48, 8.54740068316459655762e-02) (49, 1.20183557271957397461e-01) (50, 1.35111197829246520996e-01) (51, 6.57337382435798645020e-02) (52, 1.05097016785293817520e-03) (53, 1.61618217825889587402e-01) (54, 1.71644642949104309082e-01) (55, 2.46794968843460083008e-01) (56, 1.39619871973991394043e-01) (57, 7.62439295649528503418e-02) (58, 4.37656082212924957275e-02) (59, 1.41588583588600158691e-01) (60, 6.76252394914627075195e-02) (61, 2.69863873720169067383e-01) (62, 1.11064732074737548828e-01) (63, 2.24533602595329284668e-01) (64, 8.96671563386917114258e-02) (65, 2.78423637151718139648e-01) (66, 7.84116610884666442871e-02) (67, 1.48784384131431579590e-01) (68, 1.40254959464073181152e-01) (69, 2.07917436957359313965e-01) (70, 6.77501782774925231934e-02) (71, 1.61840781569480895996e-01) (72, -1.37623157352209091187e-02) (73, 1.58838599920272827148e-01) (74, 1.01225540041923522949e-01) (75, 2.69446074962615966797e-01) (76, 2.37854160368442535400e-02) (77, 2.35425189137458801270e-01) (78, -3.78343500196933746338e-02) (79, 2.02188581228256225586e-01) (80, -7.72758781909942626953e-01) (0, -5.90563490986824035645e-02) (1, 3.60547229647636413574e-02) (2, -3.62797826528549194336e-02) (3, 5.71217313408851623535e-02) (4, 7.46950088068842887878e-03) (5, -3.66223193705081939697e-02) (6, 1.16723384708166122437e-02) (7, 3.27449478209018707275e-02) (8, -2.86963693797588348389e-02) (9, 1.06407970190048217773e-01) (10, 2.04740241169929504395e-02) (11, -1.44206415861845016479e-02) (12, 5.46616427600383758545e-02) (13, -9.17246751487255096436e-03) (14, 9.47013869881629943848e-02) (15, 7.10259750485420227051e-02) (16, 1.08469784259796142578e-01) (17, -2.07187999039888381958e-02) (18, 4.38744127750396728516e-02) (19, 4.95863407850265502930e-02) (20, 5.11731021106243133545e-02) (21, -6.46883323788642883301e-02) (22, 9.03704315423965454102e-02) (23, -6.65685981512069702148e-02) (24, 8.72032120823860168457e-02) (25, 8.21143463253974914551e-02) (26, 2.32309848070144653320e-02) (27, 4.04087863862514495850e-02) (28, -6.56444504857063293457e-02) (29, -5.89756332337856292725e-02) (30, 1.27056585624814033508e-02) (31, -2.10997629910707473755e-02) (32, 2.48048696666955947876e-02) (33, 8.41257646679878234863e-02) (34, 8.42605754733085632324e-02) (35, -6.57148137688636779785e-02) (36, 9.46294739842414855957e-02) (37, 4.28629200905561447144e-03) (38, 1.36746149510145187378e-02) (39, -3.02068907767534255981e-02) (40, -4.48206998407840728760e-02) (41, -5.62938936054706573486e-02) (42, 3.75781115144491195679e-03) (43, 1.17832288146018981934e-01) (44, -1.70911103487014770508e-02) (45, 4.75941319018602371216e-03) (46, 4.00863736867904663086e-02) (47, -3.49395530065521597862e-04) (48, 3.47978547215461730957e-02) (49, -9.55271627753973007202e-03) (50, 1.01692415773868560791e-01) (51, -8.83712992072105407715e-03) (52, -2.15586684644222259521e-02) (53, 9.83569398522377014160e-02) (54, -1.86294913291931152344e-02) (55, -2.91511472314596176147e-02) (56, 3.36460359394550323486e-02) (57, 1.07024312019348144531e-01) (58, 6.78596273064613342285e-02) (59, 7.35804140567779541016e-02) (60, 1.07653304934501647949e-01) (61, -1.37044787406921386719e-02) (62, 1.06261812150478363037e-01) (63, 3.10838688164949417114e-02) (64, -7.52719491720199584961e-02) (65, 9.48434472084045410156e-02) (66, 1.61001756787300109863e-02) (67, 1.24679021537303924561e-01) (68, -4.72607724368572235107e-02) (69, -6.04198724031448364258e-02) (70, -5.20506314933300018311e-02) (71, 1.73868201673030853271e-02) (72, -6.71771317720413208008e-02) (73, 5.77426441013813018799e-02) (74, -1.34096862748265266418e-02) (75, 2.60696318000555038452e-02) (76, -9.11997631192207336426e-02) (77, -6.73727393150329589844e-02) (78, 7.47786164283752441406e-02) (79, 5.53858876228332519531e-02) (80, -6.22110851109027862549e-02) (0, 1.71047952026128768921e-02) (1, 1.48517191410064697266e-01) (2, -1.11029446125030517578e-02) (3, 8.46277698874473571777e-02) (4, -4.88788820803165435791e-02) (5, 1.31601855158805847168e-01) (6, -1.04666113853454589844e-01) (7, -9.43021383136510848999e-03) (8, 1.83464214205741882324e-02) (9, 1.49548977613449096680e-01) (10, -1.01259298622608184814e-01) (11, 1.40475273132324218750e-01) (12, 8.96710678935050964355e-02) (13, 8.14810618758201599121e-02) (14, 8.42016339302062988281e-02) (15, 1.09168425202369689941e-01) (16, -9.84531864523887634277e-02) (17, 1.48239374160766601562e-01) (18, 6.50298446416854858398e-02) (19, -4.01636294554919004440e-04) (20, -8.41202288866043090820e-02) (21, 3.93622629344463348389e-02) (22, -5.81411793828010559082e-02) (23, 1.14517509937286376953e-01) (24, 3.09723727405071258545e-02) (25, 1.23384326696395874023e-01) (26, 2.37997286021709442139e-02) (27, 1.21731787919998168945e-01) (28, 1.43048539757728576660e-02) (29, 4.70723807811737060547e-02) (30, -1.31778448820114135742e-01) (31, 4.81373965740203857422e-02) (32, -5.45476339757442474365e-02) (33, 1.18143007159233093262e-01) (34, 8.24361965060234069824e-02) (35, 8.95279273390769958496e-02) (36, 2.44135186076164245605e-02) (37, 1.85226965695619583130e-02) (38, 3.46628241240978240967e-02) (39, 1.31077440455555915833e-02) (40, -9.84331741929054260254e-02) (41, 1.39457389712333679199e-01) (42, -7.83943384885787963867e-02) (43, -9.24492161720991134644e-03) (44, -3.24890837073326110840e-02) (45, -1.53609560802578926086e-02) (46, 3.31571884453296661377e-02) (47, 8.79147723317146301270e-02) (48, 5.60241937637329101562e-02) (49, 1.27227172255516052246e-01) (50, 5.74763864278793334961e-02) (51, -6.83129765093326568604e-03) (52, -8.76520648598670959473e-02) (53, 1.86196461319923400879e-01) (54, 7.15084820985794067383e-02) (55, 1.54830187559127807617e-01) (56, 4.79267686605453491211e-02) (57, 9.64142009615898132324e-02) (58, 5.16371652483940124512e-02) (59, 6.83046281337738037109e-02) (60, 1.40390381217002868652e-01) (61, 1.28843858838081359863e-01) (62, 4.82484586536884307861e-02) (63, 4.28424254059791564941e-02) (64, -1.99218168854713439941e-02) (65, 1.50811180472373962402e-01) (66, 5.55137135088443756104e-02) (67, 1.96263626217842102051e-01) (68, 9.44521799683570861816e-02) (69, 1.10150024294853210449e-01) (70, -4.85714375972747802734e-02) (71, 3.27334962785243988037e-02) (72, -3.97531799972057342529e-02) (73, 5.54421432316303253174e-02) (74, -6.47647380828857421875e-02) (75, 1.59930273890495300293e-01) (76, -5.41464872658252716064e-02) (77, 2.08747103810310363770e-01) (78, -6.46262913942337036133e-02) (79, 5.43185286223888397217e-02) (80, -6.69542476534843444824e-02) (0, 9.67273712158203125000e-02) (1, 2.06381864845752716064e-02) (2, 5.68101033568382263184e-02) (3, 1.68467655777931213379e-01) (4, -6.85418099164962768555e-02) (5, 9.69512537121772766113e-02) (6, 4.18353527784347534180e-02) (7, 8.40176567435264587402e-02) (8, -2.99519039690494537354e-02) (9, 1.50201877113431692123e-03) (10, 8.20575002580881118774e-03) (11, 1.53106465935707092285e-01) (12, 1.17281593382358551025e-01) (13, 1.16364225745201110840e-01) (14, -1.29737695679068565369e-02) (15, 1.09852388501167297363e-01) (16, 1.75118427723646163940e-02) (17, 3.24179343879222869873e-02) (18, 4.55823615193367004395e-02) (19, -1.02788815274834632874e-02) (20, 1.85385886579751968384e-02) (21, 1.37280911207199096680e-01) (22, -2.84010719042271375656e-04) (23, 1.17115147411823272705e-01) (24, -8.28241929411888122559e-02) (25, 1.37822171673178672791e-02) (26, 1.01777069270610809326e-01) (27, -2.16068383306264877319e-02) (28, 1.56713798642158508301e-02) (29, 1.49212414398789405823e-02) (30, 3.41039299964904785156e-02) (31, 7.18963369727134704590e-02) (32, 1.95116328541189432144e-04) (33, 8.25815349817276000977e-02) (34, 6.07779808342456817627e-03) (35, 7.42891877889633178711e-02) (36, -3.66100445389747619629e-02) (37, 2.58243586868047714233e-02) (38, -7.36650973558425903320e-02) (39, 5.73870986700057983398e-02) (40, -2.13515013456344604492e-02) (41, 8.74418765306472778320e-02) (42, -1.08693279325962066650e-02) (43, 4.38237302005290985107e-02) (44, -3.27125079929828643799e-02) (45, 1.05800703167915344238e-01) (46, 1.09423495829105377197e-01) (47, 1.44608959555625915527e-01) (48, 8.64585116505622863770e-02) (49, 1.20790995657444000244e-01) (50, 1.18704587221145629883e-01) (51, 6.35145604610443115234e-02) (52, 2.45325267314910888672e-02) (53, 5.23590482771396636963e-02) (54, -3.83101478219032287598e-02) (55, 9.22283381223678588867e-02) (56, 2.84514371305704116821e-02) (57, 6.17235479876399040222e-03) (58, 6.07622601091861724854e-02) (59, 1.90900862216949462891e-01) (60, 2.97056604176759719849e-02) (61, 4.32562343776226043701e-02) (62, 1.75959933549165725708e-02) (63, 1.37332677841186523438e-01) (64, 8.26768353581428527832e-02) (65, 1.82318851351737976074e-01) (66, -4.29296307265758514404e-02) (67, 1.83088377118110656738e-01) (68, -4.40830439329147338867e-02) (69, 4.63905856013298034668e-02) (70, 5.13984472490847110748e-04) (71, 1.10298871994018554688e-01) (72, 6.66469484567642211914e-02) (73, 1.23781070113182067871e-01) (74, 8.87141227722167968750e-02) (75, 8.25315061956644058228e-03) (76, -4.61123138666152954102e-02) (77, 1.75514936447143554688e-01) (78, 6.55547752976417541504e-02) (79, 3.26604768633842468262e-02) (80, -1.35269239544868469238e-01) (0, 2.16453634202480316162e-02) (1, 7.02317059040069580078e-02) (2, -1.17040544748306274414e-01) (3, -2.70069930702447891235e-02) (4, 3.36778759956359863281e-02) (5, 7.47829899191856384277e-02) (6, -2.12621968239545822144e-02) (7, 1.06008574366569519043e-01) (8, -7.74595737457275390625e-02) (9, 7.60997906327247619629e-02) (10, 8.79817754030227661133e-02) (11, 3.16040776669979095459e-02) (12, -8.01115334033966064453e-02) (13, 1.03999853134155273438e-01) (14, -7.46673345565795898438e-02) (15, 1.57249823212623596191e-01) (16, 6.56167119741439819336e-02) (17, -2.71356664597988128662e-02) (18, -8.71386528015136718750e-02) (19, -9.44046676158905029297e-03) (20, -2.57453247904777526855e-02) (21, 1.00245855748653411865e-01) (22, 6.81608319282531738281e-02) (23, 1.57634288072586059570e-01) (24, -5.63923595473170280457e-03) (25, 1.49217933416366577148e-01) (26, -8.31905826926231384277e-02) (27, 4.22226935625076293945e-02) (28, 4.34653572738170623779e-02) (29, 2.81675904989242553711e-02) (30, 4.36784848570823669434e-02) (31, 5.52945695817470550537e-02) (32, 5.13347536325454711914e-02) (33, 1.52208536863327026367e-01) (34, -1.79680269211530685425e-02) (35, 5.39286993443965911865e-02) (36, 1.69985357206314802170e-03) (37, 1.69906556606292724609e-01) (38, -8.46088528633117675781e-02) (39, 7.26308748126029968262e-02) (40, -1.55624272301793098450e-02) (41, -1.45977288484573364258e-02) (42, 7.24582523107528686523e-02) (43, 8.10080096125602722168e-02) (44, 4.11725603044033050537e-02) (45, 1.55165851116180419922e-01) (46, -2.02653426676988601685e-02) (47, 9.61992964148521423340e-02) (48, 6.11555241048336029053e-02) (49, 9.14208814501762390137e-02) (50, 6.12771436572074890137e-02) (51, 2.54093278199434280396e-02) (52, -5.47343082726001739502e-02) (53, 9.10840779542922973633e-02) (54, -4.52079251408576965332e-02) (55, 1.21370948851108551025e-01) (56, -1.06611661612987518311e-02) (57, 4.12896461784839630127e-02) (58, 1.45653367042541503906e-01) (59, 8.94223526120185852051e-03) (60, 7.12239369750022888184e-02) (61, 1.64470866322517395020e-01) (62, 8.06869938969612121582e-03) (63, 5.24006448686122894287e-02) (64, 6.21623508632183074951e-02) (65, 1.75382331013679504395e-01) (66, 4.00023423135280609131e-02) (67, 2.49271690845489501953e-02) (68, 8.28917324542999267578e-02) (69, 1.46123394370079040527e-01) (70, 4.91908714175224304199e-02) (71, 6.93119317293167114258e-02) (72, 5.29300011694431304932e-02) (73, 7.75198712944984436035e-02) (74, 7.39306360483169555664e-02) (75, 9.41574349999427795410e-02) (76, -5.23008331656455993652e-02) (77, 5.84939531981945037842e-02) (78, 9.10073891282081604004e-02) (79, 2.73608453571796417236e-02) (80, -5.41274063289165496826e-02) (0, 2.70620007067918777466e-02) (1, 3.73115465044975280762e-02) (2, 8.33316594362258911133e-02) (3, 1.35044464841485023499e-02) (4, 1.16165792569518089294e-02) (5, 1.02535583078861236572e-01) (6, -4.52759535983204841614e-03) (7, 1.11131481826305389404e-01) (8, 5.11009022593498229980e-02) (9, 1.08868978917598724365e-01) (10, -5.38575910031795501709e-02) (11, 7.31739699840545654297e-02) (12, -3.46631482243537902832e-02) (13, 7.17025175690650939941e-02) (14, -2.97245439141988754272e-02) (15, 1.83133408427238464355e-01) (16, -6.53222650289535522461e-02) (17, 4.52480651438236236572e-02) (18, 8.31301212310791015625e-02) (19, 1.50364875793457031250e-01) (20, 1.14319972693920135498e-01) (21, 1.94596536457538604736e-02) (22, 3.23574729263782501221e-02) (23, 3.74751277267932891846e-02) (24, 1.16774626076221466064e-01) (25, 1.88758254051208496094e-01) (26, 2.94621870853006839752e-03) (27, 3.62181700766086578369e-02) (28, 1.24560914933681488037e-01) (29, 1.00850418210029602051e-01) (30, 8.46622139215469360352e-02) (31, 1.18008665740489959717e-01) (32, 7.71845802664756774902e-02) (33, 1.81769922375679016113e-01) (34, 7.00760930776596069336e-02) (35, 3.59905473887920379639e-02) (36, 5.12057840824127197266e-02) (37, 5.94436079263687133789e-02) (38, 8.94232913851737976074e-02) (39, 2.12463717907667160034e-02) (40, 8.30994769930839538574e-02) (41, 1.95678502321243286133e-01) (42, 4.91157397627830505371e-02) (43, 2.06100523471832275391e-01) (44, -1.28787790890783071518e-03) (45, 1.45304784178733825684e-01) (46, 1.06167376041412353516e-01) (47, 1.03197500109672546387e-01) (48, 9.92874726653099060059e-02) (49, 1.70977205038070678711e-01) (50, 1.72617547214031219482e-02) (51, 1.81753262877464294434e-01) (52, 1.26946285367012023926e-01) (53, 1.78492084145545959473e-01) (54, -2.45460309088230133057e-02) (55, 1.97371706366539001465e-01) (56, 1.00872963666915893555e-01) (57, 1.20970137417316436768e-01) (58, 8.67148581892251968384e-03) (59, 1.72143638134002685547e-01) (60, 2.10387017577886581421e-02) (61, 3.99555563926696777344e-02) (62, 1.08458204194903373718e-02) (63, 1.90760493278503417969e-01) (64, 1.45450487732887268066e-01) (65, 4.95782010257244110107e-02) (66, -6.55676126480102539062e-02) (67, 1.31178334355354309082e-01) (68, 1.73449497669935226440e-02) (69, 1.96512132883071899414e-01) (70, 7.93161690235137939453e-02) (71, 9.69629213213920593262e-02) (72, 7.76382088661193847656e-02) (73, 6.28949105739593505859e-02) (74, -9.93729289621114730835e-03) (75, 7.17799738049507141113e-02) (76, 8.07650536298751831055e-02) (77, 9.96726155281066894531e-02) (78, 2.57261190563440322876e-02) (79, 2.01298207044601440430e-01) (80, -4.28657561540603637695e-01) (0, 7.62922987341880798340e-02) (1, 4.22433540225028991699e-02) (2, -9.77115854620933532715e-02) (3, 5.96745982766151428223e-02) (4, 4.37817685306072235107e-02) (5, 1.02230250835418701172e-01) (6, -3.58523568138480186462e-03) (7, -4.14906628429889678955e-02) (8, -8.88190120458602905273e-02) (9, -2.97495331615209579468e-02) (10, -5.09960390627384185791e-02) (11, -5.83492405712604522705e-02) (12, 3.10248769819736480713e-02) (13, -6.87379762530326843262e-02) (14, -7.27858766913414001465e-02) (15, 6.40808343887329101562e-02) (16, -8.49703997373580932617e-02) (17, 4.23352979123592376709e-02) (18, -7.43946731090545654297e-02) (19, 9.56669822335243225098e-02) (20, -5.37174753844738006592e-02) (21, 4.16092574596405029297e-03) (22, 3.14120091497898101807e-02) (23, -1.53053626418113708496e-02) (24, 4.63061481714248657227e-02) (25, 7.98306092619895935059e-02) (26, -7.36760571599006652832e-02) (27, -7.99186378717422485352e-02) (28, -1.37462504208087921143e-02) (29, 1.00614547729492187500e-01) (30, -8.91865938901901245117e-02) (31, -1.95413269102573394775e-02) (32, 6.24178955331444740295e-03) (33, -6.21652714908123016357e-02) (34, -9.64799150824546813965e-02) (35, -3.85738052427768707275e-02) (36, -9.30034592747688293457e-02) (37, 2.10902877151966094971e-02) (38, -1.68432909995317459106e-02) (39, -7.33547136187553405762e-02) (40, 5.09911254048347473145e-02) (41, 4.78720068931579589844e-02) (42, -6.54026344418525695801e-02) (43, -4.04561776667833328247e-03) (44, 4.17104959487915039062e-02) (45, -2.76956334710121154785e-02) (46, -7.87910968065261840820e-02) (47, 7.40734413266181945801e-02) (48, 7.40653648972511291504e-02) (49, -3.41555178165435791016e-02) (50, 3.70084904134273529053e-02) (51, -6.23235031962394714355e-02) (52, 3.37450690567493438721e-02) (53, -1.87344495207071304321e-02) (54, -9.68405883759260177612e-03) (55, -4.08186437562108039856e-03) (56, -7.64482319355010986328e-02) (57, 2.91859172284603118896e-02) (58, -1.44495358690619468689e-02) (59, 2.50668097287416458130e-02) (60, 3.78671055659651756287e-03) (61, 1.15851480513811111450e-02) (62, 6.71539828181266784668e-02) (63, 1.14281982183456420898e-01) (64, 1.13263037055730819702e-02) (65, 8.70256647467613220215e-02) (66, -6.54853433370590209961e-02) (67, 3.06291058659553527832e-02) (68, -3.18142995238304138184e-02) (69, 3.65999042987823486328e-02) (70, 2.01263613998889923096e-02) (71, -5.98726011812686920166e-02) (72, -5.91424442827701568604e-02) (73, 6.58568516373634338379e-02) (74, -5.98476268351078033447e-03) (75, 1.03471867740154266357e-01) (76, 9.27320346236228942871e-02) (77, 3.53856831789016723633e-02) (78, 3.05240545421838760376e-02) (79, 9.14818570017814636230e-02) (80, 5.36374896764755249023e-02) (0, -6.61118626594543457031e-02) (1, 1.44812420010566711426e-01) (2, -4.49662283062934875488e-02) (3, 8.18220973014831542969e-02) (4, -2.79584527015686035156e-02) (5, 1.19477711617946624756e-01) (6, 2.05088849179446697235e-03) (7, 1.32023736834526062012e-01) (8, -6.35689422488212585449e-02) (9, 3.14009003341197967529e-03) (10, -5.14491684734821319580e-02) (11, 8.17261785268783569336e-02) (12, -8.08792561292648315430e-02) (13, 1.02543840184807777405e-02) (14, -7.10983425378799438477e-02) (15, 1.29375398159027099609e-01) (16, -3.40944305062294006348e-02) (17, 9.48835462331771850586e-02) (18, -8.18941742181777954102e-02) (19, 1.55182689428329467773e-01) (20, -5.22331185638904571533e-02) (21, 9.74466744810342788696e-03) (22, -7.96641707420349121094e-02) (23, 1.49565503001213073730e-01) (24, 2.42310725152492523193e-02) (25, -2.59100850671529769897e-02) (26, 5.69676198065280914307e-02) (27, 1.13125583156943321228e-02) (28, 3.73871438205242156982e-02) (29, 1.08512148261070251465e-01) (30, 5.86312636733055114746e-02) (31, 1.65559604763984680176e-01) (32, 9.73079074174165725708e-03) (33, 4.90100644528865814209e-02) (34, 4.83990786597132682800e-03) (35, 1.52932733297348022461e-01) (36, -5.14022260904312133789e-02) (37, 2.19651702791452407837e-02) (38, 4.59374785423278808594e-02) (39, 3.48955802619457244873e-02) (40, -3.37905287742614746094e-02) (41, 1.77347943186759948730e-01) (42, 8.99711102247238159180e-02) (43, 6.36688247323036193848e-02) (44, -5.93378432095050811768e-02) (45, 1.76646068692207336426e-01) (46, -6.62344396114349365234e-02) (47, 1.01831853389739990234e-01) (48, 2.74875690229237079620e-03) (49, 5.71578703820705413818e-02) (50, 3.24767455458641052246e-02) (51, 1.48388519883155822754e-01) (52, 2.03224457800388336182e-02) (53, 1.19102582335472106934e-01) (54, 6.85734972357749938965e-02) (55, 3.25253531336784362793e-02) (56, 3.97920534014701843262e-02) (57, 1.03030465543270111084e-01) (58, 2.47981138527393341064e-02) (59, 5.95900341868400573730e-02) (60, 1.30185075104236602783e-02) (61, 6.85527175664901733398e-02) (62, -3.54905687272548675537e-02) (63, 1.59186452627182006836e-01) (64, 5.83266504108905792236e-02) (65, 1.64827868342399597168e-01) (66, 4.31704483926296234131e-02) (67, 1.76420792937278747559e-01) (68, -8.05851072072982788086e-02) (69, 8.57249051332473754883e-02) (70, -3.99437658488750457764e-02) (71, 9.83581170439720153809e-02) (72, -1.87987722456455230713e-02) (73, 1.17392716929316520691e-02) (74, 8.18250104784965515137e-02) (75, 1.31582036614418029785e-01) (76, 1.01164914667606353760e-01) (77, 3.22076156735420227051e-02) (78, -7.05054923892021179199e-02) (79, 1.33334681391716003418e-01) (80, -1.00464887917041778564e-01) (81, 2.88621246814727783203e-01) (82, -3.66627275943756103516e-02) (83, -4.94784265756607055664e-01) (84, -1.62187680602073669434e-01) (85, 6.46653468720614910126e-04) (86, -4.38327863812446594238e-02) (87, -4.60592448711395263672e-01) (88, 3.26677232980728149414e-01) (89, -6.70287236571311950684e-02) (90, 7.36799847800284624100e-05) (91, 1.00466392934322357178e-01) (92, -1.10350489616394042969e-01) (93, 1.85400113463401794434e-01) (94, -1.88431665301322937012e-01) (95, 3.18903401494026184082e-02) (96, -3.67005199193954467773e-01) (81, -3.40827763080596923828e-01) (82, -1.70744389295578002930e-01) (83, 3.16317044198513031006e-02) (84, -7.32931122183799743652e-02) (85, -1.75769969820976257324e-01) (86, -3.29141616821289062500e-01) (87, -4.51687797904014587402e-02) (88, -3.02677571773529052734e-01) (89, -3.05023230612277984619e-02) (90, -1.55081316828727722168e-01) (91, -1.28014206886291503906e-01) (92, -2.77666568756103515625e-01) (93, -3.40967059135437011719e-01) (94, -1.08296588063240051270e-01) (95, -2.01314806938171386719e-01) (96, -1.37102007865905761719e-01) (81, -1.66171565651893615723e-01) (82, -1.81647047400474548340e-01) (83, -1.89835980534553527832e-01) (84, -8.78218933939933776855e-02) (85, -1.54485464096069335938e-01) (86, -2.61386305093765258789e-01) (87, -1.12221911549568176270e-01) (88, -2.67385929822921752930e-01) (89, -1.32351756095886230469e-01) (90, -1.87089085578918457031e-01) (91, -2.01556473970413208008e-01) (92, -2.32824474573135375977e-01) (93, -2.43383780121803283691e-01) (94, -2.33761265873908996582e-01) (95, -1.34087711572647094727e-01) (96, -2.57821857929229736328e-01) (81, -3.20056170225143432617e-01) (82, -2.42956891655921936035e-01) (83, 1.15468941628932952881e-01) (84, -9.60648804903030395508e-02) (85, -2.80406624078750610352e-01) (86, -2.02465251088142395020e-01) (87, 9.41207110881805419922e-02) (88, -4.81469422578811645508e-01) (89, -5.16818501055240631104e-02) (90, -2.86826074123382568359e-01) (91, -2.27996602654457092285e-01) (92, -1.31372973322868347168e-01) (93, -2.36629098653793334961e-01) (94, 2.12339553982019424438e-02) (95, -2.01055258512496948242e-01) (96, -1.20033979415893554688e-01) (81, -3.13504248857498168945e-01) (82, -1.26426354050636291504e-01) (83, 3.79691272974014282227e-02) (84, -1.97393819689750671387e-01) (85, -3.14706385135650634766e-01) (86, -2.57808685302734375000e-01) (87, 2.31856796890497207642e-02) (88, -3.05655688047409057617e-01) (89, -2.46788859367370605469e-02) (90, -2.85494416952133178711e-01) (91, -8.56510549783706665039e-02) (92, -2.31663331389427185059e-01) (93, -2.62072980403900146484e-01) (94, -4.00786846876144409180e-02) (95, -1.03633768856525421143e-01) (96, -2.27963700890541076660e-01) (81, -3.71980011463165283203e-01) (82, -1.82205557823181152344e-01) (83, 1.11959494650363922119e-01) (84, -1.06535963714122772217e-01) (85, -2.48067244887351989746e-01) (86, -2.35343635082244873047e-01) (87, -7.76526853442192077637e-02) (88, -4.33548331260681152344e-01) (89, -2.41592396050691604614e-02) (90, -2.25815802812576293945e-01) (91, -1.01024866104125976562e-01) (92, -1.39193668961524963379e-01) (93, -2.67699807882308959961e-01) (94, -9.60720553994178771973e-02) (95, -2.33572974801063537598e-01) (96, -1.04826405644416809082e-01) (81, -4.66714650392532348633e-01) (82, -1.00917361676692962646e-01) (83, 3.59567284584045410156e-01) (84, -1.13632231950759887695e-01) (85, -2.97901988029479980469e-01) (86, -2.33826816082000732422e-01) (87, 3.50562036037445068359e-01) (88, -5.66717147827148437500e-01) (89, 6.08437769114971160889e-02) (90, -1.53930127620697021484e-01) (91, -1.93118691444396972656e-01) (92, -2.15976178646087646484e-01) (93, -2.39380612969398498535e-01) (94, -6.85092899948358535767e-03) (95, -2.31814488768577575684e-01) (96, 1.52904361486434936523e-01) (97, 4.86251413822174072266e-01) (98, -6.55295789241790771484e-01) (99, -4.10431802272796630859e-01) (100, -6.79782390594482421875e-01) (101, -6.70024335384368896484e-01) (102, -6.70653104782104492188e-01) (103, -6.46228611469268798828e-01) (104, 7.69676029682159423828e-01) 
