FANN_FLO_2.1
num_layers=4
learning_rate=0.500000
connection_rate=1.000000
network_type=0
learning_momentum=0.500000
training_algorithm=0
train_error_function=1
train_stop_function=0
cascade_output_change_fraction=0.010000
quickprop_decay=-0.000100
quickprop_mu=1.750000
rprop_increase_factor=1.200000
rprop_decrease_factor=0.500000
rprop_delta_min=0.000000
rprop_delta_max=50.000000
rprop_delta_zero=0.100000
cascade_output_stagnation_epochs=12
cascade_candidate_change_fraction=0.010000
cascade_candidate_stagnation_epochs=12
cascade_max_out_epochs=150
cascade_min_out_epochs=10
cascade_max_cand_epochs=150
cascade_min_cand_epochs=10
cascade_num_candidate_groups=2
bit_fail_limit=3.49999994039535522461e-01
cascade_candidate_limit=1.00000000000000000000e+03
cascade_weight_multiplier=4.00000005960464477539e-01
cascade_activation_functions_count=10
cascade_activation_functions=3 5 7 8 10 11 14 15 16 17 
cascade_activation_steepnesses_count=4
cascade_activation_steepnesses=2.50000000000000000000e-01 5.00000000000000000000e-01 7.50000000000000000000e-01 1.00000000000000000000e+00 
layer_sizes=81 16 8 2 
scale_included=0
neurons (num_inputs, activation_function, activation_steepness)=(0, 0, 0.00000000000000000000e+00) (0, 0, 0.00000000000000000000e+00) (0, 0, 0.00000000000000000000e+00) (0, 0, 0.00000000000000000000e+00) (0, 0, 0.00000000000000000000e+00) (0, 0, 0.00000000000000000000e+00) (0, 0, 0.00000000000000000000e+00) (0, 0, 0.00000000000000000000e+00) (0, 0, 0.00000000000000000000e+00) (0, 0, 0.00000000000000000000e+00) (0, 0, 0.00000000000000000000e+00) (0, 0, 0.00000000000000000000e+00) (0, 0, 0.00000000000000000000e+00) (0, 0, 0.00000000000000000000e+00) (0, 0, 0.00000000000000000000e+00) (0, 0, 0.00000000000000000000e+00) (0, 0, 0.00000000000000000000e+00) (0, 0, 0.00000000000000000000e+00) (0, 0, 0.00000000000000000000e+00) (0, 0, 0.00000000000000000000e+00) (0, 0, 0.00000000000000000000e+00) (0, 0, 0.00000000000000000000e+00) (0, 0, 0.00000000000000000000e+00) (0, 0, 0.00000000000000000000e+00) (0, 0, 0.00000000000000000000e+00) (0, 0, 0.00000000000000000000e+00) (0, 0, 0.00000000000000000000e+00) (0, 0, 0.00000000000000000000e+00) (0, 0, 0.00000000000000000000e+00) (0, 0, 0.00000000000000000000e+00) (0, 0, 0.00000000000000000000e+00) (0, 0, 0.00000000000000000000e+00) (0, 0, 0.00000000000000000000e+00) (0, 0, 0.00000000000000000000e+00) (0, 0, 0.00000000000000000000e+00) (0, 0, 0.00000000000000000000e+00) (0, 0, 0.00000000000000000000e+00) (0, 0, 0.00000000000000000000e+00) (0, 0, 0.00000000000000000000e+00) (0, 0, 0.00000000000000000000e+00) (0, 0, 0.00000000000000000000e+00) (0, 0, 0.00000000000000000000e+00) (0, 0, 0.00000000000000000000e+00) (0, 0, 0.00000000000000000000e+00) (0, 0, 0.00000000000000000000e+00) (0, 0, 0.00000000000000000000e+00) (0, 0, 0.00000000000000000000e+00) (0, 0, 0.00000000000000000000e+00) (0, 0, 0.00000000000000000000e+00) (0, 0, 0.00000000000000000000e+00) (0, 0, 0.00000000000000000000e+00) (0, 0, 0.00000000000000000000e+00) (0, 0, 0.00000000000000000000e+00) (0, 0, 0.00000000000000000000e+00) (0, 0, 0.00000000000000000000e+00) (0, 0, 0.00000000000000000000e+00) (0, 0, 0.00000000000000000000e+00) (0, 0, 0.00000000000000000000e+00) (0, 0, 0.00000000000000000000e+00) (0, 0, 0.00000000000000000000e+00) (0, 0, 0.00000000000000000000e+00) (0, 0, 0.00000000000000000000e+00) (0, 0, 0.00000000000000000000e+00) (0, 0, 0.00000000000000000000e+00) (0, 0, 0.00000000000000000000e+00) (0, 0, 0.00000000000000000000e+00) (0, 0, 0.00000000000000000000e+00) (0, 0, 0.00000000000000000000e+00) (0, 0, 0.00000000000000000000e+00) (0, 0, 0.00000000000000000000e+00) (0, 0, 0.00000000000000000000e+00) (0, 0, 0.00000000000000000000e+00) (0, 0, 0.00000000000000000000e+00) (0, 0, 0.00000000000000000000e+00) (0, 0, 0.00000000000000000000e+00) (0, 0, 0.00000000000000000000e+00) (0, 0, 0.00000000000000000000e+00) (0, 0, 0.00000000000000000000e+00) (0, 0, 0.00000000000000000000e+00) (0, 0, 0.00000000000000000000e+00) (0, 0, 0.00000000000000000000e+00) (81, 5, 5.00000000000000000000e-01) (81, 5, 5.00000000000000000000e-01) (81, 5, 5.00000000000000000000e-01) (81, 5, 5.00000000000000000000e-01) (81, 5, 5.00000000000000000000e-01) (81, 5, 5.00000000000000000000e-01) (81, 5, 5.00000000000000000000e-01) (81, 5, 5.00000000000000000000e-01) (81, 5, 5.00000000000000000000e-01) (81, 5, 5.00000000000000000000e-01) (81, 5, 5.00000000000000000000e-01) (81, 5, 5.00000000000000000000e-01) (81, 5, 5.00000000000000000000e-01) (81, 5, 5.00000000000000000000e-01) (81, 5, 5.00000000000000000000e-01) (0, 5, 0.00000000000000000000e+00) (16, 5, 5.00000000000000000000e-01) (16, 5, 5.00000000000000000000e-01) (16, 5, 5.00000000000000000000e-01) (16, 5, 5.00000000000000000000e-01) (16, 5, 5.00000000000000000000e-01) (16, 5, 5.00000000000000000000e-01) (16, 5, 5.00000000000000000000e-01) (0, 5, 0.00000000000000000000e+00) (8, 0, 5.00000000000000000000e-01) (0, 0, 0.00000000000000000000e+00) 
connections (connected_to_neuron, weight)=(0, 7.74315446615219116211e-02) (1, -4.14096117019653320312e-02) (2, -1.08307050541043281555e-02) (3, 7.66779929399490356445e-02) (4, 6.83629661798477172852e-02) (5, 1.09592378139495849609e-01) (6, 7.39664807915687561035e-02) (7, 5.42919002473354339600e-02) (8, 5.79699985682964324951e-02) (9, 1.14724583923816680908e-01) (10, 7.79931470751762390137e-02) (11, 1.05775602161884307861e-01) (12, 8.67400839924812316895e-02) (13, -5.29444068670272827148e-02) (14, 2.63817403465509414673e-02) (15, -4.12906892597675323486e-02) (16, 7.35590681433677673340e-02) (17, 6.79425895214080810547e-02) (18, 7.61166438460350036621e-02) (19, 1.34124830365180969238e-01) (20, 3.04920095950365066528e-02) (21, 1.08865551650524139404e-01) (22, 4.03453558683395385742e-02) (23, 1.18169477209448814392e-02) (24, 8.36120843887329101562e-02) (25, -3.76095734536647796631e-02) (26, -4.80873994529247283936e-02) (27, 1.51917440816760063171e-02) (28, 5.72846122086048126221e-02) (29, 3.32166114822030067444e-03) (30, -3.60868349671363830566e-02) (31, 8.15824493765830993652e-02) (32, 7.51673942431807518005e-04) (33, 4.18729521334171295166e-02) (34, -7.66100501641631126404e-03) (35, -1.30445240065455436707e-02) (36, -7.58483214303851127625e-03) (37, 7.36021343618631362915e-03) (38, 8.05633589625358581543e-02) (39, -4.97811213135719299316e-02) (40, -4.91687692701816558838e-02) (41, 7.31725841760635375977e-02) (42, 7.98337757587432861328e-02) (43, -3.22734452784061431885e-02) (44, 6.53125643730163574219e-02) (45, 3.56659889221191406250e-02) (46, -3.53873930871486663818e-02) (47, 6.15902617573738098145e-02) (48, -7.79748558998107910156e-02) (49, 1.46913215517997741699e-01) (50, 2.44947876781225204468e-02) (51, 8.99908170104026794434e-02) (52, 8.83542373776435852051e-02) (53, 3.76785825937986373901e-03) (54, -7.71156623959541320801e-02) (55, 8.10483321547508239746e-02) (56, 7.58378859609365463257e-03) (57, 9.44490823894739151001e-03) (58, -5.88790327310562133789e-02) (59, -2.30757836252450942993e-02) (60, 4.40608747303485870361e-02) (61, -1.34799573570489883423e-02) (62, 9.91271361708641052246e-02) (63, -4.25978787243366241455e-02) (64, 5.80121986567974090576e-02) (65, -1.48580980021506547928e-03) (66, -1.38298142701387405396e-02) (67, -3.94085980951786041260e-02) (68, 2.81884502619504928589e-02) (69, -3.47591340541839599609e-02) (70, -5.26140779256820678711e-02) (71, 1.06279112398624420166e-01) (72, 5.97317479550838470459e-02) (73, 1.43731504678726196289e-01) (74, 8.39006081223487854004e-02) (75, 3.39133888483047485352e-02) (76, -2.98876129090785980225e-02) (77, -2.63356305658817291260e-02) (78, 8.95510390400886535645e-02) (79, 5.41754253208637237549e-02) (80, -8.92878994345664978027e-02) (0, 2.47463081032037734985e-02) (1, -7.87002295255661010742e-02) (2, 8.39882269501686096191e-02) (3, 3.94238755106925964355e-02) (4, -4.41081896424293518066e-02) (5, -2.09843413904309272766e-03) (6, -4.92650903761386871338e-02) (7, -7.95963220298290252686e-03) (8, 1.50206116959452629089e-02) (9, -6.02890104055404663086e-02) (10, -6.84274360537528991699e-02) (11, 3.54728773236274719238e-02) (12, -7.33371600508689880371e-02) (13, -8.56617167592048645020e-02) (14, -1.12309260293841362000e-02) (15, -5.39079792797565460205e-02) (16, -1.11431702971458435059e-02) (17, -2.88903396576642990112e-02) (18, 6.65496811270713806152e-02) (19, -3.22569385170936584473e-02) (20, 3.30794509500265121460e-03) (21, -1.09606888145208358765e-03) (22, -6.55873417854309082031e-02) (23, -3.67698445916175842285e-02) (24, -1.60962808877229690552e-02) (25, -2.53476779907941818237e-02) (26, 6.27219602465629577637e-02) (27, -2.18649879097938537598e-02) (28, -1.18900453671813011169e-02) (29, -7.44574144482612609863e-02) (30, -2.94461380690336227417e-03) (31, 5.61799630522727966309e-02) (32, -1.99966058135032653809e-02) (33, -3.49911116063594818115e-02) (34, 3.19586805999279022217e-02) (35, 1.07016775291413068771e-03) (36, 9.31713655591011047363e-02) (37, 3.09531856328248977661e-02) (38, -7.66644328832626342773e-02) (39, -1.46156689152121543884e-02) (40, 1.09081864356994628906e-01) (41, -7.52429291605949401855e-02) (42, -3.82816717028617858887e-02) (43, -1.05571791529655456543e-01) (44, -2.96847634017467498779e-02) (45, 9.09964274615049362183e-03) (46, -2.85671651363372802734e-02) (47, 2.08776481449604034424e-02) (48, -7.23308175802230834961e-02) (49, -8.56154337525367736816e-02) (50, -7.21316188573837280273e-02) (51, -1.70463304966688156128e-02) (52, 5.18657229840755462646e-02) (53, -8.53994339704513549805e-02) (54, 9.03629288077354431152e-02) (55, -9.51226651668548583984e-02) (56, 2.43262276053428649902e-02) (57, 6.45947596058249473572e-03) (58, 1.42053430899977684021e-02) (59, 7.60085359215736389160e-02) (60, 7.26585015654563903809e-02) (61, -1.02495759725570678711e-01) (62, 6.54510930180549621582e-02) (63, -8.32735374569892883301e-02) (64, 4.16309246793389320374e-03) (65, -3.35403867065906524658e-02) (66, 4.90119308233261108398e-02) (67, -3.50812748074531555176e-02) (68, -5.89472986757755279541e-02) (69, 5.12923486530780792236e-02) (70, 8.47600549459457397461e-02) (71, -9.05045494437217712402e-02) (72, -8.02617743611335754395e-02) (73, -8.63258838653564453125e-02) (74, -4.57381792366504669189e-02) (75, -4.10977341234683990479e-02) (76, 8.39232802391052246094e-02) (77, -1.02498773485422134399e-02) (78, -6.24630302190780639648e-02) (79, 4.98455986380577087402e-02) (80, 4.79321554303169250488e-02) (0, -1.36884674429893493652e-02) (1, -3.70182320475578308105e-02) (2, 1.28863693680614233017e-03) (3, -3.70684154331684112549e-02) (4, -2.59383115917444229126e-02) (5, 5.09782275184988975525e-03) (6, -5.99151737987995147705e-02) (7, 7.09939971566200256348e-02) (8, -5.95497190952301025391e-02) (9, -1.15037709474563598633e-01) (10, 6.90204128623008728027e-02) (11, -5.61519078910350799561e-02) (12, 8.97088795900344848633e-02) (13, -1.20441310107707977295e-01) (14, 7.71662965416908264160e-02) (15, -5.49464784562587738037e-02) (16, 8.06091129779815673828e-02) (17, -6.57221227884292602539e-02) (18, 4.48245275765657424927e-03) (19, 1.33507959544658660889e-02) (20, -3.85177209973335266113e-02) (21, 1.86112988740205764771e-02) (22, 8.17473232746124267578e-02) (23, -3.32021303474903106689e-02) (24, 9.12287384271621704102e-02) (25, -8.12895745038986206055e-02) (26, -2.26547420024871826172e-02) (27, -1.52320843189954757690e-02) (28, -1.29596013575792312622e-02) (29, -8.60731080174446105957e-02) (30, -4.93320934474468231201e-02) (31, -8.02158005535602569580e-03) (32, 3.09905894100666046143e-02) (33, 3.49915400147438049316e-02) (34, -8.53748843073844909668e-02) (35, 5.78952543437480926514e-02) (36, -9.51206032186746597290e-03) (37, -1.20078973472118377686e-01) (38, 8.01420062780380249023e-02) (39, 2.18102708458900451660e-03) (40, -7.14427679777145385742e-02) (41, 7.06874253228306770325e-03) (42, 1.14719651639461517334e-01) (43, 5.87007142603397369385e-02) (44, 3.81735824048519134521e-02) (45, 3.06995939463376998901e-02) (46, -4.33096624910831451416e-02) (47, -3.59475910663604736328e-02) (48, -5.69410175085067749023e-02) (49, 2.86013707518577575684e-02) (50, -5.65271899104118347168e-02) (51, -6.56171813607215881348e-02) (52, 1.12868025898933410645e-02) (53, 5.42764216661453247070e-02) (54, 7.52043575048446655273e-02) (55, -3.99571880698204040527e-02) (56, -6.85869976878166198730e-02) (57, -1.16155147552490234375e-01) (58, -1.02650254964828491211e-01) (59, -3.25940400362014770508e-02) (60, -3.39790321886539459229e-02) (61, -6.74673244357109069824e-02) (62, -8.41766446828842163086e-02) (63, 4.59837317466735839844e-02) (64, -6.26442581415176391602e-02) (65, -1.13058917224407196045e-01) (66, 5.78978918492794036865e-02) (67, -1.83253735303878784180e-02) (68, -5.92568740248680114746e-02) (69, 8.34744330495595932007e-03) (70, -5.70003166794776916504e-02) (71, -9.09109488129615783691e-02) (72, -1.03843277320265769958e-02) (73, -9.08994898200035095215e-02) (74, -4.73450012505054473877e-02) (75, -1.16616234183311462402e-01) (76, -5.77996671199798583984e-02) (77, -4.45104800164699554443e-02) (78, 4.51842471957206726074e-02) (79, -1.08660466969013214111e-01) (80, -3.17098982632160186768e-02) (0, 1.73393338918685913086e-02) (1, 5.32230287790298461914e-02) (2, 1.08844228088855743408e-01) (3, 9.83493030071258544922e-02) (4, -1.48418005555868148804e-02) (5, 1.58644448965787887573e-02) (6, 5.95664568245410919189e-02) (7, 4.05722446739673614502e-02) (8, 3.20010967552661895752e-02) (9, 4.42573390901088714600e-02) (10, 8.64007398486137390137e-02) (11, 1.02084279060363769531e-01) (12, 3.68399657309055328369e-02) (13, 9.68780815601348876953e-02) (14, 1.15473009645938873291e-01) (15, 1.06916889548301696777e-01) (16, 2.26477012038230895996e-02) (17, 7.13456422090530395508e-02) (18, -5.17824888229370117188e-02) (19, 3.29416766762733459473e-02) (20, 1.02311767637729644775e-01) (21, 1.07538066804409027100e-02) (22, 6.38677328824996948242e-02) (23, -3.86850745417177677155e-03) (24, 5.43784797191619873047e-02) (25, -3.26206386089324951172e-02) (26, -2.73053050041198730469e-02) (27, -2.66767237335443496704e-02) (28, 5.41021823883056640625e-02) (29, 6.99689164757728576660e-02) (30, 6.21236823499202728271e-02) (31, 7.51318261027336120605e-02) (32, -4.73106838762760162354e-02) (33, 3.01463454961776733398e-02) (34, -8.14019702374935150146e-03) (35, 6.94839656352996826172e-02) (36, 8.33927467465400695801e-02) (37, 3.76219972968101501465e-02) (38, -5.32541163265705108643e-02) (39, 4.65238321339711546898e-04) (40, 8.90213102102279663086e-02) (41, 1.43175438046455383301e-01) (42, 1.01257890462875366211e-01) (43, 8.06092545390129089355e-02) (44, 7.72399604320526123047e-02) (45, 1.67116895318031311035e-01) (46, 2.14772913604974746704e-02) (47, 3.57520692050457000732e-02) (48, 1.54448337852954864502e-02) (49, 5.55281639099121093750e-02) (50, 7.06727430224418640137e-02) (51, 8.67691710591316223145e-02) (52, 7.09862634539604187012e-02) (53, 1.08627289533615112305e-01) (54, 6.46719411015510559082e-02) (55, 3.50177623331546783447e-02) (56, 9.25854071974754333496e-02) (57, 7.46566662564873695374e-03) (58, 3.72334308922290802002e-02) (59, 7.78574347496032714844e-02) (60, 6.87968432903289794922e-02) (61, 1.50678753852844238281e-01) (62, -2.91052050888538360596e-02) (63, 1.56155809760093688965e-01) (64, -3.25702279806137084961e-02) (65, 7.80819356441497802734e-02) (66, 4.39782030880451202393e-02) (67, 1.74406260251998901367e-01) (68, 8.81745442748069763184e-02) (69, 7.90131092071533203125e-02) (70, -2.09373980760574340820e-02) (71, 1.36150196194648742676e-01) (72, -1.04093104600906372070e-02) (73, 2.11006209254264831543e-01) (74, -4.02492806315422058105e-02) (75, 1.90281376242637634277e-01) (76, 8.00752341747283935547e-02) (77, 1.25751882791519165039e-01) (78, -6.20703771710395812988e-02) (79, 1.31481692194938659668e-01) (80, 8.43267589807510375977e-02) (0, 3.91705259680747985840e-02) (1, -5.96300698816776275635e-02) (2, 2.56562698632478713989e-02) (3, 2.85896621644496917725e-02) (4, 5.87421990931034088135e-02) (5, 9.60006341338157653809e-02) (6, -8.96954759955406188965e-02) (7, 1.10508762300014495850e-01) (8, -5.17890304327011108398e-02) (9, 5.57313933968544006348e-02) (10, 1.26252211630344390869e-02) (11, 1.21555633842945098877e-01) (12, 2.14803572744131088257e-02) (13, 3.32099548541009426117e-03) (14, -8.52522626519203186035e-02) (15, -6.13692216575145721436e-02) (16, 2.33325231820344924927e-02) (17, 1.21425390243530273438e-01) (18, 6.94381073117256164551e-02) (19, -5.50026185810565948486e-02) (20, 8.98976847529411315918e-02) (21, 1.91232077777385711670e-02) (22, -6.07954300940036773682e-02) (23, 1.27758622169494628906e-01) (24, 3.17598320543766021729e-02) (25, -3.00758052617311477661e-02) (26, 7.56581574678421020508e-02) (27, -3.43002639710903167725e-02) (28, -3.87701056897640228271e-02) (29, 3.33637334406375885010e-02) (30, -6.02880902588367462158e-02) (31, -1.35055361315608024597e-02) (32, 1.41550339758396148682e-02) (33, 7.58236795663833618164e-02) (34, 4.96935173869132995605e-02) (35, 1.99742279946804046631e-02) (36, 1.60282477736473083496e-02) (37, -6.17032609879970550537e-02) (38, -2.59247776120901107788e-02) (39, 9.00483578443527221680e-02) (40, 2.27236617356538772583e-02) (41, 1.27451539039611816406e-01) (42, 3.53126786649227142334e-02) (43, 6.66546635329723358154e-03) (44, -2.55281422287225723267e-02) (45, 1.12653680145740509033e-01) (46, -1.24423624947667121887e-02) (47, -4.71961311995983123779e-02) (48, 4.67519834637641906738e-02) (49, -1.37889962643384933472e-02) (50, -7.54000246524810791016e-02) (51, 1.10366925597190856934e-01) (52, 3.45806889235973358154e-02) (53, 3.80848571658134460449e-02) (54, 5.55557608604431152344e-02) (55, 6.95408135652542114258e-03) (56, 4.36676479876041412354e-02) (57, 1.02566570043563842773e-01) (58, 1.49160074070096015930e-02) (59, -4.47094142436981201172e-02) (60, -4.07933220267295837402e-02) (61, 6.38838931918144226074e-02) (62, -2.14358735829591751099e-02) (63, 1.25180125236511230469e-01) (64, -3.96606996655464172363e-02) (65, -2.92828958481550216675e-02) (66, -1.60461124032735824585e-02) (67, 1.23631209135055541992e-01) (68, -7.54116401076316833496e-02) (69, 8.58578309416770935059e-02) (70, 4.64822836220264434814e-02) (71, 1.11103773117065429688e-01) (72, 2.77917124330997467041e-02) (73, 3.10558937489986419678e-02) (74, -7.97066017985343933105e-02) (75, 1.47271782159805297852e-01) (76, -7.46701508760452270508e-02) (77, 6.31147548556327819824e-02) (78, 8.72675925493240356445e-02) (79, -2.53064762800931930542e-02) (80, 4.73010614514350891113e-02) (0, -2.16152798384428024292e-02) (1, 4.67602498829364776611e-02) (2, -3.48327457904815673828e-02) (3, -1.13963857293128967285e-02) (4, 4.66026328504085540771e-02) (5, 8.16332921385765075684e-03) (6, -5.69504639133810997009e-03) (7, -3.37787792086601257324e-02) (8, -9.06741842627525329590e-02) (9, -7.30102658271789550781e-02) (10, 5.02509437501430511475e-02) (11, 1.59341283142566680908e-02) (12, 2.60355416685342788696e-02) (13, -5.64398895949125289917e-03) (14, -9.69246700406074523926e-02) (15, 2.18244828283786773682e-03) (16, 1.05469010770320892334e-01) (17, 3.77208143472671508789e-02) (18, 3.32805104553699493408e-02) (19, -2.05160900950431823730e-02) (20, -4.82145417481660842896e-03) (21, -2.82478947192430496216e-02) (22, -3.98352034389972686768e-02) (23, 2.73574814200401306152e-02) (24, 8.50908085703849792480e-03) (25, -1.19441986083984375000e-01) (26, -8.01337435841560363770e-02) (27, -1.11163347959518432617e-01) (28, -7.43508636951446533203e-02) (29, -1.22074939310550689697e-01) (30, 3.01177911460399627686e-02) (31, -9.98543500900268554688e-02) (32, -1.07891872525215148926e-01) (33, -9.26622599363327026367e-02) (34, 6.58806338906288146973e-02) (35, -5.95165928825736045837e-03) (36, 7.66192898154258728027e-02) (37, -1.31762772798538208008e-01) (38, -7.80526772141456604004e-02) (39, -1.22472040355205535889e-01) (40, -1.85239613056182861328e-02) (41, 4.19334098696708679199e-02) (42, 8.81644189357757568359e-02) (43, -1.57585665583610534668e-01) (44, 5.60666434466838836670e-04) (45, 2.67817135900259017944e-02) (46, 9.43552609533071517944e-03) (47, -4.73840758204460144043e-02) (48, 7.74361938238143920898e-02) (49, -6.76923170685768127441e-02) (50, -7.73499831557273864746e-02) (51, -1.07559651136398315430e-01) (52, -1.07833981513977050781e-01) (53, -9.82248708605766296387e-02) (54, -7.39022865891456604004e-02) (55, -2.93537396937608718872e-02) (56, -3.91338095068931579590e-02) (57, -1.31732240319252014160e-01) (58, 2.79022920876741409302e-02) (59, -5.92650435864925384521e-02) (60, -5.56396208703517913818e-02) (61, -2.37661264836788177490e-02) (62, 1.83548089116811752319e-02) (63, -1.11537694931030273438e-01) (64, -1.13415814936161041260e-01) (65, -4.97383214533329010010e-02) (66, -1.41638725996017456055e-01) (67, -1.77129626274108886719e-01) (68, 3.14375236630439758301e-02) (69, -1.30056500434875488281e-01) (70, -1.12521417438983917236e-01) (71, -1.55309975147247314453e-01) (72, -7.17135369777679443359e-02) (73, -1.71181812882423400879e-01) (74, -7.70005360245704650879e-02) (75, -1.24147413298487663269e-02) (76, -7.57606104016304016113e-02) (77, -2.35649440437555313110e-02) (78, 5.07937511429190635681e-04) (79, -2.98458375036716461182e-02) (80, -3.40175144374370574951e-02) (0, 6.31955638527870178223e-02) (1, -8.78707617521286010742e-02) (2, -2.06880830228328704834e-02) (3, 8.32053348422050476074e-02) (4, -3.61487679183483123779e-02) (5, -9.78675782680511474609e-02) (6, 1.97147168219089508057e-02) (7, -2.13265400379896163940e-02) (8, 8.79725366830825805664e-02) (9, -1.09992846846580505371e-01) (10, 6.52846470475196838379e-02) (11, 2.70345024764537811279e-02) (12, 7.95698538422584533691e-02) (13, -9.15440395474433898926e-02) (14, 5.99839128553867340088e-02) (15, -1.77207086235284805298e-02) (16, -4.67364788055419921875e-02) (17, 4.04372215270996093750e-02) (18, -5.12703098356723785400e-02) (19, -2.59546972811222076416e-02) (20, 1.05118930339813232422e-01) (21, -3.45868766307830810547e-02) (22, 6.63916096091270446777e-02) (23, -1.03760704398155212402e-01) (24, 1.69890765100717544556e-02) (25, 6.57950108870863914490e-03) (26, -6.50470927357673645020e-02) (27, -3.11860460788011550903e-02) (28, -6.58339932560920715332e-02) (29, 6.83827772736549377441e-02) (30, 4.53223399817943572998e-02) (31, 2.77295075356960296631e-02) (32, -7.87216052412986755371e-02) (33, -8.92643630504608154297e-02) (34, 5.61038590967655181885e-02) (35, -5.49234822392463684082e-02) (36, -4.94865663349628448486e-02) (37, -8.74490290880203247070e-02) (38, 6.08046129345893859863e-02) (39, -8.56892839074134826660e-02) (40, -4.92495521903038024902e-02) (41, -7.69678968936204910278e-03) (42, 9.30600985884666442871e-02) (43, -1.18833251297473907471e-01) (44, 4.04179058969020843506e-02) (45, 3.79121815785765647888e-03) (46, 1.96771789342164993286e-03) (47, 4.79795411229133605957e-02) (48, 5.25198644027113914490e-03) (49, 2.56004985421895980835e-02) (50, -2.82228421419858932495e-02) (51, -4.83718216419219970703e-02) (52, -6.04347996413707733154e-02) (53, -1.20087571442127227783e-01) (54, 4.12852596491575241089e-03) (55, 2.12886650115251541138e-02) (56, 3.11543885618448257446e-02) (57, -1.68872736394405364990e-02) (58, -7.03447088599205017090e-02) (59, 2.23641414195299148560e-02) (60, 4.90892678499221801758e-03) (61, 6.22626915574073791504e-02) (62, -6.92348321899771690369e-03) (63, -1.77573058754205703735e-02) (64, -7.18260109424591064453e-02) (65, -8.75754579901695251465e-02) (66, 6.85984641313552856445e-02) (67, -6.15182109177112579346e-02) (68, -1.75739191472530364990e-02) (69, 4.99915331602096557617e-03) (70, -1.93976412992924451828e-03) (71, -1.70198697596788406372e-02) (72, -4.45887781679630279541e-02) (73, -4.88174632191658020020e-02) (74, 3.02771050482988357544e-02) (75, 5.69042339920997619629e-02) (76, -6.40242397785186767578e-02) (77, -1.11367791891098022461e-01) (78, 8.11999514698982238770e-02) (79, -3.75446304678916931152e-02) (80, 7.62082487344741821289e-02) (0, -8.18607360124588012695e-02) (1, 7.85489454865455627441e-02) (2, -8.38429853320121765137e-02) (3, -6.13047666847705841064e-02) (4, -2.69893202930688858032e-02) (5, 6.26446381211280822754e-02) (6, 6.39355778694152832031e-02) (7, 8.53593125939369201660e-02) (8, -9.21584516763687133789e-02) (9, 2.57998611778020858765e-02) (10, -1.00145023316144943237e-02) (11, 9.57753881812095642090e-02) (12, -7.20950961112976074219e-02) (13, -9.74119678139686584473e-02) (14, -7.62694254517555236816e-02) (15, -2.53710299730300903320e-02) (16, 8.48132446408271789551e-02) (17, -3.70625196956098079681e-03) (18, 6.44191429018974304199e-02) (19, 2.67766043543815612793e-02) (20, -9.03951600193977355957e-02) (21, -2.24661547690629959106e-02) (22, 8.01102444529533386230e-02) (23, -1.79180689156055450439e-03) (24, -9.12234485149383544922e-02) (25, 8.18401798605918884277e-02) (26, 1.41587527468800544739e-02) (27, -6.58910274505615234375e-02) (28, 4.96538206934928894043e-02) (29, -7.77517631649971008301e-02) (30, -7.59847834706306457520e-02) (31, 8.86922031641006469727e-02) (32, -9.68016907572746276855e-02) (33, -6.63800388574600219727e-02) (34, -7.16321319341659545898e-02) (35, -1.69557742774486541748e-02) (36, 1.00840784609317779541e-01) (37, -9.04267728328704833984e-02) (38, -2.62154433876276016235e-02) (39, -9.27799642086029052734e-02) (40, 3.40467356145381927490e-02) (41, 6.47064596414566040039e-02) (42, -9.93380248546600341797e-02) (43, 7.18177556991577148438e-02) (44, 6.71839192509651184082e-02) (45, -6.67213872075080871582e-02) (46, -4.85564805567264556885e-02) (47, 5.98024241626262664795e-02) (48, 2.06918511539697647095e-02) (49, -9.03297662734985351562e-02) (50, -1.59763321280479431152e-02) (51, 4.31791022419929504395e-02) (52, -1.71394702047109603882e-02) (53, -2.39389650523662567139e-02) (54, -6.49560838937759399414e-02) (55, -4.71047405153512954712e-03) (56, -4.73000779747962951660e-02) (57, 6.19102753698825836182e-02) (58, 2.75813825428485870361e-02) (59, -8.70786905288696289062e-02) (60, 7.43578076362609863281e-02) (61, 4.68020960688591003418e-02) (62, 9.73482728004455566406e-02) (63, 9.02629867196083068848e-02) (64, 6.85072317719459533691e-02) (65, -6.67046234011650085449e-02) (66, -3.11283841729164123535e-02) (67, 7.99250528216361999512e-02) (68, -6.93365558981895446777e-02) (69, 4.38416488468647003174e-02) (70, 7.99552276730537414551e-02) (71, 7.91791155934333801270e-02) (72, -4.81970421969890594482e-03) (73, 8.98257419466972351074e-02) (74, 3.45454476773738861084e-02) (75, -2.57847923785448074341e-02) (76, -9.92025658488273620605e-02) (77, 9.43022146821022033691e-02) (78, -8.53431224822998046875e-02) (79, 4.80157099664211273193e-02) (80, 8.14559310674667358398e-02) (0, 8.67108702659606933594e-02) (1, -5.57220764458179473877e-02) (2, -2.30890326201915740967e-02) (3, 4.23896647989749908447e-02) (4, 3.50384004414081573486e-02) (5, 2.93583460152149200439e-02) (6, -5.10143069550395011902e-03) (7, -6.55295997858047485352e-02) (8, -2.43828631937503814697e-02) (9, -1.01931184530258178711e-01) (10, -4.09598499536514282227e-02) (11, -1.11681640148162841797e-01) (12, -4.83086407184600830078e-02) (13, -1.10584974288940429688e-01) (14, 1.13678976893424987793e-01) (15, -8.88594537973403930664e-02) (16, 2.63083819299936294556e-02) (17, 2.45368238538503646851e-02) (18, -2.89470851421356201172e-02) (19, -1.19775019586086273193e-01) (20, 5.73550313711166381836e-02) (21, -9.53920185565948486328e-02) (22, 6.23555444180965423584e-02) (23, -2.92613897472620010376e-02) (24, 7.79853612184524536133e-02) (25, 3.01321111619472503662e-02) (26, 5.33593855798244476318e-02) (27, 1.52319967746734619141e-02) (28, 1.20746165513992309570e-01) (29, -9.45153087377548217773e-02) (30, 1.68132316321134567261e-02) (31, -5.95546700060367584229e-02) (32, 3.97793389856815338135e-02) (33, -1.37042209506034851074e-01) (34, -1.67489293962717056274e-02) (35, -1.20985977351665496826e-01) (36, 7.39185512065887451172e-02) (37, -7.40442276000976562500e-02) (38, -4.05458966270089149475e-03) (39, -1.06722347438335418701e-01) (40, 3.47114168107509613037e-02) (41, -2.63002403080463409424e-02) (42, 1.79094146005809307098e-04) (43, -3.46948988735675811768e-02) (44, 5.17449043691158294678e-02) (45, -1.07620909810066223145e-01) (46, 6.06909804046154022217e-02) (47, -1.31677061319351196289e-01) (48, -4.16201166808605194092e-02) (49, -1.25707715749740600586e-01) (50, -3.73967438936233520508e-02) (51, -2.58660949766635894775e-02) (52, -7.93673656880855560303e-03) (53, -1.50646595284342765808e-02) (54, -2.41019800305366516113e-02) (55, -1.15756466984748840332e-01) (56, 1.90156288444995880127e-02) (57, -9.33830905705690383911e-03) (58, -1.09531566500663757324e-01) (59, -6.65931254625320434570e-02) (60, -7.87521079182624816895e-02) (61, -2.45205108076333999634e-02) (62, 7.42038786411285400391e-02) (63, -4.79963012039661407471e-02) (64, 6.94281384348869323730e-02) (65, -1.33988082408905029297e-01) (66, 2.82734185457229614258e-02) (67, -5.65367937088012695312e-02) (68, 3.03537622094154357910e-02) (69, -1.39164075255393981934e-01) (70, 4.49035987257957458496e-02) (71, -1.63564577698707580566e-01) (72, 7.40613564848899841309e-02) (73, -1.56866073608398437500e-01) (74, 6.13071285188198089600e-02) (75, -7.27142915129661560059e-02) (76, 3.05293481796979904175e-02) (77, -8.63225534558296203613e-02) (78, 7.90168717503547668457e-02) (79, -1.06219068169593811035e-01) (80, 3.33706252276897430420e-02) (0, 2.58136112242937088013e-02) (1, -4.39706332981586456299e-02) (2, -7.54877850413322448730e-02) (3, 6.92932307720184326172e-02) (4, -3.74071374535560607910e-02) (5, 2.23404727876186370850e-03) (6, -9.11592915654182434082e-02) (7, -3.46051119267940521240e-02) (8, -2.86227022297680377960e-03) (9, 9.80903804302215576172e-02) (10, -6.13942742347717285156e-02) (11, -3.57177965342998504639e-02) (12, 4.24996428191661834717e-02) (13, 1.07998453080654144287e-01) (14, 8.32436233758926391602e-02) (15, -6.00398853421211242676e-02) (16, 4.95081814005970954895e-03) (17, 5.55389188230037689209e-02) (18, 4.32759560644626617432e-02) (19, 1.16752006113529205322e-01) (20, -1.72668006271123886108e-02) (21, 9.34164971113204956055e-02) (22, 2.03711204230785369873e-02) (23, 6.84085190296173095703e-02) (24, 1.45615255460143089294e-02) (25, 1.92741788923740386963e-02) (26, -1.06023304164409637451e-01) (27, -4.27916608750820159912e-02) (28, -8.88690799474716186523e-02) (29, 5.33716641366481781006e-02) (30, 9.67279225587844848633e-02) (31, -3.03528681397438049316e-02) (32, 3.68224270641803741455e-02) (33, 1.35661721229553222656e-01) (34, 5.69899417459964752197e-02) (35, -3.00015415996313095093e-02) (36, -2.67114900052547454834e-02) (37, -1.35484123602509498596e-02) (38, -3.13232578337192535400e-02) (39, 1.06351658701896667480e-01) (40, -1.06457076966762542725e-01) (41, 6.73720613121986389160e-02) (42, 7.22867548465728759766e-02) (43, 1.29984214901924133301e-01) (44, 5.11921895667910575867e-03) (45, 1.49475574493408203125e-01) (46, 1.01094707846641540527e-01) (47, -6.60774949938058853149e-03) (48, -1.29360072314739227295e-02) (49, 8.33108499646186828613e-02) (50, -8.59924480319023132324e-02) (51, -1.92085728049278259277e-02) (52, -1.77411753684282302856e-02) (53, 1.46705791354179382324e-01) (54, 3.77114973962306976318e-02) (55, 1.59252002835273742676e-01) (56, -2.04669795930385589600e-02) (57, 1.42365187406539916992e-01) (58, -5.90155273675918579102e-02) (59, 7.19818174839019775391e-02) (60, -9.12323780357837677002e-03) (61, 1.54019847512245178223e-01) (62, 5.80645799636840820312e-02) (63, 1.06862308457493782043e-02) (64, 8.01286026835441589355e-02) (65, 8.31365063786506652832e-02) (66, -3.19140344799961894751e-05) (67, 2.70238723605871200562e-02) (68, 5.26016317307949066162e-02) (69, 1.12205341458320617676e-01) (70, -5.74181899428367614746e-02) (71, 1.46514192223548889160e-01) (72, -3.89362834393978118896e-02) (73, -7.57368328049778938293e-03) (74, 3.96030135452747344971e-02) (75, 1.38959124684333801270e-01) (76, -1.26158908009529113770e-01) (77, 1.25168040394783020020e-01) (78, 7.30373561382293701172e-02) (79, 1.20355851948261260986e-01) (80, -1.97740513831377029419e-02) (0, -2.48019322752952575684e-02) (1, 4.21114005148410797119e-02) (2, 6.40861466526985168457e-02) (3, -1.05970762670040130615e-01) (4, 3.19422408938407897949e-02) (5, 3.95492874085903167725e-02) (6, 2.47299578040838241577e-02) (7, -2.18064971268177032471e-02) (8, 7.24741816520690917969e-02) (9, 7.07766711711883544922e-02) (10, 1.00775621831417083740e-01) (11, 4.28576655685901641846e-02) (12, 4.21671196818351745605e-02) (13, -8.90282988548278808594e-02) (14, 5.52959367632865905762e-02) (15, -8.47496166825294494629e-02) (16, 2.19213385134935379028e-02) (17, 7.28120878338813781738e-02) (18, 8.41333717107772827148e-02) (19, -8.95490124821662902832e-02) (20, 1.18919327855110168457e-01) (21, 3.07311415672302246094e-02) (22, 1.59750096499919891357e-02) (23, -1.09038725495338439941e-01) (24, -9.38289333134889602661e-04) (25, -8.54936391115188598633e-02) (26, -5.73198907077312469482e-02) (27, -8.89367684721946716309e-02) (28, -4.80000972747802734375e-02) (29, 2.53538507968187332153e-02) (30, -1.39462128281593322754e-02) (31, -7.72638693451881408691e-02) (32, 1.65673978626728057861e-02) (33, -7.35642462968826293945e-02) (34, -2.77473647147417068481e-02) (35, -1.12568221986293792725e-01) (36, -9.07354876399040222168e-02) (37, 2.15656938962638378143e-03) (38, 8.58442950993776321411e-03) (39, 4.39722016453742980957e-02) (40, 3.25682424008846282959e-02) (41, -4.19564247131347656250e-02) (42, 5.13006374239921569824e-02) (43, -9.92455333471298217773e-02) (44, 1.70425027608871459961e-02) (45, -6.79759308695793151855e-02) (46, -3.90988104045391082764e-02) (47, -1.29668638110160827637e-01) (48, -1.61336101591587066650e-02) (49, -9.22376140952110290527e-02) (50, -5.60162141919136047363e-02) (51, -8.45256522297859191895e-02) (52, 1.01589798927307128906e-01) (53, -2.70504280924797058105e-02) (54, -2.02169939875602722168e-02) (55, -5.47206997871398925781e-02) (56, 4.59619946777820587158e-02) (57, -6.35404959321022033691e-02) (58, 6.42992369830608367920e-03) (59, 2.90596000850200653076e-02) (60, -6.80068954825401306152e-02) (61, -1.31315708160400390625e-01) (62, -9.32878702878952026367e-02) (63, -2.07726303488016128540e-02) (64, -3.21176648139953613281e-02) (65, -7.95696005225181579590e-02) (66, 1.85643620789051055908e-02) (67, -8.50080177187919616699e-02) (68, 9.84043478965759277344e-02) (69, -1.11680619418621063232e-01) (70, -8.26677158474922180176e-02) (71, -4.60087582468986511230e-02) (72, 2.28353049606084823608e-02) (73, 6.83710165321826934814e-03) (74, 4.34481799602508544922e-02) (75, -1.20724096894264221191e-01) (76, -5.23960627615451812744e-02) (77, 3.81071940064430236816e-02) (78, -4.81208413839340209961e-02) (79, -8.54700133204460144043e-02) (80, -7.19313174486160278320e-02) (0, -7.41157159209251403809e-02) (1, 3.99574376642704010010e-02) (2, -7.50298500061035156250e-02) (3, 9.04656648635864257812e-02) (4, 7.13497176766395568848e-02) (5, 2.32169516384601593018e-02) (6, -1.87916047871112823486e-02) (7, -2.71373577415943145752e-02) (8, -7.48117417097091674805e-02) (9, 8.31578159704804420471e-04) (10, -3.07897180318832397461e-02) (11, -5.39102442562580108643e-02) (12, -1.74213200807571411133e-02) (13, 1.16084821522235870361e-01) (14, -2.24481709301471710205e-02) (15, 7.96918347477912902832e-02) (16, 9.12734027951955795288e-03) (17, 6.71639442443847656250e-02) (18, 5.58664128184318542480e-02) (19, 8.64559710025787353516e-02) (20, 6.70703947544097900391e-02) (21, -2.35392041504383087158e-02) (22, -3.90757806599140167236e-02) (23, 5.78421689569950103760e-02) (24, 8.96337404847145080566e-02) (25, 4.15168814361095428467e-02) (26, 3.88397909700870513916e-02) (27, 1.03261448442935943604e-01) (28, 3.68627272546291351318e-02) (29, -5.04935011267662048340e-02) (30, -7.17647746205329895020e-02) (31, -6.13301619887351989746e-02) (32, 3.71984429657459259033e-02) (33, -4.16104272007942199707e-02) (34, 7.12680965662002563477e-02) (35, 4.81752306222915649414e-02) (36, 3.30000258982181549072e-02) (37, 2.14974880218505859375e-02) (38, 7.22086578607559204102e-02) (39, 7.78247863054275512695e-02) (40, 5.91170191764831542969e-02) (41, -2.53666266798973083496e-02) (42, 5.57840205729007720947e-02) (43, -4.23047132790088653564e-03) (44, -5.92075474560260772705e-02) (45, -1.24165220186114311218e-02) (46, -7.54652023315429687500e-02) (47, 9.76994037628173828125e-02) (48, 7.59870335459709167480e-02) (49, 1.03507831692695617676e-01) (50, 1.85486357659101486206e-02) (51, 1.07953891158103942871e-01) (52, -8.34583938121795654297e-02) (53, -5.48130013048648834229e-02) (54, -8.69781617075204849243e-03) (55, 1.40716895461082458496e-01) (56, 2.89139635860919952393e-02) (57, -6.75191357731819152832e-03) (58, 9.25801023840904235840e-02) (59, 9.79419518262147903442e-03) (60, -2.65226177871227264404e-02) (61, 1.25943586230278015137e-01) (62, -8.15928913652896881104e-03) (63, -4.40155826508998870850e-02) (64, -8.77055153250694274902e-02) (65, -2.61665467405691742897e-04) (66, 4.93491813540458679199e-02) (67, 8.63804221153259277344e-02) (68, 4.47945930063724517822e-02) (69, 4.38172444701194763184e-02) (70, 3.87455779127776622772e-03) (71, 6.01010397076606750488e-02) (72, 4.08484935760498046875e-02) (73, 2.45005032047629356384e-03) (74, 6.70516043901443481445e-02) (75, 1.21017299592494964600e-01) (76, -1.80795006453990936279e-02) (77, 1.40189215540885925293e-01) (78, 1.52921518310904502869e-02) (79, 5.06363287568092346191e-02) (80, 4.79770153760910034180e-02) (0, -2.52530965954065322876e-02) (1, -5.68369999527931213379e-02) (2, 5.78282326459884643555e-02) (3, -6.70318156480789184570e-02) (4, 6.26379400491714477539e-02) (5, 4.36835773289203643799e-02) (6, 9.18407514691352844238e-02) (7, -1.08616285026073455811e-01) (8, 2.45774369686841964722e-02) (9, -8.46696197986602783203e-02) (10, -1.96832381188869476318e-02) (11, -3.98423383012413978577e-03) (12, 1.36040346696972846985e-02) (13, -3.12360394746065139771e-02) (14, 2.50654388219118118286e-02) (15, 3.83088365197181701660e-02) (16, -7.44703039526939392090e-02) (17, -6.22497424483299255371e-02) (18, -1.08032664284110069275e-02) (19, -1.61143727600574493408e-02) (20, 4.21015992760658264160e-02) (21, -1.17421038448810577393e-01) (22, -4.70434017479419708252e-02) (23, 6.32348135113716125488e-02) (24, 6.35506510734558105469e-02) (25, -1.21803335845470428467e-01) (26, -7.64768524095416069031e-03) (27, 2.94999070465564727783e-02) (28, 3.29705812036991119385e-02) (29, 5.09845390915870666504e-02) (30, -1.79929174482822418213e-02) (31, 4.57028299570083618164e-02) (32, -6.41813054680824279785e-02) (33, -6.39439448714256286621e-02) (34, -7.46755823493003845215e-02) (35, 6.68001249432563781738e-02) (36, -8.19651335477828979492e-02) (37, 6.02424442768096923828e-02) (38, -1.02462567389011383057e-01) (39, 2.74234320968389511108e-02) (40, -7.33654871582984924316e-02) (41, -4.95745688676834106445e-02) (42, -2.11164169013500213623e-02) (43, -4.13589179515838623047e-03) (44, 5.92678748071193695068e-02) (45, 5.88947497308254241943e-02) (46, -2.49380432069301605225e-02) (47, 4.56901639699935913086e-02) (48, -3.93376983702182769775e-02) (49, 4.59606051445007324219e-02) (50, -1.69720891863107681274e-02) (51, 4.96831312775611877441e-02) (52, 8.05833339691162109375e-02) (53, -1.80353578180074691772e-02) (54, 7.38829150795936584473e-02) (55, 1.58403851091861724854e-02) (56, 7.62241706252098083496e-03) (57, -8.60608071088790893555e-02) (58, -1.25754466280341148376e-02) (59, -9.62717980146408081055e-02) (60, -7.83031806349754333496e-02) (61, -1.35604798793792724609e-01) (62, -1.03964164853096008301e-01) (63, -8.04429650306701660156e-02) (64, -4.04716804623603820801e-02) (65, -1.10001653432846069336e-01) (66, -6.91241025924682617188e-02) (67, -5.64384646713733673096e-02) (68, -8.69743525981903076172e-02) (69, -9.05183330178260803223e-02) (70, -7.98705220222473144531e-02) (71, -1.07453487813472747803e-01) (72, 2.33235750347375869751e-02) (73, -3.69494073092937469482e-02) (74, 6.13101497292518615723e-02) (75, -5.01596741378307342529e-02) (76, 1.03629129007458686829e-02) (77, -1.04128666222095489502e-01) (78, -1.94081570953130722046e-02) (79, -5.58053888380527496338e-03) (80, -7.89049565792083740234e-02) (0, 5.04892691969871520996e-02) (1, 1.70344822108745574951e-02) (2, -1.03139728307723999023e-01) (3, -3.95430661737918853760e-02) (4, -1.13483117893338203430e-02) (5, 4.42575700581073760986e-02) (6, 8.22578594088554382324e-02) (7, 3.35648804903030395508e-02) (8, -5.01044243574142456055e-02) (9, -8.33751931786537170410e-02) (10, 6.20030276477336883545e-02) (11, -5.10206222534179687500e-02) (12, -6.80707544088363647461e-02) (13, -8.40221345424652099609e-02) (14, 1.60890296101570129395e-02) (15, -4.30045165121555328369e-02) (16, -2.71258819848299026489e-02) (17, -1.03152215480804443359e-01) (18, -2.22091265022754669189e-02) (19, 1.87351536005735397339e-02) (20, -5.86706735193729400635e-02) (21, 1.00624011829495429993e-02) (22, -4.46790382266044616699e-02) (23, 4.44314181804656982422e-02) (24, -2.50855013728141784668e-02) (25, 4.52198795974254608154e-02) (26, -5.45236878097057342529e-02) (27, 1.43772102892398834229e-02) (28, -7.81020745635032653809e-02) (29, 8.39900374412536621094e-02) (30, 3.70557941496372222900e-02) (31, 7.07680657505989074707e-02) (32, 1.20689170435070991516e-02) (33, 3.71342562139034271240e-02) (34, -5.75476624071598052979e-02) (35, -9.89192798733711242676e-02) (36, -6.88443472608923912048e-03) (37, -7.64856562018394470215e-02) (38, 4.65022623538970947266e-02) (39, 4.43388931453227996826e-02) (40, -4.73631210625171661377e-02) (41, 8.20991769433021545410e-03) (42, -9.37283188104629516602e-02) (43, -1.70019399374723434448e-02) (44, 3.39618809521198272705e-02) (45, 2.12362874299287796021e-02) (46, 5.14707379043102264404e-02) (47, -9.31614637374877929688e-02) (48, 3.03264632821083068848e-02) (49, -7.04458057880401611328e-02) (50, 3.65315414965152740479e-02) (51, 7.02111795544624328613e-02) (52, 4.97347638010978698730e-02) (53, 9.05348062515258789062e-02) (54, 2.60915160179138183594e-02) (55, -7.34004899859428405762e-02) (56, 4.41099405288696289062e-02) (57, 7.16529935598373413086e-02) (58, 4.95180338621139526367e-02) (59, 6.92843943834304809570e-02) (60, 6.53424113988876342773e-02) (61, -8.02162755280733108521e-03) (62, 4.92755025625228881836e-02) (63, -1.95779483765363693237e-02) (64, -6.06693215668201446533e-02) (65, -1.04995116591453552246e-01) (66, -9.06188786029815673828e-03) (67, 3.42074297368526458740e-02) (68, -7.02534168958663940430e-02) (69, -6.01666159927845001221e-02) (70, -1.16331214085221290588e-02) (71, -1.76488813012838363647e-02) (72, 5.94478733837604522705e-02) (73, -4.43157227709889411926e-03) (74, 7.75589346885681152344e-02) (75, -4.03064955025911331177e-03) (76, -6.85414075851440429688e-02) (77, 2.91405133903026580811e-02) (78, 1.69393364340066909790e-02) (79, 5.87467588484287261963e-02) (80, 7.34015628695487976074e-02) (0, -5.68484002724289894104e-03) (1, 8.32836143672466278076e-03) (2, 7.22654489800333976746e-03) (3, -7.78688117861747741699e-02) (4, -3.09362541884183883667e-02) (5, 2.80665904283523559570e-02) (6, -6.36781230568885803223e-02) (7, -8.17429423332214355469e-02) (8, -1.08648780733346939087e-02) (9, 5.05479350686073303223e-02) (10, -8.73800516128540039062e-02) (11, -1.15869790315628051758e-01) (12, 4.07105311751365661621e-02) (13, -2.28503197431564331055e-02) (14, -4.44340519607067108154e-02) (15, 8.13037808984518051147e-03) (16, -7.93732404708862304688e-02) (17, -1.30349621176719665527e-01) (18, 5.18492273986339569092e-02) (19, -7.95357301831245422363e-02) (20, -5.40052959695458412170e-03) (21, -6.91726505756378173828e-02) (22, -6.17298483848571777344e-02) (23, -1.34571328759193420410e-01) (24, -7.52323046326637268066e-02) (25, -1.39874108135700225830e-02) (26, -6.16227686405181884766e-02) (27, 4.69275899231433868408e-02) (28, -5.52996061742305755615e-02) (29, -1.37294858694076538086e-01) (30, 1.75599474459886550903e-02) (31, -3.70044857263565063477e-02) (32, 3.75103503465652465820e-02) (33, -5.00925630331039428711e-02) (34, 6.00779727101325988770e-02) (35, -1.18440233170986175537e-01) (36, -6.07139505445957183838e-02) (37, 3.09415236115455627441e-02) (38, -3.80015484988689422607e-02) (39, 3.53797934949398040771e-02) (40, 6.47836178541183471680e-02) (41, -3.74540686607360839844e-02) (42, -8.96915197372436523438e-02) (43, -3.81344370543956756592e-02) (44, -9.90852490067481994629e-02) (45, -7.62738138437271118164e-02) (46, -6.45011514425277709961e-02) (47, -1.09412826597690582275e-01) (48, -1.78807368502020835876e-03) (49, -1.09209448099136352539e-01) (50, -2.61051929555833339691e-03) (51, -1.62144228816032409668e-01) (52, 4.75403759628534317017e-03) (53, -2.16812416911125183105e-02) (54, -9.69021022319793701172e-02) (55, 1.90830174833536148071e-02) (56, -6.22403398156166076660e-02) (57, -1.10615245997905731201e-01) (58, 3.09451725333929061890e-02) (59, -4.03443761169910430908e-02) (60, -5.70744760334491729736e-02) (61, -1.89980547875165939331e-02) (62, -1.04463443160057067871e-01) (63, -1.44258841872215270996e-01) (64, -7.50478506088256835938e-02) (65, -1.57104000449180603027e-01) (66, -9.16853174567222595215e-02) (67, -5.34114427864551544189e-02) (68, -1.22378602623939514160e-01) (69, -2.24332325160503387451e-02) (70, -3.68250831961631774902e-02) (71, -1.09788088593631982803e-03) (72, -5.28016947209835052490e-02) (73, -5.16796372830867767334e-02) (74, -1.37355439364910125732e-02) (75, -6.96657821536064147949e-02) (76, -7.25349932909011840820e-02) (77, -1.43060637637972831726e-02) (78, 6.95744380354881286621e-02) (79, -7.52345100045204162598e-02) (80, -5.99125176668167114258e-02) (81, -1.15760518237948417664e-02) (82, 4.41155321896076202393e-02) (83, 9.67785045504570007324e-02) (84, -1.32205590605735778809e-01) (85, 4.45414520800113677979e-03) (86, 1.06852792203426361084e-01) (87, 4.02516946196556091309e-02) (88, 7.33922794461250305176e-02) (89, 1.10960625112056732178e-01) (90, -1.17504373192787170410e-01) (91, 2.53329072147607803345e-02) (92, -4.02039587497711181641e-02) (93, 2.25469041615724563599e-02) (94, -5.15161640942096710205e-03) (95, 8.31363946199417114258e-02) (96, 2.44858465157449245453e-03) (81, 9.77476537227630615234e-02) (82, -9.41213220357894897461e-02) (83, -8.25165510177612304688e-02) (84, 2.32176139950752258301e-01) (85, 1.92064970731735229492e-01) (86, -1.54837802052497863770e-01) (87, -1.52887105941772460938e-01) (88, 7.24444612860679626465e-02) (89, -2.77613788843154907227e-01) (90, 2.19259381294250488281e-01) (91, -1.03341400623321533203e-01) (92, 1.91970199346542358398e-01) (93, -8.45140442252159118652e-02) (94, -2.32438952662050724030e-03) (95, -1.81836336851119995117e-01) (96, 8.17270204424858093262e-02) (81, 9.57837402820587158203e-02) (82, 7.81269744038581848145e-02) (83, -8.04064124822616577148e-02) (84, 5.80932945013046264648e-02) (85, 5.34744933247566223145e-02) (86, 2.80045252293348312378e-02) (87, 1.79850663989782333374e-02) (88, -1.59729681909084320068e-02) (89, 6.95110261440277099609e-02) (90, 1.24505430459976196289e-01) (91, 4.51189950108528137207e-02) (92, 7.64246983453631401062e-03) (93, -8.54239892214536666870e-03) (94, 1.96905694901943206787e-02) (95, -1.03035479784011840820e-01) (96, -1.58290304243564605713e-02) (81, 1.09543934464454650879e-01) (82, -6.30852160975337028503e-03) (83, -1.58698603510856628418e-01) (84, 2.09853366017341613770e-01) (85, 3.43789998441934585571e-03) (86, -1.79425626993179321289e-01) (87, -1.85286570340394973755e-02) (88, -1.35186072438955307007e-02) (89, -6.69555664062500000000e-02) (90, 8.61446037888526916504e-02) (91, -1.41270905733108520508e-01) (92, 1.56981777399778366089e-02) (93, -6.90535223111510276794e-03) (94, -7.74918869137763977051e-03) (95, -1.09969623386859893799e-01) (96, 3.35724838078022003174e-02) (81, -6.63746222853660583496e-02) (82, 6.55837878584861755371e-02) (83, 9.58835780620574951172e-02) (84, -3.36114197969436645508e-01) (85, -1.76319092512130737305e-01) (86, 2.92771190404891967773e-01) (87, 5.27564771473407745361e-02) (88, -1.13276332616806030273e-01) (89, 3.15751791000366210938e-01) (90, -2.72209346294403076172e-01) (91, 2.12499454617500305176e-01) (92, -1.22835531830787658691e-01) (93, 1.75566002726554870605e-01) (94, 9.50886681675910949707e-03) (95, 2.01929122209548950195e-01) (96, 1.78964175283908843994e-02) (81, -2.63091810047626495361e-02) (82, 8.80273133516311645508e-02) (83, 6.62407502532005310059e-02) (84, -8.46605375409126281738e-03) (85, 7.83814862370491027832e-02) (86, -4.21663839370012283325e-03) (87, 9.42110195755958557129e-02) (88, 4.06219102442264556885e-02) (89, 7.09080621600151062012e-02) (90, -9.05156433582305908203e-02) (91, -7.22554400563240051270e-02) (92, -2.82047428190708160400e-02) (93, 3.17294448614120483398e-02) (94, -5.12904003262519836426e-02) (95, -5.34604378044605255127e-02) (96, 5.29953353106975555420e-02) (81, 3.72844822704792022705e-02) (82, -2.97431717626750469208e-03) (83, 8.72138440608978271484e-02) (84, 7.81596153974533081055e-02) (85, -8.35370458662509918213e-03) (86, -3.44969034194946289062e-02) (87, -8.67895260453224182129e-02) (88, -5.44758606702089309692e-03) (89, 4.17978735640645027161e-03) (90, 4.80901785194873809814e-02) (91, 8.59020426869392395020e-02) (92, -2.75054145604372024536e-02) (93, -8.10783170163631439209e-03) (94, 5.57882189750671386719e-02) (95, -6.43833354115486145020e-02) (96, 5.28229959309101104736e-02) (97, -2.05767139792442321777e-01) (98, 5.02236068248748779297e-01) (99, 5.80457337200641632080e-02) (100, 2.83914357423782348633e-01) (101, -6.32645189762115478516e-01) (102, -6.22993148863315582275e-02) (103, 2.84529346972703933716e-02) (104, -5.36864064633846282959e-02) 
