FANN_FLO_2.1
num_layers=3
learning_rate=0.400000
connection_rate=1.000000
network_type=0
learning_momentum=0.400000
training_algorithm=0
train_error_function=1
train_stop_function=0
cascade_output_change_fraction=0.010000
quickprop_decay=-0.000100
quickprop_mu=1.750000
rprop_increase_factor=1.200000
rprop_decrease_factor=0.500000
rprop_delta_min=0.000000
rprop_delta_max=50.000000
rprop_delta_zero=0.100000
cascade_output_stagnation_epochs=12
cascade_candidate_change_fraction=0.010000
cascade_candidate_stagnation_epochs=12
cascade_max_out_epochs=150
cascade_min_out_epochs=10
cascade_max_cand_epochs=150
cascade_min_cand_epochs=10
cascade_num_candidate_groups=2
bit_fail_limit=3.49999994039535522461e-01
cascade_candidate_limit=1.00000000000000000000e+03
cascade_weight_multiplier=4.00000005960464477539e-01
cascade_activation_functions_count=10
cascade_activation_functions=3 5 7 8 10 11 14 15 16 17 
cascade_activation_steepnesses_count=4
cascade_activation_steepnesses=2.50000000000000000000e-01 5.00000000000000000000e-01 7.50000000000000000000e-01 1.00000000000000000000e+00 
layer_sizes=81 301 2 
scale_included=0
neurons (num_inputs, activation_function, activation_steepness)=(0, 0, 0.00000000000000000000e+00) (0, 0, 0.00000000000000000000e+00) (0, 0, 0.00000000000000000000e+00) (0, 0, 0.00000000000000000000e+00) (0, 0, 0.00000000000000000000e+00) (0, 0, 0.00000000000000000000e+00) (0, 0, 0.00000000000000000000e+00) (0, 0, 0.00000000000000000000e+00) (0, 0, 0.00000000000000000000e+00) (0, 0, 0.00000000000000000000e+00) (0, 0, 0.00000000000000000000e+00) (0, 0, 0.00000000000000000000e+00) (0, 0, 0.00000000000000000000e+00) (0, 0, 0.00000000000000000000e+00) (0, 0, 0.00000000000000000000e+00) (0, 0, 0.00000000000000000000e+00) (0, 0, 0.00000000000000000000e+00) (0, 0, 0.00000000000000000000e+00) (0, 0, 0.00000000000000000000e+00) (0, 0, 0.00000000000000000000e+00) (0, 0, 0.00000000000000000000e+00) (0, 0, 0.00000000000000000000e+00) (0, 0, 0.00000000000000000000e+00) (0, 0, 0.00000000000000000000e+00) (0, 0, 0.00000000000000000000e+00) (0, 0, 0.00000000000000000000e+00) (0, 0, 0.00000000000000000000e+00) (0, 0, 0.00000000000000000000e+00) (0, 0, 0.00000000000000000000e+00) (0, 0, 0.00000000000000000000e+00) (0, 0, 0.00000000000000000000e+00) (0, 0, 0.00000000000000000000e+00) (0, 0, 0.00000000000000000000e+00) (0, 0, 0.00000000000000000000e+00) (0, 0, 0.00000000000000000000e+00) (0, 0, 0.00000000000000000000e+00) (0, 0, 0.00000000000000000000e+00) (0, 0, 0.00000000000000000000e+00) (0, 0, 0.00000000000000000000e+00) (0, 0, 0.00000000000000000000e+00) (0, 0, 0.00000000000000000000e+00) (0, 0, 0.00000000000000000000e+00) (0, 0, 0.00000000000000000000e+00) (0, 0, 0.00000000000000000000e+00) (0, 0, 0.00000000000000000000e+00) (0, 0, 0.00000000000000000000e+00) (0, 0, 0.00000000000000000000e+00) (0, 0, 0.00000000000000000000e+00) (0, 0, 0.00000000000000000000e+00) (0, 0, 0.00000000000000000000e+00) (0, 0, 0.00000000000000000000e+00) (0, 0, 0.00000000000000000000e+00) (0, 0, 0.00000000000000000000e+00) (0, 0, 0.00000000000000000000e+00) (0, 0, 0.00000000000000000000e+00) (0, 0, 0.00000000000000000000e+00) (0, 0, 0.00000000000000000000e+00) (0, 0, 0.00000000000000000000e+00) (0, 0, 0.00000000000000000000e+00) (0, 0, 0.00000000000000000000e+00) (0, 0, 0.00000000000000000000e+00) (0, 0, 0.00000000000000000000e+00) (0, 0, 0.00000000000000000000e+00) (0, 0, 0.00000000000000000000e+00) (0, 0, 0.00000000000000000000e+00) (0, 0, 0.00000000000000000000e+00) (0, 0, 0.00000000000000000000e+00) (0, 0, 0.00000000000000000000e+00) (0, 0, 0.00000000000000000000e+00) (0, 0, 0.00000000000000000000e+00) (0, 0, 0.00000000000000000000e+00) (0, 0, 0.00000000000000000000e+00) (0, 0, 0.00000000000000000000e+00) (0, 0, 0.00000000000000000000e+00) (0, 0, 0.00000000000000000000e+00) (0, 0, 0.00000000000000000000e+00) (0, 0, 0.00000000000000000000e+00) (0, 0, 0.00000000000000000000e+00) (0, 0, 0.00000000000000000000e+00) (0, 0, 0.00000000000000000000e+00) (0, 0, 0.00000000000000000000e+00) (81, 12, 5.00000000000000000000e-01) (81, 12, 5.00000000000000000000e-01) (81, 12, 5.00000000000000000000e-01) (81, 12, 5.00000000000000000000e-01) (81, 12, 5.00000000000000000000e-01) (81, 12, 5.00000000000000000000e-01) (81, 12, 5.00000000000000000000e-01) (81, 12, 5.00000000000000000000e-01) (81, 12, 5.00000000000000000000e-01) (81, 12, 5.00000000000000000000e-01) (81, 12, 5.00000000000000000000e-01) (81, 12, 5.00000000000000000000e-01) (81, 12, 5.00000000000000000000e-01) (81, 12, 5.00000000000000000000e-01) (81, 12, 5.00000000000000000000e-01) (81, 12, 5.00000000000000000000e-01) (81, 12, 5.00000000000000000000e-01) (81, 12, 5.00000000000000000000e-01) (81, 12, 5.00000000000000000000e-01) (81, 12, 5.00000000000000000000e-01) (81, 12, 5.00000000000000000000e-01) (81, 12, 5.00000000000000000000e-01) (81, 12, 5.00000000000000000000e-01) (81, 12, 5.00000000000000000000e-01) (81, 12, 5.00000000000000000000e-01) (81, 12, 5.00000000000000000000e-01) (81, 12, 5.00000000000000000000e-01) (81, 12, 5.00000000000000000000e-01) (81, 12, 5.00000000000000000000e-01) (81, 12, 5.00000000000000000000e-01) (81, 12, 5.00000000000000000000e-01) (81, 12, 5.00000000000000000000e-01) (81, 12, 5.00000000000000000000e-01) (81, 12, 5.00000000000000000000e-01) (81, 12, 5.00000000000000000000e-01) (81, 12, 5.00000000000000000000e-01) (81, 12, 5.00000000000000000000e-01) (81, 12, 5.00000000000000000000e-01) (81, 12, 5.00000000000000000000e-01) (81, 12, 5.00000000000000000000e-01) (81, 12, 5.00000000000000000000e-01) (81, 12, 5.00000000000000000000e-01) (81, 12, 5.00000000000000000000e-01) (81, 12, 5.00000000000000000000e-01) (81, 12, 5.00000000000000000000e-01) (81, 12, 5.00000000000000000000e-01) (81, 12, 5.00000000000000000000e-01) (81, 12, 5.00000000000000000000e-01) (81, 12, 5.00000000000000000000e-01) (81, 12, 5.00000000000000000000e-01) (81, 12, 5.00000000000000000000e-01) (81, 12, 5.00000000000000000000e-01) (81, 12, 5.00000000000000000000e-01) (81, 12, 5.00000000000000000000e-01) (81, 12, 5.00000000000000000000e-01) (81, 12, 5.00000000000000000000e-01) (81, 12, 5.00000000000000000000e-01) (81, 12, 5.00000000000000000000e-01) (81, 12, 5.00000000000000000000e-01) (81, 12, 5.00000000000000000000e-01) (81, 12, 5.00000000000000000000e-01) (81, 12, 5.00000000000000000000e-01) (81, 12, 5.00000000000000000000e-01) (81, 12, 5.00000000000000000000e-01) (81, 12, 5.00000000000000000000e-01) (81, 12, 5.00000000000000000000e-01) (81, 12, 5.00000000000000000000e-01) (81, 12, 5.00000000000000000000e-01) (81, 12, 5.00000000000000000000e-01) (81, 12, 5.00000000000000000000e-01) (81, 12, 5.00000000000000000000e-01) (81, 12, 5.00000000000000000000e-01) (81, 12, 5.00000000000000000000e-01) (81, 12, 5.00000000000000000000e-01) (81, 12, 5.00000000000000000000e-01) (81, 12, 5.00000000000000000000e-01) (81, 12, 5.00000000000000000000e-01) (81, 12, 5.00000000000000000000e-01) (81, 12, 5.00000000000000000000e-01) (81, 12, 5.00000000000000000000e-01) (81, 12, 5.00000000000000000000e-01) (81, 12, 5.00000000000000000000e-01) (81, 12, 5.00000000000000000000e-01) (81, 12, 5.00000000000000000000e-01) (81, 12, 5.00000000000000000000e-01) (81, 12, 5.00000000000000000000e-01) (81, 12, 5.00000000000000000000e-01) (81, 12, 5.00000000000000000000e-01) (81, 12, 5.00000000000000000000e-01) (81, 12, 5.00000000000000000000e-01) (81, 12, 5.00000000000000000000e-01) (81, 12, 5.00000000000000000000e-01) (81, 12, 5.00000000000000000000e-01) (81, 12, 5.00000000000000000000e-01) (81, 12, 5.00000000000000000000e-01) (81, 12, 5.00000000000000000000e-01) (81, 12, 5.00000000000000000000e-01) (81, 12, 5.00000000000000000000e-01) (81, 12, 5.00000000000000000000e-01) (81, 12, 5.00000000000000000000e-01) (81, 12, 5.00000000000000000000e-01) (81, 12, 5.00000000000000000000e-01) (81, 12, 5.00000000000000000000e-01) (81, 12, 5.00000000000000000000e-01) (81, 12, 5.00000000000000000000e-01) (81, 12, 5.00000000000000000000e-01) (81, 12, 5.00000000000000000000e-01) (81, 12, 5.00000000000000000000e-01) (81, 12, 5.00000000000000000000e-01) (81, 12, 5.00000000000000000000e-01) (81, 12, 5.00000000000000000000e-01) (81, 12, 5.00000000000000000000e-01) (81, 12, 5.00000000000000000000e-01) (81, 12, 5.00000000000000000000e-01) (81, 12, 5.00000000000000000000e-01) (81, 12, 5.00000000000000000000e-01) (81, 12, 5.00000000000000000000e-01) (81, 12, 5.00000000000000000000e-01) (81, 12, 5.00000000000000000000e-01) (81, 12, 5.00000000000000000000e-01) (81, 12, 5.00000000000000000000e-01) (81, 12, 5.00000000000000000000e-01) (81, 12, 5.00000000000000000000e-01) (81, 12, 5.00000000000000000000e-01) (81, 12, 5.00000000000000000000e-01) (81, 12, 5.00000000000000000000e-01) (81, 12, 5.00000000000000000000e-01) (81, 12, 5.00000000000000000000e-01) (81, 12, 5.00000000000000000000e-01) (81, 12, 5.00000000000000000000e-01) (81, 12, 5.00000000000000000000e-01) (81, 12, 5.00000000000000000000e-01) (81, 12, 5.00000000000000000000e-01) (81, 12, 5.00000000000000000000e-01) (81, 12, 5.00000000000000000000e-01) (81, 12, 5.00000000000000000000e-01) (81, 12, 5.00000000000000000000e-01) (81, 12, 5.00000000000000000000e-01) (81, 12, 5.00000000000000000000e-01) (81, 12, 5.00000000000000000000e-01) (81, 12, 5.00000000000000000000e-01) (81, 12, 5.00000000000000000000e-01) (81, 12, 5.00000000000000000000e-01) (81, 12, 5.00000000000000000000e-01) (81, 12, 5.00000000000000000000e-01) (81, 12, 5.00000000000000000000e-01) (81, 12, 5.00000000000000000000e-01) (81, 12, 5.00000000000000000000e-01) (81, 12, 5.00000000000000000000e-01) (81, 12, 5.00000000000000000000e-01) (81, 12, 5.00000000000000000000e-01) (81, 12, 5.00000000000000000000e-01) (81, 12, 5.00000000000000000000e-01) (81, 12, 5.00000000000000000000e-01) (81, 12, 5.00000000000000000000e-01) (81, 12, 5.00000000000000000000e-01) (81, 12, 5.00000000000000000000e-01) (81, 12, 5.00000000000000000000e-01) (81, 12, 5.00000000000000000000e-01) (81, 12, 5.00000000000000000000e-01) (81, 12, 5.00000000000000000000e-01) (81, 12, 5.00000000000000000000e-01) (81, 12, 5.00000000000000000000e-01) (81, 12, 5.00000000000000000000e-01) (81, 12, 5.00000000000000000000e-01) (81, 12, 5.00000000000000000000e-01) (81, 12, 5.00000000000000000000e-01) (81, 12, 5.00000000000000000000e-01) (81, 12, 5.00000000000000000000e-01) (81, 12, 5.00000000000000000000e-01) (81, 12, 5.00000000000000000000e-01) (81, 12, 5.00000000000000000000e-01) (81, 12, 5.00000000000000000000e-01) (81, 12, 5.00000000000000000000e-01) (81, 12, 5.00000000000000000000e-01) (81, 12, 5.00000000000000000000e-01) (81, 12, 5.00000000000000000000e-01) (81, 12, 5.00000000000000000000e-01) (81, 12, 5.00000000000000000000e-01) (81, 12, 5.00000000000000000000e-01) (81, 12, 5.00000000000000000000e-01) (81, 12, 5.00000000000000000000e-01) (81, 12, 5.00000000000000000000e-01) (81, 12, 5.00000000000000000000e-01) (81, 12, 5.00000000000000000000e-01) (81, 12, 5.00000000000000000000e-01) (81, 12, 5.00000000000000000000e-01) (81, 12, 5.00000000000000000000e-01) (81, 12, 5.00000000000000000000e-01) (81, 12, 5.00000000000000000000e-01) (81, 12, 5.00000000000000000000e-01) (81, 12, 5.00000000000000000000e-01) (81, 12, 5.00000000000000000000e-01) (81, 12, 5.00000000000000000000e-01) (81, 12, 5.00000000000000000000e-01) (81, 12, 5.00000000000000000000e-01) (81, 12, 5.00000000000000000000e-01) (81, 12, 5.00000000000000000000e-01) (81, 12, 5.00000000000000000000e-01) (81, 12, 5.00000000000000000000e-01) (81, 12, 5.00000000000000000000e-01) (81, 12, 5.00000000000000000000e-01) (81, 12, 5.00000000000000000000e-01) (81, 12, 5.00000000000000000000e-01) (81, 12, 5.00000000000000000000e-01) (81, 12, 5.00000000000000000000e-01) (81, 12, 5.00000000000000000000e-01) (81, 12, 5.00000000000000000000e-01) (81, 12, 5.00000000000000000000e-01) (81, 12, 5.00000000000000000000e-01) (81, 12, 5.00000000000000000000e-01) (81, 12, 5.00000000000000000000e-01) (81, 12, 5.00000000000000000000e-01) (81, 12, 5.00000000000000000000e-01) (81, 12, 5.00000000000000000000e-01) (81, 12, 5.00000000000000000000e-01) (81, 12, 5.00000000000000000000e-01) (81, 12, 5.00000000000000000000e-01) (81, 12, 5.00000000000000000000e-01) (81, 12, 5.00000000000000000000e-01) (81, 12, 5.00000000000000000000e-01) (81, 12, 5.00000000000000000000e-01) (81, 12, 5.00000000000000000000e-01) (81, 12, 5.00000000000000000000e-01) (81, 12, 5.00000000000000000000e-01) (81, 12, 5.00000000000000000000e-01) (81, 12, 5.00000000000000000000e-01) (81, 12, 5.00000000000000000000e-01) (81, 12, 5.00000000000000000000e-01) (81, 12, 5.00000000000000000000e-01) (81, 12, 5.00000000000000000000e-01) (81, 12, 5.00000000000000000000e-01) (81, 12, 5.00000000000000000000e-01) (81, 12, 5.00000000000000000000e-01) (81, 12, 5.00000000000000000000e-01) (81, 12, 5.00000000000000000000e-01) (81, 12, 5.00000000000000000000e-01) (81, 12, 5.00000000000000000000e-01) (81, 12, 5.00000000000000000000e-01) (81, 12, 5.00000000000000000000e-01) (81, 12, 5.00000000000000000000e-01) (81, 12, 5.00000000000000000000e-01) (81, 12, 5.00000000000000000000e-01) (81, 12, 5.00000000000000000000e-01) (81, 12, 5.00000000000000000000e-01) (81, 12, 5.00000000000000000000e-01) (81, 12, 5.00000000000000000000e-01) (81, 12, 5.00000000000000000000e-01) (81, 12, 5.00000000000000000000e-01) (81, 12, 5.00000000000000000000e-01) (81, 12, 5.00000000000000000000e-01) (81, 12, 5.00000000000000000000e-01) (81, 12, 5.00000000000000000000e-01) (81, 12, 5.00000000000000000000e-01) (81, 12, 5.00000000000000000000e-01) (81, 12, 5.00000000000000000000e-01) (81, 12, 5.00000000000000000000e-01) (81, 12, 5.00000000000000000000e-01) (81, 12, 5.00000000000000000000e-01) (81, 12, 5.00000000000000000000e-01) (81, 12, 5.00000000000000000000e-01) (81, 12, 5.00000000000000000000e-01) (81, 12, 5.00000000000000000000e-01) (81, 12, 5.00000000000000000000e-01) (81, 12, 5.00000000000000000000e-01) (81, 12, 5.00000000000000000000e-01) (81, 12, 5.00000000000000000000e-01) (81, 12, 5.00000000000000000000e-01) (81, 12, 5.00000000000000000000e-01) (81, 12, 5.00000000000000000000e-01) (81, 12, 5.00000000000000000000e-01) (81, 12, 5.00000000000000000000e-01) (81, 12, 5.00000000000000000000e-01) (81, 12, 5.00000000000000000000e-01) (81, 12, 5.00000000000000000000e-01) (81, 12, 5.00000000000000000000e-01) (81, 12, 5.00000000000000000000e-01) (81, 12, 5.00000000000000000000e-01) (81, 12, 5.00000000000000000000e-01) (81, 12, 5.00000000000000000000e-01) (81, 12, 5.00000000000000000000e-01) (81, 12, 5.00000000000000000000e-01) (81, 12, 5.00000000000000000000e-01) (81, 12, 5.00000000000000000000e-01) (81, 12, 5.00000000000000000000e-01) (81, 12, 5.00000000000000000000e-01) (81, 12, 5.00000000000000000000e-01) (81, 12, 5.00000000000000000000e-01) (81, 12, 5.00000000000000000000e-01) (81, 12, 5.00000000000000000000e-01) (81, 12, 5.00000000000000000000e-01) (81, 12, 5.00000000000000000000e-01) (81, 12, 5.00000000000000000000e-01) (81, 12, 5.00000000000000000000e-01) (81, 12, 5.00000000000000000000e-01) (81, 12, 5.00000000000000000000e-01) (81, 12, 5.00000000000000000000e-01) (81, 12, 5.00000000000000000000e-01) (81, 12, 5.00000000000000000000e-01) (81, 12, 5.00000000000000000000e-01) (0, 12, 0.00000000000000000000e+00) (301, 5, 5.00000000000000000000e-01) (0, 5, 0.00000000000000000000e+00) 
connections (connected_to_neuron, weight)=(0, -2.69240569323301315308e-02) (1, -4.01800274848937988281e-02) (2, -7.34778866171836853027e-02) (3, 9.25808325409889221191e-02) (4, -2.59904358536005020142e-02) (5, -7.88665860891342163086e-02) (6, 2.25974470376968383789e-02) (7, -6.24955631792545318604e-02) (8, -2.75845285505056381226e-02) (9, 2.93002296239137649536e-02) (10, -5.97812468186020851135e-03) (11, -4.57441713660955429077e-03) (12, 9.52200964093208312988e-02) (13, -5.52686601877212524414e-02) (14, -1.11877708695828914642e-03) (15, 5.79135753214359283447e-02) (16, -4.41265441477298736572e-02) (17, -5.36422617733478546143e-02) (18, -6.62351846694946289062e-02) (19, -4.55958694219589233398e-02) (20, -1.53456069529056549072e-02) (21, -5.05230911076068878174e-02) (22, 5.76754771173000335693e-02) (23, 9.51400101184844970703e-02) (24, 2.88768075406551361084e-02) (25, 1.75404548645019531250e-02) (26, -6.45942846313118934631e-03) (27, -4.59259189665317535400e-02) (28, -1.21197127737104892731e-03) (29, -3.08301523327827453613e-02) (30, 6.90782070159912109375e-02) (31, 7.29349702596664428711e-02) (32, 1.56326424330472946167e-02) (33, 1.05106279253959655762e-01) (34, 5.78167699277400970459e-02) (35, 9.44297537207603454590e-02) (36, -8.49120840430259704590e-02) (37, -1.69752109795808792114e-02) (38, -7.84156098961830139160e-02) (39, -4.61519882082939147949e-03) (40, -9.70382317900657653809e-02) (41, 2.18573156744241714478e-02) (42, 7.40732252597808837891e-02) (43, 1.00978851318359375000e-01) (44, 5.46271316707134246826e-02) (45, -1.56605690717697143555e-02) (46, 4.67027053236961364746e-02) (47, -8.76091048121452331543e-02) (48, 1.99231151491403579712e-02) (49, 8.34469124674797058105e-02) (50, -4.37427051365375518799e-02) (51, 1.04588583111763000488e-01) (52, -7.71455094218254089355e-02) (53, -8.34420621395111083984e-02) (54, 8.86220410466194152832e-02) (55, 5.29033802449703216553e-02) (56, 2.93759200721979141235e-02) (57, -1.12783992663025856018e-02) (58, 9.57561135292053222656e-02) (59, -7.14047923684120178223e-02) (60, 5.02793453633785247803e-02) (61, 7.43361413478851318359e-02) (62, 9.14435014128684997559e-02) (63, -2.98292357474565505981e-02) (64, 7.04212412238121032715e-02) (65, 5.01957982778549194336e-02) (66, -4.25604432821273803711e-02) (67, 8.87014865875244140625e-02) (68, -7.54911825060844421387e-02) (69, -2.05537304282188415527e-02) (70, -2.84724198281764984131e-02) (71, -7.16437324881553649902e-02) (72, 8.63748714327812194824e-02) (73, -4.23988737165927886963e-02) (74, -8.00212323665618896484e-02) (75, 5.05389049649238586426e-02) (76, 2.79166866093873977661e-02) (77, 7.07575827836990356445e-02) (78, 4.49414923787117004395e-02) (79, -4.49533946812152862549e-02) (80, 4.08352762460708618164e-02) (0, -9.73798856139183044434e-02) (1, -5.59732690453529357910e-02) (2, 6.08174949884414672852e-02) (3, -8.71492549777030944824e-02) (4, -6.74952939152717590332e-02) (5, 6.38128072023391723633e-03) (6, 3.63871268928050994873e-02) (7, 1.42187047749757766724e-02) (8, 3.37839825078845024109e-03) (9, 5.71595206856727600098e-02) (10, -3.85329090058803558350e-02) (11, -3.08414902538061141968e-02) (12, 4.77052368223667144775e-02) (13, 2.35635302960872650146e-02) (14, -6.24066032469272613525e-02) (15, -1.00413169711828231812e-02) (16, 7.59291425347328186035e-02) (17, -8.18427801132202148438e-02) (18, 1.09832901507616043091e-02) (19, -5.17652370035648345947e-02) (20, -1.05369007214903831482e-02) (21, 3.19084934890270233154e-02) (22, -6.27571865916252136230e-02) (23, 3.99591363966464996338e-02) (24, 4.84879575669765472412e-02) (25, 7.99352079629898071289e-02) (26, -2.97932736575603485107e-02) (27, 1.15855718031525611877e-02) (28, 3.11658885329961776733e-02) (29, 1.62894073873758316040e-02) (30, -4.54507134854793548584e-02) (31, 3.39784324169158935547e-02) (32, 6.47188872098922729492e-02) (33, -8.60088318586349487305e-02) (34, 4.98535111546516418457e-02) (35, 9.60904806852340698242e-02) (36, 2.39976756274700164795e-02) (37, -1.42624983564019203186e-02) (38, 1.38611048460006713867e-02) (39, -7.43905678391456604004e-02) (40, -5.40649481117725372314e-02) (41, 7.42025077342987060547e-02) (42, -2.65974056674167513847e-04) (43, 9.32576209306716918945e-02) (44, 1.49117852561175823212e-03) (45, 3.49236689507961273193e-02) (46, -1.34240575134754180908e-02) (47, -2.26572323590517044067e-02) (48, 5.61139881610870361328e-02) (49, 9.76677164435386657715e-02) (50, 2.84864082932472229004e-02) (51, -5.35466298460960388184e-02) (52, 3.20742763578891754150e-02) (53, 6.60971030592918395996e-02) (54, 8.92978981137275695801e-02) (55, -1.83728225529193878174e-02) (56, 4.75832074880599975586e-02) (57, -4.10370975732803344727e-02) (58, 9.61135104298591613770e-02) (59, -2.06115413457155227661e-02) (60, 7.72879421710968017578e-02) (61, -5.06312511861324310303e-02) (62, -8.38904753327369689941e-02) (63, 4.14417535066604614258e-02) (64, -3.44100110232830047607e-02) (65, 6.60807117819786071777e-02) (66, 3.96188497543334960938e-02) (67, 8.96301418542861938477e-02) (68, -4.57580387592315673828e-02) (69, -4.62533868849277496338e-02) (70, -8.12847241759300231934e-02) (71, 6.23178901150822639465e-04) (72, -6.80507272481918334961e-02) (73, 1.59177165478467941284e-02) (74, -3.12496512196958065033e-03) (75, 3.16083468496799468994e-02) (76, -4.52593490481376647949e-02) (77, 8.29875320196151733398e-02) (78, -8.67404565215110778809e-02) (79, -9.01877284049987792969e-02) (80, 8.38833600282669067383e-02) (0, 4.45887707173824310303e-02) (1, -3.76465469598770141602e-02) (2, 1.85382142663002014160e-02) (3, 1.26121165230870246887e-02) (4, -4.81320209801197052002e-02) (5, -9.61463302373886108398e-02) (6, -3.93707714974880218506e-02) (7, 1.36433346197009086609e-02) (8, 9.84080657362937927246e-02) (9, 4.39468026161193847656e-02) (10, -9.68256220221519470215e-03) (11, -4.76418882608413696289e-02) (12, 5.95071315765380859375e-02) (13, -6.37306198477745056152e-02) (14, 1.76070146262645721436e-02) (15, 2.93461252003908157349e-02) (16, 7.70469456911087036133e-02) (17, 1.13238701596856117249e-02) (18, 8.42982456088066101074e-02) (19, -6.64483010768890380859e-02) (20, 3.02561987191438674927e-02) (21, -1.21752629056572914124e-02) (22, -3.56259569525718688965e-02) (23, -5.14434799551963806152e-02) (24, 8.48191455006599426270e-02) (25, 9.92286652326583862305e-02) (26, 9.61955869570374488831e-04) (27, 7.08616822957992553711e-02) (28, -9.02927294373512268066e-02) (29, 1.54124302789568901062e-02) (30, 5.22355884313583374023e-02) (31, 5.48287741839885711670e-02) (32, 7.28217288851737976074e-02) (33, -2.61126756668090820312e-02) (34, -3.58682088553905487061e-02) (35, -7.35078826546669006348e-02) (36, -2.65393257141113281250e-02) (37, 2.60146819055080413818e-02) (38, 3.60641703009605407715e-02) (39, -2.52833794802427291870e-02) (40, -3.37256006896495819092e-02) (41, -7.10733160376548767090e-02) (42, 2.11789626628160476685e-02) (43, -7.28366672992706298828e-02) (44, -3.91971021890640258789e-02) (45, -5.73255345225334167480e-02) (46, 5.22365868091583251953e-02) (47, -6.10987916588783264160e-02) (48, 5.01367002725601196289e-02) (49, 3.75884845852851867676e-02) (50, -3.13568636775016784668e-02) (51, -1.95170398801565170288e-02) (52, -7.81972408294677734375e-02) (53, 3.38914096355438232422e-02) (54, 2.50185541808605194092e-02) (55, -9.29206758737564086914e-02) (56, 3.11768501996994018555e-02) (57, -7.15906247496604919434e-02) (58, 7.39683806896209716797e-02) (59, 4.12786267697811126709e-02) (60, 4.09490652382373809814e-02) (61, 2.94278431683778762817e-02) (62, -7.55006261169910430908e-03) (63, 1.54563393443822860718e-02) (64, 1.00068397819995880127e-01) (65, 5.73858581483364105225e-02) (66, 3.91997396945953369141e-02) (67, -2.51354910433292388916e-02) (68, -1.99518725275993347168e-02) (69, -2.41285525262355804443e-02) (70, 4.51168119907379150391e-02) (71, 4.71315234899520874023e-02) (72, -4.14857175201177597046e-04) (73, -2.95927952975034713745e-02) (74, 7.08122178912162780762e-02) (75, 6.37437254190444946289e-02) (76, 8.21385718882083892822e-03) (77, 2.45337300002574920654e-02) (78, 9.67073887586593627930e-02) (79, -3.92108857631683349609e-02) (80, -4.27522584795951843262e-02) (0, -3.84717173874378204346e-02) (1, 3.26744988560676574707e-02) (2, -2.14403998106718063354e-02) (3, 9.40254479646682739258e-02) (4, -4.12846058607101440430e-02) (5, -2.04186942428350448608e-02) (6, 2.69596446305513381958e-02) (7, -1.63815356791019439697e-02) (8, -4.13408726453781127930e-02) (9, -3.81053015589714050293e-02) (10, -7.20502287149429321289e-02) (11, 8.03852230310440063477e-02) (12, 5.66395856440067291260e-02) (13, 3.63089516758918762207e-02) (14, 8.34955275058746337891e-02) (15, 8.75940918922424316406e-03) (16, -2.53894180059432983398e-02) (17, -4.81125935912132263184e-02) (18, 8.89721140265464782715e-02) (19, 4.73896600306034088135e-02) (20, -1.02924957871437072754e-01) (21, 3.24905216693878173828e-02) (22, -5.01266047358512878418e-02) (23, -3.50021384656429290771e-02) (24, 3.67487757466733455658e-03) (25, -9.10398289561271667480e-02) (26, 7.83957019448280334473e-02) (27, -7.57536217570304870605e-02) (28, -8.76874923706054687500e-02) (29, -6.82759881019592285156e-02) (30, -1.09612960368394851685e-02) (31, -2.68215592950582504272e-02) (32, 7.44787454605102539062e-02) (33, 6.03091791272163391113e-02) (34, -2.72138938307762145996e-02) (35, -7.03248381614685058594e-02) (36, -5.16222752630710601807e-02) (37, -1.02010391652584075928e-01) (38, 2.10759174078702926636e-02) (39, 1.11321010626852512360e-03) (40, -3.28768044710159301758e-02) (41, 4.44870926439762115479e-02) (42, -5.86449215188622474670e-03) (43, -7.83178657293319702148e-02) (44, -9.97747946530580520630e-03) (45, -3.09611316770315170288e-02) (46, 3.94419431686401367188e-02) (47, 6.28697648644447326660e-02) (48, 2.90298219770193099976e-02) (49, 2.64341142028570175171e-02) (50, 1.81416999548673629761e-02) (51, 2.62572932988405227661e-02) (52, -3.32819446921348571777e-02) (53, 6.63115307688713073730e-02) (54, -1.00083984434604644775e-01) (55, 6.95639550685882568359e-02) (56, 7.87853077054023742676e-02) (57, 7.32094943523406982422e-02) (58, -9.75984260439872741699e-02) (59, 9.07809659838676452637e-02) (60, -8.92305001616477966309e-02) (61, -1.58569980412721633911e-02) (62, -2.82622110098600387573e-02) (63, 8.19543153047561645508e-02) (64, -4.84340228140354156494e-02) (65, 4.39089909195899963379e-02) (66, -8.28561112284660339355e-02) (67, -2.79591861180961132050e-03) (68, 4.86729182302951812744e-02) (69, 3.78840416669845581055e-02) (70, -9.19246524572372436523e-02) (71, -8.51630344986915588379e-02) (72, -5.75111107900738716125e-03) (73, -7.02998181805014610291e-03) (74, -5.64035587012767791748e-02) (75, 7.63820558786392211914e-02) (76, 7.28560537099838256836e-02) (77, 8.02841559052467346191e-02) (78, 5.32975755631923675537e-02) (79, -3.63069446757435798645e-03) (80, 1.59611292183399200439e-02) (0, -3.18311974406242370605e-02) (1, -6.73650652170181274414e-02) (2, 8.63874182105064392090e-02) (3, -6.05444908142089843750e-02) (4, -6.64312988519668579102e-02) (5, 5.90202920138835906982e-02) (6, -7.44102895259857177734e-02) (7, -8.89184549450874328613e-02) (8, 6.42260909080505371094e-02) (9, -8.03950354456901550293e-02) (10, -7.24093765020370483398e-02) (11, -4.88001406192779541016e-02) (12, -5.80794177949428558350e-03) (13, -8.76343995332717895508e-02) (14, 6.89709978178143501282e-03) (15, -5.79427592456340789795e-02) (16, -6.62978962063789367676e-02) (17, -9.23693776130676269531e-02) (18, 9.42602530121803283691e-02) (19, 7.68498405814170837402e-02) (20, -8.38905200362205505371e-02) (21, -8.60224515199661254883e-02) (22, -2.95285563915967941284e-02) (23, 1.43123045563697814941e-02) (24, -3.83208915591239929199e-02) (25, -4.88090477883815765381e-02) (26, -1.14005841314792633057e-02) (27, -5.34263290464878082275e-02) (28, -9.71772372722625732422e-02) (29, 8.86722207069396972656e-02) (30, 6.66457191109657287598e-02) (31, -3.03285159170627593994e-02) (32, -7.64264836907386779785e-02) (33, 4.89210784435272216797e-02) (34, 9.70879010856151580811e-03) (35, -4.45883236825466156006e-02) (36, 9.87219717353582382202e-03) (37, 3.41700799763202667236e-02) (38, -3.20095606148242950439e-02) (39, -2.88020633161067962646e-02) (40, 5.51973767578601837158e-02) (41, -6.94654090330004692078e-03) (42, 2.59135328233242034912e-02) (43, -5.19848503172397613525e-02) (44, 7.43419025093317031860e-03) (45, -7.11410716176033020020e-02) (46, -6.98485551401972770691e-03) (47, 4.03392873704433441162e-02) (48, -6.11676909029483795166e-02) (49, -1.49112725630402565002e-02) (50, 1.95468626916408538818e-02) (51, -4.63527776300907135010e-02) (52, 1.49715493898838758469e-03) (53, 8.77556800842285156250e-02) (54, 7.05001726746559143066e-02) (55, 6.10617883503437042236e-02) (56, -6.03213198482990264893e-02) (57, -4.40643541514873504639e-02) (58, -8.96067619323730468750e-02) (59, -5.87906092405319213867e-02) (60, -5.37408590316772460938e-02) (61, 7.29010477662086486816e-02) (62, 1.29596851766109466553e-02) (63, -3.19882184267044067383e-02) (64, 2.37927138805389404297e-02) (65, -7.78412073850631713867e-02) (66, 2.47138068079948425293e-02) (67, -6.80347979068756103516e-02) (68, 5.80263622105121612549e-02) (69, 9.21616926789283752441e-02) (70, 5.91507973149418830872e-03) (71, 1.23921455815434455872e-02) (72, -1.16074224933981895447e-02) (73, -7.21035748720169067383e-02) (74, 6.18855804204940795898e-02) (75, 9.30143669247627258301e-02) (76, -4.03473526239395141602e-02) (77, -4.70821708440780639648e-02) (78, 3.80769856274127960205e-02) (79, -4.25563100725412368774e-03) (80, 3.90895418822765350342e-02) (0, -4.33116368949413299561e-02) (1, 5.33905588090419769287e-02) (2, -5.83565309643745422363e-02) (3, -5.50685711205005645752e-02) (4, 2.29728482663631439209e-02) (5, -9.51093733310699462891e-02) (6, -1.54838534072041511536e-02) (7, 8.01677256822586059570e-02) (8, -8.72204378247261047363e-02) (9, 2.80315019190311431885e-02) (10, -7.44735673069953918457e-02) (11, 8.84427726268768310547e-02) (12, -5.97453452646732330322e-02) (13, -4.12753038108348846436e-03) (14, 1.11550018191337585449e-02) (15, -3.57668995857238769531e-02) (16, -7.84913003444671630859e-02) (17, 4.54751662909984588623e-02) (18, -7.74480774998664855957e-02) (19, -8.52069929242134094238e-02) (20, -4.88974936306476593018e-02) (21, 3.63808423280715942383e-02) (22, 1.71721901278942823410e-03) (23, -1.99369713664054870605e-02) (24, -1.06614909600466489792e-03) (25, -3.34102334454655647278e-03) (26, 3.78546938300132751465e-02) (27, 5.34542240202426910400e-02) (28, -6.91510587930679321289e-02) (29, -6.35861977934837341309e-02) (30, -8.32117442041635513306e-03) (31, -1.29247996956110000610e-02) (32, 8.63023102283477783203e-02) (33, 3.52008081972599029541e-02) (34, 3.01942694932222366333e-02) (35, 9.96062997728586196899e-03) (36, 3.72531972825527191162e-02) (37, -8.53086486458778381348e-02) (38, -1.24703235924243927002e-02) (39, 5.14341890811920166016e-02) (40, 4.03094179928302764893e-02) (41, 1.37331895530223846436e-02) (42, 3.53963598608970642090e-02) (43, 8.04802924394607543945e-02) (44, -9.37074571847915649414e-02) (45, -5.09940460324287414551e-02) (46, -5.83526156842708587646e-02) (47, -7.21938014030456542969e-02) (48, 9.16417688131332397461e-02) (49, -3.57939898967742919922e-02) (50, -6.00262619554996490479e-02) (51, -5.79250194132328033447e-02) (52, 9.79846343398094177246e-02) (53, 4.15987558662891387939e-02) (54, 1.92438848316669464111e-02) (55, -3.58949648216366767883e-03) (56, -6.27617165446281433105e-02) (57, -4.19752635061740875244e-02) (58, -5.29722496867179870605e-02) (59, -3.26272062957286834717e-02) (60, -7.48576736077666282654e-03) (61, 4.04449105262756347656e-02) (62, 5.17266020178794860840e-02) (63, -2.06216983497142791748e-02) (64, -2.69865486770868301392e-02) (65, -1.84631869196891784668e-02) (66, 8.74689668416976928711e-02) (67, -8.92301499843597412109e-02) (68, -6.04062061756849288940e-03) (69, -2.55461949855089187622e-02) (70, 5.88169731199741363525e-02) (71, -6.61072432994842529297e-02) (72, 8.38874429464340209961e-02) (73, -3.02304048091173171997e-03) (74, -8.81460458040237426758e-02) (75, 9.26578864455223083496e-02) (76, 4.19857427477836608887e-02) (77, -4.60961461067199707031e-02) (78, -8.46106633543968200684e-02) (79, 3.52319106459617614746e-02) (80, 1.31714344024658203125e-02) (0, -3.67979854345321655273e-02) (1, 7.88351371884346008301e-02) (2, 9.65612474828958511353e-03) (3, 1.00947454571723937988e-01) (4, -4.10694023594260215759e-03) (5, -8.86258780956268310547e-02) (6, -7.13596940040588378906e-02) (7, 5.37238791584968566895e-02) (8, -5.15133924782276153564e-02) (9, 1.25491910148411989212e-03) (10, -6.37926235795021057129e-02) (11, 9.63152945041656494141e-02) (12, -5.22928386926651000977e-02) (13, 2.20681931823492050171e-02) (14, -3.87266092002391815186e-02) (15, 3.16699706017971038818e-02) (16, 7.66190281137824058533e-03) (17, -2.29247026145458221436e-02) (18, -7.74120688438415527344e-02) (19, 8.01332816481590270996e-02) (20, -6.41622468829154968262e-02) (21, -4.40275855362415313721e-02) (22, 6.05136603116989135742e-02) (23, 3.03790625184774398804e-02) (24, -3.60834859311580657959e-02) (25, 5.50787784159183502197e-02) (26, -3.58414463698863983154e-02) (27, 1.83280538767576217651e-02) (28, 6.26148208975791931152e-02) (29, 1.05624184012413024902e-01) (30, -8.03856104612350463867e-02) (31, -7.26986527442932128906e-02) (32, 6.92697390913963317871e-02) (33, 4.37263026833534240723e-02) (34, -7.84136578440666198730e-02) (35, -2.91602406650781631470e-02) (36, 4.26144748926162719727e-02) (37, -4.73570674657821655273e-02) (38, -8.64552482962608337402e-02) (39, 1.01334199309349060059e-01) (40, 4.34643849730491638184e-02) (41, -4.24742922186851501465e-02) (42, 7.69268199801445007324e-02) (43, 9.42058637738227844238e-02) (44, 6.54926225543022155762e-02) (45, -4.59839701652526855469e-02) (46, 1.06953009963035583496e-02) (47, -2.46823113411664962769e-02) (48, 1.78381893783807754517e-02) (49, 3.79188880324363708496e-02) (50, -5.74285611510276794434e-02) (51, 5.43121770024299621582e-02) (52, 8.07663872838020324707e-02) (53, 1.07557140290737152100e-01) (54, -2.95891668647527694702e-02) (55, -5.21284751594066619873e-02) (56, 5.77846951782703399658e-02) (57, 4.44829910993576049805e-02) (58, 5.17174415290355682373e-02) (59, 2.13844757527112960815e-02) (60, 4.08187769353389739990e-02) (61, 8.55896323919296264648e-02) (62, 3.60076799988746643066e-02) (63, 1.57534256577491760254e-02) (64, 1.72258839011192321777e-02) (65, 5.78434988856315612793e-02) (66, 7.80769363045692443848e-02) (67, -3.49352918565273284912e-02) (68, 9.97562631964683532715e-02) (69, 9.15727615356445312500e-02) (70, -4.97186295688152313232e-02) (71, 4.45738546550273895264e-02) (72, -7.06730708479881286621e-02) (73, -5.60048669576644897461e-02) (74, 2.79543902724981307983e-02) (75, 1.08450911939144134521e-01) (76, -2.01112888753414154053e-02) (77, -5.58585189282894134521e-02) (78, -4.14730049669742584229e-02) (79, 1.08308523893356323242e-01) (80, 6.49264007806777954102e-02) (0, 9.81020834296941757202e-03) (1, 4.56829965114593505859e-02) (2, 4.31784503161907196045e-02) (3, 8.56260955333709716797e-03) (4, -8.38450863957405090332e-02) (5, 8.51590558886528015137e-02) (6, -4.48210462927818298340e-02) (7, 5.26808276772499084473e-02) (8, 3.48411239683628082275e-02) (9, 7.01236277818679809570e-02) (10, -1.40314316377043724060e-02) (11, 1.41787258908152580261e-02) (12, 3.21111222729086875916e-03) (13, 9.53973904252052307129e-02) (14, -7.34218731522560119629e-02) (15, -4.68910783529281616211e-02) (16, 6.66913911700248718262e-02) (17, -1.53937833383679389954e-02) (18, -5.23339509963989257812e-02) (19, 4.91910018026828765869e-02) (20, 3.52579653263092041016e-02) (21, 8.33427980542182922363e-02) (22, 8.10346975922584533691e-02) (23, 6.97212591767311096191e-02) (24, 4.91890683770179748535e-03) (25, 8.10249373316764831543e-02) (26, -5.11375442147254943848e-02) (27, 4.00935634970664978027e-02) (28, -5.45495301485061645508e-02) (29, -5.05618713796138763428e-02) (30, 1.47294462658464908600e-03) (31, 5.58908507227897644043e-02) (32, 9.25317183136940002441e-02) (33, -5.06598651409149169922e-02) (34, -3.56837026774883270264e-02) (35, -9.00043770670890808105e-02) (36, -6.75740689039230346680e-02) (37, 1.99062805622816085815e-02) (38, 6.10872991383075714111e-02) (39, 6.98544383049011230469e-02) (40, -1.17750810459256172180e-02) (41, -5.08154667913913726807e-02) (42, -2.02933885157108306885e-02) (43, 9.22683626413345336914e-02) (44, -5.80333471298217773438e-02) (45, 1.06573225930333137512e-02) (46, -5.78779540956020355225e-02) (47, -9.05751362442970275879e-02) (48, 9.24221947789192199707e-02) (49, -8.48892517387866973877e-03) (50, 5.58612830936908721924e-02) (51, 2.84709576517343521118e-02) (52, -2.84281857311725616455e-02) (53, 3.87848131358623504639e-02) (54, -5.24836219847202301025e-03) (55, 7.85033404827117919922e-02) (56, 1.92196033895015716553e-02) (57, 4.70957495272159576416e-02) (58, 1.51443080976605415344e-02) (59, 6.54022321105003356934e-02) (60, 9.45208296179771423340e-02) (61, -7.87878707051277160645e-02) (62, 1.84073075652122497559e-02) (63, 8.87516215443611145020e-02) (64, -3.25562916696071624756e-02) (65, 8.27332288026809692383e-02) (66, 9.70268547534942626953e-02) (67, 1.93717540241777896881e-03) (68, 2.39575398154556751251e-04) (69, 5.82145042717456817627e-02) (70, -3.19612771272659301758e-02) (71, 8.93643200397491455078e-02) (72, -9.75165814161300659180e-02) (73, 5.24167045950889587402e-02) (74, 7.96686708927154541016e-02) (75, -5.15235960483551025391e-02) (76, -4.11869622766971588135e-02) (77, -7.66143277287483215332e-02) (78, -4.89423014223575592041e-02) (79, -4.54082153737545013428e-02) (80, 1.08485268428921699524e-02) (0, -8.52178782224655151367e-02) (1, 8.28880220651626586914e-02) (2, 8.38047116994857788086e-02) (3, 5.11927343904972076416e-02) (4, -2.25406251847743988037e-02) (5, 6.39684274792671203613e-02) (6, -3.52335721254348754883e-02) (7, -7.61118978261947631836e-02) (8, -2.50086355954408645630e-02) (9, -6.80063441395759582520e-02) (10, -8.64821001887321472168e-02) (11, -7.58664624299854040146e-04) (12, 4.78016585111618041992e-02) (13, -9.55248922109603881836e-02) (14, 6.31792917847633361816e-02) (15, 3.11622247099876403809e-02) (16, 9.96789112687110900879e-02) (17, -3.32840569317340850830e-02) (18, -7.04156234860420227051e-02) (19, 5.62673434615135192871e-02) (20, 3.53265702724456787109e-02) (21, -8.21711495518684387207e-02) (22, 5.84374964237213134766e-02) (23, -1.45677933469414710999e-02) (24, 9.48673710227012634277e-02) (25, -9.34856683015823364258e-02) (26, 4.06274050474166870117e-02) (27, -8.29188227653503417969e-02) (28, -4.38880659639835357666e-02) (29, 9.71835404634475708008e-02) (30, 2.17290259897708892822e-02) (31, -2.90053281933069229126e-02) (32, 7.07049444317817687988e-02) (33, 1.15354387089610099792e-02) (34, -8.29565674066543579102e-02) (35, -4.89558279514312744141e-02) (36, -3.21509838104248046875e-02) (37, -1.70772634446620941162e-02) (38, -3.21751460433006286621e-02) (39, 4.76486682891845703125e-02) (40, 8.46987869590520858765e-03) (41, -1.52222542092204093933e-02) (42, -6.46374300122261047363e-02) (43, -4.25258167088031768799e-02) (44, -1.89552269876003265381e-02) (45, -9.42001193761825561523e-02) (46, 8.06288048624992370605e-02) (47, -1.85062624514102935791e-02) (48, -3.46707180142402648926e-02) (49, -8.86806026101112365723e-02) (50, -6.92074671387672424316e-02) (51, 9.97530370950698852539e-02) (52, -7.75895714759826660156e-02) (53, 9.00268107652664184570e-02) (54, -2.22932640463113784790e-02) (55, -8.29242840409278869629e-02) (56, 9.35226902365684509277e-02) (57, -7.79973790049552917480e-02) (58, -7.33281821012496948242e-02) (59, -5.08991815149784088135e-02) (60, -8.57698395848274230957e-02) (61, 5.41003793478012084961e-02) (62, 1.32502876222133636475e-02) (63, 8.72347280383110046387e-02) (64, -4.05461043119430541992e-02) (65, 3.01516856998205184937e-02) (66, -6.64836615324020385742e-02) (67, 2.89068017154932022095e-02) (68, -9.27673950791358947754e-02) (69, 8.90754919964820146561e-04) (70, -3.20102535188198089600e-02) (71, 1.55893461778759956360e-02) (72, 7.52221569418907165527e-02) (73, 1.09584918245673179626e-02) (74, 6.65967315435409545898e-02) (75, -3.76145765185356140137e-02) (76, 7.00527802109718322754e-03) (77, 4.90720532834529876709e-02) (78, 3.14629860222339630127e-02) (79, 7.65511244535446166992e-02) (80, 5.01160994172096252441e-02) (0, 6.43246546387672424316e-02) (1, 6.73541054129600524902e-02) (2, 7.05199837684631347656e-02) (3, 4.98242601752281188965e-02) (4, -5.67663535475730895996e-02) (5, 8.46132338047027587891e-02) (6, 3.59958857297897338867e-02) (7, -3.86685617268085479736e-02) (8, -9.21663120388984680176e-02) (9, 8.21562558412551879883e-02) (10, -3.05270906537771224976e-02) (11, 5.94454184174537658691e-02) (12, -7.97868240624666213989e-03) (13, -4.58252131938934326172e-02) (14, -8.55504721403121948242e-02) (15, -8.13436806201934814453e-02) (16, -1.66510678827762603760e-02) (17, 4.00687046349048614502e-02) (18, -7.80222490429878234863e-02) (19, 7.92489647865295410156e-02) (20, -9.30456519126892089844e-02) (21, 3.30318994820117950439e-02) (22, 5.42046837508678436279e-02) (23, 1.31078315898776054382e-02) (24, -4.49148472398519515991e-03) (25, -8.73426496982574462891e-02) (26, -8.16589891910552978516e-02) (27, -5.96588142216205596924e-02) (28, 4.48567494750022888184e-02) (29, 9.14257392287254333496e-02) (30, 8.81488323211669921875e-02) (31, 1.01956780999898910522e-02) (32, 5.60449324548244476318e-02) (33, 6.20569847524166107178e-02) (34, -4.13988232612609863281e-02) (35, 1.00788980722427368164e-01) (36, 4.43198531866073608398e-02) (37, 9.57726165652275085449e-02) (38, -3.98995280265808105469e-02) (39, 5.47341033816337585449e-02) (40, 7.60945156216621398926e-02) (41, 3.18298637866973876953e-02) (42, 1.02070262655615806580e-02) (43, -3.07383984327316284180e-02) (44, 8.33308622241020202637e-02) (45, 2.82297935336828231812e-02) (46, -1.55068114399909973145e-02) (47, -3.26669029891490936279e-02) (48, -3.44683974981307983398e-02) (49, 8.41185916215181350708e-03) (50, -5.61191365122795104980e-02) (51, -2.64356080442667007446e-02) (52, -6.10779337584972381592e-02) (53, 1.00033625960350036621e-01) (54, 8.39795023202896118164e-02) (55, 3.59487645328044891357e-02) (56, -8.83107781410217285156e-02) (57, -9.51776877045631408691e-02) (58, 7.33611583709716796875e-02) (59, 5.73764368891716003418e-02) (60, 9.43079143762588500977e-02) (61, 6.50461763143539428711e-02) (62, -3.48278358578681945801e-02) (63, 5.18953464925289154053e-02) (64, 2.49237976968288421631e-02) (65, 2.44246982038021087646e-02) (66, 5.10296449065208435059e-02) (67, -2.94275656342506408691e-02) (68, 1.82045120745897293091e-02) (69, -8.84237140417098999023e-02) (70, -7.76875913143157958984e-02) (71, -5.12851169332861900330e-03) (72, 4.00848649442195892334e-02) (73, 3.62028293311595916748e-02) (74, 6.21202215552330017090e-02) (75, 2.61042211204767227173e-02) (76, -3.88783439993858337402e-02) (77, -5.12905158102512359619e-02) (78, 8.86129289865493774414e-02) (79, 2.93507613241672515869e-02) (80, 5.39250262081623077393e-02) (0, -5.57907298207283020020e-02) (1, -9.30713191628456115723e-02) (2, 9.19807478785514831543e-02) (3, -5.92985749244689941406e-02) (4, 8.94462913274765014648e-02) (5, 3.51676940917968750000e-02) (6, -5.71021214127540588379e-02) (7, 9.50744748115539550781e-02) (8, -1.47994700819253921509e-03) (9, -9.26188305020332336426e-02) (10, 7.91687071323394775391e-02) (11, -2.69185565412044525146e-02) (12, -3.25493626296520233154e-02) (13, 3.96993793547153472900e-02) (14, 8.94800350069999694824e-02) (15, 9.57755669951438903809e-02) (16, -1.05444844812154769897e-02) (17, -3.29176820814609527588e-02) (18, 1.15224244073033332825e-02) (19, 2.30498597375117242336e-04) (20, -9.69897769391536712646e-03) (21, 1.07042506337165832520e-01) (22, -6.33811280131340026855e-02) (23, -7.52495378255844116211e-02) (24, 6.57133609056472778320e-02) (25, 6.58992901444435119629e-02) (26, -2.32676602900028228760e-02) (27, -8.39537829160690307617e-02) (28, 4.61279973387718200684e-02) (29, -8.53415653109550476074e-02) (30, 5.54619655013084411621e-02) (31, 9.20178741216659545898e-02) (32, -9.66124758124351501465e-02) (33, 6.43092468380928039551e-02) (34, -7.54704996943473815918e-02) (35, 9.96164530515670776367e-02) (36, -1.55212087556719779968e-02) (37, -2.97039858996868133545e-02) (38, 8.13302546739578247070e-02) (39, 9.49038639664649963379e-02) (40, -3.50224561989307403564e-02) (41, 6.97703436017036437988e-02) (42, -5.63865229487419128418e-02) (43, 3.61763089895248413086e-02) (44, -7.12939072400331497192e-03) (45, -4.85040359199047088623e-02) (46, 1.43962334841489791870e-02) (47, 8.50930884480476379395e-02) (48, 3.12454416416585445404e-03) (49, -6.90181553363800048828e-02) (50, -2.97143533825874328613e-02) (51, 9.38066393136978149414e-02) (52, -7.74985551834106445312e-02) (53, 1.16333393380045890808e-02) (54, -9.83167588710784912109e-02) (55, 9.17164906859397888184e-02) (56, -2.81940177083015441895e-02) (57, -9.96610242873430252075e-03) (58, 9.07455459237098693848e-02) (59, -8.10844227671623229980e-02) (60, -6.18965877220034599304e-03) (61, 6.26936778426170349121e-02) (62, 9.59418788552284240723e-02) (63, 3.76361398957669734955e-03) (64, 1.27465715631842613220e-02) (65, -7.91878551244735717773e-02) (66, -6.69486261904239654541e-03) (67, 1.03335432708263397217e-01) (68, -2.16802675276994705200e-02) (69, -2.53431834280490875244e-02) (70, 7.92379230260848999023e-02) (71, 4.51076105237007141113e-02) (72, -7.90235623717308044434e-02) (73, -5.77335990965366363525e-02) (74, -3.15769724547863006592e-02) (75, 2.97216847538948059082e-02) (76, -2.75947842746973037720e-02) (77, 8.87419283390045166016e-02) (78, -1.47124463692307472229e-02) (79, 8.75237882137298583984e-02) (80, 9.93815958499908447266e-02) (0, 6.52081072330474853516e-02) (1, 6.21481314301490783691e-02) (2, -7.94809162616729736328e-02) (3, -3.28095294535160064697e-02) (4, 6.32515922188758850098e-02) (5, -9.56580191850662231445e-02) (6, 2.59154625236988067627e-02) (7, -5.57452253997325897217e-02) (8, 9.24180671572685241699e-02) (9, 3.68209965527057647705e-02) (10, 2.92416550219058990479e-02) (11, 4.76132407784461975098e-02) (12, 2.85399965941905975342e-02) (13, -7.49152973294258117676e-02) (14, -4.53149415552616119385e-02) (15, 4.04684506356716156006e-02) (16, 9.80733800679445266724e-03) (17, -5.06296306848526000977e-02) (18, -8.76442566514015197754e-02) (19, 7.40411579608917236328e-02) (20, -7.13922977447509765625e-02) (21, 4.70659285783767700195e-02) (22, 9.82343479990959167480e-02) (23, -4.02750931680202484131e-02) (24, -9.19352322816848754883e-02) (25, 1.75257213413715362549e-02) (26, 3.13585400581359863281e-02) (27, 8.58932137489318847656e-02) (28, -9.01916474103927612305e-02) (29, 9.31155029684305191040e-03) (30, 8.18756148219108581543e-02) (31, 7.51232802867889404297e-02) (32, -3.28763239085674285889e-02) (33, -9.47344601154327392578e-02) (34, -6.00831471383571624756e-02) (35, -6.82718083262443542480e-02) (36, -9.39608141779899597168e-02) (37, 6.63589909672737121582e-02) (38, -2.73475777357816696167e-02) (39, 1.00766882300376892090e-01) (40, 2.03621355467475950718e-04) (41, -9.63025689125061035156e-02) (42, 4.30063307285308837891e-02) (43, -7.05989226698875427246e-02) (44, -7.49471858143806457520e-02) (45, 1.01156279444694519043e-01) (46, 6.60680234432220458984e-02) (47, 3.51204350590705871582e-02) (48, -5.28516806662082672119e-02) (49, 7.90047869086265563965e-02) (50, 5.87112363427877426147e-03) (51, -2.46347859501838684082e-02) (52, 2.29242332279682159424e-02) (53, 4.54416871070861816406e-03) (54, 3.16132120788097381592e-02) (55, 3.09823621064424514771e-02) (56, -7.93930888175964355469e-02) (57, -3.52056324481964111328e-02) (58, 1.33442115038633346558e-02) (59, -6.97349980473518371582e-02) (60, 7.17756152153015136719e-02) (61, -1.98406120762228965759e-03) (62, -9.77525413036346435547e-02) (63, -6.00163675844669342041e-02) (64, 4.61793824797496199608e-04) (65, -5.79258725047111511230e-02) (66, -3.05286273360252380371e-02) (67, 7.21778394654393196106e-03) (68, -9.43001881241798400879e-02) (69, 4.19871993362903594971e-02) (70, 3.99380270391702651978e-03) (71, 5.87318697944283485413e-03) (72, 4.09936569631099700928e-02) (73, -4.94090765714645385742e-02) (74, 3.23015786707401275635e-02) (75, 6.86741843819618225098e-02) (76, -5.26658445596694946289e-02) (77, -6.87001680489629507065e-04) (78, -1.84146012179553508759e-03) (79, -3.59531375579535961151e-03) (80, -2.64449659734964370728e-02) (0, -9.11987572908401489258e-02) (1, 7.02321529388427734375e-02) (2, 9.48533266782760620117e-02) (3, 1.00658461451530456543e-02) (4, 5.46394439879804849625e-04) (5, 2.79057007282972335815e-02) (6, 2.42519807070493698120e-02) (7, 6.41613304615020751953e-02) (8, -6.41611590981483459473e-02) (9, 5.64035996794700622559e-02) (10, 2.94873099774122238159e-02) (11, 3.67560610175132751465e-02) (12, 5.53851053118705749512e-02) (13, 7.21284374594688415527e-02) (14, -6.80232048034667968750e-02) (15, 9.76610705256462097168e-02) (16, -6.05884827673435211182e-02) (17, 4.09741327166557312012e-02) (18, 1.00949652493000030518e-01) (19, 7.94753879308700561523e-02) (20, -5.51396757364273071289e-02) (21, 5.53137389943003654480e-03) (22, 1.86378434300422668457e-02) (23, -6.95334700867533683777e-03) (24, -6.50341287255287170410e-02) (25, -1.27154728397727012634e-02) (26, 3.56529839336872100830e-02) (27, 3.35207507014274597168e-02) (28, 8.15666317939758300781e-02) (29, -6.54580965638160705566e-02) (30, -9.98514071106910705566e-02) (31, 9.14079248905181884766e-02) (32, 9.65239182114601135254e-02) (33, 1.03505514562129974365e-01) (34, -2.03199568204581737518e-03) (35, 3.47518973285332322121e-04) (36, 2.45941374450922012329e-02) (37, -7.62746706604957580566e-02) (38, -4.15297672152519226074e-02) (39, 6.61834329366683959961e-02) (40, 7.42914676666259765625e-02) (41, 9.26409810781478881836e-02) (42, -8.35737306624650955200e-03) (43, 3.16558964550495147705e-02) (44, 5.71133308112621307373e-02) (45, 3.25785242021083831787e-02) (46, 2.10901144891977310181e-02) (47, 9.81372743844985961914e-02) (48, -3.37395481765270233154e-02) (49, 2.48182900249958038330e-02) (50, 7.05066621303558349609e-02) (51, 1.17800263687968254089e-02) (52, -7.71158635616302490234e-02) (53, -8.07081442326307296753e-03) (54, 9.67486873269081115723e-02) (55, -3.98017689585685729980e-02) (56, 7.66375958919525146484e-02) (57, 3.85223515331745147705e-02) (58, 8.56387987732887268066e-02) (59, 5.90402260422706604004e-02) (60, 6.78945556282997131348e-02) (61, 9.41389799118041992188e-02) (62, 4.33596186339855194092e-02) (63, 6.78068324923515319824e-02) (64, 9.07667875289916992188e-02) (65, -5.82737959921360015869e-02) (66, -3.65867577493190765381e-02) (67, 1.87076311558485031128e-02) (68, -4.06735055148601531982e-02) (69, 2.21781078726053237915e-02) (70, -2.41097640246152877808e-02) (71, -6.50396198034286499023e-02) (72, 3.61312436871230602264e-03) (73, 7.70668387413024902344e-02) (74, 6.06698058545589447021e-02) (75, -3.12921479344367980957e-02) (76, -4.79496346088126301765e-04) (77, -1.51126496493816375732e-02) (78, -4.74082790315151214600e-02) (79, 7.19851553440093994141e-02) (80, -9.98225510120391845703e-02) (0, -7.93999582529067993164e-02) (1, -3.14046926796436309814e-02) (2, -7.60218650102615356445e-02) (3, 9.63229965418577194214e-03) (4, -3.25124152004718780518e-02) (5, -2.68394108861684799194e-02) (6, -1.23733887448906898499e-02) (7, -1.00322403013706207275e-01) (8, -3.24141643941402435303e-02) (9, -6.45517036318778991699e-02) (10, 7.25147649645805358887e-02) (11, -5.16154319047927856445e-02) (12, 8.20518955588340759277e-02) (13, 2.77313850820064544678e-02) (14, -5.56703917682170867920e-02) (15, -8.54076966643333435059e-02) (16, 8.80221650004386901855e-02) (17, 5.14762811362743377686e-02) (18, -2.68611740320920944214e-02) (19, 4.54724347218871116638e-03) (20, -7.24728554487228393555e-02) (21, 1.22506741899996995926e-03) (22, -8.59377905726432800293e-02) (23, -1.00637115538120269775e-01) (24, -3.89003530144691467285e-02) (25, -2.63162553310394287109e-02) (26, 7.53752468153834342957e-03) (27, 3.80038768053054809570e-02) (28, 3.94480787217617034912e-02) (29, -3.40144373476505279541e-02) (30, 4.99343834817409515381e-02) (31, 5.83098903298377990723e-02) (32, 4.92176190018653869629e-02) (33, 6.06963112950325012207e-02) (34, -2.50597130507230758667e-02) (35, -8.90620648860931396484e-02) (36, -5.40260300040245056152e-02) (37, 5.97758330404758453369e-02) (38, -7.85221159458160400391e-02) (39, 3.73943010345101356506e-03) (40, -9.45262461900711059570e-02) (41, 8.63627716898918151855e-02) (42, 7.14068040251731872559e-02) (43, 8.41148123145103454590e-02) (44, 2.73110698908567428589e-02) (45, -9.88599136471748352051e-02) (46, -8.73789042234420776367e-02) (47, 1.28500396385788917542e-02) (48, 6.48505762219429016113e-02) (49, -1.84296444058418273926e-02) (50, -7.05672577023506164551e-02) (51, 9.17713269591331481934e-02) (52, 9.49494838714599609375e-02) (53, -6.05235807597637176514e-02) (54, -9.55798104405403137207e-02) (55, -4.67530451714992523193e-02) (56, 1.79722737520933151245e-02) (57, 2.70860898308455944061e-03) (58, -9.54079031944274902344e-02) (59, -4.37775664031505584717e-02) (60, 7.72968977689743041992e-02) (61, 4.15181480348110198975e-02) (62, -7.37033337354660034180e-02) (63, 2.10343860089778900146e-02) (64, 1.31272384896874427795e-02) (65, 4.67693811515346169472e-04) (66, 3.99048030376434326172e-02) (67, 5.42838349938392639160e-02) (68, -2.97191608697175979614e-02) (69, 6.09922073781490325928e-02) (70, -2.71363910287618637085e-02) (71, -2.59435158222913742065e-02) (72, 6.55188858509063720703e-02) (73, -7.10658580064773559570e-02) (74, -3.15617546439170837402e-02) (75, -1.96194406598806381226e-02) (76, -5.33033721148967742920e-02) (77, -2.39668097347021102905e-02) (78, -8.41003060340881347656e-02) (79, -9.79279279708862304688e-02) (80, 7.11874142289161682129e-02) (0, -6.75147995352745056152e-02) (1, -9.53266546130180358887e-02) (2, 7.04728066921234130859e-02) (3, -1.93297173827886581421e-02) (4, -8.94110202789306640625e-02) (5, -7.54501149058341979980e-02) (6, -8.65226238965988159180e-02) (7, 1.89243629574775695801e-02) (8, -6.24100565910339355469e-02) (9, -2.93028522282838821411e-02) (10, 8.81660822778940200806e-03) (11, 7.82199352979660034180e-02) (12, 3.21218813769519329071e-03) (13, -7.01014474034309387207e-02) (14, 8.87003960087895393372e-04) (15, -9.26978066563606262207e-02) (16, 7.65906795859336853027e-02) (17, -4.33188788592815399170e-02) (18, -1.64018720388412475586e-02) (19, 4.51838225126266479492e-02) (20, 2.91655156761407852173e-02) (21, 6.43184706568717956543e-02) (22, 1.08612831681966781616e-02) (23, 6.67260959744453430176e-02) (24, -6.01129606366157531738e-02) (25, -1.03662416338920593262e-01) (26, -8.01942422986030578613e-02) (27, 2.22862940281629562378e-02) (28, -8.66986811161041259766e-02) (29, -7.70204141736030578613e-02) (30, 7.21796695142984390259e-03) (31, -5.57339489459991455078e-02) (32, -5.82115724682807922363e-02) (33, -3.51144075393676757812e-02) (34, 3.14716733992099761963e-02) (35, -5.30876070261001586914e-02) (36, 1.04621960781514644623e-03) (37, 4.25238572061061859131e-02) (38, 7.62240886688232421875e-02) (39, 2.92996969074010848999e-02) (40, -7.70261585712432861328e-02) (41, -2.21645552664995193481e-02) (42, 2.61441096663475036621e-02) (43, 2.31575891375541687012e-02) (44, 2.03806161880493164062e-02) (45, -8.70039686560630798340e-02) (46, 4.37842905521392822266e-02) (47, -5.11476676911115646362e-03) (48, -1.85519941151142120361e-02) (49, -7.63980448246002197266e-02) (50, -4.84097898006439208984e-02) (51, -8.96716117858886718750e-02) (52, -1.00404068827629089355e-01) (53, 5.88583573698997497559e-02) (54, 8.98046791553497314453e-02) (55, -6.30125254392623901367e-02) (56, 5.97336888313293457031e-02) (57, -9.92075577378273010254e-02) (58, 7.21467360854148864746e-02) (59, 7.20886737108230590820e-02) (60, -6.80086538195610046387e-02) (61, -3.31207476556301116943e-02) (62, -7.23551064729690551758e-02) (63, -3.13410907983779907227e-02) (64, 4.22885976731777191162e-02) (65, 5.87586537003517150879e-02) (66, 2.31821164488792419434e-02) (67, -6.11125789582729339600e-02) (68, 1.09420018270611763000e-02) (69, -7.12367589585483074188e-04) (70, 8.25707316398620605469e-02) (71, 3.25683876872062683105e-02) (72, 9.47218835353851318359e-02) (73, -6.03053811937570571899e-03) (74, -3.44119556248188018799e-02) (75, 3.26700485311448574066e-03) (76, 2.30331681668758392334e-02) (77, -9.51808989048004150391e-02) (78, -7.98605531454086303711e-02) (79, -1.04496739804744720459e-01) (80, -5.74972145259380340576e-02) (0, -3.80305945873260498047e-02) (1, -8.17601010203361511230e-02) (2, -5.46920932829380035400e-02) (3, -7.12670013308525085449e-02) (4, -9.07014757394790649414e-02) (5, -1.46548906341195106506e-02) (6, -9.90229025483131408691e-02) (7, -8.39457064867019653320e-02) (8, -3.69069278240203857422e-02) (9, 7.62209072709083557129e-02) (10, -4.17776443064212799072e-02) (11, 3.19616459310054779053e-02) (12, -9.09939557313919067383e-02) (13, 2.92808525264263153076e-02) (14, -1.83342993259429931641e-02) (15, 7.24804252386093139648e-02) (16, -4.06881459057331085205e-02) (17, 2.41144895553588867188e-02) (18, -1.09091298654675483704e-02) (19, 6.60001933574676513672e-02) (20, 6.74726022407412528992e-03) (21, -7.14156553149223327637e-02) (22, 6.00576922297477722168e-02) (23, -9.10969302058219909668e-02) (24, 7.84532516263425350189e-04) (25, -3.06288078427314758301e-02) (26, 3.58544178307056427002e-02) (27, 1.24752772971987724304e-02) (28, -1.20455613359808921814e-02) (29, 3.50693017244338989258e-02) (30, 6.37012049555778503418e-02) (31, 4.88938242197036743164e-02) (32, 6.21492862701416015625e-02) (33, -9.90822240710258483887e-02) (34, 8.19058567285537719727e-02) (35, 6.79745152592658996582e-02) (36, -6.33841706439852714539e-03) (37, 8.11661705374717712402e-02) (38, 9.06942114233970642090e-02) (39, 5.07426224648952484131e-02) (40, 6.35667741298675537109e-02) (41, -5.60211129486560821533e-02) (42, -5.64127042889595031738e-03) (43, 7.03592747449874877930e-02) (44, 8.13195332884788513184e-02) (45, 6.71065449714660644531e-02) (46, 5.14499135315418243408e-02) (47, -6.09915852546691894531e-02) (48, -1.19877618271857500076e-03) (49, -6.22299723327159881592e-02) (50, -8.75462368130683898926e-02) (51, -9.50149968266487121582e-02) (52, -2.61718835681676864624e-02) (53, 6.98574706912040710449e-02) (54, -7.79629424214363098145e-02) (55, 7.26803541183471679688e-02) (56, -5.77430278062820434570e-02) (57, 5.20762950181961059570e-02) (58, -6.63869222626090049744e-03) (59, 2.93971356004476547241e-02) (60, -7.45829055085778236389e-03) (61, -5.09873181581497192383e-02) (62, -1.45247932523488998413e-02) (63, -4.87152785062789916992e-02) (64, -4.34197224676609039307e-02) (65, -3.31169404089450836182e-02) (66, -7.57499784231185913086e-02) (67, 4.72861453890800476074e-02) (68, -4.57578860223293304443e-02) (69, -8.55089128017425537109e-02) (70, 7.13136279955506324768e-03) (71, -8.32540839910507202148e-02) (72, -3.05463578552007675171e-02) (73, 9.21565219759941101074e-02) (74, 9.32833179831504821777e-02) (75, -5.67629039287567138672e-02) (76, 6.93067312240600585938e-02) (77, 4.15822379291057586670e-02) (78, -3.97010333836078643799e-03) (79, -3.77464592456817626953e-02) (80, 8.73209238052368164062e-02) (0, 1.40110496431589126587e-03) (1, -2.56756432354450225830e-02) (2, -3.67886647582054138184e-02) (3, -2.38118041306734085083e-02) (4, -2.99461558461189270020e-03) (5, -6.23276345431804656982e-02) (6, 2.62218210846185684204e-02) (7, -4.73051816225051879883e-02) (8, 3.46121340990066528320e-02) (9, -4.26435247063636779785e-02) (10, 5.12742511928081512451e-02) (11, 8.45348313450813293457e-02) (12, 4.59480211138725280762e-02) (13, -9.59840416908264160156e-02) (14, -5.42834885418415069580e-02) (15, -8.43709781765937805176e-02) (16, -6.77236318588256835938e-02) (17, 9.50588211417198181152e-02) (18, -2.67865099012851715088e-02) (19, -4.87145073711872100830e-02) (20, 1.93873490206897258759e-03) (21, -5.82368765026330947876e-03) (22, 2.02316455543041229248e-02) (23, -7.81414099037647247314e-04) (24, -8.65571200847625732422e-03) (25, 6.71711862087249755859e-02) (26, -2.89914943277835845947e-02) (27, -6.27453252673149108887e-02) (28, -3.76375243067741394043e-02) (29, 3.53340432047843933105e-02) (30, -6.89356327056884765625e-02) (31, 6.33860677480697631836e-02) (32, -8.36409702897071838379e-02) (33, -1.06607703492045402527e-02) (34, -5.68396672606468200684e-02) (35, 1.10226357355713844299e-02) (36, 3.25650013983249664307e-02) (37, 6.82888627052307128906e-02) (38, 6.87818303704261779785e-02) (39, -3.67086939513683319092e-02) (40, -6.96868523955345153809e-02) (41, 1.71699281781911849976e-02) (42, -4.37492392957210540771e-02) (43, 7.50715136528015136719e-02) (44, 2.72211562842130661011e-02) (45, -3.75997857190668582916e-03) (46, 9.66453477740287780762e-02) (47, 5.85370026528835296631e-02) (48, -3.38709726929664611816e-03) (49, -3.13832499086856842041e-02) (50, -8.49962383508682250977e-02) (51, -1.01199567317962646484e-01) (52, 6.79083541035652160645e-02) (53, 3.41466814279556274414e-02) (54, 3.67688201367855072021e-03) (55, -4.11862432956695556641e-02) (56, 3.50684626027941703796e-03) (57, 7.14211314916610717773e-02) (58, 1.72565830871462821960e-03) (59, 6.58492967486381530762e-02) (60, 1.05008864775300025940e-02) (61, 2.79822666198015213013e-02) (62, 3.43376696109771728516e-02) (63, 2.48025525361299514771e-02) (64, -7.80039653182029724121e-02) (65, 7.72854536771774291992e-02) (66, -6.06189481914043426514e-02) (67, 5.28904683887958526611e-02) (68, 4.99499067664146423340e-02) (69, -9.18296724557876586914e-02) (70, -7.73969665169715881348e-02) (71, 7.99147114157676696777e-02) (72, 3.31631936132907867432e-02) (73, -2.72258743643760681152e-02) (74, 5.96070662140846252441e-02) (75, -4.46628034114837646484e-02) (76, 7.62218013405799865723e-02) (77, 5.45753277838230133057e-02) (78, -7.67169743776321411133e-02) (79, -3.07187344878911972046e-02) (80, -7.02283829450607299805e-02) (0, -6.12195916473865509033e-02) (1, -2.28674076497554779053e-02) (2, 9.92040187120437622070e-02) (3, 7.60226547718048095703e-02) (4, 8.05085524916648864746e-02) (5, -3.68737056851387023926e-02) (6, -1.84651780873537063599e-02) (7, 5.59978857636451721191e-02) (8, 6.27836138010025024414e-02) (9, -4.73020672798156738281e-02) (10, -3.34894731640815734863e-02) (11, -3.21808410808444023132e-03) (12, 8.66296663880348205566e-02) (13, 9.72665026783943176270e-02) (14, 1.84214618057012557983e-02) (15, 6.90513774752616882324e-02) (16, -6.09653368592262268066e-02) (17, -2.30445247143507003784e-02) (18, 2.04456038773059844971e-02) (19, -4.86391037702560424805e-02) (20, -4.15879621868953108788e-04) (21, 4.78699803352355957031e-03) (22, 8.22982490062713623047e-02) (23, 7.63128921389579772949e-02) (24, -3.42463552951812744141e-02) (25, -5.74000366032123565674e-02) (26, 4.97988983988761901855e-02) (27, -7.49203190207481384277e-02) (28, -3.90153005719184875488e-02) (29, -7.45135471224784851074e-02) (30, -4.80600781738758087158e-02) (31, 2.45117291342467069626e-04) (32, -2.14004702866077423096e-03) (33, -4.54714000225067138672e-02) (34, -2.66678985208272933960e-02) (35, -1.98903232812881469727e-02) (36, 1.36060137301683425903e-02) (37, 5.59638291597366333008e-02) (38, -6.77208676934242248535e-02) (39, -2.07629855722188949585e-02) (40, -9.48332771658897399902e-02) (41, 1.28859363030642271042e-03) (42, 7.01337829232215881348e-02) (43, 9.30722653865814208984e-02) (44, -5.68459136411547660828e-03) (45, -7.35078286379575729370e-03) (46, 5.78493326902389526367e-02) (47, 3.42545397579669952393e-02) (48, 6.57920464873313903809e-02) (49, -2.05732807517051696777e-02) (50, 8.18323269486427307129e-02) (51, -3.45131121575832366943e-02) (52, 8.05982053279876708984e-02) (53, 6.51391223073005676270e-02) (54, -6.21851831674575805664e-02) (55, -5.30984364449977874756e-02) (56, -9.40489545464515686035e-02) (57, 9.01171863079071044922e-02) (58, -3.19771803915500640869e-02) (59, -3.27218547463417053223e-02) (60, -8.71456116437911987305e-02) (61, 2.33676787465810775757e-02) (62, 6.39005973935127258301e-02) (63, 1.23256677761673927307e-02) (64, 7.46565982699394226074e-02) (65, -6.21485002338886260986e-02) (66, 8.97990912199020385742e-02) (67, -1.04279834777116775513e-02) (68, 9.05575826764106750488e-02) (69, -7.74679780006408691406e-02) (70, 6.43177255988121032715e-02) (71, 9.64366048574447631836e-02) (72, 1.85615122318267822266e-02) (73, 3.87571565806865692139e-02) (74, 8.61014276742935180664e-02) (75, -8.37097987532615661621e-02) (76, -7.35143944621086120605e-02) (77, 4.55122552812099456787e-02) (78, 4.43512164056301116943e-02) (79, 9.48564037680625915527e-02) (80, -7.98131525516510009766e-02) (0, 2.93957348912954330444e-02) (1, -4.25823852419853210449e-02) (2, -9.88902002573013305664e-02) (3, -7.83685967326164245605e-03) (4, -5.33240567892789840698e-03) (5, -5.31360693275928497314e-02) (6, -5.49789937213063240051e-03) (7, -1.69837065041065216064e-02) (8, 1.29012539982795715332e-02) (9, 6.08233474195003509521e-02) (10, -6.92958896979689598083e-03) (11, -6.41914904117584228516e-02) (12, 2.31026280671358108521e-02) (13, -9.55271199345588684082e-02) (14, -9.18501168489456176758e-02) (15, 5.96520118415355682373e-02) (16, 9.22836139798164367676e-02) (17, -3.34293325431644916534e-03) (18, 4.87072169780731201172e-02) (19, -8.72542783617973327637e-02) (20, -3.89046967029571533203e-02) (21, 4.31255288422107696533e-02) (22, 3.15801575779914855957e-02) (23, 9.73678976297378540039e-02) (24, 2.78641935437917709351e-02) (25, 4.59340438246726989746e-02) (26, -7.72502422332763671875e-02) (27, -2.88458969444036483765e-02) (28, -9.77038312703371047974e-03) (29, -8.34289342164993286133e-02) (30, -1.07942661270499229431e-02) (31, -8.06749910116195678711e-02) (32, -3.00276055932044982910e-02) (33, -8.15763231366872787476e-03) (34, 8.84805526584386825562e-03) (35, 6.55720606446266174316e-02) (36, 3.53873260319232940674e-02) (37, -9.62892919778823852539e-02) (38, -5.46221137046813964844e-02) (39, -5.01818060874938964844e-02) (40, 6.15989193320274353027e-02) (41, 3.94191853702068328857e-02) (42, -1.90552938729524612427e-02) (43, -1.49669190868735313416e-02) (44, 4.02317084372043609619e-02) (45, -8.57509765774011611938e-03) (46, -5.84751404821872711182e-02) (47, 3.28557230532169342041e-02) (48, 8.50970298051834106445e-02) (49, 9.01548266410827636719e-02) (50, 4.27568256855010986328e-02) (51, -5.45053109526634216309e-02) (52, 3.06481514126062393188e-02) (53, -2.59287916123867034912e-02) (54, -6.00984543561935424805e-02) (55, -4.22324575483798980713e-02) (56, -8.13696235418319702148e-02) (57, -3.65632660686969757080e-02) (58, 2.60376762598752975464e-02) (59, 8.22701770812273025513e-03) (60, -2.20135524868965148926e-02) (61, -8.33036974072456359863e-02) (62, 2.47486792504787445068e-02) (63, 4.85553666949272155762e-02) (64, 6.08371291309595108032e-03) (65, -6.64295405149459838867e-02) (66, 1.21051128953695297241e-02) (67, -5.82514330744743347168e-02) (68, -6.51346668601036071777e-02) (69, 5.71974888443946838379e-02) (70, -1.18295811116695404053e-02) (71, 9.62779000401496887207e-02) (72, -7.55659583956003189087e-03) (73, 7.16358423233032226562e-02) (74, -2.15121675282716751099e-02) (75, -6.50507807731628417969e-02) (76, -4.08863760530948638916e-02) (77, 2.04185023903846740723e-02) (78, 6.32335320115089416504e-02) (79, -5.44530227780342102051e-02) (80, 6.14607380703091621399e-03) (0, -6.81915626046247780323e-05) (1, -1.70735474675893783569e-02) (2, -6.26251474022865295410e-02) (3, 7.36713707447052001953e-02) (4, 2.30054929852485656738e-02) (5, -1.22683970257639884949e-02) (6, 9.50056314468383789062e-02) (7, 8.33661183714866638184e-02) (8, -8.05121287703514099121e-02) (9, -3.97511525079607963562e-03) (10, -3.43675650656223297119e-02) (11, -7.25630000233650207520e-02) (12, -7.72808045148849487305e-02) (13, -9.39941182732582092285e-02) (14, 3.72573845088481903076e-02) (15, -4.88049164414405822754e-02) (16, 1.63462869822978973389e-02) (17, 7.17301294207572937012e-02) (18, -1.43985766917467117310e-02) (19, -2.87195146083831787109e-02) (20, -4.11392860114574432373e-02) (21, -2.13505998253822326660e-02) (22, 6.65399134159088134766e-02) (23, -7.12481662631034851074e-02) (24, 5.75469061732292175293e-02) (25, -1.03430323302745819092e-01) (26, -6.15795748308300971985e-03) (27, -2.60022114962339401245e-02) (28, 6.68588653206825256348e-02) (29, 3.09109520167112350464e-02) (30, 8.99283289909362792969e-02) (31, -3.43460664153099060059e-02) (32, -7.50545710325241088867e-02) (33, -8.37635099887847900391e-02) (34, -5.61469160020351409912e-02) (35, 4.36481609940528869629e-02) (36, 1.29765393212437629700e-02) (37, -6.28371387720108032227e-02) (38, 3.49683761596679687500e-02) (39, 2.48903315514326095581e-02) (40, 4.07918095588684082031e-02) (41, -1.05240985751152038574e-01) (42, 6.73802718520164489746e-02) (43, 6.12314641475677490234e-02) (44, -8.93028527498245239258e-02) (45, -7.13007478043437004089e-03) (46, -7.68861994147300720215e-02) (47, 2.54795905202627182007e-02) (48, -2.59813442826271057129e-02) (49, 5.55651495233178138733e-03) (50, -9.39730405807495117188e-02) (51, 3.26446965336799621582e-02) (52, 9.38301682472229003906e-02) (53, 6.94704130291938781738e-02) (54, 7.18720629811286926270e-02) (55, 4.90287952125072479248e-02) (56, 6.94007277488708496094e-02) (57, -4.18314971029758453369e-02) (58, -6.64099454879760742188e-02) (59, 3.54841314256191253662e-02) (60, 9.56123694777488708496e-02) (61, -8.71913284063339233398e-02) (62, -8.96464437246322631836e-02) (63, -8.36154222488403320312e-02) (64, -6.21474832296371459961e-02) (65, -4.58456724882125854492e-02) (66, 6.60527870059013366699e-02) (67, 4.69117201864719390869e-02) (68, -8.15425359178334474564e-04) (69, 1.13196624442934989929e-03) (70, -1.63843128830194473267e-02) (71, -6.12281560897827148438e-02) (72, 1.05681587010622024536e-02) (73, -6.14095181226730346680e-02) (74, -9.21497568488121032715e-02) (75, 1.12713053822517395020e-02) (76, 4.47521433234214782715e-02) (77, -7.27350637316703796387e-02) (78, -4.45917993783950805664e-02) (79, -8.88819172978401184082e-02) (80, 4.42043431103229522705e-02) (0, -4.64057587087154388428e-02) (1, 5.50373829901218414307e-02) (2, 4.03806380927562713623e-02) (3, -7.03063011169433593750e-02) (4, 2.69085187464952468872e-02) (5, -6.87512895092368125916e-03) (6, -9.18464735150337219238e-02) (7, 9.07532200217247009277e-02) (8, 2.94010825455188751221e-02) (9, 4.75985966622829437256e-02) (10, 9.27272439002990722656e-02) (11, 4.55899126827716827393e-02) (12, 6.06412701308727264404e-02) (13, -8.68493169546127319336e-02) (14, 8.77117961645126342773e-02) (15, -7.98563137650489807129e-02) (16, 8.42616856098175048828e-02) (17, 3.91229689121246337891e-02) (18, 2.31900978833436965942e-02) (19, -7.77812255546450614929e-03) (20, -7.78072848916053771973e-02) (21, 6.84974417090415954590e-02) (22, -9.90575700998306274414e-02) (23, -3.18703986704349517822e-02) (24, 8.10561552643775939941e-02) (25, 1.83318387717008590698e-02) (26, -8.57503190636634826660e-02) (27, -8.49400833249092102051e-02) (28, 7.02823176980018615723e-02) (29, -6.96649402379989624023e-02) (30, 6.45014196634292602539e-02) (31, -7.61556699872016906738e-02) (32, 9.00443270802497863770e-02) (33, 6.65930449031293392181e-04) (34, -4.47721593081951141357e-02) (35, 1.55011285096406936646e-02) (36, 9.74333882331848144531e-02) (37, -3.68205644190311431885e-02) (38, 9.46814194321632385254e-03) (39, 2.40713413804769515991e-02) (40, -8.61128419637680053711e-02) (41, 4.49823652161285281181e-04) (42, -2.39574108272790908813e-02) (43, 7.41209536790847778320e-02) (44, 1.77116189152002334595e-02) (45, -4.08495143055915832520e-02) (46, 9.85818132758140563965e-02) (47, 1.85433414299041032791e-03) (48, -9.78450253605842590332e-02) (49, 2.10478380322456359863e-02) (50, 9.78254601359367370605e-02) (51, -7.52111747860908508301e-02) (52, -6.54020579531788825989e-03) (53, -1.01967833936214447021e-01) (54, -2.76599498465657234192e-03) (55, -2.58371550589799880981e-02) (56, 1.76761094480752944946e-02) (57, 8.90685711055994033813e-03) (58, -6.45870808511972427368e-03) (59, -1.18595110252499580383e-02) (60, 4.18103188276290893555e-02) (61, -4.59235794842243194580e-02) (62, 1.57865323126316070557e-02) (63, 3.05616799741983413696e-02) (64, 5.84386847913265228271e-02) (65, 7.15737938880920410156e-02) (66, -5.15162982046604156494e-02) (67, 5.46816550195217132568e-02) (68, -6.20406121015548706055e-02) (69, 5.85545748472213745117e-02) (70, -1.62762869149446487427e-02) (71, -4.81445752084255218506e-02) (72, -3.47099676728248596191e-02) (73, 5.48309832811355590820e-02) (74, -7.06651210784912109375e-02) (75, 7.90939629077911376953e-02) (76, -8.03130194544792175293e-02) (77, -7.31673315167427062988e-02) (78, -1.11542455852031707764e-02) (79, -8.10501128435134887695e-02) (80, 5.27771413326263427734e-02) (0, -1.63038633763790130615e-02) (1, -5.23124933242797851562e-02) (2, -5.31533621251583099365e-02) (3, -1.61096807569265365601e-02) (4, 4.61376905441284179688e-02) (5, 2.25973967462778091431e-02) (6, -9.36609730124473571777e-02) (7, -4.32492084801197052002e-02) (8, -8.14058333635330200195e-02) (9, -4.26131952553987503052e-03) (10, -9.74238514900207519531e-02) (11, -2.66428329050540924072e-02) (12, -8.57128500938415527344e-02) (13, 3.41561995446681976318e-02) (14, -6.53656721115112304688e-02) (15, 8.70459377765655517578e-02) (16, 8.62343907356262207031e-02) (17, 9.06806439161300659180e-02) (18, -7.21787735819816589355e-02) (19, 4.68272864818572998047e-02) (20, -2.48096697032451629639e-02) (21, -1.81257650256156921387e-02) (22, -8.79843384027481079102e-02) (23, -6.73531144857406616211e-02) (24, 1.39686316251754760742e-02) (25, 9.34581682085990905762e-02) (26, -4.60165403783321380615e-02) (27, 4.33708392083644866943e-02) (28, -1.81642733514308929443e-02) (29, -2.55864840000867843628e-02) (30, -7.52199091948568820953e-04) (31, 6.52169212698936462402e-02) (32, 2.64623593538999557495e-02) (33, 4.46906797587871551514e-02) (34, -4.73389290273189544678e-02) (35, -2.89590749889612197876e-02) (36, -2.89233028888702392578e-02) (37, -4.22376655042171478271e-02) (38, 3.15846465528011322021e-02) (39, -1.24114165082573890686e-02) (40, 5.67886605858802795410e-02) (41, 3.23478057980537414551e-02) (42, 6.55272677540779113770e-02) (43, 6.98701739311218261719e-02) (44, -2.97138616442680358887e-02) (45, 9.77745428681373596191e-02) (46, 6.01313635706901550293e-02) (47, -4.44826595485210418701e-02) (48, 9.14054885506629943848e-02) (49, 8.75847488641738891602e-02) (50, -9.46868360042572021484e-02) (51, -3.31636779010295867920e-02) (52, -2.80452240258455276489e-02) (53, -8.28139483928680419922e-02) (54, 2.34949449077248573303e-03) (55, 8.63951519131660461426e-02) (56, -8.75282809138298034668e-02) (57, 5.52692301571369171143e-02) (58, 3.25673893094062805176e-02) (59, -5.71295339614152908325e-03) (60, -6.81548044085502624512e-02) (61, -6.96672499179840087891e-02) (62, -3.77697348594665527344e-02) (63, 5.72123341262340545654e-02) (64, 7.70243778824806213379e-02) (65, 1.40270097181200981140e-02) (66, -6.95702284574508666992e-02) (67, -5.22832423448562622070e-02) (68, 7.42437615990638732910e-02) (69, 6.14334009587764739990e-02) (70, 3.85050922632217407227e-02) (71, 3.06580364704132080078e-02) (72, -2.64812074601650238037e-03) (73, 1.59607944078743457794e-03) (74, 3.46257770434021949768e-03) (75, 6.55891299247741699219e-02) (76, 2.86003062501549720764e-03) (77, -3.72796468436717987061e-02) (78, -7.54004642367362976074e-02) (79, -6.92728487774729728699e-03) (80, -4.70784381031990051270e-02) (0, -6.71941712498664855957e-02) (1, 6.51143044233322143555e-02) (2, 2.66204997897148132324e-02) (3, -4.89380769431591033936e-02) (4, -3.23224477469921112061e-02) (5, 1.65598578751087188721e-02) (6, -3.67423184216022491455e-02) (7, -7.49643966555595397949e-02) (8, -5.27352280914783477783e-02) (9, 6.11361972987651824951e-02) (10, -4.40409220755100250244e-02) (11, -1.82152669876813888550e-02) (12, -7.70890712738037109375e-02) (13, -8.29655379056930541992e-02) (14, -4.16845008730888366699e-02) (15, 3.97610552608966827393e-02) (16, -5.13779148459434509277e-02) (17, 9.61354374885559082031e-03) (18, 1.45780807361006736755e-02) (19, -8.81897360086441040039e-02) (20, -5.15058524906635284424e-02) (21, -5.27004338800907135010e-02) (22, 7.99740198999643325806e-03) (23, 5.16145825386047363281e-02) (24, 5.06835393607616424561e-02) (25, -2.37058512866497039795e-02) (26, -4.78465259075164794922e-02) (27, -8.43183845281600952148e-02) (28, -1.69740233104676008224e-03) (29, 4.91916835308074951172e-02) (30, -3.41869257390499114990e-02) (31, 3.11986766755580902100e-02) (32, 9.58864856511354446411e-03) (33, 9.60614383220672607422e-02) (34, 7.99179300665855407715e-02) (35, 7.87433087825775146484e-02) (36, 8.76711960881948471069e-03) (37, -5.62674738466739654541e-02) (38, 1.00232705473899841309e-01) (39, 5.86543045938014984131e-02) (40, -9.84664186835289001465e-02) (41, -4.18524555861949920654e-02) (42, -6.57131075859069824219e-02) (43, -7.48890414834022521973e-02) (44, -2.92250402271747589111e-02) (45, -3.20035428740084171295e-03) (46, 6.04452006518840789795e-02) (47, 2.00056862086057662964e-02) (48, -9.75189805030822753906e-02) (49, -2.40788850933313369751e-02) (50, 2.79801022261381149292e-02) (51, -4.92155775427818298340e-02) (52, 1.93674024194478988647e-02) (53, -6.31776526570320129395e-02) (54, 9.82089713215827941895e-02) (55, -2.95640937983989715576e-02) (56, 1.15987714380025863647e-02) (57, -4.72758971154689788818e-02) (58, -1.80286969989538192749e-02) (59, -9.01935324072837829590e-02) (60, 9.91597175598144531250e-02) (61, 5.13304360210895538330e-02) (62, 3.72033193707466125488e-02) (63, 1.01755289360880851746e-02) (64, 4.38377484679222106934e-02) (65, 1.71440765261650085449e-02) (66, -1.36726945638656616211e-02) (67, -4.61788997054100036621e-02) (68, 5.76839298009872436523e-02) (69, -1.35577889159321784973e-02) (70, -9.22338068485260009766e-02) (71, 5.94304017722606658936e-02) (72, 3.87429669499397277832e-02) (73, -5.34647852182388305664e-02) (74, 8.11720564961433410645e-02) (75, -8.66532176733016967773e-02) (76, 3.78847531974315643311e-02) (77, 4.29184064269065856934e-02) (78, 2.61289663612842559814e-02) (79, 4.31811548769474029541e-02) (80, -8.65070074796676635742e-02) (0, -4.55266349017620086670e-02) (1, 8.86275917291641235352e-02) (2, 3.35540473461151123047e-02) (3, -1.00717423483729362488e-02) (4, 8.61240252852439880371e-02) (5, -9.97104421257972717285e-02) (6, 9.93245765566825866699e-02) (7, -6.32641837000846862793e-02) (8, -1.73581298440694808960e-02) (9, -9.42379906773567199707e-02) (10, -6.50583207607269287109e-02) (11, -6.94375336170196533203e-02) (12, 4.18042615056037902832e-02) (13, 4.15581129491329193115e-02) (14, 7.38922432065010070801e-02) (15, -4.34633828699588775635e-02) (16, -7.49635547399520874023e-02) (17, -7.57120326161384582520e-02) (18, -8.78067761659622192383e-02) (19, 9.31052677333354949951e-03) (20, -6.87566399574279785156e-02) (21, 6.91090002655982971191e-02) (22, -5.07598184049129486084e-02) (23, -2.45695114135742187500e-02) (24, 4.85627204179763793945e-02) (25, -4.07526157796382904053e-02) (26, -8.55825617909431457520e-02) (27, -1.15679968148469924927e-02) (28, 8.84250104427337646484e-02) (29, 5.36908134818077087402e-02) (30, 3.77347064204514026642e-03) (31, -5.72470165789127349854e-02) (32, 4.29380238056182861328e-02) (33, -6.58502653241157531738e-02) (34, 3.13693732023239135742e-02) (35, 2.86937467753887176514e-02) (36, -6.52338266372680664062e-02) (37, 3.10909040272235870361e-02) (38, 6.53120279312133789062e-02) (39, 1.62063371390104293823e-02) (40, 3.71052622795104980469e-02) (41, -1.00568264722824096680e-01) (42, 4.87320870161056518555e-02) (43, -2.10393313318490982056e-02) (44, 4.17804531753063201904e-02) (45, 2.00541261583566665649e-02) (46, 3.69385033845901489258e-02) (47, 6.67701140046119689941e-02) (48, 4.54997271299362182617e-02) (49, 4.82041612267494201660e-02) (50, -2.27883793413639068604e-02) (51, 7.63955786824226379395e-02) (52, 1.90975293517112731934e-02) (53, 2.52666454762220382690e-02) (54, -4.63994182646274566650e-02) (55, -3.37701812386512756348e-02) (56, 8.42036232352256774902e-02) (57, -3.41403558850288391113e-02) (58, 5.64450435340404510498e-02) (59, 7.23833888769149780273e-02) (60, -7.96293169260025024414e-02) (61, -4.27871458232402801514e-02) (62, -8.34671109914779663086e-02) (63, 6.25077262520790100098e-02) (64, -6.81782653555274009705e-03) (65, 4.85598556697368621826e-02) (66, -8.18962510675191879272e-03) (67, 2.66383569687604904175e-02) (68, -1.93104036152362823486e-02) (69, -4.24421243369579315186e-02) (70, -5.51609620451927185059e-02) (71, -8.24753865599632263184e-02) (72, -4.00646701455116271973e-02) (73, 9.07355919480323791504e-02) (74, -2.97008571214973926544e-03) (75, -1.00798174738883972168e-01) (76, 1.31858009845018386841e-02) (77, -6.66789561510086059570e-02) (78, 7.05969780683517456055e-02) (79, -4.34120111167430877686e-02) (80, 8.28770250082015991211e-02) (0, -5.30200712382793426514e-02) (1, -6.33076429367065429688e-02) (2, 1.93262635730206966400e-03) (3, 7.27127268910408020020e-02) (4, -1.07667520642280578613e-02) (5, 7.06684142351150512695e-02) (6, 5.68716973066329956055e-02) (7, 5.64808361232280731201e-02) (8, 2.46112495660781860352e-02) (9, 3.18305827677249908447e-02) (10, 7.55132958292961120605e-02) (11, 8.48858579993247985840e-02) (12, 4.73833084106445312500e-02) (13, 4.10025455057621002197e-02) (14, -2.38035079091787338257e-02) (15, -1.88272481318563222885e-03) (16, -6.63933679461479187012e-02) (17, -9.43908765912055969238e-02) (18, 7.90551528334617614746e-02) (19, -7.37689435482025146484e-03) (20, -4.97197397053241729736e-02) (21, 9.82961133122444152832e-02) (22, 5.06350249052047729492e-02) (23, -5.76556660234928131104e-02) (24, -3.79253667779266834259e-03) (25, 5.21299988031387329102e-02) (26, 5.33216297626495361328e-02) (27, 3.15813571214675903320e-02) (28, 1.82629544287919998169e-02) (29, -8.66467952728271484375e-02) (30, 1.25499581918120384216e-02) (31, 6.55209720134735107422e-02) (32, -5.35472109913825988770e-02) (33, -8.24425444006919860840e-02) (34, 3.65147888660430908203e-02) (35, 3.69963049888610839844e-02) (36, 8.52381885051727294922e-02) (37, -6.06916891410946846008e-03) (38, -9.21372510492801666260e-03) (39, 1.20712164789438247681e-02) (40, -7.67850354313850402832e-02) (41, -3.19277569651603698730e-02) (42, -7.75470817461609840393e-03) (43, 7.13424384593963623047e-02) (44, -9.41534563899040222168e-02) (45, 7.18688964843750000000e-02) (46, -3.39035019278526306152e-02) (47, -5.99829964339733123779e-02) (48, 7.44991600513458251953e-02) (49, -5.39734587073326110840e-02) (50, 2.97264941036701202393e-02) (51, -7.52103552222251892090e-02) (52, -5.87035305798053741455e-02) (53, -1.88167504966259002686e-02) (54, -3.61208207905292510986e-02) (55, 3.81145179271697998047e-02) (56, -6.78375586867332458496e-02) (57, -8.06557536125183105469e-02) (58, -3.35459150373935699463e-02) (59, 5.05565106868743896484e-02) (60, -6.94313496351242065430e-02) (61, 8.19886177778244018555e-02) (62, 1.31491888314485549927e-02) (63, -2.17349007725715637207e-02) (64, 9.67881456017494201660e-02) (65, -5.02248182892799377441e-02) (66, -8.67419019341468811035e-02) (67, 8.31824019551277160645e-02) (68, 4.11755181849002838135e-02) (69, 4.10181982442736625671e-03) (70, -8.38861148804426193237e-03) (71, 6.47844076156616210938e-02) (72, 6.76404535770416259766e-02) (73, 8.74787047505378723145e-02) (74, 3.35621312260627746582e-02) (75, 7.64804035425186157227e-02) (76, 5.52174970507621765137e-02) (77, 1.00762404501438140869e-01) (78, -8.90884920954704284668e-02) (79, 3.19456234574317932129e-02) (80, -5.71206212043762207031e-02) (0, 4.16115708649158477783e-02) (1, 5.20204119384288787842e-02) (2, -1.66058503091335296631e-02) (3, -7.93726742267608642578e-02) (4, -8.36971774697303771973e-02) (5, -8.05586725473403930664e-02) (6, -4.89447414875030517578e-02) (7, -6.66633620858192443848e-02) (8, -1.35417580604553222656e-02) (9, 9.92764756083488464355e-02) (10, -3.68334315717220306396e-02) (11, -3.41579392552375793457e-02) (12, 1.25765465199947357178e-02) (13, 3.89412716031074523926e-02) (14, -3.76100949943065643311e-02) (15, 5.96894361078739166260e-02) (16, 5.10955341160297393799e-02) (17, -5.69528341293334960938e-02) (18, 1.53622953803278505802e-04) (19, -4.73064444959163665771e-02) (20, 3.49050015211105346680e-02) (21, -3.75255383551120758057e-02) (22, -7.85990953445434570312e-02) (23, 1.99790298938751220703e-02) (24, 9.50842201709747314453e-02) (25, 9.54518020153045654297e-02) (26, -2.39513181149959564209e-02) (27, 9.33671817183494567871e-02) (28, -9.14152637124061584473e-02) (29, -9.48159098625183105469e-02) (30, -6.31903484463691711426e-02) (31, 4.99675422906875610352e-02) (32, 5.87592199444770812988e-02) (33, 2.00173053890466690063e-02) (34, 7.21289739012718200684e-02) (35, 7.44150355458259582520e-02) (36, 4.08661998808383941650e-02) (37, -7.74538889527320861816e-02) (38, -9.08006876707077026367e-02) (39, -7.34409466385841369629e-02) (40, -7.69414901733398437500e-02) (41, -2.83028669655323028564e-02) (42, -6.14764075726270675659e-03) (43, 3.50298620760440826416e-02) (44, -8.80303755402565002441e-02) (45, 5.55836297571659088135e-02) (46, -4.27412055432796478271e-03) (47, 6.25692754983901977539e-02) (48, 9.95743423700332641602e-02) (49, 9.57734212279319763184e-02) (50, -8.37863087654113769531e-02) (51, 3.45179736614227294922e-02) (52, -4.10573072731494903564e-02) (53, -6.23584911227226257324e-02) (54, -4.46618422865867614746e-02) (55, -4.57218959927558898926e-02) (56, -6.61465749144554138184e-02) (57, 3.11726797372102737427e-02) (58, -5.15467524528503417969e-02) (59, -5.76895400881767272949e-02) (60, 3.70515733957290649414e-02) (61, -1.49989724159240722656e-02) (62, 9.30712819099426269531e-02) (63, -4.58779977634549140930e-03) (64, -9.45107415318489074707e-02) (65, 6.47036656737327575684e-02) (66, -2.94592417776584625244e-02) (67, 4.62897382676601409912e-02) (68, 8.80075842142105102539e-02) (69, -2.06279270350933074951e-02) (70, 7.37789273262023925781e-02) (71, -8.91568884253501892090e-02) (72, 5.19731789827346801758e-02) (73, -3.30027826130390167236e-02) (74, 4.68576215207576751709e-02) (75, 6.34241849184036254883e-02) (76, -7.65038207173347473145e-02) (77, -5.77193200588226318359e-02) (78, 2.65873800963163375854e-02) (79, -7.71289244294166564941e-02) (80, -6.14842548966407775879e-02) (0, 4.12860065698623657227e-02) (1, 5.63251450657844543457e-02) (2, -1.57459080219268798828e-03) (3, 7.94292315840721130371e-02) (4, -8.71367380023002624512e-02) (5, 5.10552860796451568604e-02) (6, -8.41337367892265319824e-02) (7, 4.34748642146587371826e-02) (8, -9.72593352198600769043e-02) (9, -4.37145978212356567383e-02) (10, -1.62299610674381256104e-02) (11, -1.48722901940345764160e-02) (12, -4.84520047903060913086e-02) (13, 7.66578838229179382324e-02) (14, -6.39401562511920928955e-03) (15, -8.53325575590133666992e-02) (16, -5.15913143754005432129e-02) (17, -6.21804706752300262451e-02) (18, -9.61292460560798645020e-02) (19, 2.72207781672477722168e-02) (20, -8.78714025020599365234e-02) (21, -8.58916416764259338379e-02) (22, -1.94107685238122940063e-02) (23, -2.10115704685449600220e-02) (24, 6.19361139833927154541e-02) (25, -5.70014454424381256104e-02) (26, 5.23869507014751434326e-03) (27, -9.64919775724411010742e-02) (28, 7.27942734956741333008e-02) (29, 2.56547182798385620117e-02) (30, -5.36414459347724914551e-02) (31, 1.30568789318203926086e-02) (32, -1.28395957872271537781e-02) (33, 4.06174361705780029297e-02) (34, -4.24763094633817672729e-03) (35, -2.36891885288059711456e-03) (36, -3.78600275143980979919e-03) (37, 9.85367503017187118530e-03) (38, -5.46860955655574798584e-02) (39, -4.76662907749414443970e-03) (40, 7.01607987284660339355e-02) (41, 2.58113164454698562622e-02) (42, 8.67236480116844177246e-02) (43, -8.04096609354019165039e-02) (44, 7.41389999166131019592e-03) (45, -2.45896987617015838623e-02) (46, -6.09383024275302886963e-02) (47, 5.38394562900066375732e-02) (48, 1.75058692693710327148e-02) (49, -5.89380115270614624023e-02) (50, -1.47090973332524299622e-02) (51, 2.87921633571386337280e-02) (52, -4.06914316117763519287e-02) (53, 6.42297863960266113281e-02) (54, -8.76436904072761535645e-02) (55, -7.99826905131340026855e-02) (56, -9.06847566366195678711e-02) (57, 1.42130469903349876404e-02) (58, -7.19815418124198913574e-02) (59, 8.10839906334877014160e-02) (60, -5.68993166089057922363e-02) (61, -3.00339907407760620117e-02) (62, -1.75452115945518016815e-03) (63, 2.77976430952548980713e-02) (64, -8.58945623040199279785e-02) (65, 9.26223173737525939941e-02) (66, -7.15739205479621887207e-02) (67, 8.29480774700641632080e-03) (68, 6.06934586539864540100e-03) (69, -2.73927859961986541748e-02) (70, -9.14428755640983581543e-02) (71, -2.52803657203912734985e-02) (72, -9.55748632550239562988e-02) (73, 9.00294631719589233398e-02) (74, -2.00653518550097942352e-03) (75, 7.04336026683449745178e-03) (76, -2.90453992784023284912e-02) (77, 3.47618050873279571533e-02) (78, -3.21094430983066558838e-02) (79, 8.49013924598693847656e-02) (80, 7.80726447701454162598e-02) (0, 5.16496449708938598633e-02) (1, 1.89997851848602294922e-02) (2, -5.99087737500667572021e-02) (3, 1.77891869097948074341e-02) (4, 3.10876034200191497803e-02) (5, -3.72968316078186035156e-02) (6, 2.89225149899721145630e-02) (7, -5.25496490299701690674e-02) (8, -9.96729545295238494873e-03) (9, 1.25976931303739547729e-02) (10, -8.59120301902294158936e-03) (11, 6.27395138144493103027e-02) (12, -8.89239162206649780273e-02) (13, -7.82797783613204956055e-02) (14, 7.73954540491104125977e-02) (15, -9.39629748463630676270e-02) (16, -4.82773259282112121582e-02) (17, -1.16297863423824310303e-02) (18, 1.30930645391345024109e-02) (19, 2.65901759266853332520e-02) (20, -3.30120744183659553528e-03) (21, 9.01547893881797790527e-02) (22, 2.95815803110599517822e-02) (23, -1.10588055104017257690e-02) (24, -1.07231438159942626953e-02) (25, -6.08465000987052917480e-02) (26, 5.87343126535415649414e-02) (27, -7.35767111182212829590e-02) (28, 4.33852570131421089172e-03) (29, 4.65602278709411621094e-02) (30, -9.36599001288414001465e-02) (31, -4.43953238427639007568e-02) (32, -3.56274172663688659668e-02) (33, -5.30311837792396545410e-02) (34, 7.29630142450332641602e-02) (35, 9.55374017357826232910e-02) (36, 8.84944666177034378052e-03) (37, 1.61003717221319675446e-03) (38, -5.78269027173519134521e-02) (39, 9.91116091609001159668e-02) (40, -8.65821838378906250000e-02) (41, 3.35335955023765563965e-02) (42, 6.02773912250995635986e-02) (43, -7.58022367954254150391e-02) (44, 5.42087927460670471191e-02) (45, 3.84505353868007659912e-02) (46, -7.06463605165481567383e-02) (47, -9.42868068814277648926e-02) (48, -7.40185230970382690430e-02) (49, 4.20874431729316711426e-02) (50, 3.14681939780712127686e-02) (51, 2.20886990427970886230e-02) (52, 3.13559174537658691406e-02) (53, -3.92887741327285766602e-02) (54, -8.99468585848808288574e-02) (55, -7.98534080386161804199e-02) (56, -4.00362885557115077972e-04) (57, 6.88816979527473449707e-02) (58, -5.43215200304985046387e-02) (59, -9.65966433286666870117e-02) (60, 1.49547085165977478027e-02) (61, -4.76587004959583282471e-02) (62, -4.18988354504108428955e-02) (63, 7.92324244976043701172e-02) (64, -1.59265578258782625198e-03) (65, -6.93984776735305786133e-02) (66, 7.42022097110748291016e-02) (67, -9.28463637828826904297e-02) (68, 3.14700454473495483398e-02) (69, -8.40971544384956359863e-02) (70, -9.48941633105278015137e-02) (71, 4.45380508899688720703e-02) (72, 4.78233471512794494629e-02) (73, 6.62067830562591552734e-02) (74, 6.78181946277618408203e-02) (75, 2.75939586572349071503e-03) (76, 3.15282819792628288269e-03) (77, 9.70106944441795349121e-02) (78, 6.56940694898366928101e-03) (79, 2.94885635375976562500e-02) (80, 3.67667265236377716064e-02) (0, -6.85329139232635498047e-02) (1, -5.51540814340114593506e-02) (2, -3.14780957996845245361e-02) (3, -7.33843538910150527954e-03) (4, -4.40843254327774047852e-02) (5, -1.74305718392133712769e-02) (6, 9.65049713850021362305e-02) (7, -7.75229483842849731445e-02) (8, 3.48387621343135833740e-02) (9, 9.36211273074150085449e-02) (10, 4.27280627191066741943e-02) (11, 7.91362375020980834961e-02) (12, -4.52539026737213134766e-02) (13, 1.48007245734333992004e-02) (14, -1.76362879574298858643e-02) (15, -1.91407874226570129395e-02) (16, -1.14290295168757438660e-02) (17, -1.68027207255363464355e-02) (18, -8.70810672640800476074e-02) (19, 3.02474224008619785309e-03) (20, -1.23124308884143829346e-02) (21, 5.51202036440372467041e-02) (22, -4.63097617030143737793e-02) (23, -4.68829497694969177246e-02) (24, 2.39434409886598587036e-02) (25, 5.25797381997108459473e-02) (26, 6.24697208404541015625e-02) (27, 1.81310474872589111328e-02) (28, -3.37575189769268035889e-02) (29, -1.55361043289303779602e-02) (30, -3.47700417041778564453e-02) (31, -3.05290543474256992340e-03) (32, 4.22521494328975677490e-02) (33, 2.36165914684534072876e-02) (34, -1.03811874985694885254e-01) (35, 9.36546623706817626953e-02) (36, -8.31541121006011962891e-02) (37, 9.07176733016967773438e-02) (38, -7.41517841815948486328e-02) (39, 4.40024249255657196045e-02) (40, 9.33784544467926025391e-02) (41, 6.28164634108543395996e-02) (42, 3.97486984729766845703e-02) (43, -5.41835278272628784180e-02) (44, -1.07253566384315490723e-02) (45, -8.94808769226074218750e-02) (46, 3.84406596422195434570e-02) (47, 7.61171802878379821777e-02) (48, 4.17478056624531745911e-03) (49, 4.87293004989624023438e-02) (50, -1.06428479775786399841e-02) (51, 9.22328829765319824219e-02) (52, 1.40473004430532455444e-02) (53, 4.06931042671203613281e-02) (54, -4.34414483606815338135e-02) (55, -6.31791725754737854004e-02) (56, -2.53538624383509159088e-03) (57, -8.76937732100486755371e-02) (58, 6.61773234605789184570e-02) (59, 6.35872632265090942383e-02) (60, 4.07004402950406074524e-03) (61, -7.84408971667289733887e-02) (62, -2.93942354619503021240e-02) (63, -5.77012896537780761719e-02) (64, 5.44538721442222595215e-02) (65, -3.34506221115589141846e-02) (66, -5.71639463305473327637e-02) (67, 6.79444968700408935547e-02) (68, -3.41298989951610565186e-02) (69, -3.11780497431755065918e-02) (70, 2.46198698878288269043e-02) (71, -4.15093749761581420898e-02) (72, -5.28052970767021179199e-02) (73, -4.78724576532840728760e-02) (74, 1.33445123210549354553e-02) (75, 2.64046657830476760864e-02) (76, -2.30474434792995452881e-02) (77, -5.16945682466030120850e-02) (78, 2.15036589652299880981e-02) (79, 7.38620981574058532715e-02) (80, -8.97969529032707214355e-02) (0, -9.16124433279037475586e-02) (1, 8.12483504414558410645e-02) (2, 2.65476014465093612671e-02) (3, 5.53463958203792572021e-02) (4, -6.18821978569030761719e-02) (5, 7.10067823529243469238e-02) (6, -4.05158661305904388428e-02) (7, -4.26341556012630462646e-02) (8, 3.65985855460166931152e-02) (9, -6.91484883427619934082e-02) (10, 6.49888962507247924805e-02) (11, 6.63723871111869812012e-02) (12, 2.98725813627243041992e-03) (13, -8.44668000936508178711e-02) (14, 2.29840800166130065918e-02) (15, 7.73035809397697448730e-02) (16, -3.59083563089370727539e-02) (17, -8.57941049616783857346e-04) (18, -5.28501458466053009033e-02) (19, 4.02522645890712738037e-02) (20, -7.58594423532485961914e-02) (21, 1.33234066888689994812e-02) (22, 8.45071598887443542480e-02) (23, -1.61985363811254501343e-02) (24, -6.93733319640159606934e-02) (25, 1.91990211606025695801e-02) (26, 5.87437450885772705078e-02) (27, -1.28241805359721183777e-02) (28, -6.58236891031265258789e-02) (29, 4.18511629104614257812e-02) (30, -3.73559212312102317810e-03) (31, -5.70906773209571838379e-02) (32, 2.05923002213239669800e-02) (33, -7.49565213918685913086e-02) (34, 9.69284921884536743164e-02) (35, 5.97197487950325012207e-02) (36, 9.39470157027244567871e-02) (37, -4.30150702595710754395e-02) (38, -8.48419740796089172363e-02) (39, 3.22327762842178344727e-02) (40, -1.39425368979573249817e-02) (41, 8.15740227699279785156e-02) (42, -4.67264931648969650269e-03) (43, 8.97157415747642517090e-02) (44, 9.48089361190795898438e-02) (45, -7.92096033692359924316e-02) (46, 6.45822361111640930176e-02) (47, -4.06039096415042877197e-02) (48, 1.77832916378974914551e-02) (49, -8.74445736408233642578e-02) (50, 9.75439175963401794434e-02) (51, 4.21518608927726745605e-02) (52, 2.38193459808826446533e-02) (53, 8.28347131609916687012e-02) (54, -7.62784853577613830566e-02) (55, 5.49991577863693237305e-02) (56, 1.20420148596167564392e-03) (57, 8.40648934245109558105e-02) (58, -6.00886642932891845703e-02) (59, 3.55968996882438659668e-02) (60, 2.44092997163534164429e-02) (61, 3.83746139705181121826e-02) (62, 7.65002891421318054199e-02) (63, -5.40286935865879058838e-02) (64, 6.15606866776943206787e-02) (65, 7.36835449934005737305e-02) (66, -9.56879407167434692383e-02) (67, 5.63588365912437438965e-02) (68, -7.10793435573577880859e-02) (69, -8.03596451878547668457e-02) (70, -1.39216957613825798035e-02) (71, 1.53422513976693153381e-02) (72, 9.81730967760086059570e-02) (73, 8.40067416429519653320e-02) (74, 3.24647477827966213226e-03) (75, 9.51118767261505126953e-02) (76, -9.80188623070716857910e-02) (77, -3.11646033078432083130e-02) (78, -4.92798499763011932373e-02) (79, 2.14548669755458831787e-02) (80, -2.13346313685178756714e-02) (0, -4.62025217711925506592e-02) (1, -3.55650931596755981445e-02) (2, -9.69180017709732055664e-02) (3, -6.54848515987396240234e-02) (4, -1.25113893300294876099e-02) (5, 5.97625374794006347656e-02) (6, 3.13482843339443206787e-02) (7, -2.89108790457248687744e-02) (8, 9.56095308065414428711e-02) (9, -3.12545187771320343018e-02) (10, 9.14672091603279113770e-02) (11, 3.68737578392028808594e-02) (12, -5.69982677698135375977e-02) (13, -6.05268441140651702881e-02) (14, -5.03063481301069259644e-03) (15, -8.26303660869598388672e-02) (16, -5.74156753718852996826e-02) (17, -4.69739586114883422852e-02) (18, -5.50014898180961608887e-02) (19, -3.88731732964515686035e-02) (20, 3.96943129599094390869e-02) (21, 5.96398711204528808594e-02) (22, -4.13617230951786041260e-02) (23, 2.18348726630210876465e-02) (24, -3.84286381304264068604e-02) (25, -4.63686026632785797119e-02) (26, 2.04876065254211425781e-02) (27, 2.96796001493930816650e-02) (28, 1.62362318951636552811e-03) (29, -5.58094158768653869629e-02) (30, -9.70543101429939270020e-02) (31, 5.50474189221858978271e-02) (32, 1.81951880222186446190e-04) (33, -8.89824703335762023926e-02) (34, 8.50483030080795288086e-02) (35, 8.99526476860046386719e-02) (36, 6.38850629329681396484e-02) (37, 1.69500317424535751343e-02) (38, -4.53836843371391296387e-02) (39, 6.34590461850166320801e-02) (40, 7.98930451273918151855e-02) (41, -5.13075590133666992188e-02) (42, -1.00171677768230438232e-02) (43, -7.65009149909019470215e-02) (44, -1.90993230789899826050e-02) (45, 9.10800993442535400391e-02) (46, -6.59842342138290405273e-02) (47, 2.37417947500944137573e-02) (48, -6.22009783983230590820e-02) (49, -2.07597427070140838623e-02) (50, 7.87946730852127075195e-02) (51, 7.59689137339591979980e-02) (52, -6.71301782131195068359e-02) (53, -6.26112073659896850586e-02) (54, -8.91029182821512222290e-03) (55, -6.31002616137266159058e-03) (56, -1.16309095174074172974e-02) (57, -8.55389609932899475098e-02) (58, -8.33308920264244079590e-02) (59, 8.90878215432167053223e-02) (60, -4.56915721297264099121e-02) (61, -7.57472142577171325684e-02) (62, 3.80412638187408447266e-02) (63, 5.61594553291797637939e-02) (64, -7.03734979033470153809e-02) (65, 2.24706977605819702148e-02) (66, 4.18633222579956054688e-02) (67, 9.47210714221000671387e-02) (68, -6.59150034189224243164e-02) (69, 9.57341417670249938965e-02) (70, 5.04161305725574493408e-02) (71, -8.63875821232795715332e-02) (72, -6.51623532176017761230e-02) (73, -5.30781224370002746582e-02) (74, -6.86524435877799987793e-02) (75, 2.09488756954669952393e-02) (76, -7.07292035222053527832e-02) (77, -3.37561927735805511475e-02) (78, -6.63828551769256591797e-02) (79, -2.97221355140209197998e-02) (80, 3.53758595883846282959e-02) (0, -7.97760784626007080078e-02) (1, -5.70996403694152832031e-02) (2, 6.67550861835479736328e-02) (3, -4.83340211212635040283e-02) (4, 3.11411339789628982544e-02) (5, -3.73341590166091918945e-02) (6, 2.81588062644004821777e-02) (7, 4.30206172168254852295e-02) (8, -3.06413657963275909424e-02) (9, 1.95276904851198196411e-02) (10, 8.58493819832801818848e-02) (11, -2.06644996069371700287e-03) (12, -4.88393492996692657471e-02) (13, 4.52990382909774780273e-02) (14, 1.82928480207920074463e-02) (15, 7.34211429953575134277e-02) (16, -1.75042767077684402466e-02) (17, 1.50419771671295166016e-02) (18, 1.02724932134151458740e-01) (19, -2.59004365652799606323e-02) (20, -3.50868813693523406982e-02) (21, -8.67806375026702880859e-02) (22, 6.34603993967175483704e-03) (23, 6.75075268372893333435e-03) (24, -6.06248937547206878662e-02) (25, -7.40362107753753662109e-02) (26, 2.80790682882070541382e-02) (27, 