FANN_FLO_2.1
num_layers=3
learning_rate=0.800000
connection_rate=1.000000
network_type=0
learning_momentum=0.500000
training_algorithm=0
train_error_function=1
train_stop_function=0
cascade_output_change_fraction=0.010000
quickprop_decay=-0.000100
quickprop_mu=1.750000
rprop_increase_factor=1.200000
rprop_decrease_factor=0.500000
rprop_delta_min=0.000000
rprop_delta_max=50.000000
rprop_delta_zero=0.100000
cascade_output_stagnation_epochs=12
cascade_candidate_change_fraction=0.010000
cascade_candidate_stagnation_epochs=12
cascade_max_out_epochs=150
cascade_min_out_epochs=10
cascade_max_cand_epochs=150
cascade_min_cand_epochs=10
cascade_num_candidate_groups=2
bit_fail_limit=3.49999994039535522461e-01
cascade_candidate_limit=1.00000000000000000000e+03
cascade_weight_multiplier=4.00000005960464477539e-01
cascade_activation_functions_count=10
cascade_activation_functions=3 5 7 8 10 11 14 15 16 17 
cascade_activation_steepnesses_count=4
cascade_activation_steepnesses=2.50000000000000000000e-01 5.00000000000000000000e-01 7.50000000000000000000e-01 1.00000000000000000000e+00 
layer_sizes=81 41 2 
scale_included=0
neurons (num_inputs, activation_function, activation_steepness)=(0, 0, 0.00000000000000000000e+00) (0, 0, 0.00000000000000000000e+00) (0, 0, 0.00000000000000000000e+00) (0, 0, 0.00000000000000000000e+00) (0, 0, 0.00000000000000000000e+00) (0, 0, 0.00000000000000000000e+00) (0, 0, 0.00000000000000000000e+00) (0, 0, 0.00000000000000000000e+00) (0, 0, 0.00000000000000000000e+00) (0, 0, 0.00000000000000000000e+00) (0, 0, 0.00000000000000000000e+00) (0, 0, 0.00000000000000000000e+00) (0, 0, 0.00000000000000000000e+00) (0, 0, 0.00000000000000000000e+00) (0, 0, 0.00000000000000000000e+00) (0, 0, 0.00000000000000000000e+00) (0, 0, 0.00000000000000000000e+00) (0, 0, 0.00000000000000000000e+00) (0, 0, 0.00000000000000000000e+00) (0, 0, 0.00000000000000000000e+00) (0, 0, 0.00000000000000000000e+00) (0, 0, 0.00000000000000000000e+00) (0, 0, 0.00000000000000000000e+00) (0, 0, 0.00000000000000000000e+00) (0, 0, 0.00000000000000000000e+00) (0, 0, 0.00000000000000000000e+00) (0, 0, 0.00000000000000000000e+00) (0, 0, 0.00000000000000000000e+00) (0, 0, 0.00000000000000000000e+00) (0, 0, 0.00000000000000000000e+00) (0, 0, 0.00000000000000000000e+00) (0, 0, 0.00000000000000000000e+00) (0, 0, 0.00000000000000000000e+00) (0, 0, 0.00000000000000000000e+00) (0, 0, 0.00000000000000000000e+00) (0, 0, 0.00000000000000000000e+00) (0, 0, 0.00000000000000000000e+00) (0, 0, 0.00000000000000000000e+00) (0, 0, 0.00000000000000000000e+00) (0, 0, 0.00000000000000000000e+00) (0, 0, 0.00000000000000000000e+00) (0, 0, 0.00000000000000000000e+00) (0, 0, 0.00000000000000000000e+00) (0, 0, 0.00000000000000000000e+00) (0, 0, 0.00000000000000000000e+00) (0, 0, 0.00000000000000000000e+00) (0, 0, 0.00000000000000000000e+00) (0, 0, 0.00000000000000000000e+00) (0, 0, 0.00000000000000000000e+00) (0, 0, 0.00000000000000000000e+00) (0, 0, 0.00000000000000000000e+00) (0, 0, 0.00000000000000000000e+00) (0, 0, 0.00000000000000000000e+00) (0, 0, 0.00000000000000000000e+00) (0, 0, 0.00000000000000000000e+00) (0, 0, 0.00000000000000000000e+00) (0, 0, 0.00000000000000000000e+00) (0, 0, 0.00000000000000000000e+00) (0, 0, 0.00000000000000000000e+00) (0, 0, 0.00000000000000000000e+00) (0, 0, 0.00000000000000000000e+00) (0, 0, 0.00000000000000000000e+00) (0, 0, 0.00000000000000000000e+00) (0, 0, 0.00000000000000000000e+00) (0, 0, 0.00000000000000000000e+00) (0, 0, 0.00000000000000000000e+00) (0, 0, 0.00000000000000000000e+00) (0, 0, 0.00000000000000000000e+00) (0, 0, 0.00000000000000000000e+00) (0, 0, 0.00000000000000000000e+00) (0, 0, 0.00000000000000000000e+00) (0, 0, 0.00000000000000000000e+00) (0, 0, 0.00000000000000000000e+00) (0, 0, 0.00000000000000000000e+00) (0, 0, 0.00000000000000000000e+00) (0, 0, 0.00000000000000000000e+00) (0, 0, 0.00000000000000000000e+00) (0, 0, 0.00000000000000000000e+00) (0, 0, 0.00000000000000000000e+00) (0, 0, 0.00000000000000000000e+00) (0, 0, 0.00000000000000000000e+00) (81, 6, 5.00000000000000000000e-01) (81, 6, 5.00000000000000000000e-01) (81, 6, 5.00000000000000000000e-01) (81, 6, 5.00000000000000000000e-01) (81, 6, 5.00000000000000000000e-01) (81, 6, 5.00000000000000000000e-01) (81, 6, 5.00000000000000000000e-01) (81, 6, 5.00000000000000000000e-01) (81, 6, 5.00000000000000000000e-01) (81, 6, 5.00000000000000000000e-01) (81, 6, 5.00000000000000000000e-01) (81, 6, 5.00000000000000000000e-01) (81, 6, 5.00000000000000000000e-01) (81, 6, 5.00000000000000000000e-01) (81, 6, 5.00000000000000000000e-01) (81, 6, 5.00000000000000000000e-01) (81, 6, 5.00000000000000000000e-01) (81, 6, 5.00000000000000000000e-01) (81, 6, 5.00000000000000000000e-01) (81, 6, 5.00000000000000000000e-01) (81, 6, 5.00000000000000000000e-01) (81, 6, 5.00000000000000000000e-01) (81, 6, 5.00000000000000000000e-01) (81, 6, 5.00000000000000000000e-01) (81, 6, 5.00000000000000000000e-01) (81, 6, 5.00000000000000000000e-01) (81, 6, 5.00000000000000000000e-01) (81, 6, 5.00000000000000000000e-01) (81, 6, 5.00000000000000000000e-01) (81, 6, 5.00000000000000000000e-01) (81, 6, 5.00000000000000000000e-01) (81, 6, 5.00000000000000000000e-01) (81, 6, 5.00000000000000000000e-01) (81, 6, 5.00000000000000000000e-01) (81, 6, 5.00000000000000000000e-01) (81, 6, 5.00000000000000000000e-01) (81, 6, 5.00000000000000000000e-01) (81, 6, 5.00000000000000000000e-01) (81, 6, 5.00000000000000000000e-01) (81, 6, 5.00000000000000000000e-01) (0, 6, 0.00000000000000000000e+00) (41, 8, 5.00000000000000000000e-01) (0, 8, 0.00000000000000000000e+00) 
connections (connected_to_neuron, weight)=(0, -2.64603756368160247803e-02) (1, 1.23411286622285842896e-02) (2, -4.35985364019870758057e-02) (3, 1.23877553269267082214e-02) (4, 1.89955681562423706055e-02) (5, 4.09941771067678928375e-04) (6, -1.60069894045591354370e-02) (7, 9.13140177726745605469e-02) (8, -9.23809483647346496582e-02) (9, 9.23263095319271087646e-03) (10, 5.09721525013446807861e-02) (11, 9.47552546858787536621e-02) (12, 7.28917168453335762024e-03) (13, 9.52594205737113952637e-02) (14, 9.72424447536468505859e-02) (15, 3.44547443091869354248e-02) (16, -2.08819285035133361816e-03) (17, -2.73929573595523834229e-02) (18, -4.94556166231632232666e-02) (19, -1.49900433825678192079e-05) (20, 2.55608316510915756226e-02) (21, 2.81608942896127700806e-03) (22, -3.33950184285640716553e-02) (23, -4.50082235038280487061e-02) (24, 3.04057588800787925720e-03) (25, 9.50238332152366638184e-02) (26, -1.76600869745016098022e-02) (27, 8.38170200586318969727e-02) (28, -9.55550149083137512207e-02) (29, -4.18152399361133575439e-02) (30, -3.13683901913464069366e-03) (31, -1.70273240655660629272e-02) (32, 7.47248381376266479492e-02) (33, 5.11159449815750122070e-02) (34, 9.63771939277648925781e-02) (35, -9.64692328125238418579e-03) (36, -4.68976087868213653564e-02) (37, -2.07528769969940185547e-02) (38, -1.89404021948575973511e-02) (39, -4.35706041753292083740e-02) (40, 8.65966677665710449219e-02) (41, -6.58252611756324768066e-02) (42, -4.40592765808105468750e-02) (43, -5.94489509239792823792e-03) (44, -7.09061026573181152344e-02) (45, -5.20292297005653381348e-02) (46, -7.45785459876060485840e-02) (47, 2.54983529448509216309e-02) (48, 1.80335976183414459229e-02) (49, -2.07004006952047348022e-02) (50, -7.93598890304565429688e-02) (51, -5.47660887241363525391e-02) (52, 7.97454118728637695312e-02) (53, -1.05143040418624877930e-02) (54, -4.05418081209063529968e-03) (55, -1.63969062268733978271e-02) (56, -1.64148118346929550171e-02) (57, 7.96508342027664184570e-02) (58, -3.67887541651725769043e-02) (59, -1.09020359814167022705e-02) (60, -6.53121918439865112305e-02) (61, 6.05791658163070678711e-02) (62, 7.04359859228134155273e-02) (63, -9.46995913982391357422e-02) (64, 7.91093800216913223267e-03) (65, 6.41840621829032897949e-02) (66, -7.60599412024021148682e-03) (67, 5.97783736884593963623e-02) (68, -6.10244870185852050781e-02) (69, 7.36828446388244628906e-02) (70, -8.74244719743728637695e-02) (71, -7.19366669654846191406e-02) (72, -9.45305153727531433105e-02) (73, -3.66854369640350341797e-02) (74, 1.80999170988798141479e-02) (75, -6.70472234487533569336e-02) (76, 8.66684876382350921631e-03) (77, 4.59862798452377319336e-02) (78, 5.08718043565750122070e-02) (79, -7.30745792388916015625e-02) (80, -6.60335421562194824219e-02) (0, 6.07137195765972137451e-02) (1, -2.94809788465499877930e-02) (2, 9.84380245208740234375e-02) (3, -3.35002504289150238037e-02) (4, 5.22092804312705993652e-02) (5, -1.62344407290220260620e-02) (6, 3.66576835513114929199e-02) (7, 4.45082746446132659912e-02) (8, 4.80384863913059234619e-02) (9, -6.58967941999435424805e-02) (10, 6.27440884709358215332e-02) (11, 5.64353214576840400696e-03) (12, 9.60330218076705932617e-02) (13, 8.13903361558914184570e-02) (14, -9.94619876146316528320e-02) (15, 6.39368221163749694824e-02) (16, -3.39716486632823944092e-02) (17, 7.05634430050849914551e-02) (18, 8.17955434322357177734e-02) (19, -5.60080446302890777588e-02) (20, 6.58821165561676025391e-02) (21, -7.15168192982673645020e-02) (22, -5.96799515187740325928e-02) (23, -5.71050532162189483643e-02) (24, 3.68571020662784576416e-02) (25, -2.25890334695577621460e-02) (26, 4.10493612289428710938e-02) (27, -1.10839689150452613831e-02) (28, -9.62045788764953613281e-02) (29, 7.31135532259941101074e-02) (30, 5.26327220723032951355e-03) (31, 1.06246501207351684570e-01) (32, -5.25739528238773345947e-02) (33, 7.50711467117071151733e-03) (34, -3.59182246029376983643e-02) (35, 1.02992579340934753418e-01) (36, 8.74254852533340454102e-02) (37, 1.11892715096473693848e-01) (38, 2.90030334144830703735e-02) (39, 3.01203113049268722534e-02) (40, -7.40988701581954956055e-02) (41, 1.70815456658601760864e-02) (42, -5.62538355588912963867e-02) (43, -6.11978620290756225586e-02) (44, -2.10052840411663055420e-02) (45, -6.10152930021286010742e-02) (46, 7.46870636940002441406e-02) (47, 6.06319196522235870361e-02) (48, 8.33914726972579956055e-02) (49, 9.42382588982582092285e-02) (50, 6.27254843711853027344e-02) (51, 7.92744979262351989746e-02) (52, 9.60583463311195373535e-02) (53, -6.17771260440349578857e-02) (54, 8.47591385245323181152e-02) (55, 5.38486577570438385010e-02) (56, -1.02942727971822023392e-03) (57, 5.55697530508041381836e-02) (58, -9.51694101095199584961e-02) (59, 2.93924640864133834839e-02) (60, -1.81222427636384963989e-03) (61, 3.35516706109046936035e-02) (62, 1.15188071504235267639e-02) (63, 4.93248850107192993164e-02) (64, -9.08061191439628601074e-02) (65, 8.42702463269233703613e-02) (66, 1.57874803990125656128e-02) (67, 1.07027985155582427979e-01) (68, 5.54950088262557983398e-02) (69, -2.67349444329738616943e-02) (70, 2.14742060052230954170e-04) (71, 1.14272773265838623047e-01) (72, 5.81255666911602020264e-02) (73, 4.35008555650711059570e-02) (74, -9.43996980786323547363e-02) (75, -4.22872118651866912842e-02) (76, 4.24621552228927612305e-02) (77, 1.22722759842872619629e-01) (78, 5.46779446303844451904e-02) (79, 5.69419711828231811523e-02) (80, 4.67075519263744354248e-02) (0, 6.42963498830795288086e-02) (1, 3.16490768454968929291e-04) (2, 7.89276435971260070801e-02) (3, 8.68310853838920593262e-02) (4, -8.22953600436449050903e-03) (5, 1.58621910959482192993e-02) (6, -2.89930459111928939819e-02) (7, -6.69526681303977966309e-02) (8, 2.86574847996234893799e-02) (9, 8.50719138979911804199e-02) (10, 3.99660430848598480225e-02) (11, -5.63635677099227905273e-02) (12, -1.22720850631594657898e-02) (13, -3.92701625823974609375e-02) (14, -5.14651834964752197266e-02) (15, -4.72539365291595458984e-02) (16, 7.52277225255966186523e-02) (17, -6.23486824333667755127e-02) (18, -9.33503285050392150879e-02) (19, -6.96475356817245483398e-02) (20, 3.13714705407619476318e-02) (21, 1.05229467153549194336e-01) (22, 7.69678577780723571777e-02) (23, -4.17561531066894531250e-02) (24, -7.84882754087448120117e-02) (25, -8.37195590138435363770e-02) (26, 9.49105694890022277832e-02) (27, -8.32089483737945556641e-02) (28, 7.95800015330314636230e-02) (29, 3.12851332128047943115e-02) (30, 8.31856653094291687012e-02) (31, 5.19709512591361999512e-02) (32, -9.63930934667587280273e-02) (33, 6.38521388173103332520e-02) (34, 1.86251346021890640259e-02) (35, 1.24226072803139686584e-02) (36, -3.18676643073558807373e-02) (37, 9.84885245561599731445e-02) (38, 2.59078238159418106079e-02) (39, 9.44008603692054748535e-02) (40, 7.28852823376655578613e-02) (41, -3.78578007221221923828e-02) (42, -7.68606439232826232910e-02) (43, -4.19367551803588867188e-02) (44, 4.55458695068955421448e-03) (45, -2.46937144547700881958e-02) (46, 7.60561879724264144897e-03) (47, -1.28083378076553344727e-02) (48, 5.90261025354266166687e-03) (49, 9.69557650387287139893e-03) (50, 4.24630288034677505493e-03) (51, -6.37473315000534057617e-02) (52, 6.36098673567175865173e-03) (53, -1.47997811436653137207e-02) (54, -1.67901664972305297852e-02) (55, 1.85473803430795669556e-02) (56, -3.48671153187751770020e-03) (57, -2.10610609501600265503e-02) (58, 2.41037253290414810181e-02) (59, -2.17289477586746215820e-02) (60, 1.01141944527626037598e-01) (61, 9.70407854765653610229e-03) (62, -7.66959339380264282227e-02) (63, -8.31299573183059692383e-02) (64, -3.44272963702678680420e-02) (65, 4.40819598734378814697e-02) (66, 1.54520617797970771790e-02) (67, 2.83047296106815338135e-02) (68, 3.42089794576168060303e-02) (69, -5.02657890319824218750e-02) (70, 1.07361031696200370789e-02) (71, 1.06422940734773874283e-03) (72, -3.11510358005762100220e-03) (73, 3.56127917766571044922e-02) (74, 3.73331159353256225586e-02) (75, 1.09632067382335662842e-01) (76, 9.04098525643348693848e-02) (77, -5.52541390061378479004e-02) (78, -1.77244562655687332153e-02) (79, -1.46649242378771305084e-03) (80, -3.84430550038814544678e-02) (0, 6.71728923916816711426e-02) (1, 2.35821790993213653564e-02) (2, -6.02437816560268402100e-02) (3, -3.71220670640468597412e-02) (4, 8.45742598176002502441e-02) (5, 5.11325672268867492676e-02) (6, 3.56631539762020111084e-02) (7, -2.86651179194450378418e-02) (8, -2.65792757272720336914e-02) (9, -8.30701068043708801270e-02) (10, -4.16820086538791656494e-02) (11, 7.05077350139617919922e-02) (12, -7.30347335338592529297e-02) (13, -2.71869562566280364990e-02) (14, -8.43458548188209533691e-02) (15, 6.54967427253723144531e-02) (16, 7.99820199608802795410e-02) (17, 4.66142483055591583252e-02) (18, -3.45197618007659912109e-02) (19, -7.38456323742866516113e-02) (20, -6.75528571009635925293e-02) (21, 8.33828970789909362793e-02) (22, 1.18648791685700416565e-02) (23, 7.90555775165557861328e-02) (24, 1.95096246898174285889e-02) (25, 2.17742882668972015381e-02) (26, 6.26861155033111572266e-02) (27, 6.12163878977298736572e-02) (28, 6.38107433915138244629e-02) (29, -3.77378389239311218262e-02) (30, -8.38538631796836853027e-03) (31, 8.09698700904846191406e-02) (32, 7.49878510832786560059e-02) (33, 3.27009037137031555176e-02) (34, -7.38620087504386901855e-02) (35, 7.36471414566040039062e-02) (36, -2.48369816690683364868e-02) (37, 7.74947032332420349121e-02) (38, -8.55448022484779357910e-02) (39, 3.90775948762893676758e-02) (40, 6.90564140677452087402e-02) (41, -5.14998007565736770630e-03) (42, 1.29726836457848548889e-02) (43, 1.09183475375175476074e-01) (44, 3.85355539619922637939e-02) (45, 2.03363727778196334839e-02) (46, 4.74552847445011138916e-02) (47, 3.55453304946422576904e-02) (48, -6.04677572846412658691e-02) (49, -5.26537448167800903320e-02) (50, 1.31343454122543334961e-02) (51, -6.03246793616563081741e-04) (52, 1.02946907281875610352e-01) (53, -3.85654009878635406494e-02) (54, -6.25880882143974304199e-02) (55, 3.34585718810558319092e-02) (56, 6.90979659557342529297e-02) (57, -7.29246363043785095215e-02) (58, -4.78438474237918853760e-02) (59, 5.89062832295894622803e-02) (60, -4.35388088226318359375e-02) (61, 6.58153295516967773438e-02) (62, 1.67072340846061706543e-02) (63, -5.96095696091651916504e-02) (64, -3.54787185788154602051e-02) (65, 4.75521534681320190430e-02) (66, 7.09782093763351440430e-02) (67, 4.47094775736331939697e-02) (68, -1.81275457143783569336e-02) (69, 1.19777299463748931885e-01) (70, -5.80713413655757904053e-02) (71, -2.14470177888870239258e-02) (72, -2.35697645694017410278e-02) (73, 5.05401678383350372314e-02) (74, -7.18612596392631530762e-02) (75, -6.25779107213020324707e-02) (76, -7.90452733635902404785e-02) (77, 1.15130245685577392578e-01) (78, 1.61573465447872877121e-03) (79, -1.19727840647101402283e-02) (80, -1.54217943549156188965e-01) (0, -6.04837760329246520996e-02) (1, 3.40916067361831665039e-02) (2, -9.69472825527191162109e-02) (3, -1.11901871860027313232e-02) (4, 6.51356279850006103516e-02) (5, 1.52872102335095405579e-02) (6, -7.44674205780029296875e-02) (7, 7.75107070803642272949e-02) (8, 6.87179267406463623047e-02) (9, 6.64821267127990722656e-02) (10, -8.68445038795471191406e-02) (11, 8.99891741573810577393e-03) (12, -4.34755906462669372559e-02) (13, -6.18912093341350555420e-02) (14, 5.24030439555644989014e-02) (15, 8.22484940290451049805e-02) (16, 9.86616909503936767578e-02) (17, -2.18906514346599578857e-02) (18, -5.56868836283683776855e-02) (19, 9.53956320881843566895e-02) (20, 9.78889293037354946136e-04) (21, 6.66568148881196975708e-03) (22, -4.77267801761627197266e-02) (23, -6.94519504904747009277e-02) (24, 3.38809080421924591064e-02) (25, -3.70077528059482574463e-02) (26, -5.99360875785350799561e-02) (27, 2.23977901041507720947e-02) (28, 5.69178499281406402588e-02) (29, -3.74961586203426122665e-04) (30, 1.81830935180187225342e-02) (31, -7.42406249046325683594e-02) (32, -7.38405287265777587891e-02) (33, 2.82664913684129714966e-02) (34, -9.55421768594533205032e-04) (35, 9.81703922152519226074e-02) (36, -6.41490891575813293457e-02) (37, 3.68503443896770477295e-02) (38, 5.79440109431743621826e-02) (39, 1.02085448801517486572e-01) (40, -1.39796016737818717957e-02) (41, 8.94966572523117065430e-02) (42, 9.26534831523895263672e-03) (43, 5.49516342580318450928e-02) (44, -9.11053717136383056641e-02) (45, -3.78655344247817993164e-02) (46, 1.58666707575321197510e-02) (47, -7.84932076930999755859e-02) (48, 1.83961875736713409424e-02) (49, 8.42840522527694702148e-02) (50, 8.35272595286369323730e-02) (51, -6.01835250854492187500e-02) (52, -3.16234268248081207275e-02) (53, -3.74780073761940002441e-02) (54, -5.89841008186340332031e-02) (55, -8.13348293304443359375e-02) (56, 8.85610934346914291382e-03) (57, 2.81820166856050491333e-03) (58, 1.14136999472975730896e-02) (59, -9.81553271412849426270e-03) (60, 7.69779607653617858887e-02) (61, -4.75326292216777801514e-02) (62, -5.01807779073715209961e-03) (63, -8.60974416136741638184e-02) (64, 5.47864884138107299805e-02) (65, 1.07799164950847625732e-01) (66, 8.48929435014724731445e-02) (67, 1.01115852594375610352e-01) (68, 1.59901306033134460449e-02) (69, 6.40924498438835144043e-02) (70, 7.67218843102455139160e-02) (71, -7.62006267905235290527e-02) (72, 2.95723062008619308472e-02) (73, -1.05016119778156280518e-02) (74, 4.65669482946395874023e-02) (75, 5.57319372892379760742e-02) (76, 2.42878515273332595825e-02) (77, -1.03509435430169105530e-02) (78, 3.65956351161003112793e-02) (79, -3.52872237563133239746e-02) (80, -7.02775567770004272461e-02) (0, 6.28052204847335815430e-02) (1, -1.94771736860275268555e-02) (2, 2.36855819821357727051e-02) (3, -9.60046648979187011719e-02) (4, 3.71024608612060546875e-02) (5, 2.93440576642751693726e-02) (6, 1.32196368649601936340e-02) (7, -7.79963433742523193359e-02) (8, -5.29796294867992401123e-02) (9, 8.71424227952957153320e-02) (10, -8.50109681487083435059e-02) (11, -1.04972859844565391541e-02) (12, -1.83559618890285491943e-02) (13, -9.58388894796371459961e-02) (14, -4.89275828003883361816e-02) (15, -2.41839699447154998779e-02) (16, 9.31884795427322387695e-02) (17, -6.45472630858421325684e-02) (18, 1.03249810636043548584e-01) (19, 4.36090342700481414795e-02) (20, -8.07626545429229736328e-02) (21, -9.33001339435577392578e-02) (22, -2.72361151874065399170e-02) (23, -1.02946041151881217957e-02) (24, 6.59705549478530883789e-02) (25, -8.63968580961227416992e-02) (26, -8.36561098694801330566e-02) (27, -6.51038661599159240723e-02) (28, 7.04886168241500854492e-02) (29, -3.50357219576835632324e-02) (30, -2.19707414507865905762e-02) (31, 1.50208510458469390869e-02) (32, 2.54631843417882919312e-02) (33, -9.79851707816123962402e-02) (34, 9.53706912696361541748e-03) (35, -2.89870649576187133789e-02) (36, 2.51782704144716262817e-02) (37, -7.71846920251846313477e-02) (38, -9.49183944612741470337e-03) (39, 7.57023319602012634277e-02) (40, -8.62366259098052978516e-02) (41, -8.93888715654611587524e-03) (42, -4.94402199983596801758e-02) (43, -1.36307384818792343140e-02) (44, -6.84472592547535896301e-03) (45, 8.56925919651985168457e-03) (46, 7.29676038026809692383e-02) (47, -1.56388077884912490845e-02) (48, 5.19299879670143127441e-02) (49, 5.54728768765926361084e-02) (50, -6.03913664817810058594e-02) (51, 5.54300881922245025635e-02) (52, 6.84640407562255859375e-02) (53, -2.15551210567355155945e-03) (54, -4.42103669047355651855e-02) (55, 2.01655887067317962646e-02) (56, 1.41110550612211227417e-02) (57, -4.10590283572673797607e-02) (58, 6.62237182259559631348e-02) (59, -2.52868719398975372314e-02) (60, 3.19915860891342163086e-02) (61, -6.37587383389472961426e-02) (62, 9.43587794899940490723e-02) (63, -3.43387871980667114258e-02) (64, -5.22704534232616424561e-02) (65, 5.60847250744700431824e-03) (66, 4.50021252036094665527e-02) (67, 6.71163424849510192871e-02) (68, 4.20118905603885650635e-02) (69, -7.21617043018341064453e-02) (70, 5.25942072272300720215e-02) (71, 3.72345782816410064697e-02) (72, 2.46949382126331329346e-02) (73, -9.23323035240173339844e-02) (74, -6.68724253773689270020e-02) (75, -8.53089615702629089355e-02) (76, 2.22200881689786911011e-02) (77, 8.73928144574165344238e-02) (78, 2.08833850920200347900e-02) (79, -3.71262319386005401611e-02) (80, 1.83494426310062408447e-02) (0, 3.83142605423927307129e-02) (1, -6.36111497879028320312e-02) (2, 2.20147073268890380859e-02) (3, -5.27793243527412414551e-02) (4, -2.26646959781646728516e-02) (5, -5.08089847862720489502e-02) (6, 5.62045238912105560303e-02) (7, 4.79304641485214233398e-02) (8, -9.33917015790939331055e-02) (9, -5.82408495247364044189e-02) (10, -2.78159286826848983765e-02) (11, -5.01969158649444580078e-02) (12, -6.78455904126167297363e-02) (13, 4.77685406804084777832e-02) (14, -1.26413386315107345581e-02) (15, 4.82602640986442565918e-02) (16, -1.44112305715680122375e-02) (17, -3.27204205095767974854e-02) (18, -2.52899117767810821533e-02) (19, 2.54071019589900970459e-02) (20, -8.91518667340278625488e-02) (21, -7.19223171472549438477e-02) (22, -5.21588884294033050537e-02) (23, -6.70230239629745483398e-02) (24, -4.24127168953418731689e-02) (25, -2.46945917606353759766e-02) (26, 5.50412051379680633545e-02) (27, -4.35464717447757720947e-02) (28, 7.04915076494216918945e-02) (29, -6.94525763392448425293e-02) (30, -9.61874276399612426758e-02) (31, 2.45126187801361083984e-02) (32, -4.54485975205898284912e-02) (33, 2.94496603310108184814e-02) (34, 5.71718215942382812500e-02) (35, 3.93065437674522399902e-02) (36, 7.14379623532295227051e-02) (37, 2.18164306133985519409e-02) (38, -2.65491697937250137329e-02) (39, 7.48814046382904052734e-02) (40, 5.27552254498004913330e-02) (41, 5.16502708196640014648e-02) (42, -8.00499618053436279297e-02) (43, 8.81703570485115051270e-02) (44, -1.46788908168673515320e-02) (45, 6.38790568336844444275e-03) (46, 2.51345522701740264893e-02) (47, 7.80745074152946472168e-02) (48, 6.11031204462051391602e-02) (49, -9.21159386634826660156e-02) (50, -1.64896547794342041016e-02) (51, 7.90737867355346679688e-02) (52, -7.70129263401031494141e-02) (53, 4.36913706362247467041e-02) (54, 9.49130058288574218750e-02) (55, -1.58589612692594528198e-02) (56, -9.08273085951805114746e-02) (57, 5.83486892282962799072e-02) (58, 2.33470164239406585693e-02) (59, 9.09844785928726196289e-02) (60, 7.36812204122543334961e-02) (61, 3.80129665136337280273e-02) (62, 2.83121131360530853271e-03) (63, -6.36737048625946044922e-02) (64, -4.74327057600021362305e-02) (65, -3.24375256896018981934e-02) (66, 5.91183304786682128906e-02) (67, -7.37128704786300659180e-02) (68, 7.39236101508140563965e-02) (69, -5.71150928735733032227e-02) (70, 8.55659618973731994629e-02) (71, 3.27978581190109252930e-02) (72, 7.90469273924827575684e-02) (73, 1.05493724346160888672e-01) (74, 4.35085297795012593269e-04) (75, -2.66070310026407241821e-02) (76, -6.20380556210875511169e-03) (77, -6.34568110108375549316e-02) (78, -7.10251182317733764648e-02) (79, -3.56356874108314514160e-02) (80, -9.24522951245307922363e-02) (0, 2.56284195929765701294e-02) (1, -6.96953684091567993164e-02) (2, -4.69536781311035156250e-02) (3, -3.62181439995765686035e-02) (4, -7.48920068144798278809e-02) (5, 2.91018970310688018799e-02) (6, -3.40483859181404113770e-02) (7, 7.78440311551094055176e-02) (8, -4.52625751495361328125e-02) (9, -4.94170486927032470703e-02) (10, 4.84107322990894317627e-02) (11, 8.42281430959701538086e-02) (12, 4.83419895172119140625e-02) (13, 7.92969539761543273926e-02) (14, -6.73642754554748535156e-02) (15, -9.04813036322593688965e-02) (16, 3.67625914514064788818e-02) (17, -4.64530736207962036133e-02) (18, 7.86145254969596862793e-02) (19, 7.31091871857643127441e-02) (20, -6.43632262945175170898e-02) (21, 6.67525967583060264587e-03) (22, 4.95641604065895080566e-02) (23, -6.51313960552215576172e-02) (24, -9.01459977030754089355e-02) (25, -8.45778658986091613770e-02) (26, 2.89388000965118408203e-02) (27, -6.17578811943531036377e-02) (28, -5.70141151547431945801e-02) (29, 8.48406627774238586426e-02) (30, -3.75807955861091613770e-02) (31, 7.37326741218566894531e-02) (32, -9.02481675148010253906e-02) (33, 1.42756234854459762573e-02) (34, -7.02021643519401550293e-02) (35, -6.56824111938476562500e-02) (36, -5.97592182457447052002e-02) (37, -3.12058464623987674713e-03) (38, -9.48584601283073425293e-02) (39, -1.05706471949815750122e-02) (40, 4.16751094162464141846e-02) (41, 5.50549365580081939697e-02) (42, -2.93817277997732162476e-02) (43, -1.05363866314291954041e-02) (44, 2.59080156683921813965e-02) (45, 1.05680408887565135956e-03) (46, -8.78304522484540939331e-03) (47, -3.52260582149028778076e-02) (48, 4.57747727632522583008e-02) (49, -2.68640033900737762451e-02) (50, -7.50516429543495178223e-02) (51, 8.43081921339035034180e-02) (52, 7.07165896892547607422e-02) (53, 8.02759975194931030273e-02) (54, -9.21616703271865844727e-02) (55, 8.18856656551361083984e-02) (56, 8.82710069417953491211e-02) (57, 4.00455519556999206543e-02) (58, -9.13227200508117675781e-02) (59, -6.36134818196296691895e-02) (60, 1.44410841166973114014e-02) (61, -2.37367022782564163208e-02) (62, 1.00869953632354736328e-01) (63, 2.63127610087394714355e-02) (64, 7.98349082469940185547e-02) (65, -6.61732032895088195801e-02) (66, 4.97648157179355621338e-02) (67, -7.99645781517028808594e-02) (68, 2.04390287399291992188e-02) (69, 5.88259175419807434082e-02) (70, -7.20485753845423460007e-04) (71, -3.58870700001716613770e-02) (72, 3.81019827909767627716e-03) (73, 6.89608007669448852539e-02) (74, 4.10810858011245727539e-02) (75, -6.60386234521865844727e-02) (76, -4.08990830183029174805e-02) (77, -6.18718825280666351318e-02) (78, -1.55597385019063949585e-02) (79, -8.99797752499580383301e-02) (80, -1.34305441752076148987e-02) (0, 1.89592763781547546387e-02) (1, 7.34069123864173889160e-02) (2, -4.09738011658191680908e-02) (3, -1.89881641417741775513e-02) (4, 9.51076447963714599609e-02) (5, -6.33536651730537414551e-02) (6, -2.52291969954967498779e-02) (7, 1.67909637093544006348e-02) (8, -5.67336305975914001465e-02) (9, -3.11119365505874156952e-03) (10, -6.62248283624649047852e-02) (11, 1.64658538997173309326e-02) (12, 3.93248366890475153923e-04) (13, 5.10636568069458007812e-02) (14, 5.80758182331919670105e-03) (15, 2.36448645591735839844e-02) (16, 4.42207604646682739258e-03) (17, 9.55374166369438171387e-03) (18, -3.46151031553745269775e-02) (19, -4.72114607691764831543e-02) (20, -7.63735324144363403320e-02) (21, 4.79790294775739312172e-04) (22, 6.21152035892009735107e-02) (23, 6.98296502232551574707e-02) (24, -5.43854311108589172363e-02) (25, 8.22800546884536743164e-02) (26, -6.24855346977710723877e-02) (27, -2.63352841138839721680e-02) (28, 6.76834816113114356995e-03) (29, -6.87559098005294799805e-02) (30, 8.27145129442214965820e-02) (31, -1.15813560783863067627e-01) (32, -7.45913609862327575684e-02) (33, -5.77335171401500701904e-02) (34, -1.08396075665950775146e-02) (35, -9.49386581778526306152e-02) (36, -8.74527916312217712402e-03) (37, 4.99474778771400451660e-02) (38, 5.45341446995735168457e-02) (39, 4.39729019999504089355e-02) (40, -2.77374405413866043091e-02) (41, 7.20385983586311340332e-02) (42, -3.59051600098609924316e-02) (43, 6.27867579460144042969e-02) (44, 5.44555075466632843018e-02) (45, 7.70321860909461975098e-02) (46, 1.07667110860347747803e-02) (47, -5.49325682222843170166e-02) (48, 1.18776755407452583313e-02) (49, 5.18874190747737884521e-02) (50, 4.51254285871982574463e-02) (51, 1.78084690123796463013e-02) (52, -1.92253626883029937744e-02) (53, -2.21381168812513351440e-02) (54, 2.77226474136114120483e-02) (55, 2.08368357270956039429e-02) (56, -2.33627315610647201538e-02) (57, 4.30449843406677246094e-02) (58, -6.39064833521842956543e-02) (59, 5.78677468001842498779e-02) (60, -9.25234407186508178711e-02) (61, -1.02626591920852661133e-01) (62, 6.76179751753807067871e-02) (63, -8.10834914445877075195e-02) (64, -2.61807180941104888916e-02) (65, -5.15524558722972869873e-02) (66, -3.23710031807422637939e-02) (67, 6.09957799315452575684e-02) (68, -5.91373816132545471191e-02) (69, -1.10340550541877746582e-01) (70, 4.71370927989482879639e-02) (71, -9.51436627656221389771e-03) (72, -9.79184210300445556641e-02) (73, -8.77050608396530151367e-02) (74, 1.27650108188390731812e-02) (75, 3.33861336112022399902e-02) (76, -5.91149628162384033203e-02) (77, -1.09675645828247070312e-01) (78, -5.42650297284126281738e-02) (79, 2.86601334810256958008e-02) (80, 1.77904695272445678711e-01) (0, 7.25238174200057983398e-02) (1, 6.00464118178933858871e-04) (2, -1.89630184322595596313e-02) (3, -3.55748645961284637451e-02) (4, -6.60375505685806274414e-02) (5, -7.10279867053031921387e-02) (6, 6.81557878851890563965e-02) (7, 9.39828604459762573242e-02) (8, -4.11631241440773010254e-02) (9, 4.70554605126380920410e-02) (10, -8.71594101190567016602e-02) (11, -1.26479463651776313782e-02) (12, 3.21814045310020446777e-02) (13, -4.43835221230983734131e-02) (14, 7.58049637079238891602e-02) (15, -9.18937772512435913086e-02) (16, 2.43301950395107269287e-02) (17, 6.05266876518726348877e-02) (18, -3.18020619451999664307e-02) (19, 4.37421202659606933594e-02) (20, 2.40471977740526199341e-02) (21, 7.36553445458412170410e-02) (22, 5.72741888463497161865e-02) (23, 5.66924549639225006104e-02) (24, -1.99126806110143661499e-02) (25, 1.98150761425495147705e-02) (26, -9.58421155810356140137e-02) (27, 4.84615738969296216965e-04) (28, 7.73748829960823059082e-02) (29, 6.01846911013126373291e-02) (30, 1.01569842081516981125e-03) (31, 1.72382686287164688110e-02) (32, -3.55776175856590270996e-02) (33, 8.40964987874031066895e-02) (34, 9.04445722699165344238e-02) (35, -8.23997706174850463867e-03) (36, -8.20706188678741455078e-02) (37, 5.06361648440361022949e-02) (38, 4.84499102458357810974e-03) (39, -1.73038113862276077271e-02) (40, 1.43107147887349128723e-02) (41, 1.87439913861453533173e-03) (42, 6.53209537267684936523e-02) (43, -6.34301751852035522461e-02) (44, 7.56988823413848876953e-02) (45, 4.88335229456424713135e-02) (46, -3.68373543024063110352e-02) (47, -9.05420165508985519409e-03) (48, 2.65273153781890869141e-02) (49, 7.37172272056341171265e-03) (50, -3.22927199304103851318e-02) (51, -6.63688257336616516113e-02) (52, -2.78161431197077035904e-04) (53, -9.85558182001113891602e-02) (54, -8.19128826260566711426e-02) (55, 7.19577446579933166504e-02) (56, 3.05805504322052001953e-02) (57, -9.69237387180328369141e-02) (58, 1.67615327518433332443e-03) (59, -1.10384309664368629456e-02) (60, 8.55760797858238220215e-02) (61, -1.12791471183300018311e-01) (62, -7.70140960812568664551e-02) (63, -5.54860197007656097412e-02) (64, -1.04601927101612091064e-01) (65, -9.04825553297996520996e-02) (66, 6.69807866215705871582e-02) (67, -9.27304327487945556641e-02) (68, 9.19055715203285217285e-02) (69, -5.37377074360847473145e-02) (70, 2.02410779893398284912e-02) (71, -1.65033973753452301025e-02) (72, 7.53509849309921264648e-02) (73, -1.27349011600017547607e-02) (74, 6.17436021566390991211e-02) (75, 3.45750264823436737061e-02) (76, -2.85281930118799209595e-02) (77, -1.04334786534309387207e-01) (78, -2.30211075395345687866e-02) (79, -1.21597349643707275391e-01) (80, 8.53670164942741394043e-02) (0, 2.34842523932456970215e-02) (1, -4.72021289169788360596e-02) (2, -5.58159053325653076172e-02) (3, 3.86487692594528198242e-02) (4, -2.93685421347618103027e-02) (5, -6.37763217091560363770e-02) (6, -1.30953425541520118713e-02) (7, -1.11836232244968414307e-02) (8, 3.29127050936222076416e-02) (9, 9.33332368731498718262e-02) (10, -2.04965304583311080933e-02) (11, 4.21849377453327178955e-02) (12, -7.13152140378952026367e-02) (13, 4.47985120117664337158e-02) (14, 4.61863875389099121094e-02) (15, -4.07207384705543518066e-02) (16, 1.18830939754843711853e-02) (17, 7.29516372084617614746e-02) (18, -4.02288287878036499023e-02) (19, 8.14873650670051574707e-02) (20, 1.88084586989134550095e-03) (21, 5.92163316905498504639e-02) (22, 6.58335834741592407227e-02) (23, -9.13429260253906250000e-02) (24, 1.62667576223611831665e-02) (25, 2.47581042349338531494e-02) (26, -1.36688370257616043091e-02) (27, 3.76712828874588012695e-02) (28, 1.04148805141448974609e-01) (29, -1.19305038824677467346e-02) (30, -1.54155585914850234985e-02) (31, 1.25628765672445297241e-02) (32, 4.62759770452976226807e-02) (33, 3.08111645281314849854e-02) (34, -4.20809015631675720215e-02) (35, -8.75313803553581237793e-02) (36, 7.05966055393218994141e-02) (37, 4.10366021096706390381e-02) (38, 1.30248581990599632263e-02) (39, 7.11374124512076377869e-03) (40, 4.31562177836894989014e-02) (41, 8.62444490194320678711e-02) (42, -5.10884821414947509766e-02) (43, 6.83575496077537536621e-02) (44, 4.20926958322525024414e-02) (45, -1.01105548441410064697e-01) (46, -6.34063780307769775391e-02) (47, -5.00862635672092437744e-02) (48, 8.04264396429061889648e-02) (49, -1.32837593555450439453e-02) (50, -5.06828986108303070068e-02) (51, -2.35816668719053268433e-02) (52, -4.39131818711757659912e-02) (53, -9.53273475170135498047e-02) (54, -9.20760649023577570915e-05) (55, 7.09619969129562377930e-02) (56, 3.49395237863063812256e-02) (57, 7.76852667331695556641e-02) (58, 2.41409987211227416992e-02) (59, 2.96534746885299682617e-02) (60, -2.23575234413146972656e-02) (61, -9.87124368548393249512e-02) (62, -4.80682514607906341553e-02) (63, -8.02503526210784912109e-02) (64, 4.49350103735923767090e-02) (65, 7.18778045848011970520e-03) (66, -5.06821088492870330811e-02) (67, 1.35458204895257949829e-02) (68, -3.48425731062889099121e-02) (69, 4.86316755414009094238e-02) (70, -6.27212077379226684570e-02) (71, -1.01542077958583831787e-01) (72, 5.02095632255077362061e-02) (73, -1.33379902690649032593e-02) (74, 9.01051685214042663574e-02) (75, -1.65069140493869781494e-02) (76, 5.57010155171155929565e-03) (77, -8.69516208767890930176e-02) (78, 6.01549074053764343262e-02) (79, -2.29564961045980453491e-02) (80, 5.24240024387836456299e-02) (0, -1.20575256645679473877e-01) (1, 8.53707194328308105469e-02) (2, 9.07934382557868957520e-02) (3, -7.69542828202247619629e-02) (4, -3.85336838662624359131e-02) (5, 7.23000243306159973145e-02) (6, 5.22389970719814300537e-02) (7, -2.60046329349279403687e-02) (8, 5.68307330831885337830e-03) (9, 9.39504988491535186768e-03) (10, 4.02946397662162780762e-02) (11, 1.09047498553991317749e-02) (12, 6.47207498550415039062e-02) (13, 8.96036773920059204102e-02) (14, -5.46952970325946807861e-02) (15, -9.72892716526985168457e-03) (16, -6.40433132648468017578e-02) (17, 8.94393995404243469238e-02) (18, 2.10385713726282119751e-02) (19, 1.04650720953941345215e-01) (20, -9.67484638094902038574e-02) (21, 7.25149884819984436035e-02) (22, 5.14950677752494812012e-02) (23, 3.35954539477825164795e-02) (24, 5.18111214041709899902e-02) (25, -3.88528071343898773193e-02) (26, -7.06574544310569763184e-02) (27, 9.16847065091133117676e-02) (28, 6.17476031184196472168e-02) (29, 3.65706756711006164551e-02) (30, 8.16268939524888992310e-03) (31, -7.85251036286354064941e-02) (32, 1.97033863514661788940e-02) (33, 1.32818089332431554794e-03) (34, -7.47903883457183837891e-02) (35, 9.47887375950813293457e-02) (36, -3.33962365984916687012e-02) (37, 9.94440168142318725586e-02) (38, -7.15297982096672058105e-02) (39, 5.70328086614608764648e-02) (40, -2.86405831575393676758e-02) (41, 1.11055545508861541748e-01) (42, -1.89941674470901489258e-02) (43, -3.73490601778030395508e-02) (44, 6.15532658994197845459e-02) (45, 1.24645587056875228882e-02) (46, 7.46779562905430793762e-03) (47, 1.23289927840232849121e-01) (48, -4.13960069417953491211e-02) (49, -8.85518919676542282104e-03) (50, 5.06183877587318420410e-02) (51, 1.02349687367677688599e-02) (52, -8.15741196274757385254e-02) (53, 6.41425326466560363770e-02) (54, 7.78461024165153503418e-02) (55, 9.81954857707023620605e-02) (56, 1.01228669285774230957e-01) (57, -4.34551648795604705811e-02) (58, 2.11924444884061813354e-02) (59, 1.11766859889030456543e-01) (60, 4.00689542293548583984e-02) (61, -2.85128448158502578735e-02) (62, 9.44975912570953369141e-02) (63, -2.82566435635089874268e-02) (64, 1.70456413179636001587e-02) (65, 1.32070899009704589844e-01) (66, -1.01608507335186004639e-01) (67, 9.82582792639732360840e-02) (68, 5.91710805892944335938e-02) (69, -1.55643802136182785034e-02) (70, -1.19993034750223159790e-02) (71, -1.33473919704556465149e-02) (72, -6.38825446367263793945e-02) (73, 6.63101673126220703125e-02) (74, -4.22925464808940887451e-02) (75, 1.35757997632026672363e-01) (76, 1.02589786052703857422e-01) (77, 1.37761607766151428223e-01) (78, 4.23841439187526702881e-02) (79, 1.20408209040760993958e-02) (80, -1.32557526230812072754e-01) (0, 4.63191606104373931885e-02) (1, 3.73376943171024322510e-02) (2, -3.26292105019092559814e-02) (3, -9.09806508570909500122e-03) (4, 1.78774110972881317139e-02) (5, -7.59572088718414306641e-02) (6, -4.32716868817806243896e-02) (7, 4.95661012828350067139e-02) (8, 6.89666494727134704590e-02) (9, -6.38250783085823059082e-02) (10, -1.77733078598976135254e-02) (11, 9.00220051407814025879e-02) (12, -8.91916379332542419434e-02) (13, 1.53441550210118293762e-02) (14, -6.42448524013161659241e-03) (15, 9.84611287713050842285e-02) (16, 1.86084974557161331177e-02) (17, -4.57275211811065673828e-02) (18, 3.78136038780212402344e-02) (19, 5.56324124336242675781e-02) (20, 2.14886628091335296631e-02) (21, 1.01754426956176757812e-01) (22, 7.38126114010810852051e-02) (23, -4.33555394411087036133e-02) (24, -2.74158772081136703491e-02) (25, 6.34753927588462829590e-02) (26, -5.20779229700565338135e-02) (27, -3.89803685247898101807e-02) (28, 1.23721220006700605154e-05) (29, 1.51665396988391876221e-02) (30, 2.73088505491614341736e-03) (31, -8.41391447465866804123e-05) (32, -4.94332835078239440918e-02) (33, 6.47403523325920104980e-02) (34, 8.04493278264999389648e-02) (35, 7.76647627353668212891e-02) (36, 8.53421241044998168945e-02) (37, -5.20937591791152954102e-02) (38, -1.86768418643623590469e-03) (39, 4.03847992420196533203e-02) (40, -4.10898849368095397949e-02) (41, 1.04449398815631866455e-01) (42, 4.14000228047370910645e-02) (43, -1.54117336496710777283e-02) (44, -7.23300129175186157227e-03) (45, 1.20610140264034271240e-01) (46, -4.40947525203227996826e-02) (47, -7.48175904154777526855e-02) (48, -5.11145889759063720703e-02) (49, -6.77359849214553833008e-02) (50, 2.93070059269666671753e-02) (51, 9.89280343055725097656e-02) (52, 1.06091380119323730469e-01) (53, 4.16363030672073364258e-02) (54, -8.77198651432991027832e-02) (55, -1.02270497009158134460e-02) (56, -6.16996735334396362305e-03) (57, -9.39234811812639236450e-03) (58, 5.24128135293722152710e-03) (59, 1.22246339917182922363e-01) (60, 7.21030235290527343750e-02) (61, 1.30464226007461547852e-01) (62, -1.11823994666337966919e-03) (63, 1.28308817744255065918e-01) (64, 5.89733421802520751953e-02) (65, -1.89656727015972137451e-02) (66, 5.80263473093509674072e-02) (67, 4.99471016228199005127e-02) (68, -2.15440839529037475586e-02) (69, -3.11149400658905506134e-03) (70, -5.72714321315288543701e-02) (71, 7.43383765220642089844e-02) (72, -4.08572107553482055664e-02) (73, 7.93555751442909240723e-02) (74, 9.07066017389297485352e-02) (75, 7.68765583634376525879e-02) (76, 4.29005064070224761963e-02) (77, -5.62122976407408714294e-03) (78, 1.77693665027618408203e-02) (79, 1.23821571469306945801e-01) (80, -1.12742289900779724121e-01) (0, -1.41510684043169021606e-02) (1, 5.71382753551006317139e-02) (2, -4.23304922878742218018e-02) (3, 1.02107241749763488770e-01) (4, 7.09358081221580505371e-02) (5, 2.23608762025833129883e-02) (6, -3.71889658272266387939e-02) (7, -6.47892132401466369629e-02) (8, -7.31859058141708374023e-02) (9, -4.19423244893550872803e-02) (10, 9.67188924551010131836e-02) (11, -7.10966140031814575195e-02) (12, 2.94925253838300704956e-02) (13, 9.12349149584770202637e-02) (14, 7.12186470627784729004e-02) (15, 7.96700417995452880859e-02) (16, 4.07102070748805999756e-02) (17, -1.09747080132365226746e-02) (18, -4.79253008961677551270e-02) (19, -9.43346694111824035645e-02) (20, 1.91431473940610885620e-02) (21, 9.08470749855041503906e-02) (22, -5.63561990857124328613e-02) (23, -3.71277518570423126221e-02) (24, 8.78894329071044921875e-02) (25, 8.44378694891929626465e-02) (26, 9.62732359766960144043e-02) (27, -5.89406043291091918945e-02) (28, 1.70980505645275115967e-02) (29, 7.99166113138198852539e-02) (30, -5.65760442987084388733e-03) (31, -9.54953879117965698242e-02) (32, 2.21592448651790618896e-02) (33, 5.67990988492965698242e-02) (34, 9.53992605209350585938e-02) (35, 2.76873121038079261780e-03) (36, -2.75466982275247573853e-02) (37, -3.51309590041637420654e-02) (38, 3.04003898054361343384e-02) (39, 1.32141332142055034637e-03) (40, 1.87037233263254165649e-02) (41, 2.60102897882461547852e-02) (42, 2.04353518784046173096e-02) (43, -5.17440997064113616943e-02) (44, 9.40370466560125350952e-03) (45, -2.44734040461480617523e-03) (46, -7.27803409099578857422e-02) (47, -4.43002060055732727051e-02) (48, 8.34110602736473083496e-02) (49, -2.42272187024354934692e-02) (50, -4.12695929408073425293e-02) (51, 3.06567666120827198029e-03) (52, -3.62012796103954315186e-02) (53, 3.42188961803913116455e-03) (54, 6.32798522710800170898e-02) (55, -5.08388392627239227295e-02) (56, -1.48987602442502975464e-02) (57, 5.93178234994411468506e-02) (58, -1.20407799258828163147e-02) (59, -9.73020941019058227539e-02) (60, 3.65745313465595245361e-02) (61, 8.42285901308059692383e-02) (62, -9.50407758355140686035e-02) (63, -3.38037312030792236328e-02) (64, 3.95824350416660308838e-02) (65, -9.59371775388717651367e-02) (66, 6.64695501327514648438e-02) (67, -8.92069041728973388672e-02) (68, -3.02602630108594894409e-02) (69, -2.09235120564699172974e-03) (70, 1.06837991625070571899e-02) (71, 8.32048878073692321777e-02) (72, -7.95641019940376281738e-02) (73, -6.58931806683540344238e-02) (74, -7.17422589659690856934e-02) (75, 3.34041863679885864258e-02) (76, 2.75138076394796371460e-02) (77, -4.78828810155391693115e-02) (78, 9.05466824769973754883e-02) (79, 1.14259989932179450989e-02) (80, 7.05003854818642139435e-04) (0, -5.29526844620704650879e-02) (1, -8.11977311968803405762e-02) (2, 9.97449234127998352051e-02) (3, 5.22449761629104614258e-02) (4, 7.73514509201049804688e-02) (5, -5.70983290672302246094e-02) (6, -6.44680559635162353516e-02) (7, 3.98648381233215332031e-02) (8, 3.57146337628364562988e-02) (9, -6.08132928609848022461e-02) (10, -1.59520488232374191284e-02) (11, 1.43558084964752197266e-02) (12, -5.37858903408050537109e-02) (13, 4.29424867033958435059e-02) (14, -4.71674017608165740967e-02) (15, -5.13726733624935150146e-02) (16, 1.32895633578300476074e-02) (17, -3.50404642522335052490e-02) (18, 5.44793717563152313232e-03) (19, -9.07812863588333129883e-02) (20, 6.81603625416755676270e-02) (21, 7.72249593865126371384e-04) (22, -6.95741623640060424805e-02) (23, -8.82766842842102050781e-02) (24, 3.43618690967559814453e-02) (25, 6.76440000534057617188e-02) (26, 3.82144227623939514160e-02) (27, 8.59557613730430603027e-02) (28, 3.45126837491989135742e-02) (29, -4.31490391492843627930e-02) (30, 1.07788629829883575439e-02) (31, 1.03316791355609893799e-01) (32, -3.91869395971298217773e-02) (33, 5.29093109071254730225e-03) (34, 4.34378460049629211426e-02) (35, -5.04674725234508514404e-02) (36, 4.11315187811851501465e-02) (37, 8.48131701350212097168e-02) (38, 6.87894597649574279785e-02) (39, -2.95824185013771057129e-02) (40, -8.97727906703948974609e-02) (41, -4.24483753740787506104e-02) (42, 8.19169655442237854004e-02) (43, -4.07724566757678985596e-02) (44, 8.18765982985496520996e-02) (45, -7.13854357600212097168e-02) (46, -1.73034740146249532700e-03) (47, 4.69328719191253185272e-04) (48, -1.66455414146184921265e-02) (49, 1.12987637519836425781e-01) (50, -1.44657623022794723511e-02) (51, -4.24851253628730773926e-02) (52, 1.34551024530082941055e-03) (53, 2.89975423365831375122e-02) (54, -4.98840883374214172363e-02) (55, -6.84965848922729492188e-02) (56, -7.49105215072631835938e-03) (57, 9.74139347672462463379e-02) (58, 9.64032709598541259766e-02) (59, -6.24891929328441619873e-02) (60, -6.09430223703384399414e-02) (61, 1.46344704553484916687e-02) (62, -7.00383037328720092773e-02) (63, 8.24517011642456054688e-03) (64, 1.03864446282386779785e-01) (65, 7.37535282969474792480e-02) (66, 3.24186682701110839844e-02) (67, 4.44732122123241424561e-02) (68, 3.54829616844654083252e-02) (69, 2.23888270556926727295e-02) (70, 9.05515700578689575195e-02) (71, 5.66233247518539428711e-02) (72, 5.59664852917194366455e-02) (73, 7.23943561315536499023e-02) (74, 7.79250785708427429199e-02) (75, 5.18202558159828186035e-02) (76, 6.78346976637840270996e-02) (77, -6.49088993668556213379e-03) (78, -8.71780887246131896973e-02) (79, -3.72783355414867401123e-02) (80, -1.05596169829368591309e-01) (0, 9.31724067777395248413e-03) (1, -2.25089676678180694580e-02) (2, 5.88623881340026855469e-02) (3, -8.64533409476280212402e-02) (4, 3.15258428454399108887e-02) (5, 7.15536698698997497559e-02) (6, -8.27937014400959014893e-03) (7, 3.86830931529402732849e-03) (8, 6.46337941288948059082e-02) (9, 5.67545369267463684082e-03) (10, 4.18373905122280120850e-02) (11, -4.01198118925094604492e-02) (12, 2.39956993609666824341e-02) (13, -7.91462510824203491211e-02) (14, -4.05072383582592010498e-02) (15, -2.71304585039615631104e-02) (16, 5.41912652552127838135e-02) (17, 7.50788897275924682617e-02) (18, -8.71733129024505615234e-02) (19, -4.98876720666885375977e-02) (20, 6.67285472154617309570e-02) (21, 3.52646857500076293945e-02) (22, -9.86036881804466247559e-02) (23, 7.68218841403722763062e-03) (24, 2.28716805577278137207e-02) (25, 2.54001151770353317261e-02) (26, -2.16253269463777542114e-02) (27, 8.63475129008293151855e-02) (28, 5.75708150863647460938e-02) (29, 1.13614443689584732056e-02) (30, -3.96995134651660919189e-02) (31, -5.57079836726188659668e-02) (32, 9.11295786499977111816e-02) (33, -8.55215713381767272949e-02) (34, -3.26548889279365539551e-02) (35, 1.91936045885086059570e-02) (36, 9.07368510961532592773e-02) (37, 5.06980791687965393066e-02) (38, -6.43033087253570556641e-02) (39, 5.67214600741863250732e-02) (40, -3.04615776985883712769e-02) (41, 6.18708282709121704102e-02) (42, -8.38043540716171264648e-02) (43, 8.26261714100837707520e-02) (44, 9.61484313011169433594e-02) (45, -2.46781073510646820068e-02) (46, -2.74483673274517059326e-02) (47, 3.94204407930374145508e-02) (48, -3.26989963650703430176e-02) (49, -3.58294434845447540283e-02) (50, -8.45630988478660583496e-02) (51, -8.31751525402069091797e-02) (52, -8.28916728496551513672e-02) (53, -1.04666613042354583740e-01) (54, 4.76685538887977600098e-02) (55, 2.54835877567529678345e-02) (56, 3.32628525793552398682e-02) (57, -9.26337465643882751465e-02) (58, 3.48029024899005889893e-02) (59, -2.81442571431398391724e-02) (60, 3.78463976085186004639e-02) (61, 7.74781331419944763184e-02) (62, 3.24756354093551635742e-02) (63, 2.24575884640216827393e-02) (64, -8.76777991652488708496e-02) (65, -1.10667310655117034912e-01) (66, -3.69869396090507507324e-02) (67, -1.06188260018825531006e-01) (68, 6.35298565030097961426e-02) (69, -1.89662165939807891846e-02) (70, 7.15577006340026855469e-02) (71, -8.67396891117095947266e-02) (72, -3.84801104664802551270e-02) (73, 8.46123322844505310059e-02) (74, -7.88648128509521484375e-02) (75, -5.61972819268703460693e-02) (76, -1.86652708798646926880e-02) (77, -2.96124219894409179688e-02) (78, -8.36089104413986206055e-02) (79, 3.01706641912460327148e-02) (80, 6.27723708748817443848e-02) (0, -8.70238319039344787598e-02) (1, 6.28756210207939147949e-02) (2, 6.28522112965583801270e-02) (3, -9.49558317661285400391e-02) (4, 1.24599719420075416565e-02) (5, -2.36059678718447685242e-03) (6, 4.75111566483974456787e-02) (7, 1.81773211807012557983e-02) (8, -7.87258893251419067383e-02) (9, -7.83600434660911560059e-02) (10, -4.36200536787509918213e-02) (11, -8.84885191917419433594e-02) (12, 5.61014004051685333252e-02) (13, 8.45104306936264038086e-02) (14, -7.22885280847549438477e-02) (15, 5.29412105679512023926e-02) (16, -5.42954392731189727783e-02) (17, -7.62993544340133666992e-02) (18, 2.84090843051671981812e-02) (19, 3.42745408415794372559e-02) (20, -9.42352414131164550781e-02) (21, 3.40336672961711883545e-02) (22, -9.89402458071708679199e-02) (23, 8.74368622899055480957e-02) (24, 5.19517622888088226318e-02) (25, -4.96771819889545440674e-02) (26, -2.58248019963502883911e-02) (27, -6.95060268044471740723e-02) (28, -1.84081550687551498413e-02) (29, -9.13707613945007324219e-02) (30, 9.02502387762069702148e-02) (31, -4.10561673343181610107e-02) (32, 8.03816094994544982910e-02) (33, 5.33266589045524597168e-02) (34, -2.27235481142997741699e-02) (35, -1.69752649962902069092e-02) (36, -4.23008166253566741943e-02) (37, -8.53292644023895263672e-02) (38, -7.56375491619110107422e-02) (39, -1.38558633625507354736e-02) (40, -4.42105941474437713623e-02) (41, -3.54198217391967773438e-02) (42, -3.93866235390305519104e-03) (43, -9.84842330217361450195e-02) (44, -2.88868248462677001953e-02) (45, 2.96499766409397125244e-02) (46, 7.42007270455360412598e-02) (47, 4.93663316592574119568e-03) (48, 7.33039602637290954590e-02) (49, -2.15497948229312896729e-02) (50, -2.43227891623973846436e-02) (51, 6.01908713579177856445e-02) (52, -6.58313706517219543457e-02) (53, -4.93782386183738708496e-02) (54, 7.91951641440391540527e-02) (55, 7.83051401376724243164e-02) (56, 1.21761793270707130432e-02) (57, -6.73782676458358764648e-02) (58, -5.84881454706192016602e-02) (59, 7.38058537244796752930e-02) (60, -3.35663035511970520020e-02) (61, -8.51022675633430480957e-02) (62, -4.83459159731864929199e-02) (63, -6.04718811810016632080e-02) (64, -1.05156116187572479248e-01) (65, 2.45911702513694763184e-02) (66, 5.61374090611934661865e-02) (67, -5.18153123557567596436e-02) (68, 7.39180222153663635254e-02) (69, 5.39895072579383850098e-02) (70, 6.75307512283325195312e-02) (71, -9.28992629051208496094e-02) (72, -5.05290701985359191895e-02) (73, -3.50050777196884155273e-02) (74, -4.45176437497138977051e-02) (75, 2.23978213034570217133e-03) (76, -6.53868019580841064453e-02) (77, -1.00486911833286285400e-01) (78, -3.72406877577304840088e-02) (79, -1.13648273050785064697e-01) (80, 7.72504881024360656738e-02) (0, 1.40986964106559753418e-02) (1, 9.37731117010116577148e-02) (2, 5.40396831929683685303e-02) (3, 8.56468677520751953125e-02) (4, 6.70985877513885498047e-02) (5, 6.03523403406143188477e-02) (6, 1.15786883980035781860e-02) (7, -7.87107795476913452148e-02) (8, 8.98047015070915222168e-02) (9, 9.34717804193496704102e-03) (10, -1.69025100767612457275e-02) (11, -6.53557777404785156250e-02) (12, 6.72359317541122436523e-02) (13, 5.43432682752609252930e-02) (14, -6.93196505308151245117e-02) (15, 2.08033230155706405640e-02) (16, 3.05715412832796573639e-03) (17, 6.91571272909641265869e-03) (18, 5.07724180351942777634e-04) (19, -1.14930626004934310913e-02) (20, -1.82332471013069152832e-02) (21, 2.67223790287971496582e-02) (22, 4.35681417584419250488e-02) (23, 6.78251385688781738281e-02) (24, 7.10595473647117614746e-02) (25, -2.71457862108945846558e-02) (26, -9.37588214874267578125e-02) (27, -9.95567888021469116211e-02) (28, 3.63260582089424133301e-02) (29, -8.34919288754463195801e-02) (30, 2.01147515326738357544e-02) (31, -6.35089725255966186523e-02) (32, -8.75384286046028137207e-02) (33, -1.72867421060800552368e-02) (34, -7.84511864185333251953e-02) (35, 7.48486816883087158203e-02) (36, -5.59603981673717498779e-02) (37, 3.33727709949016571045e-02) (38, -9.28419530391693115234e-02) (39, -6.15610219538211822510e-02) (40, -4.96962331235408782959e-02) (41, -1.35180149227380752563e-02) (42, -2.92895827442407608032e-02) (43, -8.56409296393394470215e-02) (44, -5.00561334192752838135e-02) (45, 7.40603031590580940247e-03) (46, 3.92288751900196075439e-02) (47, 5.11573702096939086914e-02) (48, -8.21661651134490966797e-02) (49, -6.91736862063407897949e-02) (50, -4.76639755070209503174e-02) (51, -6.41422066837549209595e-03) (52, 6.18971846997737884521e-02) (53, 8.71711373329162597656e-02) (54, -2.96002421528100967407e-02) (55, 3.58106195926666259766e-02) (56, -4.24724034965038299561e-02) (57, -3.06939389556646347046e-02) (58, 4.74148653447628021240e-02) (59, 8.78956019878387451172e-02) (60, -8.13724752515554428101e-03) (61, -3.51298414170742034912e-02) (62, -7.27143883705139160156e-02) (63, 1.32896669674664735794e-03) (64, 5.47932051122188568115e-02) (65, -4.72589284181594848633e-02) (66, -8.09273030608892440796e-03) (67, -1.02078735828399658203e-01) (68, -9.90097597241401672363e-02) (69, -1.92218497395515441895e-02) (70, -4.89223673939704895020e-02) (71, -6.14887923002243041992e-02) (72, 8.11067819595336914062e-02) (73, 2.05058194696903228760e-02) (74, -2.21690796315670013428e-02) (75, -7.94152989983558654785e-02) (76, -5.08005358278751373291e-02) (77, -9.78356599807739257812e-02) (78, 9.91556718945503234863e-02) (79, -4.19455468654632568359e-02) (80, 2.00801957398653030396e-02) (0, -6.18574321269989013672e-02) (1, 7.09582716226577758789e-02) (2, -7.61667191982269287109e-02) (3, -6.33389726281166076660e-02) (4, -5.21338433027267456055e-02) (5, 6.72851428389549255371e-02) (6, 1.41689442098140716553e-02) (7, 2.61874757707118988037e-02) (8, 2.42948643863201141357e-02) (9, 1.07666077092289924622e-02) (10, -8.05321484804153442383e-02) (11, -1.03719614446163177490e-01) (12, 5.64509220421314239502e-02) (13, 4.29080985486507415771e-02) (14, 6.61332383751869201660e-02) (15, -8.06778445839881896973e-02) (16, -5.53354546427726745605e-02) (17, 7.50132203102111816406e-02) (18, -7.16513320803642272949e-02) (19, 3.48219834268093109131e-02) (20, -6.38695657253265380859e-02) (21, -1.92212145775556564331e-02) (22, 3.06637957692146301270e-02) (23, 7.06568062305450439453e-02) (24, 5.41470348834991455078e-02) (25, 6.32788762450218200684e-02) (26, -7.26305097341537475586e-02) (27, 7.82243981957435607910e-02) (28, 6.68783336877822875977e-02) (29, 8.52651137392967939377e-04) (30, -5.17079867422580718994e-02) (31, -8.99776816368103027344e-02) (32, 5.23195695132017135620e-03) (33, -3.13625819981098175049e-02) (34, -3.07741668075323104858e-02) (35, 3.57029661536216735840e-02) (36, -5.09491786360740661621e-02) (37, 7.57269412279129028320e-02) (38, -2.27611623704433441162e-02) (39, 7.27083906531333923340e-02) (40, -7.79960677027702331543e-03) (41, 7.98533856868743896484e-03) (42, 8.84232670068740844727e-02) (43, -4.34677042067050933838e-02) (44, -3.47516201436519622803e-02) (45, 4.84956167638301849365e-02) (46, -2.79541015625000000000e-02) (47, 6.41655968502163887024e-03) (48, 2.41007916629314422607e-02) (49, 1.84442568570375442505e-02) (50, -5.68425245583057403564e-02) (51, 7.28139504790306091309e-02) (52, -9.87400338053703308105e-02) (53, 8.19819048047065734863e-02) (54, 4.48224619030952453613e-02) (55, 7.23413899540901184082e-02) (56, 4.76670786738395690918e-02) (57, 8.22672992944717407227e-02) (58, 5.08919768035411834717e-02) (59, 2.12499499320983886719e-02) (60, -1.53542878106236457825e-02) (61, -9.65432450175285339355e-02) (62, 3.34172807633876800537e-02) (63, 7.79968500137329101562e-02) (64, -2.79766470193862915039e-02) (65, -9.95184630155563354492e-02) (66, 1.65962707251310348511e-02) (67, 2.99558304250240325928e-02) (68, 7.19275176525115966797e-02) (69, 9.69448089599609375000e-02) (70, 3.80861572921276092529e-03) (71, -1.65862124413251876831e-02) (72, 1.04254726320505142212e-02) (73, -8.34870710968971252441e-03) (74, 4.62224781513214111328e-02) (75, 7.49502927064895629883e-02) (76, -5.19572682678699493408e-02) (77, -6.59716948866844177246e-02) (78, -2.49512530863285064697e-02) (79, 8.10443088412284851074e-02) (80, 1.07313744723796844482e-01) (0, 3.26475165784358978271e-02) (1, 5.87775856256484985352e-02) (2, 6.60910233855247497559e-02) (3, 2.55788695067167282104e-02) (4, 6.94672483950853347778e-03) (5, 4.37681488692760467529e-02) (6, -2.34303548932075500488e-02) (7, -1.85175647493451833725e-03) (8, 4.06772224232554435730e-03) (9, -9.48812440037727355957e-02) (10, 8.62759426236152648926e-02) (11, 1.01843131706118583679e-02) (12, 4.32183593511581420898e-02) (13, 7.09666162729263305664e-02) (14, 8.63716602325439453125e-02) (15, 4.79663759469985961914e-02) (16, -9.70150902867317199707e-03) (17, 2.26603373885154724121e-02) (18, 2.43812929838895797729e-02) (19, -8.76890122890472412109e-03) (20, -7.35837966203689575195e-02) (21, -8.35653841495513916016e-02) (22, -1.00323133170604705811e-01) (23, 2.49912794679403305054e-02) (24, 5.94209581613540649414e-02) (25, 7.82652050256729125977e-02) (26, 6.73843771219253540039e-02) (27, 9.67267379164695739746e-02) (28, -4.50832881033420562744e-02) (29, 5.16101531684398651123e-02) (30, 5.18095865845680236816e-02) (31, 1.03361472487449645996e-01) (32, 9.55709908157587051392e-03) (33, 2.04511526972055435181e-02) (34, 2.51597743481397628784e-02) (35, -7.91727751493453979492e-02) (36, -3.75983640551567077637e-02) (37, -9.25698429346084594727e-02) (38, 1.22358780354261398315e-02) (39, 6.56783953309059143066e-02) (40, -9.36819389462471008301e-02) (41, 6.84776669368147850037e-03) (42, -2.11781226098537445068e-02) (43, 5.50009049475193023682e-02) (44, -2.85459812730550765991e-02) (45, -3.64451147615909576416e-02) (46, -4.44659637287259101868e-03) (47, 6.71971961855888366699e-02) (48, 7.92266726493835449219e-02) (49, -6.88975527882575988770e-02) (50, -5.39269074797630310059e-02) (51, -8.53711292147636413574e-02) (52, -5.94045817852020263672e-02) (53, -4.32939715683460235596e-02) (54, 2.88975462317466735840e-02) (55, 1.05105206370353698730e-01) (56, -6.86633139848709106445e-02) (57, 4.97655710205435752869e-03) (58, 9.06969085335731506348e-02) (59, -6.12561497837305068970e-03) (60, -5.18668182194232940674e-02) (61, 4.93940934538841247559e-02) (62, -8.78167431801557540894e-03) (63, 5.95525130629539489746e-02) (64, -3.87751907110214233398e-02) (65, -8.16022977232933044434e-02) (66, 6.98220133781433105469e-02) (67, 2.59030926972627639771e-02) (68, -8.53018090128898620605e-02) (69, -9.21317748725414276123e-03) (70, -1.91859267652034759521e-02) (71, -7.06240758299827575684e-02) (72, 8.82587060332298278809e-02) (73, 5.79516217112541198730e-02) (74, 6.95121139287948608398e-02) (75, -3.45752313733100891113e-02) (76, -9.04701352119445800781e-02) (77, -2.33146231621503829956e-02) (78, -8.61745476722717285156e-02) (79, 9.64099392294883728027e-02) (80, -1.46939512342214584351e-02) (0, -2.94026285409927368164e-02) (1, 9.71079096198081970215e-02) (2, 2.93835606426000595093e-02) (3, 2.13476028293371200562e-02) (4, 2.71688569337129592896e-02) (5, 3.28562073409557342529e-02) (6, 4.51144613325595855713e-02) (7, -7.31172636151313781738e-02) (8, 1.88512820750474929810e-02) (9, -6.53159320354461669922e-02) (10, -3.02926134318113327026e-02) (11, -3.21201235055923461914e-02) (12, 1.62952523678541183472e-02) (13, -7.38734304904937744141e-02) (14, 2.31188703328371047974e-02) (15, 3.27027998864650726318e-02) (16, 8.99134501814842224121e-02) (17, -5.47043867409229278564e-02) (18, 4.65422086417675018311e-02) (19, -2.17359121888875961304e-02) (20, 2.35725827515125274658e-02) (21, 6.81352391839027404785e-02) (22, -3.99388931691646575928e-02) (23, -2.56845802068710327148e-02) (24, 3.63298691809177398682e-02) (25, 2.00904570519924163818e-02) (26, -2.06264238804578781128e-02) (27, -9.27448272705078125000e-02) (28, 4.02124002575874328613e-02) (29, -3.04023623466491699219e-02) (30, -4.72422782331705093384e-03) (31, -9.15415287017822265625e-02) (32, -4.02116440236568450928e-02) (33, -6.62334039807319641113e-02) (34, 2.42875423282384872437e-02) (35, 9.33980047702789306641e-02) (36, 6.21435828506946563721e-02) (37, -2.41841524839401245117e-02) (38, -7.97755494713783264160e-02) (39, -9.26050450652837753296e-03) (40, 1.00663788616657257080e-02) (41, -7.05700647085905075073e-03) (42, 5.08627593517303466797e-02) (43, -6.85776695609092712402e-02) (44, 1.75187513232231140137e-02) (45, -1.47722819820046424866e-02) (46, 6.45424798130989074707e-02) (47, 1.43365934491157531738e-02) (48, 3.00052128732204437256e-02) (49, 1.13420663401484489441e-02) (50, 9.54063609242439270020e-02) (51, -4.39382903277873992920e-02) (52, -2.13574226945638656616e-02) (53, -4.28531728684902191162e-02) (54, 3.19186151027679443359e-02) (55, -7.94250816106796264648e-02) (56, 7.37999528646469116211e-02) (57, -8.52436050772666931152e-02) (58, -6.98293596506118774414e-02) (59, 1.84521283954381942749e-02) (60, -1.52191445231437683105e-02) (61, 3.13750058412551879883e-02) (62, 2.49909572303295135498e-02) (63, 5.34609071910381317139e-02) (64, 6.61856979131698608398e-02) (65, -4.04369756579399108887e-02) (66, 4.99525777995586395264e-02) (67, 3.50912436842918395996e-02) (68, 3.91097627580165863037e-02) (69, 7.09822326898574829102e-02) (70, -7.08091109991073608398e-02) (71, -4.97427545487880706787e-02) (72, -3.37047278881072998047e-02) (73, 8.94265845417976379395e-02) (74, -1.17307724431157112122e-02) (75, 8.86081829667091369629e-02) (76, -2.10342332720756530762e-02) (77, -4.78674434125423431396e-02) (78, 1.27153340727090835571e-02) (79, -8.77650156617164611816e-02) (80, 7.24385380744934082031e-02) (0, 1.74971669912338256836e-02) (1, -2.48112082481384277344e-02) (2, -4.16533350944519042969e-02) (3, 6.78306296467781066895e-02) (4, -7.84572362899780273438e-02) (5, -2.01928503811359405518e-02) (6, 5.91248758137226104736e-02) (7, -6.91656023263931274414e-02) (8, 1.50113785639405250549e-02) (9, -2.53740679472684860229e-02) (10, 2.80393268913030624390e-02) (11, -4.92776408791542053223e-02) (12, -8.65154191851615905762e-02) (13, -1.90295577049255371094e-02) (14, -6.77530094981193542480e-02) (15, -2.59107463061809539795e-02) (16, -5.76627328991889953613e-02) (17, 6.45821169018745422363e-02) (18, -6.79948329925537109375e-02) (19, -8.69069695472717285156e-02) (20, -8.85381251573562622070e-02) (21, -2.52877194434404373169e-02) (22, -6.03750254958868026733e-03) (23, -1.04406356811523437500e-01) (24, 7.08593204617500305176e-02) (25, -1.79001893848180770874e-02) (26, -1.24945044517517089844e-02) (27, -7.42609649896621704102e-02) (28, -8.48988220095634460449e-02) (29, 4.79156355140730738640e-04) (30, -9.36061069369316101074e-02) (31, 7.18292128294706344604e-03) (32, 8.53603035211563110352e-02) (33, -3.98278906941413879395e-02) (34, -1.23798614367842674255e-02) (35, -1.03138536214828491211e-01) (36, 4.66003790497779846191e-02) (37, -6.37781322002410888672e-02) (38, -5.56753836572170257568e-02) (39, -3.57019864022731781006e-02) (40, 2.50717680901288986206e-02) (41, 6.00726976990699768066e-02) (42, 1.70675739645957946777e-02) (43, 3.01595814526081085205e-02) (44, -4.24068607389926910400e-02) (45, 4.93393279612064361572e-02) (46, -8.14908519387245178223e-02) (47, -1.19609180837869644165e-02) (48, 2.89953760802745819092e-02) (49, -6.63085207343101501465e-02) (50, 2.54652984440326690674e-02) (51, 2.52715237438678741455e-02) (52, 2.36590132117271423340e-02) (53, -9.99429970979690551758e-02) (54, 4.23964932560920715332e-02) (55, -1.23067935928702354431e-02) (56, -8.91362316906452178955e-03) (57, -8.49609524011611938477e-02) (58, 3.52610424160957336426e-02) (59, -7.85220880061388015747e-03) (60, 3.29522565007209777832e-02) (61, 2.86075770854949951172e-02) (62, -8.78044590353965759277e-02) (63, 1.11997434869408607483e-02) (64, -9.36570987105369567871e-02) (65, -5.19249215722084045410e-03) (66, 2.93938182294368743896e-02) (67, 4.97038811445236206055e-02) (68, 5.21035902202129364014e-02) (69, 5.72317354381084442139e-02) (70, -6.50175958871841430664e-02) (71, -3.60920690000057220459e-02) (72, 3.68783362209796905518e-02) (73, 5.17017431557178497314e-02) (74, -7.66296088695526123047e-02) (75, 8.17184150218963623047e-02) (76, 2.61308290064334869385e-02) (77, -7.74532705545425415039e-02) (78, 3.62360104918479919434e-03) (79, -5.99005669355392456055e-02) (80, 1.99131797999143600464e-02) (0, -9.75559726357460021973e-02) (1, 9.59484279155731201172e-02) (2, -8.91025587916374206543e-02) (3, -7.17071741819381713867e-02) (4, 2.26611457765102386475e-02) (5, 1.13333323970437049866e-02) (6, 2.06234641373157501221e-02) (7, 6.19396530091762542725e-02) (8, -5.38423322141170501709e-02) (9, -6.62646144628524780273e-02) (10, -1.30929322913289070129e-02) (11, 8.55472609400749206543e-02) (12, -5.05059882998466491699e-02) (13, -7.81499296426773071289e-02) (14, 8.56976732611656188965e-02) (15, 6.21075741946697235107e-02) (16, 4.72971163690090179443e-02) (17, 5.92970736324787139893e-02) (18, -3.69434989988803863525e-03) (19, 2.33726948499679565430e-02) (20, 8.20156484842300415039e-02) (21, 9.43133383989334106445e-02) (22, -4.15907762944698333740e-02) (23, 6.32806643843650817871e-02) (24, -9.38283652067184448242e-02) (25, -3.83076481521129608154e-02) (26, -1.84713657945394515991e-02) (27, -4.87916097044944763184e-02) (28, 2.84375753253698348999e-02) (29, 4.56450097262859344482e-02) (30, 2.77046076953411102295e-02) (31, 7.05458670854568481445e-02) (32, 3.86090502142906188965e-02) (33, 4.20875027775764465332e-02) (34, 8.69170054793357849121e-02) (35, -3.09734772890806198120e-02) (36, -5.24829961359500885010e-02) (37, 2.01871078461408615112e-02) (38, -9.01548340916633605957e-02) (39, -1.06364479288458824158e-02) (40, 3.41269671916961669922e-02) (41, 1.98770146816968917847e-02) (42, -2.05448381602764129639e-02) (43, 9.85524132847785949707e-02) (44, 2.08785068243741989136e-02) (45, -3.92578430473804473877e-02) (46, 3.66787537932395935059e-02) (47, -1.69197246432304382324e-02) (48, 9.69891771674156188965e-02) (49, -3.49776595830917358398e-02) (50, 6.70640841126441955566e-02) (51, 1.04174941778182983398e-01) (52, -6.45559355616569519043e-02) (53, -4.24476154148578643799e-02) (54, 3.37614864110946655273e-02) (55, -4.21913266181945800781e-02) (56, 4.94707003235816955566e-03) (57, -5.85340745747089385986e-02) (58, -2.59525757282972335815e-02) (59, -4.00330536067485809326e-02) (60, 5.94940185546875000000e-02) (61, -7.47540071606636047363e-02) (62, -9.07879024744033813477e-02) (63, 6.51034759357571601868e-03) (64, 3.82845103740692138672e-02) (65, 1.06085747480392456055e-01) (66, 4.16702330112457275391e-02) (67, 9.63640511035919189453e-02) (68, -9.97769739478826522827e-03) (69, 8.09048935770988464355e-02) (70, -4.77533526718616485596e-02) (71, -4.66709844768047332764e-02) (72, -2.88772936910390853882e-02) (73, 3.23209092020988464355e-02) (74, -9.18040648102760314941e-02) (75, 1.12622000277042388916e-01) (76, 5.63541650772094726562e-02) (77, 8.08040127158164978027e-02) (78, -6.03316053748130798340e-02) (79, 7.94759020209312438965e-02) (80, -1.20317474007606506348e-01) (0, -6.07048645615577697754e-02) (1, 4.10701967775821685791e-02) (2, -5.96763044595718383789e-02) (3, -1.96116659790277481079e-02) (4, -1.63333769887685775757e-02) (5, -1.94355901330709457397e-02) (6, 7.36726969480514526367e-02) (7, 7.12056364864110946655e-03) (8, 6.27956092357635498047e-02) (9, -8.50548371672630310059e-02) (10, -3.57053168118000030518e-02) (11, 6.83872327208518981934e-02) (12, -8.40899348258972167969e-02) (13, 5.24792633950710296631e-02) (14, 4.88591752946376800537e-03) (15, -9.86054316163063049316e-02) (16, -3.85667942464351654053e-03) (17, -1.99185982346534729004e-02) (18, -6.25645229592919349670e-03) (19, -4.49358485639095306396e-02) (20, 3.12497615814208984375e-02) (21, 2.51384079456329345703e-02) (22, 2.03417409211397171021e-02) (23, -5.97477629780769348145e-02) (24, 3.90954427421092987061e-02) (25, 8.63629486411809921265e-03) (26, 9.50950235128402709961e-02) (27, -4.02845581993460655212e-03) (28, 6.43521994352340698242e-02) (29, 4.89168092608451843262e-02) (30, 1.14600395318120718002e-03) (31, -9.48963835835456848145e-02) (32, -7.45560834184288978577e-03) (33, 4.18613739311695098877e-02) (34, -1.35010862722992897034e-02) (35, 7.48910829424858093262e-02) (36, -7.69372805953025817871e-02) (37, -3.96775491535663604736e-02) (38, -1.71284694224596023560e-02) (39, 8.59992504119873046875e-02) (40, -2.45421379804611206055e-02) (41, 4.90605793893337249756e-02) (42, 5.65578863024711608887e-02) (43, -7.64092756435275077820e-03) (44, 2.32274667359888553619e-03) (45, -3.94267588853836059570e-02) (46, -7.21129868179559707642e-03) (47, 9.88178849220275878906e-02) (48, 4.00426052510738372803e-02) (49, 8.94091352820396423340e-02) (50, -4.72153760492801666260e-02) (51, -2.68668886274099349976e-02) (52, 1.38743361458182334900e-02) (53, 7.50766545534133911133e-02) (54, 1.22680040076375007629e-02) (55, -4.45259511470794677734e-02) (56, -1.66571885347366333008e-02) (57, 9.17833205312490463257e-03) (58, 5.02980239689350128174e-02) (59, -5.08898384869098663330e-02) (60, -4.26533147692680358887e-02) (61, -4.70097437500953674316e-02) (62, -4.64340336620807647705e-02) (63, 4.91125509142875671387e-02) (64, 9.37513336539268493652e-02) (65, 4.06772457063198089600e-02) (66, 2.34452877193689346313e-02) (67, -8.18088278174400329590e-02) (68, -1.00244209170341491699e-01) (69, -9.31269451975822448730e-02) (70, -9.64763984084129333496e-02) (71, -2.29403339326381683350e-02) (72, 5.56457191705703735352e-02) (73, 5.92975020408630371094e-02) (74, 6.93873986601829528809e-02) (75, -4.18970808386802673340e-02) (76, -7.97918066382408142090e-02) (77, -3.62929701805114746094e-02) (78, -4.47322167456150054932e-02) (79, 6.09689801931381225586e-02) (80, -3.69401164352893829346e-02) (0, 1.65454354137182235718e-02) (1, -7.13904723525047302246e-02) (2, 5.99543191492557525635e-02) (3, -1.94407142698764801025e-02) (4, 5.17122149467468261719e-02) (5, -8.24977979063987731934e-02) (6, 7.00800865888595581055e-02) (7, -4.93200048804283142090e-02) (8, 6.19151480495929718018e-02) (9, -8.73935520648956298828e-02) (10, 1.01562160998582839966e-02) (11, -7.91436731815338134766e-02) (12, -3.35133820772171020508e-02) (13, -4.34955619275569915771e-02) (14, -7.99867063760757446289e-02) (15, -9.41026732325553894043e-02) (16, 8.07299539446830749512e-02) (17, -6.79790750145912170410e-02) (18, -7.60877504944801330566e-02) (19, 8.52652564644813537598e-02) (20, -5.03418222069740295410e-02) (21, -1.83867402374744415283e-02) (22, 4.59978915750980377197e-02) (23, -1.06980040669441223145e-01) (24, -4.67441640794277191162e-02) (25, -1.03362865746021270752e-01) (26, -8.14783126115798950195e-02) (27, 1.19644207879900932312e-02) (28, -1.96836665272712707520e-02) (29, 7.10378587245941162109e-02) (30, 6.66245296597480773926e-02) (31, 6.18580207228660583496e-02) (32, -9.38520506024360656738e-02) (33, 3.00767440348863601685e-02) (34, -4.66568917036056518555e-02) (35, 4.97844181954860687256e-02) (36, 5.31731210649013519287e-02) (37, -8.49672928452491760254e-02) (38, -7.70968943834304809570e-02) (39, 2.51161307096481323242e-02) (40, -5.35787194967269897461e-02) (41, 1.80786456912755966187e-02) (42, 4.33480851352214813232e-02) (43, 3.73524334281682968140e-03) (44, 9.66110900044441223145e-02) (45, 7.15957731008529663086e-02) (46, 2.96089295297861099243e-02) (47, 6.56988546252250671387e-02) (48, -7.61310681700706481934e-02) (49, 2.79853455722332000732e-02) (50, 8.70099812746047973633e-02) (51, -4.75983284413814544678e-02) (52, -7.03859701752662658691e-02) (53, 5.86720742285251617432e-03) (54, -2.45974510908126831055e-02) (55, -2.45552919805049896240e-02) (56, 1.13698514178395271301e-02) (57, -2.57001630961894989014e-02) (58, -8.08348804712295532227e-02) (59, 7.31694102287292480469e-02) (60, -3.03068235516548156738e-02) (61, 7.07827731966972351074e-02) (62, 5.14535419642925262451e-02) (63, -3.01738958805799484253e-02) (64, 2.59566884487867355347e-02) (65, -9.66049581766128540039e-02) (66, -4.68358062207698822021e-02) (67, -2.44309045374393463135e-02) (68, -4.87279519438743591309e-02) (69, -5.14759048819541931152e-02) (70, -6.74772858619689941406e-02) (71, -2.41118259727954864502e-02) (72, -1.03851631283760070801e-01) (73, -1.21950976550579071045e-01) (74, -7.43847414851188659668e-02) (75, -1.25738680362701416016e-01) (76, 8.83363112807273864746e-02) (77, 2.43039000779390335083e-02) (78, 9.48181152343750000000e-02) (79, -1.09629638493061065674e-01) (80, 5.93816116452217102051e-02) (0, 4.96993772685527801514e-02) (1, -8.70529562234878540039e-03) (2, 3.29803898930549621582e-02) (3, -1.40603175386786460876e-02) (4, 5.44992126524448394775e-02) (5, -7.00515359640121459961e-02) (6, -8.97236540913581848145e-02) (7, -4.14194390177726745605e-02) (8, -5.29136843979358673096e-02) (9, -8.87377187609672546387e-02) (10, 2.36041825264692306519e-02) (11, -6.01343140006065368652e-02) (12, 7.35881477594375610352e-02) (13, -7.24522545933723449707e-02) (14, 6.52831122279167175293e-02) (15, -9.43573117256164550781e-02) (16, -2.21743416041135787964e-02) (17, -2.56234500557184219360e-02) (18, -5.47626949846744537354e-02) (19, 5.58160915970802307129e-02) (20, 1.26713386271148920059e-03) (21, 6.23138993978500366211e-02) (22, 5.68284168839454650879e-02) (23, 1.77047215402126312256e-02) (24, 7.53303468227386474609e-02) (25, 6.34601786732673645020e-02) (26, 2.12448905222117900848e-03) (27, 3.51937040686607360840e-02) (28, 2.53936182707548141479e-02) (29, 2.88407951593399047852e-02) (30, -7.26141259074211120605e-02) (31, 6.80476054549217224121e-03) (32, -7.93408229947090148926e-02) (33, 6.58334419131278991699e-02) (34, 8.46223756670951843262e-02) (35, 8.02520960569381713867e-02) (36, 9.13529619574546813965e-02) (37, 1.05604737997055053711e-01) (38, -7.56534412503242492676e-02) (39, -6.13916404545307159424e-02) (40, -9.88512933254241943359e-02) (41, 6.92566111683845520020e-02) (42, -1.80522445589303970337e-02) (43, 9.05564725399017333984e-02) (44, 8.14768299460411071777e-02) (45, -5.26377782225608825684e-02) (46, 7.54042714834213256836e-02) (47, -2.70758382976055145264e-02) (48, 2.26865103468298912048e-03) (49, -5.00532910227775573730e-02) (50, -1.02996923029422760010e-01) (51, -7.28813782334327697754e-02) (52, 9.12113562226295471191e-02) (53, 8.20891112089157104492e-02) (54, 1.65541358292102813721e-02) (55, 8.58627110719680786133e-02) (56, 3.13294455409049987793e-02) (57, -5.54767847061157226562e-02) (58, -7.87170324474573135376e-03) (59, -1.80351361632347106934e-02) (60, 4.98005039989948272705e-02) (61, 4.20544333755970001221e-02) (62, 6.88279420137405395508e-02) (63, 7.90708661079406738281e-02) (64, -1.67223308235406875610e-02) (65, 6.62351921200752258301e-02) (66, 3.17917466163635253906e-02) (67, -1.24971233308315277100e-02) (68, 4.05636057257652282715e-02) (69, 8.10490250587463378906e-02) (70, -1.83442013803869485855e-03) (71, 7.06057921051979064941e-02) (72, 2.57073398679494857788e-02) (73, 8.53419080376625061035e-02) (74, 2.61385738849639892578e-02) (75, 2.66130734235048294067e-02) (76, -9.72711518406867980957e-02) (77, 3.53978723287582397461e-02) (78, 5.31846806406974792480e-02) (79, 3.10059878975152969360e-02) (80, 3.04692387580871582031e-02) (0, 7.53033235669136047363e-02) (1, 2.73697469383478164673e-02) (2, 5.00767715275287628174e-02) (3, 5.38306906819343566895e-02) (4, -5.05954921245574951172e-02) (5, 2.46100835502147674561e-02) (6, -2.23496742546558380127e-02) (7, -1.36576471850275993347e-02) (8, -7.13225528597831726074e-02) (9, 4.96296510100364685059e-02) (10, -7.19569995999336242676e-02) (11, 5.46579360961914062500e-02) (12, 1.62350945174694061279e-02) (13, -9.56841707229614257812e-02) (14, -6.31230100989341735840e-02) (15, -3.12349349260330200195e-02) (16, 3.95804159343242645264e-02) (17, 1.27847827970981597900e-02) (18, -8.90150815248489379883e-02) (19, 5.99748734384775161743e-03) (20, -8.89699831604957580566e-02) (21, 7.09751397371292114258e-02) (22, -6.89697712659835815430e-02) (23, 8.24736282229423522949e-02) (24, 3.67706932593137025833e-04) (25, 3.96843291819095611572e-02) (26, 8.76005664467811584473e-02) (27, -7.72593840956687927246e-02) (28, 3.74829745851457118988e-03) (29, -1.64841549121774733067e-04) (30, 8.00064951181411743164e-02) (31, -5.27447136119008064270e-03) (32, -5.86106665432453155518e-02) (33, 3.00728436559438705444e-02) (34, -4.80047389864921569824e-02) (35, -1.75393093377351760864e-02) (36, -4.15457859635353088379e-02) (37, 2.99518965184688568115e-02) (38, 6.88638016581535339355e-02) (39, -1.86688490211963653564e-02) (40, -2.48390100896358489990e-02) (41, -9.15047749876976013184e-02) (42, -5.22170364856719970703e-02) (43, 9.69131365418434143066e-02) (44, -8.77924337983131408691e-02) (45, -2.35874168574810028076e-02) (46, -4.66509014368057250977e-02) (47, 5.32472692430019378662e-02) (48, 7.89877548813819885254e-02) (49, -1.81593354791402816772e-02) (50, -5.62601983547210693359e-02) (51, 1.02361470460891723633e-01) (52, -5.67951202392578125000e-02) (53, -1.14980107173323631287e-02) (54, 7.09154978394508361816e-02) (55, 5.64786903560161590576e-02) (56, -7.85226896405220031738e-02) (57, 7.00896978378295898438e-02) (58, 6.52087703347206115723e-02) (59, 3.60134877264499664307e-02) (60, -4.15861643850803375244e-02) (61, 5.45589439570903778076e-02) (62, -7.81115442514419555664e-02) (63, -6.18700915947556495667e-03) (64, -2.81341448426246643066e-02) (65, -2.44809407740831375122e-02) (66, 6.53984621167182922363e-02) (67, 3.50632816553115844727e-02) (68, 9.01719480752944946289e-02) (69, 4.03630211949348449707e-02) (70, -9.52607095241546630859e-02) (71, -2.01757140457630157471e-02) (72, 4.05776537954807281494e-02) (73, -5.34161254763603210449e-02) (74, -3.44653464853763580322e-02) (75, 5.51873035728931427002e-02) (76, 1.50108691304922103882e-02) (77, 3.51613387465476989746e-02) (78, -1.42228631302714347839e-02) (79, 4.19265730306506156921e-03) (80, -5.73646947741508483887e-02) (0, 4.68074642121791839600e-02) (1, -9.30356048047542572021e-03) (2, -5.01361638307571411133e-02) (3, -6.88514709472656250000e-02) (4, -2.93802972882986068726e-02) (5, -9.99266430735588073730e-02) (6, -4.54679504036903381348e-02) (7, -6.58724904060363769531e-02) (8, 7.48080536723136901855e-02) (9, 8.31985995173454284668e-02) (10, -7.79129704460501670837e-03) (11, 2.10281163454055786133e-02) (12, -9.13819521665573120117e-02) (13, 8.43389406800270080566e-02) (14, -1.00489191710948944092e-01) (15, -2.46914103627204895020e-02) (16, 5.45532479882240295410e-02) (17, 2.59154699742794036865e-02) (18, -2.53737550228834152222e-02) (19, -1.45581066608428955078e-02) (20, 3.65421622991561889648e-02) (21, 4.43354360759258270264e-02) (22, -7.17568248510360717773e-02) (23, 7.19092711806297302246e-02) (24, -9.01209264993667602539e-02) (25, 7.17611014842987060547e-02) (26, -1.24531025066971778870e-02) (27, 3.77425290644168853760e-02) (28, -2.61406805366277694702e-02) (29, 7.98382908105850219727e-02) (30, 4.77177612483501434326e-02) (31, -8.08633938431739807129e-02) (32, -1.31573965772986412048e-02) (33, 9.43744704127311706543e-02) (34, -3.91364656388759613037e-02) (35, 4.61679175496101379395e-02) (36, -9.86419916152954101562e-02) (37, 9.21262521296739578247e-03) (38, 8.91490206122398376465e-02) (39, 7.28481411933898925781e-02) (40, -3.17797879688441753387e-03) (41, -1.70224364846944808960e-02) (42, 4.36802022159099578857e-03) (43, 4.51986258849501609802e-03) (44, -2.38567385822534561157e-02) (45, -2.74413218721747398376e-03) (46, 7.95675516128540039062e-02) (47, -7.48097524046897888184e-02) (48, -7.50613883137702941895e-02) (49, -4.26467023789882659912e-02) (50, 1.36734480038285255432e-02) (51, 6.17280937731266021729e-02) (52, -9.57997292280197143555e-02) (53, 4.06224466860294342041e-02) (54, 3.60373072326183319092e-02) (55, -8.21318849921226501465e-02) (56, 1.41084957867860794067e-02) (57, -7.69575014710426330566e-02) (58, 5.80052547156810760498e-02) (59, 8.64648893475532531738e-02) (60, -9.46394205093383789062e-02) (61, 3.69550054892897605896e-03) (62, -9.18434709310531616211e-02) (63, -1.79338548332452774048e-02) (64, -5.53735473658889532089e-04) (65, -3.55956852436065673828e-02) (66, -6.74114823341369628906e-02) (67, 8.93230200745165348053e-04) (68, 7.45384469628334045410e-02) (69, -8.32049474120140075684e-02) (70, -2.30794101953506469727e-02) (71, -2.58390977978706359863e-02) (72, 4.99959755688905715942e-03) (73, 7.56143331527709960938e-02) (74, 8.60139355063438415527e-02) (75, 7.48934298753738403320e-02) (76, -1.92596949636936187744e-02) (77, 6.61344155669212341309e-02) (78, -9.79286953806877136230e-02) (79, 3.52630415000021457672e-03) (80, -2.67147179692983627319e-02) (0, 1.45286526530981063843e-02) (1, -3.33842448890209197998e-02) (2, -6.25676065683364868164e-02) (3, -3.98812815546989440918e-02) (4, -9.45193171501159667969e-02) (5, -4.82209622859954833984e-02) (6, 7.99060463905334472656e-02) (7, -6.93224593997001647949e-02) (8, -7.97503888607025146484e-02) (9, 6.63725361227989196777e-02) (10, -6.41027688980102539062e-02) (11, 1.84969771653413772583e-02) (12, 8.18502977490425109863e-02) (13, 2.30109393596649169922e-02) (14, -7.58103355765342712402e-02) (15, -5.61975501477718353271e-02) (16, 6.27644956111907958984e-02) (17, 2.48795673251152038574e-02) (18, -8.01541581749916076660e-02) (19, 7.53707662224769592285e-02) (20, -9.58800539374351501465e-02) (21, -1.15599425043910741806e-03) (22, -1.49787729606032371521e-02) (23, 8.14252942800521850586e-02) (24, -1.74533780664205551147e-02) (25, -4.28704768419265747070e-02) (26, -3.85340787470340728760e-02) (27, -4.93809208273887634277e-02) (28, -4.48710098862648010254e-02) (29, 6.46303966641426086426e-02) (30, -1.56415980309247970581e-02) (31, 8.19476544857025146484e-02) (32, -5.16459271311759948730e-02) (33, 1.30554214119911193848e-02) (34, -4.88250665366649627686e-02) (35, -5.77010326087474822998e-02) (36, 7.14627131819725036621e-02) (37, -7.50040933489799499512e-02) (38, -2.65010297298431396484e-02) (39, 8.22789296507835388184e-02) (40, 8.84646177291870117188e-02) (41, 1.62068903446197509766e-02) (42, 1.51962973177433013916e-02) (43, 7.25398063659667968750e-02) (44, -5.97503297030925750732e-02) (45, 2.59457230567932128906e-02) (46, -9.22053605318069458008e-02) (47, 9.84644740819931030273e-02) (48, -5.47250919044017791748e-02) (49, -5.89893832802772521973e-02) (50, 6.08409605920314788818e-02) (51, -4.41384352743625640869e-02) (52, 3.40581350028514862061e-02) (53, -4.54978905618190765381e-02) (54, -7.31451958417892456055e-02) (55, -7.79577940702438354492e-02) (56, 1.01470993831753730774e-02) (57, -4.66591911390423774719e-03) (58, -3.86841036379337310791e-02) (59, 7.16874152421951293945e-02) (60, -4.80857640504837036133e-02) (61, 4.87286187708377838135e-02) (62, 4.84710969030857086182e-02) (63, -9.02869366109371185303e-03) (64, -4.81385737657546997070e-02) (65, 9.45825353264808654785e-02) (66, 2.22160443663597106934e-02) (67, -7.54252299666404724121e-02) (68, -9.58481058478355407715e-02) (69, 1.03238910436630249023e-01) (70, 9.47809666395187377930e-02) (71, 1.06919378042221069336e-01) (72, 1.12464670091867446899e-02) (73, 2.46181851252913475037e-03) (74, 6.47329092025756835938e-02) (75, 5.22434487938880920410e-02) (76, -8.23382139205932617188e-02) (77, 8.79844203591346740723e-02) (78, 2.49072443693876266479e-02) (79, -2.99643874168395996094e-02) (80, -7.09243044257164001465e-02) (0, 1.41401514410972595215e-02) (1, 2.51049501821398735046e-03) (2, 4.56169694662094116211e-02) (3, 4.40837070345878601074e-02) (4, 4.57376651465892791748e-02) (5, 5.35728335380554199219e-02) (6, -4.22374457120895385742e-02) (7, -8.11047181487083435059e-02) (8, -7.95110464096069335938e-02) (9, -9.01781916618347167969e-02) (10, -9.91211552172899246216e-03) (11, 5.60286976397037506104e-02) (12, 6.15607947111129760742e-02) (13, 4.95098754763603210449e-02) (14, -8.04962441325187683105e-02) (15, 3.63467931747436523438e-02) (16, -2.15468704700469970703e-02) (17, -8.06967765092849731445e-02) (18, 6.00059404969215393066e-02) (19, -3.85041460394859313965e-02) (20, -7.62827768921852111816e-02) (21, 3.68719510734081268311e-02) (22, 7.10825622081756591797e-02) (23, 1.13599328324198722839e-03) (24, 1.12158544361591339111e-02) (25, 4.15048608556389808655e-03) (26, 1.93947721272706985474e-02) (27, -2.61989049613475799561e-02) (28, -3.98265458643436431885e-02) (29, 6.75735846161842346191e-02) (30, -8.74091684818267822266e-03) (31, 3.53498607873916625977e-02) (32, -3.42299491167068481445e-02) (33, -7.51371979713439941406e-02) (34, -1.09834708273410797119e-02) (35, -9.27905812859535217285e-02) (36, 8.27856138348579406738e-02) (37, 3.18635813891887664795e-02) (38, -6.04106783866882324219e-02) (39, -9.92706716060638427734e-02) (40, 5.90963140130043029785e-02) (41, 3.18487582262605428696e-04) (42, 4.97226119041442871094e-02) (43, -6.61081066937185823917e-05) (44, -3.58626171946525573730e-02) (45, 6.88104256987571716309e-02) (46, -3.81962731480598449707e-02) (47, 2.62340810149908065796e-02) (48, -8.85542407631874084473e-02) (49, 8.53833258152008056641e-02) (50, -7.59013816714286804199e-02) (51, -9.29971188306808471680e-02) (52, 4.69888001680374145508e-02) (53, 6.09168931841850280762e-02) (54, 4.08106781542301177979e-02) (55, -6.96575269103050231934e-02) (56, -1.61084998399019241333e-02) (57, -7.09844678640365600586e-02) (58, 3.69749404489994049072e-02) (59, 1.09407100826501846313e-02) (60, -7.58230909705162048340e-02) (61, -1.02336287498474121094e-01) (62, -3.00483815371990203857e-02) (63, -1.95275582373142242432e-02) (64, -4.84806634485721588135e-02) (65, 4.02469821274280548096e-02) (66, 1.57335028052330017090e-02) (67, -8.37812498211860656738e-02) (68, 6.25219708308577537537e-03) (69, 2.97773219645023345947e-02) (70, -5.40420934557914733887e-02) (71, -6.94191753864288330078e-02) (72, -4.57655824720859527588e-02) (73, -1.08601845800876617432e-01) (74, 6.24281764030456542969e-02) (75, -1.34751328732818365097e-03) (76, 8.65889638662338256836e-02) (77, -1.13246977329254150391e-01) (78, -2.76783369481563568115e-02) (79, 6.94867148995399475098e-02) (80, 7.85162523388862609863e-02) (0, -4.61178421974182128906e-02) (1, -9.19913947582244873047e-02) (2, 3.87171842157840728760e-02) (3, -7.18196928501129150391e-02) (4, 2.75014527142047882080e-02) (5, 8.13913270831108093262e-02) (6, 6.20250497013330459595e-03) (7, 7.22380355000495910645e-02) (8, 1.31960620637983083725e-03) (9, -6.75702914595603942871e-02) (10, 9.19159501791000366211e-02) (11, 1.26121370121836662292e-02) (12, -4.28426032885909080505e-03) (13, -2.00747232884168624878e-02) (14, 5.09809739887714385986e-02) (15, -4.92508038878440856934e-02) (16, 8.47412124276161193848e-02) (17, 8.43175873160362243652e-02) (18, 3.73348183929920196533e-02) (19, 3.15831527113914489746e-02) (20, -8.29656645655632019043e-02) (21, 8.89167636632919311523e-02) (22, 7.95079767704010009766e-02) (23, -7.06222057342529296875e-02) (24, 4.44692596793174743652e-02) (25, -1.70272449031472206116e-03) (26, -9.02600213885307312012e-02) (27, 4.54542785882949829102e-02) (28, 3.79912480711936950684e-02) (29, 9.96137335896492004395e-02) (30, 3.88727895915508270264e-02) (31, 9.99227762222290039062e-02) (32, 8.93294885754585266113e-02) (33, -2.15032566338777542114e-02) (34, -8.47324579954147338867e-02) (35, 2.95934230089187622070e-02) (36, -4.76098619401454925537e-02) (37, 2.79285162687301635742e-02) (38, -1.19396355003118515015e-02) (39, 5.27188256382942199707e-02) (40, 5.27195222675800323486e-02) (41, -2.13355049490928649902e-02) (42, -4.32847701013088226318e-02) (43, -5.22518083453178405762e-02) (44, 4.60042990744113922119e-02) (45, -9.02690961956977844238e-02) (46, -3.64631740376353263855e-03) (47, 3.60781773924827575684e-02) (48, 8.98143947124481201172e-02) (49, -6.81258589029312133789e-02) (50, -4.13915626704692840576e-02) (51, 1.06400221586227416992e-01) (52, -8.44217687845230102539e-02) (53, -5.89530356228351593018e-02) (54, -7.18584433197975158691e-02) (55, 5.26372939348220825195e-02) (56, 3.74294482171535491943e-02) (57, -6.15374781191349029541e-02) (58, -9.66751389205455780029e-03) (59, -2.36806776374578475952e-02) (60, -6.75184503197669982910e-02) (61, -6.99429959058761596680e-02) (62, -2.75239218026399612427e-02) (63, -7.08389282226562500000e-02) (64, 3.39808431454002857208e-03) (65, -1.23291509225964546204e-02) (66, 4.86938245594501495361e-02) (67, 5.16170300543308258057e-02) (68, -9.08611714839935302734e-02) (69, -5.64366132020950317383e-02) (70, -5.01791154965758323669e-03) (71, 5.87449595332145690918e-02) (72, 1.15811266005039215088e-02) (73, 5.22244349122047424316e-02) (74, 8.92000198364257812500e-02) (75, -3.68047207593917846680e-02) (76, 4.61066551506519317627e-02) (77, -1.28985159099102020264e-02) (78, 8.64202901721000671387e-02) (79, 3.77918295562267303467e-02) (80, -4.72989454865455627441e-02) (0, -5.92996068298816680908e-02) (1, 2.96605061739683151245e-02) (2, 1.49217536672949790955e-02) (3, -2.53064874559640884399e-02) (4, 5.20105995237827301025e-02) (5, -4.13923747837543487549e-02) (6, 1.01068772375583648682e-01) (7, 8.41062739491462707520e-02) (8, 4.63072918355464935303e-02) (9, -2.97557134181261062622e-02) (10, -8.40257555246353149414e-02) (11, 6.63561969995498657227e-02) (12, 3.52080315351486206055e-02) (13, -6.93353787064552307129e-02) (14, -3.78401242196559906006e-02) (15, -8.69246795773506164551e-02) (16, 7.68468007445335388184e-02) (17, -9.48797538876533508301e-02) (18, -8.86640027165412902832e-02) (19, -8.86862128973007202148e-02) (20, -8.07576254010200500488e-03) (21, 6.54014050960540771484e-02) (22, 1.76306124776601791382e-02) (23, -6.07275031507015228271e-02) (24, 5.96235431730747222900e-02) (25, 7.39922076463699340820e-02) (26, 8.42717140913009643555e-02) (27, -6.41242340207099914551e-02) (28, 5.20985350012779235840e-02) (29, 1.55082559213042259216e-02) (30, 3.96979041397571563721e-02) (31, 9.77258086204528808594e-02) (32, -6.23928569257259368896e-02) (33, -4.85288612544536590576e-02) (34, -3.10373026877641677856e-02) (35, 9.58371832966804504395e-02) (36, 7.50444224104285240173e-03) (37, -2.85871494561433792114e-02) (38, 7.25240632891654968262e-02) (39, -4.86031435430049896240e-02) (40, 3.82963269948959350586e-02) (41, 8.64085182547569274902e-02) (42, -8.42538475990295410156e-02) (43, -2.79874056577682495117e-02) (44, -8.89960452914237976074e-02) (45, -2.39420197904109954834e-02) (46, -1.47034702822566032410e-02) (47, 8.94075259566307067871e-02) (48, -1.93928293883800506592e-02) (49, -3.85600351728498935699e-03) (50, 9.65008214116096496582e-02) (51, 7.23732188344001770020e-02) (52, -3.93238738179206848145e-02) (53, 1.54053019359707832336e-02) (54, -9.13473367691040039062e-02) (55, -8.60455334186553955078e-02) (56, -8.34704283624887466431e-03) (57, 9.27536040544509887695e-02) (58, -5.35137131810188293457e-02) (59, -5.80542907118797302246e-02) (60, 6.68492820113897323608e-03) (61, 8.33418071269989013672e-02) (62, -6.01125769317150115967e-02) (63, 4.60463501513004302979e-02) (64, -6.68564662337303161621e-02) (65, 4.39750822260975837708e-03) (66, 3.55454683303833007812e-02) (67, 3.68587262928485870361e-02) (68, 7.16427266597747802734e-02) (69, 1.33931888267397880554e-02) (70, 8.24849680066108703613e-02) (71, 8.62397719174623489380e-03) (72, -6.62195030599832534790e-03) (73, 9.66967120766639709473e-02) (74, 6.82425871491432189941e-02) (75, 7.09797162562608718872e-03) (76, -3.80494967103004455566e-02) (77, -4.45972010493278503418e-02) (78, -1.38281462714076042175e-02) (79, 4.30199913680553436279e-02) (80, -1.31970213260501623154e-03) (0, -1.27178719267249107361e-02) (1, 1.40989222563803195953e-03) (2, 8.87365117669105529785e-02) (3, 8.65584537386894226074e-02) (4, 1.24623430892825126648e-02) (5, -1.00206442177295684814e-01) (6, -2.89035886526107788086e-02) (7, -8.70775151997804641724e-03) (8, -6.63997679948806762695e-02) (9, 2.57536699064075946808e-03) (10, 9.20994952321052551270e-02) (11, -8.31824764609336853027e-02) (12, 2.98754032701253890991e-02) (13, 2.86518894135951995850e-02) (14, -5.62595129013061523438e-02) (15, -7.11365193128585815430e-02) (16, -4.34364229440689086914e-02) (17, 6.98662698268890380859e-02) (18, 1.06982998549938201904e-01) (19, 6.45593851804733276367e-02) (20, 5.57960644364356994629e-02) (21, -6.87996624037623405457e-03) (22, -4.64400574564933776855e-02) (23, 3.38757820427417755127e-02) (24, -3.68631854653358459473e-02) (25, 4.97822798788547515869e-02) (26, 9.80484560132026672363e-02) (27, 6.81269867345690727234e-03) (28, -4.41455766558647155762e-02) (29, 2.66971699893474578857e-02) (30, -5.59818893671035766602e-02) (31, 8.41993279755115509033e-03) (32, -7.57980197668075561523e-02) (33, -6.47981017827987670898e-02) (34, -2.98663065768778324127e-03) (35, 3.17156016826629638672e-02) (36, -6.40830472111701965332e-02) (37, 6.14584498107433319092e-02) (38, -6.18427656590938568115e-02) (39, -2.48674564063549041748e-02) (40, -2.16893833130598068237e-02) (41, -8.69160369038581848145e-02) (42, -1.83678641915321350098e-02) (43, -1.03006474673748016357e-01) (44, 5.49117214977741241455e-02) (45, 3.46934683620929718018e-02) (46, -5.82103505730628967285e-02) (47, -9.61994603276252746582e-02) (48, 1.84962842613458633423e-02) (49, -7.73415416479110717773e-02) (50, 9.66491550207138061523e-02) (51, -4.43805865943431854248e-02) (52, 3.00184357911348342896e-02) (53, -7.34632238745689392090e-02) (54, -8.71792733669281005859e-02) (55, -1.15851551294326782227e-01) (56, 8.04894343018531799316e-02) (57, -1.08368404209613800049e-01) (58, 1.58201567828655242920e-02) (59, -8.10386762022972106934e-02) (60, 3.61690968275070190430e-02) (61, 4.66125383973121643066e-02) (62, 3.86656001210212707520e-02) (63, 5.85395246744155883789e-02) (64, -9.84580144286155700684e-02) (65, -6.42514675855636596680e-02) (66, 1.66035424917936325073e-02) (67, -6.84282779693603515625e-02) (68, -7.41623416543006896973e-02) (69, 2.95111685991287231445e-02) (70, 3.30203473567962646484e-02) (71, -2.09594350308179855347e-02) (72, 6.47586137056350708008e-02) (73, -8.17836895585060119629e-02) (74, 1.32768424227833747864e-02) (75, 5.77822234481573104858e-03) (76, 8.32891538739204406738e-02) (77, 2.55077313631772994995e-02) (78, 5.78666590154170989990e-02) (79, -1.66977103799581527710e-02) (80, 1.13066837191581726074e-01) (0, 2.60626431554555892944e-02) (1, 8.95799174904823303223e-02) (2, 3.49027737975120544434e-02) (3, 8.48778039216995239258e-02) (4, 8.51561278104782104492e-02) (5, 3.23732905089855194092e-02) (6, 7.51674026250839233398e-02) (7, 1.08214356005191802979e-01) (8, -4.51398454606533050537e-02) (9, -7.99671858549118041992e-02) (10, 4.35275845229625701904e-02) (11, -8.77792239189147949219e-02) (12, 7.23398998379707336426e-02) (13, 2.97845192253589630127e-02) (14, -8.76689553260803222656e-02) (15, -6.97306469082832336426e-02) (16, -5.28935268521308898926e-02) (17, -2.48253196477890014648e-02) (18, -6.54313489794731140137e-02) (19, 1.01526118814945220947e-01) (20, 9.85053479671478271484e-02) (21, 6.10428862273693084717e-02) (22, 7.36299902200698852539e-02) (23, -4.28588017821311950684e-02) (24, -3.01682520657777786255e-02) (25, 9.45104192942380905151e-03) (26, -5.80281801521778106689e-02) (27, -7.54199624061584472656e-02) (28, -8.12166556715965270996e-02) (29, 5.77257387340068817139e-02) (30, 1.08183160424232482910e-01) (31, 9.17595699429512023926e-02) (32, 4.15541902184486389160e-02) (33, 3.58342751860618591309e-02) (34, 5.92048056423664093018e-02) (35, 2.85446792840957641602e-02) (36, -3.57008501887321472168e-02) (37, 4.09013479948043823242e-02) (38, 7.89478421211242675781e-03) (39, -4.45179501548409461975e-03) (40, 3.55477891862392425537e-02) (41, -3.17312553524971008301e-02) (42, 1.64861548691987991333e-02) (43, 1.40202771872282028198e-02) (44, 6.97314590215682983398e-02) (45, 7.98579212278127670288e-03) (46, 1.36665934696793556213e-02) (47, 1.24790050089359283447e-01) (48, 5.21584264934062957764e-02) (49, 7.88216665387153625488e-02) (50, 6.92759007215499877930e-02) (51, 7.22173154354095458984e-02) (52, 6.11828174442052841187e-03) (53, 7.77010768651962280273e-02) (54, 8.07451903820037841797e-02) (55, 8.44003334641456604004e-02) (56, -3.16025502979755401611e-02) (57, -5.30606731772422790527e-02) (58, 5.95049411058425903320e-02) (59, 1.37454858049750328064e-02) (60, 6.53116628527641296387e-02) (61, 8.91249477863311767578e-02) (62, -2.34938170760869979858e-02) (63, 8.69024172425270080566e-03) (64, -1.55530627816915512085e-02) (65, -6.27296566963195800781e-02) (66, 8.80736038088798522949e-02) (67, 4.66481968760490417480e-02) (68, 2.64775250107049942017e-02) (69, 2.57159192115068435669e-02) (70, 9.34900417923927307129e-02) (71, -1.09974434599280357361e-02) (72, 5.00078350305557250977e-02) (73, -2.21790699288249015808e-03) (74, 3.60005237162113189697e-02) (75, 3.76274399459362030029e-02) (76, 4.92090769112110137939e-02) (77, -9.73348598927259445190e-03) (78, -2.18036212027072906494e-02) (79, 2.91649848222732543945e-02) (80, -1.58572658896446228027e-01) (0, -1.93412341177463531494e-02) (1, -6.59099444746971130371e-02) (2, 2.91475839912891387939e-03) (3, -6.49975240230560302734e-02) (4, -8.31314399838447570801e-02) (5, -4.24269139766693115234e-02) (6, -2.47590858489274978638e-02) (7, -6.23684674501419067383e-02) (8, -7.75235295295715332031e-02) (9, 6.06472082436084747314e-02) (10, 9.10715535283088684082e-02) (11, 7.79646262526512145996e-02) (12, -8.39742571115493774414e-02) (13, -2.92049124836921691895e-02) (14, -5.05326651036739349365e-02) (15, -7.93909355998039245605e-02) (16, -4.51683700084686279297e-02) (17, 6.42303153872489929199e-02) (18, 3.70129719376564025879e-02) (19, 4.58887480199337005615e-02) (20, 4.40413169562816619873e-02) (21, 9.71926599740982055664e-02) (22, -2.06716042011976242065e-02) (23, -8.91687795519828796387e-02) (24, 3.72319817543029785156e-02) (25, 8.14433693885803222656e-02) (26, 5.11533133685588836670e-02) (27, 9.16046425700187683105e-02) (28, -3.13243828713893890381e-02) (29, -5.59398271143436431885e-02) (30, 9.33451503515243530273e-02) (31, 6.56212419271469116211e-02) (32, -2.09064222872257232666e-02) (33, -2.61540082283318042755e-03) (34, 9.79760512709617614746e-02) (35, -1.32499542087316513062e-03) (36, 5.33130727708339691162e-02) (37, -2.19587516039609909058e-02) (38, 2.84079369157552719116e-02) (39, 7.49157965183258056641e-02) (40, -6.93805366754531860352e-02) (41, 3.02070956677198410034e-02) (42, 5.45804761350154876709e-02) (43, -4.54365201294422149658e-02) (44, 9.31772440671920776367e-02) (45, 1.03605806827545166016e-01) (46, -3.48299033939838409424e-02) (47, -4.51506711542606353760e-02) (48, 5.86207546293735504150e-02) (49, -8.23684260249137878418e-02) (50, 8.55149775743484497070e-02) (51, 1.56401600688695907593e-02) (52, -9.43239927291870117188e-02) (53, -2.03039646148681640625e-02) (54, 1.36942230165004730225e-02) (55, 5.16437180340290069580e-02) (56, -4.36374582350254058838e-02) (57, -2.27975491434335708618e-02) (58, 2.96393949538469314575e-02) (59, 3.67012545466423034668e-02) (60, 1.09205264598131179810e-02) (61, 3.33186239004135131836e-02) (62, -5.54236443713307380676e-03) (63, 9.38334837555885314941e-02) (64, -7.99588859081268310547e-02) (65, -3.12764244154095649719e-03) (66, -2.11363583803176879883e-02) (67, 7.90637880563735961914e-02) (68, 6.00758641958236694336e-02) (69, -7.83550888299942016602e-02) (70, 4.05214577913284301758e-02) (71, 1.05834014713764190674e-01) (72, 4.00193892419338226318e-02) (73, -1.60166970454156398773e-03) (74, -5.74143901467323303223e-02) (75, 