FANN_FLO_2.1
num_layers=4
learning_rate=0.100000
connection_rate=1.000000
network_type=0
learning_momentum=0.800000
training_algorithm=0
train_error_function=1
train_stop_function=0
cascade_output_change_fraction=0.010000
quickprop_decay=-0.000100
quickprop_mu=1.750000
rprop_increase_factor=1.200000
rprop_decrease_factor=0.500000
rprop_delta_min=0.000000
rprop_delta_max=50.000000
rprop_delta_zero=0.100000
cascade_output_stagnation_epochs=12
cascade_candidate_change_fraction=0.010000
cascade_candidate_stagnation_epochs=12
cascade_max_out_epochs=150
cascade_min_out_epochs=10
cascade_max_cand_epochs=150
cascade_min_cand_epochs=10
cascade_num_candidate_groups=2
bit_fail_limit=3.49999994039535522461e-01
cascade_candidate_limit=1.00000000000000000000e+03
cascade_weight_multiplier=4.00000005960464477539e-01
cascade_activation_functions_count=10
cascade_activation_functions=3 5 7 8 10 11 14 15 16 17 
cascade_activation_steepnesses_count=4
cascade_activation_steepnesses=2.50000000000000000000e-01 5.00000000000000000000e-01 7.50000000000000000000e-01 1.00000000000000000000e+00 
layer_sizes=361 39 20 2 
scale_included=0
neurons (num_inputs, activation_function, activation_steepness)=(0, 0, 0.00000000000000000000e+00) (0, 0, 0.00000000000000000000e+00) (0, 0, 0.00000000000000000000e+00) (0, 0, 0.00000000000000000000e+00) (0, 0, 0.00000000000000000000e+00) (0, 0, 0.00000000000000000000e+00) (0, 0, 0.00000000000000000000e+00) (0, 0, 0.00000000000000000000e+00) (0, 0, 0.00000000000000000000e+00) (0, 0, 0.00000000000000000000e+00) (0, 0, 0.00000000000000000000e+00) (0, 0, 0.00000000000000000000e+00) (0, 0, 0.00000000000000000000e+00) (0, 0, 0.00000000000000000000e+00) (0, 0, 0.00000000000000000000e+00) (0, 0, 0.00000000000000000000e+00) (0, 0, 0.00000000000000000000e+00) (0, 0, 0.00000000000000000000e+00) (0, 0, 0.00000000000000000000e+00) (0, 0, 0.00000000000000000000e+00) (0, 0, 0.00000000000000000000e+00) (0, 0, 0.00000000000000000000e+00) (0, 0, 0.00000000000000000000e+00) (0, 0, 0.00000000000000000000e+00) (0, 0, 0.00000000000000000000e+00) (0, 0, 0.00000000000000000000e+00) (0, 0, 0.00000000000000000000e+00) (0, 0, 0.00000000000000000000e+00) (0, 0, 0.00000000000000000000e+00) (0, 0, 0.00000000000000000000e+00) (0, 0, 0.00000000000000000000e+00) (0, 0, 0.00000000000000000000e+00) (0, 0, 0.00000000000000000000e+00) (0, 0, 0.00000000000000000000e+00) (0, 0, 0.00000000000000000000e+00) (0, 0, 0.00000000000000000000e+00) (0, 0, 0.00000000000000000000e+00) (0, 0, 0.00000000000000000000e+00) (0, 0, 0.00000000000000000000e+00) (0, 0, 0.00000000000000000000e+00) (0, 0, 0.00000000000000000000e+00) (0, 0, 0.00000000000000000000e+00) (0, 0, 0.00000000000000000000e+00) (0, 0, 0.00000000000000000000e+00) (0, 0, 0.00000000000000000000e+00) (0, 0, 0.00000000000000000000e+00) (0, 0, 0.00000000000000000000e+00) (0, 0, 0.00000000000000000000e+00) (0, 0, 0.00000000000000000000e+00) (0, 0, 0.00000000000000000000e+00) (0, 0, 0.00000000000000000000e+00) (0, 0, 0.00000000000000000000e+00) (0, 0, 0.00000000000000000000e+00) (0, 0, 0.00000000000000000000e+00) (0, 0, 0.00000000000000000000e+00) (0, 0, 0.00000000000000000000e+00) (0, 0, 0.00000000000000000000e+00) (0, 0, 0.00000000000000000000e+00) (0, 0, 0.00000000000000000000e+00) (0, 0, 0.00000000000000000000e+00) (0, 0, 0.00000000000000000000e+00) (0, 0, 0.00000000000000000000e+00) (0, 0, 0.00000000000000000000e+00) (0, 0, 0.00000000000000000000e+00) (0, 0, 0.00000000000000000000e+00) (0, 0, 0.00000000000000000000e+00) (0, 0, 0.00000000000000000000e+00) (0, 0, 0.00000000000000000000e+00) (0, 0, 0.00000000000000000000e+00) (0, 0, 0.00000000000000000000e+00) (0, 0, 0.00000000000000000000e+00) (0, 0, 0.00000000000000000000e+00) (0, 0, 0.00000000000000000000e+00) (0, 0, 0.00000000000000000000e+00) (0, 0, 0.00000000000000000000e+00) (0, 0, 0.00000000000000000000e+00) (0, 0, 0.00000000000000000000e+00) (0, 0, 0.00000000000000000000e+00) (0, 0, 0.00000000000000000000e+00) (0, 0, 0.00000000000000000000e+00) (0, 0, 0.00000000000000000000e+00) (0, 0, 0.00000000000000000000e+00) (0, 0, 0.00000000000000000000e+00) (0, 0, 0.00000000000000000000e+00) (0, 0, 0.00000000000000000000e+00) (0, 0, 0.00000000000000000000e+00) (0, 0, 0.00000000000000000000e+00) (0, 0, 0.00000000000000000000e+00) (0, 0, 0.00000000000000000000e+00) (0, 0, 0.00000000000000000000e+00) (0, 0, 0.00000000000000000000e+00) (0, 0, 0.00000000000000000000e+00) (0, 0, 0.00000000000000000000e+00) (0, 0, 0.00000000000000000000e+00) (0, 0, 0.00000000000000000000e+00) (0, 0, 0.00000000000000000000e+00) (0, 0, 0.00000000000000000000e+00) (0, 0, 0.00000000000000000000e+00) (0, 0, 0.00000000000000000000e+00) (0, 0, 0.00000000000000000000e+00) (0, 0, 0.00000000000000000000e+00) (0, 0, 0.00000000000000000000e+00) (0, 0, 0.00000000000000000000e+00) (0, 0, 0.00000000000000000000e+00) (0, 0, 0.00000000000000000000e+00) (0, 0, 0.00000000000000000000e+00) (0, 0, 0.00000000000000000000e+00) (0, 0, 0.00000000000000000000e+00) (0, 0, 0.00000000000000000000e+00) (0, 0, 0.00000000000000000000e+00) (0, 0, 0.00000000000000000000e+00) (0, 0, 0.00000000000000000000e+00) (0, 0, 0.00000000000000000000e+00) (0, 0, 0.00000000000000000000e+00) (0, 0, 0.00000000000000000000e+00) (0, 0, 0.00000000000000000000e+00) (0, 0, 0.00000000000000000000e+00) (0, 0, 0.00000000000000000000e+00) (0, 0, 0.00000000000000000000e+00) (0, 0, 0.00000000000000000000e+00) (0, 0, 0.00000000000000000000e+00) (0, 0, 0.00000000000000000000e+00) (0, 0, 0.00000000000000000000e+00) (0, 0, 0.00000000000000000000e+00) (0, 0, 0.00000000000000000000e+00) (0, 0, 0.00000000000000000000e+00) (0, 0, 0.00000000000000000000e+00) (0, 0, 0.00000000000000000000e+00) (0, 0, 0.00000000000000000000e+00) (0, 0, 0.00000000000000000000e+00) (0, 0, 0.00000000000000000000e+00) (0, 0, 0.00000000000000000000e+00) (0, 0, 0.00000000000000000000e+00) (0, 0, 0.00000000000000000000e+00) (0, 0, 0.00000000000000000000e+00) (0, 0, 0.00000000000000000000e+00) (0, 0, 0.00000000000000000000e+00) (0, 0, 0.00000000000000000000e+00) (0, 0, 0.00000000000000000000e+00) (0, 0, 0.00000000000000000000e+00) (0, 0, 0.00000000000000000000e+00) (0, 0, 0.00000000000000000000e+00) (0, 0, 0.00000000000000000000e+00) (0, 0, 0.00000000000000000000e+00) (0, 0, 0.00000000000000000000e+00) (0, 0, 0.00000000000000000000e+00) (0, 0, 0.00000000000000000000e+00) (0, 0, 0.00000000000000000000e+00) (0, 0, 0.00000000000000000000e+00) (0, 0, 0.00000000000000000000e+00) (0, 0, 0.00000000000000000000e+00) (0, 0, 0.00000000000000000000e+00) (0, 0, 0.00000000000000000000e+00) (0, 0, 0.00000000000000000000e+00) (0, 0, 0.00000000000000000000e+00) (0, 0, 0.00000000000000000000e+00) (0, 0, 0.00000000000000000000e+00) (0, 0, 0.00000000000000000000e+00) (0, 0, 0.00000000000000000000e+00) (0, 0, 0.00000000000000000000e+00) (0, 0, 0.00000000000000000000e+00) (0, 0, 0.00000000000000000000e+00) (0, 0, 0.00000000000000000000e+00) (0, 0, 0.00000000000000000000e+00) (0, 0, 0.00000000000000000000e+00) (0, 0, 0.00000000000000000000e+00) (0, 0, 0.00000000000000000000e+00) (0, 0, 0.00000000000000000000e+00) (0, 0, 0.00000000000000000000e+00) (0, 0, 0.00000000000000000000e+00) (0, 0, 0.00000000000000000000e+00) (0, 0, 0.00000000000000000000e+00) (0, 0, 0.00000000000000000000e+00) (0, 0, 0.00000000000000000000e+00) (0, 0, 0.00000000000000000000e+00) (0, 0, 0.00000000000000000000e+00) (0, 0, 0.00000000000000000000e+00) (0, 0, 0.00000000000000000000e+00) (0, 0, 0.00000000000000000000e+00) (0, 0, 0.00000000000000000000e+00) (0, 0, 0.00000000000000000000e+00) (0, 0, 0.00000000000000000000e+00) (0, 0, 0.00000000000000000000e+00) (0, 0, 0.00000000000000000000e+00) (0, 0, 0.00000000000000000000e+00) (0, 0, 0.00000000000000000000e+00) (0, 0, 0.00000000000000000000e+00) (0, 0, 0.00000000000000000000e+00) (0, 0, 0.00000000000000000000e+00) (0, 0, 0.00000000000000000000e+00) (0, 0, 0.00000000000000000000e+00) (0, 0, 0.00000000000000000000e+00) (0, 0, 0.00000000000000000000e+00) (0, 0, 0.00000000000000000000e+00) (0, 0, 0.00000000000000000000e+00) (0, 0, 0.00000000000000000000e+00) (0, 0, 0.00000000000000000000e+00) (0, 0, 0.00000000000000000000e+00) (0, 0, 0.00000000000000000000e+00) (0, 0, 0.00000000000000000000e+00) (0, 0, 0.00000000000000000000e+00) (0, 0, 0.00000000000000000000e+00) (0, 0, 0.00000000000000000000e+00) (0, 0, 0.00000000000000000000e+00) (0, 0, 0.00000000000000000000e+00) (0, 0, 0.00000000000000000000e+00) (0, 0, 0.00000000000000000000e+00) (0, 0, 0.00000000000000000000e+00) (0, 0, 0.00000000000000000000e+00) (0, 0, 0.00000000000000000000e+00) (0, 0, 0.00000000000000000000e+00) (0, 0, 0.00000000000000000000e+00) (0, 0, 0.00000000000000000000e+00) (0, 0, 0.00000000000000000000e+00) (0, 0, 0.00000000000000000000e+00) (0, 0, 0.00000000000000000000e+00) (0, 0, 0.00000000000000000000e+00) (0, 0, 0.00000000000000000000e+00) (0, 0, 0.00000000000000000000e+00) (0, 0, 0.00000000000000000000e+00) (0, 0, 0.00000000000000000000e+00) (0, 0, 0.00000000000000000000e+00) (0, 0, 0.00000000000000000000e+00) (0, 0, 0.00000000000000000000e+00) (0, 0, 0.00000000000000000000e+00) (0, 0, 0.00000000000000000000e+00) (0, 0, 0.00000000000000000000e+00) (0, 0, 0.00000000000000000000e+00) (0, 0, 0.00000000000000000000e+00) (0, 0, 0.00000000000000000000e+00) (0, 0, 0.00000000000000000000e+00) (0, 0, 0.00000000000000000000e+00) (0, 0, 0.00000000000000000000e+00) (0, 0, 0.00000000000000000000e+00) (0, 0, 0.00000000000000000000e+00) (0, 0, 0.00000000000000000000e+00) (0, 0, 0.00000000000000000000e+00) (0, 0, 0.00000000000000000000e+00) (0, 0, 0.00000000000000000000e+00) (0, 0, 0.00000000000000000000e+00) (0, 0, 0.00000000000000000000e+00) (0, 0, 0.00000000000000000000e+00) (0, 0, 0.00000000000000000000e+00) (0, 0, 0.00000000000000000000e+00) (0, 0, 0.00000000000000000000e+00) (0, 0, 0.00000000000000000000e+00) (0, 0, 0.00000000000000000000e+00) (0, 0, 0.00000000000000000000e+00) (0, 0, 0.00000000000000000000e+00) (0, 0, 0.00000000000000000000e+00) (0, 0, 0.00000000000000000000e+00) (0, 0, 0.00000000000000000000e+00) (0, 0, 0.00000000000000000000e+00) (0, 0, 0.00000000000000000000e+00) (0, 0, 0.00000000000000000000e+00) (0, 0, 0.00000000000000000000e+00) (0, 0, 0.00000000000000000000e+00) (0, 0, 0.00000000000000000000e+00) (0, 0, 0.00000000000000000000e+00) (0, 0, 0.00000000000000000000e+00) (0, 0, 0.00000000000000000000e+00) (0, 0, 0.00000000000000000000e+00) (0, 0, 0.00000000000000000000e+00) (0, 0, 0.00000000000000000000e+00) (0, 0, 0.00000000000000000000e+00) (0, 0, 0.00000000000000000000e+00) (0, 0, 0.00000000000000000000e+00) (0, 0, 0.00000000000000000000e+00) (0, 0, 0.00000000000000000000e+00) (0, 0, 0.00000000000000000000e+00) (0, 0, 0.00000000000000000000e+00) (0, 0, 0.00000000000000000000e+00) (0, 0, 0.00000000000000000000e+00) (0, 0, 0.00000000000000000000e+00) (0, 0, 0.00000000000000000000e+00) (0, 0, 0.00000000000000000000e+00) (0, 0, 0.00000000000000000000e+00) (0, 0, 0.00000000000000000000e+00) (0, 0, 0.00000000000000000000e+00) (0, 0, 0.00000000000000000000e+00) (0, 0, 0.00000000000000000000e+00) (0, 0, 0.00000000000000000000e+00) (0, 0, 0.00000000000000000000e+00) (0, 0, 0.00000000000000000000e+00) (0, 0, 0.00000000000000000000e+00) (0, 0, 0.00000000000000000000e+00) (0, 0, 0.00000000000000000000e+00) (0, 0, 0.00000000000000000000e+00) (0, 0, 0.00000000000000000000e+00) (0, 0, 0.00000000000000000000e+00) (0, 0, 0.00000000000000000000e+00) (0, 0, 0.00000000000000000000e+00) (0, 0, 0.00000000000000000000e+00) (0, 0, 0.00000000000000000000e+00) (0, 0, 0.00000000000000000000e+00) (0, 0, 0.00000000000000000000e+00) (0, 0, 0.00000000000000000000e+00) (0, 0, 0.00000000000000000000e+00) (0, 0, 0.00000000000000000000e+00) (0, 0, 0.00000000000000000000e+00) (0, 0, 0.00000000000000000000e+00) (0, 0, 0.00000000000000000000e+00) (0, 0, 0.00000000000000000000e+00) (0, 0, 0.00000000000000000000e+00) (0, 0, 0.00000000000000000000e+00) (0, 0, 0.00000000000000000000e+00) (0, 0, 0.00000000000000000000e+00) (0, 0, 0.00000000000000000000e+00) (0, 0, 0.00000000000000000000e+00) (0, 0, 0.00000000000000000000e+00) (0, 0, 0.00000000000000000000e+00) (0, 0, 0.00000000000000000000e+00) (0, 0, 0.00000000000000000000e+00) (0, 0, 0.00000000000000000000e+00) (0, 0, 0.00000000000000000000e+00) (0, 0, 0.00000000000000000000e+00) (0, 0, 0.00000000000000000000e+00) (0, 0, 0.00000000000000000000e+00) (0, 0, 0.00000000000000000000e+00) (0, 0, 0.00000000000000000000e+00) (0, 0, 0.00000000000000000000e+00) (0, 0, 0.00000000000000000000e+00) (0, 0, 0.00000000000000000000e+00) (0, 0, 0.00000000000000000000e+00) (0, 0, 0.00000000000000000000e+00) (0, 0, 0.00000000000000000000e+00) (0, 0, 0.00000000000000000000e+00) (0, 0, 0.00000000000000000000e+00) (0, 0, 0.00000000000000000000e+00) (0, 0, 0.00000000000000000000e+00) (0, 0, 0.00000000000000000000e+00) (0, 0, 0.00000000000000000000e+00) (0, 0, 0.00000000000000000000e+00) (0, 0, 0.00000000000000000000e+00) (0, 0, 0.00000000000000000000e+00) (0, 0, 0.00000000000000000000e+00) (0, 0, 0.00000000000000000000e+00) (0, 0, 0.00000000000000000000e+00) (0, 0, 0.00000000000000000000e+00) (0, 0, 0.00000000000000000000e+00) (0, 0, 0.00000000000000000000e+00) (0, 0, 0.00000000000000000000e+00) (0, 0, 0.00000000000000000000e+00) (0, 0, 0.00000000000000000000e+00) (0, 0, 0.00000000000000000000e+00) (0, 0, 0.00000000000000000000e+00) (0, 0, 0.00000000000000000000e+00) (0, 0, 0.00000000000000000000e+00) (0, 0, 0.00000000000000000000e+00) (0, 0, 0.00000000000000000000e+00) (0, 0, 0.00000000000000000000e+00) (0, 0, 0.00000000000000000000e+00) (0, 0, 0.00000000000000000000e+00) (0, 0, 0.00000000000000000000e+00) (0, 0, 0.00000000000000000000e+00) (0, 0, 0.00000000000000000000e+00) (0, 0, 0.00000000000000000000e+00) (0, 0, 0.00000000000000000000e+00) (0, 0, 0.00000000000000000000e+00) (0, 0, 0.00000000000000000000e+00) (0, 0, 0.00000000000000000000e+00) (361, 10, 5.00000000000000000000e-01) (361, 10, 5.00000000000000000000e-01) (361, 10, 5.00000000000000000000e-01) (361, 10, 5.00000000000000000000e-01) (361, 10, 5.00000000000000000000e-01) (361, 10, 5.00000000000000000000e-01) (361, 10, 5.00000000000000000000e-01) (361, 10, 5.00000000000000000000e-01) (361, 10, 5.00000000000000000000e-01) (361, 10, 5.00000000000000000000e-01) (361, 10, 5.00000000000000000000e-01) (361, 10, 5.00000000000000000000e-01) (361, 10, 5.00000000000000000000e-01) (361, 10, 5.00000000000000000000e-01) (361, 10, 5.00000000000000000000e-01) (361, 10, 5.00000000000000000000e-01) (361, 10, 5.00000000000000000000e-01) (361, 10, 5.00000000000000000000e-01) (361, 10, 5.00000000000000000000e-01) (361, 10, 5.00000000000000000000e-01) (361, 10, 5.00000000000000000000e-01) (361, 10, 5.00000000000000000000e-01) (361, 10, 5.00000000000000000000e-01) (361, 10, 5.00000000000000000000e-01) (361, 10, 5.00000000000000000000e-01) (361, 10, 5.00000000000000000000e-01) (361, 10, 5.00000000000000000000e-01) (361, 10, 5.00000000000000000000e-01) (361, 10, 5.00000000000000000000e-01) (361, 10, 5.00000000000000000000e-01) (361, 10, 5.00000000000000000000e-01) (361, 10, 5.00000000000000000000e-01) (361, 10, 5.00000000000000000000e-01) (361, 10, 5.00000000000000000000e-01) (361, 10, 5.00000000000000000000e-01) (361, 10, 5.00000000000000000000e-01) (361, 10, 5.00000000000000000000e-01) (361, 10, 5.00000000000000000000e-01) (0, 10, 0.00000000000000000000e+00) (39, 10, 5.00000000000000000000e-01) (39, 10, 5.00000000000000000000e-01) (39, 10, 5.00000000000000000000e-01) (39, 10, 5.00000000000000000000e-01) (39, 10, 5.00000000000000000000e-01) (39, 10, 5.00000000000000000000e-01) (39, 10, 5.00000000000000000000e-01) (39, 10, 5.00000000000000000000e-01) (39, 10, 5.00000000000000000000e-01) (39, 10, 5.00000000000000000000e-01) (39, 10, 5.00000000000000000000e-01) (39, 10, 5.00000000000000000000e-01) (39, 10, 5.00000000000000000000e-01) (39, 10, 5.00000000000000000000e-01) (39, 10, 5.00000000000000000000e-01) (39, 10, 5.00000000000000000000e-01) (39, 10, 5.00000000000000000000e-01) (39, 10, 5.00000000000000000000e-01) (39, 10, 5.00000000000000000000e-01) (0, 10, 0.00000000000000000000e+00) (20, 0, 5.00000000000000000000e-01) (0, 0, 0.00000000000000000000e+00) 
connections (connected_to_neuron, weight)=(0, 3.49141061305999755859e-02) (1, 4.91483248770236968994e-02) (2, 8.75443294644355773926e-02) (3, 1.79504435509443283081e-02) (4, 1.62008017301559448242e-01) (5, -1.26843705773353576660e-01) (6, 6.25576078891754150391e-02) (7, -6.10661543905735015869e-02) (8, -1.19571937248110771179e-02) (9, 1.52886241674423217773e-01) (10, -5.85361272096633911133e-02) (11, -5.95457479357719421387e-02) (12, -8.23083594441413879395e-02) (13, 2.19035204499959945679e-02) (14, 7.95874092727899551392e-03) (15, 1.49383721873164176941e-02) (16, 1.44726019352674484253e-02) (17, 1.15434430539608001709e-01) (18, -2.13195785880088806152e-01) (19, 1.24921903014183044434e-01) (20, 8.37756972759962081909e-03) (21, -1.26698330044746398926e-01) (22, -5.79985156655311584473e-02) (23, -1.73156354576349258423e-02) (24, -8.23540315032005310059e-02) (25, -5.32631836831569671631e-02) (26, 1.40860393643379211426e-01) (27, 7.59204179048538208008e-02) (28, 2.67601087689399719238e-02) (29, 1.50127947330474853516e-01) (30, 1.04579851031303405762e-01) (31, 1.87185883522033691406e-01) (32, 7.47319534420967102051e-02) (33, 2.88302563130855560303e-02) (34, -7.99886584281921386719e-02) (35, 2.11379721760749816895e-01) (36, 5.13744577765464782715e-02) (37, 7.17256367206573486328e-02) (38, 5.98290190100669860840e-02) (39, -1.71632423996925354004e-01) (40, -4.89973649382591247559e-02) (41, 3.15744690597057342529e-02) (42, 2.75204312056303024292e-02) (43, 1.06981093995273113251e-03) (44, 4.90250810980796813965e-02) (45, 6.83559700846672058105e-02) (46, 6.00367300212383270264e-02) (47, 3.89090999960899353027e-02) (48, 7.97315537929534912109e-02) (49, -1.31649374961853027344e-02) (50, 3.52501161396503448486e-02) (51, 1.78468246012926101685e-02) (52, 1.39442775398492813110e-02) (53, 6.54319971799850463867e-02) (54, 8.25327187776565551758e-02) (55, 1.71085283160209655762e-01) (56, 4.37184013426303863525e-02) (57, 1.35761052370071411133e-01) (58, 7.48906582593917846680e-02) (59, 1.26332983374595642090e-01) (60, -1.12535648047924041748e-01) (61, 2.01238244771957397461e-02) (62, 1.25105559825897216797e-01) (63, 8.47259163856506347656e-02) (64, -1.83979555964469909668e-01) (65, 2.62953918427228927612e-02) (66, 1.68054793030023574829e-02) (67, -5.22310175001621246338e-02) (68, -9.63427424430847167969e-02) (69, 8.57974588871002197266e-02) (70, 2.39110365509986877441e-02) (71, 4.82550226151943206787e-02) (72, -1.20115317404270172119e-01) (73, -2.23602861166000366211e-01) (74, 1.75544302910566329956e-02) (75, -7.20388963818550109863e-02) (76, 1.04781992733478546143e-01) (77, -4.86999191343784332275e-02) (78, -8.06100666522979736328e-02) (79, -1.44174709916114807129e-01) (80, 2.51262150704860687256e-02) (81, 1.12045079469680786133e-01) (82, 9.37692821025848388672e-02) (83, -1.04959443211555480957e-01) (84, -5.15535809099674224854e-02) (85, 1.26088261604309082031e-01) (86, 1.17283947765827178955e-01) (87, 1.42701476812362670898e-01) (88, -8.13270807266235351562e-02) (89, 9.62989404797554016113e-02) (90, 5.92229925096035003662e-02) (91, -4.40268516540527343750e-02) (92, -1.56705603003501892090e-02) (93, 3.81533987820148468018e-02) (94, 1.20720781385898590088e-01) (95, 6.34774342179298400879e-02) (96, -6.12976402044296264648e-02) (97, -1.63404531776905059814e-02) (98, -1.20773419737815856934e-01) (99, 1.84107888489961624146e-02) (100, 5.74274593964219093323e-03) (101, -1.69308036565780639648e-01) (102, -8.29930827021598815918e-02) (103, 2.79840137809514999390e-02) (104, -1.42873004078865051270e-01) (105, -7.45984306558966636658e-03) (106, -1.60354942083358764648e-01) (107, -1.38416681438684463501e-02) (108, 3.63130047917366027832e-02) (109, -1.64285108447074890137e-01) (110, 8.42164829373359680176e-02) (111, -1.17651261389255523682e-02) (112, -6.10228180885314941406e-02) (113, 9.94989648461341857910e-02) (114, -6.08865469694137573242e-02) (115, 8.90674516558647155762e-02) (116, 4.32210117578506469727e-02) (117, -4.52188327908515930176e-02) (118, -1.18906296789646148682e-01) (119, -7.93004930019378662109e-02) (120, -1.17611743509769439697e-01) (121, 1.40922009944915771484e-01) (122, -8.95532220602035522461e-02) (123, 4.02092672884464263916e-02) (124, 1.49920836091041564941e-01) (125, -7.64369741082191467285e-02) (126, 1.22064992785453796387e-01) (127, 9.40494164824485778809e-02) (128, 7.10579529404640197754e-02) (129, -1.48369342088699340820e-01) (130, 1.41522824764251708984e-01) (131, -3.00102718174457550049e-02) (132, -2.14692205190658569336e-01) (133, 2.43959724903106689453e-01) (134, 6.75015849992632865906e-03) (135, -2.70868122577667236328e-01) (136, 2.15794846415519714355e-01) (137, -1.19172120466828346252e-02) (138, -5.77843599021434783936e-02) (139, 6.47383406758308410645e-02) (140, -6.23492896556854248047e-02) (141, -5.90143315494060516357e-02) (142, 1.59884661436080932617e-01) (143, -9.48765277862548828125e-02) (144, 6.19532875716686248779e-02) (145, 2.27003209292888641357e-02) (146, -9.65791866183280944824e-02) (147, 1.87195137143135070801e-01) (148, 1.04378178715705871582e-01) (149, -3.96801810711622238159e-03) (150, -7.22568333148956298828e-02) (151, 2.99689114093780517578e-01) (152, 1.14797085523605346680e-01) (153, 8.28171521425247192383e-02) (154, 3.54969277977943420410e-02) (155, 8.58128219842910766602e-02) (156, 8.55141133069992065430e-02) (157, -6.80436193943023681641e-02) (158, -6.45558387041091918945e-02) (159, 5.89600093662738800049e-02) (160, -1.17510817945003509521e-02) (161, -6.14404585212469100952e-03) (162, 3.89216728508472442627e-02) (163, 2.56308522075414657593e-02) (164, 1.44008826464414596558e-02) (165, 6.18678331375122070312e-02) (166, 4.78321760892868041992e-02) (167, 4.57341931760311126709e-02) (168, -7.22195580601692199707e-02) (169, 1.33362971246242523193e-02) (170, 1.19804218411445617676e-02) (171, 1.25380948185920715332e-01) (172, 1.38558015227317810059e-01) (173, 1.43318846821784973145e-01) (174, 2.54627689719200134277e-03) (175, -2.28233803063631057739e-02) (176, 2.30511367321014404297e-01) (177, -1.47110342979431152344e-01) (178, -5.39881736040115356445e-03) (179, 8.63380581140518188477e-02) (180, -8.41490179300308227539e-03) (181, 1.06637373566627502441e-01) (182, -3.27250212430953979492e-02) (183, -1.80762074887752532959e-02) (184, 1.00143484771251678467e-01) (185, 7.36766457557678222656e-02) (186, -3.51194478571414947510e-03) (187, 5.18719553947448730469e-02) (188, 9.95416268706321716309e-02) (189, 8.53878259658813476562e-02) (190, 9.02079865336418151855e-02) (191, -6.09435103833675384521e-02) (192, 1.51211515069007873535e-01) (193, 7.31952264904975891113e-02) (194, 6.48599267005920410156e-02) (195, 1.26664370298385620117e-01) (196, 8.07351544499397277832e-02) (197, 1.19019784033298492432e-01) (198, 5.21019473671913146973e-03) (199, 3.05875223129987716675e-02) (200, 7.56642175838351249695e-03) (201, -1.23838715255260467529e-01) (202, 1.00284842774271965027e-02) (203, 8.72848778963088989258e-02) (204, -1.02549210190773010254e-01) (205, 2.94428970664739608765e-02) (206, -1.12074993550777435303e-01) (207, 9.58200357854366302490e-03) (208, -7.14840665459632873535e-02) (209, -1.13783687353134155273e-01) (210, 6.17605261504650115967e-02) (211, 1.14695034921169281006e-01) (212, -4.30342145264148712158e-02) (213, -1.22197769582271575928e-01) (214, 6.78116828203201293945e-02) (215, -5.65750785171985626221e-02) (216, -2.46597751975059509277e-02) (217, -8.30907002091407775879e-03) (218, 5.21309860050678253174e-02) (219, 1.38536840677261352539e-01) (220, 1.07141718268394470215e-01) (221, -9.95999127626419067383e-02) (222, 1.22050352394580841064e-01) (223, -8.01293179392814636230e-02) (224, 1.08710266649723052979e-02) (225, 7.00575038790702819824e-02) (226, 9.80384349822998046875e-02) (227, -8.11088383197784423828e-02) (228, -4.84167132526636123657e-03) (229, 9.89041030406951904297e-02) (230, -1.12111799418926239014e-01) (231, -4.91798147559165954590e-02) (232, -1.38786630704998970032e-02) (233, 1.47961098700761795044e-02) (234, 6.67955130338668823242e-02) (235, -1.18996366858482360840e-01) (236, -7.42395594716072082520e-02) (237, 7.18705505132675170898e-02) (238, -2.38784611225128173828e-01) (239, 9.61442887783050537109e-02) (240, -1.53507530689239501953e-01) (241, -5.41421584784984588623e-02) (242, 6.54634386301040649414e-02) (243, 2.21815332770347595215e-02) (244, -7.49009773135185241699e-02) (245, -1.53436074033379554749e-02) (246, -7.57510662078857421875e-02) (247, 5.98528534173965454102e-02) (248, 5.42424097657203674316e-02) (249, -1.59766450524330139160e-01) (250, -3.60022597014904022217e-02) (251, 7.85408914089202880859e-02) (252, -7.51172611489892005920e-03) (253, -1.61826297640800476074e-01) (254, 2.01997920870780944824e-01) (255, 1.99534054845571517944e-02) (256, -7.93834105134010314941e-02) (257, 5.39618209004402160645e-02) (258, -2.51635722815990447998e-02) (259, -9.51805114746093750000e-02) (260, -9.04711149632930755615e-03) (261, -5.40256612002849578857e-02) (262, -2.54297792911529541016e-01) (263, -1.17065049707889556885e-02) (264, -1.80133990943431854248e-02) (265, -1.84783697128295898438e-01) (266, -2.42525875568389892578e-01) (267, 6.92518502473831176758e-02) (268, -2.55594998598098754883e-01) (269, -4.80873398482799530029e-02) (270, 8.13639238476753234863e-02) (271, 9.08486079424619674683e-03) (272, -5.99267669022083282471e-02) (273, -1.48297384381294250488e-01) (274, -9.10811573266983032227e-02) (275, -2.29407716542482376099e-02) (276, -4.02289293706417083740e-02) (277, -1.06206670403480529785e-01) (278, -4.12674359977245330811e-02) (279, 4.45524826645851135254e-02) (280, -7.10464492440223693848e-02) (281, 5.34471757709980010986e-02) (282, -1.17167621850967407227e-01) (283, 1.83993056416511535645e-02) (284, -9.49625223875045776367e-02) (285, -1.19116201996803283691e-01) (286, -7.49965980648994445801e-02) (287, 2.75313556194305419922e-02) (288, 7.04703778028488159180e-02) (289, -2.17359602451324462891e-01) (290, -7.06579461693763732910e-02) (291, -2.74089607410132884979e-03) (292, -2.88567006587982177734e-01) (293, -4.97498139739036560059e-02) (294, 1.11427262425422668457e-01) (295, -2.48162031173706054688e-01) (296, -1.53744414448738098145e-01) (297, 2.21085809171199798584e-02) (298, -2.43728935718536376953e-01) (299, -8.22045803070068359375e-02) (300, 1.35781228542327880859e-01) (301, -2.40284472703933715820e-01) (302, -2.76158690452575683594e-01) (303, 1.73087880015373229980e-01) (304, -3.01047354936599731445e-01) (305, -8.58028456568717956543e-02) (306, -4.58174571394920349121e-02) (307, -3.08420330286026000977e-01) (308, -3.27620983123779296875e-01) (309, 7.73038640618324279785e-02) (310, -3.24940353631973266602e-01) (311, -1.65793240070343017578e-01) (312, -6.71720951795578002930e-02) (313, -4.93908941745758056641e-01) (314, -4.90688942372798919678e-02) (315, -2.44064912199974060059e-01) (316, -8.31061899662017822266e-02) (317, -3.46387587487697601318e-02) (318, -1.60464629530906677246e-01) (319, -1.27468109130859375000e-01) (320, -7.73280253633856773376e-03) (321, -1.33719295263290405273e-01) (322, -4.65047210454940795898e-01) (323, -1.91973119974136352539e-01) (324, 4.58870828151702880859e-03) (325, -3.00679385662078857422e-01) (326, -1.94075316190719604492e-01) (327, 2.09747269749641418457e-01) (328, -2.59956210851669311523e-01) (329, -2.36165985465049743652e-01) (330, 4.30551558732986450195e-01) (331, 3.22712957859039306641e-02) (332, -6.06393337249755859375e-01) (333, 6.36249184608459472656e-01) (334, 4.44888025522232055664e-02) (335, -6.51720702648162841797e-01) (336, 3.69007200002670288086e-01) (337, -7.89696276187896728516e-02) (338, -8.92893970012664794922e-01) (339, 2.43025392293930053711e-01) (340, 3.02873663604259490967e-02) (341, -6.90722346305847167969e-01) (342, -7.30643942952156066895e-02) (343, 8.19994211196899414062e-02) (344, -3.63058090209960937500e-01) (345, -4.19165819883346557617e-01) (346, -7.26959928870201110840e-02) (347, -1.03986002504825592041e-01) (348, -6.44134283065795898438e-01) (349, -1.94125995039939880371e-01) (350, 1.88920691609382629395e-01) (351, -7.82577991485595703125e-01) (352, -2.20424458384513854980e-02) (353, -1.75522044301033020020e-01) (354, -3.93151909112930297852e-01) (355, -1.32457002997398376465e-01) (356, -1.29536056518554687500e+00) (357, 6.52030944824218750000e-01) (358, -1.32025822997093200684e-01) (359, -3.06455707550048828125e+00) (360, 1.07777702808380126953e+00) (0, 3.36135216057300567627e-02) (1, -1.92595720291137695312e-01) (2, -1.84937510639429092407e-02) (3, -1.62507966160774230957e-02) (4, 8.18303152918815612793e-02) (5, -3.24745088815689086914e-01) (6, 2.92084127664566040039e-01) (7, 5.02099283039569854736e-02) (8, -2.95069962739944458008e-01) (9, 2.64340013265609741211e-01) (10, -7.38927945494651794434e-02) (11, -2.31427013874053955078e-01) (12, -6.26208558678627014160e-02) (13, 1.52801275253295898438e-01) (14, -2.53648728132247924805e-01) (15, 1.02622501552104949951e-01) (16, -1.05153005570173263550e-02) (17, -1.67601957917213439941e-01) (18, -1.27827882766723632812e-01) (19, -1.99312552809715270996e-01) (20, -1.61094427108764648438e-01) (21, 8.86224359273910522461e-02) (22, -8.33392813801765441895e-02) (23, -4.82521764934062957764e-02) (24, 3.14733013510704040527e-02) (25, 1.01033248007297515869e-01) (26, -1.27940133213996887207e-01) (27, -5.21674156188964843750e-02) (28, 1.90042778849601745605e-01) (29, -1.19804382324218750000e-01) (30, 6.04132227599620819092e-02) (31, 2.99336202442646026611e-02) (32, -1.32385373115539550781e-01) (33, 3.16435307264328002930e-01) (34, -1.29729181528091430664e-01) (35, -1.77906155586242675781e-02) (36, 1.63661465048789978027e-01) (37, 1.22996024787425994873e-01) (38, 1.74124967306852340698e-02) (39, 1.32965207099914550781e-01) (40, -1.03244341909885406494e-01) (41, 2.30268817394971847534e-02) (42, 3.16580265760421752930e-01) (43, -1.14225946366786956787e-01) (44, -1.13794229924678802490e-01) (45, 2.58630663156509399414e-01) (46, -2.11469963192939758301e-01) (47, -1.52627542614936828613e-01) (48, 2.88294583559036254883e-01) (49, -1.11731387674808502197e-01) (50, -7.35214501619338989258e-02) (51, -7.81020987778902053833e-03) (52, -8.12425464391708374023e-02) (53, -8.54045897722244262695e-02) (54, 2.08099886775016784668e-01) (55, 5.56901693344116210938e-02) (56, -1.84397667646408081055e-01) (57, 2.41713225841522216797e-01) (58, 6.19566813111305236816e-02) (59, 9.83152687549591064453e-02) (60, -1.43130943179130554199e-01) (61, 8.28446522355079650879e-02) (62, 1.20054557919502258301e-01) (63, 8.58290418982505798340e-02) (64, 7.94851705431938171387e-02) (65, -5.57095333933830261230e-02) (66, 1.67342782020568847656e-01) (67, -9.66632217168807983398e-02) (68, -7.10638090968132019043e-02) (69, 1.43996831029653549194e-02) (70, 1.52387663722038269043e-01) (71, -2.56135072559118270874e-02) (72, -1.51635453104972839355e-01) (73, -1.08115427196025848389e-01) (74, -1.10051490366458892822e-01) (75, -1.14718683063983917236e-01) (76, 1.97609737515449523926e-02) (77, -7.50002935528755187988e-02) (78, -9.10869091749191284180e-02) (79, 6.24916795641183853149e-03) (80, -2.62070838361978530884e-02) (81, -4.27712760865688323975e-02) (82, 3.38185966014862060547e-01) (83, -6.45329207181930541992e-02) (84, -2.53097340464591979980e-02) (85, 3.53485256433486938477e-01) (86, 7.74922221899032592773e-02) (87, 1.30552783608436584473e-01) (88, 1.88895002007484436035e-01) (89, 7.55531014874577522278e-03) (90, 1.62373974919319152832e-01) (91, 1.91867575049400329590e-01) (92, 5.73026649653911590576e-02) (93, 5.28648138046264648438e-01) (94, 2.86138504743576049805e-01) (95, 3.35411541163921356201e-02) (96, 1.08549617230892181396e-01) (97, 9.35566425323486328125e-02) (98, -9.53491106629371643066e-02) (99, 2.54158109426498413086e-01) (100, 1.41241073608398437500e-01) (101, -6.14625960588455200195e-02) (102, 2.10855975747108459473e-01) (103, -9.20035988092422485352e-02) (104, -4.15615476667881011963e-02) (105, -1.93443685770034790039e-01) (106, 5.26802316308021545410e-02) (107, 5.66454492509365081787e-02) (108, 2.64065414667129516602e-02) (109, 1.96782603859901428223e-01) (110, 1.30865782499313354492e-01) (111, -1.23167030513286590576e-01) (112, 3.07038933038711547852e-01) (113, 3.46854567527770996094e-01) (114, -2.51360177993774414062e-01) (115, 2.92749822139739990234e-01) (116, 2.29777753353118896484e-01) (117, -1.71253055334091186523e-01) (118, -4.19616736471652984619e-02) (119, -1.00875422358512878418e-02) (120, 8.75439867377281188965e-02) (121, 3.51361706852912902832e-02) (122, -4.80427332222461700439e-02) (123, 2.62290090322494506836e-01) (124, -2.27302424609661102295e-02) (125, -9.38606634736061096191e-02) (126, 2.05874279141426086426e-01) (127, 9.51078459620475769043e-02) (128, -1.33355870842933654785e-01) (129, 2.16482013463973999023e-01) (130, 1.46427333354949951172e-01) (131, -1.25521555542945861816e-01) (132, -2.71429866552352905273e-02) (133, 3.93422618508338928223e-02) (134, -1.58725917339324951172e-01) (135, -8.37312191724777221680e-02) (136, -3.28456647694110870361e-02) (137, -1.56394422054290771484e-01) (138, -2.29211956262588500977e-01) (139, -1.52136251330375671387e-01) (140, -1.73990741372108459473e-01) (141, -1.65179595351219177246e-01) (142, -1.45035102963447570801e-01) (143, -9.23471972346305847168e-02) (144, 3.74018028378486633301e-02) (145, -8.05483236908912658691e-02) (146, -1.76062565296888351440e-02) (147, 3.28644514083862304688e-01) (148, -2.33577013015747070312e-01) (149, 8.37456881999969482422e-02) (150, 9.26521793007850646973e-02) (151, 5.62833100557327270508e-02) (152, 1.38856768608093261719e-01) (153, 2.21076875925064086914e-01) (154, -1.63887083530426025391e-01) (155, 8.31778272986412048340e-02) (156, 2.43541106581687927246e-01) (157, -1.55187770724296569824e-01) (158, 2.50165164470672607422e-02) (159, 2.99236481077969074249e-03) (160, -9.64874848723411560059e-02) (161, -1.74542054533958435059e-01) (162, 5.67121505737304687500e-02) (163, -1.17214784026145935059e-01) (164, -3.44927012920379638672e-02) (165, 1.46218284964561462402e-01) (166, -8.31945538520812988281e-02) (167, 1.32532343268394470215e-01) (168, -1.86564460396766662598e-01) (169, -1.11949503421783447266e-01) (170, 2.51433342695236206055e-01) (171, -3.90394753776490688324e-03) (172, 3.07136327028274536133e-02) (173, 5.35168945789337158203e-02) (174, 2.67455019056797027588e-02) (175, 7.99858197569847106934e-02) (176, 2.55670040845870971680e-01) (177, -5.76097033917903900146e-02) (178, 1.27030268311500549316e-01) (179, 1.49241715669631958008e-01) (180, 1.34302899241447448730e-01) (181, 8.19827020168304443359e-02) (182, -1.97866614907979965210e-02) (183, 2.30910733342170715332e-01) (184, -1.33524956181645393372e-02) (185, 9.31391641497611999512e-02) (186, 1.40806645154953002930e-01) (187, -1.61817461252212524414e-01) (188, -3.73228196986019611359e-03) (189, -1.24105182476341724396e-03) (190, -1.61858205683529376984e-03) (191, 8.37984830141067504883e-02) (192, 1.27317205071449279785e-01) (193, -9.47276279330253601074e-02) (194, 1.27936720848083496094e-01) (195, -1.01404890418052673340e-01) (196, -3.12767922878265380859e-01) (197, 1.75990968942642211914e-01) (198, -4.50919531285762786865e-02) (199, -2.77510046958923339844e-01) (200, 9.16281044483184814453e-02) (201, -1.59285664558410644531e-01) (202, -1.48089170455932617188e-01) (203, 6.88569769263267517090e-02) (204, 9.44782644510269165039e-02) (205, 7.15893507003784179688e-02) (206, -5.56315891444683074951e-02) (207, -2.94820722192525863647e-02) (208, -1.39091804623603820801e-01) (209, -1.20292343199253082275e-01) (210, 1.51330247521400451660e-01) (211, 3.61828356981277465820e-02) (212, -5.54254017770290374756e-02) (213, -1.27826035022735595703e-01) (214, -6.97532445192337036133e-02) (215, -1.43610909581184387207e-01) (216, -2.31866732239723205566e-01) (217, -2.61173471808433532715e-02) (218, -5.75855299830436706543e-02) (219, 7.81318247318267822266e-02) (220, -5.63582964241504669189e-02) (221, 6.67903572320938110352e-02) (222, -4.30250354111194610596e-02) (223, 4.87340949475765228271e-02) (224, -3.61558273434638977051e-02) (225, 1.02481618523597717285e-01) (226, 1.96040615439414978027e-01) (227, -4.98666726052761077881e-02) (228, 8.32891091704368591309e-02) (229, 1.48988828063011169434e-01) (230, -2.91958507150411605835e-02) (231, -1.48276850581169128418e-01) (232, 1.26102060079574584961e-01) (233, -3.68663668632507324219e-02) (234, -1.56369194388389587402e-01) (235, -4.53493651002645492554e-03) (236, -6.45384192466735839844e-02) (237, 6.27079755067825317383e-02) (238, -1.83580040931701660156e-01) (239, 1.55591787770390510559e-02) (240, -3.75328697264194488525e-02) (241, -2.23701491951942443848e-01) (242, 1.73379316926002502441e-01) (243, 1.27303376793861389160e-01) (244, 4.85942661762237548828e-02) (245, 3.46431974321603775024e-03) (246, -4.36650514602661132812e-02) (247, -1.35480873286724090576e-02) (248, -9.44883446209132671356e-04) (249, -3.59224490821361541748e-02) (250, 1.32296398282051086426e-01) (251, 7.99189880490303039551e-02) (252, 1.53177618980407714844e-01) (253, -8.03566798567771911621e-02) (254, 1.14758722484111785889e-01) (255, 1.27118621021509170532e-02) (256, -1.65196940302848815918e-01) (257, -1.01375043392181396484e-01) (258, 1.75356581807136535645e-01) (259, 7.42811486124992370605e-02) (260, -3.98640334606170654297e-02) (261, -6.41881749033927917480e-02) (262, -2.19381421804428100586e-01) (263, -1.17058135569095611572e-01) (264, 1.01573809981346130371e-01) (265, 2.29259818792343139648e-01) (266, -2.61540234088897705078e-01) (267, 2.60747820138931274414e-01) (268, 6.92328438162803649902e-02) (269, 1.03604510426521301270e-01) (270, 1.51924684643745422363e-01) (271, 4.71025705337524414062e-01) (272, 5.34674571827054023743e-03) (273, 3.35448831319808959961e-02) (274, -1.31134437397122383118e-02) (275, -4.75579826161265373230e-03) (276, 5.60716651380062103271e-02) (277, 8.92612412571907043457e-02) (278, 7.04818814992904663086e-02) (279, 3.74305760487914085388e-03) (280, 1.79592087864875793457e-01) (281, -5.07901050150394439697e-03) (282, 3.58612723648548126221e-02) (283, 4.24618214368820190430e-01) (284, 2.97285653650760650635e-02) (285, 1.30360096693038940430e-01) (286, -5.16381999477744102478e-03) (287, -1.26372963190078735352e-01) (288, 1.51937991380691528320e-01) (289, -1.02818414568901062012e-01) (290, -1.17944858968257904053e-01) (291, 1.69220656156539916992e-01) (292, 3.84934879839420318604e-02) (293, -2.40898609161376953125e-01) (294, 2.56759315729141235352e-01) (295, 3.93273234367370605469e-01) (296, -1.38658389449119567871e-01) (297, 8.92181098461151123047e-02) (298, 2.30016604065895080566e-01) (299, -6.20363131165504455566e-02) (300, 1.05651013553142547607e-01) (301, 6.39036834239959716797e-01) (302, -1.32768064737319946289e-01) (303, 1.16744376718997955322e-01) (304, 7.26294696331024169922e-01) (305, -8.89121517539024353027e-02) (306, -1.25172343105077743530e-02) (307, 1.90515339374542236328e-01) (308, -3.77418488264083862305e-01) (309, 3.12655009329319000244e-02) (310, 4.38032299280166625977e-01) (311, -2.71053642034530639648e-01) (312, 3.92815731465816497803e-02) (313, -1.57460477203130722046e-02) (314, -1.27019688487052917480e-01) (315, -2.29627519845962524414e-01) (316, 5.32168686389923095703e-01) (317, 1.10406138002872467041e-01) (318, -2.34774962067604064941e-01) (319, 1.82185083627700805664e-01) (320, 1.31589084863662719727e-01) (321, -2.37098708748817443848e-01) (322, 2.22371712327003479004e-01) (323, 2.62100487947463989258e-01) (324, 1.51307741180062294006e-02) (325, -2.57101431488990783691e-02) (326, 2.86408007144927978516e-01) (327, 4.66512702405452728271e-02) (328, -2.64383703470230102539e-01) (329, 7.84677341580390930176e-02) (330, 3.62862288951873779297e-01) (331, 6.36069476604461669922e-02) (332, -2.86338806152343750000e-01) (333, 7.17164337635040283203e-01) (334, 7.33647942543029785156e-02) (335, -5.23204624652862548828e-01) (336, 4.25029814243316650391e-01) (337, -1.29529953002929687500e-01) (338, -8.13529849052429199219e-01) (339, 3.90289545059204101562e-01) (340, -2.22522690892219543457e-01) (341, -8.26607406139373779297e-01) (342, -1.39111414551734924316e-01) (343, -2.62218564748764038086e-01) (344, -3.10369223356246948242e-01) (345, -4.93450462818145751953e-01) (346, -1.70266032218933105469e-01) (347, 3.65896850824356079102e-01) (348, -8.09389710426330566406e-01) (349, -2.29553595185279846191e-01) (350, 7.29510366916656494141e-01) (351, -9.83643293380737304688e-01) (352, 1.52076616883277893066e-01) (353, 2.08456784486770629883e-01) (354, -5.82596778869628906250e-01) (355, 2.91943490505218505859e-01) (356, -1.44935917854309082031e+00) (357, 6.63719654083251953125e-01) (358, 4.20281589031219482422e-01) (359, -3.94483804702758789062e+00) (360, 1.08190810680389404297e+00) (0, -3.59532803297042846680e-01) (1, 6.71096146106719970703e-01) (2, -3.12135726213455200195e-01) (3, -4.49132829904556274414e-01) (4, 3.14961254596710205078e-01) (5, -4.06742304563522338867e-01) (6, -2.79761940240859985352e-01) (7, 4.57168877124786376953e-01) (8, -2.54111766815185546875e-01) (9, -2.30786249041557312012e-01) (10, 2.19240710139274597168e-01) (11, -6.66361451148986816406e-02) (12, -5.32934784889221191406e-01) (13, 3.14631700515747070312e-01) (14, -1.26922905445098876953e-01) (15, -3.02197784185409545898e-01) (16, 6.18535690009593963623e-02) (17, 1.92393064498901367188e-02) (18, -6.24468803405761718750e-01) (19, 6.41204863786697387695e-02) (20, -1.45132377743721008301e-01) (21, -3.58887881040573120117e-01) (22, -1.68958410620689392090e-01) (23, -2.54756152629852294922e-01) (24, -1.68373193591833114624e-02) (25, 6.80591166019439697266e-02) (26, -3.98752599954605102539e-01) (27, 2.87844818085432052612e-02) (28, 1.83689087629318237305e-01) (29, -1.45881995558738708496e-01) (30, 8.97335633635520935059e-02) (31, 2.87601172924041748047e-01) (32, -1.08736827969551086426e-01) (33, -2.99658536911010742188e-01) (34, 2.42047250270843505859e-01) (35, -1.31380602717399597168e-01) (36, -3.83125633001327514648e-01) (37, 3.27670365571975708008e-01) (38, 4.44483794271945953369e-02) (39, -3.20390552282333374023e-01) (40, 4.58544939756393432617e-01) (41, 2.06466108560562133789e-01) (42, -8.35845693945884704590e-02) (43, 4.44874972105026245117e-01) (44, 1.83953806757926940918e-01) (45, 7.76732712984085083008e-02) (46, 2.59414136409759521484e-01) (47, 4.31745164096355438232e-02) (48, 1.50041565299034118652e-01) (49, 2.09067732095718383789e-01) (50, -6.62405490875244140625e-02) (51, -2.04697996377944946289e-01) (52, 2.11211934685707092285e-01) (53, -1.68822750449180603027e-01) (54, -6.20491951704025268555e-02) (55, 4.46905046701431274414e-01) (56, -1.89126685261726379395e-01) (57, -1.32407486438751220703e-01) (58, 4.12834614515304565430e-01) (59, 1.26204267144203186035e-01) (60, -4.83952969312667846680e-01) (61, 3.45381230115890502930e-01) (62, 1.52201890945434570312e-01) (63, -5.24349689483642578125e-01) (64, 1.44673004746437072754e-01) (65, 6.54790103435516357422e-02) (66, -5.88240325450897216797e-01) (67, 1.68254688382148742676e-01) (68, -2.73705627769231796265e-02) (69, -4.57658529281616210938e-01) (70, 1.38622209429740905762e-01) (71, 8.61878022551536560059e-02) (72, -3.90057891607284545898e-01) (73, 7.03346505761146545410e-02) (74, -2.55592763423919677734e-01) (75, -2.91399151086807250977e-01) (76, 4.71379756927490234375e-01) (77, -2.72710472345352172852e-01) (78, -1.44150882959365844727e-01) (79, 5.52560210227966308594e-01) (80, -9.62144955992698669434e-02) (81, -1.60316079854965209961e-02) (82, 6.09388232231140136719e-01) (83, -2.18595191836357116699e-01) (84, 1.38978138566017150879e-02) (85, 2.92134165763854980469e-01) (86, -2.42953345179557800293e-01) (87, -2.01684087514877319336e-01) (88, 2.05925136804580688477e-01) (89, -1.06214031577110290527e-01) (90, -2.34896406531333923340e-01) (91, 8.99573564529418945312e-02) (92, -1.58011913299560546875e-01) (93, -9.81111973524093627930e-02) (94, 2.34066694974899291992e-01) (95, -3.64657521247863769531e-01) (96, -2.37145051360130310059e-01) (97, 2.46347486972808837891e-01) (98, -3.66666138172149658203e-01) (99, 7.30785056948661804199e-02) (100, 9.22949463129043579102e-02) (101, -1.94262012839317321777e-01) (102, 1.09986782073974609375e-01) (103, 2.36138552427291870117e-01) (104, 1.40828922390937805176e-01) (105, -3.60556952655315399170e-02) (106, 5.39392948150634765625e-01) (107, 3.21892589330673217773e-01) (108, -2.74705439805984497070e-01) (109, 6.21056616306304931641e-01) (110, 2.50869840383529663086e-01) (111, -2.59545385837554931641e-01) (112, 5.83776652812957763672e-01) (113, 2.61229395866394042969e-01) (114, -1.02396480739116668701e-01) (115, 1.39527261257171630859e-01) (116, -1.42702236771583557129e-01) (117, 1.81717738509178161621e-01) (118, -2.36780017614364624023e-01) (119, -2.76226490736007690430e-01) (120, 1.84536501765251159668e-01) (121, 1.75129160284996032715e-01) (122, -3.39868515729904174805e-01) (123, 3.87559354305267333984e-01) (124, 3.10264378786087036133e-01) (125, -2.20790982246398925781e-01) (126, 2.54460424184799194336e-01) (127, 8.56880784034729003906e-01) (128, -3.09231489896774291992e-01) (129, 2.81284183263778686523e-01) (130, 6.43512427806854248047e-01) (131, -2.91217386722564697266e-01) (132, 6.03375136852264404297e-02) (133, 6.03528141975402832031e-01) (134, -5.02548933029174804688e-01) (135, -1.08739644289016723633e-01) (136, -5.59625744819641113281e-01) (137, -4.42695349454879760742e-01) (138, -2.09467694163322448730e-01) (139, -6.25448465347290039062e-01) (140, -3.53130072355270385742e-01) (141, -2.37075507640838623047e-01) (142, -6.51288032531738281250e-02) (143, -6.25900179147720336914e-02) (144, 2.44889780879020690918e-01) (145, 8.45874071121215820312e-01) (146, 6.25893473625183105469e-02) (147, 6.61904588341712951660e-02) (148, 5.55118322372436523438e-01) (149, 3.62920075654983520508e-01) (150, 7.15034753084182739258e-02) (151, 3.83820593357086181641e-01) (152, 2.29536280035972595215e-01) (153, 1.58867508172988891602e-01) (154, 2.56851941347122192383e-01) (155, 3.84044855833053588867e-01) (156, -4.32399988174438476562e-01) (157, 2.16264203190803527832e-01) (158, -2.32147742062807083130e-02) (159, -2.16342031955718994141e-01) (160, 3.55923056602478027344e-01) (161, -2.12164834141731262207e-01) (162, 3.63515829667448997498e-03) (163, 9.10727560520172119141e-01) (164, -1.62941128015518188477e-01) (165, 2.66924977302551269531e-01) (166, 1.84163644909858703613e-01) (167, -2.92102932929992675781e-01) (168, 1.51673957705497741699e-01) (169, 1.50760769844055175781e-01) (170, -2.72295653820037841797e-01) (171, 9.07703489065170288086e-02) (172, -2.35441122204065322876e-02) (173, -1.57351598143577575684e-01) (174, -2.90551930665969848633e-01) (175, -1.27977624535560607910e-01) (176, 2.09501609206199645996e-01) (177, -1.86756372451782226562e-01) (178, 4.16293472051620483398e-01) (179, 2.68358290195465087891e-01) (180, -3.67544800043106079102e-01) (181, 3.49425822496414184570e-01) (182, 1.75930097699165344238e-01) (183, -3.92704963684082031250e-01) (184, 2.51793235540390014648e-01) (185, 5.50614148378372192383e-02) (186, -3.03651660680770874023e-01) (187, -5.49802899360656738281e-01) (188, -3.19540381431579589844e-01) (189, 2.56186425685882568359e-01) (190, -4.17470782995223999023e-01) (191, -2.86790549755096435547e-01) (192, 3.02544981241226196289e-01) (193, -6.12832270562648773193e-02) (194, 2.70606637001037597656e-01) (195, 2.52445131540298461914e-01) (196, 2.26240143179893493652e-01) (197, 5.47626987099647521973e-02) (198, -2.93214589357376098633e-01) (199, 1.92550197243690490723e-01) (200, 2.15277224779129028320e-01) (201, -5.69013178348541259766e-01) (202, -1.08869753777980804443e-01) (203, -1.52921080589294433594e-01) (204, -4.51063632965087890625e-01) (205, -2.92405992746353149414e-01) (206, -4.31145548820495605469e-01) (207, -7.06177830696105957031e-01) (208, -7.43036448955535888672e-01) (209, -5.13065755367279052734e-01) (210, -4.22655701637268066406e-01) (211, 8.23220796883106231689e-03) (212, -2.49289214611053466797e-01) (213, -5.73244154453277587891e-01) (214, 1.23436197638511657715e-01) (215, -1.96379438042640686035e-01) (216, -4.72831130027770996094e-01) (217, 2.17984039336442947388e-02) (218, 6.06055818498134613037e-02) (219, -4.79531228542327880859e-01) (220, 7.75274783372879028320e-02) (221, -2.80557945370674133301e-02) (222, -2.80035197734832763672e-01) (223, 2.76114828884601593018e-02) (224, 2.20806803554296493530e-02) (225, -3.38629744946956634521e-02) (226, 3.08796707540750503540e-02) (227, -1.20321720838546752930e-01) (228, -3.18829357624053955078e-01) (229, -3.49057316780090332031e-01) (230, -1.57514989376068115234e-01) (231, -3.76674383878707885742e-01) (232, -4.62987005710601806641e-01) (233, -1.48417457938194274902e-01) (234, -4.21410679817199707031e-01) (235, -9.91957858204841613770e-02) (236, -4.02249619364738464355e-02) (237, -4.73303586244583129883e-01) (238, 1.95348441600799560547e-01) (239, 1.57875001430511474609e-01) (240, -2.98572063446044921875e-01) (241, 1.80225953459739685059e-01) (242, 2.09200102835893630981e-02) (243, -1.48802012205123901367e-01) (244, -3.41698408126831054688e-01) (245, 6.77044615149497985840e-02) (246, -1.30832672119140625000e-01) (247, 5.05924880504608154297e-01) (248, -1.64021149277687072754e-01) (249, -2.12959542870521545410e-01) (250, 5.60828335583209991455e-02) (251, -1.40643358230590820312e-01) (252, -1.73254311084747314453e-01) (253, 3.36154639720916748047e-01) (254, 3.41021008789539337158e-02) (255, -2.61422991752624511719e-01) (256, 2.21007540822029113770e-01) (257, 8.21830853819847106934e-02) (258, -2.71531254053115844727e-01) (259, 4.57835882902145385742e-01) (260, -1.61430556327104568481e-02) (261, -4.20172423124313354492e-01) (262, -3.44102978706359863281e-02) (263, -2.07950919866561889648e-01) (264, -1.07110977172851562500e-01) (265, 3.40179577469825744629e-02) (266, -5.63967347145080566406e-01) (267, 4.14528548717498779297e-01) (268, 2.14702516794204711914e-01) (269, -2.75612443685531616211e-01) (270, 4.56860989332199096680e-01) (271, 8.31779599189758300781e-01) (272, -3.26333075761795043945e-01) (273, 1.32229015231132507324e-01) (274, -1.75992697477340698242e-01) (275, -2.84884840250015258789e-01) (276, -5.14550447463989257812e-01) (277, -4.85697351396083831787e-02) (278, -1.02160558104515075684e-01) (279, -5.71788489818572998047e-01) (280, -2.44606375694274902344e-01) (281, 4.38363924622535705566e-02) (282, -7.94222116470336914062e-01) (283, -3.64784523844718933105e-03) (284, 2.35461872071027755737e-02) (285, -6.62791252136230468750e-01) (286, 2.39058583974838256836e-01) (287, 3.07615101337432861328e-01) (288, -3.89992237091064453125e-01) (289, 1.21036541461944580078e+00) (290, 4.38524335622787475586e-02) (291, -3.80786657333374023438e-01) (292, -1.06737921014428138733e-02) (293, -4.10608261823654174805e-01) (294, -1.56536757946014404297e-01) (295, -3.39830189943313598633e-01) (296, -3.86941194534301757812e-01) (297, -5.61009682714939117432e-02) (298, -7.98619508743286132812e-01) (299, -2.72616297006607055664e-01) (300, -2.42959588766098022461e-01) (301, -1.20407864451408386230e-01) (302, -1.71494156122207641602e-01) (303, -2.76009589433670043945e-01) (304, 1.87235176563262939453e-01) (305, 1.89900293946266174316e-01) (306, -4.12140995264053344727e-01) (307, -4.15462970733642578125e-01) (308, 8.48969370126724243164e-02) (309, -2.14803010225296020508e-01) (310, -1.68681517243385314941e-01) (311, -1.13810710608959197998e-01) (312, 2.73915499448776245117e-01) (313, -1.40976101160049438477e-01) (314, -2.14810252189636230469e-01) (315, 2.35691830515861511230e-01) (316, -2.80343383550643920898e-01) (317, -6.40142619609832763672e-01) (318, 4.71663862466812133789e-01) (319, -2.78128921985626220703e-01) (320, -7.92963027954101562500e-01) (321, 3.98425042629241943359e-01) (322, -4.34463351964950561523e-01) (323, -6.35807037353515625000e-01) (324, 2.47743293642997741699e-01) (325, -6.73699915409088134766e-01) (326, -3.77789348363876342773e-01) (327, 2.04459145665168762207e-01) (328, -1.97661384940147399902e-01) (329, -1.00304573774337768555e-01) (330, 4.31669317185878753662e-02) (331, 9.80907738208770751953e-01) (332, 1.53472021222114562988e-01) (333, 4.74721752107143402100e-02) (334, 8.23212385177612304688e-01) (335, 3.09745699167251586914e-01) (336, -1.30774736404418945312e-01) (337, 8.28489065170288085938e-01) (338, 3.45828235149383544922e-01) (339, -5.38862586021423339844e-01) (340, 9.46932137012481689453e-01) (341, 3.31863969564437866211e-01) (342, -5.08976221084594726562e-01) (343, 1.47233486175537109375e+00) (344, 6.97902798652648925781e-01) (345, -7.89884984493255615234e-01) (346, 1.22751700878143310547e+00) (347, 1.24101936817169189453e+00) (348, -1.20208811759948730469e+00) (349, 1.07088661193847656250e+00) (350, 1.68873322010040283203e+00) (351, -1.62724649906158447266e+00) (352, 1.59307408332824707031e+00) (353, 1.18601453304290771484e+00) (354, -1.25147259235382080078e+00) (355, 1.09809947013854980469e+00) (356, -6.93720996379852294922e-01) (357, -2.04883426427841186523e-01) (358, -1.40153169631958007812e-01) (359, -3.80719089508056640625e+00) (360, 3.62747526168823242188e+00) (0, -3.33231613039970397949e-02) (1, 5.94747722148895263672e-01) (2, -5.79808294773101806641e-01) (3, -9.64012891054153442383e-02) (4, 2.83651173114776611328e-01) (5, -5.49707770347595214844e-01) (6, 6.24042712152004241943e-02) (7, 4.45155322551727294922e-01) (8, -4.86870437860488891602e-01) (9, 3.12173049896955490112e-02) (10, 3.73000741004943847656e-01) (11, -4.08763468265533447266e-01) (12, -1.37692704796791076660e-01) (13, 3.41302424669265747070e-01) (14, -3.58730316162109375000e-01) (15, 6.24383799731731414795e-03) (16, 2.41419658064842224121e-01) (17, -3.96458715200424194336e-01) (18, -9.51605066657066345215e-02) (19, 1.23828560113906860352e-01) (20, -3.63886952400207519531e-01) (21, -2.07024842500686645508e-01) (22, 1.62605196237564086914e-01) (23, -2.29142978787422180176e-01) (24, -6.75781518220901489258e-02) (25, 2.36168980598449707031e-01) (26, -4.03872966766357421875e-01) (27, -1.86706423759460449219e-01) (28, 3.80503028631210327148e-01) (29, -3.04764956235885620117e-01) (30, -1.31669729948043823242e-01) (31, 3.92126321792602539062e-01) (32, -4.44179981946945190430e-01) (33, -1.25972449779510498047e-01) (34, 2.61502057313919067383e-01) (35, -4.41417455673217773438e-01) (36, -1.04565799236297607422e-01) (37, 3.48408073186874389648e-01) (38, -4.70862686634063720703e-01) (39, -5.82289956510066986084e-02) (40, 2.77974516153335571289e-01) (41, -4.39106017351150512695e-01) (42, -3.41659411787986755371e-03) (43, 4.68438386917114257812e-01) (44, -2.27676793932914733887e-01) (45, -9.04234871268272399902e-02) (46, 4.99355852603912353516e-01) (47, -3.53568375110626220703e-01) (48, -1.60463243722915649414e-01) (49, 3.84514391422271728516e-01) (50, -3.11317384243011474609e-01) (51, -9.84933376312255859375e-02) (52, 3.67273271083831787109e-01) (53, -4.19026941061019897461e-01) (54, -1.15377660840749740601e-02) (55, 5.13259053230285644531e-01) (56, -4.22894626855850219727e-01) (57, -5.10627180337905883789e-02) (58, 5.61256766319274902344e-01) (59, -2.68671035766601562500e-01) (60, -3.94290059804916381836e-01) (61, 3.84688794612884521484e-01) (62, -2.15944901108741760254e-01) (63, -1.14252790808677673340e-01) (64, 3.28023433685302734375e-01) (65, -5.33115744590759277344e-01) (66, -9.61221978068351745605e-02) (67, 3.31260412931442260742e-01) (68, -6.46593332290649414062e-01) (69, 1.31934851408004760742e-01) (70, 3.59165847301483154297e-01) (71, -5.75218200683593750000e-01) (72, -8.53070691227912902832e-02) (73, 2.31538757681846618652e-01) (74, -4.58259344100952148438e-01) (75, -8.70342403650283813477e-02) (76, 3.90790760517120361328e-01) (77, -4.31587278842926025391e-01) (78, -6.88469111919403076172e-02) (79, 5.59273898601531982422e-01) (80, -4.10960286855697631836e-01) (81, 2.09943205118179321289e-03) (82, 5.88768362998962402344e-01) (83, -3.44472706317901611328e-01) (84, 4.44861799478530883789e-02) (85, 4.87355887889862060547e-01) (86, -3.53511780500411987305e-01) (87, -8.84546712040901184082e-03) (88, 2.94993221759796142578e-01) (89, -4.20193612575531005859e-01) (90, 2.02413294464349746704e-02) (91, 2.59443402290344238281e-01) (92, -5.94728231430053710938e-01) (93, 3.09303641319274902344e-01) (94, 3.99234831333160400391e-01) (95, -4.52059775590896606445e-01) (96, 4.76093776524066925049e-02) (97, 3.99087697267532348633e-01) (98, -4.89980399608612060547e-01) (99, 1.41461342573165893555e-01) (100, 2.33992993831634521484e-01) (101, -3.93669813871383666992e-01) (102, -2.76610758155584335327e-02) (103, 3.87168705463409423828e-01) (104, -7.57706388831138610840e-02) (105, -5.00282682478427886963e-02) (106, 5.20750522613525390625e-01) (107, -7.82434493303298950195e-02) (108, 2.16856468468904495239e-02) (109, 4.81714844703674316406e-01) (110, -4.96803261339664459229e-02) (111, 4.47930321097373962402e-02) (112, 5.97674965858459472656e-01) (113, -1.96095049381256103516e-01) (114, 2.16931641101837158203e-01) (115, 2.38422647118568420410e-01) (116, -4.24919992685317993164e-01) (117, 2.65419512987136840820e-01) (118, -3.68259251117706298828e-02) (119, -5.62972605228424072266e-01) (120, 4.27958965301513671875e-01) (121, 1.87357082962989807129e-01) (122, -4.81594383716583251953e-01) (123, 4.32302713394165039062e-01) (124, 2.25538894534111022949e-01) (125, -3.84373337030410766602e-01) (126, 2.91918903589248657227e-01) (127, 6.95304334163665771484e-01) (128, -2.47513622045516967773e-01) (129, 1.10703231766819953918e-02) (130, 6.77242159843444824219e-01) (131, -3.71323853731155395508e-01) (132, 2.62901820242404937744e-02) (133, 5.87632954120635986328e-01) (134, -3.69741708040237426758e-01) (135, 3.48265394568443298340e-02) (136, -2.38363876938819885254e-01) (137, -3.67469370365142822266e-01) (138, 1.41346026211977005005e-02) (139, -1.89822658896446228027e-01) (140, -3.34315299987792968750e-01) (141, 1.52838617563247680664e-01) (142, 1.33265480399131774902e-01) (143, -2.74228125810623168945e-01) (144, 1.93068146705627441406e-01) (145, 6.75352275371551513672e-01) (146, -7.82920941710472106934e-02) (147, 2.76085972785949707031e-01) (148, 5.06459772586822509766e-01) (149, 5.46545721590518951416e-02) (150, 1.08611464500427246094e-01) (151, 6.04640722274780273438e-01) (152, 7.77283031493425369263e-03) (153, 1.57732903957366943359e-01) (154, 4.69735801219940185547e-01) (155, -4.86763473600149154663e-03) (156, 2.15328056365251541138e-02) (157, 3.03043395280838012695e-01) (158, -1.76105335354804992676e-01) (159, 1.19376063346862792969e-01) (160, 4.92403745651245117188e-01) (161, -5.07509529590606689453e-01) (162, 4.47706967592239379883e-01) (163, 7.72931933403015136719e-01) (164, -2.23049789667129516602e-01) (165, 3.11355531215667724609e-01) (166, 4.11247789859771728516e-01) (167, -3.26287984848022460938e-01) (168, 9.87870916724205017090e-02) (169, 9.00311097502708435059e-02) (170, -1.54375150799751281738e-01) (171, -2.67652899026870727539e-01) (172, 1.56206618994474411011e-02) (173, -6.28086328506469726562e-02) (174, -1.88795700669288635254e-01) (175, 3.95302996039390563965e-02) (176, 9.73114073276519775391e-02) (177, 3.94001370295882225037e-03) (178, 4.05914634466171264648e-01) (179, -8.16652700304985046387e-02) (180, 9.90739464759826660156e-03) (181, 2.44328662753105163574e-01) (182, -2.33758777379989624023e-01) (183, 1.09988283365964889526e-02) (184, 2.91298270225524902344e-01) (185, -1.53924062848091125488e-01) (186, 1.55849620699882507324e-01) (187, 1.29617925267666578293e-03) (188, -3.91595900058746337891e-01) (189, 4.83090132474899291992e-01) (190, 1.45212979987263679504e-02) (191, -3.10317814350128173828e-01) (192, 3.41963797807693481445e-01) (193, 2.03762784600257873535e-01) (194, 9.76315066218376159668e-02) (195, 5.13406932353973388672e-01) (196, 4.18301999568939208984e-01) (197, 1.25172898173332214355e-01) (198, 3.50369028747081756592e-02) (199, 2.15005025267601013184e-01) (200, 3.27530294656753540039e-01) (201, -5.94745501875877380371e-02) (202, 1.86471641063690185547e-02) (203, -8.72324109077453613281e-02) (204, -4.20421771705150604248e-02) (205, -1.11433416604995727539e-01) (206, -2.04586282372474670410e-01) (207, 2.28844434022903442383e-02) (208, -4.39185112714767456055e-01) (209, -3.55501264333724975586e-01) (210, 2.46193364262580871582e-01) (211, 3.39432731270790100098e-02) (212, -2.81387597322463989258e-01) (213, 1.97901859879493713379e-01) (214, 6.57274425029754638672e-02) (215, -1.71078965067863464355e-01) (216, 1.46589443087577819824e-01) (217, 5.06826564669609069824e-02) (218, -5.16041554510593414307e-02) (219, 1.65267288684844970703e-01) (220, 1.18812911212444305420e-01) (221, 6.00444115698337554932e-02) (222, 1.40297800302505493164e-01) (223, -1.01330406963825225830e-01) (224, 1.99466481804847717285e-01) (225, 1.77235722541809082031e-01) (226, -8.49492102861404418945e-02) (227, 6.56342655420303344727e-02) (228, 2.49259434640407562256e-02) (229, -1.88031703233718872070e-01) (230, 6.64903745055198669434e-02) (231, 2.79476672410964965820e-01) (232, -1.84122517704963684082e-01) (233, 2.03213281929492950439e-03) (234, -8.92438460141420364380e-03) (235, 1.19818076491355895996e-01) (236, 1.58818781375885009766e-01) (237, 9.55507978796958923340e-02) (238, 1.83066636323928833008e-01) (239, 3.89911532402038574219e-01) (240, 7.24432393908500671387e-02) (241, 2.70050972700119018555e-01) (242, 3.03412437438964843750e-01) (243, -5.19119575619697570801e-02) (244, 1.55045464634895324707e-02) (245, 2.55109339952468872070e-01) (246, -6.40074983239173889160e-02) (247, 7.34796166419982910156e-01) (248, 1.59195199608802795410e-01) (249, -8.03905874490737915039e-02) (250, 4.60405766963958740234e-01) (251, 2.34607234597206115723e-01) (252, 6.10159300267696380615e-02) (253, 3.30334454774856567383e-01) (254, 1.72324776649475097656e-01) (255, 1.22529454529285430908e-01) (256, 2.46480986475944519043e-01) (257, 2.88441389799118041992e-01) (258, 1.88570991158485412598e-02) (259, 1.84342682361602783203e-01) (260, 2.14722111821174621582e-01) (261, -5.18977642059326171875e-02) (262, -3.24268221855163574219e-01) (263, 9.89506244659423828125e-02) (264, -3.09658378362655639648e-01) (265, -3.21086168289184570312e-01) (266, -1.50953814387321472168e-01) (267, 1.73749670386314392090e-01) (268, -1.17120966315269470215e-01) (269, -2.06202864646911621094e-02) (270, 2.90588021278381347656e-01) (271, 2.31446102261543273926e-01) (272, 5.35313636064529418945e-02) (273, 1.83600723743438720703e-01) (274, -8.56609791517257690430e-02) (275, -1.00243173539638519287e-01) (276, 7.14483782649040222168e-02) (277, -1.45488884299993515015e-02) (278, -9.06316190958023071289e-02) (279, 1.84343270957469940186e-02) (280, 1.62513822317123413086e-01) (281, 1.47223144769668579102e-01) (282, -1.22087568044662475586e-01) (283, 1.66387692093849182129e-01) (284, 3.44992876052856445312e-01) (285, -7.33096525073051452637e-02) (286, 1.82631298899650573730e-01) (287, 6.20492458343505859375e-01) (288, -8.51180627942085266113e-02) (289, 8.75071942806243896484e-01) (290, 6.75343453884124755859e-01) (291, -2.93286532163619995117e-01) (292, 2.03476771712303161621e-01) (293, 4.79737758636474609375e-01) (294, -2.19789668917655944824e-01) (295, -2.06897258758544921875e-01) (296, 5.39589941501617431641e-01) (297, -1.45470991730690002441e-01) (298, -4.19551104307174682617e-01) (299, 3.51393193006515502930e-01) (300, 4.89861778914928436279e-02) (301, -2.60804504156112670898e-01) (302, 1.69194161891937255859e-01) (303, 6.30282377824187278748e-03) (304, -6.74152135848999023438e-01) (305, 3.46287757158279418945e-01) (306, 5.37111088633537292480e-02) (307, -8.83076250553131103516e-01) (308, 3.22207450866699218750e-01) (309, 1.45586162805557250977e-01) (310, -6.72391951084136962891e-01) (311, 2.23023042082786560059e-01) (312, 2.63100177049636840820e-01) (313, -4.04045820236206054688e-01) (314, 1.52670800685882568359e-01) (315, 3.77026736736297607422e-01) (316, -3.82536768913269042969e-01) (317, 2.28590536862611770630e-02) (318, 2.07006677985191345215e-01) (319, -9.11086678504943847656e-01) (320, -2.46316581964492797852e-01) (321, 2.13230192661285400391e-01) (322, -1.32227635383605957031e+00) (323, -8.01870375871658325195e-02) (324, 2.22229972481727600098e-01) (325, -1.23130095005035400391e+00) (326, 5.14637231826782226562e-02) (327, 1.50002315640449523926e-01) (328, -7.10664689540863037109e-01) (329, 2.35419958829879760742e-01) (330, 1.70713350176811218262e-01) (331, 6.03056609630584716797e-01) (332, 4.99009996652603149414e-01) (333, 3.74000549316406250000e-01) (334, 7.09937691688537597656e-01) (335, 8.09088170528411865234e-01) (336, 2.86321211606264114380e-02) (337, 9.73296999931335449219e-01) (338, 9.10201728343963623047e-01) (339, -5.63737154006958007812e-01) (340, 9.22293663024902343750e-01) (341, 8.62200558185577392578e-01) (342, -4.34654653072357177734e-01) (343, 9.10269320011138916016e-01) (344, 1.01044130325317382812e+00) (345, -6.49926722049713134766e-01) (346, 5.76321005821228027344e-01) (347, 1.09841203689575195312e+00) (348, -3.83282780647277832031e-01) (349, -2.68392175436019897461e-01) (350, 1.29487514495849609375e+00) (351, -5.74501335620880126953e-01) (352, -3.60934734344482421875e-01) (353, 9.54679191112518310547e-01) (354, -4.37803685665130615234e-01) (355, -6.46434664726257324219e-01) (356, -1.96980163455009460449e-01) (357, 3.51271927356719970703e-01) (358, -1.09374380111694335938e+00) (359, -1.76748335361480712891e+00) (360, 3.11706304550170898438e+00) (0, -2.33332682400941848755e-02) (1, -1.43733307719230651855e-01) (2, -4.28919866681098937988e-02) (3, -6.02154396474361419678e-02) (4, 1.77731260657310485840e-01) (5, -1.69726729393005371094e-01) (6, 5.12550212442874908447e-02) (7, 1.20951220393180847168e-01) (8, -2.39880606532096862793e-01) (9, 5.74485585093498229980e-02) (10, 6.75729140639305114746e-02) (11, -1.73894420266151428223e-01) (12, -1.90700426697731018066e-01) (13, 1.75797164440155029297e-01) (14, -1.01678766310214996338e-01) (15, -6.28751367330551147461e-02) (16, -4.13659214973449707031e-03) (17, -2.10334151983261108398e-01) (18, -2.18816488981246948242e-01) (19, 1.55523046851158142090e-01) (20, -1.95147842168807983398e-01) (21, -6.89092129468917846680e-02) (22, 1.79941028356552124023e-01) (23, -1.07837066054344177246e-01) (24, -9.71018373966217041016e-02) (25, 1.42381981015205383301e-01) (26, -7.68255144357681274414e-02) (27, 7.15016350150108337402e-02) (28, 1.06233730912208557129e-01) (29, -7.01257139444351196289e-02) (30, 1.11665271222591400146e-01) (31, 4.10115942358970642090e-02) (32, -4.58569126203656196594e-03) (33, 9.05737653374671936035e-02) (34, 2.33138315379619598389e-02) (35, 8.86550098657608032227e-02) (36, 3.16560864448547363281e-02) (37, -1.53280524536967277527e-02) (38, 1.27332210540771484375e-01) (39, 1.39532489702105522156e-02) (40, -1.65689572691917419434e-01) (41, -2.63996329158544540405e-02) (42, 1.10494516789913177490e-01) (43, -5.75575307011604309082e-02) (44, -1.18603520095348358154e-01) (45, 1.28622315824031829834e-02) (46, 1.63015779107809066772e-02) (47, -1.79518178105354309082e-01) (48, 9.94708463549613952637e-02) (49, -7.98804163932800292969e-02) (50, -2.82593965530395507812e-02) (51, 4.04688827693462371826e-02) (52, 1.00813858211040496826e-01) (53, -1.69444251805543899536e-02) (54, -5.58061487972736358643e-02) (55, 1.07870265841484069824e-01) (56, -7.48728737235069274902e-02) (57, 1.60209387540817260742e-01) (58, -2.65443306416273117065e-02) (59, 5.38723915815353393555e-02) (60, -7.72423148155212402344e-02) (61, 7.58944917470216751099e-03) (62, 3.47131565213203430176e-02) (63, -2.04478092491626739502e-02) (64, -8.18756818771362304688e-02) (65, -7.25603476166725158691e-02) (66, -6.80757984519004821777e-02) (67, 1.98221709579229354858e-02) (68, -3.06497822748497128487e-04) (69, -8.91760960221290588379e-02) (70, 7.62575566768646240234e-02) (71, -1.05979062616825103760e-01) (72, -2.97927428036928176880e-02) (73, -8.62601175904273986816e-02) (74, -6.27752467989921569824e-02) (75, -3.80384400486946105957e-02) (76, 1.18066206574440002441e-01) (77, -1.04287289083003997803e-01) (78, 3.03809233009815216064e-02) (79, 4.17389906942844390869e-02) (80, -1.15371150895953178406e-02) (81, 9.16806235909461975098e-02) (82, 1.49248048663139343262e-01) (83, -6.99519738554954528809e-02) (84, -1.04634044691920280457e-02) (85, 2.59444296360015869141e-01) (86, -4.74371239542961120605e-02) (87, -3.66300866007804870605e-02) (88, 1.59549653530120849609e-01) (89, 9.61868911981582641602e-02) (90, 1.33528053760528564453e-01) (91, 6.75477534532546997070e-02) (92, -3.65905091166496276855e-02) (93, 1.17871567606925964355e-01) (94, 1.82720094919204711914e-01) (95, 5.66386803984642028809e-02) (96, 1.82703956961631774902e-02) (97, 1.05882294476032257080e-01) (98, -9.72019135951995849609e-02) (99, 9.85194463282823562622e-03) (100, 2.65528380870819091797e-01) (101, -1.51778146624565124512e-01) (102, 1.85060743242502212524e-02) (103, 4.56955768167972564697e-02) (104, -5.97654730081558227539e-02) (105, -1.56378775835037231445e-01) (106, -6.24601989984512329102e-02) (107, -1.41673222184181213379e-01) (108, 8.12119804322719573975e-03) (109, 2.52575993537902832031e-01) (110, -7.01565891504287719727e-02) (111, -8.97127389907836914062e-02) (112, 2.42175862193107604980e-01) (113, 8.02558362483978271484e-02) (114, -8.70828106999397277832e-02) (115, 1.18675261735916137695e-01) (116, -2.49526626430451869965e-03) (117, 4.60359500721096992493e-03) (118, -2.22440242767333984375e-01) (119, -1.29986196756362915039e-01) (120, 6.57632648944854736328e-02) (121, -1.29630997776985168457e-01) (122, -1.66755557060241699219e-01) (123, 9.00948941707611083984e-02) (124, -1.68337956070899963379e-01) (125, -5.99525794386863708496e-02) (126, 3.38282994925975799561e-02) (127, -2.44781732559204101562e-01) (128, -9.78357642889022827148e-02) (129, 8.73117297887802124023e-02) (130, -1.93264499306678771973e-01) (131, -1.01353101432323455811e-01) (132, -1.44297555088996887207e-01) (133, -2.88382023572921752930e-01) (134, -4.72711473703384399414e-02) (135, -7.47889503836631774902e-02) (136, -1.24686375260353088379e-01) (137, -1.56687665730714797974e-03) (138, -2.16481953859329223633e-01) (139, -2.07434594631195068359e-01) (140, -3.20748947560787200928e-02) (141, -1.34436711668968200684e-01) (142, -1.51672333478927612305e-01) (143, -4.87252622842788696289e-02) (144, 1.26520976424217224121e-01) (145, -3.04546266794204711914e-01) (146, 1.29416063427925109863e-02) (147, 7.06267133355140686035e-02) (148, -2.82557398080825805664e-01) (149, -4.74591106176376342773e-02) (150, 1.97425987571477890015e-02) (151, 2.68508773297071456909e-02) (152, -1.76669321954250335693e-02) (153, 1.89239040017127990723e-01) (154, -1.47296234965324401855e-01) (155, 1.26665055751800537109e-01) (156, 8.50538834929466247559e-02) (157, -1.30166545510292053223e-01) (158, 4.15699705481529235840e-02) (159, -2.53808815032243728638e-02) (160, -1.62656515836715698242e-01) (161, -6.68591260910034179688e-02) (162, 6.35826215147972106934e-02) (163, -8.93190950155258178711e-02) (164, 3.69092747569084167480e-02) (165, 4.73327375948429107666e-02) (166, -8.44926759600639343262e-02) (167, 8.33845511078834533691e-03) (168, -9.15548503398895263672e-02) (169, -1.82654708623886108398e-01) (170, 1.03521220386028289795e-01) (171, -8.05518254637718200684e-02) (172, -1.25895738601684570312e-01) (173, 1.69025361537933349609e-01) (174, 5.15528721734881401062e-03) (175, -1.76734954118728637695e-01) (176, 1.96054294705390930176e-01) (177, 1.25920167192816734314e-02) (178, -9.56680476665496826172e-02) (179, 1.13752782344818115234e-01) (180, 1.36810347437858581543e-01) (181, 7.09715932607650756836e-02) (182, 1.51126682758331298828e-02) (183, 9.69566851854324340820e-02) (184, -4.91974577307701110840e-02) (185, 9.47388708591461181641e-02) (186, 2.48419586569070816040e-02) (187, 6.83555677533149719238e-02) (188, -3.47925685346126556396e-02) (189, 1.77625700831413269043e-01) (190, -2.75532454252243041992e-02) (191, -2.48242227826267480850e-04) (192, 1.19622312486171722412e-01) (193, 5.65407536923885345459e-02) (194, 1.15428008139133453369e-01) (195, 2.03111618757247924805e-02) (196, -8.84799286723136901855e-02) (197, 1.22099772095680236816e-01) (198, 3.35538834333419799805e-02) (199, 2.40516029298305511475e-02) (200, -1.54256625100970268250e-02) (201, -1.68136090040206909180e-01) (202, 1.12117834389209747314e-01) (203, -1.73858981579542160034e-02) (204, 7.49543011188507080078e-02) (205, 1.32637917995452880859e-01) (206, -1.93708948791027069092e-02) (207, -1.31979295983910560608e-02) (208, -8.41643512248992919922e-02) (209, 4.41558957099914550781e-02) (210, 1.12163037061691284180e-01) (211, 7.16480845585465431213e-03) (212, 8.23994167149066925049e-03) (213, -6.74187541007995605469e-02) (214, 3.03699132055044174194e-02) (215, -9.46868956089019775391e-02) (216, -1.18525192141532897949e-01) (217, 1.91879153251647949219e-01) (218, 1.04646749794483184814e-01) (219, 9.87947583198547363281e-02) (220, 1.22169345617294311523e-01) (221, 1.17176368832588195801e-01) (222, -3.32748219370841979980e-02) (223, -9.49260517954826354980e-02) (224, 8.09145197272300720215e-02) (225, 1.21532954275608062744e-01) (226, -6.14325292408466339111e-02) (227, 9.42593738436698913574e-02) (228, 8.66783186793327331543e-02) (229, -8.82216542959213256836e-02) (230, 2.12052222341299057007e-02) (231, 4.76842634379863739014e-02) (232, 2.08842121064662933350e-02) (233, -1.98322981595993041992e-02) (234, 1.02335460484027862549e-01) (235, -3.08070071041584014893e-02) (236, -2.81686726957559585571e-02) (237, 1.88024509698152542114e-02) (238, -7.10372179746627807617e-02) (239, 1.54391899704933166504e-01) (240, -5.81777095794677734375e-02) (241, 1.42094194889068603516e-01) (242, 8.74581784009933471680e-02) (243, -5.91998361051082611084e-02) (244, 2.61572748422622680664e-01) (245, 2.20843572169542312622e-02) (246, -1.86816230416297912598e-01) (247, 8.70627164840698242188e-02) (248, 4.54439185559749603271e-02) (249, -2.18303188681602478027e-01) (250, 1.71845450997352600098e-01) (251, 6.66887164115905761719e-02) (252, 7.64520689845085144043e-02) (253, 8.78182053565979003906e-02) (254, 1.75071105360984802246e-01) (255, -9.11287665367126464844e-02) (256, 4.06987369060516357422e-02) (257, 1.12579390406608581543e-02) (258, -2.35575400292873382568e-02) (259, 1.81570783257484436035e-01) (260, 1.06778591871261596680e-02) (261, 2.71657779812812805176e-02) (262, 1.11527010798454284668e-01) (263, -1.45950108766555786133e-01) (264, -4.80233319103717803955e-02) (265, 3.21764409542083740234e-01) (266, -1.57450363039970397949e-01) (267, 5.24733364582061767578e-02) (268, 1.14006713032722473145e-01) (269, -2.81612891703844070435e-02) (270, -7.10908398032188415527e-02) (271, 2.55725920200347900391e-01) (272, -8.20364132523536682129e-02) (273, -8.43695029616355895996e-02) (274, 2.14809641242027282715e-01) (275, -5.04242368042469024658e-02) (276, -3.88819761574268341064e-02) (277, 2.57401615381240844727e-01) (278, 4.35371547937393188477e-02) (279, -2.41493239998817443848e-01) (280, 3.43424916267395019531e-01) (281, 2.35803727991878986359e-03) (282, -2.66008347272872924805e-01) (283, 3.45324844121932983398e-01) (284, -2.54231505095958709717e-02) (285, -1.49338662624359130859e-01) (286, 1.22496597468852996826e-01) (287, -8.71242433786392211914e-02) (288, -5.83305209875106811523e-02) (289, 1.66930556297302246094e-01) (290, -4.54758144915103912354e-02) (291, -1.21187195181846618652e-01) (292, 5.66202588379383087158e-02) (293, -1.54876902699470520020e-01) (294, 4.93595115840435028076e-02) (295, 6.71536996960639953613e-02) (296, -1.80762901902198791504e-01) (297, 5.22999800741672515869e-02) (298, 8.84385481476783752441e-02) (299, -1.34394362568855285645e-01) (300, -1.30994245409965515137e-02) (301, 4.45653289556503295898e-01) (302, -2.42747396230697631836e-01) (303, 5.73064899072051048279e-03) (304, 3.72339069843292236328e-01) (305, -2.67081648111343383789e-01) (306, -4.36782315373420715332e-02) (307, 4.91925895214080810547e-01) (308, -3.74638319015502929688e-01) (309, -8.41371640563011169434e-02) (310, 5.46500027179718017578e-01) (311, -3.23812693357467651367e-01) (312, -1.17242321372032165527e-01) (313, 2.47518658638000488281e-01) (314, -2.07270905375480651855e-01) (315, -2.07263708114624023438e-01) (316, 6.83519721031188964844e-01) (317, -4.05930392444133758545e-02) (318, -4.08105283975601196289e-01) (319, 1.99328973889350891113e-01) (320, -4.67411894351243972778e-03) (321, -2.77284145355224609375e-01) (322, 1.34583428502082824707e-01) (323, -8.91535282135009765625e-02) (324, -2.11551427841186523438e-01) (325, 3.77369951456785202026e-03) (326, -1.48557707667350769043e-01) (327, -2.29756231419742107391e-03) (328, 2.80129984021186828613e-02) (329, -1.98682606220245361328e-01) (330, 3.70703369379043579102e-01) (331, 1.26699984073638916016e-01) (332, -4.77635324001312255859e-01) (333, 3.72476577758789062500e-01) (334, 2.27927476167678833008e-01) (335, -5.50864100456237792969e-01) (336, 1.93305522203445434570e-01) (337, 1.47697716951370239258e-01) (338, -7.17464923858642578125e-01) (339, 4.71369810402393341064e-02) (340, 9.89165678620338439941e-02) (341, -6.69905364513397216797e-01) (342, -2.12241768836975097656e-01) (343, 2.12114639580249786377e-02) (344, -3.95269244909286499023e-01) (345, -4.97701674699783325195e-01) (346, -8.25645327568054199219e-02) (347, -1.43507912755012512207e-01) (348, -7.09560573101043701172e-01) (349, 1.84680670499801635742e-02) (350, 1.52113318443298339844e-01) (351, -8.21607947349548339844e-01) (352, 2.18905925750732421875e-01) (353, -2.86212950944900512695e-01) (354, -3.59408617019653320312e-01) (355, 2.47162789106369018555e-01) (356, -1.28709888458251953125e+00) (357, 3.34700733423233032227e-01) (358, 1.29114806652069091797e-01) (359, -2.71641063690185546875e+00) (360, 9.61693003773689270020e-02) (0, -1.38314902782440185547e-01) (1, -1.32899656891822814941e-01) (2, 5.01823052763938903809e-02) (3, -9.98987182974815368652e-02) (4, 5.65734133124351501465e-02) (5, -1.54626458883285522461e-01) (6, 9.00427401065826416016e-02) (7, -6.44657388329505920410e-02) (8, -4.39066030085086822510e-02) (9, 6.25538546591997146606e-03) (10, -1.40697330236434936523e-01) (11, -9.30892676115036010742e-02) (12, -6.62235170602798461914e-02) (13, -1.01896692067384719849e-02) (14, -1.81787565350532531738e-01) (15, 8.14246833324432373047e-02) (16, -1.07169449329376220703e-01) (17, -1.11998833715915679932e-01) (18, -2.32618287205696105957e-01) (19, -9.41166654229164123535e-02) (20, -1.77259203046560287476e-02) (21, -7.59828835725784301758e-02) (22, -9.94218736886978149414e-02) (23, 5.92592544853687286377e-02) (24, -7.07899630069732666016e-02) (25, -3.90614829957485198975e-02) (26, -1.03832073509693145752e-01) (27, -4.59390841424465179443e-02) (28, 9.89700928330421447754e-02) (29, 1.90072134137153625488e-02) (30, 5.73181733489036560059e-02) (31, 1.52177706360816955566e-01) (32, -6.79187774658203125000e-02) (33, 3.75902876257896423340e-02) (34, 1.61229651421308517456e-02) (35, 2.71903481334447860718e-02) (36, 1.00665599107742309570e-01) (37, 9.54253226518630981445e-03) (38, 2.02831253409385681152e-01) (39, -1.26433633267879486084e-02) (40, -1.23446464538574218750e-01) (41, -5.00302761793136596680e-02) (42, 9.38791707158088684082e-02) (43, -1.06403216719627380371e-01) (44, -1.89805533736944198608e-02) (45, 4.34706062078475952148e-02) (46, -2.41824351251125335693e-02) (47, -4.06714975833892822266e-02) (48, 1.66690975427627563477e-01) (49, -1.85295104980468750000e-01) (50, -9.09384712576866149902e-02) (51, -2.03695818781852722168e-02) (52, -4.39875088632106781006e-02) (53, 3.94857302308082580566e-02) (54, -9.56296361982822418213e-03) (55, 5.67846968770027160645e-02) (56, -1.11788876354694366455e-01) (57, 1.05347096920013427734e-01) (58, 6.27005547285079956055e-02) (59, 8.16002711653709411621e-02) (60, 1.40451006591320037842e-02) (61, -4.58398908376693725586e-02) (62, 6.87796249985694885254e-02) (63, 1.29133209586143493652e-01) (64, -5.23398257791996002197e-02) (65, 9.81400981545448303223e-02) (66, -5.88297024369239807129e-02) (67, -1.27311795949935913086e-01) (68, -5.58549128472805023193e-02) (69, 1.20528206229209899902e-01) (70, 5.29839657247066497803e-02) (71, 1.02048218250274658203e-01) (72, 4.63487356901168823242e-02) (73, -2.41153955459594726562e-01) (74, 6.37968257069587707520e-02) (75, -1.06459498405456542969e-01) (76, -5.34232407808303833008e-02) (77, 2.61635687202215194702e-02) (78, 7.45741501450538635254e-02) (79, -1.05071179568767547607e-01) (80, -1.03317677974700927734e-01) (81, 7.28969881311058998108e-03) (82, -4.97470470145344734192e-03) (83, -1.11555429175496101379e-02) (84, 8.44095349311828613281e-02) (85, 7.17516317963600158691e-02) (86, -1.47775316145271062851e-03) (87, 1.86367243528366088867e-01) (88, -1.86684295535087585449e-01) (89, 1.57777946442365646362e-02) (90, 1.23238943517208099365e-01) (91, 1.24403648078441619873e-02) (92, 5.85828796029090881348e-02) (93, 2.86810696125030517578e-01) (94, 1.09921954572200775146e-01) (95, 3.99511232972145080566e-02) (96, 6.62971064448356628418e-02) (97, 2.40080226212739944458e-02) (98, -1.79891046136617660522e-02) (99, -3.30972336232662200928e-02) (100, 5.85403218865394592285e-02) (101, -1.74370091408491134644e-02) (102, 1.06171689927577972412e-01) (103, 5.68712428212165832520e-02) (104, 6.91020488739013671875e-02) (105, -1.74369402229785919189e-02) (106, 2.93521899729967117310e-02) (107, -5.69208040833473205566e-02) (108, 7.36605003476142883301e-02) (109, 2.13043838739395141602e-01) (110, 1.68536826968193054199e-01) (111, 6.16205148398876190186e-02) (112, 7.55846425890922546387e-02) (113, 1.55281916260719299316e-01) (114, -1.12799428403377532959e-01) (115, 2.77873873710632324219e-01) (116, 7.66732171177864074707e-02) (117, 1.97464916855096817017e-02) (118, -6.10306821763515472412e-02) (119, 1.30760855972766876221e-02) (120, -4.01472039520740509033e-02) (121, 1.04130879044532775879e-01) (122, -9.08599346876144409180e-02) (123, 2.36092135310173034668e-01) (124, 3.17987613379955291748e-02) (125, -1.37503460049629211426e-01) (126, 1.23562045395374298096e-01) (127, 1.69739816337823867798e-02) (128, -1.58840686082839965820e-01) (129, -1.50025347247719764709e-02) (130, 3.93097735941410064697e-02) (131, 1.22147006914019584656e-02) (132, 2.09006015211343765259e-02) (133, -7.84274749457836151123e-03) (134, -9.20018628239631652832e-02) (135, -4.84059751033782958984e-02) (136, 2.11552139371633529663e-02) (137, -7.38568082451820373535e-02) (138, -1.82196751236915588379e-01) (139, 1.50118812918663024902e-01) (140, -1.40188694000244140625e-01) (141, -1.40095427632331848145e-01) (142, 9.51417610049247741699e-02) (143, -9.65423285961151123047e-02) (144, 1.68358474969863891602e-01) (145, -1.07247471809387207031e-01) (146, -1.17437265813350677490e-01) (147, 1.77980020642280578613e-01) (148, -1.87646552920341491699e-01) (149, -3.97587940096855163574e-02) (150, 8.72340332716703414917e-03) (151, 7.28840567171573638916e-03) (152, 7.38840252161026000977e-02) (153, 2.36027240753173828125e-01) (154, -1.16240747272968292236e-01) (155, 1.38112809509038925171e-02) (156, 1.91035106778144836426e-01) (157, 3.28813344240188598633e-02) (158, -9.12021398544311523438e-02) (159, 1.42341732978820800781e-01) (160, -3.63953597843647003174e-02) (161, -9.08962488174438476562e-02) (162, 1.09248287975788116455e-01) (163, -4.46273684501647949219e-02) (164, 3.01378010772168636322e-03) (165, 5.09553216397762298584e-03) (166, -5.45271821320056915283e-02) (167, 9.02921333909034729004e-02) (168, -3.75086702406406402588e-02) (169, -1.09021723270416259766e-01) (170, 1.49635091423988342285e-01) (171, 9.85473990440368652344e-02) (172, -5.08709400892257690430e-02) (173, 9.20341536402702331543e-02) (174, -6.74793869256973266602e-02) (175, 8.36255252361297607422e-02) (176, 2.14748635888099670410e-01) (177, -5.99770899862051010132e-03) (178, -1.26606626436114311218e-02) (179, -8.88597033917903900146e-03) (180, 1.04973413050174713135e-01) (181, 9.17102172970771789551e-02) (182, 2.23830901086330413818e-02) (183, 1.32898315787315368652e-01) (184, 1.08421340584754943848e-01) (185, -2.82242819666862487793e-02) (186, 7.99192041158676147461e-02) (187, -1.26181067898869514465e-02) (188, -3.43600548803806304932e-02) (189, 1.13616630434989929199e-01) (190, 3.18299531936645507812e-02) (191, 2.01061945408582687378e-02) (192, 2.82142758369445800781e-01) (193, -6.16816803812980651855e-02) (194, 1.22042596340179443359e-01) (195, 1.55725225806236267090e-01) (196, -1.47092342376708984375e-01) (197, 1.04973897337913513184e-01) (198, 2.44435407221317291260e-02) (199, -6.94366246461868286133e-02) (200, 1.68802097439765930176e-01) (201, -1.41575530171394348145e-01) (202, -6.16251267492771148682e-02) (203, -8.40536653995513916016e-02) (204, 7.50548541545867919922e-02) (205, 4.86077219247817993164e-02) (206, -1.42764106392860412598e-01) (207, -3.12563143670558929443e-02) (208, -4.84358929097652435303e-02) (209, -9.09769982099533081055e-02) (210, 1.74042135477066040039e-01) (211, -2.12732311338186264038e-02) (212, 3.80138843320310115814e-03) (213, 1.36694067623466253281e-03) (214, -2.97953821718692779541e-02) (215, 1.19914691895246505737e-02) (216, 1.75369605422019958496e-02) (217, 1.08281314373016357422e-01) (218, -2.45252866297960281372e-02) (219, 7.18089342117309570312e-02) (220, 5.04696965217590332031e-02) (221, -1.12611189484596252441e-01) (222, 1.39612257480621337891e-01) (223, -2.14308537542819976807e-02) (224, -4.48813848197460174561e-02) (225, 1.19960933923721313477e-01) (226, 1.32431983947753906250e-01) (227, -2.22943611443042755127e-02) (228, 4.83764111995697021484e-02) (229, 6.26427587121725082397e-03) (230, 1.09072893857955932617e-01) (231, -4.19097095727920532227e-02) (232, 6.32942616939544677734e-02) (233, -6.22609071433544158936e-02) (234, -4.82367053627967834473e-02) (235, 1.20800621807575225830e-01) (236, 5.60264512896537780762e-02) (237, -2.99174082465469837189e-03) (238, -6.59004524350166320801e-02) (239, 8.38841497898101806641e-02) (240, 4.94889877736568450928e-02) (241, 6.01063854992389678955e-02) (242, 1.63041993975639343262e-01) (243, 1.40409648418426513672e-01) (244, 6.03999607264995574951e-02) (245, 1.63801927119493484497e-02) (246, -4.05106581747531890869e-02) (247, 4.77674324065446853638e-03) (248, 3.35978195071220397949e-02) (249, 1.94408949464559555054e-02) (250, -4.01903390884399414062e-02) (251, 1.46988660097122192383e-01) (252, 1.43438518047332763672e-01) (253, -2.05826340243220329285e-03) (254, 5.79141378402709960938e-02) (255, 6.81385025382041931152e-02) (256, -1.27867400646209716797e-01) (257, 1.15867465734481811523e-01) (258, 1.84625387191772460938e-02) (259, 1.74576476216316223145e-01) (260, -9.13412645459175109863e-02) (261, -4.70714196562767028809e-02) (262, 9.93093848228454589844e-03) (263, -4.35598976910114288330e-02) (264, 7.83465504646301269531e-02) (265, 3.37295055389404296875e-01) (266, -1.35391116142272949219e-01) (267, 1.04292400181293487549e-01) (268, 2.75804877281188964844e-01) (269, -1.06428489089012145996e-01) (270, 1.15650467574596405029e-01) (271, 2.41057366132736206055e-01) (272, 8.91677141189575195312e-02) (273, 9.72455739974975585938e-03) (274, 9.34090837836265563965e-02) (275, -2.43378616869449615479e-02) (276, -2.47832685708999633789e-02) (277, 1.17629341781139373779e-01) (278, 2.57607363164424896240e-02) (279, 2.40647383034229278564e-02) (280, 7.54859969019889831543e-02) (281, 4.61228303611278533936e-02) (282, -5.15384972095489501953e-02) (283, 2.15442255139350891113e-01) (284, 3.30059155821800231934e-02) (285, -1.92461926490068435669e-02) (286, 2.27821711450815200806e-02) (287, -8.02610814571380615234e-02) (288, 1.05602843686938285828e-02) (289, 5.41525036096572875977e-02) (290, 2.08407100290060043335e-02) (291, 7.24140405654907226562e-02) (292, 2.17322204262018203735e-02) (293, -1.85675397515296936035e-01) (294, 1.77669197320938110352e-01) (295, 7.50750973820686340332e-02) (296, -5.32667934894561767578e-02) (297, -1.37696722522377967834e-02) (298, 1.50780305266380310059e-02) (299, -1.11507803201675415039e-01) (300, 3.16677317023277282715e-02) (301, 4.60070580244064331055e-01) (302, -1.06372870504856109619e-01) (303, 1.98560342192649841309e-01) (304, 3.81478160619735717773e-01) (305, -1.66998073458671569824e-01) (306, -3.61777134239673614502e-02) (307, 2.31375202536582946777e-01) (308, -3.60616773366928100586e-01) (309, 1.79904580116271972656e-01) (310, 2.20081031322479248047e-01) (311, -2.83178597688674926758e-01) (312, 5.80232739448547363281e-02) (313, 9.27913039922714233398e-02) (314, 1.38154439628124237061e-03) (315, -1.81938067078590393066e-01) (316, 5.64808487892150878906e-01) (317, -2.50544473528861999512e-02) (318, -1.76104262471199035645e-01) (319, 8.45188051462173461914e-02) (320, -2.63474062085151672363e-02) (321, -2.47443869709968566895e-01) (322, 1.67241632938385009766e-01) (323, 1.21594712138175964355e-01) (324, -2.21305619925260543823e-02) (325, -1.04785412549972534180e-02) (326, -7.41725116968154907227e-02) (327, 7.27207884192466735840e-02) (328, -1.36606082320213317871e-01) (329, -1.56263470649719238281e-01) (330, 4.54989820718765258789e-01) (331, 1.12141951918601989746e-01) (332, -3.99370253086090087891e-01) (333, 6.05827689170837402344e-01) (334, 1.03657297790050506592e-01) (335, -4.32377278804779052734e-01) (336, 2.82990962266921997070e-01) (337, 9.42659378051757812500e-02) (338, -7.32653558254241943359e-01) (339, 1.70441582798957824707e-01) (340, -6.09007366001605987549e-02) (341, -6.67787253856658935547e-01) (342, -7.47177749872207641602e-02) (343, 5.04162833094596862793e-02) (344, -2.74967610836029052734e-01) (345, -4.02727842330932617188e-01) (346, -1.50535851716995239258e-01) (347, 1.13019682466983795166e-01) (348, -7.28842079639434814453e-01) (349, -4.76696388795971870422e-03) (350, 4.89078581333160400391e-01) (351, -8.24105024337768554688e-01) (352, 1.97984986007213592529e-02) (353, 6.27623125910758972168e-02) (354, -4.99694198369979858398e-01) (355, 2.00944632291793823242e-01) (356, -1.12606942653656005859e+00) (357, 4.35332447290420532227e-01) (358, 8.69214385747909545898e-02) (359, -3.04336667060852050781e+00) (360, 5.34935772418975830078e-01) (0, 7.98074603080749511719e-02) (1, -1.64034068584442138672e-01) (2, -3.44888158142566680908e-02) (3, 2.76776440441608428955e-02) (4, 5.09908869862556457520e-02) (5, -2.25873038172721862793e-01) (6, 1.50758266448974609375e-01) (7, -6.59643188118934631348e-02) (8, -1.79760292172431945801e-01) (9, 3.83036443963646888733e-03) (10, -1.67607635259628295898e-01) (11, -6.42010718584060668945e-02) (12, -1.04982927441596984863e-01) (13, -8.62096548080444335938e-02) (14, -9.06432941555976867676e-02) (15, -3.56103964149951934814e-02) (16, -9.11926850676536560059e-02) (17, -1.29695460200309753418e-01) (18, -2.13751390576362609863e-01) (19, -1.56344965100288391113e-01) (20, 3.58318686485290527344e-02) (21, -8.50635766983032226562e-02) (22, -1.12592943012714385986e-01) (23, -1.89632840920239686966e-03) (24, -2.45825275778770446777e-02) (25, -1.42049521207809448242e-01) (26, -5.86992427706718444824e-02) (27, -3.43579873442649841309e-02) (28, -2.88617815822362899780e-02) (29, 1.41983507201075553894e-02) (30, 8.00755620002746582031e-02) (31, -7.16974725946784019470e-03) (32, 6.72302171587944030762e-02) (33, 1.00295748561620712280e-02) (34, -2.13976465165615081787e-02) (35, -3.31878731958568096161e-03) (36, 2.59028095752000808716e-02) (37, 5.29650673270225524902e-02) (38, 2.22321748733520507812e-02) (39, -1.36219877749681472778e-02) (40, -6.41788020730018615723e-02) (41, -1.84900558087974786758e-03) (42, 1.13458089530467987061e-01) (43, -6.28075674176216125488e-02) (44, 2.20915656536817550659e-02) (45, 1.68687120079994201660e-01) (46, -8.68637561798095703125e-02) (47, -1.44321575760841369629e-01) (48, 7.80542418360710144043e-02) (49, -2.86705922335386276245e-02) (50, -1.49528281763195991516e-02) (51, 1.47352412343025207520e-01) (52, -1.24367296695709228516e-01) (53, -4.27751243114471435547e-02) (54, 1.01363644003868103027e-01) (55, 3.39970141649246215820e-02) (56, 4.13147825747728347778e-03) (57, 4.73461113870143890381e-02) (58, 5.48869781196117401123e-02) (59, 1.46597996354103088379e-01) (60, -3.00578046590089797974e-02) (61, -2.36609876155853271484e-02) (62, 6.05078004300594329834e-02) (63, 2.39304993301630020142e-02) (64, -7.75301083922386169434e-02) (65, -6.99757039546966552734e-02) (66, 1.51055483147501945496e-02) (67, -2.19520740211009979248e-02) (68, 5.31738139688968658447e-02) (69, 3.63004617393016815186e-02) (70, -3.86515893042087554932e-02) (71, 7.89260938763618469238e-02) (72, 2.95338667929172515869e-02) (73, -7.55306184291839599609e-02) (74, -1.21068172156810760498e-01) (75, -8.99063795804977416992e-02) (76, 4.40760701894760131836e-02) (77, -3.16159166395664215088e-02) (78, -3.19212451577186584473e-02) (79, -8.00539925694465637207e-02) (80, -5.21633327007293701172e-02) (81, 1.71057149767875671387e-01) (82, -6.58017001114785671234e-04) (83, -6.94031491875648498535e-02) (84, -4.47301901876926422119e-02) (85, -1.11093828454613685608e-02) (86, 6.30719587206840515137e-02) (87, 1.48304924368858337402e-01) (88, -1.38661012053489685059e-01) (89, 1.29945846274495124817e-02) (90, 1.38098120689392089844e-01) (91, 3.38514707982540130615e-02) (92, 2.53361649811267852783e-02) (93, 2.61090964078903198242e-01) (94, 1.86707928776741027832e-01) (95, -4.90040443837642669678e-02) (96, 7.38881081342697143555e-02) (97, -1.11129945144057273865e-02) (98, -2.91723012924194335938e-02) (99, 5.57329133152961730957e-02) (100, 1.22264102101325988770e-01) (101, -1.57066300511360168457e-01) (102, -3.91452088952064514160e-02) (103, 3.47968190908432006836e-02) (104, 3.68960946798324584961e-02) (105, -1.40306308865547180176e-01) (106, -2.51858904957771301270e-02) (107, -3.93961966037750244141e-02) (108, 8.47539752721786499023e-02) (109, 3.58228199183940887451e-02) (110, 1.53447091579437255859e-01) (111, -7.20110982656478881836e-02) (112, 2.59050857275724411011e-02) (113, 8.44127982854843139648e-02) (114, -8.89744758605957031250e-02) (115, 1.25270783901214599609e-01) (116, 7.37192556262016296387e-02) (117, -9.64306369423866271973e-02) (118, -2.29594096541404724121e-01) (119, 4.36208173632621765137e-02) (120, 7.15514598414301872253e-03) (121, 2.20808818936347961426e-01) (122, -7.73945301771163940430e-02) (123, 3.79995219409465789795e-02) (124, 1.36275470256805419922e-01) (125, -6.67974129319190979004e-02) (126, 3.72870191931724548340e-02) (127, 1.36812999844551086426e-01) (128, 2.73408684879541397095e-02) (129, 8.89077186584472656250e-02) (130, 3.26314829289913177490e-02) (131, 2.46494635939598083496e-02) (132, -1.41709542367607355118e-03) (133, 8.26000124216079711914e-02) (134, -8.87348949909210205078e-02) (135, -1.02880209684371948242e-01) (136, 2.43254691362380981445e-01) (137, -7.89106413722038269043e-02) (138, -1.93998903036117553711e-01) (139, 2.00016841292381286621e-01) (140, -5.37542775273323059082e-02) (141, -1.51675954461097717285e-01) (142, 2.28228643536567687988e-02) (143, 4.20633703470230102539e-02) (144, 9.68381017446517944336e-02) (145, -2.26477049291133880615e-02) (146, -5.08183278143405914307e-02) (147, 9.94018986821174621582e-02) (148, -7.79850184917449951172e-02) (149, 1.07629477977752685547e-01) (150, 1.72935202717781066895e-01) (151, -3.56496050953865051270e-02) (152, 1.18233792483806610107e-01) (153, 1.96656450629234313965e-01) (154, -8.81167724728584289551e-02) (155, 1.44756972789764404297e-01) (156, 2.51410063356161117554e-02) (157, -2.94858645647764205933e-02) (158, -4.96401414275169372559e-02) (159, 1.59406810998916625977e-01) (160, 1.01987719535827636719e-02) (161, -3.50980684161186218262e-02) (162, 1.27238571643829345703e-01) (163, 1.66572220623493194580e-02) (164, -5.43539151549339294434e-02) (165, 1.29351305076852440834e-04) (166, -3.62643115222454071045e-02) (167, 1.33405923843383789062e-02) (168, -5.77948726713657379150e-02) (169, -8.86496230959892272949e-02) (170, 7.31414631009101867676e-02) (171, 1.22239276766777038574e-01) (172, -1.64784863591194152832e-02) (173, 7.61433616280555725098e-02) (174, 8.27243328094482421875e-02) (175, 6.88735991716384887695e-02) (176, 2.38619342446327209473e-01) (177, -1.18029117584228515625e-02) (178, 1.42253801226615905762e-01) (179, 1.22585982084274291992e-01) (180, 3.68221588432788848877e-02) (181, 2.19820350408554077148e-01) (182, -7.81486555933952331543e-02) (183, 8.12685042619705200195e-02) (184, 4.00304272770881652832e-02) (185, 6.04080036282539367676e-02) (186, 1.68684020638465881348e-01) (187, -1.03546064347028732300e-02) (188, -5.92379504814743995667e-03) (189, 3.11444364488124847412e-02) (190, 5.88704831898212432861e-02) (191, 1.10188752412796020508e-01) (192, 2.23912119865417480469e-01) (193, -1.23142413794994354248e-02) (194, 6.67016580700874328613e-02) (195, 4.50922846794128417969e-02) (196, -9.13306176662445068359e-02) (197, 7.99617245793342590332e-02) (198, 4.55027893185615539551e-02) (199, -4.55926991999149322510e-02) (200, 1.60024791955947875977e-01) (201, -7.73164629936218261719e-03) (202, -3.84518951177597045898e-02) (203, -7.16866329312324523926e-02) (204, -3.84974107146263122559e-02) (205, 2.87230890244245529175e-02) (206, 2.70327571779489517212e-02) (207, -1.10754773020744323730e-01) (208, -2.18130517750978469849e-02) (209, -8.98462440818548202515e-03) (210, 2.15551808476448059082e-01) (211, -4.43977825343608856201e-02) (212, -1.18787437677383422852e-02) (213, -5.84866777062416076660e-02) (214, -5.35068921744823455811e-02) (215, -1.04102164506912231445e-01) (216, 3.47326882183551788330e-02) (217, 1.05925975367426872253e-02) (218, 4.72693750634789466858e-03) (219, 6.69698715209960937500e-02) (220, 7.73347392678260803223e-02) (221, -1.10799983143806457520e-01) (222, 9.78679163381457328796e-04) (223, -2.93693342246115207672e-03) (224, -5.72422184050083160400e-02) (225, 1.02686807513236999512e-01) (226, 6.95311874151229858398e-02) (227, -4.06843498349189758301e-02) (228, 1.79308325052261352539e-01) (229, -9.30344592779874801636e-03) (230, 6.53279721736907958984e-02) (231, 7.19038248062133789062e-02) (232, 1.94843009114265441895e-01) (233, -8.07607471942901611328e-02) (234, 5.53375259041786193848e-02) (235, 1.20191136375069618225e-03) (236, 2.51301079988479614258e-02) (237, 5.56859597563743591309e-02) (238, -4.25656996667385101318e-02) (239, 6.11546859145164489746e-02) (240, -2.31387671083211898804e-02) (241, -5.87639771401882171631e-02) (242, 1.07919104397296905518e-01) (243, 2.26218998432159423828e-01) (244, 7.24347457289695739746e-02) (245, -7.34019875526428222656e-02) (246, -7.43982940912246704102e-02) (247, -1.02137951180338859558e-02) (248, 1.64834794122725725174e-03) (249, 6.53210934251546859741e-03) (250, -2.19401307404041290283e-02) (251, 1.13731034100055694580e-01) (252, 1.23443759977817535400e-01) (253, -1.06517024338245391846e-01) (254, 2.00809270143508911133e-01) (255, 4.32806871831417083740e-02) (256, -1.03617422282695770264e-02) (257, -2.30253022164106369019e-02) (258, -2.12904848158359527588e-02) (259, 1.76571279764175415039e-01) (260, -7.71014243364334106445e-02) (261, 7.62811601161956787109e-02) (262, -4.35490533709526062012e-02) (263, -1.27055525779724121094e-01) (264, 1.64298176765441894531e-01) (265, 1.42361357808113098145e-01) (266, -1.89312130212783813477e-01) (267, 1.57592967152595520020e-01) (268, 1.73456162214279174805e-01) (269, -1.57020501792430877686e-02) (270, -2.97300294041633605957e-02) (271, 3.05459886789321899414e-01) (272, 1.52306747622787952423e-03) (273, 4.14853021502494812012e-02) (274, 1.42085969448089599609e-01) (275, 5.52155412733554840088e-02) (276, 1.28693729639053344727e-01) (277, 2.13939443230628967285e-01) (278, 8.33129212260246276855e-02) (279, -4.00798618793487548828e-02) (280, 2.12102830410003662109e-01) (281, -9.79440957307815551758e-02) (282, -1.41348317265510559082e-01) (283, 1.63287863135337829590e-01) (284, -3.66734042763710021973e-02) (285, 4.88152317702770233154e-02) (286, -1.56451892107725143433e-02) (287, 